input_to_hidden1:
0.9934158870448034,0.9983705570783518,0.9961608230118608,1.0051086097630744,0.9999039475946873,0.9946114002981009,0.995784404935174,1.0009761800643584,1.0022480671801766,0.9982695005515116,1.0047663614377507,0.9928127470961124,0.9969327905212839,1.009647180056156,0.9998653127497381,1.0043240859958371,0.9999149804725705,0.9945639217482946,0.9943864885997925,0.9969471087669837,0.9999860185824142,1.002013363659238,0.9945196391240131,1.0008578966560293,1.0026847126706857,0.9913692278447642,0.9901206997926633,0.9964588153860258,0.9990838406134143,1.0055988174110648,1.0055379994141258,0.9982982393742992,0.9994041206850562,1.0023246837703843,1.0012326969059275,1.0023572277846196,1.0002620704481526,0.9948035780772534,1.0006139425464402,1.0087290701105875,0.9933252072719148,0.9910452211879385,0.994210542385682,1.0,0.9942855642431417,0.9966467776750001,0.9998932537920928,0.9996613636432262,1.0035411000270662,0.9966192001676316,1.0029192658981907,0.9941686840672872,0.9960062943114103,1.0029616062320517,1.0017041106526239,0.9998043043086007,1.0009218826927035,1.003465737565557,1.0028497081496335,1.0004917342693755,1.0032147870063828,0.9935447261828593,0.9973948107961357,0.996375510979903
0.27532521576628843,-0.625035568541623,-1.034993744531129,0.003223672743418232,0.5662428484774388,0.3308632764869919,-0.14402191467349407,0.28127527688817705,-0.3592254473287057,0.23155784297915885,-0.1669840956410933,-0.09304737426034511,-0.5870149436904937,0.002925171876544514,0.2069314738507904,1.590234400662469,-0.10592159039935392,0.35731265980424004,0.1382312242613195,0.1130277075669582,-0.26471121902197703,0.03563213868776331,-0.1763595480895769,-0.003145356201119481,0.1977081307265862,0.3652886854147968,-0.5263359064065078,0.7099500726273122,-0.4421120270872501,-0.41677168791667557,0.3653664763677527,-1.045883439624262,-0.12523507240818535,-0.789384991622861,-0.43700632881632495,0.04871532357218431,0.2590423585645074,-0.7439624936178796,0.1598750592945624,0.38992774795288737,0.09334455352313914,0.3441852790518633,-0.012078106554409631,-0.29837858173893544,0.12089926200504976,0.022688393116890877,-0.4896352791311958,-0.30581333672134775,0.6371684504205737,-0.44798547861085725,-0.09237346057824815,-0.16585786983237855,-0.04921223417304388,-0.1489609742994329,0.13333939433577333,0.46053491564239574,-0.17758588459681113,0.30351828129334524,0.3687942508304772,-1.2266911975978736,-0.10675053492612192,-0.4633960146623979,1.0558963449876189,0.37724934225027723
-0.012656255130973824,0.005330993200831147,-0.11255249063030118,0.2623312284339264,0.3935403737472216,0.7800367462149378,0.484128311539976,0.16921510841555323,-0.200352814673413,0.1877223486589509,-0.17544581819044772,0.061932848732208605,-0.13272514118915205,0.13961850435853138,-0.08393874019891866,-0.5086316692737609,0.5210219227258208,0.15596368397677648,0.8378183566069478,0.2346510748467514,-0.405685162719729,0.3929365661195682,-0.663971624513808,-0.1565532957090777,0.5168589735060394,0.35239525438651953,-0.17567590881454365,-0.056610526566992135,-0.25899624432580953,0.022470089323564806,-0.6561617510875437,0.08486336800350576,0.19528192075379486,0.26762582969869975,0.6286548314456935,-0.5600660088924226,0.3827296418722851,0.11199283494415604,0.5069274519724162,-0.2574656921399996,-0.41581176482600624,0.1933849809568314,0.8861019016764484,-0.17062631127576094,0.6368615845222381,-0.5007926745320874,-0.11239735102608242,-0.1874698334738331,-0.5831874441871685,-0.8611400193142872,0.10891100465055283,0.09185097042732014,-0.8427083169987241,-0.03773418128216856,0.08612092514931431,0.20529244329585702,-0.5476743069523405,0.3893095077581591,0.6012865253926156,0.043143111412150534,0.5145534882349645,-0.013455622657455332,-0.7013050832988241,-0.01773146869838615
0.38182761194197123,-0.2911619004466049,-0.4131925531754953,-0.18869213127357984,0.4757651772402351,-0.17302597938024092,-0.03268217633867357,0.3958824905061284,0.21573756477902636,-0.020048466980937017,-0.22758584013792468,-0.46392667705223434,-0.5742723055424876,-0.7188791314657659,0.13390110683554352,-0.30299012474840814,-0.30688531127660745,-0.3149885161423753,-0.18150378909913953,0.062192379036743614,-0.1373524892419979,-0.6741556746645667,0.12957384278992515,-1.0353699696370944,0.5163581096221402,-0.1521218804029433,-0.12726310701944663,0.6297780925010809,-0.8128230896660309,-0.15120375024910732,0.17419222105632476,-0.2834748110144797,0.0371801460495519,-0.3538290872091845,0.3674489201573878,-0.29505130341899527,0.35591789135083735,-0.40931322887118066,-0.21684434586732848,-0.29163965750791787,0.25916898170351593,-0.011297796283325695,-0.5049922472844918,-0.42918574048408786,0.7048975349379205,-0.7198762233160958,-0.26275302193081695,-0.015520143310462404,0.1655029652479003,0.2634832444757022,0.22806054917203655,-0.9538439274423255,0.01010546525468305,0.29604751740004964,-0.532100359680331,0.23297775354276104,0.8233576428483171,0.3053628829935953,0.41827643381337787,-0.299451815206903,-0.0016995628181216593,-0.3351040360390358,0.13253877792103885,-0.7358350756543519
0.20758250832399358,-0.013329934251890505,0.23181576505667428,0.18041828943074242,0.524346648285748,0.0291564035861277,-0.368465824935333,-0.3915592220089994,-0.18968420495907012,1.0089965728779595,-0.07752861487814831,-0.06950976759737233,-0.34342512685892057,0.24851014413256958,-0.38294183641894813,0.9761177812079025,-0.612617061975154,-0.36721494357998513,-0.5978951979846165,0.4453645902472638,-0.25781399043004594,1.0009724845995733,-0.4011748017330836,-0.3333176146820131,0.21957347717764097,0.3490872196707292,0.25015100634627613,-1.0944996924781867,0.030347162536538852,0.3629698536481236,-0.38042803802001973,-0.38094058589895996,0.9898070659128897,-0.269022157868089,0.2725572019338215,-0.6543562308286005,0.02119403336834911,-0.3247285261377445,0.5219015956724765,0.7023773298402465,0.08575889898192222,-0.2204384360214853,-0.5092722736913057,-0.7828780174244819,-0.6004911818954196,-0.04186778900339395,-0.8914391198868605,0.6297846292202889,0.17544270617323335,0.06992027361135607,-0.05770946902006955,0.0054224409591448666,0.32785283984637303,0.09069452218920797,0.022210569065559516,0.16904790651290488,0.19418277546716864,-0.31085032517944006,-0.76052350492963,0.18835764377112002,0.28794501646123916,-0.4461593965807915,0.33152497785738305,-0.12282977803923228
0.1317577820139931,-0.1980290143210537,-0.08430895695261321,-0.13606507701178835,0.19706076760459268,0.43309016577389053,-0.22539518932786515,-0.20416423771856324,0.03484636043168768,-0.3424706648097509,-0.08028545671683261,0.5169862211491217,0.5725459080624321,-0.01988057510083914,-0.9172582228730164,-0.3174273413712356,0.5465370880383845,-0.6460494495708288,-0.25547519847257577,-0.26329291763698004,-0.35904703865275345,-0.08623331062858401,0.7919693645214939,-0.46656247356886005,-0.12057047590280949,-1.0187953277097856,-0.10275174649511969,0.6034688472843156,0.7280354023189934,0.5279255352808917,0.08480777675507697,-0.5563327977300134,-0.010018160709965149,-0.03269196248568153,0.6770089169387148,-0.3640773951665469,0.4135640858320106,-0.340808150986107,0.12103115608458449,0.30485175780667234,0.4953631559267633,0.6158282162190135,0.26801302759592327,-0.49678129516045766,-0.4472329046960857,-0.6228232772888347,-0.01530671141081287,-0.5393629395672909,-0.14505504418430018,0.2406136943088359,0.3536879932015517,0.23788005487780225,0.20426583882924562,0.6045436524606403,0.37186392029108273,-0.1806272433180989,0.7457832651926363,0.6219888676635629,-0.40068250471450195,0.08079889875611758,-0.12009624522022042,0.3303111870453501,-0.03720080338435585,0.48087261240518825
-0.23694850836928194,-0.46032822900494763,0.547823958252073,-0.35471838496657443,-0.19683116055416477,-0.4339998227117444,0.7059141311539276,1.0399417713577774,-0.7579159492192474,-0.283053287071172,0.5465590025683773,0.5439507657056498,0.15146294826136167,0.00181450583692504,-0.20745452906975725,-0.7448383500972305,0.25560844031189317,0.5553385516010639,-0.9655242132562651,-0.12209591396454383,0.1001711619208618,-0.6667029992768909,0.3082964974658986,0.12765627132967836,-0.2652439416999423,-0.4508829716721107,-0.22315890028312926,0.25216642191981486,0.2479921338868221,-0.6552108041891921,0.1971717507594897,0.022226690323032604,-0.388802645642329,0.1453218453749874,-0.11473088703059989,0.3194832548512971,-1.0223869090582003,0.19310536056744634,0.5926419138348775,0.4147328656892196,0.5226855352047347,-0.8156728316801856,0.19695283677690245,-0.023770564486897884,-0.35270933801198306,-0.11043274497288501,0.16678897479138236,0.305218670979365,-0.48513949034297105,0.26222189620918707,0.5886267890335108,-0.550336354475221,-0.4819917494671069,0.39533829626910155,-1.2206892875269797,0.6583810183069989,-0.21980513818065328,0.8488139309887954,0.05209880198300305,0.1476527675851499,0.870624151583737,-0.057038381092256875,0.5237982399592311,0.05805997148377748
0.08872442640672534,-0.6194271497451463,-0.3911236844724865,-0.22964629292449026,0.011772806633334377,-0.049436381768568606,-0.4404287288889196,0.0816970113642986,0.09562681087800967,0.43666106088703743,-0.09113059650901008,-0.300301324945543,-0.8812032246081056,0.39555357930169155,-0.46025259580862504,0.35125528923468713,0.6388763950675872,-0.6956383644277511,0.018560594206172575,-0.12703650546870426,0.10035279892219914,-0.3407818149686238,0.6392874951381172,0.20260046598788242,-0.3373379487565058,-0.33905333760255174,-0.5573760356216971,0.20245366079377253,0.2009325807115805,-0.0033974759812497703,0.0345292738873171,0.03258594756406931,-0.14019735127546193,0.19766215187365488,-0.2423939066565433,0.14195918873494542,0.266869708802302,0.5119101640638758,0.13533423485155263,-0.05565134377610737,0.49012677617738143,-0.014797695910132237,0.00740310726207268,-0.4464393661494753,-0.2256070031737639,0.09270039820230183,-0.1183781681714667,-0.15965067069947061,-0.20432629673244856,0.2752558626496611,-0.04488495970355457,0.12119886373565335,0.26417022359236003,0.021482968953600225,0.08668263178956989,0.987668485682249,-0.20538978118314555,-0.33553086447687824,0.048676298915876826,0.10793353153122635,-0.5179002636432332,-0.08800945096480955,0.20266349593675279,0.5091322056224585
0.5224196812245456,0.14231095086576834,-0.34439842116774694,0.2131754501637256,0.20911650253336805,0.1617862585360745,-0.5170666981781492,-0.10729088968925725,-0.17890261156585965,0.38085439332882864,0.3916346374456434,0.6668740657536546,-0.9564993816972173,-0.5703011683603444,-0.09538340852993814,-0.41021714450630214,0.0611064343326901,-0.38792005767990656,0.29815366137022375,-0.08086654180844165,-0.007070600111583917,-0.11836402897944931,-0.7298775278311449,0.3675577781960441,-0.14466354797157197,0.6556192706831122,0.11160023743184892,0.4343302155838969,0.3665961982655452,0.20230748914431745,0.24780173454345086,-0.47574231868686523,0.04479931633998442,0.5204514564852389,0.20855553339192506,0.18087730293861326,-0.11029981378483186,0.10471772531381518,-0.39289690904301167,-0.43566490558358023,-0.3249803985569246,0.3385860160716301,0.655765123601155,-0.1350914380984645,-0.013639121312669651,0.6433947291639968,-0.4851537600466405,0.10634057707377718,-0.5335244377465556,0.42808340837869724,0.5569805465011447,-0.06666341997034772,-0.09317621168792674,0.18112609367926055,-0.4273634632268924,-0.16669212687905943,0.1973204844088073,-0.274498046349817,0.07222276825853068,0.03833292403966781,-0.5569714146762019,-0.03501803191502587,0.6601871154100566,0.5477530276999971
-0.2837578222882274,-0.5887583342647997,-0.06641872863518095,0.2788287166473651,-0.24159683303649676,0.0392083030506716,0.03948998538786068,1.0568842988664835,0.07414969916607242,-0.11231689393886887,0.3515205752752437,0.7374236043356621,-0.4055560037665997,0.3608270805193793,0.053864368923325766,-0.5564883331200685,0.7047762828111418,0.312312929387242,0.18006519537521568,-0.31474721256655663,-0.13690880890587784,0.0031692294962086588,0.5260786552156482,-0.22495688767805427,0.5587217025451472,-0.7287903362840413,-0.30031482583706237,-1.1189537461026244,0.07748990497002112,0.21525492600568982,0.6037319465530697,0.11742473217843322,-0.15262909601603644,-0.5848192911492881,-0.0379730953890482,0.3412956238395502,-0.24893762356531876,-0.59529807025154,-0.1915607271065471,-0.6505703310815947,0.19120885774882843,-0.018587116112689376,-0.7309379729411126,-0.0750980882582768,0.05734319270675635,-0.6467509314720161,0.22867258446276106,-0.6316272625655328,-0.0355475225737213,-0.4506461064034548,0.1559926113859189,-0.2509867437751854,-0.44495472729843233,-0.13621480668611063,-0.0202079639631838,0.7127483312413517,0.7404382160182125,-0.5622754368559876,0.37064221016349413,0.05037433906360817,0.03536866307142244,-0.3859749622518203,0.056860571499134975,-0.3555910691327906
0.05385963133316078,0.2841191094613189,-0.4228288451250125,0.7520420186490732,-0.7283005662483465,-0.15936065301754668,0.12448445769095451,-0.11568382663502295,0.024684642549793273,0.2844048213789655,0.564490939461998,-0.004196018550416802,-0.8515515621443429,0.21565788954069226,0.13971950903340374,-0.994399382741817,-0.9728202826158077,-0.15096194731126286,-0.12701418779123005,-0.5962296280904612,-0.4590066964462557,-1.001310712366239,0.1441960494313057,-0.11950153362859693,0.14969143846086844,-0.3354038301493435,-0.5844577610728408,-0.12479566209612926,-0.1789752496889962,0.10763241257153261,0.01898939948118232,0.03518267990020104,0.12102620184825959,0.2268645937631892,0.13685248618485535,0.046227017888028875,-0.3710010009321775,0.23129690366709138,-0.6763320457098249,-0.34237162075821087,0.41377595512137627,-0.1925621316676512,-0.5572162624076187,-0.1053634966218184,-0.33382353626744965,-0.6814274782128144,-0.04372959639132947,-0.39612530929263046,0.17179614420148406,-0.1484073644710584,0.7886303338920402,0.15318688146187762,0.1639933390536334,-0.22809056694563143,-0.15886310100951312,-0.06061262917691419,-0.11089643884482099,0.11951519302224338,0.6122748136158308,0.5674167775187188,0.6735441431732133,-0.29925057936140764,-0.3905385323380367,0.6227101471420421
0.28481241452735495,-0.7009199573264241,0.1585211401349669,-0.26069829612011153,-0.0704962884904261,-0.3656919100539665,-0.3605584740466211,0.4879568564220968,0.5632042894238284,0.01732905955765308,-0.019608023021016423,-1.0620845469384879,-0.017568593846517565,0.5321283003818391,0.28819446512631486,-0.817159039061829,0.28197521032129713,-0.9151213309415726,0.16987985217231377,0.39251143017455936,-0.23041593513515524,-0.8040011817869693,0.35089522722987754,-0.45565319781670566,0.29561723057252187,0.01582954336428452,0.07719730641382183,0.5176351893478295,0.10837342598721122,0.010795639118634275,0.08885456372071238,-0.07616755121791376,0.3135928915158434,-0.8430102613397565,-0.17701785316497537,0.008884452432882266,-0.26002781447205225,-0.21385235620526521,-0.00953500066055896,0.08483336451752405,0.3766346518163603,-0.07730873243310743,-0.9904881818788408,-0.4290755294031344,0.24496032569960666,-0.8732632589613848,-0.0250875973121457,0.2573021690765092,-0.5367550265030149,0.4146847275614972,-0.32767738604082314,-0.4277209369805854,0.7311341294150793,0.12160544249530113,0.2441540240823494,0.44939775347338395,-0.44957174582435555,0.42409646476361945,-0.3574053341116161,0.28945432755629996,0.15830904220471712,0.1724842114269066,0.008849847612901758,-0.2702551178338518
0.7758967736655619,-0.40933802435438776,-0.2789873579910668,-0.1869490237405323,0.0684991616444617,-0.22460737308184617,0.2540319322185281,0.021603068056241913,0.08234330921276807,-0.11799905847235848,0.9277428761168326,0.4504588525326726,-0.23115029474529336,-0.41458812509081694,-0.4255788257645169,-0.203773724186998,-0.1417644512388674,0.08769831732767545,0.49237333365987695,0.7347853481270421,-0.6231749795048709,-0.09062292362183035,0.2527033692323798,0.22145636787349413,0.05620238957353289,-0.24882776480010643,0.09018871011642023,-0.511773776914115,-0.28628230552008577,-0.0464159006068716,0.21007351928674403,0.08389390278846008,-0.1824226786344535,0.3264947685748129,-0.41836342150277955,-0.3915147402389774,-0.7407389416954939,0.09396868541873062,-0.32635413998568935,0.5137420655559505,0.981109960073338,0.26612894525378133,-0.7011594535687018,-0.2221433930028725,-0.3775435672975122,0.3437540253712903,-0.37410134023357766,-0.25627233551164913,-0.3517547097797925,0.06424073614845438,0.35418629005697877,0.34394215721051763,-0.0474723696057792,0.13486597197579264,0.624027063144568,0.5238408508159319,0.3447658833165728,0.29263091473278074,-0.41063526466343964,0.8456212060083034,-0.3948900320638499,-0.5114464003030833,0.19608785088875513,0.024914822630364455

hidden1_to_hidden2:
1.0035763594564029,0.9956395502279536,0.9981778817925694,0.9998000456682344,1.0,0.9957992877723189,1.0044541656595702,1.0,0.991936007126544,1.0015854594835085,1.0,1.0095358856996783,0.9968566022055467,1.005346157371744,1.0,0.999902470888472,0.9981672376279043,1.0,0.993839396930059,0.9982260259195035,0.994363377528554,0.9966355043504002,0.9976158797786175,0.9997908063764627,1.0,1.0,0.9897550658662214,1.0088968161413676,1.0027643358297391,1.0094571369602423,1.0012114121286042,0.9991610686079334
-0.17790159019720278,0.23382743964118333,0.052513018523903825,0.41926246533947314,0.371000175233659,0.08282249389347407,0.055951992510186815,0.23299094047987798,-0.020179007363510443,-0.009390561731402736,-0.05928103648295942,-0.18934533357190342,-0.052325616985227016,-0.26975668512849277,0.07349795310523839,-0.2670717844795077,0.2387767458142387,-0.3159968430894561,-0.2341916012904863,-0.2558238508794677,0.06328997611292272,0.019256897810880372,0.18395800922067354,0.08016318352699534,-0.21879812267909127,0.2920580849183098,0.0968645029183082,-0.10128720539780008,-0.04780117145224107,0.05584467149822524,-0.12079384087192539,-0.2005092249138911
-0.036485502514540136,-0.1656901473794503,-0.19808593363846685,-0.13591231548473143,-0.21645612114612678,-0.04984057291176332,-0.13788785022417055,-0.1013067134817961,-0.04448545329647516,0.2903498903977267,0.35363098390964487,0.05583902827626832,-0.09144879874681644,0.23179556951860153,0.021338013659734506,-0.2737084470845285,-0.3733083545643911,0.21419480631770688,-0.25544500044985674,0.08335025846154685,-0.292006172604283,0.012801062896756588,0.17490137318131244,0.11805386631032995,0.17766165265808323,-0.1709902622913233,0.09216951596023616,-0.23609508819502348,-0.07492145083935821,-0.000491255940369645,0.33277814243372406,0.08440061658647
0.07794255097646181,-0.0038930188356141506,0.14733658181077458,-0.0346319641542585,0.2875871975729989,-0.19145233263759892,-0.06541741749201771,0.3355159794835346,-0.024944608990533697,-0.30646369177211186,-0.1996675757577764,0.020804859002369787,0.16248410082892667,-0.3729662180745476,-0.21573507667282518,0.012610268161288837,0.016596837853110485,0.0722172453465328,-0.15126117804318134,0.05055709764055844,-0.0250011170548417,0.03398128112669166,0.048404295026931804,0.2005447171725609,0.0673429522752222,0.05156425247554452,0.20319234581677056,0.03505960940150045,-0.3439171415548074,-0.13360128110413758,-0.23284096179162003,-0.27674770453844594
-0.18900928740594178,-0.12185352918597388,-0.017512322694625507,0.21704917386955958,0.0614407845760696,-0.023021053702291693,0.16977959023985967,-0.03514655928794648,-0.023000484634578582,-0.2061801009105318,-0.09888831870359148,0.1693298008755444,0.07247383213007338,0.11836884968079575,0.03775899794328553,0.07402203478307356,-0.15304430461233212,-0.38948215220415455,-0.16761019360195858,-0.14989616931259728,-0.0724999882803432,0.015310927374322157,0.10847274396633348,-0.21799693039905457,0.03016750898014258,-0.04417042306988024,0.03899109342149407,0.2084170183996487,0.13159045776476852,-0.04345429074570136,-0.04340064636177549,0.18494796797183366
-0.007946867336752579,0.12869440314702005,0.31580337149862786,-0.08673564179838014,0.1649303555307862,-0.12525475483569945,-0.04846556124203645,-0.1771545784839835,0.40244881134346683,-0.022939908039104603,0.053870945001229006,0.14928298263993,0.14124517395003078,0.3264187928018857,0.09279840448231595,0.18011539168810112,0.034101594513881894,-0.01735838908882872,0.11366153059616467,-0.38585091669441934,0.06421233619293555,0.006851916787074054,-0.029704389205188763,0.07039138167021099,0.1218181576479669,-0.29698207997376214,0.047620418797985745,0.06699091281978858,0.0643226999588074,0.20102696030143744,0.1752880480274709,-0.11663693695509605
-0.11881823732581591,-0.14785535180006157,0.13348355272002138,0.1267870693003414,-0.3252506957689341,0.07480986989224639,-0.05426413077719986,-0.14182289436427242,0.15000856464764184,0.1255762575264048,-0.1264669730159414,-0.05056280783339869,0.12766678318590113,-0.1449430371943877,0.046237633768080405,-0.0861866132165718,-0.05121353290688372,0.22916095850210114,-0.024816653654977275,0.01994905410767833,-0.38181872610971845,0.07901616176052528,0.33403150962111006,-0.04122270989895596,0.2675662196681553,-0.03462222161711062,0.09996580086514663,0.08202146143148012,-0.05284699495337183,-0.23704299114735555,-0.07438558442227208,0.20970948414786933
0.3065845016427088,0.19532655169343233,-0.16254011584948522,-0.3895039678080529,-0.0174528508053947,-0.02531947415793634,-0.22460015856180107,0.08373948155683562,-0.3200509600933951,-0.3212673545825761,0.28800318380867707,0.01741502204449086,0.02787428849844069,-0.3221066640996782,-0.3052828674564019,0.12907126625103588,0.0989401330497237,-0.03730577121379374,-0.042316528502138996,-0.07843057382508947,0.23621308644204264,-0.00713329602451886,0.4411814410665452,-0.08035893318304545,0.18326345774476208,0.3089412699315911,-0.23900734106298407,-0.37072183752684457,0.023773482308158022,-0.1282159014172894,0.03274405551696784,-0.004659042743400493
-0.055151538607369946,0.1800443785649707,-0.045860973161703955,-0.04548279018773539,-0.08476577609812723,-0.12574528176815736,-0.06214734710367118,0.1822237242354838,0.09196296877675905,0.037962886918634434,-0.1348819737787362,0.3553764061980243,-0.08376168927210745,0.027320201085183345,-0.021877702424334376,0.08958312362799055,0.40225645481597905,0.12139312698112886,-0.1726604180742,0.19382990882433204,0.008850248094296043,0.28481798171005673,0.07867965325739573,0.2864111966898607,-0.10864923839452391,0.10916137747147314,0.12132359953591199,0.4109877844443412,0.10126633367338822,-0.21391804636509643,-0.03747200435272708,-0.168300480842209
-0.15558266570199986,-0.08806676213214272,0.10714155387530883,0.014526335291569397,-0.09852861593708745,-0.22768395465562147,-0.0650256051536688,-0.031582345441449236,-0.5410613104651485,-0.03879638726132634,-0.19915332634793864,-0.2023779747580765,-0.11708388158675842,0.10956995877085558,0.1961593652258593,-0.020239679290337088,-0.05464278622585474,-0.11569051987404329,-0.25096750616983593,-0.03922371843986866,-0.35035059070582747,0.008427197477995314,0.10699496424956834,-0.09442374300427843,-0.06900106320849918,-0.047072280411794606,0.1098535857597747,-0.022283423349953802,0.0576086567697487,-0.24607682891360497,-0.05127506333816138,-0.030284651086834605
0.20591702226769323,-0.01963983426285628,-0.02726045776419053,-0.021414811368934746,-0.019374051288330627,-0.026657120945121307,0.16177146054794658,-0.3984630530679947,0.06358439225429052,-0.1065009983190221,0.023412704304939854,-0.07726764956554018,0.1175023545290268,-0.044085444226745665,-0.040578590601398415,-0.2847855661629721,-0.08805782483237629,0.08384695024304034,0.3683259196661911,0.03926059114673288,0.04269094082145622,0.20130739518540092,0.08473907342521554,0.008732384385361888,-0.12785553665027477,0.0485599984510496,-0.2424538184901968,0.0909948703917964,0.08631693513181062,-0.08467027666939683,-0.21338531566050747,-0.21443655926349411
-0.06762105741571757,-0.14831531094038422,-0.21797184170997286,0.04716296459271456,0.025123358552802635,-0.03157843324949126,-0.1191008184673857,-0.3866833313398701,0.009068210361596496,0.5762284750724287,-0.06562027075704502,-0.20070335035600717,-0.23698236737697348,0.29154317206348795,-0.45371183827464967,0.3302181703240565,0.0009968358291413488,0.004504913109722863,0.10780878939068823,-0.016661613188358553,-0.08347495359870252,-0.006483299615777145,-0.22460090944288638,0.07605093786659142,0.08377571368008366,-0.07380065681453321,-0.3550109772736299,0.13072944909130393,0.02050156729140035,-0.15542492206948041,0.12716667704009355,-0.012196859254640728
-0.19271343255764803,-0.05408517307972723,-0.13934793623253666,0.00868837802530443,-0.023869719600214084,0.07385747844914292,-0.1410831516108042,0.07964229687555108,-0.028809113568629287,0.0962277598717113,0.13555903464095825,0.04575936761719724,0.08683333040511254,0.14544604063754027,-0.022191288359519286,-0.1495866501273246,-0.018536614517991355,-0.18862556975600883,-0.012812210358640308,-0.11643483992491355,0.17879831395047555,-0.14846024325666426,-0.20415589833255768,0.07169142784935098,-0.139852175052934,-0.10833280047046369,0.18866525073060816,0.02084490269105447,-0.45373666633964815,-0.40957736929336347,-0.257349807770314,-0.24236755304468632
0.248150063581156,0.167821774989569,-0.24320577079820058,-0.03976299323532982,-0.07108696858364812,-0.16115287020973745,-0.11059111384821531,-0.21207190442911417,0.2779437324580249,0.17196392009545358,0.1540236118845988,-0.09961471469094907,-0.1260272998507274,-0.12104485690719907,0.26616772847536385,0.006225960615590334,-0.1575941068107841,-0.16535858439029696,-0.07786030101027298,-0.25226473654273013,-0.032183675789627865,-0.06400719716265714,0.165959934445321,0.20046985694959646,-0.14428364152136597,0.1500697007069257,-0.2398329077124641,0.02009012199750005,0.020907303714377965,-0.25831556707646985,0.14122761124027328,-0.10787325113932118
-0.18526108699544522,-0.053776199641333886,0.08886780703340769,0.009080198772235846,-0.2177037338265671,-0.17849698030863376,-0.19458929382146814,-0.18576789474654287,-0.07829365805950524,0.11564207108974316,0.14700105376343237,0.3702334339627246,0.015354318349260388,0.1779629323600836,-0.11892519107707415,0.06340157008422757,-0.07677456290660852,0.006537561412309273,-0.08384130146379395,-0.296113550067448,0.19965893702466592,-0.09792195030229192,-0.11749047829927456,0.10171589959571653,0.04413395385855827,-0.12508390313227066,-0.2182924699377972,0.1463456726507138,-0.2375815171206077,0.24265131089730083,-0.2498843998739381,0.15311038537618266
0.06857438263364157,-0.1138814878438002,-0.07705525994118077,-0.15291706613761613,0.05277648519723308,0.04754651234544703,-0.20777737579596117,0.18975524164605387,0.0380271313524941,-0.05020108774763592,0.04774680372475322,-0.08336164028294438,0.08827358528917802,-0.11467214024684037,-0.009737721854788117,-0.23881965696658397,-0.3994785167313273,0.19768725592177303,0.24943004378459635,-0.011373538820084697,-0.223740104302907,0.0915902891882619,0.10670809762365763,-0.2796560719655691,-0.11039795255759104,-0.014941831398212294,-0.019942576424429984,-0.5134881602896328,-0.2652480095049679,0.09587573538759196,-0.05901406435447413,-0.28928603450373597
-0.33199623738666084,-0.26443363207941245,-0.047409564001836914,0.1170367237192705,-0.024336507869545335,-0.30530887661743167,-0.012673747856742676,-0.18958506477099127,-0.333299796381908,0.09225832521044693,-0.02873004597088289,-0.22059236159354037,-0.39029654764565047,0.22162077554954826,-0.23194161030397098,0.32730265501723826,-0.23800095082578976,-0.09566797339864484,-0.06281769543491827,-0.03333055885806337,-0.14291642358581672,-0.08593332463251441,-0.3121011417588422,0.21227777664449804,-0.225688861110864,0.11422374170268677,-0.12856641805792077,0.10504389367238974,0.031458429495199176,0.22072925835015186,-0.060972769726721894,0.15889717787903165
0.3108583191584432,-0.17576038979492165,0.28723047352601444,0.09524988126686836,-0.023023744576461797,0.20163456897352977,0.09283378761830316,-0.22170314675531316,0.060113904557637675,-0.49018183612386185,0.34721711228576646,-0.10263600193605778,0.08879763431141442,0.005015258825703945,-0.11727694814304797,-0.08341705126564171,0.22553713032039222,0.14465777845824873,-0.02653865781301059,0.38875211494771067,-0.04520479691589287,0.11355001672790277,-0.020579002093833232,-0.09113720582358315,-0.07685208731585977,0.04091047345799744,0.025752229439954567,0.11292196265805277,0.08203291911445953,0.23645395218944917,0.010462200981636149,0.14493954738781908
0.007666024643136919,-0.15708379884351448,0.17026547193723074,-0.2619541682055549,-0.020922734517810355,0.15923793669976816,0.22892482297475095,-0.3537432970525875,0.09517395659646789,0.33637313189556756,0.1841405242997142,-0.23359544844368496,0.07969611068988143,0.3039750300729622,-0.11833445375912441,-0.05963659120053623,0.05326961920636664,-0.12145990264158885,0.013441721065058733,0.10307970755799255,0.5839462486531969,0.21586141433076805,-0.28361757151423156,-0.13255132589566587,-0.023332981202469922,0.262011375206808,-0.0662404154341729,-0.08843173053160283,-0.024259757231460982,-0.4622397815786091,-0.05313550920898167,-0.0019590765537924855
0.15379979178927516,-0.11414517014983507,0.03354848260352962,0.035499101476603824,-0.16750187378627843,0.00046993673910245833,-0.07763361767752107,0.20757410268684978,0.21264352881976803,0.10149072504187068,-0.34775113568780297,-0.2774776155171762,0.21978718337327566,-0.038699876493608135,0.06425769026556176,0.27619689300113154,0.012084004314879774,-0.27327124548510484,0.04362536872530449,-0.15322738346579554,-0.046599435412880905,0.10917824833193393,0.03365505720356037,-0.02340768722896813,-0.15080244160941528,-0.00427086527907149,0.12613952444349336,-0.013045302883605083,0.014172572302586794,0.0938314067662339,0.17750683529705488,0.27563048396980866
0.09744113517655366,0.22472311317755564,-0.03493292120713528,-0.049624082889167025,0.026068820848655663,0.18213397417814833,-0.09477805969241818,0.09008093149437008,0.09360998991537374,0.20924574262455845,-0.05155888247352311,-0.10859657444750898,0.129537326007532,-0.172577674661633,0.07381309083749481,0.17316380816886862,0.14484242457603405,-0.16054477210592114,-0.05367993565363464,0.11483521421092241,0.20471001457310367,-0.1818836964059861,0.25536251521373865,-0.08595302224464285,-0.20651432541431056,0.15549070770791762,-0.04611381822222162,0.21691560108736055,-0.08958543908697507,0.14802641724594173,0.002530416134526847,0.2675815175170925
-0.09216101223579841,-0.13220005689006564,0.11555458069550832,0.29203312120194896,0.10251110199423034,-0.25161755796389207,0.028842678389507805,-0.39985409674820477,-0.057811416926501664,0.12757541665771582,-0.18949696911079578,0.16607125654290772,-0.3649243132872711,-0.08055087021798388,0.0094273858889642,0.15028901844599596,0.022691135636811105,-0.1896210924340867,0.27177897957645536,0.16954485723061424,-0.15560123047975707,0.003640976626374731,0.2064682340227587,-0.27001982420373416,0.18194757767723974,-0.11732162727017617,0.06514511314700211,0.23581895867575928,0.21935060781079865,-0.07537376290346295,0.11433933180173161,-0.29263391147880236
0.09362017428240675,-0.04729436533327161,0.09948121624548836,0.10203062019508093,0.21752456078484086,0.2722004066739401,0.1759506178269501,-0.3713828074648547,0.31980456164532406,-0.11202063654212494,0.0801455701449093,0.3719512902240474,-0.15552074582377595,0.03932343303035343,0.21027578238567002,-0.07384017705602458,-0.04922229183660601,0.2006600693062692,-0.16065466213713617,-0.12182804780877202,-0.0843466681988429,0.11356653088751531,-0.11315974028829132,-0.11889826429545057,-0.1653847166402791,-0.11560344160577735,0.15464190159972088,-0.007367538689490367,-0.07327788389370088,0.26645202884506264,0.41012847364135374,0.17467915645078352
0.2910766383750982,0.21822569641802567,-0.27159902199367547,0.18938701660424662,-0.24627313397338543,-0.08651298026619217,-0.15610950598422116,-0.28662650564091774,0.34737078095479107,-0.016492159893935744,-0.04049669433183129,-0.004515813763112167,0.07244938573940785,-0.10786366699728657,-0.13887039099993692,-0.11331152823739937,-0.19495116663702594,-0.05546625323239149,-0.11021413972020248,-0.27331512974870087,0.27461898405490737,0.17904125069004598,0.035307062729343516,-0.025019645144563573,-0.09603115487021173,0.07827501120530676,0.06237341830343663,-0.015794155659042176,0.1602814074319161,-0.06423057653994782,-0.0687969612822554,-0.15925713203017794
-0.06488079514595099,-0.14022311349001984,-0.11395136544936718,-0.1767144710456414,0.15755633814176742,0.019775794160343526,0.17903208941593657,-0.05987518262948191,0.11458777317730325,0.09439024674172046,0.1805173586119195,-0.21682207021155273,-0.08565890340437357,0.24544524891701175,0.1795938371285817,0.12638201162674506,-0.006398840345187669,0.08625711345737985,0.02706556596874599,0.03733479093632471,-0.0716915395364564,-0.3130377938031439,-0.06541672239056612,0.12101427000954196,-0.31811671570590233,0.12958458420892618,-0.03735548863496333,-0.31356834647157444,-0.00879203416551548,0.13323946478269527,0.19130019419481883,-0.4166375854312003
-0.34579719267944387,-0.04418912438866723,0.024872688078078183,-0.16435223131500937,-0.043913726723671734,0.14948790448432958,0.09810278524839919,-0.2508417652354531,-0.0717637995296835,-0.16171514190358172,0.09827604451217362,0.19605049982882353,0.18526948192093673,0.1530271723658246,-0.31289308448379577,0.17805520881378756,-0.031928086161348755,0.056254857262213534,-0.138284247755923,0.1051387576081799,0.047086203899378815,-0.04745501496525355,-0.09497401494116961,-0.1880874999455346,-0.1593848488397714,-0.04119064146959373,0.00195966791831634,0.2682454272589133,0.1044056998589723,-0.14520761198535745,0.07531200205850488,0.003093009085681386
-0.32937743781162965,-0.19311430760558077,-0.053531019577188275,0.060674448862729324,-0.1519729405245148,0.2491716174703065,0.06926937322828013,0.12971619468424858,-0.10853903285096224,-0.24461910745661278,-0.31712900587007964,-0.21313106958735106,-0.06891244769641262,0.01793877538999854,0.06731805500095332,-0.09869242147592519,0.00011447215812788951,0.2948201162776703,-0.05349849567305451,-0.12305860743723705,0.0443319614295279,0.13586038622660912,0.02474175070037374,0.10838743951705501,0.15225605334820735,-0.1169565684151172,-0.13201335299587252,-0.18240141084293135,-0.5957367546365423,0.039232880268624905,0.022620049813815126,-0.17678102446011512
0.0991423815389121,-0.37429950120348177,0.2427013037525834,0.11443137516633109,0.18088160076868537,0.19026461635033376,-0.1063603678046156,0.19970053014162037,-0.17058842413637476,-0.2213392424845568,0.16857119279550217,-0.24217756953866604,0.0771684931040424,-0.17772336570061675,0.24661121108451844,0.03676599850793448,0.3394178278842004,0.32262886985931,-0.19300126387946281,-0.2488567006197246,-0.1655077715257259,0.0764708696796165,0.03468228280739627,0.15599856196328382,-0.23869055532053365,0.2262052960200775,0.04878735326325487,-0.21500806004592302,-0.10164349623992658,-0.1058297976764872,0.10055437358596876,0.2547883811819562
0.04129293147066428,-0.20999114524981585,-0.11385008223010454,0.057522566237324185,-0.1636370231389324,-0.1000721406312883,-0.03144246766525351,-0.0024808606759295702,0.019024879798434372,-0.00519499309293654,-0.25893677413561,0.03282112478593744,0.15771806386428577,-0.24020728377698158,-0.18583624264073845,0.10342927849558992,-0.04894421427889379,-0.03660370647512819,0.035140286873647994,0.06480090496037655,-0.07343681709815283,0.22602290335377526,-0.24483104356642232,0.12665528603791307,0.07100912085111728,-0.005683431812815834,0.34536761338503774,-0.07475004952273832,0.0974961885880431,0.10979955141329262,-0.0898128453316909,0.13449994927802641
-0.1619310353486476,-0.060562097481495235,0.16973500213169102,0.1005381784272321,0.16151911632038307,0.07790426791074484,-0.11909926434850229,-0.00799115374011917,0.008307440646642444,-0.01091983862900054,-0.23362608703197438,0.05169559439905885,0.2020528919391888,0.04655360307076443,-0.1384066017551964,-0.19369065737053462,0.06252422619387026,-0.19353164463804157,0.08512157783133666,0.10476319200209681,-0.27965260671026065,0.27006534170406743,0.08386770237968197,0.011473172906923857,-0.13083790075537627,-0.08471879529554344,0.0010390528647714328,0.06846760888837956,-0.17792261763303638,0.11295433471345279,0.022739025639501823,0.13505114296897494
0.05897364873542139,0.23131546969916394,-0.10571458682696233,0.034564133910992716,0.03832514566156156,-0.1971857745424657,0.0072305871668584916,0.2953487849101686,0.06427125048847016,-0.12103656369840204,-0.0469196338545657,0.2587140618698743,-0.3784903605615331,0.08635959862192587,-0.0010419023688616196,-0.2590878845555031,-0.2187660342811573,-0.10944920272857858,-0.04293327385402512,-0.1576118143759483,0.17663741902837604,0.2247643959916753,-0.18062359511762077,-0.07768357573495041,-0.3057455574061011,-0.08559051335075826,0.11288873787529616,0.048896012590654,0.2677907642284948,0.27742347218790264,-0.12304573017195178,-0.11067901885631096
0.028852225119783238,-0.016111008693981112,-0.04495730508605595,-0.18760938972500074,-0.007527002879599872,-0.05849670436907343,0.04670896434649063,0.1490041407805238,-0.015839332631021715,-0.003657358392767566,0.019175420814313015,0.3378889972896828,0.08013335744467621,-0.2836820083767729,-0.08207740007805778,-0.16327153038286435,0.23084882546370936,0.14080564247145733,-0.10697338740021997,-0.027051409148165177,0.3174577323488367,0.20449921127485776,0.03417419577784728,-0.06993965414016423,-0.28755304569604523,-0.09835841054306026,-0.18165451953589792,0.19951270157965292,0.0915781431514162,0.21276941203848884,0.0672912150234382,-0.04598825521124408
0.0019661641432287213,0.08601643977900851,0.020686748557969276,0.007520408115489745,-0.029499137447430913,-0.13646626705718717,0.06781997594722662,-0.17212876634283109,0.21068442571062027,-0.13390501532723312,0.18774900638466474,-0.27299721493211176,-0.3380118636531376,-0.02402332311442998,0.028862660429046384,-0.29973913376050515,-0.061526403819196315,0.23922809623851293,0.23831952983252414,-0.15793293427703967,-0.08094062968749546,0.13659824685486066,-0.2493411265446705,-0.3516739400262813,-0.3208393498034314,-0.15226383164368887,0.13302478572930854,0.17882659506487883,-0.08641513637872227,0.13356850603019377,0.32934589288602745,-0.23390767792265438
0.14887777397203508,0.11710402884720969,0.10431939275825607,-0.2429012261111529,-0.1910795669048051,0.027592436095369693,0.016849249333122467,0.09992534516588862,-0.1580463108598162,-0.09940478390080718,-0.09674155710027903,0.026728611318177838,-0.03222673154974413,-0.010426131978007623,-0.0521300844516289,-0.015765580758937282,0.17368794774475244,-0.06968840752910377,-0.17432664524828534,0.04850282201010406,0.34135288586254114,0.13682707753309792,-0.5286729840707621,0.08179987256606107,-0.1414004402496411,-0.33674156318246606,0.22912220297170355,0.14463005683369382,-0.08233501122570373,0.013066882778955787,0.00669753481672762,-0.2990552444888308
-0.13962962867633066,-0.06224580866706168,-0.13285376803088225,-0.23192168482389564,0.09660026559066391,0.1663836668621481,0.265058575505799,-0.10667753868393706,-0.5726717692446913,0.09828236322714064,0.13757949348002496,-0.07004485371373727,0.22956520794904514,0.10109647497086645,-0.2134326613630648,0.22269516432343534,-0.21954110182701875,-0.1637659873765487,0.2490682480119509,0.017395393685711653,-0.24778728996111601,-0.04767739296060565,-0.07779929524042763,0.12825872493470267,-0.17180167737315402,0.2789426212038078,0.08858487997194459,-0.01903097695246097,0.17300490198408316,-0.1970320492448913,-0.10523250514562575,-0.08050356387610942
0.08113358720594374,0.1593170401755274,0.19510176943784743,-0.02909454789929426,0.02015785220051862,0.24716598593476646,0.13707323676939248,-0.20057971508593553,0.09745120021125168,-0.09654040655718808,0.19729741271896165,0.3152604778167947,-0.1579331039888385,0.051394687380657576,-0.005168073161245098,0.006388731165709156,-0.08039092532382204,0.13878376481636862,0.16459709169665224,-0.09075757227231918,0.22915765326864282,-0.08818517133193932,0.1679766623252461,0.1117892990208925,-0.027656453721904298,0.06043839519784643,-0.028442790070535524,0.11707432186204071,0.2690953631495481,0.0389377057456174,-0.3033841982180874,-0.12308822371458791
0.07277075307437433,-0.09448105198145273,-0.04731963128386346,-0.1422108466291696,-0.0024297570710967763,-0.18289598284286251,-0.06655420354714402,0.19202564513273218,-0.24631572047993083,-0.0963209987708506,0.16058532711578555,0.2939819679561311,0.13679124884603713,-0.06623981123955963,-0.09918000339238393,-0.12680805981213725,0.08690623559923825,-0.07229510868605431,0.05419457818581469,-0.16367148840577272,-0.04088230676749078,0.157463184031721,0.32214475001462384,-0.1692222461942741,0.13715457719212884,-0.20692404593205294,0.39939756105512525,-0.054754484795785444,-0.29014013993415655,0.4057797677323864,0.11444663665609424,0.10564541358530005
0.006190668194772571,-0.0795565418121177,-0.02354122331418346,0.049574489120055965,-0.2252249652468485,0.07137170540469924,-0.2657208197778844,0.024977388320767766,-0.10143474447051355,0.06007352845272905,-0.26579813679038533,-0.06922175787975614,0.0696875121475026,-0.010548395474595398,0.21953353420677765,0.12859458893829667,-0.0927311937919433,-0.12639324207780533,0.017302325985946616,-0.10764232059938873,-0.18655014757943553,0.09956560336406972,-0.20427750081539825,-0.2898026501990518,-0.14076980452898824,0.08524327290741353,-0.1445376991839284,-0.02780834442946411,-0.21460657393364682,-0.07178827924577437,-0.03155690734321662,-0.11156783309848158
0.25316791934676636,-0.21673558399231715,0.151331047076788,-0.09002045008031338,-0.2315068188617451,-0.04471064422369176,-0.2062965313993379,-0.2680884505939002,0.09032984067092663,-0.1071005840401421,0.1409116660314645,-0.0424464761876717,-0.2576161429660221,0.021687450677811335,-0.2348919035167053,-0.02145899217083196,0.27796100176865446,-0.2993409192902661,0.18265948795950107,-0.1264568475832997,0.15240885587512826,0.09388681993011024,-0.12613998229442824,-0.10855620805366151,0.21669101318385292,0.10805826430675268,0.12461326029372201,0.29318531694609445,0.43437514475519867,-0.2113836571177533,0.17893890136483262,-0.2090232021560007
0.2860207454861475,-0.395892674515237,-0.13542961381885002,-0.038622082495854304,-0.44877846037331937,-0.05484644940812452,-0.16277191702786895,0.20216738615371438,-0.16418093896705713,-0.0232925518337185,0.14002446934998072,-0.1141569561696049,-0.20624606065019646,0.41260961853563094,-0.016385652615490735,-0.23188616818588115,0.292033956613694,0.09560963259184409,0.04149866512666451,-0.1791383986386915,0.027129744802560616,0.04146419821133598,-0.08884456610835677,-0.13665844616179199,0.34146424381014956,-0.41536172514191433,0.20111067275298625,-0.10203536055854959,0.11118417452287162,-0.11057876225957569,-0.01437421173358303,0.2843617171140026
-0.04164853513993516,-0.14589074866546572,-0.006834157667085519,0.16372113572070765,-0.08170321681493274,-0.294774989758037,0.07724818152274567,-0.24043120632735918,0.039960653570608615,-0.13282539124658538,-0.12915770758176054,-0.2701866641198562,0.12394799182330057,-0.06772418816100993,0.009652906934723919,0.13105918121841964,-0.25802039037087604,-0.05628534728119991,-0.22911151936030463,-0.1605161141372671,-0.15014204326134037,-0.3745521265786391,0.17051215687394822,-0.3389298982667868,0.3037653905681163,-0.24344799493052616,-0.3406643005239755,-0.09939884983760738,0.05357969831453258,0.4520858242433309,0.013363172007620657,0.00802952307001505
-0.030526528987448523,-0.07781725685997275,0.22565761909826904,-0.060126142229235326,0.040909770745650394,0.11096605598391264,0.2518757985832964,-0.0837441905173387,0.2393403907217386,0.34692437732682524,-0.06732092894519293,-0.20270259212813474,0.07701247589899668,-0.26632552399578874,0.19621396431802177,-0.15549500300472274,-0.2903369421781955,-0.1615277891526175,-0.18254395811107935,0.04274510694117294,0.06463006979091525,-0.2893257374490063,0.25521215220498833,0.04742969248927205,-0.04699653010890076,-0.041045006752251714,0.18806153058256742,-0.2243352968148679,0.24327001874699974,-0.0286208413851315,0.30319424141032797,-0.3872507728733257
0.03423355348596496,0.25260243991117654,0.041976936979330054,0.09347289121566303,0.048618857826530686,0.16385062713430315,0.07960972249926676,-0.19952794000903146,0.3602986363897574,0.10985391624630514,-0.09996296996015828,-0.21215456382005746,-0.03354364125829584,0.0005677773965040198,0.006264211386087263,-0.14098928435243724,0.28008665966204394,-0.029554332490420776,0.17159572970682926,-0.014404066077173353,0.14362189101722064,0.13730438874223608,0.12689384459605627,0.14400476269567505,-0.05873749685054736,-0.09662294789438426,-0.3839913337480213,-0.21570780156655095,0.031523657389042344,-0.1349805208695808,-0.1236782631356411,0.009719784453200268
-0.23386723879845936,-0.20067463104310013,-0.07190831841393411,0.09618194011496448,-0.2719160563302469,0.2129090471996994,0.012795252032114483,-0.2009559581114206,-0.13877014098631696,0.0038052462517911456,0.2819536781710662,-0.08002707430457365,-0.14200376078626223,0.08020156712196666,0.0796234200202314,-0.14403090733448612,-0.4172522021978729,-0.16187914808910564,0.09170746881726911,-0.01206782737121392,-0.08103462202844133,0.2227288317842122,0.038806019599178926,-0.05593299089386651,-0.08977686931171515,0.3508354873282286,-0.024918797150675097,-0.06743915052209237,-0.10795145294556946,-0.028739217287703383,-0.2036220171533907,-0.3116113176187181
0.05009956421082165,0.09653473585522367,0.2499749442411877,-0.1614850053808974,-0.4141457875917025,0.22948803625983202,0.1994957263321113,-0.3291570274887859,-0.16144989131544718,-0.258485835420681,0.14417587092428258,0.01061584188858516,0.010846411266807042,-0.1752605675397877,-0.152461917320835,0.10542807671077599,-0.029001209232698746,0.04998169861329962,-0.003014890810530211,-0.17782772710291378,-0.02211856676135896,0.3566903725363791,-0.1345646996377561,-0.1361795316627151,-0.23481841633501255,-0.037311454043756805,0.2326603540986519,0.1879632610792462,-0.1636642526610506,-0.22410580742296254,-0.0683956239182105,0.1852267489288
0.04947492406107393,0.15248709282612663,0.04239231858040384,-0.3062174408280134,0.12748093579354705,0.25197730720907713,0.06357926611774747,-0.060156604748364845,-0.10784294841023707,-0.1161665876279355,0.0981177585155851,-0.04450739206446526,0.07351027767112316,-0.26818554741883627,-0.15957534366501,-0.012020709104911617,-0.007367563104517151,-0.3440176402655624,0.032875537727795244,0.22630561478411867,0.14064826143867815,-0.026976996769244685,-0.13315458840811376,-0.024101971814549955,-0.12346544377411202,-0.175075854948889,-0.05064011554358367,0.059310127760485686,0.3995206735985534,-0.4221000760495307,0.07411793744566257,0.004666489990728713
-0.17890567227889026,0.12266829667873608,0.10651391579069752,-0.051666666098363324,0.13781239719675595,0.018567703441257577,0.009949943110187187,-0.07899274608374485,-0.08794160285233495,0.1392072215523637,0.11870569944972854,0.034657022747439266,0.14655671768138978,0.21001787000603783,-0.1368718803016724,-0.026675071279838834,0.07076316892454977,0.04375103538754253,0.5713074215079881,0.030376888862724008,0.25838617856198254,0.312016016041076,0.14144062662458098,-0.16320883056371419,-0.42340617661188035,-0.0894418172511595,0.2441752327353299,0.08204358301227839,-0.08322025657067487,0.03125990230586583,-0.13763556746107586,-0.070902216926877
0.23227501314849777,-0.11788188357091346,0.18870767210492267,0.2896647552606748,-0.015979938883229707,0.08327473940454232,0.13785550710275818,0.3532373935158466,-0.011470989718809999,-0.18779697436150025,0.02767021770643425,0.11175347418812828,-0.18273013455382153,-0.017730778978810667,-0.15283696834540486,-0.07948631038912941,0.12307734690044647,0.0479049408478875,-0.08639382913102095,0.240450288597558,0.17257469036297157,0.172280226885564,0.07960192822919437,-0.14877182889547624,-0.2547677847632527,0.045844594341575826,-0.15812699602475203,0.04434122807690983,-0.13772172358036278,0.12770433359928654,0.28921338411229647,0.061615793911225784
-0.2702342782194793,-0.12659504444934336,0.19921801817059348,-0.2804535185191743,0.2706696110154193,0.06850702249660283,-0.08409520619796253,0.3228965318020637,-0.056480897809120655,-0.3207033472680978,-0.16068081137525028,0.31567692756076277,0.16724097492846507,-0.20827505378038777,0.18431752637778975,-0.2401037642770491,-0.10726692512210279,-0.14249141139993518,0.10980413190770319,0.11052505093462357,-0.21893901947117136,0.13623596012014416,0.07936434265720906,0.030764625319854036,0.040337985533769334,-0.1399144587605824,0.0302610733915814,0.3288562810022155,-0.16989469332283358,-0.21561591546996034,-0.11716041915244114,0.016676019981655812
-0.23389288973038366,-0.12030603177385925,-0.0252101488046501,-0.03800796637831878,0.2801305385270591,-0.1688879893973706,-0.12063058485004535,0.003285370780963426,-0.09145021437903651,0.361644126588624,0.10158487231749111,0.20929530879419944,0.34725577846387295,-0.10230303999561104,-0.10617671386546233,-0.15028034898196824,0.08360529166633146,-0.0020963999784850778,0.10896953608666536,-0.11939958878847427,0.14782403028520727,-0.3568092375596484,0.08311269814432541,0.13203021825534308,-0.025848771096337677,0.15822549383834847,-0.0499052547782959,0.030001376044210104,0.4330874070155782,-0.10314032536785833,0.20078998843946216,0.07118026307065778
-0.16754449020731288,0.011494355010050378,0.11503272391013618,0.026642846165757336,-0.17037483905018566,0.5191854527856736,-0.028705168085389598,0.01338239133990801,0.2073891135586836,-0.0265280150540707,0.11871666912069793,0.2517039781330025,-0.11991405714514913,0.030923990176502155,0.2694873817705384,0.08085262016187733,0.15504555654370794,0.03470415503168252,-0.30663732408055405,0.046442489500081674,0.04693291460500828,0.13197912224307337,0.3191933349258525,0.20601183286657404,-0.1115812889457614,-0.28995060524834226,0.15414105089611715,-0.16463392347190306,0.08412285217347544,0.17060634054433055,0.17378038159693093,0.1981297781441444
0.022788055703451063,-0.14340277228293777,-0.16960699394572207,-0.19837633387814,0.16507866401525229,0.08333892295843674,0.3772066171901287,-0.03484143581737053,0.20583037782077454,0.07630408565685137,-0.31929506312677997,0.030812232929392048,0.1567881956845609,-0.006563516651434836,-0.015485268383769981,-0.4631447046159715,-0.23232992984783332,0.030474179962024145,-0.20836676734737877,0.19178100124531727,0.24452404597896532,-0.1419368966304805,0.26139132323965025,0.11827375812087115,-0.34755672575413943,-0.15255916569498174,-0.29352553360351313,0.14593295000553397,0.2900680823178218,-0.14934849893152188,-0.24204602874884348,0.11457519863729718
0.14807377003775085,-0.11168898770847767,-0.14057407042661849,-0.21988683113930918,0.22859830260542643,-0.15143570936449774,-0.01127248110241187,-0.04445450780458089,0.03515823971493226,-0.24970490348509594,0.08195213181311178,0.014423818787434688,-0.0772660262972115,-0.23747471404570245,0.23784225931031663,0.21190237246949936,-0.17717004471174105,-0.199501104015892,-0.0037659306250147385,0.13280162308378524,0.17520349229660628,0.14798390357297814,0.3199382348906456,0.07153855831223954,0.08725189557293131,-0.044747399045281536,0.06790720208405417,-0.07547627199059256,-0.11816951499434304,-0.1338651860971416,-0.04176029290281989,-0.1716230425736196
-0.15020969284164193,0.030029831363143144,-0.15716668277138054,0.06634974701223147,0.04894321808622206,-0.1441912803192433,-0.15289976578399023,-0.29535388851052813,-0.11879456392636766,0.15877051851796178,0.06592833617947344,-0.3087899248984333,0.15020280357464474,-0.10840131369073402,-0.0628268714933887,-0.07230147977727634,0.06291584884501619,0.15208928973021837,0.10486732761516732,-0.14286371298103093,0.007548963638324304,-0.014644106282751796,-0.32901045352761354,0.04142495497071242,-0.16187525349613696,-0.41868740444115693,0.06785399870154944,0.01635816837964667,0.03646952018180375,-0.08166933965133566,-0.20342440084722346,0.0077619917438073865
0.3362691921990482,0.03513239092971751,-0.03973681635130925,-0.2693536534127814,0.029195490959750988,0.299326922867496,-0.015601704462489683,-0.0545888127975095,-0.239795720987542,-0.14276598281637967,-0.17408574300258564,-0.013470989693464042,-0.17768344549149095,-0.05125804114977445,0.06281801525872262,-0.08705492809756618,0.0404719599408214,-0.022211133484089145,0.028823926071393027,0.04408786794148918,-0.1230705962728304,0.035362919013569416,0.1845334886067855,-0.30584887765252305,-0.06173685051574113,0.18429305975832808,-0.3003622990915942,-0.06517451764729171,-0.05444107667760244,-0.035135423471785644,0.26718162021485037,0.4462267173119172
0.14298504490877617,0.04638500515284445,0.15277448969726215,-0.03744258604483069,-0.14560385170943968,-0.08203999986225945,0.03554784577056683,0.028514836092647405,0.16231710759733792,-0.30158558913358174,-0.24877201500355386,-0.03492970887679431,0.08700618872796215,0.08966974712333278,-0.011808209000439288,0.23130824706715958,0.12979120683692208,0.09407253697160357,-0.1612181194864021,-0.3034893178471351,-0.20607434376470019,-0.23858764468384214,-0.1690553726488734,-0.10703741811996159,-0.060694194447887866,0.0775386696619341,0.043093153352084745,-0.016805517189922115,-0.04803335532038908,0.23494432713774677,-0.023867337521467077,-0.14711431286905063
0.026116767119021354,0.030665534960620192,0.08582357823028641,-0.15526532173963714,-0.13934208105964824,-0.2327327083929099,-0.11523631996829015,-0.059778149773925954,0.06956935932765249,-0.227458517397451,-0.13695610013760998,-0.15920806058817266,-0.32089505858370226,0.08480518125514289,-0.09840424108530334,-0.06340244587617266,-0.07286480838363973,0.02590479873927248,0.22848480256855064,0.09229558443661286,-0.17279155391472517,-0.0003791131501574404,0.20872039465507986,-0.36292591447778283,-0.03372453712633057,-0.12060004212778248,-0.26456037030850066,0.15171786353970457,-0.2761545098194424,-0.046151233909486215,-0.1595920431454138,-0.023049051235226624
0.14412556185010225,-0.3281052487005171,0.06651163089607669,0.028293611520460574,-0.11458785908211983,0.20625827938118632,0.04200649063173464,-0.23703011265203414,-0.2209966863399203,0.20400801158795426,-0.19001923776620475,-0.16951809050499955,-0.20931799178130206,-0.24341762525190658,-0.026206297028677234,0.002244974744485357,0.05860055893170683,-0.36113166133168073,0.3021745144565733,-0.09839771396147368,-0.08410090098469974,0.08379536960267052,-0.04311104573947873,0.24055491093032236,-0.2439029242965179,0.029154267320922005,0.019270192555041997,0.33655126588850803,-0.05080816927330067,-0.025860563473551,-0.01596591031410531,0.2693525126602054
0.07661785880723161,0.0577435107061939,0.12702710034801387,-0.14290292273544467,-0.014922792077621903,0.016815268610075446,0.006787319298991525,0.1296137664338408,0.18113978722841137,-0.1209812663865979,-0.012832426068864625,-0.0019098913614485947,0.10535288205939633,-0.03233058361773929,-0.07185692261240914,-0.12769214038575283,-0.10393966195220805,0.048016115147222385,0.05175910502783003,-0.298262378444389,0.021983794430728263,-0.19172535366383722,-0.1301692902742287,-0.2772232659991726,-0.012153321526160575,-0.2943416522645285,-0.13642398406411674,0.22755848645661347,0.05028561820405468,0.15651381576134088,0.18186513703225024,0.11703250513231009
-0.004188424853011798,-0.008644640834294327,0.410182318963861,-0.25210339266972265,0.048443727649368974,-0.1127802910446062,-0.06686090338282878,0.004210933380634589,-0.1671913193003334,-0.10065551746397744,0.21039002239974972,0.011711428080658007,-0.37693079693660697,0.09660143030870287,-0.40006341273192686,0.056039293570484726,-0.09974924476586912,-0.27124322457488603,-0.019962066367684474,-0.2410115883416025,-0.2487000617871332,0.1253996527038084,0.26313929488140614,0.23244733727327782,0.15371184421573253,-0.02228592770063473,-0.0006406140022932737,-0.062142283914234174,0.16578861604481382,-0.023653474624598582,-0.006808607943221419,-0.19050006861535046
0.22625864783100663,-0.09129314764942541,0.01931284107601208,-0.06990326724848853,-0.2800421773025781,-0.07484088850186374,0.231856414944076,-0.10877151798290553,0.17426099963386846,0.14813283781117076,0.01688512509864102,-0.08739248777819941,-0.48053979619351334,-0.10256171843136676,-0.13109478512106246,0.40318477536322644,-0.013707467430661428,0.24281265891058823,0.18903128551871012,0.30052064043828586,0.006867647242337606,-0.07023602507567867,0.042892517592009405,0.02738528066802624,-0.08519099611428901,-0.058648178848915246,-0.06155780011786117,0.17776984774307608,-0.34514652114807765,-0.005407338832898924,-0.08588656997934271,0.08660321811422603
-0.00934078825106443,0.20398830541223628,0.08292217920170605,-0.16397047693411781,0.21425493732550185,0.014823831864122167,-0.10448186623543144,0.20203805794541901,-0.08799450427139138,0.10303803367970182,0.03582627920047404,0.1378158663324731,-0.046992543628157524,0.06884482876302936,0.13019208614959915,0.05175370474981789,-0.013558077081650927,-0.15890230136422828,0.10504941061305938,-0.219329800500437,-0.28114176050885475,0.07387408232314183,0.1082792660746341,-0.12836389312788687,0.2513083613794915,0.027955155770146324,-0.16264905245521624,0.048675800972342816,0.020554657001834415,-0.07487502275518018,-0.018508220777122403,-0.2498032842318198
0.23837390580736534,-0.1302303068300074,-0.11390486855172753,-0.019226837549164714,-0.060094613030383534,0.005001362748419702,-0.08148043179685593,0.11795539198460861,0.27542022197477056,-0.03040027819705411,0.0468412477694833,0.22567380054895506,0.24760853887732767,-0.2058234006342335,-0.2922275642461106,0.09546468845511033,0.16444013749853703,-0.18404841166657554,-0.1465577840593506,0.07203708035216977,0.0677491580327087,-0.1982046588307628,-0.037129132617648775,0.00538587315170543,-0.13296274855625467,-0.018681407461230388,0.45671426515821445,0.12223145918422408,0.03528273846625915,0.23806276002336066,-0.10791054439050879,0.0572225231368856
0.20291884726444842,0.36726104323598213,-0.11894782513837956,-0.09141896588628196,-0.2594824902901024,-0.28093479247741626,0.12713422540359684,-0.4073690074282424,0.0005896753031909762,-0.18354462152139467,-0.13966509919060438,-0.3786710788054053,0.2823625913453188,0.1817016183357353,0.04582297003935996,-0.03975458880584203,-0.18330012628198844,0.13371188338307033,0.06491705654257454,0.2167787470195352,0.022758244918449386,0.06624965097201457,-0.05983038901003173,0.05630359676177852,0.09842450126526217,0.20578954180508416,0.08439092305111884,0.32369490358262737,0.03853056317287364,-0.053610743836126684,-0.1314357821821365,-0.29774462428965254
-0.03093756471050773,-0.06816420263215878,0.3202238295511688,0.23785490181591243,0.15098073731736367,-0.1906572290228379,0.1988960029292454,0.09522074183611479,-0.22380247269896136,0.008561437455721901,-0.10080508921190602,0.15821457889046575,0.03957268887972601,0.06680523430437114,-0.02569156447264261,0.08852888257961156,0.08248742707724743,-0.040053605425480365,0.14898138717003948,0.17227863819567257,0.2732249618528888,0.22613996216194113,0.43886978428003526,0.3546258002602695,-0.16906508303952775,0.09332657573508904,0.02193777951585278,-0.10025611986349953,-0.07420537701704884,-0.21900911615402138,0.1895438545408469,-0.04876165131261597

hidden2_to_output:
0.9885345705372741,1.0029364073686318,0.9879572154497246,0.9949440184775425
0.056245645667991076,-0.31412298660451765,-0.5823047777650501,0.29043150977454557
0.4782964519327885,-0.042342095215742254,-0.045940703974680856,-0.1807966618398404
0.26743061270063584,0.1892245395586837,-0.03209593537498396,-0.16518629670427912
-0.1961133183211503,0.148142320659304,-0.155284444778229,0.1675373418467685
-0.14106719945528406,0.2593097890718355,-0.3576844205478701,-0.18581039222301038
0.28016559842305244,-0.019009382527483708,0.1686692477573464,-0.25698610500592134
-0.2563645727760633,0.17502043238506737,-0.10429554749799842,-0.012105687552147242
-0.4154641672832067,-0.5250622173651103,-0.43926182336398967,0.04801471836538877
0.2634781621063613,-0.172030866379485,0.26842645458491965,0.15774267338168407
0.11123043475847548,0.5001173138924667,-0.059784769249296696,-0.1464007913321752
-0.24558290677788575,0.19541771798799942,-0.0711245419595905,-0.11816074728114538
0.10984120410090686,0.5400558295512218,0.4869744214954455,-0.33703562061201875
0.06947871220235095,-0.09572569341396923,0.33140686939709746,-0.16177890249615648
-0.09995025198508024,0.2646735404422543,0.09258023377054575,0.26238263191278366
-0.19130633827014396,-0.05150549371409722,0.1908765224467889,-0.28953427812371085
0.14631622986512438,-0.3832979269527488,0.47326239639566464,0.29076409061055813
-0.01220670898916644,-0.5874610650576384,-0.11079373721899552,0.2838197488671637
-0.05618972783162853,0.3757594898583399,0.014219854040005517,-0.1054959212106313
0.35370992915344485,-0.23324359352937818,0.28450646811773445,-0.44031431535612386
0.03824527340282702,-0.059171024077430225,0.04880484985699196,-0.045607995576984355
0.21769428231116913,0.24614852394749623,0.32149640003438446,-0.09117332098652431
-0.1925466008774471,0.0034046604173445295,0.3775498259632477,0.10833738842083893
0.04528171694360136,0.1273256937940938,0.08712617248736124,0.09168409653143313
-0.09013228056473106,-0.5648184025151192,0.05279297883912657,-0.23373019739668313
-0.02863692425833036,0.44829117052165635,-0.09439040404780882,0.2081107002333548
-0.42732218157971447,-0.09366682112062191,-0.2633634063756525,-0.11714629827455225
0.1820313195352397,-0.2933444080678721,-0.28671219471002724,0.39460058825369876
-0.36166233532471104,0.02474779572418763,-0.37347347624467686,-0.1998031971971712
-0.44447333887549006,-0.41788968759412265,-0.0410851950012015,0.25118873882131953
-0.18489771429446503,-0.2702635665891728,-0.470038149488245,-0.7076251905273286
0.07566624639031262,0.27748872970799204,0.2235731979698734,-0.05521258709637029
0.047401993393407706,0.0002796513374715449,-0.04906917305758543,0.13691472679630853

