input_to_hidden1:
0.9911507581841617,1.7057039434092705,1.175752698999002,2.084604817351014,1.2584653547369349,1.4274882514425713,0.9135399533663093,0.6735037628245074
-0.1843291080947963,0.7876513459769846,-0.11534467942476039,0.6337684742521769,-0.23136149143339035,0.3949409396401547,-0.14124086872233307,-0.7241766273781678
-0.696245967705781,0.3193842701590085,0.3114590036211391,0.5568898569703359,0.5128754171212112,-0.3667115289306994,0.37158934532332094,-0.08008932707113497
-0.37463279287657686,0.46256809366342033,0.6641327530949631,0.6930810175395674,-0.13328431314719288,0.48400787270735324,-0.2769702288110656,-0.08868324500318481
-0.23018294069318554,0.4387079019252211,-0.9764421243760386,0.5632317541770773,1.0219598970005261,0.32981173517481627,0.05528627452763671,0.008376615631274712
0.2442231365761015,0.08421860689660637,-0.09775644575498157,-0.39556926452512897,-0.4167048572375138,-0.3713662517985932,0.262369085806614,0.2865928835385716
0.5040746994838855,0.15534608813005343,-0.36909803666734525,0.35084266581896717,0.23831870565903698,-0.41816506640864676,-0.10649893830936874,-0.576964515738032
0.46396883686441615,0.43234143271380004,-0.17094989819114467,-0.26140278337310835,-0.1059306119542013,0.6641731051675327,-0.30340660590853746,-0.20192331513682252
-0.16942223180417237,-0.2076722269947485,0.34718452333068933,0.6939788878880844,0.31037185753250107,0.5189992077081085,-0.17410706104797846,-0.09691570964355199
-0.7215601129446265,0.6353047072096932,0.2188835083442442,0.8650815201646808,0.2691396264330709,-0.13995082908898623,-0.3936052675438952,0.10678886239481628
-0.08021922841912556,-0.04408186198149595,0.2893654837380528,0.5361917119885381,-0.35507873050343314,0.6400521781268579,-0.03284985223966341,0.8373907899165393
-0.25832380048716863,0.41705309442226424,-0.80063618648146,-0.3078241413524219,0.45315700744459475,0.2653588352639413,-0.24855678073524876,0.016507814722678874
-0.14686379911578715,1.112935725521421,-0.002970897100356311,1.200702404124155,0.15362108911794417,0.838983010693018,0.29018923543022096,-0.3119638810360984
-0.3039756296209371,0.2385313117303209,-0.004459295105349498,0.038472538461456145,-0.4001097643612201,0.24623135697888518,-0.7211561134904548,-0.33773975068816653

hidden1_to_hidden2:
1.3522019046952198,1.0247189525191602,1.4137448593205226,1.4290781669193326
-0.08965327507510454,0.7447077220975595,0.4997802211002021,-0.36649021954844524
0.545337878867343,0.3036370024929849,0.9808185406938499,1.7759582102842184
0.49651742352188283,-0.38598175304357074,0.619431358701424,0.11500032064173515
1.390825909988588,0.8245263529930337,0.6388874954751107,2.3873508218168427
0.9321778144646098,0.32999874676946916,0.3343631494215179,0.27432994319958415
0.5498720069591219,0.6601195310513114,0.7397666933097,1.0221189822529002
-0.5551844134154142,0.17448385776226116,0.4795287822704701,-0.10896081599557084
-0.05552771133392168,0.044270935080125855,0.19383524112751865,-0.913577247800092

hidden2_to_output:
1.2886450334380721
2.0603167125361517
0.7749068175479418
2.1658713842699946
2.9526805090713735

