input_to_hidden1:
1.0017765509847294,0.9990275963109746,1.0006529101649313,0.9999082952875621,0.9988609797331188,0.9998429031717339,0.9958781558518469,1.0005272086658263,0.9957573238128772,0.9955151401431918,1.0089704821157632,0.9957962820536973,1.0010268052311824,1.0054014761454368,0.9950022848043034,0.9915357408077445,0.9974366151667895,1.0002792939515324,1.0010597295465486,1.003962439363531,0.9973287355204409,0.9949044210442572,1.002533729330457,1.0007686589081457,0.9990909718008477,0.9994851901855928,0.9926882514749084,0.9994456819686016,0.9987870802879807,1.0046033319610599,0.9983431742076575,1.0013988179085518,0.9985701593136711,0.9987207532061743,1.0037134088943893,0.998801142543419,1.0059782349184312,0.9968697899634936,0.9958121504960914,0.996256189300324,0.9973729626801965,1.0044892247729307,1.003944065587096,1.004254180458651,0.9951432315240766,1.0011725391816453,1.0022667179791331,1.001000848234764,0.9995007509445677,0.9991771705629513,1.0020653324666773,0.9996536839602728,0.9997518394642104,0.9962360216093302,0.9990298575530896,0.9996623645429644,0.9992189534603507,1.0054387293259703,1.0021306635090497,0.9948249621725548,1.0001372422225747,0.9977258324840003,1.0011233563061246,0.9983397276611763
-0.34121942299840025,0.538985906429977,-0.14370353192447338,0.33594539475181,-0.47214898227455193,-0.5078517449856185,-0.5179935536244412,0.2130463601143284,-0.06357299981170839,-0.453249238277996,-0.7877319922845619,-0.5608242138196661,0.47747583829122786,0.7229583396376447,1.2585382121431774,0.5499939548063125,-0.5574217029340524,0.1390709357425843,0.15253748949204657,-0.199036728949633,-0.3305870680660709,0.09161154661869986,-0.3615783504809875,-0.3218585932387243,0.1338106431950521,0.26525095079526545,-0.21109870935909214,0.14121458574502327,-0.0006241673739379085,0.028904190332939637,0.1267340473492728,0.3737788761074486,0.09903668588247863,0.11480967182409886,0.10155596685935599,0.3906146427045455,0.21572026482553958,0.025340940276565176,0.30906610936882745,0.4450602198184151,-0.337819098177919,-0.2738659210766269,0.6796914488353188,-0.46260692015173843,-0.13127684547272933,0.12539769683506266,-0.01957099008432189,0.1260365800914815,0.07693197911806983,0.42801767117066974,-0.7639184019969385,-0.4771797748365843,-0.7701475920975223,0.11881183720216415,-0.48631360801698975,0.23716357528962004,0.023934761566592227,-0.007708757907570033,0.15873031034761684,-0.4278591298370773,-0.6501707202525913,-0.26216617230393524,-0.17889316856328166,-0.07566950734966618
-0.5618603175505911,-0.5460725798285082,0.8996576198398502,0.2805178788613604,0.1278429453008594,0.03306241309510635,0.43607659472435867,-0.04525265145541454,-0.34020953352030703,0.45493627013076204,0.004141873014446049,-0.024217124362710722,-0.09056236918715468,0.4469731831817982,0.5743239432393924,0.41352081521781625,-0.3284236793530031,-0.2737795500212421,0.02159163592065441,0.09365370064715202,0.3851336043987362,-0.046333750275859065,-0.35519310602561105,-0.36928349793981957,-0.07594419155235665,0.003325892372157258,-0.29664576129946363,-0.4078436890585365,-0.10572630417430098,0.5682947199072106,-0.18031822272667158,0.6856124401907829,0.24372348607688984,0.07092798349319285,-0.4053488195955568,-0.6707609932419484,0.5094952531103561,-0.7172148455420239,0.021122272762157186,0.167648106003236,-0.6320506913514631,0.5679704716492904,-0.23211431132305807,-0.21449419813548934,-0.34521506540863856,-0.265822463046265,-0.09858102728281747,0.294019218352514,0.018590906331068493,-0.1662646493226425,0.41490470317017064,-0.46056251555396494,-0.22479799458547048,-0.6654278012279877,-0.019781893388426657,0.7184404542540371,-0.057209929960502566,-0.36524151016769146,-0.33358245974911566,-0.0413967420711447,0.15902514485200514,0.02637382975180545,-0.31092408272424155,-0.47822456954023945
0.6450766063901545,-0.616926681509825,0.36321530962070747,0.31551697415672747,-0.4921035190167295,-0.35749444228554367,0.3798158048229288,-0.35473509210281,-0.37884045077236633,0.30158188155732707,-0.5503087491014008,-0.8090227663447964,0.13817247690053916,-0.3057294777940141,0.5454052265197477,-0.023030895916485473,0.09930877409378366,0.02545453647911084,-0.02949669001229332,0.7018908160203137,-0.4294359157145238,0.9796848794916072,-0.46385104814912187,0.41883794960915965,-0.4170829964320051,-0.647169986704011,0.24103710614405968,0.31070119412142855,0.5884309078538669,0.10512688363043324,0.07348501428664747,0.7604198371021386,-0.012054046216742475,0.14382714778497788,-0.20560030540094532,0.06943699770395291,-0.44989857690517415,-0.07414561483420241,-0.09990534886344112,0.018387205899959833,-0.4224571779514414,-0.07132159094040783,0.25024315226959815,0.07051513886555352,0.34730307970511326,-0.0069263692716425695,-0.47976520298526604,0.2408310863846922,-0.5579113764250282,-0.08804880671920869,0.24331076847852107,-0.45222467407885836,-0.3433257875716361,-0.5954920268769559,-0.6843129438337923,0.6650851006308396,0.15208378183810736,0.06302789461269714,-0.8016948441055517,0.0916096782538009,-0.39655552488380647,0.26664138758963585,-0.04452372925257163,0.4567262713649763
0.5248079136274715,0.8828490371531915,0.5399508765432368,0.21956181956078985,-0.4776195714015668,-0.2528801599656952,0.2347478630183795,-0.39861309298759606,-0.16419512104455156,-0.3958088632044064,0.3328229770090863,0.7026794887803176,0.01847752721686115,0.7453015427504022,-0.104540788701331,0.5166661235219003,0.3161373163324892,0.1691182996782844,0.4194215862580337,0.1414254651155648,0.7281886265784016,0.4076749425082837,0.052820690084971096,-0.6898285503635007,-0.1386462160927484,-0.7821651726306954,-0.1761831929853076,0.7326923857540552,-0.024272944117418864,-0.10679729993632545,0.36589247449624995,-0.17404093659122247,0.5263556719459326,0.38232818431472293,0.5906967593934948,-0.472763217675967,-0.15249791742431484,0.070865409633012,0.5173127648131727,0.8015992672053913,0.1809100404274667,-0.4529416102699951,-0.647288281537451,0.040276207232995194,-0.2930445630334885,-0.4099725709133887,-0.11575858638989758,-0.17555498795355923,0.15060851717009005,0.4443691757282031,0.16679592508650723,0.3084811856604148,-0.0020173424485382015,0.684151675113458,-0.5187946425837059,-0.08716302698960555,-0.4823315172321125,0.059471048081138664,-0.5486078396411739,-0.9911062568829548,-0.06319348540274229,-0.3133966885447749,0.15323854571158563,-0.8969049868215896
-0.12417353852401762,0.022690293267867395,0.4487501790592328,-0.07034987204058266,-0.5181020683270909,-0.7766224117571805,0.012529054738206511,0.5622095750108254,0.3813842526906737,0.6215050626224554,0.052262070449507016,0.00010211420865119732,-0.4184490461363062,0.3543509889547915,-0.25705595988163943,-0.06519699641924274,-0.36823351065785814,-0.5168673594601545,-0.35439327991883185,-0.7408498850023222,-0.10105947919355975,0.2027787030216031,0.4649535997646999,-0.05418578637446282,-0.219214531236327,-0.2154119520933168,0.30429138913309384,-0.17862559731462277,-0.548194860340257,-0.341024414934423,0.3096375544019819,0.057237124871301136,0.293482747692797,-0.3331312261960605,0.25182795060985874,0.028837309833749884,0.43740895878020564,-0.7330800913013986,0.07029027634512303,-0.2901999850786057,-0.5358913704711379,0.11775877373645259,0.5935326548561326,0.8733274101207922,0.4212414696819635,0.08456669794524105,0.11472807372700208,-0.323082090651282,0.09816275262969307,-0.14356460416075156,-0.449296150419097,0.21463936627959473,-0.5147961574256852,-0.6330582661459414,-0.30084648275967074,0.06206966839127707,0.1225179934145656,1.1472206978010173,-0.2007477484093804,0.06384916000267055,0.41166805163667225,0.4542272642174437,0.2568698589736098,0.32174725383425395
-0.9357791813955334,-0.07077006137743849,0.1496810284758662,-0.12247254350598617,0.7624787736424262,0.27655037225966655,-0.2689523310829478,-0.025760108288213384,0.6630839895711758,-0.12931219635776292,-0.6879668433393865,-0.3471314248313279,0.3239466658737347,0.20300358081405578,0.023811891672123203,0.10901830516653761,-0.03424634939995426,0.9339484064682487,-0.41464014765687185,-0.027151288389327868,0.41297828371003453,-0.34699832884759174,0.27509580528970373,-0.7434544289542931,-0.013342275434177582,-1.151162795289764,0.09898568579442223,-0.12664651136568073,-0.22191110094403915,0.42733316753348266,0.07530490048145445,0.02781870242956928,-0.08030963850587645,0.297816244324644,-0.7539824349646864,-0.5832790613501855,0.33929027070834966,0.33926738594542644,-0.41476061571984696,-0.38298311704390364,0.7131179000317469,0.27349446108310926,-0.47412143425215064,-0.2471174486938697,-0.18749472018357172,0.15060627552079892,0.02572799850053537,0.3096876202026878,-0.3520661287435762,0.2176364065827722,0.6722482603470664,-0.7136675023426907,0.05450863379923846,-0.1557525583045517,0.21125972517468264,-0.8353218507124706,-0.6168575770463587,1.1945262179002818,0.062416031858671756,0.3103607095980574,0.28108333415879344,0.09122036205966355,-0.6324313094093277,0.09361288367566863
-0.1984248578404692,0.7895124035351848,-1.190265353727147,0.21692987876554676,0.59842224013703,-0.8851338579579152,-0.7760575468652935,-0.9013296834871983,0.24022993201005924,-0.06670177792558211,-0.4164281985527085,0.014493376624237888,-0.20476837442976434,0.1902795585681878,0.29882188970856444,0.1626677160439432,-0.18937505941612823,-0.17066537806593107,-0.586060020549747,0.6325716732747999,0.1771784640744421,0.0628215878040456,-0.3081526694914315,0.5254127970955229,-0.022933352585481865,0.28945052133004634,0.009107277983655682,0.1646798821916375,-0.37685046380623266,0.567747951586494,-0.2652232918188333,0.10927077033439966,-0.15521421160030224,-0.0015660872000002625,1.105623033214003,0.06249379600835128,0.09783568285497073,-0.17477291020698207,-0.14817194288720995,-0.09780319786999267,-0.4000710156075537,0.1399929394330042,-0.15330950563166312,-0.816041901879226,0.39444133160674766,-0.14797889459784852,-0.35762299728532015,0.37259127180263524,-0.394348834474388,-0.3397471715239567,0.1857373722863727,0.09892581645125581,-0.22997559911771054,-0.08720362868064097,0.1723944993873508,0.36162764161233923,0.6006857547510679,0.31859093305388414,0.28956071912990305,0.2001066382089961,0.5206817487792459,-0.2423523827354214,-0.42451469359552285,-0.15517148241220566
0.19554010917469242,0.41551508975756163,0.3544343628487572,-0.5569775794227821,0.7845611613620093,-0.05179836691280462,0.10606720072674183,-0.05912513195922045,-0.06704238894241238,-0.7215674869251709,-0.3784748628235271,-0.07302314105012209,0.42725892239281754,-0.03291521725085048,-0.6188420864484722,-0.03198890586309533,0.4488952607150918,0.35590531591345226,-0.0920630366273309,-0.6043747906385052,0.1407961321082543,0.4200858848835833,-0.33888815583792636,0.3137143194931511,-0.033730274412485016,-0.32536086759597127,-0.9681623781432083,0.32121819504156085,-0.20115162122998875,0.5305468680325879,0.9201931929799924,-0.12204841332793366,0.25094738455425486,0.4079748877434227,-0.005893868984648242,-0.025457508964775336,-0.3175384659324246,-0.009550617260666874,0.007820878019057363,0.7064910704602342,0.10065142827995972,-0.5237137593413608,-0.5816267040133133,-0.960356802732731,0.26883583749085505,0.24975062146239765,0.2386846380341968,0.22875103522141854,-0.24453878955891403,-0.10867144901530364,-0.3852170192399203,0.31602491355761464,-0.25753977186120736,0.5554315241961448,0.3255307205368598,0.224579799593666,-0.2071580398468566,-0.027003951075281227,-0.35745136737919925,-0.3765969010857712,-0.27505486262105117,0.08384842519724918,0.4497513137903236,0.6277623360016673
0.2650070712118931,-0.21402077234499178,-1.072242448856934,0.28264868081760225,-0.22290012462157927,0.13390166230279005,-0.3206099372264523,0.8473976131281592,0.6071298836409087,0.18665120050677342,-0.3202159348290512,0.40730257402984443,-0.34947673193270984,0.3512890665611316,0.2239042552569328,0.6128055208543975,-0.056702901544315835,0.42356393211957716,-0.8488963740527159,-0.39317589269389785,-0.5158598878398767,-0.5459663434728583,0.6496260689695157,0.002766531402972084,0.2962402028740174,0.04035154176063224,-0.1260242586399471,-0.4525619409411908,-0.4625409596176667,-0.20222566488281185,0.002104754738288292,0.0831588553108755,0.7167161259604536,-0.18890081592905675,0.2548219114526401,-0.21919402096567261,0.024800685824615226,-0.052584938359541804,-1.6142710827975453,-0.16735377252550637,0.04483388243499064,0.9774748276754311,0.42893408508800757,0.10802625659664121,-0.2154474846394042,0.16089342024390726,-0.3886936840777806,-0.11755640895009749,0.29396931261318976,0.3756292795738118,-0.2455104028850374,0.5129493793239326,0.2592627245405755,-0.2262941407981578,-0.09584730373572621,-0.028582032453768003,-0.35652248839627987,0.5975907455001401,-0.425011619401152,1.0198518043704063,0.09226509951659738,-0.29219673257706624,0.4523974942410533,-0.25104775111537664
-0.18424400871735924,-0.3407829908333995,0.3630138534315754,0.4912023219083559,0.16048085941809997,0.27858740238096286,-0.34517424463732305,0.00740980576153431,-0.8389381792523485,-0.2780212384763311,0.1313857989574733,-0.20612538897031626,-0.0297913609928847,0.2971078612480392,0.025532897367121173,0.1924497159235505,-0.8763321234967366,-0.5643473811208003,0.4958083289929345,0.17035285023499228,-0.6825583173168506,0.056130573004082036,1.221247455674763,0.46413142280301106,0.5119585908046167,0.381141044770706,-0.2837611657547994,0.28350141361190134,0.15635887865373863,0.4537519681098193,-0.16893162675631504,-0.12589984515863753,-0.2251663737878833,-0.09028588458505231,-0.26747817347779607,0.5411863881758836,-0.16108861837249266,-0.12440199070226653,-0.041159483837061736,-0.9296614106294364,1.152495748874963,-0.6596657687367543,0.10187992686509488,0.7762110411081438,0.9989649279944652,-0.32972490991376147,-0.4573245426893757,0.47784359095448825,0.321891086986966,-0.7257438943313396,-0.24406419835992468,-0.20717788443400814,0.03050918681449667,0.20624826130666762,-0.5520368155521389,-0.5131831298982135,-0.0030924154026896176,-0.2619371073591179,0.2728058499803279,0.09560088066334552,-0.5176225396251091,-0.27789182606759394,-0.12287492814073224,-0.20734504877966867
-0.14327539476467416,-0.23594786444024177,-0.47167114361380136,-0.1446257130781173,-0.015970190193768236,-0.20262298952443109,-0.005717932123366814,0.011980211068002759,-0.01938105054513415,-0.5307725650350597,0.12833167138342777,-0.05697402638498636,-0.1511055262071295,0.3569264020408949,-0.024552642713165245,0.29266179749375226,0.37138626380641054,-0.3802401560635655,-0.6436668104784536,0.9656238444994701,0.14197329519749718,0.14586564415114875,0.486606434577892,-0.25589258735432274,-0.44399358808253053,0.18549072258835114,-0.32123129752162216,0.13800563399112142,-0.18131676369414698,-0.8332583739555784,-0.3268108996667503,-0.4594617283732613,-0.256172807437088,0.14942409000957457,1.029631869787866,0.2458144099441459,-0.801892739048207,-0.21924424350249222,0.18098264645546358,-0.10856423965610529,0.131759607912756,0.29125484276604985,-0.776205772253341,-0.41171208077451243,0.0096081639687378,0.03944959380518879,-0.4022142647960361,-0.027696189951555754,0.2176956918397164,-0.3009584763673418,-0.42217660521902517,0.027501587578983328,-0.057601553375923556,0.5649986661635057,0.7005478335835644,0.49555642974297776,-0.5105116492505446,-0.5656676619212743,-0.2746199193447217,-0.3117534090610825,-0.15664764652178775,0.592184698106421,0.9414971559253998,0.14830924858743266
-0.5858431883024549,-0.7711774254491218,0.2301443395947584,0.44756657438883213,-0.06678622989163226,0.23713411699566492,0.10266810225469805,-0.22593120633542113,-0.4678105628331548,-0.46064209455927035,0.766962570693386,-0.28996164799842516,0.07678845583900104,-0.3604721108135947,-0.18405067874083436,-0.11877662477733049,-0.734023890941827,-0.6175204923522908,0.24917889389055728,0.4398018105101301,-0.3210998908720513,-0.09660756174328047,0.6788549420457691,0.2888981328861455,-0.3083883326010774,0.19324071301868478,-0.1395167023347297,0.3991972735511287,0.17232509718022732,0.5485107537963685,0.2989164665373205,-0.3436257140012412,0.15422332532447408,0.021839275438752463,0.2807822243627455,0.4376663531675489,-0.614406605046835,0.48244231707046137,-0.30252263931898576,-0.11268721809478742,0.0019677439787556803,0.9075567629179647,0.2692622570074774,-0.5322757817874854,-0.41701773921077545,0.08997971891894203,0.7597247870880159,0.22271930847247656,0.10556217507982782,0.1699824398359333,-0.4913191717156052,-0.07630432284960045,0.09389572383059218,-0.2478333834558295,0.055027700100730215,0.3603078371273258,-0.7205060758781938,0.12016778395961479,-0.09988534101412333,-0.48990277384488856,-0.02482647736245339,1.2926497165899122,-0.2400309756652832,-0.1995330499397542

hidden1_to_hidden2:
1.0001332527787514,1.0032845620221706,1.0000126982841173,1.0035331104887997,0.9996675239198429,0.9999161249874553,0.9979193478751666,1.002066225471247,1.0,1.0033870189885012,1.0034723500442,0.9999587558536677,1.0007897426552979,0.9983585755120278,0.9971865726985344,1.0012306780568465,0.9986656477283166,1.0083090973642643,0.9926271849730596,1.0025233138657006,0.998073003854899,0.9968504756380997,0.9962356841939016,0.9954720800275728,1.000969617064286,0.9940525938300591,0.9930326479390538,1.0037334651263687,1.0003882884403446,1.0,1.0039596604321857,0.9969984543775979
-0.21227984346089127,0.008102544944603236,0.44045686472843615,0.02375323358608837,-0.06665678772169897,-0.07663983029823342,0.2252111407152156,-0.09989467362895064,0.07851111134224624,-0.0014072129462235038,0.23139620662306112,-0.09115805758401327,0.21203385640689598,-0.041582616061683876,0.11243881614985794,0.02855727250455305,0.07234730725004898,0.15351896140422228,-0.049368965037853776,-0.06461060886423182,-0.03581059121150341,-0.02062034580332574,0.16125963820156627,0.28637258798168796,0.06128307770792212,-0.20063492811462852,-0.05121611411138907,0.006612215157264151,0.17304909272013433,-0.07971544057346468,0.22066412578101519,0.15269509752992994
-0.20771840081318213,0.0743343018589931,-0.2012583143444064,-0.11066764203337082,0.12067223947438435,0.38278648133437787,-0.18030245661937203,0.08540742491932204,0.1886212916394421,0.06429123476584712,0.11056417415557057,0.09781573673859795,0.08568780627956263,0.23128803059720554,-0.22751847756678212,0.10601988049175465,-0.4301202194200258,-0.05016714748978097,0.23554837074274765,0.08846170768291162,-0.019471090158990574,0.06766755902753839,0.021542602061766152,-0.009152990284426907,-0.040605932395665685,0.024389007404397454,0.012593967599231565,-0.1878400550662929,0.08130465542666519,-0.0372608143307705,0.17456085179121753,0.09518863807972819
-0.21211073140817968,-0.05738998806371832,0.027580072806676556,-0.05245776319846476,-0.2778254649149749,-0.0022050943054749885,-0.32041981239127665,0.13133697398852393,-0.11764249572222629,0.04267299134037282,-0.038155461788082684,-0.021592628207134205,0.18879821249982884,-0.03616862748623572,-0.39916349463868184,0.26334866390663,0.04932652049856604,0.014884736126816863,0.24683457642632398,0.04826036514649793,-0.0987257265168602,0.18500801592653193,-0.04806011829359015,0.12054435912547722,-0.08338686960766495,-0.3066084756412595,-0.09825784431160792,0.0031854612709799153,-0.14384975012205817,0.22669135356887413,-0.043960652741279284,0.40419649046475353
-0.11627671881922755,-0.10708068127091228,-0.3582902799008546,0.10289614940500161,-0.04362694279332253,-0.033557518398700005,0.06425392341088254,-0.2707306909321341,-0.00052240617154403,0.3893252112373465,-0.21793210074159788,-0.09692742167204864,-0.029754195534000917,-0.15927986014328518,-0.027953824971563696,-0.007765757023770082,-0.08252673822791441,-0.12918439537193047,-0.018676731860017573,-0.0024693436391442494,-0.046518893541691794,-0.5995178039193748,0.04480552804628593,-0.21142895023079764,-0.083594227497876,-0.1715408647597769,0.04555079806343057,-0.2679553856870126,-0.1970204326145943,0.19961161374892725,-0.27079008715801983,0.09138061391492859
0.2950527036508547,-0.04760365463544944,-0.14277207902073735,-0.2869790022054695,-0.2032133175454295,-0.00423180417789552,-0.19224880615203013,-0.018989582778225638,-0.15890424956055468,0.15611449329257227,0.12418865897933207,-0.037240015801245,0.061534147345528555,-0.29735355864116075,-0.11203740867284688,0.07807474780267405,-0.28415375263216186,-0.11684052589203624,0.0894837919674475,0.17045028687957972,0.2313771057056734,-0.03319356993371389,-0.4223099343912094,0.18945166779884046,-0.06837845173179428,0.07550150330244222,0.22161331742325158,0.00880494230590664,-0.029278684325597243,-0.16273558635428867,0.11869025343146723,0.035268332280001424
-0.13639788089296118,0.04240689427265959,-0.15885803807794915,-0.3381032514386643,-0.14266699974131872,-0.01469046510855058,-0.16099425796241748,0.2947505508173603,0.06088946541456666,0.16618316676382924,-0.20779682173130715,-0.09289326278615162,0.06708244952877891,0.3340248021855885,-0.3073586829530885,-0.05386505232426986,0.06940441835280517,0.09675168476223701,-0.27395587700414586,0.20401160048909717,0.020598922688550958,0.02601838981104145,0.015670815796686836,-0.48847982496653,0.1167436527253005,-0.09577022451607334,0.01473355688294992,-0.21389672419625755,0.22136510915730206,-0.16618953482556925,0.06168116642146751,-0.17898770403685363
-0.2780192492126576,0.10234264496945616,-0.11854122775302468,0.1799142029587861,-0.0011820673479633152,0.10647759876435692,0.004956587791072526,-0.19707291349170042,-0.36278329513373253,-0.27833942292795455,0.01935774071308353,0.13864752725106552,-0.3536141814065523,-0.09545147458832019,0.2893436853957136,-0.08134137052107512,0.11148381613681582,0.032668651788731164,0.03168139281588852,-0.13653834615716348,0.010463379282291784,-0.16010415594088856,0.2051966350276888,0.05860116340773972,0.023735455138117527,0.5012454152168974,-0.3056280316292603,-0.25102218604976456,0.11897896786710115,-0.12563735147103666,0.07327864014949649,0.05644411191733098
0.0771738645583942,-0.19780598473017,-0.09075308007014445,0.060025086076561554,0.1994014420574119,-0.18193071031993002,0.11904398512757207,0.1897581109544708,-0.1279446417988891,-0.1611746148123468,-0.1884996870382916,0.16546552489860442,-0.3712297449342278,-0.15921046856952611,-0.2993423037584115,-0.21104247657349487,0.07791424927304419,-0.02506534313428221,0.06595666753425233,0.28986368831503,-0.084804774714645,-0.13351083487123808,0.05753557290278098,0.07893337959711935,0.1149021715471308,-0.2821032044293473,-0.0022412709977743723,-0.12165426600687793,0.14549884219707626,-0.06451069816352717,0.043085212915600454,-0.03421897180305457
-0.029457419466742577,-0.005882423686312544,0.256714696010941,-0.4685899195345793,-0.05848667334899291,0.114871459563136,-0.06659710205870052,0.0022314210901004704,-0.3237805350547885,-0.06816118170402434,-0.051002078104806954,0.07465376774738197,-0.25646734395777265,-0.1385788792729338,-0.08756999396716718,-0.12093945145447633,0.01774273246731272,-0.15892071346247671,-0.13198367972097233,-0.04241208489822716,0.22354192393509303,-0.14343472676456182,0.029146144262377275,0.021762288145023123,0.07986749516693825,0.17443701848604268,0.009290414715546974,0.057637168503476756,-0.05574376728604762,-0.1423844888306101,-0.08949762868285206,0.13886752943439648
0.06172391883380039,-0.3712900893346241,-0.100705739215419,-0.04654617267858668,0.22966808007471232,0.02950295753515786,0.1004854802942178,0.0993784341263461,0.2217164906534884,-0.2210716647450413,0.13095516830839077,0.17403527553443118,-0.02323089880938597,0.07918391040797987,-0.13788563315460545,0.144783368060188,-0.03631702563854249,0.3150249778459822,-0.07425568355292378,0.11924744034696613,-0.04483203972447154,-0.020504931360520555,0.1064265212645993,0.13218743482253012,0.028901340721348357,-0.10973753256796974,0.0938470099881992,0.38187831726253046,-0.05814835725480268,-0.016661562991432618,-0.3278158641911098,-0.06430241573262935
0.10650725981514891,0.22643512475532823,-0.08157016617419019,0.0405761403647007,-0.030644600815436074,-0.06165913149721375,0.15200578278504323,0.0657400743012405,-0.034743885700924904,0.2043577325116744,0.08317041004822995,-0.008348747077654973,0.27031562946565063,0.019562763392031834,-0.03605929165795403,-0.06676887132733687,-0.22108274665607328,-0.09627238168566338,-0.19053488146027667,-0.17020356208667187,0.193449009908472,0.17426934456006954,-0.10951866369112799,-0.1642307948319601,0.01745286299242243,0.2264645785538668,-0.17647354029532375,0.0425296668255029,0.23986365974477436,-0.10971669672603916,-0.1397620431515969,-0.4446530483473321
-0.380604950475018,0.36589331185413615,-0.11687420978014262,0.0030370689007602246,0.11952461020163604,-0.20045119513222834,0.00911863050008773,-0.2515048029785504,0.0005493365546754107,-0.006412391334342414,-0.10508202186471251,-0.05806698633907729,-0.23975805133828265,0.16052128405944183,-0.02245696105048137,-0.21114520247131738,0.19968486778150965,-0.2633611253710694,0.02606493627818075,0.03785189040398708,0.029670067830503057,-0.07739282720644466,0.18549554030469162,0.23725467627179742,-0.15327904643044488,0.054023129714905645,-0.00532564397476372,0.014947229592301084,0.17630118576321618,0.2077313897181749,0.22969709454242204,0.10026812790895108
-0.19435021426644428,-0.195254892276219,-0.0012856315962195095,0.23846149580829215,0.037268971403648966,0.08419536391104784,0.024971228971504274,0.06617614733125361,-0.024872778304780376,0.037930822715001394,-0.145065334298976,-0.05032410102735865,-0.14506628753978248,0.10674803480464228,0.0351451732503082,0.012991848053562498,-0.17299161896368564,0.051917960256903574,-0.23274064515369014,-0.0002668052873359891,0.05849832549606525,-0.11517159406380273,0.11739673616567667,0.08635258142003466,0.18556869004077717,-0.03798065612561609,0.1985801842297805,0.21509130679493826,-0.005898997819121403,0.12204676308922975,0.08985016092769019,0.0560201555110254
0.0958458456671129,-0.035581170382913835,0.083785229864996,0.1606447400775196,-0.20401351919876173,-0.031202225058310624,-0.125490612290925,0.10615792857626478,-0.04233430846577919,0.4157401752512477,0.337240806128803,-0.23173552325796407,0.09932615068155487,0.04936907623339402,-0.007740023956971308,-0.1911273906840385,-0.1848120895852902,-0.003599672326939086,-0.10386109309760017,0.06389133135362161,-0.06407099779801641,-0.17830251714583753,-0.11409352312191165,-0.10016951646924584,-0.10979557142991127,0.22978541698560434,0.10253743618444511,0.2079110502917866,0.021872098478211217,-0.09287938889762926,0.3915087836909172,0.1032819918533919
0.19458655082901322,0.16973014347145274,0.13918278329765144,-0.11313783726862955,-0.11617601739014047,-0.05035571659283438,0.356334818567123,-0.03925525135765594,-0.1484127940589882,0.1665199041137366,-0.145005530286471,-0.11231058009785999,-0.05954790301497012,-0.16117963830713197,0.047735387516824095,0.1039799593527133,0.044677825929916364,0.1336549312861522,0.047164642772023646,0.023366986400844215,-0.05301320660639618,-0.03304954571149181,-0.012425077953028808,0.22401256735889558,0.09849847347137619,0.09674969266079791,0.10398526160650753,-0.40252509766329403,-0.1584831716918062,0.19179290348322423,-0.35208256899344187,0.018788603221500434
0.1668418997056436,0.05091449745948519,0.08115670051558199,-0.2461880867304593,0.1563031697018711,-0.27082465870322436,0.2012381836371541,-0.024959777759187556,-0.14172785444376276,-0.22081752771234442,-0.17533149766224854,-0.3377925332420272,0.04874238470984159,-0.006858765254195935,0.04401659918248765,-0.12275754000314568,-0.020244927253806957,-0.1818232847443773,0.1949339128978454,-0.013134123016815224,0.09133809756133716,-0.07509003794380144,0.11826549934956103,0.36796102253318846,-0.17009350755079225,-0.0610820720598353,0.0773070158999581,0.2004118098469976,-0.16792348031787543,0.018994145645333114,-0.10720134274756021,0.03366069547017075
0.10489254627377011,-0.19486654183042176,-0.2377882354580559,-0.1420076077525756,0.010263462087515954,-0.10900887343871463,0.4680274350078758,-0.044478333336502376,0.01646994563677896,0.06622663735757463,-0.05490066465825928,-0.26517188378829354,0.2191436832387092,0.04318517486296914,0.11573671876225491,-0.1145251117569336,-0.17860682922913945,-0.1473645589886714,0.12471969043373138,-0.03725848211244547,-0.38629394028152747,0.08731094608045314,0.13494982905402123,0.26349489468504617,-0.12099188254024974,0.08677431308205247,-0.12564973670077623,0.07901924666388022,-0.23086525057584995,0.0327334990062951,-0.07971641396116164,0.06956664309907677
-0.1019180681866644,-0.013026625791793752,0.08568018429254683,0.34658980109259824,0.013323942439894414,-0.3211857590380698,-0.013037885374901529,0.22134576062754116,-0.07176656645363827,0.07804024018771769,-0.059124585705261676,-0.08489735292229939,-0.20805624080070087,0.17974685450397032,-0.12239275875540373,-0.003968956825415637,-0.11055473628252845,0.07771037228928528,-0.09130373439846333,-0.0515460948023997,0.33379334079322137,0.31498625962055593,0.1026525072301275,-0.02807157705404459,-0.06343706787178885,0.1507837145147013,-0.08074982577229335,-0.02130122089619702,0.13376417513005665,-0.14621473053290077,0.11650065128036782,-0.138938122923993
0.08841244749657995,0.15392401490556876,0.08127351613219946,-0.28755538775237144,-0.06281259005916663,0.03632330487686342,0.11453584827441285,0.3167523791674113,-0.0029159251513882728,0.20226812123097707,-0.05429895468116819,0.10301722740610675,-0.14639772275509766,-0.0742465503228251,0.1496700107119836,-0.14595583167090906,0.028002237616130632,-0.15815945437054793,-0.11951289675288594,-0.17125593166663827,-0.04738924273937932,0.0662120065614169,0.04643291823028012,-0.13373068858614542,-0.001450026564719178,0.05198933032154246,-0.04751665845774532,-0.20844859699161258,0.027149070571664775,0.048538677831227,0.1347493560334805,0.015674869828395388
-0.12667492760444696,-0.09573365498782778,-0.2701796786502117,0.08978892600689554,-0.09415536329540207,-0.03268509973481247,0.12112088658905025,-0.1542358746650791,-0.04365249175980487,0.15853522426412925,-0.09794018113624446,0.03460620369380763,0.41572878858257006,-0.1124073700562426,-0.28356147029279866,0.004130728675350769,-0.09328580501919119,0.07861107700447834,0.17172384257652704,0.0857155992783239,0.045904266016941676,-0.23214148293790013,-0.37091608977874113,0.09579874177936488,0.20768928964851657,0.05222324005086612,-0.020442413925206376,0.20749126866590964,-0.08985102443758981,-0.20541542960820605,0.20211848725882128,-0.14647738067671023
-0.032181876040156605,0.09128407946342716,-0.2377632981588685,-0.036372122667737074,0.5488429789556705,0.10506060296841152,0.07858990947976648,0.16152216305208147,0.057482997601029144,0.2374907282901845,-0.14948599424046524,-0.05901519891836287,-0.03557872711735766,-0.01738904403200142,0.23117254007968738,-0.12665577775295453,0.16762483572463488,0.0019608051373105704,-0.020516373004335727,0.0722326051339396,-0.0017049867745525438,0.06539441606162873,-0.18296729441622542,-0.06010772614623708,-0.0440676186163858,0.26634188609093734,0.019886661153406683,-0.17752490405837634,-0.10246547628499889,0.16618903572682558,-0.1845595849513156,-0.0706570036604725
0.0027573087885644177,-0.09106124625008363,0.10067614844051886,-0.26022140964957924,0.184382193115809,0.2662668820843629,0.03755155133566456,-0.13857393744847674,-0.2832675514468321,0.10536679244435398,0.025571454650034804,0.062592370383313,-0.09526373899680744,0.23296964870309253,0.0986638333887336,-0.020540818514135965,0.01290958510491849,0.1290500626883801,0.2108288669178175,-0.07638062984499865,-0.09859726863111963,0.11912694949703179,0.19766765579708231,-0.09704168801473584,-0.060868632916686975,0.04700318434672746,0.0007865598699428781,-0.23970791429862653,0.17517859148635467,-0.0029755269587013284,0.028591923374249772,0.1704333122114658
-0.010284627725695031,0.08499812379406566,-0.35498968205565795,-0.3049718413088377,-0.05356257185842723,-0.18077264224361247,-0.40054711991830383,0.0631830294842611,-0.02557687494010272,0.10201330043172753,0.21020496933965438,-0.02695734448815332,0.2241596686473786,-0.10448673186039185,0.35556194089577675,-0.15219197446128932,-0.15576230660100512,-0.17984324013208164,-0.0515023465744748,0.019607320159371985,-0.3065381526539254,0.13784729594889117,-0.17441417280418564,-0.028305970895165584,0.08452519769565318,0.12175713356377825,-0.383143514887089,0.03929280803283905,0.0904408610384798,0.039238063220634306,0.16010192130326015,0.17045653761863983
-0.10842908416888336,-0.25589273628213877,-0.07105474367998908,0.25182481096151893,0.038577412582260856,0.09069167338295593,0.39015869446758683,0.25922946909796324,-0.3592187683706143,-0.08702698252974586,0.09910514719027655,0.076057621195136,-0.03429621782170168,0.4210605489110628,-0.13708959120005862,-0.3480683683115044,-0.2845293486667414,-0.09422115650163901,-0.057033573873665186,0.05166024381428011,-0.01733945620723829,-0.0186872034347487,-0.0864829330257403,-0.032692490072910224,-0.015588893890432753,0.0556421008405126,-0.11678887745538374,0.055545782548910724,0.13401775434246277,0.031253856773780855,0.06994091045866498,-0.054732029761898796
0.1768368568510636,0.24918505956684195,0.027274968288046847,-0.12999206543791234,-0.2232287235215914,-0.3364409529929714,-0.07288658716293184,-0.1571478429785512,0.09561664713303529,0.2044620718408431,-0.02656251909506412,-0.10851031842705994,-0.0024760523646738084,-0.49151037222893806,0.0912399800481668,0.0025714872368851503,-0.09675077693810989,-0.13983665776123744,0.07262263707576212,0.10783353290141343,-0.03288356983665005,-0.017476498344632944,0.06730177693081699,-0.058649302058590036,0.07634257126213298,0.240651097276678,-0.10824006300250616,0.07676858545817491,-0.04802729938157807,-0.2408757882228723,-0.2855353728724522,-0.12182389196164696
-0.1672759920682637,0.01045046263951757,-0.06926362137229261,0.030565721948917848,0.05279760920461879,0.1563295130638443,-0.05314312531923153,0.007970016015811826,0.22159819724890087,0.23295018419100214,-0.26358967418060864,0.11487409729992827,-0.12995112789547292,-0.1880401464127896,0.03673825439198765,0.04372836013442508,0.013942926211255747,0.06244050733976946,0.35306402991509145,-0.008354648242110725,-0.03240789514712488,0.037183631748175,-0.01689503018656942,0.048203547945008134,-0.16642775080977926,0.19538039057856252,0.010111133959500675,0.04432567285081701,-0.1256176509495959,0.06473863902239883,-0.21272846995347958,-0.1509472125114736
0.04857816700639852,0.03934105589536715,-0.2578614206833532,-0.25673138232155845,0.2548619763002802,-0.17888129321348598,-0.17806486760376822,0.23362186627811604,0.14964746772139248,-0.10675853782343946,-0.07526166095145738,-0.001081741731208579,0.06167332366898173,0.015307087354043276,0.07197425192032245,-0.29543330262816,0.09072765325915276,0.16451490643246433,-0.1527401184926665,0.10317919606803627,-0.4148490316900276,0.2729616655940968,0.11055762724387483,0.05054753203482847,0.17516317686039362,-0.2056588879697697,0.07036254355976415,-0.0882128788154648,-0.3081591839120174,-0.27370120963776345,0.17016887277522347,0.11511547359017671
0.0560622018586944,0.41631855748590624,0.16034857028012608,0.019831845571787615,-0.07792167243920742,-0.3793583079546631,-0.12312858839202757,-0.06135734134533919,0.10309758229540819,0.0037627616670895996,-0.1055036251776701,-0.06081089678077197,0.20568154708953038,0.29873300898764593,-0.24281031008112933,0.13362165215384955,-0.15266117485187497,0.13195958805709684,-0.10307562180570236,-0.07687878335227609,-0.13050961734867622,0.07733901540949173,0.23718792380387815,0.06897885163296003,0.1747074240938111,0.20360480281656831,0.2619202083171572,0.010049348706563701,-0.037271760943867124,-0.18651146066741528,7.900539992995006e-05,-0.06240069240471668
-0.08178496079227308,-0.12544474092267505,0.0885952945702212,-0.06486955461913056,-0.03718813368968651,-0.35546716335724715,0.21191057023090326,-0.10444197574121832,-0.4298762647214308,-0.2581566266765826,-0.11046433393661398,0.12495330391724042,0.15895061646422598,0.04434088444372353,0.3455248210793557,0.04061064238686812,0.016344212339920183,0.14201440965936815,-0.04239631266538301,0.06421354264720724,0.16216635241381888,-0.2043413543126073,-0.34603765571287237,0.035312779686225634,0.07332953521429986,-0.04614138837143448,0.19481392391464752,-0.1512084512106551,-0.06956589465768069,-0.07791918274675441,0.10598444321666425,-0.11493936399866565
0.06317130828995532,-0.0892186909463612,0.018867455615497776,0.24279005054034963,-0.0649547309771053,-0.3275790875435654,-0.1485469509873454,0.15739589763201411,-0.16805951264675686,0.06228181460073549,-0.03845036199414675,0.013202289553687345,0.044873088778649865,-0.0012829793527720278,-0.15894748488918573,-0.05515292879165052,0.12449675052166247,0.22060656888121086,-0.026263786007859922,0.03052629212872599,-0.03383361057111158,-0.09203131025828717,-0.1044101720900728,0.18508743465470212,0.013098570279355928,-0.04877055326484706,-0.15749753551535356,0.03846265889596657,0.08233960686007114,0.13558098743060099,0.04972009911521695,0.09584940701667717
0.05234848859968816,0.23277982757592616,-0.22868708313474484,0.060254588116676125,0.4659425049556742,0.29531431688203413,-0.32646245570050075,0.301820630739063,-0.004835189882450356,-0.002178471594049468,0.14633906725422877,-0.46311992723447304,-0.46153574056163327,0.12266266753698045,0.1631157538647339,-0.1412571774348454,0.15959444990669897,-0.23816100503130677,-0.14732190431610917,0.22127718320609288,0.12041337653062534,0.17717276777311547,-0.08713399690334546,0.24583511223301088,0.19382592026555828,0.08027910616371385,0.1733719627445395,0.05860426883322059,0.01568682943795401,-0.021512612484959084,0.02550192844926068,-0.19757523401291416
-0.13854847759781955,0.21762064229234657,-0.12183740250873022,0.20895909988500308,-0.2410727998127958,-0.18352840759984476,-0.2114883802920664,0.05369629348852747,-0.020025232450681666,0.03311256322443555,0.04074390194871027,0.07645501581830043,-0.41333583884439207,-0.1941284836846017,0.19591192527511817,-0.1362698572998152,0.2762151292291629,0.004938843481358134,-0.03850583362933883,-0.26667488568948505,0.07642435387110773,0.08500610990852144,-0.18415346359844748,-0.11603487412521861,0.2663201488659571,-0.00546251508032392,0.24458748927922308,0.21967300951255644,-0.06584198938483085,0.1106587249324591,0.1362315764730113,-0.048236456554935116
0.001128908740662568,0.05237990292251416,-0.18234687428740698,0.13296140082579017,-0.26105328574934794,-0.05376062224583431,0.18166627564699248,-0.05890599417271202,-0.039971189067404274,0.10147213526355814,-0.11816814541556171,-0.026620932304321915,0.25338485670867467,-0.14175942985860773,-0.18324024065127997,-0.07340109182232883,0.06242699079009208,-0.0052611008906537655,0.22768482785276214,0.005887749639578579,0.05027159891927725,0.04438464712315341,0.31388264879051836,-0.27214395447576767,0.044000060721481785,0.002598905178975638,0.10620861085545344,0.036202371417883586,-0.2960686833414795,-0.08632810459360168,0.08173019729779951,-0.10657600738218659
0.05747310654476586,0.16681798029826797,-0.1301021902662756,0.001114381562376836,-0.04558685890686709,0.21674475474914728,0.25088399343721574,0.25605403171324315,-0.4280373478991339,0.2950026515188393,0.1367789328439375,-0.20694693662135105,-0.2297653154850156,-0.1172313681919942,0.1852325151797322,-0.04338337324979947,0.03909229952398004,0.08578806642795368,0.17127056472495594,0.027517077092740382,-0.16334750833873393,-0.008061881108584768,0.057870614633985636,-0.10598225729849352,-0.0825727017944585,0.18930562047456087,0.002484445871479358,-0.30661341621144567,0.16644571311027795,-0.3419816250287047,0.06796523325255995,0.14650755785501357
-0.05455442955368138,0.002734177001834182,0.18287634518233242,0.004050263266372131,-0.051761996315434815,-0.08930032319985386,0.10982087390117762,-0.23981088242089177,-0.07177395454363754,0.09124760895889822,-0.2040098874502551,0.12013846236801162,0.33590825525044826,0.20971242528776524,0.03148044765681829,0.06413066160536157,-0.2602196734195736,0.29650190390886877,-0.19103138719004978,0.35366448177719373,0.09052305440090985,-0.14704509371629515,-0.21983069144249198,0.20356587064301712,0.04886600574377465,-0.05483577859186638,0.25483913187097884,0.0400127597302665,0.014466604924406408,0.04605890933456891,0.1736930814710268,-0.18189660351241527
-0.11306043687009777,0.1154971840867103,0.24699210441910005,0.17007340639808843,0.03541993199519176,0.21040127486122848,-0.04001500682565717,-0.3624924515040826,0.11946688264910858,-0.42201794939903836,0.30671155362748187,-0.23803361092071018,0.04630781330839069,0.20446902779107926,0.27683986346164813,0.016395957991378045,-0.102841008744002,0.02074450935993892,-0.07067054463650224,-0.14288883070393238,-0.13022371754099954,0.17527543004794555,0.03796177586350382,0.20798295473343428,0.06506750177670102,-0.1262362494478156,-0.0715985504518368,-0.07678893407098257,0.1645737855351716,0.1860707046975555,0.05691045447714041,0.11322349825846477
-0.038552888179777936,-0.20986853465919997,0.2421329285844599,0.13575036752916841,0.32201719220714214,-0.15887176269820946,0.17169448357617642,-0.20993874575497587,0.07242743943362731,0.11388243488646438,-0.2630479393667077,-0.040198879489258994,-0.1875711972242228,-0.2432014519949097,-0.19661132044358365,0.15090254545165405,-0.23104323369193872,0.01930131593546256,-0.2329644202365595,-0.17504279111028329,0.08015396116342459,0.07263617349612446,-0.002413627152371731,-0.15071472122424018,0.18799487276485802,-0.3089890062192173,-0.07686367682565211,0.27168247609142726,0.09149676210696125,0.0958976905981154,0.17239408560149808,-0.12624766126438977
-0.020238997544992036,0.1711887078910319,-0.2684418437983218,-0.0514403062374821,0.15033866357457978,0.3016431067802451,0.28641697748033684,0.316371452004861,-0.08693972073034421,-0.02974480749664837,-0.0716154427606614,0.20180461043255393,0.33935335108172593,-0.39761418497497747,0.1270283719903278,0.06029093005893619,0.15678303005388897,0.019849023929330186,0.1103373660551023,-0.16475273600297033,-0.006042375424851217,0.16777538678197293,0.043324189736235134,0.021317138003812727,-0.071184264571114,0.14002998960445842,0.15320115936600284,0.022471216331025706,0.5376119897029334,-0.008146014038596735,-0.1477395809926683,-0.19766070143708958
-0.03316245344047914,0.23929152310220606,0.06923417434495824,0.17379139668152888,0.0034545605110012385,0.30826730771810595,-0.1375274898042896,0.11762932200758931,-0.18577817998561905,0.021495208668126067,-0.145462433934837,0.3370553510500819,0.04470514611591704,-0.08801606296726071,0.19980757889007467,0.19884810793582372,0.03508354143761452,0.28209025053786696,-0.04705310403229233,0.0035740392256754954,-0.18044996326764554,0.2675150327355725,0.05234757110835861,0.18476529315283186,-0.02911126812940598,-0.00015641883345113804,0.1444998069441899,-0.15241607477073818,0.026916755107632848,-0.24812499815085357,-0.10122332295640926,0.370940989969865
-0.3230370304364664,-0.034509942955129165,-0.16064388218303374,-0.06313965106203925,-0.10454976751627691,0.036096064113442204,0.06972629872676767,-0.22313920370993776,-0.19170963152910292,0.22339407246084264,-0.23961747795400012,0.26592552211642295,-0.124673994263682,0.2142108429549445,-0.02254613163925627,-0.0692987309411369,0.10023862014308024,-0.09959174772621976,-0.05106851990459324,0.06373749623608682,0.13269528306634207,-0.3104454624849653,-0.18133071663361058,-0.0005982876936476203,-0.08102533644843872,0.22116028792000164,0.16601384352276505,-0.008430078411171072,0.06517311098995415,-0.20124577132385746,0.1737744673109501,-0.1451178210391262
-0.026761737648373904,-0.06256431966021571,-0.0569016238177294,-0.03151989405389741,0.14894004383312814,0.08357918036410006,-0.04427459660155226,-0.09004470999763298,-0.22026670370316376,-0.3099040508045199,0.2195835145106596,0.1666805612170007,0.282332787931837,-0.1159740875577316,-0.03554506235088587,0.28607125303237485,0.20972351700055708,-0.3672673503792467,-0.03202698859234727,-0.2517770086573265,-0.15872858055000713,0.0019340926444652593,-0.030598818323164995,-0.2879223427615085,0.04498386897979013,-0.13788752768430088,0.15225907249456297,-0.04678924508980299,0.03967035511974446,-0.3301472197726066,-0.0752169819678915,-0.02701757453395496
-0.2840985954334392,-0.3547429378026461,-0.323920144691042,-0.13723252616331005,0.03369997384006796,0.008210531784857181,-0.37267136784055366,-0.22431330900792323,0.0192064718408111,-0.11546012327567327,0.3056652743655219,-0.04636953110944468,0.0023014284310271323,0.02757373558295563,0.05392644777878402,0.14092324922683652,-0.12856815874188893,0.35858455282678126,-0.05146008502753624,-0.05044288157423098,-0.16823883669929074,-0.025567980397054088,-0.4474482548634672,-0.10626267861660095,0.006501464696245102,0.04867797150125161,0.15861822208952683,0.15514025705629667,-0.057359099929360176,0.23941517069053608,0.1892267284946818,0.0923718392847104
0.0326591161937523,0.02951984524601787,-0.0639304089799691,0.1483795409477012,0.02192573267464371,-0.015070839160778605,0.048248704792771206,-0.05469100954836709,-0.029981622269230557,0.3714672588228312,0.3219699972353278,0.20646059901734906,-0.05030633628414922,0.08581956247909257,-0.19409350380112828,-0.19088323221577383,-0.020921523136810498,0.05842022143489554,-0.03730050882163645,0.17196345722671333,0.08243776929031355,-0.061308733546321395,0.007134620544983178,-0.13462794586336171,-0.06602598625691439,0.007770951999972325,-0.0751046039530632,0.011491914806595619,-0.006051382765834597,-0.3377021852559669,-0.14935618000171083,0.1767031474544582
0.36062687038360497,-0.11627152141507095,0.17657494718258218,0.14043479635806566,0.07901193160259605,0.09569255066154687,-0.19982462369014659,-0.057876610985572764,-0.3484210042589103,0.09227719264466981,-0.12116949988827506,0.00022709946287175617,-0.10950713590649343,-0.20249469670393197,0.04377852758939119,-0.11024961933628197,0.020068362334465246,-0.34832987776893853,0.06885153902903969,0.1642917122562746,-0.16700063251776132,-0.07723274214477001,0.045106030151709504,-0.14406431199693945,-0.24221386500356126,0.15606878731710225,-0.10892312117042423,0.3033981336923182,0.017507096381962923,-0.13830856820414938,-0.13391036136611037,-0.15438161901880493
-0.15157412588344926,0.0669606390242681,0.08379211148988473,0.3318120289950941,0.07368245296555553,0.22677785850855547,-0.2991259816990792,-0.07549303262583475,-0.009485061594486147,-0.011249271298656658,-0.10338161278743734,0.05954403289148798,0.3766076155623342,-0.055499542466974784,0.1178241235348577,-0.16357366431864534,0.1015321881566334,0.00047044232757542225,0.28509554280842175,0.0360547674884788,0.13967449445435692,0.12996271270881576,0.16614246056516596,-0.02304765088369734,0.07586367765864802,0.25148916642005387,0.15926453878784985,0.1449303673195885,0.4096556843817858,0.2192295465229241,-0.11837401811264445,0.08426204213368954
-0.08164343473977978,-0.11580579503374422,-0.08553511361454069,-0.12051980110586664,-0.02820889594644402,0.1865614894508312,-0.028737787184729267,0.07586154457689373,0.0007364198770931521,0.024731320520556217,0.2142285190614046,-0.03669962656544465,0.12540944235612625,0.1464437350804047,-0.001875758008034068,0.17359264790891893,-0.09721119938498655,0.03171118560490094,0.06452114596160989,-0.12158917170266326,-0.2699457936318941,0.010627279816327682,-0.09205900807197712,-0.2194648308391836,0.09018260254166714,-0.017166960475297092,-0.12238624200049208,0.04344546245467959,0.029910370633845322,-0.03953541396400133,-0.27318624959891635,0.17382276727792825
-0.33503183733745806,0.05470719263123807,0.0013090636727484753,-0.12959321662893192,-0.007709477898155072,-0.4444685593929862,-0.07719019309829912,0.0024714675944129557,0.029324868946257285,-0.06417232748273258,-0.032103882587139525,0.1754941093475254,-0.05651496252527841,-0.030249861169338393,0.039737734477325794,-0.2571157076296884,0.31844170089300433,-0.12896561440604914,-0.2358712701098961,-0.02153097318107291,-0.06527014070281623,-0.14198364050025794,-0.07937308007389385,-0.23382514561982287,0.004562531766565037,-0.04510095916140315,-0.33438597632299766,-0.2374199613608435,-0.24547722786832787,-0.03742109895442785,-0.25560674583964,-0.16868282818405195
-0.12595060954492038,0.37908268392711725,-0.19034843662038894,0.4092650197483322,-0.06709447236134863,-0.3202893730589501,0.22871615157636138,0.08248724273765147,0.2672926004603833,-0.08179875448066024,0.18747530522619651,0.0031598165291939354,0.0388826153152652,-0.17301158650170506,-0.3261672585233946,0.05832359659907213,0.14134780620696485,-0.04144804428113381,-0.19370932642923777,-0.008723114041599343,-0.17997187775008602,0.2586713183034181,0.05243173039255608,-0.10747722826093184,0.05710536983227483,-0.019530773722027942,0.28429772795700625,-0.22142636203034544,-0.27758405508617756,-0.11638273350769364,-0.13780695374862129,0.029488770182015556
-0.4136459263777629,-0.03771264871691284,0.0740538852255254,-0.08784536752934256,-0.02390271643671237,0.2185684929050309,-0.10243304673978847,0.009169066883238992,-0.002250435993935057,0.057820308923750216,0.19842567421122148,0.06554431969605508,0.12172992885304475,-0.06583912848113824,-0.20884185263442598,0.07083436308206406,-0.23586813615296207,-0.31988193673541077,-0.1016497248017141,0.14298583312918273,-0.13976227564423413,0.02481369338101974,-0.26550394826173257,0.1584321062547034,-0.18533454647143693,-0.22393423447597563,0.3316112603020043,0.18853581373092307,0.14742087498034837,-0.1628817075084986,-0.25927271580115197,-0.10477646023489288
-0.20553308597449066,-0.007534821220606667,0.14125677391975203,0.1018421878635541,-0.030877813342902218,0.42490647559473466,0.04632318483462268,-0.09067437323175354,0.06992202898245044,0.07676133096928842,0.1649350104470456,-0.3535260260327253,-0.0606854184946443,-0.4674126788212489,-0.004931602897541671,-0.11180807948011583,-0.0570558321807458,-0.07538022135515242,0.08758413550930504,-0.13503483876591665,-0.18705364954514675,0.021002014389216384,-0.14126145552286087,0.26406927045217593,-0.09800341046497146,-0.06065003489466564,0.085168925580424,0.2339783953309079,-0.03286370925556788,0.1253232637617351,-0.03395839851832808,0.003343403268069882
0.3753413646411217,0.016505706513302614,0.08098664370143567,0.13837150991569322,-0.06270357640884806,-0.11230383736193124,-0.1408224401271655,0.32618546128227316,-0.5497326266386234,-0.09713961690223541,0.14787175053450125,-0.13426254503891025,0.0901181910939261,0.1577932701144563,-0.24294133745810959,0.15934206436326417,-0.06106509182655395,0.008245924204132482,0.018563955323743896,0.09185757213604379,0.08730912254612931,0.14330571752915156,0.27995272469488736,-0.12928137619157498,-0.20335072097596887,-0.10844619512305521,-0.07506801451846368,-0.0864968494082724,0.10683126213025824,0.017019975276107126,-0.0376324162811252,-0.06268917593221623
0.02905489808690055,-0.28033578723762187,0.314929048346999,-0.14746959328761092,0.06207637357701291,0.005529426603218921,0.07068499426767656,-0.37539947910654986,-0.07767998689550436,-0.1895097073980776,-0.16985763412391194,-0.3009179782441028,0.011855005561223238,0.07485315555786469,-0.08126577818786354,0.08520443026510022,-0.13666288364526855,0.14229211333082614,0.2283822694597453,-0.028313433902747733,0.017095561334853033,-0.016280869688246914,-0.31912930762978453,-0.13544418309186232,0.06822329203103228,-0.15686273255201763,0.012969803893154677,-0.027532913071998524,-0.15632891466667334,0.09974170577795541,0.1574920942696832,-0.10139712782124757
-0.13422993842740352,0.015570044763495319,-0.13266301828352117,-0.0820947310110514,0.07825746240559042,0.029436829964568204,0.20351507100629518,0.258673332293125,-0.14879296228119074,0.05095357773141952,0.22847378846300712,0.018374025828585973,0.032486722018770474,0.018046597444536648,0.035878906043694335,0.06552943530731757,0.05482877102337937,0.018854476668162444,0.03225003605331067,0.31925716928829745,-0.08253318055204933,-0.17560972170787553,0.00846756738891386,-0.05377164875953035,-0.07811185635804252,0.028972781284136537,0.10688714086900165,-0.03063786350687623,0.0054132601987658055,-0.10190531544691038,0.06717286282692424,-0.09984941542347531
0.24278908360231705,-0.24099637840092392,0.12072471551623008,-0.037304591253572245,0.2459523816801397,-0.15971707705186322,-0.32035567829784917,0.015110702015651596,-0.08763997814962782,0.11893574658075233,-0.13287436482482373,0.023691407492834438,0.20345098621449953,0.050461111890761745,-0.04251676113121879,0.03022426704707644,-0.22235047631897664,0.09444114900023134,0.28413405982452716,-0.12092063463116023,0.3678188298316912,-0.1193552814431131,0.1901556156205333,0.18456160083496817,0.06755883857417631,-0.27755609732057085,-0.030487733454908586,-0.18208450651226513,-0.16541347826203198,0.22612296119402975,-0.41795390751146183,-0.04317971337087733
-0.09165502400745834,0.17215174109884568,-0.15342119264935644,-0.02805316679056109,0.0756278514567849,0.023779203383193812,0.014807799024100116,-0.26370325908783093,-0.1175531118891727,-0.07498391110785585,0.06334694884658583,-0.23015979793849992,0.02248286706714412,0.1235459621792723,0.11418085891471486,0.08881578757024206,-0.46571760671043244,0.02042135897714126,0.23681795699879252,-0.03299512843143918,-0.06591669512541547,-0.004884781701349015,-0.1877311093843203,0.04693463077736468,-0.10891381897108836,0.2003550584276483,-0.08403361475453945,0.17872009062159896,0.06915010012169288,0.07830315558807463,-0.203658670350913,-0.2015869321552618
-0.20837060443428207,-0.14861720483371732,-0.016903203628926573,-0.2445032083255707,0.019070741096642176,0.0168237654976849,0.12712573783721567,-0.02059904283575392,-0.03770034661581497,0.0135282629504043,0.017610967590366573,0.1594176727212834,-0.05123150151608353,-0.2087307189796567,-0.18063692360530595,-0.04414028902094287,0.06972143453755379,0.18025782981664315,-0.16442924557410268,0.3318959683401537,-0.24520367401718948,-0.04597724271978502,0.43377197581498733,0.13910956716497763,-0.13810049320499573,0.1482105293330437,0.10503262794045502,-0.03740941294172536,-0.024897514008515982,0.11224077191335327,0.10315095326465397,-0.20475207699754522
0.09799873480750208,-0.08518824084739457,-0.09761342904459833,-0.07900450962876855,-0.11205550511526294,-0.20668387073504643,-0.033357658018159535,-0.2974460293467996,0.03241626137917002,0.17775977921158753,-0.19215112484939434,0.02886118824851895,-0.17621211079767427,0.0859182041978401,-0.24401421354270236,-0.026760989903618027,-0.07098608883117963,0.17274071091781712,0.2829878917493522,-0.10855444185164914,0.3693947615497325,-0.2653464729444076,-0.3010304035946571,-0.04462577934125401,-0.16571099169374595,0.08639161863133307,0.25285673878661713,-0.030483774846837473,-0.1920565417595585,0.030486950195462107,0.19347861788058013,-0.1321354582564113
0.10722392777385191,0.08051681460086021,0.3114865992028113,0.11935705922815379,0.09403959396923979,0.07044057857990593,-0.23361066664507263,0.12143072606356883,0.10233502470608054,-0.06021667781055338,0.012924638888409869,-0.1390609490897819,-0.07480975228710007,0.026925282912334977,-0.15835091867675827,-0.050628396318482434,0.028483127086774616,0.15904831907579242,-0.11977423511755488,-0.03690467541405673,-0.13816555951672804,0.1240966960330716,-0.051144183481216764,-0.13889898764442743,0.11006716472523147,-0.2421385704597846,0.0321066918699552,-0.15779260132484837,-0.07107730203066027,-0.31618713784351715,0.21449122526108724,-0.014175521845619534
0.11596457593820664,0.045714628105340244,0.04308123489382362,-0.06248667776828964,-0.034647437386186496,0.09172043559029228,0.12120773250941548,-0.2297075753280929,-0.03125129025505417,0.27335379302825663,-0.19577672475641944,-0.0185626773771218,0.2859616840901094,-0.2626472702532792,-0.0008299100653911935,-0.12141485856077577,-0.012903986753191652,-0.012986770630485053,0.06145772418340928,0.027583910144801063,-0.3090997650774427,-0.21932055547527307,0.20135113817242442,-0.2527995194013204,0.3209328289599465,-0.4407312691050408,-0.23942841304916687,-0.061188755164604744,0.27023504767240175,0.05017235840016602,-0.17338952304336713,0.0040253890567361035
-0.2785065310213182,0.03155047881619339,0.03231411834444347,-0.2065170181335458,-0.10027600281550475,-0.04621981464302514,-0.10313360501100013,-0.025713100414354793,-0.07557594172108725,-0.405362622229825,-0.34086444682122996,0.20944209242491788,-0.029112937431612924,0.3214670987427211,0.35812252783358484,-0.09447567708707164,-0.09111357147469244,-0.18338962254921545,0.07367214393353413,0.2153632461110186,-0.043111976988304435,0.1978802127192825,-0.14826594959997286,-0.053190249790679864,-0.3394528182724128,-0.00926277720972601,-0.019217068842857312,0.07479082563031868,-0.13716206736651104,-0.08298766770865472,0.030337138555246373,-0.18244823986302794
-0.05153733910141513,-0.0006933884350405278,0.01986587410410351,-0.06879853936691668,0.09922593036029018,-0.02551919776344436,0.052284405805578284,-0.06884309513336087,0.16498806837248745,0.026458537247719127,-0.14335638217895827,-0.05941526883886596,-0.3702862756289399,-0.26119284005526666,-0.05654919945849354,0.1995262195241144,-0.07017929827498094,-0.23052854915526005,0.007299124820733351,0.07657164187162942,0.1693500098286269,-0.28565218289896127,0.09924400538265174,-0.08854955191994746,-0.12809855138878432,-0.0731990924509529,-0.13665793940656115,0.12437399834160755,0.31489293019648706,-0.1131266542905515,-0.0402368419690367,-0.017893525785563094
0.050428829831797924,0.054503302138231714,-0.06707488433172741,0.11604682284887842,-0.14980567502008849,-0.34449541460481103,-0.013055110642012915,-0.04522209413171383,0.13756136201768615,-0.23945229131797957,0.08487614163156378,0.018648517232319688,-0.23779262530909917,0.22468785541362898,0.1471255472575852,-0.012211820598358207,-0.008408521842178059,-0.03941005424076425,0.10597878272432501,-0.012161505349903881,0.1668602822356836,0.03226842723828186,-0.026308368975737795,-0.1455906498230236,-0.11322169966775499,0.1456945150703588,-0.05089138071274626,0.010719304377327623,-0.06019176345913936,-0.0692882517818744,-0.11004237311184571,-0.2636553345144233
0.05879811677265489,0.12382327899591287,-0.024538617251955483,-0.06629268229841745,-0.22824328782692474,-0.12514106245308132,0.20487198821431402,0.06332479190775937,-0.37332527530377946,-0.032571151410119,0.006346007204092704,-0.14395101982242256,-0.41679942985754054,0.15814422953448792,0.3366538596374191,0.1779583011141989,0.2706616174952987,-0.12031478691776577,-0.32662746269932613,0.09262998281691369,-0.09240710324483586,0.12645881365826947,0.16997608540158432,-0.02492212321018996,0.2120728620854794,-0.2075900128503602,-0.061478519329105356,0.043095650537116184,-0.6163895468141619,-0.3911669008753501,0.05618621558686225,-0.060900202095996996
0.1951634826917565,-0.15757745781846402,-0.04323789749093259,-0.1150319205718699,0.06700460636217347,0.12368990881588864,0.31255705196257066,-0.13041222331870084,0.09394496322199884,-0.09599720860206713,-0.0738496654462544,-0.07538473077845984,0.03881192797812035,0.012919711786347597,0.10119565436328366,-0.04867534968730703,-0.19592207135461764,-0.04751658702322246,-0.3024435318563407,-0.008452635194059113,-0.07972342328539937,0.02216938341208516,-0.06122866898661911,0.05562824838205017,-0.07538461776107995,0.09932448561067139,0.2073005265873257,0.3095771108774424,0.24498989417175096,-0.20760291895370594,0.08692797587444807,0.14148863000559625

hidden2_to_output:
0.9952429112482756,0.9940457998730609,0.979813867136426,1.0018359503868943
-0.09775743144205737,0.30158984515224735,0.01469182808045581,0.14288116954165583
-0.009418286983917518,0.10684245625103476,-0.20779297991093157,0.06716700982271792
-0.24398596807035858,0.11705917965783329,-0.13823638307368127,0.1374119365283709
0.2161330886875275,0.11498594577069626,-0.2874857100353204,-0.19973611168593008
-0.0024219345737625806,0.0374557933271988,0.01010019747837629,0.2926196194542071
0.0506445163030464,0.3228641086555055,0.1090230362408192,-0.3959967514427371
-0.23237968474355344,0.07951110031744356,-0.005008407843413339,0.14183269144909386
0.024608796097724192,0.15933235976763782,-0.15890811915694877,0.2549434896435366
-0.08385735469403006,-0.3898908814566277,0.18512089561591882,-0.08064549507089629
-0.5869605528172711,-0.13905896769223694,-0.0326221964126752,-0.2238929622177765
-0.287314555565905,-0.10297263337574108,-0.07266799292092525,0.1943380377046096
0.09533255861308515,0.045256297843228,0.2220494569369993,-0.0565955672661948
0.21892469869321107,0.35295485998158255,-0.2742621771737688,-0.035654934766128216
0.0455919927086666,0.13924092280100986,0.009141991998098987,0.05807637101441822
-0.0019239054988904607,0.1810248125516971,0.1607933995221712,-0.15070297515651251
0.14744326466058616,0.053782767002481094,-0.07847706314449777,-0.5152043188019026
-0.4425240172252842,-0.24509274591348765,0.36046292222886406,-0.05706293585789753
0.7466329664813092,-0.3717438537916404,-0.3009488748082371,0.24785815657995777
0.15339502991152457,0.01181124588951036,0.295806569088018,-0.1329715770501534
-0.0060203285734979455,-0.47369180603274313,0.019850649082895383,0.43592784043517363
0.1603805591308088,0.3877817817418186,-0.1393587214656457,-0.29837942782843824
0.17232910266182475,-0.15488846392117764,0.1259016803497902,-0.26600294034668975
-0.06250267876919849,0.20182500748835358,0.16847653763355133,0.12811105301277084
-0.15985539631729692,0.16936754741542037,0.18183081703113632,-0.17791243183687627
0.10557070690824266,-0.1503494881335244,-0.04820329943572993,-0.020936835969536844
-0.469500447563539,0.08143083393093382,0.3386629973959281,-0.2467240977090169
0.27919233467792076,0.33678529434536014,0.14223988220936826,-0.04048670765229734
0.05687763263962257,-0.38997567811883316,-0.13818882910506994,-0.3577982295915451
0.018063942853739124,-0.014431916994233551,-0.04398368420327234,-0.01720411069604832
0.02992070536962583,0.09621027084409955,-0.10933254767000233,-0.29897183214546413
0.11259122267753367,-0.0237174996927071,-0.2195839678688526,0.06764826740398958
-0.08417223610141497,-0.1376156499470431,0.1841545791773481,-0.16038068292714813

