input_to_hidden1:
1.013480508265387,0.9965126645611555,1.0037347677321447,0.9939995894246212,0.9950293050235823,1.009627849526621,1.0049579904429435,0.987712859644817,1.0154721194492295,1.008538036345535,1.0033876446775492,1.0068560574655379,1.0066302952108401,1.009691926038782,1.0163881284484209,1.0090197984319544,0.9937361619206517,0.9991313530721795,1.0012132378951337,0.9996331292356564,1.0086488160613913,0.9990490690310333,1.0062816353468909,1.006856356924482,1.013619482617546,0.9973492020218443,0.9990368075509957,0.9987274498917315,1.006853212337139,1.0144327477720896,0.9932190925360359,1.0096610814676201,1.002533637574729,1.0115263660649123,0.9952728797836504,0.9877727523293853,1.0112202917037263,1.013525458425637,1.0020257070411351,1.010982499995336,0.9977046015301048,1.006900710852768,1.0064294580168303,0.9914724946597181,1.0049084657171923,1.0082905171138956,1.0018669077727482,1.001079956134073,1.0122410301723614,1.0029916548030144,1.0119199817430358,0.9964516484162053,1.0042047444053321,0.9956687885302696,0.9998444131785048,1.0047240974384655,0.9979924966648778,1.0070304202959637,0.9886955916116443,0.9891380066997375,1.0188452859651425,1.0019992737297942,1.0079186696460527,1.0064919867760447
-0.5188862074030184,0.03311697968255046,-0.21441949837684793,-0.10296770495297791,0.3910991764418954,0.3325670005174347,-0.3443187255980379,0.6183739416965212,-0.26938112520971863,-0.26239502395471986,-0.06162015692466129,0.015167329865733502,0.7783947491431006,0.5795257676720418,0.2176028493302668,0.2257851155364621,-0.33510386821924404,0.0004447815873349246,0.05838932812105688,0.3373684247417345,-0.309799448410817,0.6857567007208748,-0.13202494091768302,-0.6243376542654041,-0.02284483387095149,-0.429094602747252,-0.09147509097713796,-0.005164284406298495,-0.0535844575405195,0.2013218543564481,0.13409037411905814,0.15256241456651545,-0.26745041222602284,-0.027449185290134803,0.017002336540822276,0.19992980308404104,0.045916888477527756,-0.14646815764266657,-0.3506862771082434,-0.609001934729617,-0.3579628340199144,-0.12389486960983195,-0.038429282114605966,0.6048172529061531,0.28239168228239897,0.833393239449094,-1.0597459212235587,-0.13804100423678659,0.3766036079319239,0.004754111475345644,-0.10919279808901748,-0.4037991498029678,-0.2259769973337328,0.09380825465454443,-0.6421804498742311,-0.36882259977231036,0.292901741678715,0.6188876415736474,-0.2640198576153694,0.07380514433750054,0.025900618424351627,-0.8407287952549497,-0.4192607584976844,0.05424935156214838
-0.005651839110890131,-0.3074053282141899,-0.25636313283619766,-0.009379273068354677,-0.02686733692385716,0.07577548355881907,-0.43740769884117825,0.1961315912287524,-0.0614831746392019,-0.22548211136078974,-1.05737040099321,0.41718103168929643,-0.15180641254801042,0.2909586108253533,-0.37253072239698143,0.046940717495903284,-0.10457687330278263,-0.22020327369972792,0.6634067095127683,-0.21101342623606623,-0.3739700386935912,0.04532685016180219,-0.19460567245439678,-0.13674391722883483,-0.2652953486884267,0.32565705794416555,0.2325435308406174,-0.0028721234014516673,0.3333965143441494,0.8294507208356742,-0.04996894528962147,-0.3409646072246726,-0.5619032216637011,0.22030505031745037,0.4922501096139179,0.23217152353559084,0.22015077319516924,0.06446868583600657,-0.09041947782242177,-0.08730102925836995,-0.036062980431236055,0.41885590728936084,0.10678951862329351,0.4647661646395503,0.070274696464453,-0.25406508586296406,-0.11125265617722836,-0.8427275872072119,-0.5193445590787829,-0.3805564507940851,0.198608535226068,0.39650698084527003,0.41176212363566794,-0.17064427038523233,0.0754338173508369,0.472856450995297,-0.0023446718547051747,-0.3720606283086514,0.010039313093901376,0.10117652117827915,-0.32971672781685785,0.323643172757586,0.5034988885771854,-0.08111284558614087
0.23893214035589874,-0.2915579344772691,0.22116130696359498,-0.4551173914668875,-0.22516825710589358,0.25805647343060484,0.31277379471664274,-0.3568827972744127,0.1739866814432085,-0.008553330954842286,0.4229216172388816,-0.2851208928420578,0.4034914341096038,0.21380128147880684,-0.28558470897768856,-0.08483733761844997,0.46221301209341803,0.5322042928874638,0.1563149697921827,-0.37926161185177715,-0.240918025301718,-0.0814260305751788,0.3837810662660148,-0.24726153843662796,0.1047584982930353,0.6246636982531912,-0.057518010379234784,-0.18168332178100788,0.8275205047601752,0.5864578472992532,-0.2967972797137961,-0.10403012535082092,0.2793676080271554,-0.2502542731155058,-0.02375919102931732,-0.018854129913112187,-0.008503491140261978,0.011109080652504369,0.010679710302148638,-0.024280128485679585,-0.1577147724553569,0.6035017199613422,-0.3051026728622375,-0.813266306299209,-0.056052966664292,0.13093610276073595,0.24438716323069556,0.4523478517701926,-0.4515047884812473,-0.015331770470268955,0.36499447048647904,0.14921654515691318,0.3790140174685423,-0.2832737920361852,0.06466903363565982,0.2087177469198346,0.04437756344609327,-0.19176025903218302,0.1086303777186465,0.36122677896941957,0.2633805981418631,-0.47173327880618,0.1121384193642527,0.3124755316449786
-0.6573463077836381,-0.05484447284602725,0.17204628144585035,0.0822307983237555,0.7533214497388938,-0.5570502787210988,-0.7795839203642896,-0.22582347586747398,-0.5131565316465984,0.008323587534857976,-0.4666283078870869,-0.25704909632804296,-0.6328148436151205,0.24645149432710114,-0.04700531865540499,0.0467672279305463,1.0287442272437444,-0.10660562802992213,-0.0313229852330598,-0.842692977009241,0.36884577395907475,-0.4645834648711296,0.3626948183464319,-0.0023772612764121153,-0.27082273726366496,-0.34586191814579814,-0.5546383211519571,0.47204322421095996,-0.34262252035683705,-0.6246528566352669,0.8243840110211856,0.18055745793326006,0.3233922880983394,0.1419626817383008,-0.24180350473765203,-0.7072186654670058,0.10491577160822706,-0.5062771544744857,0.9293394890935988,-0.26609749674620825,-0.42142175580337327,-0.24558795231805716,-0.2897000157022235,0.3825742883155356,-0.19391557161005368,-0.33806555764976987,-0.6080512233402375,-0.07477357765787691,0.006913964272660688,-0.07693570447086723,0.13032327267099975,-0.3788745101776281,0.3097063068045826,0.002377334308137428,-0.7793421714606285,-0.29604091140996525,0.2147182987355858,-0.7298194414474768,-0.34596896038730873,-0.11783203586962544,0.3275845384009026,0.0794719690084359,-0.3238952595389891,-0.4706663020816121
0.29927431652205916,-0.3323365514251074,0.4842493828977816,-0.535283640935218,-0.32515974879435267,0.2836805127869047,0.2575477139303854,-0.25461645754864803,-0.6606498532623377,0.3461572746145436,-0.5655261688941421,-0.07493344463422387,1.518905818245375,0.8283603311095447,-0.30870950652682677,0.3317365242464436,0.19541756475966612,-0.09866999077742836,0.15039259019558088,-0.06835764548677595,-0.023918734808826295,0.7243406697531929,-0.7127717181977901,-0.21091753656054665,-0.015509306364662268,-0.13855600583323774,0.2700296143405116,-0.2557807208795763,-0.23996573677452915,-0.594945593407464,0.11243404248635622,-0.47467007607201184,-0.42078608381312477,-0.11784715237604841,-0.28742783410892475,0.2708880876156646,0.4647601741565684,0.2688339168553752,0.21365218106951056,-0.0735600713470723,-0.22633208604559107,0.4544793474496855,-0.4674282824088895,-0.5183679165833799,0.4361349170799827,0.7040939169623763,0.19726131905904412,0.3324994612978867,0.040401601981942155,-0.11919777207904254,-0.018945076920379576,-0.15510304171178585,0.19928440355561866,-0.6083076256349312,0.0421751925688539,0.04027566374616297,0.34699244319245054,-0.23446334329423008,0.2256265204862585,0.604736884476382,-0.0032258729814395033,-0.17652227568223838,-0.02240614997505379,-0.32822938012622455
0.38782620880990765,0.15498349523115137,-0.28957576823453407,-0.5536781701987603,0.30486047423761314,-0.1351978300531762,0.1670336543119475,-0.3176375369739077,-0.3466967170500885,-0.23127210269052678,-0.47223487994812974,-0.127511497101758,0.2482780457408252,-0.5391263621600458,-0.2331460166249565,0.5155118451164062,0.16958230974533345,-0.319522211038082,0.28088762330780714,-0.23113793132268015,-0.4988160716821138,-0.11631305730487775,-0.30344750166935663,0.3197876441639781,0.042333295605561795,0.1458457426653828,0.2599425692147178,0.07094653407877342,-0.1262610961078074,0.5390058962617603,-0.191831499333974,-0.3887267171933758,-0.1086875742842854,0.14482243006642595,0.009546618409890519,-0.3201546911486952,0.08750339957206829,0.5656811089485255,-0.7526048312889614,0.20072179821715366,-0.10121305145119723,0.321964886552661,1.0402284704838265,-0.31301285679620006,0.47130985385503094,-0.4817364692609043,-0.2720137236677127,-0.3714906118660266,-0.034891488331950035,0.17749536899644655,-0.3674742309366111,-0.08010778421718465,0.4367483250739436,0.3461481676672892,-0.0364916276685615,1.1188662688784787,0.42544759149372247,-0.0015668151021329467,-0.284427311761273,-0.2948812090046033,0.2213302191167737,0.11826277685187815,-0.47914810222235366,-0.11342439381824652
0.29430675588599436,0.718011930777809,-0.23328129195331046,-0.5643556849745063,-0.018814065620926,0.04966417703392102,0.2596700570066388,0.3648477286994134,0.43572750720843084,1.059911197278926,-0.33187501567635347,-0.16338005359834423,-0.03729746756391845,0.015220120495764822,0.11988546910554279,0.1828848801365262,0.05810361969208555,-0.2796202142731607,0.12010801052511993,0.1141730793935625,0.38085010053169743,0.8026613317837185,0.05545332056495546,-0.7515354598981889,0.6411641867058515,-0.6468368119720599,-0.5496997978440608,0.2678804598801735,0.2466602100458173,0.6681751761643187,-0.29983545887834917,-0.08902278556136373,0.09233909215233797,0.09567352879057903,-0.5261385865231142,0.34514798386716306,-0.40566590386791396,-0.3791632255157147,-0.40567390406868115,0.3495613342236355,-0.049191671982442536,0.5242773684264083,-0.5851968918820721,0.43559021042529217,0.47404006808125265,0.08249141934951977,-0.5746810977089246,-0.8899149922035269,-0.5717284191283987,-0.3096033606670749,0.07372703133676127,-0.3461760696961601,0.48773729600901317,-0.7550970972717778,-0.0663227196503782,-0.9692929072725851,0.31388125614851586,0.17996765539622242,0.22150150579604141,0.01973206519814005,0.04050358110449687,-1.07024323128497,0.07424079899842329,0.23689801843077132
0.18329925801326466,-0.32387085681044586,0.28212483941488437,-0.2825427105618971,-0.15432574244324757,0.18852046157793337,0.6427355139516212,0.06648874048587343,-0.5312863687701215,0.07349917894207811,-0.3980938808425221,-0.22977154549066844,-0.6135274232822843,-0.08567044117814362,-0.7549471335611826,0.8927605564720859,-0.3508242832513739,-0.21184494455312142,-0.5680831941827967,-0.35665897337600244,-0.17353579305116665,-0.13912192819874838,-0.7896858413626597,-0.2681591217357126,-0.0023781931605146088,-0.7388592524825879,-0.6383939857331047,0.2191079661934213,0.07033724061944117,0.32887032357908075,0.48594169120761277,-0.399666051448481,0.4042909198536712,-0.2427192076561439,0.26007519065990126,0.056494546304868,-0.6857411230838727,-0.16592026188015657,0.011667505902702479,0.7467024351263639,-0.16611551123874124,-0.15448883143845327,0.10878529253084394,0.0015607363519508557,-0.49049380227531236,-0.36913852624290133,0.2175414077330557,-0.3301801429979525,-0.40176748681427055,0.5303090365447465,0.6258765127025556,-0.06639343736266089,-0.621335617011999,-0.3271485591531281,-0.052555154010614356,-0.35066257344287916,0.57000002761077,-0.41909873223399097,0.49496265763562963,-0.009334787880262162,0.7138005125591832,0.0074848258443573614,-0.15866272540073886,0.3833212113459246
1.1575050407520524,0.5167727978448224,-0.2878760327056003,-0.9180683667509439,0.2564246931948082,0.4641241419298996,-0.2502002221016205,-0.02248060857380291,0.0969587393841136,-0.08400099020643881,0.16089255300949984,-0.26269034585471357,-0.07153000417153223,-0.045823760867564296,-0.157259766311522,0.29528397198833056,-0.14225359436532045,-0.12859556806072553,-0.11062394831627972,-0.17321080677113854,0.2525869117631625,1.202748449660174,0.10237242080228488,-0.10469234010542465,0.10005188880822519,0.03533695690790468,-0.24544198979892268,0.934102599362473,-0.5861395976228764,0.4989269118131489,0.10026925352460091,0.3667720126145936,0.6946365485872275,1.0140411645663943,-0.07810142139639059,-0.4658697569141268,-0.14493750310705894,-0.12274739410434639,0.4301790651489388,-0.1831043548363903,0.2778408063151467,-0.1838135466608413,-0.3523158239648659,0.7659638425595199,-0.3616615580126847,-0.6139522398888551,-0.06697764340748723,0.5151898994574644,0.32162625853635224,0.29695185271970065,-0.046061344374774146,-0.6482282749938102,-0.18397378582650942,0.670208314507054,0.33707718578108115,0.1296069975662432,-0.4285658304337439,-0.019243837592092868,-0.364484742200852,-0.3602359532215488,-0.4461187103439794,-0.19855731356835984,-0.6698078225368643,-0.17599427232319084
0.24275473629180244,-0.15859726830420345,0.3298663888679201,0.7254179822747688,-0.8532280851137164,-0.33731768083970076,0.024146816689973816,-0.11277612996460042,-0.3767519060999253,-0.5046086189090521,0.4940014288329738,-0.5769173024396996,-0.04130706929033154,0.11447492874706847,0.2709144340973811,-0.2482492357854092,0.0756197151524491,-0.684194316374149,0.1990336514306922,0.4042399443466489,-0.1050329890061945,0.3131787745265173,-0.08148346097046177,0.21565771011784474,0.3718475173250774,-0.1971092629741924,-0.3172762650701842,-0.7194422414655457,-0.5685491097404626,-0.043538246413012835,-0.29844938995066067,0.6252092833196363,0.5270334518097198,-0.3616426601940724,1.096473811186496,0.3554041079801898,-0.17197921879990455,0.5276023050853929,-0.8367771384000711,-0.5183263009712599,0.4764521374585812,-0.44827702944043557,0.4736922670583352,-0.04219232333417364,-0.14720857336971188,0.5225003708194805,0.48436479574394037,-1.240408483077655,0.6765618727341849,-0.050370186592839455,-0.4813080882950442,-0.31852198594283554,-0.2621939653251863,-0.7633293729950039,-0.24520842178272173,0.500102937431458,-0.30609189283767557,0.18643675178971433,0.6957964765275666,0.2539755296483029,0.02816638626834372,-0.8216872952615432,0.15997124213173633,-0.45241476050478896
0.6441031402899674,0.2821849228066384,-0.10174889650023272,-0.604025243674745,-0.41931573501832,0.44385065602103235,-0.09124274218354467,-0.06149954811604257,0.3364324710332921,0.030778781686329183,0.2781278091479666,0.0791010224089806,-0.7379004046060188,-0.3043123129265959,0.5788173918185855,0.03155880638318224,-0.08955734990747732,-0.8730551011967813,-0.1556556197452585,0.13516507819635518,0.19397852845313565,0.04504010520310596,-0.6222536501487835,-0.40878930416330406,-0.03781215183609543,-0.0046655548041778655,0.055033911775583595,-0.23591124929423982,-0.2391752984077213,0.3468705212429551,0.16284092558706992,0.3103441295977068,0.004049616143718804,-0.019046643859252022,0.49801950311880405,-0.12423597876718573,0.4737031255761138,-0.4187977798237448,0.14134869687742424,0.15116038921312178,-0.16408719312350595,0.48787657311930915,0.23574751691743323,-0.23184800162196834,-0.1354579093372841,0.29657782512098463,-0.943256044770423,-0.020980923301534306,0.4233973422765078,0.45634469617527357,0.32652675582767415,-0.976874906201135,0.42295809901729686,-0.1237802874722994,-0.16703540192679225,-0.19913385408012702,-0.3388601875046165,0.06361964903620138,-0.5397326965303755,0.6004513472955775,-0.2408540492797019,-0.2566854597708166,-0.41460318922335765,-0.30001459936494773
0.20064787605891163,-0.2977991851919906,0.08225393674745868,0.24368810042810302,0.31684718923949057,-0.5400806056660287,0.01703290396683337,-0.0777584463211904,-0.4591759316184489,-0.1713190611037765,0.3815726924909792,-0.5096131015969358,-0.7975361928905754,-0.09246391067258089,-0.1192560215584032,0.25097596529777144,-0.1784760663950387,0.11947413385273176,0.5333257564785799,-0.43078995778946877,-0.13891815606311603,-0.3544514169734927,0.04492865896783064,0.01626582641416896,-0.23169431677949084,0.0877200416009357,0.039496019466945934,0.2642882684506536,-1.5090973140315973,0.5836381625042824,-0.5181949719865762,0.0025377523011059396,-0.2958911237234578,0.14103250189997715,0.02668585071745149,0.13773271922837652,-0.056349227860271286,-0.7531724758710788,-0.0310933339480762,-0.4484292741498691,-0.3074579805069188,0.7104156703879304,0.13909430805317347,0.9760269081479592,0.6625957176997351,-0.19378605240367638,0.32947590899422985,-0.10944834881161561,-0.40150356708342116,-0.9784451343533366,0.8812039325521335,-0.1797424322579382,-0.13016304671599777,0.4804928276223517,-0.9775498736749957,0.2766065070078662,-0.188816174196474,0.8007938156993873,-0.5136425451691707,-0.18566964306183922,0.5992295746534576,0.21764893925707898,0.40084091655296994,0.5751683135103042
0.020157802339385474,0.6193186231507908,-0.16500219958868914,0.13410086944684563,0.27534171182522166,0.1718689929410499,0.6221725016339794,-0.2213789146612807,0.23751277825209952,0.30159619558218387,-0.09547033620534462,0.5982111463361077,0.6737248869247157,-0.02194804529524324,0.1437684217073039,-0.07350565048319596,-0.8393921703230052,0.008472392537968445,0.5128581188029822,0.3676547432152001,0.35768086284157774,0.38323229669091635,-0.3559304612031046,-0.2662332069832989,-0.04573407540710533,0.20677774624307435,0.12043014378056724,-0.054990186620089324,0.3291423045984181,0.9532653201917354,-0.37605794185011426,-0.4475612167572481,-0.29484148111313147,0.6201669083057582,0.5590959501849998,0.13342088093874413,-0.09033629543571198,-0.24424173380087047,-0.4763221556952728,-0.19212328248493343,-0.5333716532474101,0.44337536012008144,-0.4167079553453054,0.11745614946230018,-0.021123471564408133,0.10487888712820025,0.2625652122666713,-0.15429012887257654,0.47576550378440546,0.5973229190181024,0.3990688485288365,0.4384704686469366,0.49661489744082643,0.06678943560812489,0.18472630589830855,-0.9195855786130278,-0.14563493424381824,-0.28547091027693117,0.43577890849452855,0.07989471134800642,-0.3410562550524046,0.2519783107141836,0.5055917369701003,-0.6101890515077794

hidden1_to_hidden2:
1.0083284417116174,1.0112384412274618,1.0019852731598717,1.0033085520943164,1.0038488153164322,1.0,1.0030615547939221,1.0049757439174551,1.0203340634553586,1.010932250694737,0.9950335811260775,1.010547421792424,1.0021504391075164,1.0157501627499461,1.0151356749404226,0.9999120375758864,0.9930810477863989,1.0015622073721444,1.006083298041922,1.0083830723432443,1.0148276414783601,0.9930974720033048,1.0074477394646086,1.0036848890852905,1.011640165440253,1.0030413534889615,0.9950434727316476,0.9956019879338062,0.9946496379769058,1.0178958802631222,1.0045742492840437,0.9968455560805469
0.07638388006742024,-0.030465637689858143,0.29954441832259093,0.21056870308190426,0.11683872482360448,-0.013575888243006495,0.019624177471180036,-0.002316321099767355,-0.06753144149424692,0.06948716827397451,-0.04782652638184009,0.3599246057914913,0.2646998621018066,0.05873256057987468,0.07791916985551468,-0.19742570600590054,-0.08420495941169677,-0.2947701521198326,0.21085312655693067,0.02195384158057815,-0.13970919117870617,-0.15388546385329802,-0.010052666659149676,-0.039113543442243236,0.1653379032754541,0.1977048965922643,-0.23275477319953086,0.3326274989469378,0.26958567608493683,0.300886606050547,0.21291732404178035,0.014581188054078768
-0.1276577799003701,0.1201666086808646,-0.2441025378189029,-0.10998441227030638,-0.0856467749700612,-0.2518585687877088,0.22241293422502148,0.12561059320053886,0.11016457582013435,0.008368451431139044,-0.024124494940292028,-0.1271813128943918,0.32788108294498425,0.2686168104231758,-0.19520818827284112,-0.05741092702629791,0.22368078816292136,0.3797211410008492,-0.16556588187355042,0.11768537543449097,-0.0832453467901042,0.08090376782509472,0.047141006860634375,-0.09344330392817848,0.09877516265755115,0.02270641039831177,0.2301131952715399,-0.07137099107085235,0.07261962544118741,-0.21179512015703403,0.2090434731303218,0.04232119554194968
0.10720890601286699,0.16369215001295656,0.024344387576003622,-0.057964409921947055,-0.10420132846570647,-0.15871311246837497,-0.04586354404313898,-0.20928929971700205,0.12727817563723848,-0.09478013821424788,0.3425662670288469,-0.1062187630712112,-0.0038704566144470948,-0.15948338756099542,0.20823194262679784,-0.49886732277471196,0.12292311421191283,-0.16421743263629812,0.17940476656718535,0.11402118504155305,-0.019383440969719463,-0.06741467900718036,0.13839779335519206,-0.2528109317588525,-0.014667663580159987,0.20225641734884708,0.08075614315096098,-0.12533371419076544,0.19873586514197625,0.1980480536828266,-0.15738985372968847,-0.25262938237010474
-0.33714770028170227,0.14547769529871737,0.15457112535600018,0.16979134344886912,-0.06807539090201314,-0.08605288231736075,-0.1049778965938889,0.26693036199785247,-0.1542889216461708,0.06360050293900059,-0.22811012980220852,-0.03085269583368034,-0.31913905673335125,-0.22016027932031923,-0.15823470689257363,0.1174314058008129,-0.14844703108621904,0.1533468655242298,0.07850103147499651,0.1672677627720071,-0.153253292485419,-0.1306865312526715,-0.27736293211195295,-0.01805409985149822,-0.09540140321028157,0.0458877482875197,-0.04061145458802081,0.10482313647247905,-0.162573452759486,-0.10958750830581881,-0.19800943970693793,0.08485485423784517
-0.1529573942041882,0.19303967473128872,0.016441931431222155,0.030310540180098936,0.3569621122325186,-0.299296398089009,0.2111730596279858,0.010235452569309031,-0.1911950866049933,-0.16849401025080424,0.02943128610066518,0.1878526249695252,-0.44090815829372193,0.05357942430518188,-0.07226332833460034,0.44114606460577427,0.175802628206195,-0.13477661224486195,0.18409865135827538,0.2166792819955343,-0.12534051984149194,0.14917978450318997,-0.1390856859465866,-0.060371279081686074,-0.17714741279469734,0.38930877228755895,-0.22627759234824027,0.004100307736839778,-0.09180300484166096,0.08080265552165773,-0.1323537626830235,0.14467729006132918
0.09865386507616779,0.06550859766381066,-0.0026402056308417604,0.1425675817978323,-0.18707587110171903,0.24637915012394312,-0.16002690266536979,-0.03180119514439183,-0.06772519600562922,0.3149627712948302,0.05687984771682201,0.11356012837718417,-0.1545448437113212,0.2594549991017305,-0.03616116512994501,-0.07629742560496842,-0.0896282161438781,0.1684804549748503,-0.04538976554085614,0.031823321751892036,0.0013992977357983852,-0.1746920772541336,-0.10446465936712122,-0.1678882655727879,-0.011000677783001941,-0.09266936146240991,-0.21007997887648916,-0.03699899923950044,0.15001691323523034,0.16020260582183632,0.16382777740930515,-0.17446782428551622
0.07715674855314264,0.04332322704044297,0.28568865059105575,-0.2931474972094818,-0.16297794963814094,0.29189282713643416,0.041373922095709274,0.19785531426120176,0.011060097362016637,-0.04428161019498669,-0.07111241525455694,-0.009310588570611076,0.1992853127845333,-0.008187685520223897,0.1839386532401939,0.10273508228040837,-0.08677650245198675,0.24564530344221586,0.2162098726029174,0.0037876556985172167,0.16412032420628123,0.1055633604228781,-0.09252246367127498,0.1709323291374628,-0.34581607551982885,-0.30193784860898,-0.00649227488783693,-0.12961357762176964,0.0538510591241264,0.09294664259171856,0.22201293315464968,0.0841012521522194
0.007145787506742929,-0.1483259013784326,-0.12307613399225636,-0.1671044152203547,-0.08729262034217136,-0.12341382522305083,-0.3401765810673057,0.06665003218529493,-0.1680215042722121,-0.3480755924539256,0.34102564664973156,0.02135093403444559,-0.024007455345261382,-0.03176251917880554,0.25031954892911373,0.038758238311595646,-0.0969607161857876,-0.06116236337084384,-0.503798165451196,0.03646220523399154,-0.320952596233887,0.12106268287964116,-0.04428851084456441,0.11819649608502472,-0.162015564320668,-0.025139214863834806,-0.11970258262746415,-0.2915216059483292,-0.002129333595999449,0.2357847842655894,0.4074614359221872,0.11801950632184627
-0.20022313887477403,0.15081850406296898,0.21912652502862368,-0.15885929391025874,-0.032163545855742555,0.3050812972406313,0.14318831270534846,0.03512780089884368,0.14024878203610652,-0.09614240369227388,-0.07122174518980523,0.19940752419993327,0.3109915150286971,0.2981790409563657,0.09079707454115891,-0.040213029712401864,0.041525428182439386,-0.17413025369927887,0.07978538748549163,-0.020354389460380744,0.21463462945860476,-0.42164911515541165,-0.07311460665466338,0.09987982403609369,0.46794294015085197,0.1476294011930105,0.23903682152328318,0.0008027493685004532,0.0811035962652643,0.14890804724052295,-0.06251449757168175,0.04537232400422295
0.24444642725224983,-0.07791503688278305,-0.07254598734803988,0.1487550845769621,0.05439330765941336,-0.12498398992021127,-0.3440042620165185,0.35793663020565003,-0.051547420685204695,0.1736178966217162,0.009925921002422101,0.13059568820955877,0.1475829114517405,-0.006671656118886387,0.18204390453804484,0.12519140630416284,0.29985089952188765,-0.183018954125487,-0.2035997203207391,0.03273975283661925,-0.05615736395609497,0.07752667288873487,0.16342581192332642,-0.24635317661011458,0.10209007953462658,0.08441308487028651,-0.3654665338434902,-0.09200510717180294,-0.29566850348057927,0.05171695053132667,0.40240441720680603,0.2431477177814385
0.21022549454654707,-0.017536426295263568,0.03713403210613102,0.1374547866670839,-0.18988264618638645,0.00309861806061769,0.2579101318092274,0.21608267443607862,-0.15705843483229892,0.1054001962921105,-0.01053433360429606,-0.058084162037679826,-0.2569683548206725,-0.14350162181282036,-0.11201349075416263,0.1232957711865744,-0.004520297464528415,0.020411033568099604,0.29372984162070076,0.0956175515742638,0.2232369381334454,-0.2577237451626878,0.018655991172082782,0.2183685102156152,-0.09434747609885841,-0.11586519235784791,0.003388660019387092,0.15516307152013917,0.060483289055580584,0.18540898658071073,-0.3679054197381502,0.060283375240103916
0.1437717736892818,0.1746456036243012,0.19798109508763242,0.07457002517916776,0.29084076352145993,-0.1394160704652094,0.3459085245334928,0.22016231377284606,0.03878019906493878,-0.013298172784510663,-0.0015396903093268025,0.1311040607994323,-0.1337167505689348,-0.22637088997329663,0.014854431046952728,-0.010677758407283423,0.10176036880734955,0.14564286144802333,-0.270146168221686,0.16612151450642798,0.15254945579222337,-0.24468511473822374,-0.15434754203354709,0.13378675206341137,-0.12581243377030896,-0.14404781997365895,-0.24175651542836962,-0.1543209691267746,0.05278243583695853,0.27197152310044614,-0.027922171339479964,-0.06366933814794573
-0.14707540311232128,0.2444111639388713,-0.06508257295391001,0.24675610515632132,-0.38156228681851023,0.15314494560263406,0.4025574057075527,0.08243642889990946,-0.011679207528605502,-0.01936878013506821,0.10098857322002397,-0.10740663601907718,0.3948034234696432,0.3848471908459981,0.11220988237150346,0.21615056775311248,0.20965136215100072,0.02705559281209583,0.008654150362961313,0.36075569006835606,-0.05234283273224331,0.2653560316863803,0.22839626602006763,-0.02799259321984203,-0.2823250365280643,0.002090013069809294,-0.02046458751951166,0.1421525562422409,0.017407123930808833,0.13570753498787846,0.07039090449021265,-0.06724242412080063
0.0635905345879551,0.444849589145324,-0.33450088874413897,0.11562306402028495,-0.12819461144266445,-0.08449695862452691,-0.054697020901921106,0.14609260134233826,0.28694909981868866,-0.006646857443492308,-0.13452432356984798,-0.1909727767664786,0.08505044338048343,-0.11971600027059438,0.09592299443052449,-0.021266795013444965,-0.011808854253209709,0.2078036373385766,-0.12682240683573284,-0.02103745034449301,-0.11724650748108435,-0.32166029015042036,0.001448946554733675,-0.1819072828435018,0.04921376319635533,-0.04459597851174832,-0.12904359719083383,0.28674985706036243,0.2914461368662345,0.25463787839601626,0.07577289336879064,0.12882434494505937
0.14555889162718078,0.276352119863591,0.009423756636616874,-0.2582916809237138,0.031329679307316206,-0.5368936600962942,0.04587266002326841,-0.29645657207919973,0.20249829177735434,-0.10782142233400635,-0.2018755302745659,0.0861618079275562,0.45378096464078777,0.4125873534941422,-0.09230081870292962,-0.189239376275174,0.12655766865985704,0.010537043878116324,0.14071657871137824,-0.17731576608984254,-0.04017868572796524,-0.1057699443907189,0.13597096303253298,0.03806517700097295,0.23858991629304924,-0.10370756630628364,-0.22780643220045405,-0.07731976612998032,-0.3050503331237,-0.008505925920463094,-0.11000428487513744,0.0192678608902842
-0.020424167794074046,-0.06633891669667376,0.2663718806370015,0.09500649596309474,0.010022408556900779,-0.20689005404387972,-0.23084883349508398,0.37632527501455404,0.02211636758822639,-0.20508287867580183,-0.3035802711122958,-0.04447943096123307,-0.010809987003632962,-0.0004303278998112203,0.07300055117755003,-0.044652717825730555,0.20123969218182494,0.08896152904243032,-0.08761234024353551,0.20912617604216943,0.40479724290941876,0.09857620577624113,-0.1982153229986517,0.022440168160754646,0.14473577849103056,0.041290318092080495,0.23076387513321522,-0.32952335287580875,0.33359203188101183,0.22308673150651243,0.2295817306437945,-0.1618063238597923
-0.163641687750095,-0.1334893550915801,0.031093215288126808,0.11882493514677175,-0.10011692937674395,-0.12607943286568615,0.10169488282651336,-0.005165655080405307,0.12814907760428165,0.138978294059541,0.049344925795066844,0.1572744358555634,-0.07862619498102473,-0.2537160714459255,0.08422489272197156,-0.10232275224453727,0.2395286623733326,0.1246852308730934,-0.09891429796410772,0.20980686480948565,-0.11012576219949874,0.23585774365809747,0.08695939546796473,-0.3719024914964083,-0.10768741546256179,-0.19681691966048387,0.1437498629535951,-0.1601916931221795,-0.009689704759833315,-0.03639166594056527,0.06278834483400396,-0.304325884735804
0.027663844951913447,-0.3581834086601123,-0.1147464224404149,-0.2244534282126575,-0.3511784698132044,-0.20036373472671265,0.09025694394630603,0.18549748508301578,0.09278683879576373,0.271843854678328,-0.19719522856808425,0.44193205103254707,-0.07556806197816311,0.021452356320195713,-0.240035377376632,-0.25026312578863963,0.04630433286691597,-0.17905017168164677,0.21328011501797553,-0.09668294627297794,0.0032805525928942684,-0.18635462439214961,-0.2928147278829968,0.16927558169081067,-0.017519788875725112,-0.31960611629387464,-0.24536098357100797,0.0071856112543855315,0.09975393897673149,-0.11694828891707833,0.058433860609000264,0.02281575717462104
-0.12485190054080086,0.16572199327344936,-0.1769434522074293,-0.37217305969649767,0.19849786038109707,0.1593194584993335,-0.05381113665571919,0.01541931372552766,0.08000549380544433,-0.15387333391936545,0.0008969212227270722,0.1313707920064907,0.04301732171520194,-0.03905346254667147,0.1618638568138728,-0.20680746235706404,-0.022835820442144415,-0.2315051896579849,0.08548046808378473,-0.1310544813888256,0.15791988447016164,-0.07844721374958055,-0.11477479499501819,0.02887669177282591,-0.0948446813452924,0.008349987263909973,-0.06590694183848697,-0.34650940751029236,0.046368230750405304,-0.19538416164703343,0.13339797045658477,-0.3234950559766589
-0.13507022529329674,-0.03210448587760057,0.17040837064671727,0.02786506618107755,0.07843222493185838,0.09745783007450311,-0.2569426204945254,-0.010771901064039439,0.3054230209203679,-0.1856482226788667,0.09855866112535872,-0.1577392324148598,0.22417986540376153,-0.06896794336165181,0.07508407069137038,0.09784183737778968,-0.10228119653784722,-0.10126779001707864,-0.019085448533517124,0.29101687828517525,-0.2196492804912674,0.012995256859531295,-0.15323199579688154,0.04989847008642978,0.426424426405046,-0.015350393961377077,0.19980970101744644,0.17869660147113772,0.06553064482403563,-0.028560423976128554,-0.07056052728334726,0.1524215113173035
0.06792319020527884,-0.01872779689648328,0.13617622348959607,0.03278247533113076,-0.10528471685168529,0.04144632121512715,-0.059692853389153124,0.16693645950174293,0.2588993006964978,0.06536467869618837,-0.03360429749156738,0.09159779079734055,-0.0585185630016144,0.012254977043796708,0.17699939054742928,0.3051631244066188,0.22329090506478147,0.11117296925131047,0.2399752405079434,-0.09975542989116144,0.04571990079614702,-0.005064696343318323,0.01097447670821623,-0.1373217393959632,0.3841347457139601,0.34317585105881504,-0.07142536999116884,0.08659347724595816,0.3085141711621421,-0.24396661539745057,0.19371547464345365,0.23555738009528454
-0.14750558006274808,0.05650707162176481,-0.14654438426761834,-0.22902421915434248,-0.06566164839028527,0.0497595922876283,-0.12617922417807523,-0.06254695680354451,-0.2398897979902231,0.10713597197451943,0.25896921241468185,0.13849902015286814,0.2859756861645163,0.21696729643844676,0.22185160198330386,-0.2862949142176575,-0.20979790457353364,0.14426916491556147,-0.204952788837406,-0.04804717315316316,0.007308711124239933,0.0710103566846777,0.32944303291494337,0.10792443373285915,-0.3384880386390999,0.19422418510795653,0.03448198147435208,-0.08621708989949567,-0.041742107850474296,0.016995160981280604,0.16695701904624566,-0.0026961087986883225
0.2649435996513925,0.18673879069744123,0.13391983608090494,-0.020794672466070977,-0.16010073380483605,0.14399518464787336,-0.1983224731425503,-0.09838645657077642,-0.01750912996727129,-0.12341776169889913,-0.25872107529621313,0.005815669401156202,0.3097186639756135,0.05671413815188826,0.008908375123950483,-0.0676185900896707,0.14296294157970907,-0.3191082272719069,0.06930535161329848,0.2672895112967604,0.03925155073921604,0.15254749316897803,0.150694435455857,-0.025425637561312567,-0.0343163759754098,-0.3838917505554132,-0.08017245642027736,-0.031247431145698012,-0.13294877911267292,0.11101069835004637,0.012442215253667805,-0.0917861387650041
0.05748421800942352,0.20403029733715877,0.003237209733640617,0.07559364115337577,-0.14552926090656956,0.07693376794167035,-0.2855130856822754,-0.0305937578614868,-0.10386621310359614,0.07843277746214034,0.1567425928825147,0.028000659066092243,0.14007219919902916,0.016333769711098633,0.19908292097181365,0.11912145046048847,-0.12945385501427464,-0.1186467883931118,0.11467021816298897,-0.14983467767584405,0.304904258032945,-0.15697809602541885,-0.14394113788822938,-0.1742797014099925,-0.1991327330265655,-0.03732321516377697,-0.18971576011677846,0.2344521317346815,-0.10436460891280738,0.4160234893015171,0.028044837389971516,0.07839886696073622
-0.10519796188157363,-0.1702870977127955,0.14774806203149735,0.3745410684508491,-0.04943933735569079,-0.4124521574324655,-0.09166498351681421,-0.22253144288965526,0.4487499290310325,0.05546643918372955,0.009945086787621703,-0.39382430925295947,-0.16081580373999538,0.43312930122432713,0.060308275503135035,0.26948744106969463,0.021437312747435776,-0.19596756144404817,-0.473538986799783,0.020383542615342372,0.09309784870588397,0.06068513313185066,0.19455780377568516,0.09144126337934931,0.11535748603521932,0.22129271750711296,-0.13472697219100765,0.030674071853178435,-0.08279215821791834,0.174859347090266,-0.05528241425136613,0.11808642324690449
-0.35661391692809447,0.1958824359702383,0.026579138039473617,-0.04653620296401557,0.19983030269219337,0.021691759866243814,0.02039660499386987,0.04564418708223367,-0.09335675306148629,0.22665476867239862,0.1086248345590149,0.11914193898801409,-0.15078749774541497,0.09582610375458099,0.10348490472757305,-0.5340995794262287,0.25089952958246586,0.08375426606506378,-0.04149075581848481,0.06776516285992,-0.3303175344077812,-0.07152906410779201,0.27968136029009494,-0.13722442403271007,0.026858666481293123,-0.18443053902456574,0.09557912318838643,0.42371870449994137,0.08014847216540015,0.024118884320449816,0.0585820686476348,0.05862107615809176
0.1282241166763534,0.024827102269733406,-0.018510480326209118,-0.07855900028902647,-0.2402137131306446,0.07967327148028205,0.142248585736611,-0.0538340430377781,0.1678408119799057,0.04607796468031904,0.29578866207094984,0.016145190005229453,-0.06451050719217445,-0.13722279141316784,-0.09967095575144906,-0.10844916535000833,-0.08201519938966133,-0.15808262932865472,-0.2458117141697271,-0.15439935867301752,0.05947511691061999,0.11688732147766694,0.008541503357446155,0.1178221048363808,-0.40787359767670966,0.11045727987774001,-0.269491839556763,-0.15097880313501386,-0.20706010057048932,0.14557944918186558,-0.03978189617641507,0.017346595723091565
-0.03179559625835282,-0.15891877340554383,0.16877249916749953,0.2271112529890757,0.050761587459511065,-0.01371493718408282,-0.1713666712156797,0.04439489189309864,-0.10499921104656502,-0.27999607702103163,-0.1666016636303928,0.07217984144595452,-0.14802673724741025,-0.0454682669068583,0.12323472001637614,0.07784998865004654,-0.19500604574085775,0.11203350503141307,0.022864262146232713,0.07893268136809521,-0.14363548198361523,-0.04755468240994186,0.10845721036728032,0.04729195386768114,0.1196732381920215,0.1706048642789514,-0.3161479592972203,-0.07608779021351138,-0.18698972152541196,-0.1449951525465984,0.0744595894579838,-0.07508309027920224
0.01298563171841947,0.2495281188707201,0.1297922236069465,0.058026592313216094,0.08512198485267228,-0.1932935070982683,-0.04432124443599814,0.23242525723224364,0.3296502009071924,-0.0990833826276771,-0.054930871489227456,0.15939258846353024,-0.18055821388887472,0.05332373421113089,0.08293214266521075,-0.22478065241229878,0.18459284912104315,-0.04294569693585228,-0.33803690061742936,-0.18473383724059894,-0.05130334555540846,-0.1916625529841744,0.2330960992612522,-0.15768956250247382,-0.01425711906789417,0.12166710444822156,0.1387385215968116,-0.13683434585749832,-0.4944353151123893,-0.142410866888251,0.06383958061978046,-0.3918049678605767
-0.04431337869595832,-0.026993150786313126,0.3973209355814482,0.2951109465791902,-0.020743674505574225,-0.21992888418587073,0.023088137176700288,-0.015910746092115458,0.02484047609078575,0.2073181261077409,0.0702764725167967,-0.11434303076391873,0.08415141556898405,0.1309298874994974,0.11571673696836014,-0.020449292217948993,0.23586465213070854,0.49087222677499215,0.15674243404784965,-0.011532540789665325,0.0965013217051498,-0.09639001764779462,0.1437339482906461,0.2508991317633032,0.005204874376355453,0.01337582629154375,0.06260508901951933,-0.11661974420227467,0.10565787316690972,0.4222449405177782,-0.013842544625484185,-0.0887044343905932
0.16693308242250673,-0.13027825934877474,0.3252538904500946,-0.3088552450523943,-0.16701796409946837,0.0710641822454734,-0.044484677265313854,-0.05263279892035536,-0.10447707908183601,-0.2154318992184756,-0.027990555320175265,0.03228571599762075,0.2744017697417927,0.2534831036104237,0.1924428439654625,-0.07737424997119591,0.04401153184787921,0.18166506406698293,-0.013273116821184396,-0.060810908463585334,-0.040046829060676144,0.1123396529609613,-0.11379199489184644,-0.3729075557559045,-0.06799281872836038,0.2830330292678186,-0.08988667284253739,0.039385394570987976,0.13118698677730672,-0.19118076163546008,-0.10036269881173837,0.08621536149405357
-0.037771954106880425,-0.03841470482375605,-0.11364082850167913,-0.006162677087188599,0.19961793284867677,-0.06622691004544544,-0.04281026266958932,-0.17121221327475833,0.13584385934987664,-0.1060157045380404,0.03403170004738933,-0.14203449782809843,0.030707786428771148,0.21967083811087226,0.23706431312334322,0.024242171857264738,0.02708578430796818,-0.0504387951504778,-0.17402179641842683,0.010407455660482129,0.2839828418973093,-0.2684154610997626,-0.02871415459084291,0.12656300505210352,0.09608694983936694,0.15604556650572168,-0.09122291098868059,0.062381474295700075,0.5175927883557654,-0.03266585504446108,0.3450967982034979,-0.06779970596967386
-0.22631572266067074,0.29902892058795655,0.11166726543756794,0.11441697515958231,0.30625926384963115,-0.16803456922028118,-0.21935186020580277,-0.14383126769428217,-0.008398682075256552,0.1941807818326482,-0.03687146358202861,-0.15566607262220264,-0.2250144743988032,0.1468597300212505,-0.0748717482748753,-0.126643413245334,-0.24800214657426226,-0.35317649099272636,0.11080336189805995,-0.11855244973308061,0.018917457439801413,-0.0094706174909763,0.11306300993604558,0.11349519306872605,-0.17317014959820143,-0.4820581825981403,-0.08045740822129864,-0.22515696580221736,0.026010427788932353,0.06895185964604673,0.003992696901397228,0.06948408618309632
-0.13553746146195478,0.03126025523892264,0.10280620594826291,0.2642371089694677,-0.0698137830122251,-0.1855856547708691,-0.010136657124601054,-0.15457520165536956,0.05222808676825158,0.08819474198707732,0.38726180784576747,0.13276648930044618,-0.016295914590700386,0.30514485968714894,-0.0223878344037348,-0.340307941466158,-0.3819852464835339,-0.03866909702139534,0.35184788738505784,0.030250209576333037,-0.09954395123102898,0.1092708542507395,-0.18953016773976247,-0.31922288910452534,0.19848744129347617,-0.3571644354034491,-0.30818671080945187,0.22830222114312698,-0.08821824702389229,0.2660450787636747,0.15496291247574262,-0.13231285504268683
0.10789288964220908,-0.3035194279958343,0.49124362347423733,-0.0751611265992593,-0.225318656609419,-0.1651034480068608,0.3404033416520286,-0.0038848121652288185,-0.19932610855794491,-0.22263155716663055,-0.006682855484579544,0.06295241659545919,0.10016019923400926,0.3114953606435062,0.01342154813099335,0.05205103919904268,0.033049098672910796,0.3925705873388449,-0.03438199827929038,-0.020321335935761017,0.08690450449572999,0.013940439462691153,-0.044021789355324484,-0.09716185906691009,-0.3396161524054373,0.07337039971108919,0.3039679062478049,0.18926356575664965,-0.19259607948542096,0.2073328673508381,-0.06908743280632201,-0.20031164161543533
-0.12617057316318014,-0.3691513673548293,-0.014145557356782884,0.046226116881385164,-0.06549568339315315,-0.11833099624061875,0.025213084747609697,-0.0857249646802508,-0.16924627897699682,-0.0742440473984413,-0.010034677999409587,0.39207739232235456,0.05331843384426733,0.03790975664816449,-0.2830905287291452,-0.2684742683855738,-0.019348252717570243,-0.21713829833288395,-0.005111623535220408,0.05700996531395639,0.06207019133069432,0.13515271340033774,-0.05957380131282073,0.14424324495766555,-0.3699379227467154,-0.3417113383854765,0.0088624374655413,-0.1112551066366062,0.18820461550567782,0.032683966181725886,0.30695696265195704,-0.06460793812441731
-0.48687899868250073,-0.3343973870581671,-0.11234521444823821,0.15374114845480383,0.07476529249887089,0.04334135483211921,0.2531137124782693,0.08326768644372107,-0.06704158149815849,-0.05484612557402803,0.14125880416154776,0.0715580431135304,0.05452246341283326,0.46333756699175366,0.47195475110671364,-0.08969848581152631,-0.0005525064152217489,0.12448795932457897,-0.13958261962286506,-0.3016451215129917,0.026851498529947063,0.033622010261294584,0.02221968302053077,-0.21083747735618244,0.16864864358520193,-0.07036488062342432,0.019335318534855588,0.16876902371964322,-0.14936482296466508,0.43525626900299835,-0.174661416381796,-0.15729982089719077
0.24796377696629654,0.13590780526406454,0.0565050872606012,-0.19151678624604612,0.31943800800943634,-0.2877280868074418,-0.04070799904582594,0.025808991333012496,0.10681353761461147,-0.046082376964031016,0.17705265480843355,-0.0003560388510630224,0.042643378603702195,0.18128380500294022,0.3820149066297888,-0.1289973660259209,-0.10992835824514556,0.10444809609805095,-0.09824710255686306,-0.044118082138747114,0.07337445110446426,-0.34170168173992344,0.2244049512123866,-0.11812635816885665,0.03075794068430817,-0.040146714592974676,-0.04590612027375194,-0.10171227507690896,0.15969234000119928,-0.10033499447169775,0.010031239808478568,-0.35348264004763474
-0.20852030438899335,-0.17756014352158989,0.22707295568614627,0.03658263404030501,-0.029023042965354504,-0.03784545939328402,0.09908001433365463,0.16996244780744194,-0.030892145237592844,0.21933118462721746,0.006608404209873623,0.2964489827348055,0.1455533409462204,-0.06726564354184897,-0.045943155832313565,-0.14533837941587607,0.025437822797890388,0.15194923205183422,0.23355572423658844,0.048421833613277766,-0.2311187276018383,-0.17554432549505483,-0.08649493675639161,0.10665640882546192,0.2513285675043433,0.0373433594585588,0.07079290420594177,-0.09830106605671748,-0.07857664698652432,-0.07913098341567258,-0.19265974092324262,0.08015338725181662
-0.01426129597199949,0.33404398529612517,-0.2098648190523622,0.016957706931369585,0.15766967315186387,0.05116971533175693,0.030325189003496223,0.13775149606667486,-0.015827162433668687,-0.2524695414963796,-0.19285694898106837,-0.27218698302430977,0.041299697774711944,0.18529415560467558,-0.009731273774311518,-0.05559908534359539,0.15729363820975528,0.10055101694356494,0.09204546106457068,0.15750211562240876,0.16273125284280984,-0.20131547488517806,0.19357115433707014,0.2846763373467942,-0.09715693332476835,-0.007473264245826711,0.01382021330981251,-0.18386812654415532,-0.28014432447283666,0.22115924432244843,0.4585865857892977,0.2881900674331334
0.0887344610053467,0.019493286576007976,0.011669589484560944,0.3101520232640051,0.13146449553807382,-0.21009334013709902,-0.14333353053055933,0.180240665026287,0.09179510923292677,0.40838198827449473,0.134390187955463,0.23419401522982594,-0.21081716614914447,-0.33586255806650367,0.05180705850247509,-0.13719282584069895,-0.024160415588497186,0.25535608198656634,-0.1982834524765433,0.1286917503190676,0.00873489463304866,0.18440593230413865,0.043134314196352594,0.3012055151567755,-0.14426843018003133,-0.2767805877416944,0.18826246166146962,-0.18427961415524124,0.28286882930137996,-0.25004935048842253,-0.03667559716911876,0.1336041936297817
0.18596269370459928,0.12700402014649254,-0.14718631464579407,0.2460669298039639,-0.10030058622369407,-0.16357626824345553,0.10595135274174287,-0.20807840276939502,0.04990829987397845,0.16490993223720707,-0.06798213487987174,-0.08218722961483067,0.19163924687118655,0.07078282253488737,0.28739934179366744,-0.03609122674612537,-0.21404388224843343,-0.029415525615483513,0.018489961559816463,0.33518210955700206,-0.023071077167565526,0.08938229996060987,-0.22073923035677914,0.036859341372511685,-0.07912462676104483,0.13510180019100335,0.0003519736250391206,-0.029895748879283392,0.0382952088740652,-0.1220478016963775,-0.04719870816374824,0.1361913028210128
0.33725420822916147,-0.30986471243307395,0.19025206220080038,0.13181757421719187,-0.06036873604961315,0.26402456476606767,0.1611259643209485,-0.08397343219835283,-0.1026500237252275,0.17012621810396678,0.06754265681272435,-0.21102775704524165,-0.1669705692421586,0.08581401821625417,0.35681876512279403,-0.030661506865996887,-0.07603315689478624,0.057690478718781565,0.17235360058055052,0.13105173665617237,0.15586521459522196,0.25867303644169887,0.3308759699629524,0.10965753501345425,0.1127531888534526,-0.27109607132387764,-0.07935936553955313,-0.0671611867595713,0.11209332778525728,-0.03213813005482788,-0.038991697024504036,0.09879020980391748
-0.2859646628023472,0.17219679726228618,0.30831493105176466,-0.19826066634797843,-0.09420563570100333,0.19875189286652367,-0.015436772249471934,-0.24162525747058658,-0.04500707014913685,-0.4687621537736787,-0.15838534890645614,0.2537294203303232,0.05832600790137793,0.19704124413493113,-0.22526863766473473,0.25242378387551506,-0.16372331382362953,-0.12498218357931773,-0.07568675461905659,0.03166919014950601,-0.1286091207614043,-0.31605241614813623,0.017744122188555738,0.05185769814940373,-0.11212241929299956,-0.19922961769540018,0.0337283436202307,-0.5555526167684567,0.050734093558587365,-0.18286186709452293,0.05653398067202233,-0.1445681005417964
0.129739590429087,0.034010658637154204,0.14842983102082835,0.3250599551107957,0.03606654000751678,-0.0946975643110898,0.18621681729100015,-0.14787994476295024,-0.2617796165167018,0.2684805232576731,-0.12860839134809227,-0.040168236237050646,-0.022448601883151485,-0.10513363160421361,0.2187751742953573,-0.06298667929283004,-0.22224542170833342,-0.09856320939807735,0.17479172165144094,0.40070464298322944,0.24761216842511583,-0.04385494528534335,-0.40587877024577346,-0.1367642206362922,-0.16737135473943465,-0.08199199251519625,0.2544600066600103,0.03537812472613663,-0.014436065464904788,0.14039813902085696,-0.09388187882614174,0.17999210254409517
0.0032572719620419265,0.11957770876834252,-0.14747890270086486,0.34474254522771863,-0.10224355558926966,0.0631985086975233,0.033584241054529305,-0.029675042349667127,-0.19499483154321148,0.009907852647038029,0.17513206643300455,-0.02037194734615435,0.17976969452885572,-0.033924484213848735,0.09195686509578392,-0.05223211285841427,0.01639775687249859,0.15369843541603817,0.021343779235767572,0.5392133016128582,0.05899288280143731,0.373380309481665,0.1479784115993735,-0.06624313138975188,0.21942899983286196,-0.15928284264193993,-0.09232371187332894,0.05601749089102474,-0.27296800886326833,0.24633964905742148,0.1526936000542536,0.04732708269282584
0.09274018996846228,-0.053558263543962495,0.1554566505724301,-0.07421026379372818,0.045712925332357414,-0.004025148560777438,-0.15581074362682162,-0.27883083850376383,0.06421267226131945,-0.03423874262814417,-0.12755559420937534,0.017729402072307367,0.14371638676456405,0.25235771935624646,-0.005629772971972642,0.09539391921520539,-0.02728127623257582,-0.32062463939061003,-0.21346025848246303,0.38892629372804155,-0.1997345243496857,0.0553081469272195,0.23000319852044251,-0.038732876398039226,-0.05341850243340807,-0.16798472837690404,-0.12866873339042925,-0.10988380838917308,0.1999910951108667,-0.051017576112246714,0.18895898879682263,-0.1557452610107795
0.12350487945668089,-0.10177716132290728,-0.08563610824441538,0.3521611735730779,0.08370719936258035,0.13459375610662172,0.1113943883707627,-0.20512436617488744,-0.1284870379250773,0.07874789436025904,-0.11099871807759513,0.29824365898661004,0.002562263204498662,0.05212651529837819,-0.23767197315404281,0.5551317805231033,0.26683986620730815,0.096384771386614,0.15413280688382677,-0.27277435300081293,0.17423920852378846,0.1637137670518703,0.1924168198283839,0.016277942345857065,0.2147025596321011,-0.07878965435728023,-0.046991251940703846,0.0502945064920435,0.1667694366031687,-0.05095317359867148,0.09625733483426552,-0.13383826306266086
0.08265590379320836,0.1586410393896382,0.041361585527922316,0.04937395950466753,0.100346105338969,-0.3240592042482662,-0.17804011869117614,0.11469887895072634,0.10419095245410386,0.17257688713021258,0.050196739273439345,0.15293677275347034,-0.11278272993563378,0.13603012751011662,0.16648694418365048,-0.08018965179317171,-0.036677787219522015,-0.024211584821057102,0.2718083258376466,-0.0866607517067215,-0.06331726613009805,-0.31677881153064413,-0.22350530879827873,0.06719925655930069,-0.08052024032723622,-0.003596041770436535,-0.09518969303480145,0.21490272464661964,0.01662165050332692,0.1036093032005127,-0.04093070351205916,0.05163450700926562
-0.2672645184772264,-0.044745820084418984,0.026185646788425825,0.04503163465272048,-0.1836189639150699,-0.15658522851199114,-0.1668696878478148,0.22758648940048118,0.13133444795931834,-0.13741946213262016,0.2355927768307146,-0.02650020304522406,0.1702234894174251,0.010500061252535097,0.31844297481644784,0.24581563465362258,0.33521539886756413,0.12196429427982812,0.30035673819722203,-0.09098255355780592,0.08672185636772992,-0.1695153416524691,0.267724235308687,0.22267613980442444,-0.04655046241253105,-0.01552669302220869,0.191469072834951,-0.01036513153523301,0.1505247893548163,-0.04400606643881748,0.2239053495239987,-0.09850019504049388
0.19662528264021736,-0.1678347240392245,0.09445915214156937,0.03688572401382823,0.2454422313883912,-0.0621390149483336,0.1152556359719953,0.12206970670822492,0.45152970406094606,-0.008274877267566387,-0.06444021629424093,0.04830246067508461,0.16249430581141558,0.10683286828019115,0.12068742343445389,0.24362686391464256,0.17447014813280404,0.17752925267861966,-0.36754664286710304,0.10493448037517722,0.04805091328148327,-0.06342934451648352,-0.03871400585260218,-0.19109713150952862,0.15977557239465626,-0.019765895342693296,-0.18640290111252047,0.36136954382982134,0.11280644439484078,-0.08133664876107032,0.010717684429772504,-0.3670055593215318
-0.1564761055120808,-0.13821179633227848,0.1484451373047248,0.13243277276233573,-0.16339404759681156,-0.056242701823187635,-0.0358234086440333,-0.2778672406024744,0.00693116547550718,0.2256053384210439,0.3246426187460747,0.03169935294512816,-0.1543540158033837,0.02723078843429468,0.14657852495168727,0.18963669200128186,0.05189757444289354,0.11659548980724503,-0.07058516083758658,-0.03229225413384829,-0.3084807200110373,0.2559374931763408,-0.05231970511513955,0.23373852407444803,-0.004544389487218174,-0.04208395278412261,0.009113997700804517,-0.18860996530774796,-0.03463890340100219,-0.055628511058957164,-0.10290368596843061,0.3342603752418466
-0.1214443981302261,0.07556660624617675,0.027315615548511054,0.09016249660481994,-0.1494678956490158,0.10137338395824472,-0.0034170536502113958,-0.09390285990787374,0.29936432721547485,0.22648623774957655,0.05269524738007727,0.1323857323498704,-0.0015443489272586395,0.017336168787088314,0.025455721970127885,0.03628849406444355,-0.2628901457421303,-0.01173053859499131,-0.0897289918308232,-0.26121803493315976,-0.11104244747011635,-0.1649989784106785,0.03500577443369911,0.07702145745729513,-0.08427220970262038,-0.07302123254809798,0.2795927779511727,0.18308037687876463,-0.2179216867801269,-0.0077412583155470685,-0.11298335177872557,-0.08667299470235809
0.39521013746183176,-0.3016481080334771,-0.3774772209784504,0.043779356707753764,0.28188086181038324,-0.09376301401611128,-0.059612257306339435,-0.18588800043782755,-0.2749422517134823,0.09585669840662649,-0.29173060993127103,0.08720140483505577,0.31157239796002595,-0.03975524766380344,0.19881364738610066,0.02168997153088913,-0.2538222819489569,-0.14925552267481199,-0.17369778218496196,-0.3175044456451297,-0.1477081620357765,-0.22664910633570548,0.3524128486055018,-0.3167477588364463,-0.06545885148053279,-0.3071922993635829,-0.0764606779644953,-0.17056938717055004,0.18641597891443182,-0.08187482749860434,0.08798173397850671,0.010760835579343625
0.136595737917297,0.04617914370788029,0.09214366943682782,-0.3381430962913798,-0.010808782204351653,0.13977335766685486,0.2815826995542067,0.25500224896899926,-0.1775382524780111,-0.17187617906664482,0.08528671661756881,-0.04614438739289271,-0.09056364815607837,0.005976258912170582,-0.0403311624179772,0.48346154197986235,0.15815048396881984,-0.1629539844513235,0.20270511922308018,0.08705089864964084,-0.0007422717908134817,0.37642833489064637,0.1352204504346029,-0.10036422309895814,0.006532656394694729,0.18397964145700488,-0.18517718251228876,-0.06912271239203949,-0.04666733364299534,0.09990315931157366,0.1863029645646467,-0.06282403829784279
-0.021622604564060562,0.026822383683737874,-0.043996057588337224,-0.06699641275578042,-0.11064677211686455,-0.08077657790776353,0.002751857652631009,0.26843666006386135,0.29162161213174814,0.030450986617183255,-0.2739544359073273,0.07541952562880852,-0.021521954624115106,0.05684304692704398,-0.09886256967260837,-0.1595161143664009,0.18011062810421546,0.10116551288542502,-0.14254429246181233,-0.11155747328402808,0.20595807826054532,-0.030525978259866127,0.08842789778342969,-0.27300927161215693,-0.052177196432511556,0.30657043522094424,0.18815279657633902,-0.16890097665943762,0.2468604400895729,0.1202216778490442,-0.2271062963306674,0.0800535906733306
0.17116279785704655,0.032655491702102316,-0.11858277584789859,0.016482434600366736,-0.2593761915371357,0.05806246718859507,-0.12746398878096504,0.013240146831545419,-0.0790170820090567,-0.018575818557439856,-0.06179839468524463,-0.11701240586742512,0.03149693155072107,-0.018447250763493454,0.04311819396855579,0.03774779389371654,0.05212513395117188,-0.10731494503557532,-0.303577477613602,0.0241657897808148,0.036360906779713265,-0.34701154294996006,-0.22934256159144648,-0.0373058243511874,0.23621713346654816,-0.09379041528822574,0.07225555367679727,-0.11236758336276571,-0.04100424657570364,-0.0059746955789361225,0.02384024383492331,0.0774603333520926
0.0009706769705385476,0.3565095718549788,0.2614544281338182,0.036314980110629676,0.05215757122402803,0.1729435409912898,-0.0307288282349184,0.16481754764083795,0.14365646157294923,-0.29196799659942285,-0.2015920224239571,-0.057065877895821224,0.21516525238661433,-0.005644160776756793,0.2912946019707774,0.21585730990174776,-0.0851022046081554,-0.005242288824403408,0.1512028413865802,-0.22468297519549654,0.10731189330053562,0.1408344152906289,-0.1960205097416608,0.2945008829005004,-0.14432713923662396,-0.2439550951257511,0.01088241138867955,0.08296862009708038,-0.25947038193156197,-0.08059674044243643,0.2441587439151452,-0.08949532581696783
0.23791523162406644,-0.351014335153896,0.22706111400172282,0.17593060704699173,0.1004683031222669,0.15730996328835375,0.19603167594859633,0.08985898041533887,0.09462181285133105,-0.5034083788768317,0.30101767773755755,0.04086440604040075,-0.11180586569541091,-0.18671912311078323,-0.12786622092976477,-0.19096728732225338,0.24588743735034502,0.2041551420131138,-0.17939338792243079,0.1978673220558171,-0.01311841649429577,0.08830415839633315,-0.09238698098322724,-0.05662213610468689,0.19732760649213832,-0.12750248648880008,0.05158265015387008,0.12324170609989372,-0.04317422693068934,0.007151133453781097,-0.2309226722014057,0.19578061546035988
-0.2699905217512233,0.06949098357122566,-0.219818700095209,-0.18164927948414417,0.10509033967443068,-0.06594815817746502,0.262493875430914,0.06661983206739955,-0.06885092434407607,0.030337972591760153,0.23794470505177903,0.14459465013972236,-0.030748989598742206,-0.269659173132715,-0.20720011911151442,-0.05314575147756497,0.03173524526025162,-0.08647047566472954,-0.18686407368380417,-0.33384925124901843,0.18932718492205644,0.2930206817541117,-0.25137736882632356,0.012049519478959004,-0.029328563224311176,0.028238194267423477,-0.15472111991378404,-0.057235928919081844,-0.13543052449522916,0.3266186268623569,-0.4256607734559427,0.07622848566040485
0.09777870450259661,0.3190114673712358,0.12652443874354546,-0.22276082027512192,0.029349195631148375,0.0015232713075304656,0.19084539684685806,-0.05577115133673613,0.19967268949020336,0.36328951366908246,-0.287904434794039,-0.14021659691878832,0.29492444642085447,-0.07920467663948992,-0.3201833987039962,-0.06579130380239454,0.06487811932393474,0.12321222137709902,-0.06627178797725462,0.647812053937712,0.021588994189072147,0.12147535658715158,-0.2175964381059074,0.10588882354360489,0.27188812865637163,-0.13055639097882948,-0.20380109398791812,0.039666659089978185,-0.11958021756192166,0.332888734236719,0.08233175345355191,-0.006321480941042545
-0.20008897453148625,-0.18923006345155352,-0.10615827956115213,-0.11661257008792626,-0.06828971188453299,-0.07443189809843163,-0.04531039971529013,-0.12748938231192233,0.432153255724979,0.10066120729503455,-0.34808186743062913,-0.29143365047985254,-0.08492738963414477,0.043687818046617914,0.20977346059701693,-0.041930010010550925,-0.007038709191554981,0.014807127358179182,0.4536501141025182,0.1498618810645359,-0.17350880637114466,-0.00043038602907076527,-0.4240141277256966,-0.07894332453531634,0.28876524724640146,-0.07188065589405455,-0.04985210375949099,-0.12071055792984822,0.13409984887324092,-0.08831097894617586,-0.1656921783743085,-0.07358609550616992
-0.005779916009646134,0.021006873149648424,-0.031505841463861976,0.09388991928078966,-0.030443433893035273,-0.1323182012422539,0.02765441775379495,-0.043498601972197584,-0.07767617010515826,0.22890127282703762,-0.18317661529761314,0.017633929371244816,0.03700806606372815,0.24194006517022268,-0.18784001522164856,0.2087544058590263,0.11929950056618759,0.13437540963805536,-0.06414647897253423,-0.029058104277959344,-0.07563613185314699,-0.12069476884069963,0.22258862882329433,0.039196405972851206,0.10315347175590525,-0.06377318189527449,-0.19083067024795364,-0.14797391949666802,-0.01585821809381401,0.3480891751091456,-0.17754142513993618,-0.1373976643490442
-0.05803316327728327,-0.28777486731752977,0.1789033594882881,0.039807120571532364,0.02080056396262888,0.10359840455194606,0.1348156580345699,0.3989888371045206,0.012673953652262083,-0.04290150828481409,-0.4049853970710479,0.14718532386323177,0.18817887389592303,0.058889951606878786,0.11849325254936136,0.043788594518504566,-0.1387639592635892,0.130951273438151,-0.04202256599382114,0.03931243395454708,-0.10159939650891894,-0.039995865169323734,-0.0023267716656890564,0.01838155187412043,-0.039656870962321,0.08717595491506738,0.03610947420473982,-0.06495252060368133,-0.09047757497483318,0.2767381209425954,0.048615928914852426,0.31848937451301995

hidden2_to_output:
1.046103353577615
0.4479865664416224
0.2939353455622179
0.15536073873052134
0.15165547212433983
0.1774097856205806
-0.14539930937109322
0.10268311452674526
0.14749093600700383
0.4923867230923456
0.35672170439611267
-0.129172801682081
0.2948896760696681
0.15151170597308541
0.46470367146056707
0.43519874198544745
0.006987199250845488
-0.1155787265909536
0.10685155708625838
0.3047474028503283
0.2665590991608942
0.3931865158198203
-0.3206327982366821
0.2212205541701145
0.15626185971067874
0.552169784396895
0.233124114242092
-0.2623946933701555
-0.22119063903364133
-0.05944281568630038
0.5119694049467106
0.18490623025528588
-0.29892071264721604

