input_to_hidden1:
0.9947765705054775,1.0055953944263754,0.9955241699682615,0.9977552574235811,0.9978071628430347,0.9950228214325704,0.9983941100626416,0.996001976031741,0.9981761809821691,1.0002161500178408,1.0002588993280432,0.9895629797760247,1.0033807193916875,1.0085186944374067,0.9922615797374452,1.0047376291764616,1.0012782763638144,0.9973464216455571,0.9954639075004978,0.9997497854056571,1.011140368660047,0.9965265566277327,0.9959555051981823,1.0001643792597759,0.9962796420923764,0.9982093193469699,0.9927600858667184,1.0078555793191275,0.9990731570651565,0.9940589413727012,0.9964869739898741,0.9909270143314585,1.000111708338019,0.9973081144446935,1.008091685944083,1.000773607463099,0.9917362231748047,1.0080105334470038,0.9957565091559931,1.0008412394560633,0.9966904208693834,1.001567765245198,1.0017107284855353,1.0064284683719664,0.9911493833000509,0.9976005805251649,1.0015704310303548,1.0067919474184748,1.002986967113931,1.0010256747210913,1.0042724600518678,1.0024124259270308,1.009660527418268,0.9998299291188992,0.9995073818463389,0.9973252802829595,1.0,0.9921567911034811,1.0,1.0017911748322854,1.004659666525432,1.001035188215485,1.0061907682500284,0.9908733407848408
0.3187167436124883,-0.1082719169572347,1.0014808198214795,0.10571736352939162,-0.28669938740581596,-0.2981846719395328,0.47807765526159096,0.2900067632887682,0.11116327969620957,0.11318513673514399,-0.10424571759493323,-0.6486060284556624,-0.20583509780922435,-0.1427952985827686,0.13702938546766955,-0.42029106565486485,-0.2841182435370772,-0.5146014651806846,0.0974931367147764,0.34810059653323705,-0.23546806217668512,0.01678428608073459,0.3781975992158246,-0.6218338094375907,0.25722751736983085,-0.07190081921798139,0.04730288309426857,0.2883756933981106,-0.3660218321698944,-0.3156749300234111,0.0870028102867523,-0.2128076276711695,0.16556442084892684,-0.3974033929035453,0.4263590851838678,-0.28984871641116705,0.6643363092937985,-0.15076403079862094,-0.19109438835695525,0.0994214358273179,0.4887726600275579,-0.015409517884107358,0.23616680396089065,0.5111577561367316,0.1271177789513026,-0.6353293617292833,0.17410391863258173,-0.03444005581924005,-0.7263093337642511,0.4181290758592584,-0.28373919489580784,0.20769658060937293,-0.23588328539787412,0.23931677253456696,0.2971658029252729,0.5767312431579293,-0.07246046002686121,-0.9556613226499238,-0.5812787667047266,0.47027289314891646,0.40971630202182263,-0.09638554224766196,-0.21590341054804735,0.24284894778700494
-0.7676571781267175,0.33564558792370214,-0.4748763036079513,-0.7531255067999194,0.31115274513644336,-0.6451670692131636,-0.2943754123898205,-0.09316444554587769,0.15998073165117527,-0.37232940746580695,0.02738758228528337,0.45549200373931426,-0.4987022572140857,0.3708848276908178,0.11008738501786433,0.4586115915883851,0.017785632999162804,-0.30371786839132237,0.40463257774245537,0.4388440718903831,0.45146566677540295,0.18177958294328908,0.6454455636258337,0.1296498085634698,-0.5135727653104207,0.3203455192499525,-0.2946221235185199,0.25442812749552174,-0.3363295158013199,0.43948991184502173,0.8431429701132345,0.286382948530593,0.6460755344878188,-0.3223868499719372,0.07152830291372174,-0.8216204236952807,-0.3677924578158081,0.2803839866722123,0.19843435990628003,-0.03692382472682986,0.019147092887075817,-0.05675558154452979,0.1265449751439414,0.02317756190714435,-0.09318806112271842,-0.0840034476750104,0.9457550589245654,0.13085188174825385,0.22561410305306914,-0.3234155600785544,-0.23371247700326683,0.2571067191292655,0.06376596656037331,-1.1224859656748456,-0.3022558785559968,0.000962393134969598,-0.11679861902948925,0.003014096070794178,-0.36282564135330214,-0.11005640426806883,-0.6640720174892502,-0.033412973495982524,-0.33963888353191674,-0.14410405193345427
0.016472637486987372,-0.26995585623914076,-0.04075674722372343,0.4994536082662232,0.3771773779354733,-0.07238883128148638,0.08994925154007638,-0.2385981844223257,-0.6106344284836677,0.6073702126727261,0.6079420189421408,-0.30019782105870896,0.0023022694641477463,-0.7892137854460062,0.33494054637714604,0.07110232253889033,-0.006979672721474076,-0.07716105914787107,0.4353456277004466,-0.7623697563111432,0.5764647268276517,-0.4864370229765172,0.0717433108065379,0.618141061398361,-0.03636056219037982,0.3084321486923701,-0.3298197286521689,-0.4509401142572881,0.3348487454032788,0.3681517609536092,0.5594369612691624,0.03973560259310583,0.3864827187951211,-0.42969122767184104,0.33919663044787857,-0.482665411145662,-0.44529818096497714,-0.10630403460899188,0.060185668781486595,0.47484322062825846,0.42407429109576444,-0.031518079633335035,0.08031964009830833,0.4624461344512661,-0.42825724622600986,0.06372815611431691,0.46236940227173623,-0.5557677121877435,0.49769391181551975,-0.15492284339876422,-0.4655886280435579,0.7355288021009572,-0.05174183059178019,0.18707481949263455,-0.02394266934673961,-0.28403569948228885,-0.5158977696989281,0.13336308218070653,-0.062039548238647414,-0.45260231546213175,0.0023860107787463712,-0.20396395123423858,0.27968393140042264,0.2809816118737246
-0.3758710474111715,0.2598306654198668,0.4980548403301754,0.7191333558247031,-0.05027388003481817,0.31112534382378193,-0.39482750079017725,0.6800577286205598,0.15589099757938546,-0.6460689857934793,0.719343106281231,-1.0103947719546968,-0.20324332543991053,0.3548723332593146,0.12658618859206752,-0.38858755524949806,-0.7151700876270625,-0.5601595886577555,-0.24604437762559636,0.37117595380093465,0.13983856597155359,-0.5067046780625614,0.1688792378675064,-0.10919574673082233,-0.5708466418459545,-0.09289804262137026,-0.13301568806530698,0.4742665321813714,-0.022478731648920235,-0.004243547325591171,-0.4313233041846442,0.409555420087383,0.0044619384275403585,0.47361369294330424,0.12106435581013274,-0.19667021257552733,-0.8102410750034992,-0.621181326375908,0.8090150523354058,0.3493776537536327,-0.44681606832409737,-0.15924905740564382,-0.4084827946754533,0.4003254636158514,-0.6511476226814503,-0.1086064962255834,-0.3153163806166186,0.4879797233789931,0.3167561340020043,-0.1265394447861912,0.6911321108429526,-0.2291610764428106,0.023107636816333425,0.07114985558599955,-0.7127517599044603,0.3696191699918807,-0.2851394635329451,0.7165541501492669,0.2007652265946911,0.287792680370907,-0.21063230188070725,-0.5063774897680577,0.08720740655566314,0.5338152234710978
0.0420374447896808,-0.8207291395424768,-0.6675488587197933,-0.2696975437120153,-0.575341791398024,-0.3464747332825404,0.4633649215420155,0.0908145546381842,0.98983585138388,-0.06651578835281628,0.18364654446925555,-0.12192154503731925,-0.17476273576874868,-0.3340714424641063,-0.20086311737530788,0.23313580085753408,0.030906779361388064,0.4379197170768857,0.027455035972704277,-0.5805039806552049,0.13771272595544984,-0.09205515884504196,0.0827722683932796,-0.44935557612577415,-0.011708783703069586,-0.10549278377131525,0.256970278161201,-0.395690475830652,-0.36686225370769676,0.6059815365001757,-0.43848519618230325,0.24627203335768696,0.18897345382225814,-0.32964648716544964,0.15128140192333375,-0.18261723854223172,-0.3159813490425326,-0.372688672894423,-0.005327102339722252,-0.01800792761573647,0.16073266680289067,-0.3091021340111267,0.16499251970372997,0.5183929892753072,-0.36219454840511756,-0.28204249431635936,-0.21772453754498436,-0.19735228969357788,-0.5821753204395879,0.10770222180073931,0.1581770801594143,-0.33024398432698154,0.10856257542250866,-0.03991829679839121,-0.03717253910908808,-0.008395745623323413,-0.42054588075688915,0.31143947221676493,-0.6948288946199304,0.47697028401319574,0.2759074998118004,-0.21894361022749692,-0.18891075124162116,-0.13037843909565722
0.019256506622928073,0.08103469727314301,-0.05899670853029463,-0.3760836831566127,-0.4149002666132032,-0.4339753948957689,0.3928636444512558,-0.0050259190395270945,-0.7724682794142972,-0.021007983125169227,0.11023725567194256,0.23726617032645272,0.9047800771297727,-0.039664246750860194,0.26840393066484963,-0.10578659890199861,0.22115811847197772,0.5163206346655793,-0.6671155257036615,0.45718678091331827,-0.07144780318970587,0.1131359921107228,0.05481211077429282,0.5410310312343012,-0.32650900051428716,0.37913329873409596,-0.12813669485309176,0.2567395581315945,0.3118874383412079,0.5177894868531235,0.6481458797745812,0.24580063333733412,0.7104023229230391,0.26511766985430146,0.07341378601455859,-0.17488144386377633,-0.30933871716377803,-0.15999098557447802,0.03947570225579982,0.4075974619250177,0.06913579844658471,-0.49007459638112505,-0.3015307949289255,0.26530865092719197,-0.04726295031809984,0.36754067827506565,0.18717668039083632,0.10108277411043967,0.14758420649179874,0.3349392080909685,0.4076923534119384,0.019129632588771896,0.2182205548387572,-0.03401351472993808,0.3278615166995666,0.5929470842825512,-0.9633522448522966,-0.5000590359294292,-0.9381340597588651,0.3837467152381776,0.38807503463216214,-0.07669192332152992,0.31266722800946756,0.23200105027053214
-0.5427463493898533,-0.7399817793031197,0.35010236564223907,-0.9606399132238139,0.11135103622555292,0.6082621205427513,-0.22486702219609764,-0.7002650367400284,0.27657563019010756,-0.20651641552221714,-0.324727500837306,0.2291257777272132,-0.23188896809850057,0.5564315408348628,0.28620607480928106,-0.0021635141185606123,-0.222609192749571,0.5509086982255669,-0.10755016114901046,1.0234034367668383,0.22996928208469014,0.10463173647380808,0.3171292931975558,0.27573752970273,-0.19996934757186227,-0.22077820070314855,-0.023565654746347395,0.22862305676157585,0.16828338592888975,-0.43913116092438464,0.334843093222305,-0.2957740806724997,-0.9032578043509176,0.0725981721909745,-0.23517845394014542,0.036401224596793805,0.4781765831474091,-0.7042465789876703,-0.23491051471183608,-0.1598818902832831,0.26010025045380103,0.1749185414368719,0.1052801728943923,-0.38555052428628334,0.2726353919995791,-0.13419766914848275,0.16478282282248666,0.33271901362578604,0.5721217937468307,0.21552858116660115,0.3974254333762887,0.014837189504536226,0.627596841485204,0.2203588282375253,-0.3225305298657338,0.15120623093817367,-0.24478399598049255,-0.44378388616158077,0.4548132900037561,0.2771638443096016,-0.09866823383640007,0.18434170597545346,0.4880270503549875,-0.8422250566599775
-0.4450851843726531,-0.3225995440212712,0.011829206762404555,-0.12780892102418182,-0.0694470003011755,1.045619389675145,-0.47565038444947716,0.9427541641609165,-0.22680273456807767,-0.44429777487375305,-0.27235470533635736,0.352802439016742,-0.3167149954539905,0.0985940715132533,0.04426019171271137,-0.09335152115447419,0.15026879018602707,0.3558329590887807,0.03723989189058976,0.2130337938540893,-0.0955625149816881,0.08486241823348,0.14360645363735752,-0.3942936169683637,0.30957330363385943,0.09126655965795907,-0.2162896048610609,0.4519067075766456,0.3749833183296557,0.2573615761132987,-0.2812493602010825,0.345475275382811,-0.1427720511820788,-0.7877976201185439,-0.732264287350335,0.0023727652159675535,0.3371563891813806,-0.16660723553754994,-0.07707727196923733,-1.2198535093815472,0.23223134453296365,-0.8358073341572128,0.12810643567721205,-0.4732267895691625,-0.5089031961547744,-0.26973553352021673,0.898364936949915,-0.26645833112354494,-0.4949186885298432,-0.36017152392693536,-0.8602884933801151,0.16032948072958228,-0.9140962696060957,-0.09173671620175951,0.43620664064757697,0.5990074351274693,0.49979703824742894,-0.4259949990162677,-0.1709064805615726,0.5475302663975095,-0.5248026798154996,-0.6593107011298596,0.6710823133143481,-0.06216762693972767
0.37194413548507615,-0.8154528588459696,0.5664315800819286,-0.24448690812478302,-0.2441645509637114,0.34236791496015123,-0.056122299834335726,-0.23034701534581237,0.3428441125508632,0.5280262080515666,-0.25066541921205565,0.3840803825430813,0.18080921372749073,-0.4526460540548076,0.22928606412148117,-0.12656560037643103,-0.8412522292593034,-0.17517122879680758,-0.3662191521429416,0.3534865072721659,-0.4925795999077081,0.20939584353672488,-0.3627345104004454,-0.2804432832095239,-0.5530579740471773,-0.5221803615236175,-0.4667276530077944,0.05389571663563352,-0.3604228270766784,-0.15073654172479176,0.9712549474591032,0.028849749466547055,0.20207338155989893,-0.20567810262465233,-0.232877613455397,0.2514653257536431,0.1375190091382381,-0.5987758703578541,-0.3020026472231924,-0.46725767188272105,-0.5112549327019887,-0.1632841026120295,-0.7127896286305854,-0.263270573119063,-0.2263987752914973,0.35307151476875553,0.7037454742604448,-0.30712209329335705,-0.30456818413278786,-0.23995635781935534,0.017264118760280753,0.17052226227443038,0.24382730994935475,0.20899538399766837,0.7733280330438403,-0.01465521205593315,0.25663928282666415,-0.4645130581882109,-0.11850638053767112,0.30235053836798365,-0.2937627261442968,0.18672805954671387,-0.41716184221170094,-0.17729002152318352
0.6833956824695427,-0.3021706262362797,-0.42381498365384146,0.4442673479693168,-0.14480211373854918,-0.4628067445474086,-0.438232261207151,0.34070431850997474,-0.3526746251878316,-0.25135293995733,-0.2535147600493961,0.5461849567943213,1.2202248701475376,0.2170662974074281,-0.7558357649194651,0.1462145975095953,-0.6622040350070253,0.4510493956727301,-0.5310793321213431,-0.38573789016560883,0.4891248642125136,-0.06920638471054127,-0.3151037626920353,-0.21059296724945728,0.08225195382772126,0.19945094725670243,0.12220154534131375,-0.40072951367070886,-0.19918312218285897,0.22114363129450193,0.12682560749438437,0.1161171754725513,-0.023959897936453707,0.35511534024768404,0.07132099484796232,1.0714920269506691,0.3962484147428225,0.4800641563317454,0.29958313619749793,-0.23666461376645528,0.18953535648303388,0.4988866143237149,0.11699514512152015,-0.558651032105231,-0.23029443386467383,0.01762745210235689,-0.9998777151972041,-0.006054061953992465,-0.259977234534869,-0.2694742999656065,0.2961799823476711,-0.6534609575242323,-0.3291779418706976,0.422429835719062,0.07399048436805584,0.12443612322739932,-0.4786952459350244,-0.12513002745300597,-0.08798242611552134,0.4738214707896421,-0.18374756677235046,0.3915432409395722,0.8939480801942011,0.07569852339305315
-0.3219291585793049,0.7616194636094357,-0.37051207344836895,0.38687437819680315,-0.04014645386244653,-0.5920417187808003,-0.3440300029367744,0.23206826926683571,-1.0232433389253213,-0.14660512461160982,0.3132142507508739,-0.3032223365730956,0.44291886528263635,-0.2035813420894768,-0.17113571845418699,-0.020355328115292483,-0.04692715930655073,0.4875396102714174,0.5524462493873435,0.9962379248142887,0.6392862021189211,-0.3198857707561846,-0.43719709725485406,0.5247694627375602,-0.0392546039305906,-0.6794978682216029,0.6296223764295936,-0.035339276777636666,0.08005324119618426,-0.2343171125771119,0.127103258250994,-0.15044976964992773,-0.07872105958755304,0.11343326176898469,-0.5788754217064929,-0.013172219388730514,-0.053416119425697156,0.18748819596282915,-0.6917818995069066,0.5410338165492113,-0.3615239885880325,0.02668871647654867,0.32828022345709046,-0.4199028160568251,0.05878309875821166,0.43222204268803277,-0.5388957659032355,0.3774323342722894,0.538202107916816,-0.1383971790058901,-0.44407607506123487,0.3648932628389731,-0.08254763694244119,-0.10134641512557363,0.3196567987698612,-0.1616748522072138,-0.48140798205445345,0.9430063558205022,-0.735680544474498,-0.19952930090616994,0.44172489832705997,0.4114912699922558,0.1858332200498757,0.27446568965650814
-0.07280498720045414,0.06679510719112036,0.29215050507155355,-0.09723808779928787,-0.05843681573722494,0.08643597334748254,-0.9559047353039534,-0.7219112736721597,-0.06925451283647058,-0.31154133724669086,-0.09765707570219863,-0.5752122897157529,0.6299621687821226,0.15224039411529047,0.2974049236924114,0.2444432575900061,0.35737410702876915,0.017358738399704865,-0.1897405023104153,-0.3703324781500259,0.02664843330990528,0.6206593896328317,0.17784208387409522,-0.8331973621507376,-0.492082797347636,-0.5988998391159793,-0.5592966061148847,-0.3361628688105898,0.3388164806100247,0.46516553483460743,0.2883588220897696,-0.10556252095338359,-0.9105747209520054,-0.49147333739781085,0.392790378051248,-1.0219957493577514,0.1580866373883525,0.5568616703351761,-0.1564230841433448,-0.5084679714187229,0.16930952052205744,1.0080134933106957,-0.43639873332290724,0.09127353239775349,0.23120826221104646,-0.2845044591863162,0.3243626663182815,0.4096542499988818,0.3464128377556074,-0.2883175283747639,-0.9115233708424878,-0.2857107437790058,-0.06790502845863479,-0.1575755136363171,-0.2898807682510911,-0.7479787361917646,-0.34009056903297347,-0.10518065051846505,-0.2012826748081614,0.20401790662722802,-0.23299495867399247,-0.666135823486746,-0.36347476640735765,-0.095415394032639

hidden1_to_hidden2:
1.0006442906609696,0.9962652856103124,0.9935018604356161,0.9959183195402966,1.0072115298162547,1.0,0.9965061739042466,0.9956467830271907,0.9920147306121501,0.9995935231974855,1.004939176652166,1.0029950903289047,0.9993805831225935,0.9999992138012795,0.9874918689472516,0.9982105520922743,1.0,0.9992825090335123,0.9907595214047721,0.9972146523165312,1.000578513285893,0.996175737812189,0.9951709781087237,1.0072673878547416,1.0,0.9959095872825348,1.0,1.0035837585129654,1.0055507006866096,0.9951062145331969,1.0000047478567016,0.9987740334432732
0.19908553999165635,0.22489578749786554,0.1471480629115603,-0.03356011838674888,-0.02905277632947525,0.1697723756316536,0.2700797580396657,0.4350189635996382,-0.1199333498926784,0.27879400979005053,-0.05861528388416416,-0.055844957760733005,0.08812042702858007,-0.0005103509960474701,0.04966740820694548,0.03651078204305084,-0.03012266225916331,-0.14398355440729346,-0.11900821775039809,0.11635482004342979,0.0989015628896861,-0.048385243737066076,0.09307153975401619,-0.08844447188419226,-0.37849148516488895,0.12783713563319796,-0.21492527608192394,-0.018552812467652866,-0.08421379160467084,0.1370680774538386,0.1205075104014736,-0.047786610833772745
-0.20232194611306412,-0.1621081174824835,0.01062455895311967,-0.06900826178401359,0.062363733859183444,-0.3089624263029834,0.11649919355050914,-0.040333504815059665,-0.03067726255797796,-0.09423867147294504,0.2505617992873932,0.021426894387169566,-0.06631568046161075,-0.17640322842076184,-0.12036372056778095,-0.06801772202838711,-0.03487325992519941,-0.4155617554810924,-0.17301964223233218,-0.15092226977086998,0.1648455632720741,0.19069005535181308,-0.1983299771893054,-0.0930673009435479,0.040950220701239354,-0.3568955919937811,-0.058216291588063615,-0.11751402657119446,-0.12780366036890034,-0.030858160574245053,0.19493769502606104,0.03405081017989342
-0.07412882020462297,-0.12294668131887114,-0.040518757494537164,0.2578555446925192,-0.19996442485413984,0.014736920198365923,-0.06601081806857743,-0.17916822930466592,0.03611967460937679,0.35623925911016013,-0.07892591157338566,-0.0718521603591707,0.05922154425605133,-0.04927625540730729,0.022042929732602974,-0.06193287401330339,0.009328626784150551,0.12843190726576598,0.18576360841464384,0.007013463140427166,0.0880705927103286,0.04736153439139749,-0.13515422990767462,0.13619689767568846,-0.16094497163493401,0.17528562566114372,-0.10375540291408634,0.26472392882589874,0.1142906962508158,0.24123725533349608,0.08896643045419642,0.05392139100918612
0.08116822334469431,-0.22491432968897682,0.3645907786351203,0.26154156635304915,0.013477228772522146,0.2507759781842768,0.17463447217262645,0.13398636980757178,0.04452870898128753,0.16347810747684524,0.03757052168601294,-0.0009511337661582834,-0.09524365709071006,0.2846852196234736,0.03352953957338522,0.005693072050813107,-0.17762152112500212,0.14131242957638343,-0.0896942840250377,0.2048089538639478,-0.095863726480899,0.1632876290638248,-0.41896560661191484,-0.2382851507892848,0.14044198515166087,0.1334668059120899,-0.14909234383232972,0.21822372858508288,0.016753707158034144,0.038642376612764366,0.3961592614039103,-0.335316031162043
-0.008060139584314154,-0.21127594636696095,-0.20987527725241492,-0.08296839172727642,0.17354122014723763,-0.0515352816863248,0.08944683187270908,-0.03724581824321281,-0.2545047543756885,-0.2049482572736459,-0.04143581470023795,-0.15278317669201458,0.14778037929868346,0.053853940393378194,0.09422681191947402,-0.002961509114853623,-0.18559671230013824,0.20592856909978335,0.38941957060649357,0.07088787551642295,0.15034198239425753,-0.011649973620669761,0.03018416628212775,-0.00882411978644085,0.1469456321769348,0.02848353226374881,-0.11788595628476702,0.18241016993300008,-0.19066431525615196,0.2209014613566863,-0.12752978299318107,0.04341499569728057
-0.34336314901941495,-0.1811281450759319,-0.05599785585383837,-0.2370605308676976,-0.061878188734559664,-0.014600893455160222,0.13029690845811892,0.10362067497383395,0.08507732727810592,0.1070282650909138,-0.2285067626127316,0.04281974569803845,-0.00845667250137417,-0.26050331009739786,-0.23537672482744668,0.2588508790000593,0.13929021157572816,-0.21254632243167626,0.2654527751685864,-0.02953828261176457,0.12179127720529781,0.022260371032630538,0.06291757137581287,-0.09200595904962519,0.21591916370630687,0.06577852732523712,0.07417625117538829,0.15392289062208878,0.13179625820316287,0.2076806602273473,-0.16778826908405714,-0.059377124107378935
-0.07294478513321372,-0.001093270591377121,0.12248066009471358,-0.1709764070421686,-0.08519673727950208,0.2881338857539959,-0.02856136275051852,-0.19711960933505687,0.21233170622573877,-0.04076706038295674,-0.14323585497926333,-0.2933775739579986,0.11141704651567913,0.11484238321311267,0.13140094230445273,0.08970409221966644,0.4801818320149225,-0.33822135291344063,-0.17071623565560853,0.015204026061505064,0.23889818934102677,0.04382292996248715,0.2999786813669779,-0.16681910997016478,-0.09483510280864704,0.11591381218775587,-0.20306340481319715,-0.19059400512803512,-0.10546054233787303,-0.07115463852834333,0.0977438923431647,0.34783514034499935
-0.09523217473475179,-0.2594515223955728,0.13454114753190907,-0.01511659884504055,-0.053161124223470316,-0.041392339528614555,0.09773994905846531,-0.1131475346054844,-0.19989663261252164,0.14021212227686683,0.08209383072453445,0.017418124701142245,0.3049653246452831,-0.221668282233601,0.02094249158967504,0.30037372145581165,0.12113674555183815,0.09243444425549138,-0.04898419679133213,-0.05576590239302622,0.38567282607578973,0.02113226943300844,-0.032496331369000195,-0.33976490975940826,0.2072664465936971,-0.017864195412292696,0.240647838189486,0.011673532325742409,-0.33281788625510134,0.04277844976930045,0.08402069789868515,0.38436829358996055
-0.14079241034271872,-0.02841403069780906,-0.04120408003090397,-0.2727283621134613,0.126188979143322,-0.17907824825508428,0.3012138537264701,-0.2718101827182991,0.21892880125011333,0.05504028317865555,-0.05035738582874514,0.20506661041994992,-0.13796231355329167,0.1462836613893063,0.23408354397838443,0.13204944328403853,-0.25161714331906176,0.25513187859140324,-0.15690842494617196,0.30498174524987176,0.13695285014738062,0.09005881445242017,0.007933566715727453,0.09031087147594702,0.16083186582041797,-0.11002021995639849,-0.02033246633966327,-0.3821816170190291,-0.05005267708363768,-0.1409598366586165,0.023182120605602246,-0.2146884247248917
-0.2096456699198083,0.03793543993150493,0.0644668576673264,-0.06440201509709381,-0.09431649472144905,0.3245042419442849,0.09931410376534892,-0.14929956870396885,-0.131340958394845,0.11931587707011711,-0.07310565202751185,-0.1513728361885306,-0.19985933609455014,-0.1473707760360153,0.08580670314003291,0.06856484037226049,0.19783171623320556,-0.06447643540336986,-0.06273822354848485,0.0033932550620017917,-0.013521346963416553,-0.05299692135451215,0.0860187941065103,0.25450480434342987,0.039717526237525246,-0.010270606894985771,0.04348402623433492,0.13837595090195937,-0.14606535617797145,0.008404090016713921,-0.3393719541295764,-0.19478992905930698
-0.046731583253107924,0.08126456919679627,0.18376055732715704,0.3411578353167239,0.09223131782304814,-0.1890775553853434,0.18795938574896484,-0.16584090958688613,-0.16113549838630895,-0.16158360609347766,-0.005119811629908864,-0.02343567854313361,-0.0102162626248104,0.2098990225023121,0.027977853634824933,0.07131153110845138,0.09065870450568679,-0.003617570456087499,0.09082414519883139,-0.06037872896136803,0.3669007496859532,-0.03356141290284076,-0.012810180919106398,-0.04155674909078252,-0.08510908137628972,-0.16618929974054558,0.21095224005500393,-0.14266672176128375,0.26508134816435497,-0.34666733235739544,-0.16681395222037865,0.20689408823005995
-0.08913875514064168,-0.1804662243340204,0.1906164652091276,0.04307005837869497,0.020269706730775085,0.009674815485916286,-0.02250899758910932,0.11978998147065396,0.4170923581852076,0.17402478614624142,0.06629207398404297,-0.21936724887260556,-0.11069312755029459,-0.09422230488147895,-0.15398214217693787,-0.22954387649804714,-0.11063053666384635,0.13574001862130794,0.28221613901268494,0.15462591312477647,0.2629820966138346,0.26385445868813334,0.3820124455411279,-0.09779217562003661,0.0917886905504983,0.05581546550218267,0.2248034623493105,0.16131846168851832,-0.14168144241426706,0.08616455427525443,0.027159250303671084,0.08432750992764473
-0.028000559909566094,0.2499820311496415,0.16795826065955793,-0.13722886436091106,0.18795395988947058,-0.2175897817854306,-0.21537703438969424,0.019487275667062227,-0.010294465527510017,-0.14837795654486174,0.25134397230026695,-0.15862196410448312,-0.013792243641162032,-0.02015816012876763,-0.0019381951490067871,-0.21461799487612176,-0.12292605726786364,-0.5625337568411052,-0.08071616455699544,-0.23132115673677564,-0.033888445826935336,0.1449647127091786,0.011242518675745215,0.14430463678295802,-0.03071659115579869,-0.12212189493272277,-0.2718982756428224,0.12280273750378057,0.07285281435687412,0.16113496197160404,-0.03011945591872557,0.05192273664299173
0.024167055410940337,-0.13223755329924947,0.11552595982038011,-0.03730129337545493,-0.13935088827491748,-0.15059374387078778,-0.0718797534143055,-0.025830582103493295,-0.2759572468431506,-0.36577367833666463,0.03621573903072396,0.32324406308388187,0.44690340139101514,0.15664253605841885,-0.11582379037311494,0.22814887149622778,0.13452758229698486,-0.21139731914803642,-0.1632263398723934,0.13224513246491987,0.3520548700683645,-0.23504140209947275,-0.10066808660137326,0.1118565671010042,0.4300860192588051,-0.05055771791150524,0.010123229981172628,0.6285997601328857,0.11576948384550718,0.18070855004303824,-0.06101069334016095,0.30641882952555194
0.08325880162430216,-0.28942835433999176,0.088591556863229,0.07792751978564622,0.07406959392535385,-0.39028080416347927,0.06764254142158518,-0.004118222526072765,0.36781262113776864,0.08106847495665381,-0.03437790420490568,0.5595982487276511,-0.1141242408842153,0.08561203216800146,-0.09024271532419492,0.30789239426697473,-0.20113794031398247,-0.27424685880815447,-0.07235456869404135,0.2700125537976547,0.0359016794792113,0.32264129823616017,0.581355305628909,-0.1727823333161747,0.1653286741634111,0.01505286376430238,-0.23797926571983002,0.050600976886992596,-0.08206109942670459,0.08226251354484847,0.07269670575764933,0.32758380547215377
0.40466466867050266,0.08788087948604548,-0.2322978173572651,-0.023475705317390235,0.46724564003558267,-0.30321042219533506,0.21375304966970265,-0.4211120446029684,0.1732999589997836,0.016514661298354695,-0.05896512133498575,0.2251592618460881,0.16603323186340382,-0.04771107363673436,0.03977679215128989,0.12220501108918198,-0.2769698320579527,-0.15655703153538703,-0.13759337627605067,-0.09171814845452225,0.01782985602359358,0.02021290550184968,0.1206095183557875,-0.11203951468018974,-0.0406183845728737,-0.08928327338815542,-0.02280844872508172,-0.20519054327622413,0.12218911642087321,-0.17141682946435904,0.17010214646297162,0.10201628968787896
0.2658679203509267,-0.006171019045573908,-0.09713374083943406,0.23853987598531765,0.07627286874642925,-0.20655656942319053,0.16307649764770868,-0.018720265668317432,0.061817027902637885,-0.037823003450469295,0.20138696404806314,0.2789876448924221,-0.535773508916865,0.056003902765957465,-0.13137138457930417,0.20792770681263853,0.08214595622089367,-0.08087423450684887,0.3094035717810615,-0.3396459443577746,0.22729347214917237,0.13649448555900362,-0.006666830438910164,-0.19454051090381164,-0.0742960182688384,0.3205359631813974,-0.23749039845443837,-0.17617302727116083,-0.18116254371954738,-0.07727511233813854,0.21252097202596326,0.21960353397813173
-0.2960396923207994,-0.08983019988003055,-0.14382033570284353,-0.07604805013768137,0.199737196476335,-0.0511304619907209,-0.3076415635581979,0.20574099125708079,0.1713074462737433,-0.06114419197057324,0.032523981127060814,0.033018871297006536,-0.18326032530305064,0.31796240382638263,0.20010139107271036,-0.04861300882604361,-0.3648897237976996,-0.27751772583205836,0.13109452124556562,0.09086724259143843,0.08908874844397596,0.1454938454736971,0.3670696548145413,0.14632502433690306,-0.17022871104316797,-0.1818025581350942,0.031433576161746975,-0.04392058925308857,0.10708529227161116,-0.04758179310109578,0.008439773517974232,0.15677907093206225
0.17658849321663192,0.09963124107797383,-0.0189319345348793,0.32009455828742994,-0.40632822754292514,0.17567139284747332,0.15047789070506234,-0.243891087623134,0.2369532342857403,-0.03319562321796281,-0.09166756485743484,0.4038832986196846,-0.10858615301010735,0.04442074019760638,0.16711047423127204,-0.06372978145994233,0.09453286724607786,0.1451016322709077,-0.37623142459362896,-0.008412424461429405,-0.13065671646428345,0.13262978650855559,-0.08996504827517247,-0.048536024083050786,-0.28334681298576514,-0.0011595116949068092,-0.25629586201985743,-0.1610053943275634,0.13534217302442822,0.06937820008186282,0.026022133017502315,-0.03318523389906245
0.04907029301189169,0.18003785287047006,-0.25664409734131777,0.2489124221786783,0.16179181136838805,-0.1238607048496141,0.024783236760157062,-0.09204552113091843,-0.17724650696354982,-0.03471160658751765,0.0007010829628281595,0.13392316721045444,-0.08554163225007046,-0.21998953777073277,0.05944784655867658,0.017818397884899098,0.1256227065682017,0.11710886588057308,-0.08485250359841365,0.3587664167385105,0.11388720498802674,0.17452775026276143,0.05138381393832312,0.11967693378562162,-0.014558470523310788,0.02113723549456988,-0.15273124492474807,0.058867190593610084,-0.0069703329768828395,0.2560042203353442,0.21537695386887884,0.03671825318225404
0.07252588082060314,0.07558220042465842,-0.2361616199421884,-0.13566572490016554,0.28755667631799464,-0.211645423586909,-0.283296940583203,0.06536692370718436,0.1416633975101346,-0.22487013412993484,-0.32676219396808903,-0.07423717906915878,-0.2043076325630961,0.18180828029974985,-0.16614736455772447,0.03916984310724108,-0.2313074916641468,0.08178192883985183,-0.40386897043438336,-0.06352736145350296,0.1365057966911723,0.02214877199142198,-0.33387245406093213,0.25867910598176624,-0.05646427241812474,0.050400179594357275,0.1321402143360241,0.15326502870708017,0.24964954053876662,0.1253625513472326,-0.04469794339430852,0.028508299185848462
-0.08717086436897062,-0.192191944964977,0.14308863695793073,-0.10483586659055032,-0.3162665560659509,-0.2620263674226785,0.28585805922317276,0.3931456033330134,-0.16024129206286147,-0.002512597505321732,-0.3874391727913547,-0.1263258553089926,0.18700287300249333,-0.06996758123518468,-0.13834064271565968,0.006607672186776289,-0.032750710915534866,-0.31300753680843496,-0.17599254550533777,-0.041279457168466434,0.20617399099504138,-0.19247469525752534,0.004604083545495721,-0.3895327880781725,0.04445287752148353,-0.09678684687130873,-0.14764860254337517,-0.08129249479814167,0.11642624074682213,-0.08865732290049465,-0.03199448736148469,-0.1971928894806139
0.30960558941824645,0.24395746014625574,0.04141767495467018,0.46807356819955565,-0.3220844774554361,-0.11156664534215723,-0.0023356154580538007,-0.1258573472349452,0.1524039108567312,0.20272734665815637,0.24105640781074747,0.0884037984339827,0.08560156214373069,-0.4729453777949094,0.03896829319478467,-0.14076610671394993,-0.43829425706317626,-0.08436373946479499,-0.17705344670863668,0.4815875381478675,-0.13843465119302842,-0.19129520768326064,0.271853084339139,0.11785390715423871,-0.35201191777957813,-0.033469654478492074,-0.5176503610800779,0.023576649706458654,-0.00014310504306158685,-0.2383057539771054,0.20552417189178754,0.1722027019062279
0.0013872749404579368,0.20998564282215457,0.041568334511867464,-0.0030976309365983727,0.2282305549033264,-0.03261435463213311,0.04671441012289495,0.3036991268930368,0.06583702908610986,-0.18708448627114943,-0.0828155467058567,0.021001727296777798,0.0327436635206845,-0.35808383845262803,-0.22255513326058668,-0.2596395269986094,0.048572985989968606,0.041729520938856894,-0.017110917008665155,-0.1578766594010277,-0.12821889034477252,0.10124619884314794,-0.1853198847752015,0.16064199426544856,-0.19449695804560743,0.19041257278864823,-0.1699892832335944,-0.03665672392049839,-0.22374586435612165,0.20131651910666454,0.06228824062030832,0.028234238490202998
0.011731869674908347,0.15104576293101746,-0.06366269119457658,0.08878850133842292,0.10529398076811117,0.07639353097929603,-0.00798120435748887,0.05773576681954004,0.25691868705821164,0.0039712359835580215,0.2402886263502251,0.14947920295603478,-0.10949921620699535,0.3542411058842419,0.34888990331172215,0.04182384491435459,-0.10533094356323752,-0.08965733167255625,0.13960641130050191,-0.09790796378669483,-0.265766793956123,0.2685514432024301,-0.3061393794544925,-0.17053150922291838,-0.05252474343157651,-0.3720435939516302,0.04037769908292682,0.10890222202529798,-0.09851411983059784,0.17004920825234743,-0.009386811588694815,-0.1073799625019567
-0.05532753211870661,-0.23891317634128212,-0.2819817986178967,-0.01518483301298711,-0.08021118336248631,0.033483587383191606,0.0627156441368797,0.2802128908829637,0.0798998718459809,0.13793963323261194,0.1484008469992162,0.12938695129273142,-0.011077728259314312,0.12258442125351274,-0.17117441993363983,0.15927820883121338,-0.1719500445377474,0.1781494227182664,0.5596359353660327,-0.027860029068698274,-0.2933614264565802,0.0070275640256529165,-0.17400746339695272,0.2021599620229042,-0.22221376295619105,-0.09288164532386069,-0.02554630591200178,-0.000991975675482454,-0.044567547385112885,0.25829024431528896,0.23582448266057798,0.17822024043688348
-0.06702906851285562,-0.09443270904427284,-0.02313496778755661,-0.14688869886063924,-0.06813739756779205,0.21861446809850915,-0.14570928969389207,0.18309120653233998,0.024783779327925005,0.008709186524360512,-0.2489991908971757,-0.003996323345138384,-0.06413197282215267,-0.06388342334084152,0.12594161822258246,0.3104008396444577,-0.08203678330583795,-0.03878212083627641,-0.045157158222818176,-0.1950710067193675,0.023764791471635623,-0.4819658173812855,0.21016986667402351,0.18228415698136924,-0.2974236744534008,-0.1508405020790422,-0.3143703016202475,0.3062227228310744,0.1705350774277981,0.07025517645654594,-0.4374633396343836,0.2481131872841116
0.21584648683865643,-0.1252280640083978,0.03500128909530686,-0.057865918980603503,-0.20694552927402537,0.2717373054765931,-0.12799404232118372,-0.011341690667341262,-0.11447005402377167,0.10833699668316576,-0.02718976835445124,0.3397341703437865,0.3513341085291861,-0.12049169212666311,-0.30857150062601924,-0.08655862822878194,-0.04154716116229184,-0.44056067154210854,-0.18060605690939488,0.007560848317243933,0.028254223283728713,0.05685193234161606,0.027601163047417804,0.21957769583164147,0.09930520042557565,-0.28247359357477053,0.2276476136671594,-0.25367712314092555,-0.1610625010057784,-0.181147390333776,-0.13815888839123827,-0.017757213261031638
0.3675086282159353,0.17796119967788968,0.023626963020370643,-0.09971442690335175,-0.17045466752497346,-0.0732593318881819,-0.1318967766982696,-0.04840734462295205,0.13967259688536854,-0.22765829467087148,0.09116042897031212,0.10813687226917919,-0.14926135192143808,0.054971023247241284,0.10381938043007057,0.012637087565160148,0.1406470265148199,0.0308001817843964,0.03617893991587089,-0.05815972783164091,0.5167222742300727,0.5066987122399171,-0.17154284965299343,0.08602611028771212,-0.10732499053445328,-0.29160284492972754,-0.1088970580624011,0.21202998886354316,-0.08689060457859155,-0.13081934497057046,-0.20189753861747772,-0.1693490723295693
0.0737444068843897,0.12680527130825764,-0.22653234397766595,0.09803463903585553,-0.08260297472240721,-0.07552787785559681,0.1248801820251685,0.21562006178799709,-0.10880164600059616,0.1763500212078559,0.021149627132476936,-0.041966856839822396,-0.11525374271173401,0.15647050307310034,0.0306001947798733,0.024947494699792443,0.28313751515391805,-0.3713097385235544,0.22794461832838708,-0.1865556870598839,-0.17956740771616034,0.01890221910435819,0.1626010493706528,0.0943569117967713,-0.13078324266642238,0.2185748492345923,-0.10083728832027565,0.21980188595970385,-0.10312810883546437,0.23570121954581302,-0.32237759917535913,0.2950718766093946
0.1647819381866201,-0.14053868742267428,-0.19981071584586568,0.07106718396373266,-0.0951942430593069,0.05143264607188887,-0.006958843099276737,0.07358005270197984,-0.1528283420692563,-0.25773982443965365,-0.03351270851747896,0.06334443383869644,0.09536320867924118,0.08973069292803723,0.21699836884975937,-0.07734394997951388,0.06510607520504708,0.2664992641047862,0.19485755257768367,-0.14792728279805104,-0.0988484040607908,0.0033480494342002023,-0.09251226852058593,-0.137470599984972,-0.14227245096828917,-0.0877279257097298,-0.2074462945062265,-0.23454710957045546,0.1312820760630685,-0.14852402954601185,-0.15194941423881028,0.010619487927501442
-0.29235563964273326,-0.4419887585038775,-0.09045006392348508,0.19204286725716455,-0.22097468328120126,-0.17709896793320368,-0.061745213278050305,-0.04228704603681694,-0.009276718141462838,0.2571201643835872,-0.30026145523896375,-0.25310420041007003,-0.3365966011785703,-0.19930552015350342,-0.1406440119253449,0.5501542018137857,0.08948538522705721,0.16871537863151748,-0.022239346358538713,0.31165800511155073,0.21802924038922708,0.3763452202657688,0.2820575883487788,-0.2265509563101001,0.12482461430506513,0.060244973444052885,0.025187426380518813,0.019798683368766522,-0.11379931111261389,0.1840985282136594,-0.1298907956603839,0.04340310086454394
0.2489114934883642,-0.23733835064390374,0.008292904693993847,-0.2532555634569955,-0.08962182443118712,-0.2718586683624618,-0.19155000120449084,-0.24662901396131828,0.08862782886799102,0.17553148285638354,0.04379937260226267,0.11142771457477871,0.023419817777917247,-0.412579521166896,0.06657568262049553,0.0578751000455376,0.08570766133376102,-0.05243955586708311,0.07488189371450041,0.04937592355952638,0.15773554169375037,-0.10607481857551541,-0.11907909995184185,0.03869790389397386,0.027458844779145276,0.16749949907145195,0.03469204235666268,0.15221869833868854,-0.23399542817757157,0.009059640586812159,0.18676242475089413,0.12555064703498178
-0.38002695216993243,0.06750790958249818,-0.10798051115281249,0.0007958958965753354,0.07339568606716998,-0.3080470660296951,-0.09231118990408792,0.3651032674707637,-0.09475281656926017,-0.23844067098684862,-0.005784636444866286,-0.05302792153950425,0.20488254694485564,0.06810689198268037,-0.046685729936463895,-0.19903197440968698,0.30497240281262655,0.1655732709251194,0.11451866886118559,0.09622637402781449,-0.3346326571625227,0.12459757391437848,-0.2271955805842969,-0.007288946293825817,0.03325776028400018,-0.025997301117808787,-0.19201087353261534,-0.2829326154393397,-0.12383183814484323,-0.0007249031569890974,-0.061732446349488324,-0.26040215024921143
0.10315825375731157,0.07782441511833582,-0.0846649665334422,-0.018240259965658052,0.03933101485624771,0.11027655981609304,0.06203816198186544,-0.004792429361783704,-0.1739320720413065,0.18956311841389145,-0.12113448660873685,0.007889529517517162,0.133675244828608,-0.06942308755335774,-0.40541718834590884,-0.11612666944861111,0.03917820148766129,-0.042524918734958755,-0.1943567156939584,0.013021331051318493,0.22788144869033844,-0.15079690463337175,-0.3396059687355706,-0.29013342274576887,-0.09860277052950255,0.2709986970720195,0.1544979328861692,0.024337186210374433,0.28705170253092016,0.10593044972002666,0.4848319576554267,-0.14342862063384104
0.18785236090678756,0.27718875006877985,0.12466141672836928,0.1875671023936158,0.21408489838259734,-0.0227390496487776,-0.18868883311757753,-0.13496559581692907,-0.012081680998415415,-0.20569411561913542,0.48540633420056073,-0.03632259181173,-0.017988554155699436,0.3197615536096995,0.2070638851390838,-0.08659817195280371,-0.020612508085598776,0.15690832384418604,0.01989387831940336,-0.06764058811125698,-0.2276973705221309,0.3093264443679305,-0.041176016718258095,-0.14256880226966315,0.06108089559173807,0.008469828009487344,-0.156165756622976,-0.12895554859854697,0.05717435003417997,0.13844925678468586,-0.03941332970744231,-0.16323614721547047
-0.11496421438492438,-0.33811647482581425,-0.06358828475637171,0.2849901346861622,-0.01289599571432696,0.04954052984967746,0.09584515816342264,-0.0005388200608921855,0.32691929320355484,0.0033417052943991786,-0.25688095581017617,-0.03850785721712684,-0.12331632587598192,0.22052393265570516,0.08396390748698972,-0.013651641373058805,0.04995857877887613,-0.07628346188498188,0.15671812452460268,0.28727328957126824,-0.12883969606024925,-0.024679560023269737,0.15633762324106246,0.2130315486299409,-0.19906313754900246,0.05970862785387264,-0.2551402879172011,-0.13752253480315957,0.023113474816140105,0.10499930392549928,-0.041468516739322614,0.17718010873532003
0.04705114220509712,-0.3444598826978685,-0.08909200007215641,0.15328580368220673,-0.18058870840817642,-0.05053750926154442,0.23395200232003072,-0.36418625788017683,-0.24722337913194975,0.038476178452110814,-0.06941511020715245,-0.19720354862764425,0.38369688411590297,-0.10056612194404912,-0.1275926174388843,0.11297080178359956,0.294319541587439,0.11693943238756897,0.2560567351876763,0.15054181770849195,-0.001346471622558833,-0.01309363315239245,-0.07402079430906226,-0.23568899936146712,0.37943078774017724,-0.2463337135645503,0.08761923935134379,-0.28496707858598425,-0.05568752743690934,-0.11578236589669415,0.043713465110727094,0.04217077809351743
-0.4846720154735674,0.03274438144869832,0.13397945541293274,0.32888507202082606,-0.1539293686140153,0.12823675476242738,-0.13056283834169757,-0.17399258673932258,-0.1851870754780937,-0.12625925491223897,0.025230484695952335,0.06350055615005622,-0.15046726877199096,-0.010610641332059502,-0.24339371868317336,0.106646141251858,-0.017656486182894195,0.07053560509922291,0.19301819230685474,0.18285646844131417,0.12377347717452923,0.12482938556932088,0.03476657630772263,-0.09914642570134242,0.06497930289922117,0.09919079550436247,-0.0795625617296454,0.08660557999852475,-0.19811441188357576,0.18298648996212474,-0.20042480441864424,0.15585099737690325
0.08873001053576592,-0.033308975086431096,0.17484663786159746,-0.0024801383044827895,-0.024190311106118644,0.07284958465208559,-0.17188119726699957,-0.1992396654981283,0.35525794146257494,0.39256291298188706,-0.0019786253727508323,0.49351244850146675,0.11953579494460394,-0.1313780723475842,-0.10599327719751293,0.20601182253247977,-0.06105631013907819,-0.26034770526933376,-0.15859766704778328,-0.22842895889272488,-0.13270238493829525,-0.0719486071517926,-0.07270866404043141,0.04096703077683815,-0.14626912125200878,-0.1924181926819037,0.01671594879360282,-0.485134758782768,-0.2201182181642037,0.21696133702134265,0.01731673377888973,-0.0361453816685593
-0.18245818714391077,0.014036153171094592,0.13753140405645317,0.148089525588845,-0.08786384730307407,0.16153366600223754,-0.02001392882993735,0.10111663616409977,0.10805447542669885,-0.1593286657131091,0.2408633639490506,-0.22053821414905653,-0.30141459820252947,-0.3623072117000279,-0.24499006002861218,0.045708520987447245,-0.12454072189831708,0.26188904597711804,-0.15423556270503794,0.1424489246163109,0.10815988655170204,0.12486014193945855,0.25595212083408414,-0.22439631689238,0.09085039365893376,-0.14726281476847344,0.15065539349148385,0.3333331265062315,-0.2720791872463521,0.07945359216372432,-0.03144296328273984,0.09258445649625051
-0.12069971483992775,0.5089646226139101,-0.19747207127277297,-0.1229670651413882,0.09860670275310486,0.04195139057774715,0.10435359224073237,0.11594957472240511,-0.3174750193268206,-0.2773686294095292,0.07434072066295282,-0.2860675997898797,-0.07806615074164897,-0.003461725204471614,0.0771911499955391,-0.27986874145587326,-0.07731654271250109,0.09340768401164526,0.003360828963896973,-0.14568189651484806,-0.1157082756933093,0.11929141794566346,-0.012978116216610481,0.2395111927944306,-0.0944916966107712,0.1685690011848322,0.1518395869322078,-0.2418418037680591,0.18006171404851257,0.042011537828038195,0.1345605377641039,0.1387094072104013
-0.16914459217276837,-0.049015625570983684,-0.18383344966785603,-0.12787821717131748,-0.17802403924655238,-0.10873389708921218,0.1995937282481745,0.07437757553329546,0.1060148031189653,0.03673060302803744,0.2961616834008821,-0.03344016597407224,-0.14593607086391341,-0.19541681309983283,-0.07546041741273167,-0.31822204514878544,0.15141178393086868,0.037729757254155005,-0.03255463952200672,-0.07173606162174807,-0.06354253708940401,0.2763633004314526,0.024401190606935047,-0.18533022154882792,0.009333197402513366,-0.1577389165341956,-0.002080492589050837,0.13741479214019084,0.19951930111991234,-0.14444947234870423,-0.06961652230088837,-0.07842116849345222
0.13784206014411357,-0.14231697152335335,-0.3425944085591656,0.09931028232411836,-0.20379965726599347,0.018135972423026687,-0.0015752971855555677,-0.21247621810969355,0.06686784304943065,0.07022539079722181,-0.1999283049152629,0.048458645995464886,0.2487408849945188,-0.3274369057695507,-0.11844101301392317,0.06750671651972828,0.2509578309530562,0.04916748703855579,-0.056104349405276775,0.1509454638291623,-0.32996221709771717,-0.15979821937392735,-0.213210699705793,0.161970626816536,-0.4125276077174906,0.09138550244884146,0.07943675149196638,0.15633309558357836,-0.007674790850667693,-0.5024076284505892,0.051212146135708264,-0.11879723252805706
-0.2105267335613768,0.20258317622542096,-0.011129209931739253,0.22401321026846005,-0.24363902298547052,-0.38048040897224455,0.15428313812711375,0.12667241008388674,-0.10129032022510806,0.10146808627425079,-0.06125153793074759,0.2997410270782741,0.3214176972003759,-0.11227347517885497,0.14322553953286615,0.4355313176449858,-0.06076988245042202,-0.15370114277381203,-0.25036374779291354,0.04307692178095626,0.30076365010783684,-0.23864358601880073,0.19969886412939428,-0.15584016652464305,0.1858252985200347,-0.30102253663637785,0.13639657104048816,0.09318976052180943,0.007079181293439077,0.0519000227354426,-0.012089430139706748,-0.2856131519946194
-0.09534479565450028,0.03564445012104286,-0.39108541794038576,0.10529410379288895,-0.1431081123866897,0.07305502952357278,-0.13616929188783336,0.06104945027970049,-0.0445260343806861,0.27338767346687814,-0.2640965571150434,0.2187424456503395,-0.09282232686164521,-0.25096403351815805,-0.01303069430856981,0.03143197170267772,-0.060597433715214755,0.4299102193322873,0.31696127556885634,0.10960773477016024,-0.3484172207132999,-0.21581240209737043,0.1705503596050274,0.12725209993719944,-0.06216939124707269,0.17545706195836894,-0.1783351553795002,-0.10303476344988464,0.14686197083844704,-0.08421042242789312,0.09233005780779864,0.09356027586898305
0.1384167790312273,-0.10169226282763957,0.08541248067688123,0.2641467758832743,0.27788300525756227,0.03799398364006735,-0.0951020735959604,0.08369284030437595,-0.019082020691262424,-0.09804159168417266,0.08449636824016814,-0.09095718107533086,-0.02953897594998656,-0.008297859994715343,0.4420004939506979,-0.5879748311100101,-0.20062307606162855,-0.1108887707887964,-0.15426518246776946,0.0328483578755272,0.09055626403482268,-0.14162214561808334,0.021902250942452788,0.3769042613152647,-0.06579911674807681,0.196134573480283,0.2858180090735369,-0.2396334846393077,0.2580534825592886,0.20203758719705142,-0.031394230587372486,-0.014545066267577334
-0.22101513320912544,0.1077923355202858,-0.1103925223738952,0.07513154941334219,0.3353144782260516,-0.0758560570059885,0.0997314563346561,0.081124286762264,0.0371062489929525,0.11509147064802444,0.11475291158584962,0.17076281255460102,-0.051556151093444344,-0.03812530597381764,-0.2930902295313116,0.074049856684237,0.01631565748309155,-0.11109957667100784,-0.19610879272824033,0.04891928232148031,-0.05055662171777236,0.09301189522267894,0.05841507695971716,-0.1928426244117672,-0.07333126603056905,-0.27173649773995534,0.09737887669760574,-0.10066656530154364,-0.010896064995261752,-0.18009379824361532,0.09894847157243868,-0.3412370869167399
0.2744311372462154,0.010662830127441628,-0.12680151169199141,-0.08522616518069588,0.1205980224338719,-0.12809667220197116,0.05624301142208348,0.08856707519973149,0.11106476118666377,0.26283595593238834,0.22579893109675,0.2279440974311146,0.0683838717026422,0.19247348484893465,-0.18864049010566297,-0.07975640117004629,-0.0643547986784325,-0.16742401297076653,0.12987598286627344,0.032500908476536805,0.18448394966323192,-0.1960704777619531,0.05647839989448656,-0.21916490094606828,-0.011799450397430477,-0.1359438186017884,-0.12340784943591374,0.16371937018044697,-0.019614517251544648,-0.028631319981793406,0.40049998011767846,0.12121840295481413
-0.183079466472117,0.0979357832065323,0.08234855973626602,-0.21984489911076727,0.12564200385993526,0.24772999614474736,-0.14418768276195232,-0.26029645187766753,-0.10910908221228029,-0.29654812247823814,0.1342742792212484,-0.0007992262616888233,0.18579443591525652,-0.24212046198578552,0.05471371053835668,-0.10757287888404009,0.08548417244741499,0.19889315355888382,0.15243917029213494,0.05826769102663387,0.2563097179857206,-0.044347842110914804,0.06628809361441235,-0.15121870263656764,0.040581563062212334,0.23241842504083662,0.16550497979663714,0.19298314768485705,0.10865152814037062,-0.10798422356853815,-0.2795230077687474,0.09357915458730146
0.2717289832762078,0.09929002783855218,0.305654979593004,0.20547150711636014,0.32146608112964375,0.14154892972306543,-0.1116475864338359,-0.027958513525148727,-0.06587680233558867,-0.07589433177920932,-0.04910157958467261,-0.3021487381082061,-0.29822238408942314,-0.14462436269810341,-0.14660472068866337,-0.12256461752390375,0.027459138912634826,0.02962390555572576,-0.015672117448618916,-0.17261991583027586,0.05731467900223342,-0.0614961832654024,0.10279932712029081,-0.07544180895935682,0.14338883389230642,-0.1573481875818978,0.273336444621442,0.19530253796862132,-0.059789401950463825,-0.1377595309617791,-0.21294366398062411,-0.37953157111424274
-0.1015981495023287,0.28241586532044605,0.13784096292109288,-0.19824560274409916,-0.08392861738682202,-0.0733754016718608,0.045333253756024504,-0.018130857109996023,-0.096284064426368,0.05731033714655595,0.05627861710789207,-0.022284567075206138,-0.27449813119607036,-0.2196310548514866,-0.18013727092864565,-0.021739545676429363,-0.2538613301274315,0.08389392284635265,0.001994852346667673,-0.06617375926115454,0.09964486415569483,0.06634431357364651,0.23067119556153792,0.18259334350500128,0.013850800599931566,-0.21691337213757028,0.12977623534371974,-0.005157341997686274,0.07753092891059848,-0.01989395332687375,0.02967778838021652,-0.14574298517231377
-0.09464844521186415,-0.11375777097579882,-0.23922013791885852,-0.2983112806837093,-0.3219308180504386,-0.05006750521372112,0.25951595749684253,-0.021070459446520376,-0.39802515308846215,-0.15032878896798627,0.13402553192374328,-0.02082650620822485,-0.057823445751230405,0.03150008708997076,-0.13372040587470332,0.3339286944976081,-0.03261001965995998,0.29965174114755744,-0.32135655054642387,-0.152659481569254,-0.05938756747419472,-0.1093879390201699,0.032415392739347716,0.15210171294442895,0.013638695985423966,-0.1339479956731524,0.11310783584540052,0.13954565935688082,0.04500022578051207,0.1327802272356468,-0.08177224022416964,-0.045457520260262604
-0.013945422284638687,-0.4012585175151472,-0.13217886583220687,-0.1409419312195462,0.09509150324889036,-0.14986418164865448,-0.007748425178932418,-0.07192142180132767,0.0782058939063143,-0.217954218263181,0.05245850278954161,-0.10441687084552677,0.1657211361998882,0.014923767972422237,0.08111726335244006,-0.1648516076829203,-0.13390706295550647,0.04453090009887462,0.14487804469641755,0.07442546407478072,0.0937342112397009,-0.04197527797435292,-0.17194901431783866,-0.045371886302311926,-0.018390828774550762,0.04323490586107394,-0.09322647038825103,-0.07809826813274304,0.01062432824466921,0.2184154886485008,-0.2309828448616527,-0.14922765942268568
0.08150260506858098,0.14385399103062446,0.15380618693938525,0.10507143423456079,0.12749993163514647,-0.2901092223158386,0.12918757658749108,-0.04547842650155293,0.09660103804500597,-0.1913597004089726,0.1018739758887152,-0.46543439300251493,-0.05651665260878577,-0.4119981365446603,-0.22237693447610657,-0.1697342178864913,-0.07045002502042415,-0.08490043948636825,-0.033959637331659874,-0.12516815051185867,0.15152836718711782,-0.14555893160504552,-0.14375829141366614,-0.06192101721590167,-0.17252370540500012,0.11718333095446802,-0.22304428361611175,0.08565566996719302,-0.0416726078183574,0.24714087160714374,-0.3271542407150246,-0.052404503340561126
0.1451448565225071,-0.055547123462835725,-0.05175975454915479,-0.40697246497102935,0.18194285221584028,0.03981997770911022,0.19972771259431585,0.14684067381678545,0.06373427961425111,0.09344189910781832,0.28020981111535737,0.10896228668938705,0.08377955875675747,-0.3295142308379671,-0.23555194129177673,0.029342393802013585,-0.13820013261228226,0.26943293330176593,0.2811975195662146,0.1983949873878314,0.20931154187525805,-0.03244067743789366,0.3727954698882222,-0.14075308972059128,-0.19597446473696659,0.1966168549440381,0.06445102311205758,-0.2327646958125278,0.005535292039612832,0.04959839330667288,-0.0012076941582868004,0.08288521141949225
-0.4373345051952785,-0.2166435884102703,-0.2825377361511746,-0.07129181084446552,-0.0020489269902120434,-0.09412121759055356,-0.10169509390499983,0.18919526669367476,0.3869825634586315,-0.038630177458911244,-0.36390742261660436,0.11257300344036622,-0.1409422381137603,-0.07870378771078432,0.14383696296557172,-0.12166550298042862,0.10275104839648598,0.2549747137711277,-0.041430198112215606,0.08258434108743641,-0.1806538531740981,-0.24183918607834368,0.3672204149777872,-0.18846998649328425,-0.1055233812052038,-0.29497447361599555,-0.00045760011387431765,0.08813680291774537,0.11394310146753076,0.34826554156017037,0.12192610101207245,-0.09146483967527189
-0.2639829632914389,-0.0951038610776528,0.3753219676417712,-0.1323438213316153,0.07193467806686595,-0.34119890701099465,-0.25750961331006733,0.1547805127680412,0.10104873289897978,-0.07787784812034051,0.013663856823355068,0.08433041015590048,0.08811127633976745,0.0020382135504282395,-0.00032671910481422024,0.2427791615474541,-0.41591818817012394,0.11917480367182806,0.08831854994703973,-0.06356625299155032,0.006301070909363612,-0.03539154744397358,0.1942318396195682,0.09697739923913495,-0.0915446251793472,-0.0644841154197433,-0.06288171451637632,-0.14481311093150803,-0.14688788878994835,0.01338137311926385,0.05393830022665595,0.29859106703873706
-0.03755601736482026,-0.05926269355563092,0.12878076460409532,0.14220803004348065,-0.2588637270111186,0.06691182276756379,-0.26357385704709485,0.29547615995827425,0.05729381821626314,0.05542550456167093,0.13837789999237493,0.148950521590027,-0.03973006558520596,-0.1710268888563069,0.16776868646875515,0.19428697845486503,-0.1769729900411807,-0.16965193161912595,0.011785590186932404,0.21594945550827038,0.05265263734976582,-0.16392062621486972,0.002326709426942766,0.0030999805614065237,-0.15461004174260054,-0.022956734373200328,-0.04286120938401055,0.19511033350887785,-0.3021132071798824,-0.11451459868208803,0.0024731904725016243,0.21605633372215938
-0.12633609103080304,-0.03494203028188181,0.07456259925677051,-0.26481316342186517,-0.04610723218831526,-0.15525609674064444,-0.09779101194651192,0.05155714550735465,-0.2323467397445841,-0.019533264994645857,-0.19052416057442068,0.19779809308025068,-0.04427611768284397,0.2128009407689119,-0.06824716249621171,-0.2390726029408629,0.10982976444173946,-0.18081953129031195,-0.028829538402824567,0.023077244881191374,-0.11412703874643526,0.10174867489472497,-0.008578628150754098,-0.22292795397727844,0.04269069388225142,-0.2539579647857656,-0.37157437968790435,-0.1617260089409496,0.026666822974537555,-0.29252304578214655,-0.3434847689863113,0.2196132427801344
0.2111152114726062,-0.24621105069875418,-0.027233789566594745,0.13506477803616812,0.08987936046732195,0.0973014889007189,-0.20036957926974516,0.16857709920775116,0.08377367350972852,0.1719656137671964,0.04265476064710558,0.22187355354134805,-0.13063201301502197,0.19791089766152822,-0.19477748392130326,-0.29301951615900357,-0.38064323811737993,0.11423023565446559,0.24575747097266673,-0.037534604932452156,-0.044533408702734666,0.020969466796511307,0.06533660851842489,0.13925084505803026,-0.4537068665006495,0.07578480955734451,-0.21197197296221162,0.09293807036272249,0.0822869716733798,-0.06247495411996853,0.30420594975094684,-0.06469122361927937
0.04743050779518739,-0.19250821285474018,0.0046584222102403865,0.05099113994539418,-0.04210036273316157,-0.2301835670656542,0.23325818195885953,0.11754106085773336,-0.16289475095827116,-0.12193502404055041,-0.15457459107569102,-0.03826920628552555,0.0015187590073042292,0.14870439281914052,-0.22033124689919692,-0.3315928505336799,0.1475384808613342,0.24722549107086622,-0.04422607305206434,0.02476608234257913,0.19133225073590562,0.07044911204694156,0.16366362773988302,0.11190789291195646,-0.16104869236830796,-0.2327143542695256,0.062436406064276764,0.09999952909523296,-0.023036596281178292,-0.14307439752557977,0.004191072003095417,-0.011534183386847216
-0.23018886402832037,0.15766289346818285,-0.2449488225158539,0.15801481455316846,0.13176072012028642,-0.358477075097303,0.16607320426713013,0.03426945255851627,-0.1347185816118701,-0.0010405830477759287,0.13311721118489273,-0.07925574405280196,-0.31122697691402856,-0.38441863308456337,-0.0052493857781762175,-0.2576077916395976,-0.20431128660613437,-0.1459011033473529,-0.004684876621679363,0.02458195054163524,0.1011692205897733,-0.025864934152495456,-0.22827609207386965,0.2819910224245312,0.06723777267374342,0.3307780802022829,0.0290877479359995,0.15017453279755116,0.09614565156804174,-0.34382152700875723,-0.02585277995397475,0.13937893307756685
-0.16446985859288626,0.0742603426749057,-0.028511856634909686,0.05355745255708148,-0.227833744009131,-0.045764878042909775,-0.007286843365465251,0.18947002862622714,-0.010953121898356486,-0.08921670097264414,0.17311153805773127,0.14400166692852606,0.0680139383878773,0.04232219016719368,0.43421764248909234,0.10807459171867262,-0.04085157093210143,0.20186356229671285,0.14410871586458598,-0.07740967543604917,0.17413344344636636,0.24042540653588054,-0.052186702422631695,0.13241131612363555,-0.17784724298403645,-0.14923230268107257,-0.13668550391814485,-0.00018354598275372252,-0.13370170118664437,0.04934760135459102,-0.17201124714042884,0.04741609653533508

hidden2_to_output:
0.9931107048781632,1.0025769176997588,0.9832761245073776,0.9929415547887258
0.492841561049871,-0.06854713213381573,0.038500596013838234,0.12451514078900168
0.49262285615315,0.32349459444967277,0.11793752304738774,-0.49066127557061323
0.44635283282325255,-0.12462882558067469,0.1766025377209854,-0.3078600512908627
0.5553625797984195,0.2769625867227969,-0.058062139305631734,0.10153447753540991
0.12127824264133087,0.5175700959472984,-0.4093554052876943,-0.22194768194773248
-0.41073532709730115,0.504492147786215,-0.40723756336572653,-0.7329754759620712
-0.11787000796972345,0.268043050820971,0.2728672451204684,-0.03543035770801571
0.5520692257809755,-0.3623460137031237,-0.16331030455019668,0.24933146248456958
0.37421011518146324,-0.05221565552949833,0.32135139639680893,0.12154778994669989
0.22994232516660407,0.3335733160689386,0.006499918947516482,-0.1118654029014774
-0.20234335852996885,-0.06600367949617088,-0.05935377266076698,-0.4278508112699678
-0.1337703663331111,-0.29653124032509953,-0.44405742924695807,0.4902555775854998
-0.0436411565779144,0.1015432405944525,-0.1335820986171041,0.08080805634081321
0.06441593911871199,-0.24203342190256225,0.5389526218990209,0.3400669059785582
-0.03175992647960053,-0.30031523697800233,0.5536018690476533,0.4020728152818554
-0.08658936888968119,-0.25329625612922113,-0.16989398230438887,0.42179113267376633
-0.2666612435353661,-0.3414593013102445,0.24374347345738756,-0.2119303026794623
0.0961447460622265,-0.0944284932979487,0.07517630619480772,0.257915666006776
0.0693559579624867,-0.07974700815975602,0.39950958115981894,0.1633415418591941
0.2538060844255283,-0.1081514369416339,-0.02677049646925595,-0.029575164139836324
-0.1508940630693182,-0.08128728176587047,0.0025717186716506563,-0.2150192060527919
-0.23517482797062428,0.21220164650707624,0.3074391335682317,-0.05816543715769482
0.04901678268178985,-0.15484847756162437,0.2090732149805603,-0.10886962680237697
-0.23930152589353298,0.06897256335142485,-0.36758057202031913,0.035478355856515445
-0.3935726595209946,0.050053091064517635,0.21666815699150976,0.6064231639687727
-0.25804126457718646,0.17313186052699012,0.15176114500865412,-0.3127464487360035
-0.47246903765340037,0.3951212789078249,0.13339183646961297,-0.28852183136044324
-0.12137270872156566,-0.37225677965356424,-0.260911033859677,0.030545777853115002
0.016600738907885097,0.5123049576388993,-0.1893356120536922,-0.26325601487260114
-0.18199249987729155,-0.03614944711812277,0.2217636933422677,0.20547709759150054
0.0196062821283944,-0.001265759260354996,-0.1687763352368578,-0.19280379171702847
-0.398521834638862,-0.18355705879579068,0.12443845926621552,-0.034135110781507744

