input_to_hidden1:
1.0034299050150588,0.99803980926306,1.0,1.0001960943518207,0.9975544898970673,0.9999915153691624,1.0011922616417082,0.9981617410106436,0.9936508024718299,0.9985787597401358,0.9958826205367735,1.0070936283821292,0.9984438535617046,0.9965145157821126,0.9977119486785511,0.9996639729229303,0.9955383995611039,0.9983837546818058,1.0243397229008178,1.0006881580531173,1.0017905478142664,0.9947963546039736,0.9977316200702552,0.9991914959727721,1.0004815560187403,0.9972415843177006,0.9985816905764584,1.004499521344303,1.0024684532335633,1.0012262894851904,0.9962924933234152,1.0156268727849662,0.9959126667276702,0.9998032781613589,0.9892057732226218,0.9992924958432747,0.9989067909166304,1.002154286267841,1.0015069850312381,0.995944342179628,1.0011757615484682,0.9961393323087362,0.9967449290553756,1.0057048084633713,1.0017287954535594,1.0001351245680024,0.9953733982350716,0.9976716560868758,0.9991391526611383,0.977049721902257,0.9971853472721018,0.9946921947158933,0.9995243573172458,0.9967833774052819,0.9964080157460703,1.0008783973826059,0.9976063170664321,1.0001150452525482,1.0009045565313603,1.0043591776115794,1.0005416868501993,0.998984406241381,0.9996184204369473,0.9926722091374923,1.001396173814021,1.0003728197819677,0.9978837327608955,0.997629650345177,0.9990414799401621,0.9983101031205952,0.9972867679864279,0.9922247002057596,0.9949720334786005,1.0001553141559987,1.0041436390859506,0.9945458445142235,0.9989091963714252,0.9967805219841206,0.996312572419377,0.9992405310039755,0.9965182971644428,0.998871515742404,0.9996177068360532,0.9973290981876484,0.9967369221659619,1.0002587088430035,0.9974075015128426,0.9983848848526198,0.9998404006178944,1.0014771900498662,1.0014110471753304,0.9984032226413236,0.9953631567518096,0.9978927736295236,0.9998712135005119,1.000640055130729,1.0004758541401635,0.998346723682312,1.0023482069350451,0.999899798049021,0.9964927434854929,1.0111457028067734,1.0158093031980364,1.0017563771549776,1.0008316717133574,1.015846367825822,1.0028697795958263,0.9991632340359459,0.9982200288443347,1.0154312154632419,1.0027166535460659,1.0038258715226063,0.9991479861354936,1.0009143235081277,1.0028941754744416,1.0030491793297354,1.0013610038803349,0.999173966052624,0.996662456928345,1.0022403175985228,1.001052269808127,0.9953674159813433,0.9939975354686685,0.9837043542288579,0.9899168584362923,0.9995932482461372,1.0010479963399477,1.000873719366289,0.99757791064499,0.9945483366428357,1.0080957627740057,1.0014948812766165,0.9999469928473584,1.0009197082490848,0.99970597732563,1.0025655392918538,0.9989148840793465,1.0101244883175657,1.0088532887646466,0.9956631014982852,1.0226520444040768,0.9817280925700336,0.9984809829104871,1.0029170610412517,0.9932900861622393,1.0078325412612785,0.9934578005228752,0.9985713857978794,0.9904672623117883,0.9825422278776845,0.9928996299835483,1.0007909312047578,0.9996523086727616,0.9987797233539939,0.9966052210188026,0.9961974796545535,1.0038061673034266,0.9981841572380635,0.9980804890427308,0.9996204894918418,1.000558737766737,0.9966311341540892,0.99241782091746,1.0038501970034692,0.9982289997216767,0.9914104870276654,0.9982233587107219,0.9983392805130284,0.9990962491088321,0.9969831185956125,1.0000946421671852,0.9932330611287286,0.999980071437345,0.9974321142679788,0.9961351728542898,0.9975633765387585,1.0027506921574656,1.001971892390959,1.0087583366519626,0.9921714727492661,0.996213753515324,0.9956594719444724,0.9992185290227824,0.9996550419875185,1.001593596286652,0.9975470070703975,0.9939503554923041,0.9991791527005454,1.0013174747105145,1.0068982262201238,0.99525942535097,0.9996013816793553,0.9968987695074241,1.0003110372933428,0.9995428905242301,1.0142834169968693,0.996350826503145,0.9976562439774148,0.9976819398669128,1.0011913689945249,1.025290375089753,0.9992522697869064,1.0,1.0032021604132282,0.994793503532309,0.979360017365113,1.009512954113911,1.000867035382029,1.0001307705769673,1.0005381952796673,0.9992855305531254,0.9999128443900166,0.9986431321821212,0.9936102306420588,0.9967381019031416,0.995325440847667,0.9980110966192288,0.9955680617889039,1.0,0.9952056560612594,0.9976127130359093,0.9982214926195915,0.9967601264257587,1.0004007208449874,0.9914612370524247,0.9923259570995808,1.001772222966073,0.999944027500941,0.997216044276954,0.9982737968947286,0.9980204338284243,0.9958832533741229,1.0038824268734385,0.9972807725631437,0.9998127615428257,0.9959569189060906,1.0013511373907664,0.9987794839646121,0.9994109632348965,0.9955416162259171,0.9984331145887995,1.0040794734944156,0.9951511011495715,0.9925231535412135,0.9952734575006847,0.9977755219620016,0.9968704721607268,0.9972640984572783,1.0011878132397554,0.9986344866121062,0.9986302080433963,0.9999991721691427,0.9970725417485644,1.0012583620714488,0.9981413643582472,1.0048802997939923
0.3786482441362175,0.41439278084885944,-0.821348918212653,0.18241511827339485,-0.323771529257549,0.5258890652797046,-0.3211427375848267,0.3314283162749717,0.0776090261877549,-0.3115502428252033,0.058147781701448145,-0.4043614203347164,0.006941837516539383,1.0757282904143357,-0.0804062597940384,-0.02281369675997042,0.11926994822514796,0.4567638115046921,-0.38909140358331695,-0.005828249745855845,-0.5640416658769996,0.013059082457902925,0.638798953442286,-0.7566969750033753,-0.5522064758766226,0.5320497428603316,0.3819029479422602,0.5046133541333778,0.3561219139055619,-0.22889677712999532,0.24186392324988062,0.13597569645424404,0.6915025043942934,-0.27276474796603556,-0.5661928008864987,-0.1618433373712499,0.042778437922884646,0.2664208150789591,-0.021337289271593736,-0.4042280302800378,-0.09506045356305069,0.3338008924565484,0.49900938234360076,-0.09329035414752007,0.6714328072315414,0.09088131690660403,0.25479418849170266,-0.2667680823069803,-0.7736488920695928,0.33431984851282553,-0.6338811935950337,-0.21499775235133559,0.49359067512226806,-0.3019195312712791,0.24971815603013853,0.025513690438566702,-0.3207617359030503,0.37243363884609076,0.049618709746725186,-0.020199746304769197,0.13233349694917773,-0.06184396764789073,0.1521445447656986,-0.14985123627498112,0.031452375911448636,0.19281569478061145,0.45892123879125607,-0.08116721586384557,-0.42926469594646727,0.456082588804431,0.37027885950214795,-0.13893516493719932,0.004849237979778456,0.07798089601759009,-0.3158064727557552,-0.7512802007765604,0.12496833977266618,0.32230228659190097,-0.6354659192880978,-0.6989791287805327,0.4167914118907712,0.9733873659961099,0.22876382050362024,-0.03707045497599384,-0.3061669655011698,-1.4598339364637563,0.128877114803029,0.2808043485768215,-0.2045919618518771,0.2137201218452663,-0.3562914367309858,0.2960310062106163,0.6376240944060835,-0.45197395869453516,0.16533159956782023,0.5720351769694959,-0.11176768161448546,-0.06959611785179509,0.011770705807706882,-0.25401138689978003,-0.37198575173104936,-0.08825523986583841,-0.29413879996244036,-0.11377867299478682,-0.12497598419317263,-0.07504568304860965,-0.16093709823724933,-0.62250672769334,0.3497716022609875,0.6463490613495739,0.03062257036740201,0.33351605643922777,0.1852939200477098,0.5676640289551461,-0.022332907446847086,0.7302443410734581,0.3347756745711056,0.39797963142911996,-0.6012315410908955,0.657096580409687,0.1710512719962727,-0.4564917173111493,0.006262982549190331,-0.22125701002606024,-0.04755569523005903,-0.8791172389508116,0.24947468530426295,-0.16148251618298243,-0.08959834579295146,0.5216016822656608,-0.37871513789508005,-0.3008862138662169,0.5169704880079858,0.5311174772568488,-0.27050408358689804,0.19926924086419906,0.0815103845598147,-0.33277265637629494,-0.48465352244624416,-0.16440571680901173,-0.29068166371488285,0.0113809935529453,-0.6012274674435085,-0.6783276032530208,0.44618671268060817,0.4452832159929494,0.31377470061421314,-0.5895818371873686,0.010852656462553357,0.5801577087346391,0.4794595806475107,-0.4444143912150122,-0.7735351106222725,-0.18532932089766332,0.1886470942240118,0.08331783342515621,0.4203724469835178,0.18973195977419352,-0.31182217988701494,0.21387952124602247,0.4718907953769472,0.10029155005727226,0.1353260097558009,0.6322631047382243,0.3477616041987036,-1.0527878121954237,0.6647665305164792,-0.31369820310961527,-0.25526797341794727,-0.41209871968748335,0.11135042400140803,0.16602306066446568,0.3775156218903283,-0.5247439681658733,0.04449583000717237,0.6670945659928624,-0.6256962656755577,0.529397732492134,-0.4202777194210423,-0.2811757367282226,-0.2862099277947291,0.48179238656661344,-0.2537195512589654,-0.5467634813321453,-0.42559342625445157,0.20534234839427226,0.20273659628213409,-0.015615350658530798,0.4567507824041846,-0.5721637334473851,-0.2952569696455864,-0.4796892835745483,0.15959806180939978,-0.45759487700057677,0.6351071172834707,-0.012525765092742202,-0.23958929400562054,-0.001007582445636937,0.0036149780785124305,-0.3193055305691852,0.037193352208605944,-0.04414866615452803,-0.272331887294223,-0.008931552023842503,0.4262153427675465,0.059802300593326814,-0.012083564383624948,-0.21086663620468404,0.24661592692082862,-0.08920395030041303,-0.17415478477307386,-0.8406242747927372,-0.38502010210613485,-0.3698655149296645,0.7593985488643391,-0.011428924754677766,-0.7270217750180528,-0.7302029139836448,0.6275403697457876,0.4617769597890567,-0.09295850756862939,0.027473166153224503,-0.4176101723090801,0.700949691976485,-0.17883652073627757,-0.27797635750615196,-0.025433382287448653,0.31427013451071206,-0.3307038822156487,-0.05706326474084999,-0.6038088638872405,0.09865523273179556,0.6038076588891419,-0.04162491060010648,-0.5000520716873106,-0.10592835676275485,-0.06859347458313074,0.444184225091352,-0.12059685398250479,-0.5058620457284538,-0.2300165502994109,-0.6219256027701534,0.019666498720484666,-0.523239661850814,-0.29985393285148576,-0.5679362672677191,0.6644836778183979,0.7453788964203767,0.05630068187454401,0.6105758892231602,0.010232701715173133,0.24293683578680825,0.062251289897863014,0.35407511234261463,-0.19305025535550394,-0.4613076753282367
0.7076724763597428,0.196244871930264,0.012465604560888606,0.2215611753431665,-0.5448595010614915,-0.23487237210226672,0.05080940595578028,0.1198324977281041,0.1583995925431953,-0.34572131601836514,0.5255861610128628,0.16281222659482264,-0.1159910649921062,0.2795586301048984,0.21735283674963263,0.1103967457207277,0.3013819257280301,-0.33875414485525385,0.48913058119281344,0.2151856414663925,0.5084068241716583,0.21317172226145406,-0.1591987991969934,0.40453480514996737,-0.31189143843160994,0.2386025375751229,-0.046560139690485274,-0.6683356318011501,-0.33841381724085623,-0.5879598124062307,0.4395455681986469,-0.3512395791246683,-0.19636834369097123,0.5790428162998948,-0.4591856688903775,-0.1752388794493591,-0.016918379202256546,-0.523074089987941,-0.21219163760978,0.8221122343073841,0.14686092408678492,0.039846378072249986,-0.15017014447728538,-0.29385348406542905,-0.02293695209192461,0.1890072688947382,-0.28631139037360603,-0.18378872533865082,0.39710022713744336,-0.5676802853423507,-0.4778921923733832,0.09609431886334933,-0.7527032462003693,-0.18487970148570324,-0.4264215874418613,0.06515330305754062,0.599401297430757,-0.17236278024838142,0.7925606876957085,0.03752759045245971,0.246565369140634,-0.16255694244127336,-0.8149906525289088,-0.39986711338547865,-0.34762118964270955,0.05151692059543134,-0.4073317958453382,0.9469319592397427,0.37930863678901655,-0.34327433004180835,0.5520230905123154,0.1883461831527681,-0.11680123331846735,0.06771232268560053,-0.1938228132645248,-0.2241527116821922,-0.23586274035274193,0.23083119705530103,0.6973658350863846,0.4354486144243177,-0.5193749580606716,-0.6493983048518305,-0.6586387748667951,0.3128932412934827,0.1770882464960039,0.37245787046166134,0.5940993502747483,-0.15763122057355644,0.31829759998401813,-0.12853375751027318,0.00618182773123157,0.38089627927481917,-0.025266926130057394,-0.38148032192562037,-0.3094847242184409,-0.5921463422496294,0.04158253425795374,0.008185673833802282,-0.4375419934501719,0.035269131856019084,1.082694447317756,-0.05077841833432096,-0.13818349633665314,0.27880529388835634,0.3046236487471118,-0.20022095330137096,-0.2831967564733065,0.6624518213470276,0.23404646222306028,-0.6922510424021568,0.504390576063506,0.3900596118627647,0.12811670102311437,0.057761980666054244,-0.5502659920917057,0.970502960442449,-0.1130116356496554,-0.3508361142334256,-0.20623126962784488,0.8419389160498864,-0.3452619226671644,0.054843019586867,0.32516445168382946,0.2313594476417212,-0.25694301597987207,0.394644960438122,-0.9655181440598773,0.2733945914416367,-0.6695485876647774,-0.036336518039098084,0.7783557797572632,0.5676930549713993,-0.5206380767072838,-0.36719617357686946,-0.35620741587502197,-0.5638056245277673,-0.08149518616160183,-0.440265985997398,0.7162229688625151,-0.1754430308437014,0.08774823267124165,-0.019226126924978854,-0.4339651709841856,-0.2647616900579939,0.541241551183156,0.11935401552109634,-0.08788613871798484,-0.30771188230575486,-0.7088487363679742,-0.027682597708247648,-0.3201725972767475,0.10530148990171607,-0.4615490988347791,0.2976595105952887,0.2913187158329311,0.08876137814002986,-0.48054309900578696,-0.24010732439255347,0.8125873742814771,0.13224867665498405,-0.005895402103140641,0.2862948336553521,0.3877555386002636,-0.4466367500612434,0.48882564167274967,0.22921218564897594,-0.09818993435984794,-0.7851700328829295,-0.1737569390985198,0.35999105654022784,0.2588178520640211,-0.02040555418025082,0.24027388392401772,-0.4300998374156206,-0.23009818066096172,-0.2126699173281354,-0.0029553807641375224,0.15430110748000878,-0.6793162788127347,-0.2144659988072067,0.2070520928912327,-0.016087438030073727,0.28617685238055496,0.27263795508296196,0.12423568379155832,-0.288827403664846,-0.40141109188518787,-0.24119429861710875,0.23875295555922313,0.8195657830656159,0.0670498858250122,-0.09595591202805674,-0.6034539453742033,0.08267142686721857,-0.1325911840472246,0.3148961601098544,-0.14516641571933434,0.03031838738264861,1.3625087296963223,0.28713900503535683,0.32856448937552607,-1.050394887462959,0.010404663140308282,-0.05309594370235162,0.06424568572846028,0.19972952953670067,0.6846585081508338,-0.049612851341819315,0.2494360493783019,0.3721439210395584,-0.0750746057322134,0.29648806575070563,0.096411454143188,0.5368708433261683,-0.5663415695540154,0.222959547810936,-0.2548766764077595,-0.00022212186998822578,-0.3740356991519714,-0.45216937220441417,-0.12015015009798669,0.25956498996209665,0.13668243350285256,0.08346362309394878,-0.21415912964040296,0.9244386459011281,-0.5912171825690717,0.1672360952064345,-0.41690037952768066,-0.7391455899358886,0.4497542893627494,-0.3714934237944491,0.6971857686845122,0.5006738496469756,0.3763829967092797,0.1633543434123778,-0.32292142564856885,-0.17200519015502885,0.12206282995516077,-0.2824243263145076,0.6359305797819451,0.18716373528697186,-0.004014419358193337,0.6073435535318962,1.063083146552544,-0.3569354644488215,-0.13784745833057804,0.32506618412893445,0.09939230281133626,0.3557905782578184,-0.5626296789069382,0.1311720763517701,-0.5005419483249183,-0.22776953244712997,-0.10985501591964916,-0.34957549437844526
0.3400509733462752,-0.2427035777451275,-0.43698924148091206,0.09733456267048249,-0.04998447948438206,-0.3721186216560859,0.007334830245071999,-0.4093283992445056,-0.9081698872689463,0.20285808128280938,0.05918504928088325,0.4613927768962051,0.25895180758480946,0.40471171550749246,0.41668133349157177,0.1556999394731142,-0.3780593134444894,-0.16675494949797418,-0.7393362537528025,-0.8562636450711365,0.387029449749091,-0.5214155984519276,0.9095937632050874,0.050286302636694216,0.36208638062562665,-0.15945487161943062,-0.1133603010889737,-0.07994418857552568,0.10386194732791139,-0.8361036279717331,0.20392437715808195,0.4241612898660374,0.23842017274812533,0.11822702489411852,-0.26965681739698344,0.20705603787307023,0.4586879580821781,0.546283225606359,-0.8420936149364119,-0.687557590670694,-0.17817358664888816,0.00027935578452667183,0.10764510378339673,0.2707173282598295,0.0007614493868113167,-0.23810724043212156,-0.20160229552961415,0.5602825480422121,-0.1386561300918151,-0.4974923911564596,-0.2968449706965361,0.4957132010379646,0.4233794215004234,-0.6241209056841143,0.48136819140825343,-0.04568576942365866,0.06255778550296506,-0.6626586088513853,-0.04194162268830816,0.8488648368337272,0.17302459169080311,-0.28143002926540306,0.6941740497033231,-0.07629842682951052,-0.17739114616327908,0.5793491110903501,-0.6846582102062237,-0.45425678409376485,0.2675535133444841,0.08457871585412402,-0.09666469210654043,-0.4773861742516615,0.6857412646089236,-0.49236947967322503,0.2754554876092629,0.11366021626821896,-0.0699980979256272,-0.2817335750574926,0.08647802504828808,0.5153907422281003,0.2457627815662322,0.22965978290334266,0.5425424230635473,-0.2501341716562887,1.281571901983522,-0.7869382307713687,-0.03364593887526907,0.18479160905489758,0.9453849367031507,0.14956373182708635,-0.8045239326358529,0.07179073780215903,0.1013096846970333,-0.22481420465814667,-0.4902339932851624,-0.07218829865085385,0.4024056540689241,0.6409437309261061,-0.25443345955070507,-1.0777532584168237,-0.0228613486464422,-0.33441122647814264,-0.11706755837392913,0.1916381821837088,0.4478735303660247,-0.7049269048922958,0.8712814555207736,-0.032664681170486126,-0.16777063328605446,-0.10750999884357189,0.5186921995522997,-0.41462860026596743,0.3726757284100749,-0.2675160692198442,0.6467976263506083,0.11242996894843345,0.2909719799995592,-0.9260851512948982,-0.4624771213902207,0.39047650717172383,-0.054986584177485975,0.10886120101773393,-0.0784018338333416,-0.48214406162673573,-0.5962817569372544,-0.14400241509902095,-0.282497841918117,0.6719379188072093,-0.8077846036477219,-0.31741985092730773,0.39895786362070884,0.11470969153894536,-0.16218909978773402,-0.23301647821287666,0.02883331902747644,0.333840910505581,0.5395414712846373,-0.3546660362012394,0.03922203963102107,0.3769093166982036,0.15317958356975528,-0.8812706827370396,0.2089721648400472,-0.6419589268410386,-0.023767983767437356,0.10695765367879867,-0.06994907976098365,0.7637559011466449,0.24608774494404978,0.04907122611564447,0.8134918017253804,-0.11458799838691126,0.01811518648879939,-0.5191651720056769,0.06926507817134407,0.7333569145953021,0.16986605228317178,0.18242863112376748,-0.4281414270435922,0.21052394758681348,-0.1981353867623353,0.30339352729291486,-0.5876723466061502,-0.23577490521667707,-0.20447425517540907,-0.7801910517024395,-0.26253147051180065,0.2888082691935662,0.27473665747805354,-0.25587218664651545,0.6537231713831698,1.0870090407425212,0.06775581245217548,0.2568215917415098,0.1294775853615047,-0.31305269809817216,0.3277777121129196,-0.5494053622262265,0.25226613111673907,-0.11932331905148169,0.385512642292486,-0.4221079759914954,0.18794656510284005,-0.02532265396421692,0.3008741088516722,-0.8303390605149868,-0.30697088094555003,0.19898936115133015,0.5809095474935826,-0.4926024237453874,-0.1886863866232799,0.17307640192369153,-0.6531099975391355,0.8603729840153974,-0.28343188213270204,0.24905532220054089,-0.1839481855566948,0.5697207521927516,-0.2058869894494238,0.21385640404074352,-0.002173860865114004,0.5793578463303083,-0.5049498607585587,0.7761047581581862,-0.6245674536739255,-0.07598212022630754,-0.8203408375863845,0.7211180680068238,-0.07224741414751,-0.48876374181402926,0.08494401194309256,0.09911038053174756,0.26650170705919707,-0.27799935200972137,0.0009623365394584587,0.4756697710933252,0.06158238144738447,-0.43119891020350565,0.30375285372031946,0.5851301254246093,0.34852967436855864,0.6827407741647857,0.07086883642089832,0.6264591622379161,-0.5309080064530703,-0.009279221847609431,-0.10253772611861386,0.020446340313475975,0.33041775650363486,0.0954374206130924,0.5538545647168067,-0.19365416529814827,-0.7824056736262841,-0.34895828098198334,-0.28221016683608746,-0.6984332584038051,0.10531867645155847,0.2740201554960189,-1.5199538496686504,0.8076975110919469,0.027920330379738116,0.31661956637432914,0.5245038091196971,0.2566396085968071,-0.09716492232527756,0.3100089316066322,-0.5515412876999042,0.6437805726654994,0.4004308066761856,1.0683445134429193,0.7117453834435202,0.8085576187293444,0.18589079133777292,0.47961613898731414,0.5999029800163317,0.04161979658108927
0.8173760303049397,0.6190892165243578,-0.26722110996790277,0.2521849466292042,0.47250275809006603,0.20668894636917579,-0.315873749825683,-0.42406386414613867,-0.986200132670852,0.1719788946909771,0.20535895332690385,-0.8546023057204917,-0.2538627129608579,-0.148051142408962,0.37164347133606573,-0.7414825017714186,-0.22587152508546104,-0.28859954579151414,0.046158125519387555,-0.02623795259470177,0.23630543970398582,-0.1589317645013835,0.00862660421143416,-0.4664357885053819,-0.3732936423919681,0.31084341568605467,-0.23736685932901383,-0.1719921501320151,0.05098797333554538,0.1747291608028477,0.10158760966070164,0.1108931775281358,0.5067418782201892,0.27916884245477247,0.18930989404580018,0.6248420280632418,0.22521480418218992,0.08803310403411051,0.18420748639780463,0.5603147126719678,-0.31744803866271176,0.6185405575902547,-0.2616201110162647,0.08972167829149344,-0.9814329785558499,-0.23572286616624966,-0.12279893197837939,0.1273722183501345,-0.05752836359670422,-0.450450727006447,-0.1862327358231372,0.41552504728315615,0.10957180409657989,-0.22623332481861966,0.015970584183720656,0.4655350128799352,0.2115292255572875,-0.2950662286282988,0.44443319420742744,0.08085717863228649,0.43198735897721535,0.1419865313452239,-0.21856954979033336,0.5184819821682768,0.07730416899255053,-0.8665008564671308,-0.0035898894861541,0.033696308654684495,0.028360553615947828,-0.0002098802221105019,-1.3487711961114117,0.4370368462382421,0.32292529083818466,0.06060118599915336,0.07075967112341038,-0.08688970191654732,0.7571655454990394,0.09342730765610377,-0.10855304800605343,0.1347254894938165,0.12959021207130783,0.3365098609133668,0.5718688633174038,-0.2520691704928797,0.1220518346744849,-0.13474005299926553,-0.05001324302283416,0.26448068731854557,0.36161611686775913,0.9767422284344545,-0.23488357323140213,0.42005000988968233,-0.2771133145156421,-0.2970251593123931,0.26848053567275426,0.48108568914221084,0.10392508443288606,-0.14531214080966762,0.07694522803571632,-0.5241252255894081,-0.2854842639876041,0.3401933424288674,0.5266645202071606,-0.22137256254616486,-0.06846302040335125,-0.30179388918313765,-0.5955322124848704,-0.6812327185177085,0.4052979318837601,0.05584314441865421,0.13051846956829416,-0.15641808829479908,0.5147035213516875,-0.15315985242421282,0.3164335964247272,-0.029102106286572494,-0.2216339002047599,0.08360919716870856,0.11977997261480221,-0.2562732775945881,0.33397294198858807,0.5584253687353005,-0.057909420854750544,-0.2899150735375992,0.37511543902146915,0.029241871124520584,0.29728409588164983,-0.22131673940014665,0.41043724363393164,0.2486886996814994,0.047192104550871625,-0.015106308631519128,0.2230791076980261,0.8735359506837542,0.12177282761301057,-1.0838147950200245,-0.31297246798614103,-0.3998160413115374,-0.3761885845083464,0.11125280476756398,-0.9291992859095912,0.813693865636986,-0.04192532958398961,-0.16678252357844295,0.01254106648949095,0.38888620475863334,0.485902081622698,-0.04387197367933528,-0.7117356762949806,0.18663932132662284,0.302477104306444,-0.03033946270263034,0.11647633845540234,-0.36509605761673275,0.8143787728491578,-0.17259243864916524,0.564057882842108,-0.6654965435208793,0.6339858114530292,-0.3100586006140481,-0.29040570260858994,0.44601226119867593,-0.012881417737123087,0.29538656451784706,-0.7239764956087501,0.22680938155904617,-0.031219964571657394,-0.5301583579555262,0.42943332709358545,0.11787245165313014,0.05273875580057676,0.351793040596357,-0.4459894943782787,0.004597204258714117,0.5096941112404422,-0.3981275648226867,0.031599117765735575,0.06430422020167922,0.0069680674744436585,0.7071420661014974,-0.1536210974052347,0.13512023559399364,0.8684961812134383,-0.3581949754841058,0.08248457027886869,0.1606868646154418,-0.006130884153162297,-0.38921165157590115,-0.43759224277712694,0.25189328352837276,0.8131294194047429,0.04852617569292961,-0.27767243327552843,-0.4348755597055317,-0.10085848812729345,1.6258445068885705,0.4117561716757133,-0.10033436839690586,0.39594238589492753,0.24148031232768047,-0.2668489053662802,0.531001429656999,-0.4512111159319767,0.04875581732679541,-0.09245166058075963,-0.19881012284639116,-0.8291763955836132,-0.37344261035727844,-0.1779090676371597,-0.25760317621156875,0.037514367644081434,0.12213892767792883,0.4065111543658607,0.4177572344257754,0.23007692797094598,0.5587896533374433,0.7789662215612362,-0.13366929397295735,-0.6051568673155082,0.5378636114717056,0.4657462106066385,0.05494951224597511,0.5723732829565132,-0.26679458238372467,-0.8843203495064149,-0.40205663601252845,0.7231789363642206,0.24264957137261223,-0.5971558736994057,-0.008952477533344437,-0.04411317188105617,-0.13227151544101756,-0.3873303150089575,0.6573885474657519,-0.34959052501712046,-0.7533592417483281,0.6192267506729113,-0.15932750976840485,0.11170474937917449,0.3016682336729385,0.2349963493409891,-0.36424955782758445,-0.21561043619925446,-0.8286492967103821,-0.20812457135685117,0.8192213556937501,-0.5736789946680807,-0.2311449675168038,-0.0348102023721684,0.5102911957684525,0.6160598090729746,-0.06262323152770732,-0.12833986789163024,-0.5464636649672947,0.03322948602919498,0.11151686739803277
0.7047654240133319,-0.12448453907975489,-0.41590259089941,-0.06375484302518875,-0.2759206869448719,0.45673641502919166,-0.6098818265014246,-0.22928233920523608,0.10807637875906531,-0.0625796106607115,-0.4474997652364121,-0.6641689813349055,0.5890044238272816,0.42669069729695847,0.28800326527539893,-0.33479427110559795,0.5109060780296085,-0.6345755882071885,0.3995327713448673,-0.43865060850043575,-0.2615232112520935,1.0079242430606086,0.07075486537172197,-0.3727150870976843,0.14134943637445285,0.5760486570058188,0.13133309360719747,0.266390754081531,-0.08283434377135196,0.006992217305495904,0.9009283857136005,-0.6943448152958125,-0.8456593434904316,-0.23997360895296926,0.006015593583328209,0.09098471989073703,0.6075169973062895,0.63131609032895,0.08462253624085196,-0.12512614400969552,-0.21659251445305644,0.16891178643847443,0.13086308821366469,-0.11947645979246943,-0.10733039610245589,-0.09569580551761189,0.25697368692564526,0.09234948202198127,-0.2432261511010004,-0.2668248019669477,-0.3713585225813238,-0.2638865761133925,-0.2945237089176317,0.10180561021757965,0.2433477877866494,0.16362531935884486,0.0553653568537069,0.25444070661839296,-0.2426030834626618,-1.164573580264724,0.8193575492249004,-0.03943768380597305,0.06610676988523982,-0.9074617730019888,0.2831298269533211,-0.10032841725575645,-0.19680689086455735,0.42341325890004733,-0.30196709868111554,-0.14989020309837592,0.8460016728644728,-0.6955242375531141,0.45640514635950213,-0.657770845550417,-0.813477076287986,0.0696839135358151,0.23402929297852168,0.5849083769062443,0.5830578285341622,-0.5821314655887874,1.2172501125426358,-0.1347267552491511,-0.35271095820556053,0.6202759367461929,-0.4218855695456453,0.2996914352690552,0.18975353287619978,-0.20859912846024872,0.08934609622684615,-0.3717199090356014,0.48698889202156703,0.37995032631808967,-0.18826538457670317,0.44715127593044285,0.5907051951494696,-0.5860420854612972,-0.43426836053464474,0.26902474464714216,-0.34010296171502247,0.26496073998623176,0.34224913280796887,-1.1615570133870825,0.5606454919069427,1.0888395037419174,-0.3176636983849934,1.0054977986048854,0.08894081263488084,-0.3416676991522416,-0.2200500211317966,0.5198489094876776,-0.3755139044644203,0.2267438584812655,0.09616192079464059,-0.23856396844185002,0.358979955478685,0.03767463606616978,-0.48865477650384526,0.23531557313315493,-0.3607738577437645,-0.0968392955135306,-0.2864275253067358,0.09149296841291979,-0.19573424884362586,0.5390385842627968,-0.5569044565820072,-0.26746458195959916,-0.15490437834669452,0.4529464966838824,-0.1779000061646233,-0.36987291322163435,-0.6393116431854661,0.18945831127052698,0.014419273999800256,-0.2310428232645473,-0.3674897878192929,0.09086261162771125,0.03834771967368805,0.37572297761882584,-0.5251239350780472,-0.18706871419559928,0.07295586035171407,-0.5856338347247257,0.3672812505940075,0.32713930543258496,-0.14266182549326087,-0.3574594679828366,-0.36303871687476086,-0.0024302889823923104,-0.9277795695147603,-0.2167448583430117,-0.8176776438778113,0.3473904799975698,0.5178208588525515,0.26210574175741497,-0.012123673519279113,-0.5892254424179678,0.14853366781624402,-0.029449176119791916,0.30361382175374235,0.503413726509937,0.31590751092195596,-0.3929608283407633,0.36967848259425845,0.13573184766002716,0.11335455392930999,0.5813990275005838,-0.0985475343681758,1.0305082046133809,-0.5818827059345775,0.06487159116757589,-0.8322494537254407,-0.2501319944137056,0.23190208081252908,0.029317827080300174,-0.014471901284462014,0.19514948434570262,-0.3296835238455503,0.39499098294033597,-0.3638394732138599,-0.25345867881105194,0.3481454553339031,-0.26503411803491683,0.6260732707463027,0.10733113332957075,-0.41265308689148894,-0.2860957727592251,0.5036703264694735,-0.44761450264487807,-0.2103831500477035,-0.0817169976556428,0.4910766962961155,-0.018455376829159334,0.19166343356782048,0.3429551178668588,0.22926877465432338,-0.7137808730813525,-0.31956536217631043,-0.10227819710845522,0.123939958383218,-0.24992511423290792,-0.4566016832487767,-0.28511979529198334,-0.3380697207122244,0.2827617767121035,0.48811792067349585,-0.518668720072533,-0.30308147889213727,-0.13579436576110251,0.5072840648558524,-0.5038918218598767,-0.2868598017810962,-0.2533606052649197,-0.34326294647450734,-0.21773148575640752,0.3017580122096784,-0.3690619423038567,-0.24650609752946745,-0.6512359939011596,-0.44860720296550116,0.31159966321593774,-0.4139931791610102,-0.27361399263286923,0.20440143704804373,-0.0836633705635682,-0.019414498423010764,0.1133162747749735,0.8340822268807592,-0.4727353668522477,0.18930825288473224,0.8321094174909199,0.21036779911663428,0.5403186266772306,0.12422597728107172,-0.5047858007706192,-0.19946536063767456,-0.09877790052911459,-0.23269413608747913,-0.674503783890565,0.42960897030542133,-0.0692603703901274,0.08393776218668829,-0.6543187057123636,-0.16239410988636963,-0.3531073137187927,0.009160646265335404,-0.6347926789705991,0.7006102009148341,0.2949805764829486,0.11770157621049607,0.43010344161741026,0.44134845830397196,0.31917639036635886,-0.023149851033307186,0.22796257292960115,0.3081183241151801,-0.714832980307589
0.24715418743514947,-1.0788152204432833,0.4106200884977922,-0.21976683768330427,0.13016240748131136,0.0378760997489128,0.28185022650298286,0.209847243772451,-0.081150976365838,0.015561644097390472,-0.025153288315639257,0.5534590327113152,0.666772536982033,-0.5759646083927858,-0.25702484294874217,-0.6569546430349681,-0.04226256228157102,0.4085887844455231,0.3970581951835907,-0.1728177602711657,-0.7720816168706606,0.018707375810588497,0.0673301569359698,1.049301755570318,0.16266365635748148,1.0690814194610494,0.02152712239903193,-0.16705067827057576,0.38446238525434173,0.3590480625891422,-0.7942741429971921,0.12624253702094473,0.16408013977780272,-0.07605046530135003,0.12325349296567806,-0.0304915397995941,0.5280023878510368,0.45885535512145487,-0.2953830651364224,0.7783825366952083,-0.18002211879367155,-0.2858105932014793,-0.1798578311551596,-0.6581675563889576,0.455679668549828,-0.48107145988336436,-0.06274782154998541,0.7836626523429387,0.255972306022711,-0.9156199681630668,-0.25019245710085475,0.33976396027626854,-0.22340599717607462,0.1921062022817831,-0.20128101597675382,-0.09920743437561788,-0.0695071736393893,0.38747099400185897,0.92686092867548,0.24755319880212542,-0.43376386698480907,0.18941942184488486,-0.43911549657070864,0.07562769777309242,0.3293149562047015,-0.2702270265865672,0.3835607951314531,0.10642805614326664,-0.34555212974604455,-0.5801506703812204,0.22080739044670852,-0.01943556893106988,-0.12226731278327203,0.15996041431237729,0.09666411725891369,-0.03732193537263609,-0.07070698145786455,0.36729636607288696,-0.08438133582108558,0.09470652566360357,0.15614580231857894,0.22462352486517193,0.0693807667469468,0.00454074739142611,0.37681848613822944,-0.2255072545044618,0.16413699814391877,-0.28788604026118203,-0.5705563491745257,-0.3410495489720076,0.07852833723474768,-0.40934816106377214,0.6470758036670021,-0.3097430883964931,0.3784648226924568,0.0034010718067329234,-0.3264654708459758,0.08974769826947354,0.12960442217745002,0.21674770694393072,-0.03062801499866778,-0.5271582031892318,0.38255331666814874,-0.5926449538101098,-0.14736378294169294,1.0199354797003866,-0.2509694441014035,0.06679097403834876,-0.13402292401614774,-0.3233025092359211,-0.20031657192138114,-0.037839052259686944,-0.1647626808218635,-0.14635159941655193,0.22963822962480152,-0.16814284725482276,0.6368238138226626,0.6227571267394542,0.3956085526823032,-0.01203749479814985,-0.05651107795446923,-0.250545645941573,0.41049940892301184,0.5730381532084811,-0.07722916126334842,0.15399448465214238,-0.23639467379982756,-0.4027384023043634,-0.06478020561980245,-0.4091523422334842,0.23232998774749122,0.5860093787500213,-0.006830098350226955,0.445644761451933,0.32945466951262037,-0.44472113494710575,-0.47194209707433976,0.06388067746523472,-0.1147691886858397,-0.15315339923841914,-0.05139639502804827,-0.23192805136809802,0.3094454256965848,0.6029194224001533,0.28507429831775766,-0.63919260794387,-0.3178319463822485,-0.6878141279130309,-0.18772879063140252,0.2936583903945019,-0.0004703746697275126,-0.2854890282624361,0.5288316900211565,0.4846587865786312,0.053904036056718924,-0.7035326699166055,-0.12424252293669591,0.0035270261913656633,0.4031717402913846,-0.4857386135946081,-0.09085143407808584,0.919294825023918,-0.3013141635710323,-0.3782620031883363,0.1724277802729515,-0.6648184849800505,-0.728163741309063,0.8151752745616813,-0.02885128119321038,0.5616007457498462,0.21167893210544347,-0.2550842830559704,-0.16792181167421527,-0.4456180760655107,0.2255215488658823,-0.14587164609544404,-0.3015882555658813,0.35780162378206193,-0.3234003535581191,0.1490020488233738,1.1097786641749583,-0.03393819159766908,0.39107002508006233,-0.09957887412747353,0.04589535630539312,0.14683512941448415,1.370738546906576,0.07501721190108335,0.2660681183006005,-0.0025346478980822255,-0.5018800558881256,0.17080789532482754,-0.3969346283402656,0.1267962560919802,0.017701345954328013,-0.23039654224093856,-0.4042857377096689,0.005773032789452733,0.7142077234156711,0.005083073436419939,-0.15985287528316128,0.429481620326748,0.08146074907768606,0.19633193795604484,0.69487254309321,0.2525077706572437,-0.09918615929367608,-0.28656644969027034,0.01314709885378521,-0.3929446566992619,-0.3542805137247465,0.10147472808857037,-0.2972372920053108,-0.492481848916556,0.36045797140955094,-0.6165265846951513,0.009332200720736906,0.11879985068799931,-0.27215384656743863,-0.27217056096774267,0.23117162716895304,0.16577118938821833,-0.7220761648765465,0.5508357510174864,0.14440921574499302,-0.29386435024351526,0.038622210841202195,0.13722234955062745,-0.24896861560144332,-0.9146005774994979,0.09376270154110583,-0.2755991301752752,0.44276157389421644,0.009312490636360428,-0.1251201565233804,0.20113552686415995,-0.040757884645600546,-0.66598941954285,0.537870814892175,-0.5277464900910098,0.5361384872359058,0.2196941793851382,0.10700085053424518,0.5697869199868272,0.41852825607501076,0.23531905516466847,0.8053097676138686,0.4439856320752945,-0.1298058750435768,0.08172245298901615,0.20918370681208773,-0.3018599184154285,-0.05282336540194534,0.039523227647986874,-0.3522609905049907,0.22800776949430418
0.08766353635713313,0.07226068214225913,-1.0072451230775636,-0.36879380360756936,0.17317271332601536,-0.37532587420361435,-0.031630551357958246,-0.6471583707524345,0.38891018490498547,-0.004185678212842871,-0.1801052969456847,-0.1327921745676245,0.4040062041205497,0.43492591239942385,0.6123574581962783,0.4362047280072364,0.08079455001708775,-0.18428099924354313,-0.5093843316322548,0.4234962154530309,-0.2406596626393241,0.377888949719308,0.1399100130624299,-0.06658406376572246,0.05052075903197013,-0.14116908164565306,0.34540604540613223,-0.31651854054471734,0.3607591032995103,-0.6837836185642425,0.48052127912252046,-0.39488750553270774,0.15260864388387804,-0.06620193376412603,-0.4729368382196807,-0.6221681580504062,0.6732110459091302,0.3575367845290424,0.02449248182275165,-0.0955751798099029,0.023038444525009142,0.898444922576131,-0.4335744170246888,0.8168050415933186,0.26909100131818836,0.3993837724669711,-0.9511820192678093,-0.005622847969218814,0.8585276058633383,-0.10281667569379778,0.2800167253606595,0.5457423172827055,-0.74626973668034,0.14620139750261046,0.12554737748491904,0.9333002901327127,0.2497175626659447,-0.23006403702565376,-0.07525133123449676,0.279951792623288,-0.16942017082573846,0.4530146783605418,-0.440396559539062,1.655623097417975,-0.849331099150384,0.42361808544692137,0.8875709945419662,-0.3488170934223518,-0.19501177119148796,0.7604034497803485,-0.22750496122180494,-0.7443949870674746,0.05192862671171941,0.05149266886594547,-0.05912005916693785,-0.4754368875895299,0.0029429979946137648,0.5473077793566947,-0.7201672301180475,0.3239167052288863,0.3518590515214146,0.7827577742432419,0.8211950646964022,-0.9404712225165281,0.4181467380898783,-0.14025883945492273,0.47335218611377083,0.057831768448167606,0.18737948817718195,-0.276448946177867,-0.11676236651906423,0.14860064447585605,-0.5461729867059363,-0.12645781950487603,0.09475634968248493,0.01349649347571498,-0.26096492635469093,0.023075110872791064,-0.49716036088651705,-0.5861399338880224,0.18978551873663427,0.048827509790562135,-0.8299331139382669,-0.24024925096190938,0.016112681575279734,0.28511694956601447,-0.39628080810290106,0.6763602547264511,0.19130823362773264,0.0919132629056009,0.599984288027014,0.004294408578024386,0.10458217484811776,-0.7431319731143743,-0.6005960900670312,-0.6348734143320023,0.16016200712674494,0.9229405685553209,-0.7766235888978246,0.06346186585607767,-0.1602750036016442,-0.3216036634764396,0.10326951653841943,-0.20736121075838834,0.23106740438943238,-0.3908694164237614,-0.1685968283516432,-0.09862974202853586,0.01887859976278534,-0.6322598516702203,-0.18620213238529618,0.10633943277104707,0.055377076218514246,-1.1775216628064413,-0.74231484895631,-0.21467023412200303,-0.10927357424537745,-0.2153469488700882,0.2922986561201697,-0.1522388141399848,0.6103387327005593,-0.6165413990505968,-0.17428922761813245,-0.04052807080845331,0.07545603328881817,-0.11428913725210903,-0.06766284635838234,0.11551618215191271,0.12057570161033025,0.26115600205601774,-0.6068772391546413,-0.26230813480233656,0.18214711871935152,-0.7414791501201585,-0.41401554519054246,0.016506385413642192,0.36721748266495746,0.21024313812345174,-0.23981593692007222,-0.9059444258302816,0.1215450512986505,0.9072095564514903,-0.08706287768011059,0.306529437341994,-0.23513668618740582,0.3019930814644191,-0.24549977071334333,-0.09690191203297602,0.3866638413614486,-0.6772150093396954,0.20598763745046353,0.3490915205255419,0.7486971924756098,-0.36516091156327035,-0.13647434656066343,0.3474123355479488,-0.12202302587941401,0.44598598571707515,0.5852616252682001,-0.010323679701342181,-0.09401132545980417,-0.4407678478946849,0.07866960724723325,-0.3271010061221886,0.4119830206259068,0.04622292409039154,-0.2485906818730956,0.22169200512885137,0.19975951972454503,-0.38181285844405266,-0.147257910805812,-0.379988750151146,0.3634127140637486,0.14438651830534383,0.2732730825146927,-0.47345652157371737,-1.077775636755777,0.4076679741930833,0.2339948425509091,-0.4281947575408431,-0.3590854864753787,-0.21748670659590963,-0.5037978873992396,-0.2991848247510737,-0.3407155492314941,-1.6047330263880393,-0.003012963684759852,-0.333223447955504,0.11551316053088667,-0.06527819433808721,-0.5097427024414418,0.5416794460008605,-0.20977231900286308,-0.5608532447735238,-0.19304477617046728,-0.4078654657165591,0.5290259562706368,0.7223605019391665,-0.8859664391817653,-0.6512682341164981,-0.27650987917486763,0.424581507762302,1.355028893026484,0.06229778982931901,-0.24293536399941237,-0.3780728872952643,0.48220373921308524,-0.6245022309950224,0.47223694305544,0.4473383203359058,0.26989987509883223,-0.5944248768114205,-0.20682063179790872,-0.1893492182979736,0.37357387407085263,-0.09854480841042683,-0.0382934623922636,0.3324792690553844,-0.07340904405915706,0.1115294917689698,-0.3239716121487596,0.024551541459158187,1.0025891896808763,0.06174313356403475,0.18794968524558123,0.3806981715731794,-0.051517161577915825,-0.3363894765205812,0.034256293771144614,0.40482053152149783,0.5053760469045312,1.0505923376572075,0.38411960054105043,0.0812588201662632,0.41249125091192684,-0.2456462440731965
0.2211127756451952,0.5992884650797262,-0.01190202832196589,0.48402655274837086,-0.029982023848747055,-0.2592616147165875,-0.15055226829258372,-0.12358307515265221,0.2000935321894568,0.23520629407800056,-0.39942863728535083,0.11005915899070752,0.02667278114591891,0.7533386432324475,0.013656639928419262,0.18337815586851705,0.005296643439367575,-0.15506881242371395,-0.18179545919395557,0.03851194745525262,0.16040279605757934,0.5731371705710235,0.1778249670377878,-0.4616165935468282,-0.3218187248108983,-0.2597084845729318,-0.03752417434282101,0.3163168767308451,0.20038025865663012,-0.3927172841652085,-0.37965829610699653,-0.43149435687118265,-0.09587416632430505,0.1729567473133526,-0.152828285838525,-0.547779324818482,0.41834899349840426,0.18910546206818513,-0.6453823965667961,-0.42958489320715443,-0.8501017363938312,0.6889008220959394,-0.4948622094863826,0.7873201970407736,0.4566305454095838,0.16396987961555268,-0.37734604717296655,-0.20752586321627445,-0.6846911588789002,0.6513894726803405,1.012824985995658,0.22877123722562062,-0.2706866507734124,-0.26662011197429647,-0.25695496027013714,-0.44029278090546203,0.5820897949968576,0.3230865278014921,0.34794331931870875,-0.43693552946930997,0.19243697722626668,-1.091018133144253,0.028065399102658907,-1.0637986306993668,-0.1918407194774745,-0.33406348635730254,-0.3080522983866275,0.5034406186725717,-0.0365266215162035,0.1099047706605428,-0.35042686221636243,-0.15845749044644877,-0.15701870172610036,0.6974640326735074,-0.363479301497351,0.6776188136566429,0.49338835696152433,-0.14364081453181313,-0.33182911028970324,-0.5189266185884799,0.11884785991710609,-0.3034274649903017,0.3259276810408362,0.09247402340429202,-0.06242925698339241,0.3516556277329078,-0.21181352506478435,-0.14971727879296787,-0.020008001240410446,0.3138871908281035,-0.045705890838758055,0.9989036278728569,-0.03843328078201164,-0.5607937948012313,-0.11100122523681809,0.05915572007594331,-0.23370103716035245,0.048751883840042066,-0.2218347708858059,-0.3362188217484962,0.36425596680417077,0.3822138721165716,-0.15076578591538328,-0.6033256128108977,-0.45933844931703527,-0.17810142724309858,0.11462113628107287,-0.21120653121301847,0.1944875414124403,-0.1914227367219107,0.7695772599327808,0.2539761095141577,0.03934881405632168,0.07297486233543703,0.18066451883148862,-0.4445090796831648,-0.4402990420535387,-0.026177015392307854,0.19187040057097307,-0.2474977130810541,0.13667762914374676,-0.7108610181673438,0.09666773726894547,-0.4482408050768843,-0.42974768206768094,0.49174939402492385,-0.06074215140273847,0.7656620311783418,0.5320407104627384,0.3673519445655439,0.27685629180520094,-0.5639303929734304,-0.2588626118511855,0.4935707321112403,-0.36996813147290775,0.03107675814902344,-0.07993615389494968,0.08855834949472287,0.1588708274047667,0.7360857344768348,-0.0005887904106838317,0.14814536759168476,0.551400246726433,0.3001333289104484,-0.05143580899081624,-0.18384612584967777,0.36101963024897754,0.2476564546981774,-0.12804073304125901,0.48108081908304035,-0.12199263349288657,-0.6881446440450087,0.16758160304423786,-0.6006687365526231,1.1314233870428496,0.18508094897784003,-0.5864255651963302,-0.15517979769932952,0.1777873624781775,-0.03241888874322807,-0.30340742775754254,-0.32114514538740185,-0.14683781283473546,-0.04838792104571306,0.38066943550535726,-0.9908484257365324,0.13290478092499533,0.5562811962175693,-0.14300142915138817,0.541573130860914,-0.29820603960837827,0.2944205453108364,-0.1768649074568043,0.22811008357970367,1.0066353898330018,0.43310558982458225,0.16233606950306562,0.46982115593966844,-0.1402863260379979,0.9918025234617733,0.5073744464123572,0.5806726256118167,-0.6912117842495649,0.34349318365416204,0.1720227267767348,0.7412653397735091,-0.4999589580739375,0.3032106914894563,1.0063575250159607,-0.4606544483795026,0.07589223702713874,-0.7215364485754984,0.46481951188507925,-0.4701884275534485,0.00830695673937985,-0.268133034097917,-0.2146882228210928,-0.4089985239469673,0.007029751160979015,-0.8026485736914745,-0.31388037276696434,0.6625521704389803,-0.4575001538013852,-0.29316827736355844,-0.19769854346996055,-0.42494292005297896,-0.5020784604871444,0.15396387045951804,-0.7467169666240312,0.2214158372118118,-0.3469375957518826,0.2869571575931378,0.09321429216060141,0.5933432996871065,0.021269273035647532,0.9537735911494915,0.24245799297152593,0.23292590640174113,-0.6101329355098306,-0.689342996886035,-0.7375105375504296,-0.10455935878241433,-0.42620409171857215,0.41051088059550545,-0.5926393579284059,0.4679852168791312,0.5468792477912345,-0.437911251754433,0.17407830434762345,0.04898817073976555,0.4644179232896833,-0.6072202280656753,-0.7111649208497297,-0.39499088040076613,0.3359542333059488,0.2913963980163485,0.06470727693501827,0.6274970977607058,0.3503153994277496,-0.23709069477056038,0.7939396244937179,-0.1410500647082129,-0.27191823399744436,-0.6394180669247309,-0.3446213222654319,-0.665876144657528,0.03878924575445498,-0.24341869615026893,-0.3424391882063905,-0.2922052697912157,0.48510787429893176,0.32760563210242566,0.4632024159222895,0.5179358087891897,-0.08091696278473329,-0.5029249083919408
-0.3382782999603131,-0.28157174012461034,-0.12959368286459078,0.261869779859916,-0.4043967295598273,-0.297599785735657,0.20075724774872433,0.6556225263798027,0.058472292785459214,0.05220098269974715,0.8194376343827668,0.026472170632790486,-0.14349477681784878,0.11302696384104347,0.4730418751460206,0.4210412383595343,0.3103622735677651,-0.039754428897016136,0.12931212275457368,0.8261087135564069,0.09101933843094268,0.8645599109317362,-0.1838056488939499,-0.2173043839836792,0.07707971125494738,0.4446163783278515,0.00792011217991566,-0.7592259126642322,0.3354754068720131,-0.23124055200512403,-0.7044974131313382,0.1324069374715861,0.03607885902401035,0.09891128021229444,0.38733707138724466,-0.08898230117756924,0.7603798547280267,0.1555748097734695,0.4461132251630007,-0.1124322408549862,0.07764742213032294,0.3325901354918631,0.05745230459440001,-0.34962010761823187,0.052950719258000836,0.4024224509288819,0.3006633308937735,0.023841120419052845,0.7172798607743903,0.6174487008015632,-0.35339262057141857,0.3657569458552668,0.3812115272648716,-0.1880506210865923,-0.2937600039653539,0.27478151081535046,0.5654073278012179,-0.22818403276285387,0.09876872989945255,-0.38448670416283137,-0.47649861565161905,0.39858089190973767,0.21125182368846654,-0.5767184388466813,-0.29609996807993955,0.48362867387215963,-0.554664176007616,0.05685373101486019,-0.2764592779647883,0.044482611879248665,-0.2978454428793807,0.313435012336582,0.2120123000366403,0.3004677334599089,0.0271765845857148,-0.4516577784261958,0.10885600493425854,0.39920496068373845,0.40125438729087237,-0.1426184718908643,0.21393199296292217,-0.24539447568221812,0.2798539116963313,-0.07863517157862121,-0.9054244067678551,0.4784204210369534,0.7026620840113081,-0.077079610492394,-0.09050718418245174,0.22836547294722856,0.4495760972789553,-0.428408511880506,0.019882345868925778,-0.8362366389622404,-0.16225920542657674,-0.18490529530295288,0.17368421615198795,-0.30557234687610324,-0.1563146724080196,0.2645476519352641,-0.38010865271711336,0.27554391194590705,-0.0948172040047567,-0.029684943058028865,-0.18610085867025433,-0.8947429890972814,0.7642250132939056,0.26817212056721057,-0.20882127501379993,-0.04840411697943651,0.1449428160722548,-0.40090459156615893,-0.5097189926757469,-0.6150624266276364,0.15618308917504836,0.41814148471651386,0.33532714673147884,0.05419320938579543,0.5019327681943546,-0.498480479727591,0.22810946782120442,-0.28170172641504543,-0.3149824886508167,-0.6598897774751401,0.45129529033040566,-0.49706612266665784,-0.08541883910319711,0.14795890188642566,0.06919005966241361,0.6119242352425308,0.3868401929199607,0.19424434706973778,-0.30931217066806116,0.08805298600008737,0.8697065366003126,-0.009052281413105162,0.13566796242560575,0.24200034988039912,0.10120226054450435,-0.08171425662999797,-0.09367458747658189,-0.2090190247856849,-0.47268248078420305,-0.27472776022397866,0.09268070616494148,-0.6978666577364185,0.39594126866644497,-0.2646685462454869,-0.3261451528926412,0.17843783220840453,-0.3532855422738596,-0.1115211507824187,0.13458176032598235,0.722399218993831,-0.1965611102004475,-0.31878290252128827,-0.6200317420763215,0.06457920306622232,0.2362384760002067,0.036968438088119365,0.7562500741579055,0.09366434307547931,-0.7319147227541175,0.28196898841218354,-0.07155077319210347,-0.3610288232032547,-0.40569421031895647,-0.21821797857472877,-0.4221291613641927,-0.4022895622715842,0.2633664079384136,-0.9570918053055978,0.47102602231989166,0.22910645060463813,0.47745431414520684,-0.3125675664333979,-0.11861000078461913,0.061261438754125465,-0.13475739541257326,0.306410091963012,-0.2533342715128248,0.6774323721788987,-0.04752411108096246,-0.5997224862745452,-0.6212605050803344,0.12974568684466628,0.21117871517535017,1.2141281823251606,-0.13701187121682482,0.032495443378036476,-0.4951962904666098,-0.05746599738187051,0.05130134500798994,-0.08589553887190092,0.2899202705979492,0.9459283531993538,-0.3816300406202573,0.6882476471755716,0.2662227008390895,-0.43320096070669867,-0.5707749627880542,0.16152741170967072,-0.6084232025461452,-0.06472324413978361,-0.1847445831482807,0.23697529626925126,0.44707646652150385,-0.683374151426096,0.33204565830622473,0.3797124686176465,-0.07979908205768779,-0.9000032742576939,-0.14576631719885808,0.059471751588921026,0.6644849854799239,-0.013070600763660163,-0.6797305368618517,-0.03771868444140451,-0.25089351941603605,-0.20146241922350738,-0.014787989880024258,0.32959198966050024,0.08883581645207242,0.4012631432079582,-0.091927085641568,-0.05189524496270536,-0.04191304041648579,0.19309865569314608,0.2559689886203102,0.2599843482383258,-0.14803789726663222,-0.22417433461559333,-0.32773572369693516,-0.02062956317513689,0.2793581443974061,-0.12582925079775542,-0.7114090492550829,0.0863335971227558,0.08918449576721725,0.04991554743665846,-0.1247336298545324,0.4769430355185921,0.5013340073634943,0.37187923387768695,-0.14710931364589214,0.07542615666983414,0.19214561844686032,1.0022432819408822,0.50574323768209,-0.3604975671630993,0.526488224431606,0.09182045880934107,0.12056946903462368,-0.3114672158899172,0.07169500228945398,0.18370093705124693
0.1573714875293006,0.32008006113527127,-0.5137691802492325,0.06783367888163613,0.31518888986010074,0.10860111630878522,-0.045059055998719226,0.23157490850779647,-0.6141009277667907,0.037098794335919866,-0.17792331714332688,-0.5941766376096822,0.04972251986905694,0.41378033885957904,-0.1927013841279598,-0.7426819672902225,0.1395347918441104,0.14603260682712987,-0.17794119365863115,0.7070273104221717,0.20360684851677452,-0.23580225819654316,-0.6128072320034819,0.804894212668525,0.1831889802537768,-0.06970185166246472,0.06717249668289851,0.09031644709312062,-0.13289730810819658,0.5430096895831524,-0.657816399842368,0.08935406686277667,-0.017816146024524266,-0.020667259657980667,0.30659989504517476,-0.34078052373663664,-0.027961187934589855,-0.5248853096600914,0.1708150122498613,0.5877446638723596,0.847857242384792,0.3935603958160871,-0.42667219595408384,-0.3584378558762607,0.31163927867293095,0.242439900762577,0.04638955579540188,-0.3950718527643065,0.24550914276105454,0.2804428103569471,-0.9855674002244624,0.5138773519166541,0.17374717961566935,0.24969287140390534,-0.2209122634720044,0.054119662148674995,-0.07134472493211426,-0.2724502361039206,0.23411955436681156,-0.3805226380144639,-0.028755784750125187,-0.697522289394608,-0.19485120568174077,-0.6264452477004916,0.7445422750433204,0.301951214782643,0.46514586826662346,-0.18166660404543344,0.10265305654212734,0.05175822580191799,0.1758478505205318,-0.42826830922934944,-0.45799483356397164,-0.9959891059770455,-0.02866102201600758,0.12676603312972093,-0.5746079787786241,-0.6155703197610722,-0.19521197943946264,0.3214240557594418,0.5053032987237198,0.21576647761245935,-0.37482582821771215,0.0570894721806584,-0.023894590732002414,-0.5484014228457768,-0.030642074452359464,-0.13174385266280172,0.46624410306278075,0.5536835387593521,-0.2025007931924897,-0.17899942618234616,0.56399533605813,0.16771896658443,-0.2766247278185216,0.07427307324782366,-0.06934388564728829,-0.07464857082340542,0.11542142242036357,0.6153595606595835,0.03021521769989784,-0.22665966995951362,0.4527834768294293,0.8657535788349081,-0.5613627351868583,-0.22636026039194376,0.8095615243494135,-0.20445177814506607,-0.27209208197062945,-0.15106864494456532,-0.6898100261844982,0.23647531066321753,0.5725833898884113,0.22978645235439266,0.17138483398603754,-0.4554771185993325,0.4144071608706334,0.6439157435180249,-0.4768512564735235,0.3385484411486124,0.12254928152953551,0.07025019340464939,0.3009409018489556,-0.0026868666168124314,-0.5526578013060743,-0.20523364660908788,0.07049940380602555,-0.05895676391755744,-0.6302824843615354,-0.15526741866719249,-0.43481849450293314,-0.003638736141663292,0.11924242998077024,0.5211194258825252,-0.3010437566302862,0.588436050645202,-0.008936577449820597,-0.09083836986941594,-0.588903920500262,1.1052595124712847,0.2759390569460523,-0.6836868513405986,0.8815757997188095,0.0847133486240407,-0.3069436190253701,-0.7861907496260463,0.08636443919545987,0.0979882063555907,0.27215382692763285,-0.6631788253994025,-0.32441866230699923,0.0939898806646096,-0.36130554840131424,0.29721596170694636,-0.11420402921354864,-0.011483568721593958,-0.529413753713592,-0.5262516225572003,-0.2606290202813456,-0.7504765016278155,0.4926462749714632,-0.7190925002248629,-0.37839971124864485,-0.4301411434152907,-0.17924093659591614,-0.6649445452227154,0.40201175324130406,0.10582452343505365,0.17529241362314812,0.21770735027718305,0.8057677074029111,0.1999445174481689,-0.614285784857986,0.4091311791907154,0.1723300010159413,0.6158385871203234,0.046162779005378164,0.23953999443511167,-0.26573236280154433,0.5716485664948227,0.2728798101770293,-0.2907912095212745,-0.07771501819985549,-0.2784209438841331,0.40715572171244035,-0.2327441715152525,-0.549749787010163,-0.027850472138387934,0.04141160657494042,-0.130664083790325,0.9352581561563982,0.739861862580128,0.4482108606729065,0.8452414967855498,0.11050622069762171,-0.5626907842951373,0.1307835109362853,-0.010908091710236064,0.15765950381775645,0.04091235287239836,-0.1499971249613327,-0.15052158688298162,-0.41328455036510553,0.29936643821630304,0.4484126887893922,-0.07958079179834371,0.30847197982235686,0.19072757796964812,-0.14604956018245738,-0.2745226791058736,0.08585344218786772,-0.3642281267868068,0.4086003271883267,-0.5901865266959916,-0.10638159069146633,0.17803888977419177,-0.3721043917154517,0.36744011304563484,-0.4101978963241982,0.408943301433623,0.0679506521276863,-0.5260410914740747,0.41836531225598844,-0.06035656114473976,0.4979534094446105,0.40223446384922223,0.47466904264402177,-0.297284367381194,-0.12256118192510068,-0.3785632499602746,-0.17984734881214795,-0.5424902423541272,0.7667325041128229,0.3685759595482515,-0.1369482487056137,-0.013866113943418858,-0.19459401012007788,-0.30158384975176183,0.15948843862493628,-0.5846712517263863,-0.2957748943508703,-0.19873051892559584,-0.3351525510604908,-0.23406274627119136,-0.19698358097070098,0.3402306260338408,0.24238819985670945,-0.003984864930433098,-0.2097438029947069,-0.327652867967638,0.050291211218166404,-0.233052221897167,-0.08977254644559403,0.3971601500182608,-0.1675851549386754,-0.19821981659796498
-0.6223318569646026,-0.02776781702241907,-0.4051781824564797,-0.8090365320101099,-0.3768544679241714,-0.07551795315302404,-0.08242185676677566,0.6879286078334662,-0.048305562885264546,-0.22846610847621787,0.33827488545706635,0.2286338878904348,-0.6790782676051943,0.25551347791266543,-0.2697532093865439,0.22673801537177782,1.098506620202282,-0.002946825739714077,0.1414679876999249,0.45426830214230707,0.4850708120415159,0.579744365592089,0.13201843566868732,0.02448540026971994,-0.43092388750153493,-0.04281126711364835,-0.7538669758436617,0.45930197845332693,0.0673143161594002,0.3640275676992282,0.1285555305973034,-0.2299206936901316,-0.8048944988992907,-0.011145695929518832,-0.4474630899533486,-0.321539972649975,0.12505100302834887,0.1770260419180359,1.0234942845168726,-0.3805513800117933,0.4978505998161473,-0.2710713379832451,0.18659480309465443,0.35694565922989785,0.06538033932290829,-0.0997547317090778,0.07626338810463605,-0.40099929205351115,0.90408378266808,0.23387361784409677,0.16375816083386982,0.2564836419772646,1.4235662429413767,0.06991995409129588,-0.37636920547164404,-0.627086205988129,0.029776348623647437,0.037260322767042955,0.10988481312516533,-0.058172360089498484,-0.11413098951230052,-0.006883990087287115,0.10528620250506962,-0.23920418968109827,0.4901801310357603,0.40982110183094667,0.7559431273980756,0.22795765056852718,-0.17773642881242713,0.170422342338509,0.29500043155195416,0.0816265873737869,0.09364495897898462,-0.49611458195342734,0.10162807294660885,-0.80317283231178,0.2831053499216585,-0.25754029651176785,0.7007334697343098,0.07155944656217506,0.7379890145197865,0.023883645410985838,0.09186766898664908,0.18109297767685195,-0.11900494751720815,0.34111932748779444,0.5800337499889463,-0.029033603904813524,-0.3561113474014183,-0.7404132155370688,-0.13061395986076776,0.7340731787718592,-0.17345284396090319,-0.19972676812019502,0.091175377668798,-0.4644699835665118,0.44441917710057605,-0.18004301786693616,0.07152696532716402,0.1526941519047236,0.13560591257520044,0.5584358000852386,-0.8521827391932852,0.7182868809771847,0.013859930965598807,0.8050694643011768,-0.5825242474604161,0.2385635075364605,-0.3294255398993899,-0.179416102447286,0.29625117383661326,0.514424087097594,-0.2926513544743731,-0.010873928613373364,-0.12260545530320179,-0.4310565548580453,-0.12705551112664265,-0.19394292667138296,0.40934955809034324,0.20731538453722245,0.5933461968784368,0.41712601027322416,0.11955065945365428,-0.2373562736752152,-0.3209484927674421,0.2361134840631147,0.5960600190445864,0.12104004854596781,-0.43461583359790334,0.19323787361669456,-0.44359971096116285,0.26674105077929555,-0.0725004588116354,-0.05341290723755508,0.2223620191481303,-0.29384433546681266,0.03334212790004087,-0.021525095737693716,0.012776127282385929,0.3498680501149715,-0.6285076518585198,0.19436671397923758,-0.25850604253733916,-0.8954632941436628,0.27702999091812947,-0.31506026450547187,-0.12033509667197954,-0.28563821092306324,-0.008505822110991174,-0.37353166630605084,-0.507401604129418,-0.23454069124400406,0.41644161181366063,-0.5684107568206761,-0.06409501980823402,0.06779190060432698,-0.30624683642824085,-0.17767637936002642,-0.49626745341018536,-0.29639393387136337,0.2588004060284145,0.2105005961078648,0.26389756225167577,-0.1920208223128049,0.23365813665230178,0.5567978833211336,-0.11391398078427259,0.15936286520998408,0.28754249541074534,0.3602040052544792,0.39811059549005806,0.5851349363959759,0.453197358486959,-0.07843210078531243,-0.15535521411876035,-0.09784237190003402,0.2882715632628483,-0.9273639668167931,-0.6431751780776859,0.8793523043911163,-0.018438549416109222,0.45879017300265773,0.10549851724982852,-0.06268970762050227,-0.17886722334578115,0.35715529248849504,-0.3103867004028372,-0.18072513628151565,-0.7081975039999803,0.4543828795931157,-0.5224659403787539,0.594597810011499,-0.10260018171690659,0.08278003013961728,-0.0752839187595034,-0.18689809644341504,-0.041640347293996724,-0.3331473021240923,0.7743466160766194,0.006789595569617007,-0.24135731913257907,-0.06284221593682444,-0.3910896392812134,-0.14515931384493902,-0.19067829106646222,0.13367205392433237,-0.5921413082844637,-0.6661574316688331,-0.16355537308446558,0.26988476388275806,0.7410815990514674,0.17396459004115086,-0.2869436129740852,0.2452264448209586,0.1614957740243928,0.7001146772548245,0.2787403801114373,-0.045311831644647145,-0.35768072695928294,0.352831308360147,0.7766953830532721,0.3472242212735031,0.019747720685788613,0.09074395984118676,-0.42062364012698966,0.3841138005301457,0.010574995648996959,0.36716395971549654,0.4096373864385763,0.26234622008512265,0.00024336727020184376,0.22832060270610927,-0.2259660882204615,0.587400295821874,-0.26612884278145443,0.16231421906081767,-0.6288926603053423,-0.22816377400979732,0.1646390157023058,0.2600584863681495,-0.07473406524863786,-0.541473648448948,-0.40432742556867013,-0.5695624588945543,-0.5400860595817555,0.5998334555084559,-0.29778791537969523,-0.27421094985481753,0.6862995225774473,0.6147019931556502,0.09266133289204972,-0.29387099945048295,-0.25722973351073913,0.41044318315682554,-0.8777531136381513,0.11169120046086187
-0.5263972768940492,-0.0855192072813253,-0.17423440180982047,-0.06972865703982571,-0.14716170561168934,-0.14403520928078742,0.1302724125014404,0.5090315072228306,-0.1004951051598926,-0.0010355507102768296,-0.0019911217582906098,-0.1203032735672924,-0.06800003130249391,0.5590700814572727,-0.1292727598632836,0.34121132037695995,-0.01965814886961578,0.4201152535086211,-0.5304185458309244,-0.11381169523069909,-0.6123060226876959,0.07771945439945749,-0.5329404519666475,-0.48928068870163755,0.16157469264985216,0.09254915662862033,-0.20065516422122875,0.25226971385277286,0.39931854158162694,-0.5132204717938167,0.9243884199444736,-0.6004059302788987,-0.23671101054776725,0.7664342567021891,0.036224967038642523,0.8694973809767521,0.26143317161195045,-0.03946335086888675,0.7193854756656688,0.2609160477402929,0.17254245966907553,-0.6148792545674112,0.18130566597514952,0.07977128099624659,0.12507094042339661,0.27584110372464193,-0.22578869678854005,0.44069992354621146,0.18220389543171436,-0.6794429664921248,0.19410268823829416,-0.1788271278627158,1.0540038129886855,0.14188166541071948,-0.6322969921594874,-0.1457815703775513,-0.6768271864333154,0.2165420792843762,0.12444284560276242,0.04008768219003134,0.46294369301360083,0.11298878057178117,-0.3402233456354458,-0.9246645874143276,-0.013577219635015375,-0.05415244209385436,-0.21517318915959194,0.7918655098669618,0.19840950800523874,0.6192010770428193,-0.1056410407005693,-0.3667757021237933,0.23437561992757602,-0.14379688808107527,0.07875773855621457,-0.11664795280796733,0.07757437575108948,0.3388358404559059,-0.4164714714654021,0.16006048947101734,-0.7498991631186223,-0.6766421342875224,0.3779846376761406,0.3852606815846201,0.6416803654039952,0.31652061784089053,-0.3874167361729996,0.18791207920615435,0.06285270554461955,-0.1915695532464451,-0.6489093383506125,0.11827832959158019,-0.5016959115687056,1.0876629625265026,-0.05307409650749048,-0.030095504924809464,-0.13023820796086494,-0.05935344972947231,-0.22233721524228275,0.16393671047278247,0.8570827528507069,-0.17583876454079306,-0.5935485366710181,-0.1256627992503152,0.007016484065779998,0.1504758032226706,-0.6811616483380405,0.258153904790055,0.24362034747184527,-0.793603042531299,0.36445386948458947,-0.6866589540031612,-0.6482713075513055,-0.22428491911370568,0.7517524307121124,-0.24619009676915568,0.7768375377043176,-0.0474641799048878,-0.6395300658194516,-0.42601798765639837,-0.6682850439707013,-0.006146062564623884,0.41326111678592686,-0.36187232345835907,0.5008082434143823,-0.013310782713637217,0.2991873466705295,0.09797469224929807,-0.08208581458808312,-0.3868197702572793,-0.7095043597371751,-0.31110242004550737,-0.47684062919219544,0.30225818717817354,0.10951626330960941,0.09299085031492088,0.25441850437317437,-0.4475747110763679,-0.031448135988972066,-0.423603715142109,-0.4364334333875295,-0.09187492498152935,-0.46401590696175354,-0.6110357164401586,0.32243734494411125,-0.2094648716366803,0.4797151659303675,0.2156026838111574,0.7256837979240237,0.07182646016256132,0.45848391267541116,-0.1937878133652252,0.15482315380420242,0.4057581494028017,0.08677566014437488,0.07080483202213325,0.05370298459728182,-0.3396944530130021,0.20757746299414287,0.5302077288482253,0.03718586617005944,-0.056450173710209765,-0.5445503185333433,-0.3933909909274118,0.5215762205373953,0.24213868926270796,-0.6295320544737866,-0.2055377450792328,0.11792231096935406,-0.12855939549446552,-1.30092912907963,0.14435286136178968,0.3772565777727829,-0.272777148622877,0.23664116749770212,0.392621626128233,0.17209140037675852,-0.2498371073228932,0.13919677295286467,0.17722822811641806,0.14324864105042115,-0.1485638421149414,-0.5766219325370276,0.294885319353678,0.6137090134403766,-0.4503549516237111,0.5658070926636019,-0.3388658342015536,-0.07985272183970027,-0.1312026761402455,0.11858262193788945,0.5567824328102402,0.37454556559300917,-0.27139663178349394,0.17390335052988634,0.019404424680386993,-0.255213622768907,0.1619117189250203,-0.5511570441116533,-0.18709967336055347,-0.0937116006937027,-0.3015200413972399,0.5937266551156797,-0.1687147402265195,0.3042354333258045,-1.1086718219183485,-0.8192347371049441,0.572207666591353,1.2328489550666792,0.3783156310822462,0.10348692172760228,0.17261864248939954,-0.13426677889409216,0.491331535547396,-0.06974044853507395,-0.20602474570544266,-0.442124009444578,0.4435261018898045,0.15542066204708654,-0.32604872733057866,0.08523789470694232,0.2393707028269897,-0.3742891685702476,-0.6156523343206409,-0.3618073493828146,0.28801298119421515,-0.7702983780262793,-0.2588093415468764,-0.19240080999278125,0.23588947081929065,0.0391657579938253,-0.8978564664986912,0.08810469340174827,0.46800741661201656,0.2493174608506819,0.4113225084107328,0.10466496561016216,0.20244975975435567,0.01735844188698344,0.2474317895500799,-0.21577764252698783,-0.6964118061814063,-0.14579852462815898,0.14771594538028696,-0.7101579375832645,0.5146877840368651,0.28929001363959994,-0.47284042845448004,-0.5171165009496143,0.5588442879099054,-0.40556270246731124,0.1314360793617406,-0.12865405985965506,-0.5436590168229855,-0.06408196864200157,-0.3816020986236064

hidden1_to_hidden2:
0.9992880959813262,0.9959521855672147,0.9977818858756485,0.9982109978705667,0.9985690527798122,0.9994872518433191,0.9998573704978485,0.994677143358096,0.9986585865463133,0.9980918761953657,0.9973051221975274,0.9996085409664295,1.0007921360041936,0.9978735300841192,0.9963397055420491,0.9998253654954499,0.9925968565493808,0.9980680515433379,1.0,1.0,0.9985279474217255,0.9963669458393212,0.9988925959317897,1.0,0.9973776188523064,0.9991159438062568,0.9982311979184982,1.0,1.0008830859880553,0.9993156474478061,0.9967219989856488,1.0006061123951135,0.9975737319514306,0.9968167550232144,0.9951649722049974,0.9996814680365084,0.9963612313886344,0.9988234435070257,0.9974744232148328,0.9952099487719145,0.9962623256351111,0.9980147077340106,0.9984796796938272,0.9985714307969058,0.998022121398874,1.0,0.9974855998632068,1.0,1.0,0.9968977934669924,0.9981368075226499,0.9975939765054241,1.0,0.9985422663979413,0.999219704395029,0.9984632107915596,0.9977064247386103,1.0,0.9973532674875533,0.9969768815036739,0.997934866113718,0.997620680849997,0.9981495165634425,1.0003073563451352,0.9978778671801617,0.9973905408849453,0.9980969807393447,1.0,1.0,0.9984616973540521,0.9962966697488086,0.9984506538653465,0.9993257786763612,0.9931768610705612,1.0,0.9966511202160565,0.9953434384080286,0.9972941179639782,0.9997865438679651,0.9982366549800649,0.9983350058719163,0.9978211992631241,0.9950485963437212,0.9987691547569791,0.997574301254302,0.998634455504368,0.9989050205780756,0.9976977140374305,0.9991995581595005,1.0024663136398417,0.9960886630203152,1.000635695106367,0.9947982848702949,1.000094363390031,1.0009112550115322,0.9974298202922667,0.9970151659931554,0.9970721699686459,1.0007829004903301,1.0,0.9974670895044309,0.9990388241588276,1.0,1.0,0.9979434759205593,0.9954007466965927,0.9944312380143302,0.9997736261962785,0.9993101413155853,0.9965557200536949,0.9976021638423288,1.0,0.9985604519080102,0.9965380092508295,1.0,0.9976842021862885,0.9994949599480065,0.9954714690196895,1.0,0.999214949664251,0.9971080717507068,1.0,1.0,0.9972182926077038,0.9980605425647382,1.0,1.0,0.9940851236313902
0.08108220348205764,-0.05128286799075402,-0.16416059480328998,0.08766616674480503,0.052998875756536265,0.02018739837686672,-0.029359705912407403,0.06392415179265412,-0.08577372693389086,-0.07167220227536227,-0.0702295803746331,-0.1324882953150727,0.08516085045259968,-0.02323844889610385,-0.2080539034287139,0.08328835475218951,-0.04232996858903572,0.11491459138345557,-0.08885073536554378,-0.13908370375850887,0.09766069753168329,0.03454880323293792,-0.15740192223952493,-0.006300640327720301,-0.05058126504559704,0.2134020269996934,0.04679515487921783,-0.14549136988315853,0.027704492479224085,-0.04054091283782155,0.07338952949882831,-0.027701339589909037,0.157807210736735,-0.08451751925759947,0.12374485040759875,-0.11423531098938282,-0.053737311811679796,-0.16804850848216857,-0.025585845845641726,-0.07010317431193465,-0.06260712321424104,-0.04996822048396874,-0.15099207643071114,-0.1283138782699349,-0.09787749198728428,-0.04049999571646069,-0.018612488150792823,-0.023384902078813948,0.026118081245354308,-0.06030282049539786,0.12816475518964757,-0.012058259562265862,0.03733192182319868,0.023506349324397557,0.11099100653614379,-0.06555624057817293,0.01514422377219095,-0.06213865728835651,0.11194580440625976,-0.040157960718883334,-0.10361812938994368,-0.1344914247833481,-0.2442964313769131,-0.11162145137258678,-0.08763320955558279,-0.07869551237460706,-0.05080256318944352,0.047710008829480545,-0.0621500125181455,-0.004638115815608752,-0.16067585828789002,0.044783281072255786,-0.052489608609996706,-0.038862116098611406,-0.09041826248227836,-0.14917761580991737,0.1954941956478899,0.016688462083589158,-0.09581168985202312,-0.11121775883121965,-0.002215355708003221,0.21070335202790788,0.03617047571576858,-0.03170275883862186,-0.0886732618491147,0.10584031783536706,0.12816937386049213,-0.012648219645839698,-0.06231788250578216,0.17115390818926735,-0.043079107955681595,0.09925291012107668,-0.008599317853527069,-0.019234025314683025,0.1259721493823377,0.044775112604556626,-0.05695842061562681,0.029523034052977865,0.027530057884667985,-0.11901536431010712,0.1190110970284439,-0.017892986737275962,-0.05351991769810045,0.020440810474131505,-0.14895359934564129,0.06202941503524912,0.013244505236751358,-0.02797332143074114,-0.07750209396931655,-0.1363089658915149,-0.07580405232037833,-0.0024470972583054864,0.014886628198068769,-0.1718699668368445,0.016717760091028797,0.0609331020055871,-0.040967105785185136,-0.03270559021069618,0.020536327093660052,-0.14413035202623464,0.012630034030054861,-0.056994199333002066,0.024325092352649423,-0.08285540152300128,0.06703954620676533,0.1267786791321674,0.23975991395966345,-0.12879635119346794
0.13625754296022188,0.019433846913233008,-0.014327767940257754,-0.06835289874403348,-0.02351344034450804,0.06405688204980468,-0.054054478047586674,-0.04061788935586751,0.06478666106394186,-0.19588221387632432,0.09605898560478758,-0.011388365359945713,0.0757224251148101,0.06785282132504432,-0.11116291590780622,0.06230330660284643,-0.02962858840820057,0.034098495628950676,0.014852265286537289,0.11147285517344839,0.1745035809814113,-0.03844628038258225,0.09600472777011337,-0.12632689253218343,-0.08286726668730318,0.03149619227537441,-0.1083935204420651,-0.05588885762696347,-0.04287105122361176,-0.06986100575047265,0.032401663692203035,0.17594772029979586,-0.01246025356860313,-0.029086080726969676,-0.1408898294457378,-0.01904577339348632,0.04129793678987333,0.06017450992162504,0.03931097360237938,0.0858557327331909,0.1866541274141312,-0.0907117317335849,-0.030512241997909646,0.020705035705712232,-0.008634915507787508,-0.05603769627493474,-0.06967440904317208,0.04480490427228429,-0.0005828985910461395,0.049866836002370046,-0.0008735001904804374,0.04516938027859638,-0.008019324183151906,-0.19172834302577957,-0.10214386227645353,0.12196462020010378,0.03282202561605149,0.005510368832879944,-0.0822005090393247,0.005836906849127807,-0.005479622114738411,-0.13440074190318535,0.0039846759118813985,-0.11314744404442437,-0.03620531037743279,-0.0657536884650703,0.07896903956145827,-0.06903850292200367,0.006627423004181903,0.061739048326263236,0.06507365323978179,0.16556559871792095,0.03000605514996341,-0.029502161211339528,0.050461559258504214,-0.1041356691964597,-0.021375047501992893,-0.012481407846311503,-0.027505625570347036,0.011262101402603863,0.1470964208596021,0.05556191204303928,0.08547411189325263,0.05577571768044119,-0.013211459009735577,0.052099247680099416,0.04578601387748186,0.020128909635884245,-0.025983043368709623,0.02554161983957209,0.019222795706849212,0.09818056990019025,0.05803395299999913,0.13507885391436078,-0.03172579011883454,0.08688237950647844,0.058229905839904415,0.005732814598612671,0.06708558185014413,-0.14612829563720117,0.011199184828488995,-0.03609350690903849,-0.1322113647799354,0.036341135258279936,-0.04540313169069739,0.05370941371655866,-0.04166280962803267,-0.03044161791222016,0.04532771974122115,-0.03736249037416381,0.025430293531104018,0.0011951704077060473,0.07861829095312473,0.02829674803325696,0.04088942462469131,-0.2024097193249329,0.005443337419404097,0.08882044430398837,0.19973655502787094,-0.0010172392509967616,-0.05010799394679251,-0.009880593612525678,-0.05411218720889214,0.044837711931124055,0.028038312609739716,-0.05004095352678869,-0.04675443035990154,-0.027842202804071094
-0.06850367801175154,0.03788134704397826,0.03684208774899196,0.015402710083175798,-0.08653995415935285,0.013540694618922423,0.008611965540647696,-0.0008407145809353431,0.06103082521344025,-0.004036238505737232,-0.08297347481229667,0.21955135759800756,-0.12295409503281889,-0.1269890886490003,0.07445160581445091,-0.07832107322419139,0.003802500609752667,-0.13396134048317404,0.13958996194417436,0.02371932191497722,-0.18013119202207561,0.07992649209603236,-0.04463249560043079,-0.09075116536537371,-0.06683587445065267,-0.03752087598304196,0.051958951358797564,0.023910720814113707,-0.004741124489478325,0.062147006941075,0.09660341591381294,0.035552367171021025,0.07566728697547476,0.019807493195560757,-0.02770527218140654,-0.05434016056541199,-0.02500600905701353,-0.23208943726247666,0.040712477409473875,0.00477079036476976,0.15467498039595087,0.028723537564687582,0.06782541938705544,0.12097347304446963,-0.04899803481166416,-0.10183821362138953,0.19830542105447474,0.0034910844813997974,-0.1732596015924513,-0.10416272456453465,-0.06318607582597315,-0.08453345418806674,-0.10394785916971616,0.24578195091182983,-0.0013579062888481217,0.04443081553486793,0.016102148193498804,-0.1272975679142131,0.020536396862052542,0.007647206337978538,-0.06166726654335697,-0.05483600109038049,0.019369511885750642,-0.2314818371716183,0.02767719053629354,-0.036669253187978576,-0.002076721500947618,0.012858996152047794,-0.20172486422432948,-0.06733223953930498,0.09156210038507534,-0.15137791211355978,0.06840090304236968,0.012023390896790269,-0.04097632787646499,-0.1372648558490665,0.178964909069067,0.03543232002109098,0.12098135800526753,0.02401668893224744,0.0034476714959678,-0.17015789192411387,0.14301733496110677,-0.016184226882381945,-0.12023957901954836,0.07512379511784201,-0.16495128084368807,-0.03956960849784046,-9.793333131230874e-05,-0.02202367665372139,0.13021648156441476,0.058695197227134795,0.0592807671482758,0.015218630114221601,0.13520292232767975,-0.10771865151968928,0.10952454799629611,-0.05576130142748921,0.01159527896944131,0.09165800512771627,-0.035575513130415355,0.15583714727730102,-0.04719820465170358,0.03645422336442471,-0.017561351468049744,0.0002969471797812918,0.00017322480450446728,0.11102192169847845,0.0795787630065358,0.046826322815759006,-0.05239502856552214,-0.012026054288836909,-0.09412359947746173,-0.2125959387361297,-0.0823766096296691,0.10372298595489829,0.011539452171917574,0.06007705816805422,-0.17821034509069691,-0.17740898852735018,-0.0021154868537817425,-0.11547729268222214,0.08198880748816399,0.015617390763209692,0.024314641819761975,-0.06380204689802686,0.015707032745069908,0.15807399741854603
-0.03597923875912045,0.06404466172129887,0.06930760429568332,0.06173698284228106,-0.16369544562835867,-0.08716711056745553,-0.011936711100891785,-0.09782919933070547,0.15280934664704288,-0.006051378906695064,-0.07510668124950803,0.0009940906442373776,0.20440687138901567,0.07054935083389072,-0.07129576637930646,-0.03603096149434161,-0.11359097433205732,-0.014578673288244148,0.006763213351352822,0.10349817748342721,-0.01901693726615951,-0.07043501220597773,0.08685877653339664,-0.05325259610549616,0.08344906733233565,0.09356723754101107,-0.1815742786823108,-0.16376408508256635,0.05105004895644417,-0.042895298192830236,-0.1319633108934513,0.018703740363371746,0.08120968653391897,0.15196566243618642,0.009095690664022613,0.03828418662109204,0.034352682301242034,-0.021619664866643476,0.028080755816966275,-0.0222722080369819,-0.039059618299424455,-0.07683564205171463,0.025038956902033616,-0.06555044371550557,0.1095634809311288,-0.10006542731676299,-0.06944348003702148,-0.05404554944967191,-0.04795959886144755,0.0031728388978056665,-0.021141207307798872,-0.09353782982847819,0.14168260499219826,0.11441887982736572,0.01779552401300211,-0.061588228654809646,0.12169657450930142,0.07023339573102595,-0.05009485562559238,0.002083992770548651,-0.1326695768033474,-0.07649450454546664,0.00272342614924115,-0.004808757775227785,0.033912474346864764,0.03550509508046499,-0.08242074354269166,0.031691753398198116,-0.06842071392745759,-0.020807444377708553,-0.06145751643410177,0.02465181379699976,0.014919023764046739,-0.009713246047821141,-0.14787972326452897,-0.12167567800518428,-0.05547195662085732,0.022672835411769482,-0.09713772260361025,-0.004651742969796878,0.028370156813651258,-0.16910009932057238,0.0311380138365011,-0.08928850757504014,-0.019591868158639773,-0.045329322402839156,-0.08679534545255535,-0.06744378618600441,0.03774598834028788,0.057653498279925774,-0.03826469817827118,-0.010785135964938925,-0.04647625890916984,0.05196032545320959,0.09734188005337036,-0.017232081342338536,-0.004297806650116849,0.1333517338233283,-0.14799402099065057,-0.012320289815316746,0.011624015388895525,-0.21267528202553265,-0.019461111410587106,0.03597346552322498,-0.02655033899044841,-0.026248192409188045,0.05768750014412091,0.10665761151904239,-0.11942379263706156,0.10692788926909656,0.16009080174871776,-0.2524733078346367,0.09109205855476496,0.04306600753845057,-0.1530657651825915,-0.07381737892050705,-0.08318428726162216,0.16944765292686087,-0.1335322242808756,0.12140777657562438,-0.0037039280498556925,0.020836294069481204,-0.05780997498159339,0.15730101344262082,-0.06655688476426272,-0.1026981284082859,-0.03954557478586099,0.08039504676313329
0.05995335322563595,-0.07798917545605298,0.09079340591401057,-0.003197286660235373,0.1369530988345109,-0.02620622901605047,0.029374871170599476,-0.08587661964691419,0.034175266992886894,-0.07471046835903425,0.01399728825015118,-0.037434111376133436,-0.008199263010151985,-0.04095005866017527,0.11429349513646235,-0.039668573961739305,-0.002996129873896379,0.09925074426212017,0.025734760113433553,0.12078687785123043,0.019610777716033093,0.07991908456241863,-0.047426810937245434,0.09970056623696485,-0.04437049326741171,-0.061413163552028346,-0.09436236014892403,-0.053585426848047485,0.08321211508424149,-0.09963554306999267,0.08873573823222197,0.0631042832855305,-0.04350497483544511,-0.08183412755060092,-0.028771201527960626,-0.07786998903339841,0.1026155299252944,-0.0700312967663639,0.1574397954054492,0.10785059016754146,-0.024014171615528386,0.054916576549415744,-0.058380737158458165,-0.08754321566115762,-0.16309857284012147,-0.0032572680088062437,-0.0034862491878089,-0.052426867661123235,0.00035599754004244044,-0.015999375191107387,0.10210604721754889,0.04709851578947862,-0.01828716120594756,-0.17458514507053685,-0.026498214867585405,0.027199396453734558,0.019147194296896056,0.15040468411821092,-0.0371015584670204,-0.023497668832905095,-0.1392900151838641,-0.1649388109849375,-0.00048716198385780616,-0.060338740388521946,0.04652683451899816,-0.0005110694777329927,0.07693125705508191,-0.12070140179043418,-0.041889337790637686,-0.07388894562404551,-0.10895993214049557,-0.02350863995560394,0.07038430265804099,0.027808878406155414,-0.014431305533844137,0.01176192996904339,-0.037701941392071475,-0.08608274973772954,0.043960544925817746,0.04107339637630213,0.058545481303822824,-0.11072752138014957,0.03812182287413721,0.05470003325529509,-0.010854044542801162,-0.13274869545243168,0.16892155495939687,0.05569138213358877,-0.10588697201684065,0.19089360079174136,0.10108764568905984,0.005520413303506614,0.11274390405639753,0.10129178855525504,0.10041008908519235,-0.05960781896592608,0.03657846595537456,-0.1731539070892442,-0.024798429065324853,-0.06917062345035475,-0.016493147378373502,0.1564302662066061,-0.11174521297398984,-0.07745294908822292,0.0758777124012209,0.08256679910698754,0.26414826900292815,-0.05493186439589622,0.021161405441576086,0.05364435168053808,-0.11007417408462475,-0.18542108743629415,0.011483842917287547,0.026837607828125172,0.03679055332285374,0.09836576228331025,-0.007909959991932614,-0.0002486838934659211,0.09868900946329115,-0.0964945795741748,-0.04723485896080601,0.01724329917671621,0.0035600048830948987,0.06488316694102177,0.07423245116649282,0.15592905393579173,0.013039111256485521,0.03689689120245796
-0.04366429377959963,0.02507328218651177,-0.03862540179837169,-0.014052343693664131,-0.1305107798223608,0.08845144353049554,0.061834146704812264,0.054268680219964775,-0.030487444025144146,0.12372614864387631,-0.027238039086202835,-0.057172037692234466,0.03701446823118962,-0.20368106916347853,0.0448394228174049,-0.16227675965696733,0.06925182017520415,-0.07969166267500008,-0.023669069137494576,-0.07243192918875922,0.03749018405909132,0.03928689974430846,0.025720311757003227,0.03587730172185643,-0.10089678284685434,-0.1342550290174,0.22364454314884558,0.047268582845040125,0.06269377626116145,0.1898657085616446,0.09694157825641285,-0.05724949624006075,0.005390731916479615,-0.10084657295188408,-0.13197033424001148,-0.12212397292201374,0.10135014871246872,0.0013420213984320247,-0.058968567230063745,0.018981474011329814,0.04660391238152644,-0.13325188895290513,-0.029164391851550127,0.11300255304100404,-0.0008461924978594782,0.09769138840654007,-0.13650792589006536,0.02380935310925952,0.11916914473674879,-0.035596652592026976,-0.006129594336438196,-0.03111811887316344,0.047270872228812495,-0.07465712893959107,0.08763486900334592,-0.10774209067062446,0.12179567064308493,-0.00611586311037866,-0.161402513757659,0.06546358578433004,-0.04329446607279529,-0.15505314501223463,-0.00038150393578352223,0.0757564835972833,-0.003468380052262425,0.08321869815823013,-0.013993862298815204,-0.11838234042524313,0.07020047324534721,-0.15009955842587666,0.010426737089774322,-0.02120644190021166,0.07128015239971554,0.04093925004405126,-0.031487825073037205,0.0010506993135158424,-0.019152239983254334,-0.06312423266607334,0.21301039239694342,0.07821254238871696,-0.008343784997904792,-0.18301294463696247,0.015139525308384912,0.1389961289349712,0.0032773586038472888,-0.1081171225827775,0.048853157622455456,-0.04978542764358849,0.08246284220616819,0.05637048088914705,-0.043231858355675515,0.13098443649453262,-0.011182619744666627,-0.06039533999422053,-0.0068929434573889005,-0.10230851576638743,0.005607988177829841,0.00505396420227587,-0.1834260174046718,-0.017089044186738758,0.137380526885522,0.035405582492789626,0.08829366608045941,-0.028223257311656137,-0.10703294281315565,0.04886921498843027,-0.012460576207531663,-0.18422163773039735,0.09479369814513385,-0.01894500832726234,0.07064775504956101,0.06386692640951425,0.048178400525181915,-0.00991698387949363,-0.04488697257391457,-0.1564277243714634,-0.06519506526238479,-0.05602153159657695,0.027228499929706235,0.08138016714174082,0.01784295958746143,0.06979284438628898,-0.044260413115426105,0.060657017209621536,-0.01026048711453108,0.12983398446223865,-0.04766587096093858,0.042838391015246315
-0.05609138638477748,-0.04094511195043524,-0.2146029097213831,0.011717121689955761,-0.1241414613763462,0.04774026506738571,-0.06911546418411427,0.1696702287854556,0.11122783615816935,-0.13715961063673351,-0.14676176864655166,-0.12882997541649455,-0.020494152686359672,-0.06527485210129824,-0.04493229031691741,-0.06678418589162376,-0.00025115379723276684,-0.0019226394452713622,0.09494973441017175,-0.09192394470559595,-0.11157120158301544,-0.010382097584304025,0.11854446090183547,-0.12483213796811043,0.10703851867942026,-0.01931128875815821,-0.0308017743057405,0.03010284624496888,0.06585675856979246,-0.15197947099583456,-0.05251065464151297,0.03214491770129303,-0.08398753270438873,-0.020962245056158176,0.01597878387827825,-0.015137240868330877,-0.16652389159401326,0.041688741505744295,0.03698125603230582,0.05522078985081878,-0.061519648041754436,-0.0718751166166333,0.03494301341132769,-0.1440654021085528,0.004203688711444188,0.059073061278696215,0.004017130649896846,0.05038329088518844,-0.00447189697406704,0.027021871676842092,0.06293642263733847,0.0479363424051062,-0.03296036851791324,0.037184861194570755,0.010607929245941937,-0.17241280927379116,0.09316304748072618,-0.0586398226298852,-0.05080776287337789,0.12541559306611508,-0.03714701506799056,-0.15190599541601144,-0.10486838756613395,-0.028813896264953898,-0.08458875232817788,0.02748998770634297,0.048508683631841715,-0.03784825554585539,-0.08637591820083029,-0.028764520668418662,0.05356125420550818,0.07718675639300496,0.007418745714738513,-0.025064846995168588,-0.03533377878637845,0.10984061784411797,-0.05989824321673321,-0.05999827999194029,0.025834863621191285,-0.055387449273833746,-0.0688525717115092,0.11479484567709416,-0.1387637232099856,-0.049938473892698176,0.07177747629031907,0.09368441427669093,0.03800596728750043,0.11002869816505942,0.15501640513926085,-0.006654933972713007,0.015587538921723798,0.028088367738401874,-0.04584444711550417,-0.010301544271862072,0.016291015480990587,0.028060811142410765,0.05307757218376892,0.03401120620058753,0.02479738696228653,0.0037251866540990953,-0.0045508961502677536,-0.01164328802523537,-0.10451152988187525,-0.02478880375749974,0.15413584292629298,-0.03430795045555282,-0.04666145559013153,-0.025028395580557507,-0.008948310700149167,0.02615004152247638,-0.012360505383594443,0.14360771592054872,0.109322275497373,0.04850683946057965,-0.07918239654990758,-0.033511181308264665,-0.11245980131243605,-0.027934607872093748,-0.0077432901234574325,0.048269733093939934,0.04614166970694287,-0.04805121715120558,-0.03575922287114091,-0.04469064668788148,0.04577416880221466,0.02905396225983326,0.02609703520277466,-0.02401007761806278
0.001114691358747826,-0.011496872928753543,0.042108888301480026,-0.06789086903961565,-0.03143046717543093,-0.08530425535899445,0.16496129155325057,0.026117529718176456,0.07801096748020356,-0.03297214155180996,0.046390852996303765,-0.046574211709354385,0.1521858962865525,0.06755430592392328,0.18046011863289896,-0.03316813988813334,0.02930022883017956,-0.10796855918418682,0.04665706527398131,-0.00999010713203659,-0.03470879029454029,-0.10621011350218511,-0.10392427630674332,0.03308984526389324,0.03044552559943033,-0.05299935343024995,0.08661398478316183,-0.08251849683651145,0.024482677494462077,-0.0479719085879483,-0.12840090793082815,0.013575455044332923,-0.08949435037347563,0.023887375420615496,0.06121006557775566,0.036427699967773224,-0.04650102162225996,-0.10681955589300239,-0.06175153372163236,-0.021538417144975168,-0.11481163715779606,-0.02179415818089753,-0.12842998965912242,-0.13518352134710482,0.008757188941228886,-0.0813516795776543,-0.014489509626895412,0.006489498096470971,-0.012067641908509188,0.027827236196375553,-0.036114720917252104,0.09974534165530027,-0.030573084042663866,-0.12116766440151708,0.12567723226554298,-0.08813805635716687,0.007651275988563449,0.10651244779037292,0.004285961084133779,0.04899149047023393,0.07045762206979941,0.08133939204881628,0.010276616185005328,0.07538024709292139,0.005526497961122648,-0.0836399855539615,-0.11460292245683433,0.04420445704709584,-0.07996895454015247,-0.005144033874896109,-0.043093146398917814,-0.00803669919789775,0.14772882502931378,0.02854807696855064,0.14622249815596935,0.08458521284456556,-0.13510365792868964,-0.016066251627106762,0.12036911056145584,0.06659093782625684,0.060267694941311664,0.13534948858755982,-0.033181993025316846,0.021080990249329017,-0.07716628125097282,-0.03302833799560376,0.05414724593664255,-0.008648795950577194,0.005012729971068615,0.08289959988728471,0.0040000775197107,0.11434243001355146,-0.04258591666520832,0.0481418752860415,0.10840921683474963,0.14941611736158658,-0.22366498918029604,0.08144834918484788,0.0017704968861743141,-0.019033973765559768,-0.12151875636608939,0.01346245378335454,-0.062012857296983574,0.10155136983902083,-0.02653793811441687,0.11748015171952017,0.044947526603124274,0.07313655277706804,0.11379494552853908,0.10947433579263494,0.05867424949552051,0.05519759443402186,-0.019637990155244145,-0.09382729058459505,-0.06454528848408789,0.00846914538135775,0.0029252744601497766,0.0415337286614588,-0.08441372791142436,0.04785224197656507,0.1623822183640501,0.06258353439839752,-0.07754374848199558,0.032922164983456265,0.0299939607733673,-0.016476997260352896,0.12191519011358666,0.0577978880076786
-0.08575006016884565,0.118951857028287,-0.05518464143306729,0.0494421061536453,-0.1079058667687249,0.03769880661182225,0.23518537007469137,0.03724868415867459,0.11328174565837537,-0.1242429232946912,-0.041326105497602045,0.05052581194974724,-0.08729098600542783,0.0027121595852815385,-0.03964720116659893,0.12640094049810224,-0.10375800602793463,-0.20093214120893427,-0.07303972258308963,-0.060150623806619063,-0.05100634379458686,0.10097434730211792,-0.03495180910633091,-0.17713642045003455,0.07726098191859451,-0.14375802555098405,0.05244964538534004,0.07178751995995046,-0.06710702749976355,-0.05183165580911145,-0.04394938909902365,-0.13936164064559126,-0.036611045165558825,0.10988273924236554,-0.04368951637093041,-0.1745471308962504,0.006564753910095029,-0.0398456192085678,0.05641037419443873,-0.057290497059358875,0.050684692461650145,-0.10802018420458685,0.13644387455729773,-0.0007308011688891468,-0.19423243630433337,0.12024467526864398,-0.1574277325347031,0.022818747446608074,-5.395899760141525e-05,0.054017537929463295,0.022385734908906125,0.03167858040634986,-0.14445227117576703,0.02376392827038583,-0.0509292374509932,-0.1045714143880871,0.18895572192100407,0.11740953719423253,0.08208811134653152,-0.05215001546592367,-0.029427026601810208,-0.061875772454450875,-0.017889463910413184,-0.07439672803788694,-0.03538874711374445,0.11830277160531412,0.049530284696539265,-0.05735308084984399,-0.07433637578750729,0.10777047041978038,-0.028862946503392304,-0.00816033191042842,0.050262772362981455,0.014901430135305245,-0.013250724408694632,0.05038634897349358,-0.0065936044695563065,-0.004312369086358581,-0.014222893653279223,-0.15960221479649842,0.036877496881908944,0.14560675581439053,0.021769629040973477,0.03851042618431758,-0.021567636545684592,-0.01900164969357304,-0.06504376100156369,0.11136533476842488,-0.01450671045556232,-0.0223451587207591,-0.04833921704383859,0.10175197174206052,0.21940082414248124,-0.0029402562774750282,-0.02877744191314994,0.0032008324790424123,0.05168234982314471,-0.10585335119730457,-0.059178855649336906,-0.06304328416730827,-0.03906835398391498,0.0687722153676682,-0.107456749188635,-0.04303651761495285,-0.01560577513022091,0.00304719749958639,0.10977423790107521,0.09284122552426537,0.08067849693844803,0.029575801983290483,-0.0005084698852908611,-0.02956516386335977,-0.01202925682281007,0.141360676123069,0.0660928348413357,0.04561344966241396,0.038644037811836236,0.0994132056007947,-0.07050675668895874,0.024412280667418008,0.008232915572692697,-0.09388305487115409,0.050149409451706393,-0.045097089719176926,-0.02399331885810046,-0.12044966955120033,0.09348811558709501,0.11050511359813378
0.09209487971842603,-0.05584593946842288,-0.03271457824624176,-0.009908477601515111,-0.15222237188197224,0.06386485412862007,0.04629150424804939,0.1122325239733741,0.046969487092339966,0.21608088495110928,-0.023001858119830732,-0.014748297628634062,-0.02007945451540846,0.15545494203792976,0.033977763581360496,-0.11350245810153484,-0.08828174030470262,-0.11493702198753766,-0.12310755983145445,-0.013417382653050399,-0.22984165658458233,-0.13441638193881167,0.0732797576406853,-0.05587566048991276,-0.07758123555464454,0.06810449574832417,0.053871478560501194,-0.19882935507460867,0.05190108858112371,-0.013888132401535748,0.029678771463293358,-0.07387150304266299,0.08365563877199368,0.003892633310621166,0.008854993867789556,-0.1126087487227062,0.10010553243051268,0.027888100987042447,0.007265763121860513,-0.061763685496480154,0.05024842231426834,-0.14330718343512466,-0.06735309741358876,-0.11680967728696627,-0.13570837335564984,-0.039966909353815694,-0.18332169014525998,0.09623448831359435,-0.05163501997244823,-0.04805422234884625,0.11081460422699743,0.022998783670339383,-0.014053068425758743,0.05964016381300783,-0.07160495420221308,0.06133964182721736,-0.17314999655441277,0.08791679526184745,0.018828617134358117,0.05077199192590925,0.08151658944417106,-0.12576740031116343,0.03247027926929865,0.001207826926830182,0.060100544320277505,0.05262101568537095,-0.007366192204284553,0.04071040974056859,3.824803701582138e-05,0.04484074179677813,0.17449387952209017,-0.10673056883965616,-0.038534066092087364,0.011512869583408447,-0.04080919240759182,0.049259056539524504,0.03796198386136695,-0.13075448621372585,-0.09544392898540519,-0.025177748593823324,-0.04418436138428055,0.032605370482174226,-0.12752895985343063,-0.13306409044596076,0.08315291314261752,0.11730312083634033,0.04945687939990731,-0.055418104444663954,0.016204787093846033,-0.029859711136286955,0.07497072757078516,0.04449141201989312,-0.024398407548693168,-0.009910539611840023,-0.2497728706938129,0.04599760016844755,-0.03847909584706514,-0.058387073323716114,-0.061099159728487264,0.1406253983604511,-0.02850612569372938,0.109106548897736,-0.12308632912574552,0.0533209873262499,-0.008771904221175074,0.11365004248280884,0.0062142880558006056,-0.11145926459692436,-0.052334914852487646,0.11203566649895971,-0.053988778874348,0.006256626328179459,-0.054028584057734495,0.16857728238960928,0.09420327143634973,-0.00224853212284547,0.02208264761265515,-0.09635883914715754,0.007808310616773732,-0.06030116692950266,-0.16639052876571983,-0.1566354061492387,-0.06349139580848849,0.14333581727367128,0.10326634016352272,0.04409793443692505,-0.04875686938546095,0.029117642287864058
-0.12606800092048442,0.05677753813240849,0.03759402293107045,-0.03842990640803581,0.13939664679664102,0.15024997467541518,0.24730416021020168,-0.08232341337547842,0.015755986995213248,-0.07334670375851421,0.04060776983292295,0.09068224401959332,-0.037875891842640966,0.03121639486657831,0.17314368639158695,-0.004144698965087941,0.03730544270909642,-0.07835705599935534,0.13840342896657407,-0.045335131040382066,0.07654872396644873,-0.06519925068735768,-0.08010902170009367,-0.018724802490049756,0.09101132852819295,0.08750742640455768,-0.02697034561598601,-0.05120721055372999,-0.030643554931217922,0.11711941869329297,-0.1719039739454563,0.051191270012569456,0.009228738033525375,-0.08367865298635833,-5.5390203173339186e-05,-0.037302621035561465,-0.03804593781633688,0.052070577032269055,-0.04999208601651069,0.0419802158653926,0.09987046054612347,-0.14105066324355148,-0.028082915015420658,0.04209228936913513,-0.06232231149172549,0.12815812888806768,0.006973977679575762,0.008516547644610616,0.054559055907154555,0.05956798155410762,0.06897333025122723,0.06230963538930063,0.017987598743974,-0.0029453336327320244,-0.1916145159178533,0.03175433865979341,0.06920585709395836,-0.10939499320127734,-0.030397106906877195,-0.004386850373898696,-0.1581438787153528,-0.0321132715663127,-0.06533396127997393,0.06298246563842351,0.04525061160597223,0.02513705358892466,-0.032045985223112486,-0.029401941761585122,0.08669784749370377,-0.09050409875479726,0.004967874451173393,-0.05974296538367965,-0.023837342509954455,0.13784914694898465,-0.013635267542473217,-0.04664247297260454,0.08022654135263345,0.015282229126100326,-0.04416591885896466,-0.03718310586193481,0.031757766702297636,0.08791490486127711,0.06651508808923169,0.017992981300476177,0.03486519853694211,-0.04555093121043636,0.047485475566498986,-0.03478057185477471,-0.08493235417339012,-0.1598025017460433,0.14932177538551092,-0.23615739338989264,0.024703465943020267,-0.08865620227665849,-0.01189960451367609,0.1264459512979632,0.06521866915609875,0.15003993662203988,-0.11628444041232651,0.08258941918821161,-0.038125779931911706,-0.12870835891009735,-0.06452556161552349,0.11305158901329186,-0.14002649133852896,-0.02392597683873533,0.10286586010381385,0.007932852208282439,0.01240714683721469,0.007064175503238051,-0.16268989593219485,-0.015376322243256503,0.017899321848213308,0.025624746435705226,-0.04610520773091671,-0.019060903737409617,-0.002709948348204834,-0.1252081545742623,0.048813109212953884,0.061339833560012935,0.03768458573847777,-0.03829364820654016,-0.06300205440228318,0.1540517507727031,0.009562120905375268,-0.005805392770711757,0.09827381594412017,-0.19458997852656987
