input_to_hidden1:
0.9999536425519188,0.9999772590117718,0.9999450415907277,0.9999440498309091,0.9999386464312144,0.9999773068680684,0.9999418757128536,0.9999461883478223,0.9999652519489156,0.9999621858812958,0.9999561174434479,0.9999484312357512,0.9999471360611832,0.9999512535042437,0.9999569386771694,0.999956754767628,0.9999431625157381,0.9999480355093435,0.9999672541183199,0.9999403591914378,0.9999360982145765,0.9999618214436561,0.9999357444948895,0.9999580326699377,0.9999245585505606,0.9999419664048982,0.9999286461640982,0.9999501870531409,0.99995056624691,0.9999427639782715,0.999925970813702,0.9999672464135816,0.9999613586070273,0.9999231863677632,0.9999470171707507,0.9999681752682799,0.9999523253329973,0.9999487018849392,0.9999206997734901,0.9999526014133142,0.999936552273772,0.9999583247796259,0.9999303173863169,0.9999568326917144,0.9999194716479891,0.9999454423784523,0.9999460864420189,0.9999766672006086,0.9999737197144725,0.9999523526317682,0.9999456943500187,0.9999336809275831,0.9999421626150362,0.9999443256490597,0.9999471596527943,0.9999392769723285,0.9999571740199439,0.9999520799102948,0.9999492856366251,0.9999622362955622,0.9999466591093225,0.9999347139016043,0.9999435711535559,0.9999432825240236
-0.46028762311361304,0.13181237560871625,0.7868185734918833,1.355979837116467,0.1564755865653064,-0.046605119256922296,-0.5391857287573917,-0.3312784886822281,-0.2664615687239522,-0.27158613099815304,0.028049110716260567,0.48386397993705743,-0.6925403083634637,0.1806185495319357,-0.1944241108393644,0.3258681487113562,-0.5230776078334449,-0.4761088392012569,-0.13982133823333018,-0.3430048635849368,0.05884840366683783,-0.00974567103381606,0.09665562884151582,0.1688172482400735,0.3571146211099242,-0.28458939883075324,-0.1877204637926076,-0.398468690040948,0.31294237028853694,0.13387291620951025,-0.2413235360333669,0.22569763262458953,0.2796528715011135,-0.30610382799834546,0.16403936139731728,-0.2839370481605462,0.6750565965455313,0.5899994671733263,0.26097382172780104,0.0745183642554148,-0.05619064821145252,-0.5870141576988377,0.013279645859706613,-0.05192765704796688,0.31796285161274085,0.5890051986850195,-0.016808836818593444,0.1874032197906239,0.1997218045344411,-0.08765147576952324,-0.3576057609738151,0.29599451186284026,-0.3419840074536515,-0.043696155877497436,-0.017858846422633596,-0.20196770327918814,-0.25022503058082396,-0.22869850574959483,0.2834235348556004,-0.35073685974816665,0.6545201434888579,0.23680146258485998,-0.4185741962548896,0.5241350483062986
-0.06402513529623394,-0.9985611874171714,-0.5306682749315763,-0.12393820496478226,0.07761485528987772,0.5220770941889963,0.2590131592812026,0.10414291422382727,-0.8814547810200932,0.26198951155409433,-0.701914083957573,0.2182594152500853,-0.40727250203362686,-0.3935984799590827,-0.36976336550549543,-0.39234378789416996,0.05281459756481031,-0.03653026256842338,0.21054723553136231,-0.34342316117336974,0.19289629011510578,-0.014506621954921563,-0.05356711908789153,-0.1397648246451492,0.12522911571879192,0.5225385874893257,0.18672733585009432,0.07066575516278577,0.40711898831052384,-1.159526383291225,0.52203238617911,-0.5664358109851357,-0.34876490836306934,-0.0747967569713778,-0.36347429561569095,-0.2195421057501099,-0.04686074155197964,-0.2537555268960325,-0.28359345872770386,-0.646689163048107,0.20726133670510968,0.40678230796109266,0.46908322325207324,-0.4929879355980455,0.17963123930211158,-0.2730992988664309,0.15664576441618683,-0.016818362469163392,1.2285978594466012,-0.10414043364918953,-0.4376226434128862,-0.23556232130960322,0.1886016770035132,0.4917597475339624,-0.3396748953085024,0.09515334231415816,0.28153335078617514,0.05127579827977752,-0.4944940953651092,0.6319081454956698,-0.8458708891037866,-0.40180284887784457,0.3788717198899665,-0.0998909979587321
-0.018803061835359285,-0.1489390909780697,0.3070650379164198,0.5371940662188319,-0.10559714818742257,0.363513467421352,-0.32153286972227824,-0.041696017154251364,-0.2279081877897211,-0.6133866437423311,0.06447734412429684,0.6564888640591203,0.11791250390680093,0.050984824731925664,0.15252218121600616,-0.7153732079931878,0.9046582880878308,-0.5115302183703684,-0.6277027011323536,-0.45813135025932444,0.24916171084086333,-0.018965539146017847,0.10476770325897765,0.5747401737003178,-0.26876176363793974,0.3428665962292688,-0.5611290405455026,0.6476731200698856,-0.094687937346352,-0.4470006344211998,-0.3128443878500009,0.03291177050426492,-0.38509625510433865,0.22987616877571385,-1.0341997327960442,-0.06055431404996711,-0.09604606093582096,0.1404848536577488,-0.41550805930219625,-0.3473944146388558,-0.05285856341156821,-0.7308742410179342,0.22271776959002557,-0.28369536999553746,0.43275826915918286,0.1246940955742986,-0.12101435699832198,0.16279593751134636,-0.23872867815558352,-0.2671320385163907,0.02151309298255568,0.7566879312967826,-0.22644330931336876,0.18118555427090285,0.011391243519645683,0.29437182507062526,-0.3384947449348573,-0.27560165657048763,0.06603415175101753,0.20667452486384744,0.37185602543292173,0.1649858618133228,0.17363201015567273,-1.0550157923548724
0.09560752589159732,0.1881513168010016,0.39160220134389306,-0.24157422917114585,-0.4288607075520526,0.5276582235020344,-0.004328458231406337,-0.030206537954964013,-0.3463930561439858,0.00668435092711886,0.4284996810877766,0.35284131100786775,-0.5962027385558539,-0.4050003549073066,-0.04911394187370091,0.4806229938911209,0.004249264646959909,0.29159789645168555,-0.944437906329001,0.4218572983286663,-0.002942518023685135,0.280050054590427,0.25775883336926825,-0.33540367603081034,-0.4182334800482326,-0.46594387681330546,0.02381333159366524,-0.3689812898945623,-0.24417351855775826,0.3668587889831894,-0.018886377938474374,-0.2719942233708141,0.4264907215648545,-0.401152165580273,-0.6406274617660611,-0.10743488656214556,-0.5705300885514046,-0.16621591273881833,0.40735362817169357,-0.787118593606251,0.15111530271871965,0.014617784928427028,0.11950075796487065,-0.05385310101648583,-0.2563144137499644,-0.16874961920568773,0.2628938566123052,0.1107338832984814,-0.024841462970228163,-0.2834055407348924,-0.4684285277701621,0.12436776249554642,-0.004769762895590882,-0.00517303317479557,0.6369239039659702,-0.33611368500286193,0.38242639995395783,0.0532498833005062,-0.022952333025949217,0.09751875158136834,0.5022396021947805,-0.06453325200073026,0.5060128436610849,0.015656196156852636
0.018600961161138106,-0.18425056652047855,-0.19227869483343868,0.15558727795978677,0.5783933974423351,0.18737637702433263,-0.15387307188656418,-0.35285538944122824,0.22514507040310403,-0.2812943749651108,0.39240026807894907,-0.8508822038536721,0.4421424137763198,0.38992818704276144,0.10157904101535538,-0.3631848089754724,-0.5398603018748321,-0.3753155436646605,-0.07314779925760714,-0.23924951292847968,-0.4179779840597814,-0.9901964014944163,-0.061648631075300345,-0.07941022175361047,-0.17029611665027813,-0.2945784241310916,0.11164015675901862,0.22965576680555067,-0.6682066097171804,-0.21308755899063275,-0.01613927537897593,-0.36534652257561545,0.4583810265766185,-0.02599092392171953,-0.5069994967278597,0.2442565988652268,0.018405330531328933,-0.07167070659822042,-0.44085093187262453,0.3726571937864342,0.3546988849593351,-0.7608256570317039,0.10788693426894136,-0.003691269739492957,-0.41207465286820544,0.2959458536583853,-0.03932385264320833,-0.371415240221296,-0.2481794738387217,-0.1779811580503824,-0.38898237108312933,-0.09140807269210947,0.26912267686464886,0.5093568757325221,-0.28391566407432034,-0.7392324467434623,-0.18885954501160412,0.6320592846126011,0.3006129865650261,0.4810122563566828,0.8697027912421073,-0.10422116345253077,0.32714626998613205,-0.5970741493359248
0.28919887768530295,0.30572177966871117,0.07180329984530565,0.0769040444533182,0.10488850566488152,-0.32637634270935806,-0.6385422873408938,0.09901689100250505,0.697853233409174,0.17736309758905874,0.1383745591860737,0.26366613578881026,0.3788986131615606,0.06856133586178643,0.1463554489355071,0.14280999219592116,0.7466950575979139,0.25304234351301724,-0.34923788921416477,0.5212028660823026,0.19821537836000405,-0.07893060162854788,0.08339705858771593,-0.6379985662853678,0.7231850825624857,0.1043807209859564,-0.5167639151666679,0.3586278732790877,0.3875714999591456,0.23370808207857416,-0.6574628274437346,-0.2429465188681717,0.028964483190812632,0.10553635314262991,-0.3234972577806079,-0.25337549150135436,-0.020232326085456706,0.015404283685377872,0.2570211545762329,-0.24866377198772305,-0.1358551083631051,-0.009232963062991865,0.4147052590665006,-0.31113296761510745,0.39040606131673283,0.24103357069659592,0.17364851367868533,-0.15928012677155953,-0.4500001316418651,-0.21930659046238238,0.8550210319325178,0.12234674273608115,-0.24123199127911316,0.5699030091467531,0.1676230436247188,0.540261067654565,0.10908303898041055,0.1989022345976049,0.3040609509412742,-0.26507591194762936,-0.22954510970569758,0.003954967527448349,-0.44037730895147426,-0.3179839415601394
-0.3036442980873125,0.08548062839682077,-0.5883175894681321,0.101886579772346,-0.1958276903958242,0.2603619944777768,-0.4161606563511009,-0.450623915237576,-0.39444238380778773,-0.16893868040849652,-0.5577592724779634,-0.6223569654500527,0.5063665252613374,-0.03686271411449831,-0.14599259284348828,-0.03728802952167949,-0.09834523533160254,-0.9289395637643088,0.36565104976160484,0.14880480721778575,-0.3666068143164515,-0.4808345307608493,-0.32235438953796147,0.4110499127178672,-0.28274629778064014,-0.2273641861558344,-0.1277643185851469,0.3556036408408963,-0.7074186048592631,-0.14151010019556712,-0.4001631778988155,-0.37651918353485486,0.19660342628313815,0.07674993684892528,-0.3772485424926304,0.23019426610844188,0.27928871073634903,0.11098070562848716,-0.1116451170715415,-0.33784347911612483,0.06285300679666023,0.3222260708831666,-0.17875114231721195,-0.27233750215459135,-0.7015547603082877,-0.20515591860825336,0.03692540850155411,-0.20216841737224878,0.5546263592306379,0.5427727181828452,-0.26413182159461884,-0.12192944411425209,0.36867029939808005,0.20884550609876715,0.1917347590683658,0.018523132863373364,0.2811342474808039,0.30975198063111814,-0.20907571633405436,0.6192549304094277,-0.4194289728006028,-0.28546810850315313,-0.3629703143117444,0.15011364382716913
0.55099547242467,-0.03748996024416563,-0.07627525698546907,-0.7351399823561479,-0.07539631330267199,0.15625155186892123,0.06405387629529179,0.5061175947729349,0.6891482459756597,0.38684756748323584,-0.08830126638751568,0.30633148547237743,-0.09917112390650577,0.19392636932139476,0.2880495795516482,0.17038903551838608,0.010594468764266668,-0.3153139724843217,0.581208431913915,-0.11449323233617212,0.3815883046892778,-0.7084691160388705,-1.0688519974968482,0.18301704105570668,-0.24019764939520183,0.8406850915048861,-0.27144337210916186,0.34150778403306736,0.7362042698991814,0.24873864188691439,-0.3611617697183084,-0.07363817160489715,-0.2644555166409738,-0.033074687017243046,-0.006580036341469183,0.059513276375337404,0.20064493743165096,0.6041193605203589,0.2458331185470957,0.31992470388163136,0.1334466759897693,0.06732333655052056,0.1215240570782595,0.24195128084711595,0.380032999388465,-0.07219082425542932,-0.4030169403185252,0.6183442823503769,-0.46953466393277415,-0.018234226118051457,-0.2869201848144648,-0.018213688370176284,0.4475205289912173,0.5774976202449783,-0.1717913360410568,0.3539375956598628,-0.5811988267729289,0.19519706979864382,0.6268770898925747,0.2941504472766399,0.4067931274440049,0.3823316396951309,-0.6301745604729524,0.05690001393887387
0.46834863193048354,0.3051538724465271,-0.06542957197898545,-0.3876482923454384,-0.046328179136448974,0.042523267022311254,0.2647086579863366,-0.09274657387234644,0.3088031641102032,-0.5319706287173103,0.32202391624343857,0.28696651834005965,0.21599456575548187,0.2648252481964162,0.22127408631715884,0.27086114839478803,0.19647156243261416,-0.5913992160142928,-0.5461533354521129,-0.6554602070070327,0.21915052391959652,0.8039287806659913,0.2683239588914134,0.09695229276000122,1.2053473568019555,-0.09762445723836771,0.08943837286184937,0.09455044100303062,-0.27778352275567486,0.17595350052397674,-0.0687122388758606,0.4319677712986478,-0.10562172033940076,0.056044630918010846,-0.32039536778499106,0.009682934736485597,-0.03643762633112441,0.22847009401625573,0.14058165075890244,0.4000096576490334,0.5627168007331529,-0.49137333550522355,-0.2033061955213835,0.009778010742978004,0.6254729633990409,-0.6082949303094541,0.058900200935291386,0.19474670093594343,-0.018504404548023694,0.10975633809418818,0.27867135268698096,0.0793628990232267,-0.0776914838700653,-0.506823742543196,0.013650417972349225,0.9228307591556121,0.10003592584707448,-0.7643012796384451,0.15421212101107834,-0.533396999897893,0.3245886560135163,-0.01805596607673878,0.08809087674965316,-0.4162738151130907
0.19420611479246697,-0.22002960429217897,0.10209338547094647,0.10587770237923011,0.012604919937964011,0.15539602271249403,-0.46770327602810324,-0.1781557550900258,0.6439079786664597,0.12306722730000287,0.23219853348983024,-0.5682442508412201,0.04563616665237008,-0.10182522680399157,0.5180718899286095,-0.10196008534888247,0.18323465980918446,-0.09480068899157365,0.10288707869755534,0.5200677461296993,0.005805370327281337,0.2491145274699989,-0.16047067336874976,0.21873002718426118,-0.11419325000539782,-0.2229913468739803,-0.11194319577017062,0.03129483606610719,0.3820534436746461,-1.0321040077688504,-0.17728866195435503,0.20446017895925012,0.00318811398685001,-0.02467541352375906,-0.663224706762077,-0.08707145248540481,-0.23710590387304495,0.03783121679640728,0.9965273847888195,1.025755976592499,0.14913548042709482,-0.32405933529138764,-0.004628425736350765,0.15146312945180274,0.4306183862625497,1.301943511947908,0.31106201835689373,-0.23484068228054655,-0.5764346310528337,0.19553322459976555,-0.25223885086385484,0.11646311841598012,0.8436102696118841,0.19739210214383351,0.3324899603499249,-0.688807628437191,0.41359823487515873,0.23354858206924556,0.7765452560381818,-0.08655937405423474,0.25405351082352867,-0.4049289285649517,0.4446959800069764,-0.530201124427328
0.22579345109558732,0.010654924817376317,-0.021168880846198317,-0.2591680354795022,0.15771410782722764,0.5335099626757736,-0.16120009897741747,-0.4696664286695205,0.7675507854856055,-0.49832270774949244,-0.1508159059939015,-0.15789792357744278,-0.2013265105131001,0.2729561277867047,0.26503773954569115,0.2171735979516115,-0.1856920049336896,-0.4261321584550233,-0.34650360201398583,0.24630179581807207,0.3518713502530227,-0.137107232899337,0.12075869433489547,0.30334095758591556,0.2206308842402823,-0.20489012821907598,-0.8730746758044586,-0.060199167334244214,-0.4433861668938231,-0.0641040051417358,-0.029516127646743166,-0.18441853639947223,0.2142583365928296,-0.42312726845454174,0.017490491570977325,0.03337293818856499,-0.0967145073392874,-0.5762850295913398,0.13301688599846048,-0.3493098162332924,0.03538630070531467,-0.07060027168207428,-0.26145686321420886,-0.10306471062677604,0.111646305474632,-0.1586209057064864,0.14451200406756587,-0.3047145938610092,0.1838069221093751,0.28842607821540295,-0.429721972737171,0.6844787121469911,-0.4299119464057386,-0.07384533200362126,-0.26233674054381756,0.2719706579835436,-0.37924602914270633,0.20341555360830277,0.35241021109053233,0.1647768824055602,-0.1515204461188728,0.341456217219708,0.2772221854945885,-1.0105535649079331
1.1789378993944295,-0.28015420187258694,0.09347695183780277,0.016678448261139917,0.2712860550110734,-0.07645318955898012,-0.12253058748454922,-0.5048132307603941,-0.8022603675896496,-0.17589641478061976,0.40885584706908634,-0.34530671161042614,0.27467245199555124,0.3601960371105711,-0.01961726832156146,0.6518698445644624,0.3630021895806114,0.43427010265551835,-0.1763271071718354,-0.017425431424888213,-0.4299853779881422,0.0013048687816057374,-0.07153517515925298,0.06567647187033805,-0.004742054881901874,0.4817461273324797,-0.16799493473634414,0.37785367121842545,-0.699482899649131,-0.0385937287357107,0.02649767266871164,0.49858341956093966,-0.19134544910707416,0.5555417060725354,0.5106025625396666,0.4417915986748921,-0.20224265756217466,0.3260793961694917,-0.28217192030083144,0.14411057081799827,-0.3981926044277824,0.20820978406337035,0.09750596967815098,-0.02586681109788224,0.18441938402524086,-0.26974532451348865,0.8706869419684617,0.4167094760760597,-0.4031664541094267,-0.7152161649289713,-0.0462612993327296,-0.2205376508536387,0.5715137833736214,-0.1955943701463693,0.017856313779324545,0.18192133914866973,-0.8977081082843376,0.24348687987526185,0.2876451278017352,0.9395420837406787,0.3523189842366187,-0.008222397579702268,-0.5659366924299779,0.5148760775474994
0.14022667059611854,0.09521806493745903,0.46860575620723827,-0.014617848012457685,0.042641402478445604,0.26685601207095383,-0.010412117986317745,-0.30764169777850664,-0.3916421915692118,0.22219836893734352,-0.9615364475485495,-0.31822761588114307,0.12017288006991833,-0.7673590408160914,0.14505592005307424,-0.14400270677887214,-0.551783641470127,-0.14481125494095456,-0.34723751682505033,-0.528608454253313,-0.6708657236562834,-0.33728476102583044,0.9706300158639201,0.2184963684361112,-0.23776210643697618,0.15775870751003152,0.5997694337299536,0.15460649534513504,-0.05647255565743062,0.800098119680831,0.19777338234288058,0.04781454143696506,-0.4531473072766524,-0.5332376810204205,1.3196482579492026,-0.6908596814765898,-0.20799776746373472,0.5656802857593908,0.4658449918880319,0.1861551523182767,-0.017271030397373512,-0.0005920926222676948,-0.16179055227837824,0.073310344166909,-0.02621483344045296,-0.060240628705249946,-0.008894191084686072,0.26601943653694543,-0.5825462956178136,-0.30025723966929246,-0.44749606478038384,-0.032635196720353685,-0.44754302943630425,-0.3067045709492805,0.5898677373065399,-0.1700717406081936,0.2107326635757661,-0.1114951456305418,-0.11692587045105923,0.2927671598388788,0.22435045958956626,0.03328686246675276,0.15576765097163284,0.31130156069086107

hidden1_to_hidden2:
0.9999490387179626,0.9999480440695063,0.9999487723860111,0.9999367237952217,0.9999410019066769,0.9999546062972694,0.9999664391397616,0.9999491300528339,0.9999518273802549,0.9999405004558563,0.999940851423846,0.9999494603161753,0.9999359799400823,0.9999472980955308,0.999939836139412,0.9999241066698977,0.9999497982226233,0.9999473394014032,0.99994095698693,0.9999454025631964,0.9999492388805408,1.0000018354593656,0.9999208490770993,0.9999366196652116,0.9999517030293864,0.9999340338857966,0.9999678440907187,0.9999627837881032,0.999944396127934,0.9999425877953192,0.9999509747176863,0.9999347590490748
0.029215870360591943,-0.19770891794801557,0.003318350024583107,-0.08243876538300132,0.29251889825796124,-0.2058499703531613,0.2788443879898239,-0.029407117462341276,-0.4537080052311402,0.003761878050642322,-0.3598030620338539,0.06096227211682782,-0.24092756368021215,0.16367710128343615,-0.34100891311631415,0.029042378261763393,-0.06497823440451622,-0.16923094748568865,-0.09855572079074737,-0.18025246598827108,0.017543924233652166,0.15402490151081757,0.24344003228189387,0.2732027773066446,0.2748390441620932,0.2662783277776996,-0.08949042445581866,-0.06188817526453732,0.13044881927972096,0.0764391036552057,0.10094562322904653,-0.07166443662916873
0.18137893148080056,0.17790327947994633,-0.0449402198103274,-0.12916045473011498,0.16646620088967243,0.0967136376868697,0.276306631108578,0.3682195990821404,0.19750708445198556,0.1596770329455293,-0.02173882578331891,0.17099994897819065,0.1336224631954565,-0.151219354359256,-0.1874792268165174,-0.011725700529836708,0.15452860878959296,-0.06611058762653096,0.13608987144017748,0.04810310246664169,0.0911108509326897,0.35699007539675176,-0.4192839606907604,0.735300768630901,0.022413671070630723,0.007287080342753652,0.060218061552465736,0.373757888795514,0.08435210087316797,-0.0331409934877963,9.29885447935161e-05,0.10619693256655278
0.11933282340772856,-0.21989416244440518,0.12480992310982673,0.08984751373907623,0.011403866140967582,0.0022348804092799162,0.3799319408024111,-0.10187054354661479,0.1266460859127608,0.0019005048945311565,0.4285046988897555,-0.08591917900653002,0.2127125870481153,0.06547928161763718,0.037243217172442236,0.28033017513304037,0.030016503145400608,0.048789839019804306,0.2079568012598836,0.04071940110836216,-0.22568000415945624,0.14530146500278607,0.07869208683694165,-0.10398463551797882,-0.06347327245906424,0.09286942561445032,0.14644632128263357,0.005466219547063581,0.3995767933643404,-0.18283572867413384,-0.05370863466834868,0.03026423509195861
0.130821133156473,-0.1262652381158206,0.08668079405272391,0.09289693491639948,0.20381240183592006,-0.19537079094685045,-0.0830121225069039,-0.16724754125716662,-0.20829861230933008,0.4045799664872221,0.09058090740476361,-0.3550937244666332,-0.14622726695639887,-0.08833871931482815,0.2175929330128829,0.09002650659524761,0.2334316143488906,0.08163804178499817,0.30276299582950084,-0.1495113921730549,0.07487354313644651,-0.15803543279121776,-0.10035233064479764,-0.0422984794123349,-0.37368480460733766,-0.05728758353429361,0.3324318998458751,0.040488124241893846,-0.4284322501140355,0.026151086280748515,-0.17440732495670655,-0.30479740243677156
0.0905550969797341,0.1431493461635764,0.1951890581977323,-0.2519570664226599,0.21662430680002287,-0.1929771850293647,-0.23753472651703345,-0.07196654623196583,0.15959598382317164,-0.017818725299485454,0.06674259590207364,-0.0903993026709618,-0.15639511909066436,0.18370527971474213,0.14485202661935492,-0.15543981856179354,-0.12712788747177192,0.3398160939513736,-0.11817039494402069,-0.11434612524084137,0.1911763503758222,-0.18609594072370103,-0.08654206772702117,-0.05066920020923867,-0.03322285346196788,0.06928736489599373,0.12179724078884221,-0.21257835554397245,0.004390906965852781,-0.01671124468825914,0.0005280598438689038,0.26738189458543965
0.11763243704659011,0.059877626752281594,0.029514567220017912,-0.1481788133558084,0.1569782232265696,0.1346956539485775,0.09135590285353799,-0.010890301258244786,-0.07589230676057852,-0.21666914704616497,-0.15811343450453538,-0.10365774079555584,-0.09764445440661013,-0.20349801498841733,-0.04077059147627816,0.22535974932111075,-0.09668601648924816,0.12491129326218112,-0.1343914679909528,-0.15408028246833952,0.043756227190480085,0.22432682926074565,0.0017626362210789673,-0.21596060655252436,0.20128252734348465,-0.2140112991442626,0.1299866266668147,0.04505224122414881,0.2758831123322276,-0.016968387875714436,-0.2167520980506708,-0.2562191206042733
0.2803466534819222,-0.2637525459736587,-0.06759986907744947,0.2165909655405954,-0.031927508080501876,-0.045684597773944624,-0.17745063530837663,-0.37656209518737943,-0.06846714663571347,-0.03516186473788149,-0.4168262337307475,0.2181724400045849,0.061459008145127274,-0.21455679094630045,0.12680447445273588,0.34249128006182644,-0.28969783964768075,-0.08875056624129753,0.07379039370649734,0.15841601743182473,0.18534028127322968,0.04017467143521596,-0.003934588641582352,0.03604183605338913,0.03313126818802356,0.03157380398702804,-0.2158540855761622,0.3269775628600003,-0.29236412289804603,-0.06556664876616755,0.07332696122387228,-0.055099091014919305
-0.19539014213168626,0.1265335680844095,0.06733000923029671,0.10203956935454804,-0.2998392758946319,-0.11377658510148207,-0.26200951296709973,-0.023489340219510317,0.076634063380976,0.012142090667182224,-0.19322760650942963,-0.041589541109951535,-0.2947209648310878,0.027841042725689172,-0.10790221002486476,0.05298441946967265,-0.028093761116935276,-0.29855395769255605,0.17775770553197154,0.19342659336528728,-0.05594484952417085,-0.269671681516764,-0.07432956769486107,-0.18558154654676795,-0.03878273722362443,-0.011167915906223628,-0.03015454813497692,0.06952086407810355,-0.011243327236956625,0.16044038512784742,0.08650030465364578,0.054092936747127965
-0.15698689947510744,0.06852591555672188,0.06120006408466954,-0.11408448793161309,-0.12766532286413515,-0.1114768422793214,-0.4219102651615533,-0.10672844784401235,-0.2976291787740365,0.1410732371934193,-0.21335895327903823,0.011004549294655826,-0.14675893359990552,0.10136909722454171,-0.05682937156263174,-0.285889150919523,-0.11560602068713953,-0.13241494557060696,0.002688684964205526,0.3534222047706253,0.07798816818452119,0.2727452127780523,-0.14996303711577771,-0.18920787402367242,-0.27186400586925663,0.10309672033477045,-0.11512935478214867,0.0020185114039237228,-0.04853191574986752,-0.25169577336106436,0.03748789784845066,0.254029518871416
-0.5026150952889265,-0.08007839001318115,0.05257426106516887,-0.44284054636408626,-0.037116926085994734,0.16256894241018144,0.29327451239361746,-0.12402136626542894,-0.1304138727692688,0.31849642438428216,-0.22616954309044157,-0.08111279571546293,-0.27856792601349,0.1083154746095802,0.12526185129506365,-0.015254901830274734,0.24536589646737894,-0.18136930423270498,-0.01409296048890938,0.29730413214393675,0.27514347298329056,-0.06728324057559619,-0.310089483087406,0.04332601131558041,0.10969651609072259,-0.10094535760711852,-0.009869695068984666,0.04140989021427452,-0.18775146746181853,0.33961143054748866,-0.33591596561249026,0.18563062682430917
-0.05327812845875041,0.46714475779463094,-0.03695447233366236,0.27003748803414207,-0.2664044745145512,0.05792246160097597,0.19294081978510635,0.2738149913010444,0.11894030333484015,-0.12113832823552038,0.17045017806516857,0.12266803443503259,-0.10027860101903222,-0.20594439337143333,0.13392523561664896,0.08873761359492469,0.02930614380127386,0.05316844163855247,0.13913765522806695,-0.13064962671312935,-0.163507836975552,0.18470396027585892,-0.006847255473383342,-0.08904001372707859,0.07015683176085832,0.018902506229698444,-0.15175759879194145,-0.08194271499733354,-0.010255889057483382,-0.14415329385238856,-0.2495451253738521,-0.020859044751025888
-0.21303785484155188,0.08130726335917816,-0.28649118735360013,0.16648742645938133,0.024076214527081342,-0.0878216520458012,-0.1496649446351814,0.21042527580571657,-0.046459185370857574,-0.2974911426827232,-0.21609025290281053,-0.21368962683708453,0.2161955965066734,-0.26435719810171737,0.056509297567940604,0.2231771760894526,0.1653610404706702,0.048894542519262944,-0.006156870413010557,-0.31755006004482755,-0.1101104064523898,-0.0232868983616431,-0.0758793276244508,-0.28101536156338924,0.22331850363855787,0.1553529217259811,0.05868702399655119,0.19753604893300009,0.17483612665985065,0.2577993654133043,0.2557611969965972,-0.15188126898861024
-0.18831307394763144,0.13001313481904164,-0.2851038331523942,-0.09412432377079585,0.2321041999211154,-0.10080345083331399,0.2848172073937419,0.22856002824545038,-0.008800963571561739,0.10707856330781128,-0.2758730020832834,0.2551805894463384,0.2170859538150986,-0.15109780284614938,0.18239341500886097,0.14583758966172236,-0.07356377835109872,0.33077063218383457,-0.17002645305240993,0.28533699708373916,0.4310269279826885,-0.015850045352501018,-0.06390885587541735,-0.04540755086278087,-0.10453556933762631,0.17690668225914127,-0.03296429728991013,0.14749123128368008,-0.35591930647442294,-0.0639969926159711,-0.09807233325754874,0.06403902868602454
-0.0046657671674236335,0.045723481706433367,-0.13283231538720072,0.032281247703640915,-0.058438870411739306,-0.03611296190038138,-0.23315045681551805,0.02466972598174582,-0.04561645448372313,0.004233598274606718,-0.16580492859552293,-0.28325765474164216,-0.1607818137466563,0.06339057376572237,-0.1704712479149941,0.04360952223626368,-0.041435471692093676,0.3340075492655109,0.14854301300025266,-0.05070137747634616,0.4229593138171757,0.06527113287146977,-0.23079416261912594,0.05644632516406332,0.14467189074859613,0.12908667697750464,0.1830033298336192,0.0727761309023794,0.19023678177232023,0.19905272992835216,0.13696334749656078,0.397187787623906
-0.06456858909826686,0.09198080586675755,0.0052145866632425,-0.19113026809748923,0.13092470786135035,-0.10097465953645136,0.14345319369512238,-0.08699185760758948,0.12350737633999861,0.06386879604846804,-0.23862970754726093,-0.06059244572674145,0.25462866132844364,0.027851685126077882,0.31918288185578736,0.013087213000730616,0.1830900451529133,0.28144421806261655,-0.15760246948443613,-0.07688800737368845,0.04916551368068622,-0.040444450373883015,-0.2392603396298617,-0.0791242841477048,-0.16951639070403907,0.04445445911412012,-0.09734222997518609,0.1590768184515966,-0.03168402857487106,-0.11873631409176924,0.09161030758925552,-0.11766058866761762
-0.07106165543101085,-0.3014911845570727,0.06623841058521603,-0.21984238283333696,0.0194324387403656,0.10498932892026305,0.0030858899283279007,-0.09900315054190645,-0.12136451846730194,0.14455404241270176,-0.03938642890093977,-0.15984817277236965,-0.04679875142719449,0.1696277677324442,0.09102115696398277,0.14215242195941077,0.10521858301716448,0.070896734945916,0.24781801909753845,-0.022512512345249907,-0.01951526462353782,-0.04299131542709467,-0.45407448951752055,-0.109460055243565,-0.10298008149220543,0.26679531909382703,0.003323260891864647,0.017002989208559728,-0.12890647487677018,-0.27368871894475827,-0.10832710400320904,0.016743973943379648
0.059543911110881975,-0.016823462066292073,0.11380859011400643,0.18419560863633241,0.0890662760735862,0.24991586383796785,0.1908172562826431,-0.10204365617617163,0.00468155507189214,0.20719172225778718,0.12118686273896097,0.16387126040354746,-0.04293030181286075,-0.17802001174358764,-0.21221632168932958,0.2632675597799629,-0.0736587996868349,-0.24694232474045194,-0.10294744671671073,0.1630208891070804,-0.1449319253443315,0.27358976954479514,0.1856132890508071,0.38673900520969556,-0.014954802104215377,0.18813227370994934,-0.04004245325543626,-0.2097835668646962,-0.07124037503307577,-0.011024714631560888,0.041399238426887267,0.08666261435567073
-0.15033503638201126,0.04074573288278174,-0.14390252719717725,-0.11106989464877749,-0.05999895233471239,-0.07319826861228551,-0.17545319680245003,0.23100163483632385,-0.1428645127381694,0.21271637360906517,-0.18345973139029337,-0.18323794364935708,-0.17901445283140865,0.10025905514674442,-0.1802045456619884,0.04871961668937732,-0.35744194357087483,0.14322147500227353,-0.09356993654008329,0.027041883136663347,-0.27186267382634666,-0.2471656140514341,-0.2928821813005465,0.1249430163601973,-0.3708956856144664,0.03142007039183481,-0.09022402967164507,0.01275075656826315,0.149406761406644,0.07661568011213883,-0.19374031953712265,0.03386718177682762
-0.03181753871964391,0.09857516177786267,0.15476341690077022,-0.19787111419928372,0.25265074787342334,0.20352496230397965,0.1755381361556195,-0.07916523373424375,-0.012791809228366702,-0.09233214333432359,0.016993200450174772,-0.03435379280319127,0.1597301948281327,-0.16590106515037756,-0.3114490096122471,-0.21808295042059547,-0.08529434414288918,-0.024949154915133,-0.05769275638392203,0.03499696592144703,0.21989542318202687,0.07985033752603247,-0.15488553176136188,-0.3826730153473382,-0.03520352140549164,-0.26989133301956386,-0.14091209848719663,-0.02682485554121193,-0.3261703987996696,0.005843290674380322,-0.049643207055757574,0.12184502338199853
0.02502813550650141,-0.037422555759829904,-0.04048015877576026,-0.004943990521120141,0.07594031320412008,-0.032636646417379574,-0.04288661965627538,0.482172015724196,0.14210670440974005,-0.5468131754174652,0.12328380059920241,-0.2253025178902202,0.07305391301629457,0.41791429071947744,0.07982391103904271,0.11477869775438276,0.06510615100273277,-0.05691656302535254,-0.04849113763379048,-0.011390524239388378,0.04430314553102154,0.10730047882687793,0.0894135906546055,0.35174893120891465,0.05699540211664349,-0.08354903566046644,-0.3471408796126959,-0.09373634341400021,0.3120844245244605,-0.1221576910557025,0.0766990705498484,-0.05584407799613212
0.10981235904267304,0.046965932948821024,-0.10358395986503358,0.3094914369280635,-0.12548903720432436,-0.03648370846122668,0.17112557519065227,0.030480589946897486,-0.060559092888355044,0.025773535547294738,0.049402486467681514,-0.21930892640210606,0.019104953289453556,0.32166939386915355,-0.1232937712687741,0.05189060304193413,-0.15906406046848864,0.1354263705665158,-0.2180881175264423,0.01731329083897532,-0.029788838088347064,-0.24923819529217292,-0.052389153881549154,-0.048390980530756904,-0.1656634269699803,0.07410354850246785,0.09626345287290408,-0.06810305465572078,0.07527763751503405,0.24168426614692493,-0.21741743436091393,-0.04261762406397452
-0.052969123080707115,-0.02998325176245613,0.17583418998927006,0.05562307815394434,0.11647944925070203,-0.08028249273742179,0.07781362748176343,-0.07448384996341775,-0.05291384175206948,-0.16201731053011997,-0.19040063387285175,-0.08098754600054589,-0.01769598690690732,0.11764891321269241,-0.039849801440684944,-0.16066085556279666,0.05755197712976907,-0.39394807871675164,-0.004658199841921808,-0.029499242117552837,-0.03216389260853965,0.03542985644778141,0.0003855389806986968,0.10309691223117114,0.3359863855317126,-0.1201206935858297,0.04931152901300052,-0.013148126189913702,-0.05788733544843845,-0.10693090977347247,-0.22916396315274262,0.049259010366456975
-0.10486682113038835,0.14722281609783636,-0.22795701935595597,-0.14217782309037502,0.07734271238453568,0.14358075601840437,0.459196129192777,-0.06616840830862797,-0.10024405264054055,0.13878930791857466,0.14138307259328795,0.0029165444426748374,-0.06799616837858843,-0.22963750029752417,0.021611402345131266,-0.017271006389879648,0.01806351716091428,-0.1049469195015745,0.2544521906493264,-0.10874164679810146,-0.026684907523645326,-0.1447138958649103,-0.03034391824362852,0.3181837054167153,0.06639002424706393,0.10014791285137317,-0.08252246149075347,0.17124501769766354,0.15818433232635448,0.46297047792639345,-0.026266924752636756,0.3731252027092695
-0.5272039539926497,-0.09522944162346292,0.014667707767178408,-0.012732788820005694,0.3691138161129884,0.3043081045496323,-0.04386959549331899,-0.07644224440030728,-0.03143863034981335,-0.0635538031694788,-0.18526076734740604,-0.13370178354017104,0.037158625819764,-0.04137255529139068,0.012659346931640074,0.0370397428811001,-0.04508995903552886,0.02538790920810975,-0.03173699694172393,0.4523774159570242,0.05357398600446218,0.16334518986911448,-0.0627706214161329,0.021821784242850202,0.068620685834153,-0.00809052870426914,0.016595325878179242,0.06712187370942335,0.17138183053699146,0.19328349508354517,0.07394640166824794,-0.11541416683452008
-0.21527923600390572,0.2266485027154037,0.27471227474737653,0.21896735866555275,-0.1940636166883653,-0.12027979174253459,-0.24147718293859124,-0.09371784236631714,0.17377025698348392,0.19858663690633732,0.18732988797491723,0.09535768162629844,0.13342819255151428,0.2228314931721196,0.3220014621014003,0.04390320960874019,0.23304072147347876,-0.03044741078800992,-0.19395296684104055,0.12917731453076695,-0.06272628012308105,-0.09286404841536236,0.26039666340012646,-0.004946249813840182,-0.135089881817485,-0.01787597984702093,0.09992815202318159,0.07738965976170559,-0.04943095935315419,-0.0760217024451964,-0.2255813421973773,0.09154943935801435
0.2265559634416091,0.0729172991225924,-0.07705846300186035,0.20027035097862425,-0.08438018595465131,0.10961422937460284,-0.13605560699946365,0.04436604096698732,0.1290056880402037,0.05615111499732265,0.10793755723523955,-0.020681116607192674,0.24292898633759297,0.10612856435639008,-0.07410187708269358,-0.052452112673549295,0.13174924688861872,0.21676579485478398,-0.12702683286172767,0.25264395863480904,-0.14907031619302558,-0.1957764527737763,-0.20568414379530872,-0.0735696381429483,0.11085887463137765,-0.23712723713452882,-0.0285412476659162,-0.04627741307072558,0.1658642108349308,-0.0018427076752754793,0.2165185896123523,0.06787360433757653
-0.16306918105088272,-0.1945486731053272,-0.015210629555021683,-0.05497506980684783,0.06781787688519744,-0.010357966297424264,0.04751012677694622,0.12201592904163422,0.3391895432689472,-0.12947395905719492,0.05993119872651277,-0.19149743929805357,-0.10702289562917754,2.0154891299914795e-05,0.27399686150893,0.3946816384094039,-0.09382917286696109,0.07608651165584854,-0.043854053796784746,-0.003635080134566651,0.056678991249485104,-0.24176173887262756,-0.010269907700823432,0.15420360283646636,-0.31856409237201533,0.08845506305439886,-0.12053001097471963,-0.1296337626776993,-0.1098523393282918,-0.29675671664354836,-0.035105031941194194,0.031323774802114936
-0.12152091032367855,-0.01790996266701577,0.0484623910337987,-0.01757276489096487,0.29692881944178856,-0.4604142184027163,0.07423788905296899,0.05648219565551988,-0.06954450392691972,0.061396079496941154,0.13439464810253757,0.2091874580729826,0.10392487883795079,-0.1358578733583344,-0.15154787432800373,-0.1455210653214903,-0.2741023802113401,-0.018928297572672736,-0.028960210406827298,0.02009025177602648,-0.044345382265331,0.14874244868100353,0.146380677349094,0.0643457934663987,0.02505332347073413,-0.05687541659295091,-0.032542333683709436,-0.14157661407961059,0.02275996762202083,0.051751656524553,0.25159608054851224,-0.008838737564887008
0.032261366450336615,0.26053417898684533,-0.012904519191607174,-0.28590170292679873,-0.27839546493078643,0.2390052217582593,0.1894067417798307,0.21948562869826785,-0.14246835457978815,-0.2972663867544733,-0.19614708077418588,-0.07518407664324764,0.021857615726447642,0.2107227711358601,-0.23756844111861222,-0.10824593950309552,0.10221311179709282,0.24465603486071694,0.08028430252930635,-0.01577419951129116,-0.02949695120612914,-0.3505260742670655,-0.3046757046052731,-0.0750301857054666,0.17959916585393343,0.036661921123979764,-0.2110563215851598,-0.17559555978693428,0.12749521173917389,-0.026653984258515506,-0.06765273811272615,-0.025731629090550705
-0.14096032101581935,-0.17405623287145144,-0.07496356446818415,-0.16674287863988713,0.06261218249306474,0.0770530401131443,0.17405314365657587,0.2291334456959225,0.2686124054148552,-0.09377053801983784,-0.05501423007561732,-0.2512110357165473,-0.015606618000216536,0.4442318931929491,0.07261096302262164,0.13651752592514083,0.176950086385307,-0.1782946424875813,0.16573974200372818,-0.028711930145637766,0.11565888256387426,-0.17863336448879297,0.2992821001477043,0.004117530702367469,0.06806757407448727,-0.1570591814225639,0.18859650018591828,-0.06729415987714703,0.1136657516622259,0.16343739454796002,0.1262162096289157,-0.0032970519818878016
0.3159136517001303,0.140706343492369,0.13406662942387604,0.08896180092654417,0.30504502629631763,0.09133292190609175,-0.2726610513943924,-0.011609163539530301,-0.021531844628687385,-0.17731408298956652,-0.09692710353897463,0.17492594914200438,0.20142363597775964,-0.2565304494485834,0.1056636513609608,-0.025452005406113153,0.2031222019790295,0.0010288545162782927,0.15592396128913003,0.02193086215181194,0.2045232536803015,-0.27191638975904314,0.05868032753089993,0.09673838627699163,0.2406698430707047,0.14755995972588687,0.2177652658312108,-0.03478230645272733,-0.08338999705161562,0.09458397362605131,0.047147926517291196,0.1302080211613083
-0.3003335304506344,0.19348239856534974,0.055040362851503634,0.12147462936921673,-0.026345161149985925,-0.16813085133223749,0.21597098989021113,0.01449666476079037,0.11885525891535237,-0.030614356839455462,0.43638026314223216,-0.22150902516795126,0.08212128131425575,-0.028863786787478755,0.012628355583670807,-0.38898205581253165,0.17577335706434485,-0.21337199340200919,0.11877655039474569,-0.13748906840306888,0.10148339608298736,0.3502817627736976,0.20355053238413168,-0.10095810957305662,0.08381719965325901,-0.25285911931390165,0.3237193018930528,-0.10323333583001733,0.10659288777419582,-0.4219388507757408,-0.02801590737879414,0.11120561921506811
-0.19910545481566125,0.06587792969557713,-0.0983171957047706,-0.2992267826336633,0.030099521867907188,-0.26467804030869985,-0.19772056057109177,-0.051709685785502814,-0.48908124571758443,0.021595187788695184,-0.4719935213446171,-0.13794347581035443,0.02651715487756313,0.009586607875667787,0.03467143385419957,0.28016117014324665,0.16791102329065147,-0.45367157078481984,0.18775439691878082,0.12020669098933054,0.01788874373998425,0.1443883233726999,-0.09652669543649421,-0.16584486553606037,-0.01808384597216835,-0.3358941111310924,0.04997177974705695,-0.022611347227314706,0.3838793585399624,-0.01736252577905267,0.032119863003920675,-0.0818966927093283
-0.20518617048441562,-0.01112381174526092,-0.029837877427884043,0.05118934061121465,-0.13153432992770633,0.29569401468364526,-0.02291647637159786,0.05612712424364102,0.25588939115433823,0.34273059036561165,0.16302380379298528,0.2330975441999638,-0.032445722552926555,-0.1357328520352699,-0.06601697282664876,0.0815835093866398,0.006083918951031068,0.13571383590863043,-0.14200620000399877,-0.11102175724855637,-0.036603228257155174,-0.41354186808894994,-0.04293641636019819,0.28616121483226165,-0.08447214721352171,0.26664866284043476,0.13024171225898903,-0.026110792652294514,0.03827848684292586,0.026042369484779688,0.04253826607445656,-0.01598418346000256
-0.007339064653058946,0.13507307058037937,-0.028213965141136707,-0.11472073650147638,-0.12869282042525035,-0.06448213409875064,-0.1943659748102161,0.05737535894998729,0.28704878328172756,-0.012601242397379689,0.182001224096111,0.007517891562179379,-0.005760024624947134,-0.09901097322995764,-0.06420707599925686,-0.031618383963952314,-0.07704274096331283,0.12221137419009956,0.14891448674608163,0.19659097811114654,0.014175504254241562,-0.08334168289248861,0.06184818855454094,-0.15086352283148505,-0.08973969922661418,-0.2478490781367927,-0.2088703965507378,-0.4016517667544858,0.2584574493513481,-0.08056860390726507,0.11407237171232237,0.08336448282202095
0.12871566393509276,-0.010232070280291173,-0.10297910050319786,0.3116983297697354,-0.15307012977068957,0.09710062273559114,0.049569784864147926,0.45174592450919443,0.28721671737988774,-0.05499901515269311,0.05485886123634645,0.05470099363490025,-0.23400605023731033,0.015177921228915656,-0.1353897535952129,-0.11767299861346281,-0.07571244476647446,-0.00656043662652792,-0.23617115214970938,0.006745619044515258,-0.17049229422576304,0.17960749206298482,-0.327447969330787,0.12452474775004185,-0.10433910038549142,0.09114726164931673,-0.2516496566563678,0.03276553198425552,0.029344685148865488,0.1789110011796452,0.01618943652164431,-0.008905238344470795
0.19539155435981437,0.1596380968341148,0.264243819369105,0.08649788169347891,-0.25745904464842645,0.1740999034355895,-0.20113860992331503,0.12747730234882254,-0.034903856220869826,-0.05028392237360887,0.3739643053449465,-0.23549627245858543,0.07384086149733222,-0.320770167452894,-0.21277486656697975,0.26127831427480336,-0.3118668262657663,-0.17354063692808613,-0.03143737900834417,0.0652692949127483,-0.13716691083085228,0.09369245828389701,-0.006611382285974428,-0.003102454144032565,0.13755672277392073,-0.05565900629160979,0.26525691603169504,0.07049403807674466,0.05409754436729461,0.2453025267000264,0.11001643826905003,-0.11832740733015819
0.17359839454590542,-0.027361755135963815,-0.041479733639590115,0.017115699125035605,-0.05207608989352774,-0.175989217743338,0.2585466389643871,-0.21936469442570125,0.250843037209372,0.12220927743946579,-0.0381660328179506,-0.06957328621145556,-0.1319246541973474,-0.04646385319143286,-0.029107530413448542,-0.08359633179506147,-0.39031683413502904,0.019430333861744198,0.09689876762506001,0.017499886456782764,0.025269848161336195,-0.14194765661986747,0.28116221728939694,-0.28745402776828227,0.03249645304296677,-0.2599749421916951,-0.006947198518129117,-0.03623953708700144,0.058351258146142136,0.19798510701952798,0.12124822958743209,-0.09765944344560559
0.011018314731250744,0.22948717650776826,0.1078112123883122,-0.1064370827750164,-0.02158709495009621,0.09955478653112843,-0.22262849459620565,-0.2274054326826512,-0.07852472321387362,0.08749101071981231,-0.14383994447247345,-0.1529860950533572,0.12883400114187743,-0.18108972652213695,-0.012564709070987855,-0.14713702222698963,-0.2795315163102478,0.053376293156426134,-0.12102271513972841,-0.22668279531258817,-0.16389436520412973,-0.4068679783492448,0.28101621078554906,-0.023905177647020052,0.0192782845546321,0.026943842678761733,0.09295119820841036,-0.08680115056538372,0.3236824641308144,0.05572540462567014,-0.1301081967271651,0.08951705476699373
-0.197823854932938,-0.24667025528332565,0.18655525711475085,0.37122081967587756,0.03999014304561119,0.06892885054684768,0.03282036020422651,0.038277830951409374,0.36290646064841775,-0.059218825142769764,0.08814633027261766,0.022726696327543004,-0.0202500245154466,-0.13757243917339604,-0.002478788353756357,-0.11898470901750001,-0.20500464119685113,-0.16759570464443913,0.18528531877286947,0.15204188008075137,-0.012299826686464297,-0.05554291305038415,-0.07705272605991849,-0.5160204416133851,-0.04370993816848835,0.02121508579064533,0.16625361600810126,0.1305815448159739,0.06633399482740227,-0.09603929876822372,-0.1431069633437255,0.11231281957995669
0.19014977547459525,-0.058704377361513745,-0.19826343690329779,-0.025637627164389193,0.0977060040632384,-0.06460283910147584,0.03498989458769116,-0.261380845685618,0.1793764433193471,0.0038588260883101583,0.10068963828666243,-0.19414102723540447,0.1056834025533177,0.11398959153073106,0.05184635214033994,0.056857611426261924,-0.07405412811069215,0.07930174392651014,0.07211531115410931,0.035832757473592894,0.09584805896267466,0.031247771932468263,0.26481862579505333,-0.025565154119276307,0.1818260519468456,0.05276633626960857,0.096708861742922,0.14772121119572357,-0.014893414530414754,0.02121527007781263,0.05605253669963904,0.3600433784754515
-0.13516310152253264,0.000562515793406453,0.054628611863001705,-0.15395373741368096,-0.07711645029203948,0.2040147717493536,-0.027956900269771583,-0.01331839096067399,0.01659609438717102,0.002008888170908436,-0.022576629006413853,0.1451722370775464,-0.06313182013995618,0.1724523752211518,-0.2659413720224935,0.103813758261203,-0.06976071646575369,-0.08524411895276827,0.03991511680927042,-0.11728242234715552,-0.11880302675357801,-0.10675545192456667,-0.3142271323067519,-0.44922387806928205,-0.0386949767802663,0.22727861780366912,0.2204449815366546,-0.32661967216714133,-0.07482985043661236,0.10808714266965166,0.13661068508485588,-0.09687045117970706
0.008591373767367684,-0.06429494200385562,0.011018260875308179,0.28664224449014847,0.47619986688473287,-0.04097504731034118,-0.1018192834477342,-0.08791959480615213,-0.14483145040672046,-0.10337371850819492,0.012970865940948812,-0.06955457303813899,-0.04344625976297516,0.036447961672497003,-0.0049109920305183,-0.007647047540026439,-0.10789086255464721,-0.07129987819197173,0.08390611730779689,0.05962258075429351,0.09566602685449085,0.036238719280468325,0.091245399991822,0.0675418756452154,0.1431766161312452,0.16142335660383533,-0.14176341356125668,-0.019300981694252758,0.09182321320719582,0.23946550927233526,0.02681297912619131,0.08847012594458113
-0.14617925039835453,-0.05144362923329592,-0.1769078737414034,-0.12623445670224584,0.08258878407421409,0.16561051458313641,-0.15583601596535882,0.19744722507817627,-0.003985858209309935,0.030610692696314955,0.17343701008008597,0.13617492246365884,-0.21954678608823722,-0.06006228146566927,-0.07861847508580674,-0.15581973285586023,-0.11267699400775093,-0.008365069606064954,-0.2713271295244395,0.04826156108228475,0.07675217315011017,0.047426748462770375,-0.06722714560270728,0.1470922517792715,-0.44166776772243976,0.13665490130472518,-0.01814629199612997,-0.03806993212428896,0.10384277983575793,-0.02205301368447243,-0.2740248892273485,-0.07057132573195163
-0.25431257805123336,0.1652604563697861,0.0865129487853305,-0.058345614029655414,0.15018830898044774,0.01778329038701718,-0.05186305339163631,-0.024534319990241384,0.058089201722716005,0.457820677601922,0.2365031174269493,-0.04546229289940541,0.0835131569946122,0.04704162296662219,0.022431738776774093,0.36380490884936595,-0.2387083561604139,0.4484683692013182,-0.04709891563115795,0.13361531741509738,0.039708435379065876,-0.17619682123947725,0.1473751690428994,0.27600150939401236,-0.02237767860474241,-0.08155147958374762,0.05312177488241241,0.018906284088430522,-0.11051638519039118,-0.29188323812799216,0.06390994792087651,-0.0986353442539881
0.14541570563997808,0.061343271392721166,0.22879701876966857,0.0932662219971351,0.13489380606108434,-0.38910959172284754,-0.09783892479240776,0.3185557089412263,0.07681931356481961,-0.09984530946227888,-0.09393194468331542,0.05337512507284002,-0.16157135023898178,-0.0019254017993612586,-0.18782050818727894,-0.24999438186510703,-0.22134258099816412,-0.02458020496198633,0.20415530626627035,-0.31823754040010455,0.0047795911416124446,-0.16029894240725254,0.10466793777154816,-0.24422912129802402,0.015579479394207767,0.30929812213977936,-0.09241008397541935,-0.07853771040780445,-0.035451441019777104,-0.28579223534533216,0.22771138698362073,-0.13594976002244763
0.2574677113632935,0.19025003726351808,-0.012548706165395749,-0.00033852813555349936,0.19277775853925314,0.37481707101017775,-0.048626764345298785,-0.14402503898251404,-0.2082933093690171,0.11476551637817226,-0.07235247648966933,0.10505825692582521,-0.05444607210925262,-0.278035470452049,0.1471838466351557,0.21550655758236156,0.011908774296161741,0.014602251377850923,-0.04966325984710557,0.13122338825407104,0.020109030819304596,0.15188715745156312,0.08566801634994504,0.3547686100702163,0.10343024777866475,-0.2369485188850824,0.09375488505367575,-0.02549066991177386,0.38665227335295105,-0.0452522522671438,-0.2533970618572137,-0.010206437835151438
-0.06933201938743307,-0.043080363968970845,0.22734337978601116,0.07311730042024298,-0.22895612857394146,0.4369335665702824,0.018573018404370888,0.17740814689183793,0.14501122371859868,-0.07445474648996493,-0.1563445029461015,0.21568013965246483,0.054511305858033016,0.2349878394076879,-0.0006297650560642227,0.19019513692126136,0.08187815457607374,0.06901056051913218,-0.066504872002326,0.3326419061999325,-0.21223385308335244,0.3205297938167802,-0.24921332414236844,-0.035963127782318964,-0.13573209712321346,-0.3662969862031062,-0.006725336810004219,-0.32944606462063364,0.28162939788785757,0.012856202058986611,0.33390492125885474,-0.2784776447479398
-0.10194145877969711,-0.1299489666539962,-0.061449449291697045,0.10225856371669362,0.1732015664282487,0.17513196512070633,0.12031329121706234,-0.09318650154165253,0.2606243651849391,-0.4719312305767421,-0.2627208664437584,0.30321261589529674,-0.12681453137000678,0.004885120450881625,0.150671373857003,-0.007684485831950682,0.022829201004052245,0.17454745413766143,-0.2181327601218262,0.0038945173003986215,-0.2881171078404039,0.19002019715168986,-0.2145145609813124,-0.05507046149566224,-0.03452781159698419,0.062368691757117456,-0.0059188219788766415,-0.010232296254049488,0.30170944815531425,0.0012539790318700085,-0.09851096183898583,-0.131772078401492
-0.01584532500817039,0.037994834711938,-0.08128652120731532,0.13140041487159335,0.14190727537480435,0.0928898557768104,0.09317540110450098,-0.04414171750484705,0.017961409787620047,-0.08282275401263249,0.13335010583168996,0.13401750862758638,0.06853688606371458,-0.023251020949493006,0.18224936530249072,0.08499576766231394,-0.0824540744065339,0.027741400388962514,-0.09504606306553542,-0.0676912674260996,-0.2958269936110585,0.37801623923790817,0.516940405325427,-0.10992586136175789,-0.09180320799458128,-0.050844771843945924,0.16278498608708336,-0.2436298180947788,0.11100238941430525,-0.027749696947856877,-0.12198632951700057,-0.1054162349739936
-0.20956576792251616,0.06385276665518017,0.10689463859262219,0.11175823197627315,0.027700007244115015,-0.24736847575716922,0.11031014234188107,0.12603329513068742,0.026827048144474598,0.21979305538690208,0.09382891060534487,0.10185501822151388,-0.19478949607971918,-0.06864637292353595,-0.3493428445181306,0.029233680492235174,0.07509034814651759,0.03688869364122471,0.003708694631156195,0.18227969027513063,0.0812655618387962,-0.2228156288099928,-0.015384309173282354,0.17572564208127703,-0.12567266309384686,0.011641757477063018,0.015119840080801585,0.35429930470893545,0.19082199819031184,0.23625598224092845,0.16512185723698478,0.46105390861472617
-0.029650762779239587,-0.06964240638271971,-0.013483112923185703,0.12064442701620377,-0.02573418362830482,-0.04027485372069742,0.20779010489790703,-0.25200863280129976,-0.03279147584116779,-0.2564393417635947,0.10287215639421057,0.25793257433091327,0.22776303689819527,0.09926833678103847,-0.012438251529836436,-0.12019062355370151,0.040611098541851166,0.07510959005864042,0.1340720511978051,-0.14820688355851333,-0.11216308577995772,-0.10697885355627053,0.23043171817188485,0.1175339946192195,0.21717021323876276,0.29794933901818527,0.2196626527946347,-0.07360961373181822,0.2521283747250094,0.24372267365222464,0.2040148546930512,0.047749797658173665
0.0814751531462793,0.21028789194265843,0.0903276668975978,0.2541966660555852,-0.23812926584321895,-0.24884810369693847,-0.07097594694190856,-0.28635847808206755,-0.1134354380914178,0.04166309654768816,0.31026348760387795,-0.18347461445074525,0.159510687454224,0.18907909288069208,-0.09832606741754829,0.2745720476646884,0.04113896334298572,-0.007969075890127145,-0.2363044262747221,-0.13879189629370867,0.1623978557751498,-0.033051584547167355,-0.38113711256466437,0.14192298406921086,-0.16505600164154724,0.03123150732694772,-0.24153384566604236,0.03645837700742401,0.21129305108016688,-0.119301170761403,-0.15862390977529944,-0.20525925720549698
0.08030466339207847,-0.1129196433271789,0.21049249674426818,-0.26612196972452346,0.1692034812546467,-0.08589976115093993,-0.03147006118408153,-0.02028742897201805,-0.11590353581258918,-0.10469238553552394,-0.07393222373831815,-0.03889471356303652,0.28803835338037076,-0.034314526570482916,-0.060896234911200234,0.07254429797857964,-0.08772073478614643,0.09467387496421972,0.17658013976742856,-0.07169428405594286,-0.15615826456241358,0.10296484489693533,0.01576048106953994,0.07323047793661863,-0.05498851957592095,0.07460399713950404,-0.04221250190289411,-0.1450429794214795,-0.06134805132091274,-0.024299624797524965,-0.12503959343911392,0.12937676279953167
0.11023964451252909,0.3659951724988334,0.1562431226393618,-0.06044321010178969,-0.13807093094800663,-0.20030253062018386,-0.09356146729724808,0.2725553801309141,0.20890391137614636,-0.04951599209225999,-0.05668385141577192,0.030430354851156326,-0.0377143244832038,0.018814247396420458,-0.25486413299357163,0.09348812411923724,-0.23351050341311405,-0.053418603267992866,-0.08597689477566627,-0.19320697116291385,-0.08255878717160028,0.11305082832147893,0.07175589237066676,0.13902096090471308,0.018887915790634133,0.1900249875513751,0.07333415467344352,-0.03920155201986769,-0.025837728627535052,0.2659612542007279,0.2755084365076331,0.21286908578318006
-0.06415997701972444,0.08985626952026989,-0.005391325080441091,0.013390375056609343,-0.01284873669830319,-0.06914485579176789,0.008828080670714444,0.10097081377727785,0.05903896989330861,0.06326395437010332,0.01886359877738412,0.14964383178289425,-0.201289446750375,0.04106271328477821,0.20151309309877055,-0.130501334458546,-0.0802705457012096,0.185832168451483,-0.11856285774705133,0.17996931173057792,-0.01701649745870549,-0.02954677546222156,0.3066957955197562,0.16097906300617326,-0.21999372602939465,-0.12162272449084341,0.035775279965717575,-0.09321118080966671,0.005138740352615764,-0.2307401793951312,-0.15370507917895782,0.25179820782373147
-0.09521508874098698,0.042663767867907515,-0.26113502991280585,-0.06138972788514906,0.09370593553385535,0.21973222113153026,-0.14926426508042537,0.06852449221820921,0.1476598765931494,-0.12423208985995159,0.07567522162157829,0.10933019414762424,-0.018467539057880098,-0.2792145188961851,-0.06427272183899298,-0.21562156654877374,-0.00715410656209501,-0.15638319405404935,-0.13229512980126987,0.17689697863521966,0.037788255334546064,0.02064609542920166,0.19454654855831974,-0.45126024573385193,-0.05009959047920176,0.26045232793044254,-0.15448459230222766,0.29337568628214417,0.03474866504759294,0.06800379978027561,-0.36844728892266376,-0.2054196581964406
-0.12930607220413887,0.05388926674391236,0.20874671657261465,-0.14957529646821993,-0.18343173680605435,0.28021634686743874,0.08053996113800023,-0.06143006531822073,-0.09579670586649398,-0.350728986917449,0.020745049913759306,0.2538121579561758,-0.20009013269285797,-0.04246241705732951,-0.298759160701053,0.18349494191758092,0.04470443560796071,-0.11014810596086008,-0.02673437234906468,0.08782072276309985,-0.20589563810168576,-0.15646445335941628,-0.24033179332632393,0.014772692278356755,0.0943010931828603,-0.14122622568151624,-0.1386652182757568,-0.28911113060990995,0.16829275868603125,0.10400736885790791,0.04056052873868335,0.09926945519253334
-0.1433707866197004,0.01428396707356027,0.18609616266950224,0.1346120856973149,-0.13016890498030065,-0.07147766384255194,0.06808841145358503,-0.17965069683534013,-0.0881277636264615,0.04453092971068171,-0.16110091994535208,-0.35880217099649253,0.17459650588325273,-0.088613225668014,-0.1511281698282515,0.012089912879699103,-0.14055572036843356,0.3643525230746274,0.042976378103541824,-0.13648177244093912,0.22846299344484367,0.20274800525753858,-0.10299825522542744,0.23371234343074337,0.1960458881271812,0.29209466750185376,-0.18752124076561982,-0.038523791266816654,-0.16760149674045374,-0.04813411887018942,-0.15034290524333652,0.2303167113989179
-0.03840583867195065,0.28772656190039236,-0.2175678315467557,0.1412514829171942,-0.09538012208510468,-0.12977436278504176,0.23127284480384522,-0.04987728957756401,0.08011854419951843,0.1890980385966148,0.08269034156785011,0.053508317705382974,-0.34882041227239025,0.15598780888695624,0.031393346868060584,-0.10708494080999661,0.29076705246263085,0.12592020047918653,-0.0674564920854139,-0.23508786718534133,-0.239461464502816,0.08214826022993021,-0.11583950996664237,-0.08464142361809134,-0.1622135345711091,0.2094346854042909,0.19868327553134796,-0.04452523527470091,-0.016619138749978564,-0.10608092470854888,0.09955612189595794,0.31472053286792484
0.15182362639612307,0.08405519500016755,0.11688416389361804,-0.12564353439085632,0.09993233752278616,-0.06460106445630832,0.029154440954989553,-0.10184506992578644,-0.1482813374032879,0.16700077513453243,0.05918415041836425,0.12031491457800385,0.0971089651569244,0.20652879656725195,0.12521704786970397,0.2730291373783954,-0.02046104778915661,0.018896208794299374,-0.09438388809646418,0.1934998669750324,-0.029889785835289277,-0.09519703059157787,-0.2783387437378232,-0.04840899515538529,0.1694818880699291,0.06636521073903086,0.15500917056946648,0.09009372350357768,0.1826271517157067,0.1230247919571169,-0.22480818209775308,-0.2653134679137749
0.028151832277273872,0.28554958687335746,0.08313440961703944,0.30470429911653274,0.09231194479459788,-0.15519560229862278,-0.019006997358401688,-0.1802087819134876,-0.1423273979295324,-0.115255132175693,0.051309655467088516,0.06640406225654456,0.23308545120996546,-0.1038393301304914,-0.03459811954183296,-0.1732375041973319,0.030608792314815444,0.1702169869708678,-0.06924355213950942,0.34888799193563114,-0.2169863270379215,-0.07799660784931185,0.08722956748593934,0.5318143232308613,0.14073494223984953,-0.050793112147914904,0.08874275369519287,0.07873210452880404,0.37992794020932086,0.08138589676492786,-0.14117910890355068,-0.13592421643031596
-0.1418915979130826,-0.07627026427731251,0.08675747964511528,-0.06460679038607982,-0.04849347421124759,-0.015574519996788458,0.028297692973819722,-0.020234011053124296,-0.17689824121682268,-0.2939806633745279,-0.2205402797269595,-0.16171527211900658,0.5854801289777416,0.027820084415488718,-0.05929134305604683,0.03269997526184025,-0.023993679002322923,-0.10464105386480985,0.21704820924563514,-0.24316434086116964,0.18222931949321416,0.0860299882082387,0.17270551757801755,0.10654089448248658,0.07204531541481103,-0.18273944541661097,-0.1124615361366556,-0.09252093738661889,-0.08523024587266352,-0.02769402850045206,0.03910207140813193,0.14688475412713423
0.10050804275345557,0.06935830797696634,0.31226632976970053,0.030284319405727685,0.1637665495324319,-0.35058394815631555,-0.22848470131886814,0.13440601407053782,-0.3146750770638843,-0.24650405758841462,-0.05754975693529247,0.09387400875409069,0.08386322017441264,-0.11328469448450272,0.22430327180014695,0.1704634371233325,-0.1802451919992025,-0.055738534843700616,-0.08486685876495835,0.2401291747737904,0.0522157144584849,-0.11759525396889865,0.06522649083848318,-0.05801862288016323,0.10614875433772702,0.18359793689062423,-0.025465080519240256,0.04855646604292274,-0.3088614783577078,0.09004344907306353,-0.1135661157884604,-0.1044714021371976

hidden2_to_output:
0.9998886881535948
0.10958075377244347
0.031810655684858996
0.019966692535177587
0.22904222838554314
0.1466562773449358
-0.10600511967805629
-0.2681615369377912
0.1003454126686691
-0.052553008921661815
0.3975179758365096
0.4446962795766274
0.013726436959502592
0.2286162747037923
0.04484526686007023
0.34915605152924445
0.4222138084175322
0.031848030847628425
0.043331655768360386
0.31146962914273324
0.12124945419615639
0.02838473908180148
-0.8535227505816319
0.5165770573785499
0.21818512645414215
-0.027815258588780423
0.26033272216274267
-0.2910724804390333
-0.502489335575222
0.09123870682717788
0.1208543589488021
-0.07805154715698634
0.24853189621058577

