input_to_hidden1:
0.9783056659448223,0.9999020670181398,0.9997506776003005,0.9999380640273611,0.9995198405882169,0.9957553255977816,1.0010529053202188,1.0009931349057561,0.9980112398179454,0.9616870711758916,1.00359857086075,0.9865839158270546,1.0016034062895682,0.9993985798181322,0.9993114230431563,0.9962175449686645,0.9880608494637712,0.9997071325142064,1.001162992361763,0.9725618761154236,1.0021938010039837,1.0286228472946777,1.0077951963616238,0.9951109155064238,1.002923821247439,1.0025981273753075,1.0020069558998588,0.9980158335627402,0.9984552176318855,1.007137090519955,0.9798482450566546,0.9962777258604925,0.9905510934409225,0.9962846820118735,0.9964983178016263,0.9961054546626861,0.998340158382972,0.9998094582192023,1.0021467504354116,0.9980229139019937,0.9979199369954033,1.0022851530413892,0.9982493427608392,1.000805115504485,1.0023245541622094,0.9947268544186462,0.9667047778779037,1.0035132142785113,1.0003343774788194,1.0012092216413082,1.0052967022487895,0.9940097963957903,1.0005338853281267,0.998217390173351,0.9958415789317115,1.002276936910666,1.0149807403737836,1.0058788473626867,1.0140944054344914,0.9948258664712201,0.9981311571690896,0.9989298984789706,0.999808658150426,0.968638639863733
-0.5426193094476076,0.4936149488999741,0.48830387055089347,-0.7267812900251011,0.48599160673690656,0.26435361279917907,0.2974734968212151,0.41564436160873486,-0.198799237615242,0.4936465424951077,-0.859991894606609,-0.06731543637551896,0.28910888450895733,-0.1233202427802246,-0.41538208700196455,-0.981319841433767,0.11222010532641187,-0.13574420675986298,0.23371765708045095,-0.3492650570613158,0.09473514089644823,-0.7331525632457818,-0.4697336905146506,-0.06634692479959178,-0.05586703791579839,-0.27704851526957625,-0.5496483739345425,0.042954559728531204,0.24144855725631165,0.48086502750296173,-0.18572791960168109,-0.12080524596096347,-0.4719988869065633,-0.48966638928056405,0.04072953173258641,-0.20044208400798363,0.08906421115579781,-0.19890817424564863,-0.3442196587651843,1.3886519489948252,0.2341816049867248,-0.14917479205364118,0.4792341536159857,0.7526781119417274,-0.3470992992234318,-0.3534038782741203,0.32994728130520695,0.2791343344479181,-0.3668214432604763,-0.7918620604295348,-0.18794407737834104,0.5723669255648022,-0.5003394548709208,-0.3155512884632227,0.5235848969211772,-0.3061665318704874,-0.0633507375175583,0.16433459629764882,-0.38460542009257853,-0.3714701637103141,-0.5213067853725468,-0.24052360860058838,-0.6280367121477544,-0.48916253628160294
0.28145794283569275,-0.24199847379676287,0.8147932771054457,-1.0643919246221087,-0.05299096546577249,0.766454436100626,0.04586493315566729,0.2052482207094896,-0.17725911550383697,-0.1632085160844603,0.3434442169414916,0.1748839282940021,-0.12064359038088575,0.365274818504109,0.04255431656192629,0.041403548343775805,-1.0536266277443782,0.10544224437977126,0.04332661766396438,0.5843184755463177,0.3453507641711755,-0.3517636407527059,-0.4890733019850165,-0.30759738629922506,0.09285160015703267,-0.0408349187427524,-0.359944627600713,-0.7745377569392794,-0.2854798401641111,-0.41245896336079524,0.05788079619075709,-0.22149237585109233,-0.7523290081738887,0.33188933736736975,0.40179660123572064,-0.15571616735261834,0.20431463551557363,0.7035894166919553,0.45188699143278427,0.4603122592526883,-1.2715614716485757,0.3184499712629931,0.1452061607201279,0.2066231159052974,0.4877174021367686,-0.061693029323035053,-0.11354260622694863,-0.13109302727166403,-0.5637151123283382,-0.12387896355690242,-0.01652041899589897,0.20260398183764367,-0.1191588922334635,0.23242403648964874,0.37552558610205794,-0.12572129359850073,-0.12376718198285555,0.6443521381387751,-0.5140853527125694,0.15406386008397135,0.6112729544704611,0.2548876668096721,-0.524768692207875,-0.27210147433590887
-0.477876851338723,-0.5396398080633089,-0.47994238053995875,0.3358212232936938,0.21179324385247597,0.35293613793166884,0.2514394526433139,-0.5942919040836363,-0.15738637791510157,0.22462965138508767,0.2218922497681613,-0.0991900948155005,0.30907923843598417,-0.33056187209232346,-0.3076739388033067,0.31965065316891456,-0.3700955894648069,0.5592332371493542,0.2960196785525385,-0.20339447839249333,-0.2604700804513975,0.448075425104452,0.729994709003613,0.085111435229438,0.09363018119835397,0.38073736759989985,0.526560066705284,-0.055117152963141604,-0.27528668361118014,-0.3193752504330155,0.19839221884107758,0.2649119106367336,-0.39152591353052313,0.4424890265928214,0.26497462459001503,0.10651582793771805,-0.10098471804610627,-0.08270207857425813,-0.22993049552927713,-0.03589543806235492,0.2855606790723789,-0.32488960285000645,-0.038446045720369734,0.2997557447473335,0.12254165802295192,-0.9745784995905812,-0.6291819996689927,0.46766272020467375,-0.2943613251610402,0.8781341753509898,0.3339346627572201,0.6652391547040216,-0.09000298449710983,0.3152818879813698,0.3640012755600618,-0.06519372246738855,0.3516380912956731,0.008599834482625178,0.098446158205548,0.385867653268074,0.4961250988722818,0.018567558542975714,-0.19074600416114829,-1.0507866153890963
0.3301026600253499,-0.0232653931862082,0.3615938891456257,-0.11800051790543536,0.33039848359638563,0.27943314514535955,-0.06518162504740382,-0.4362039826646801,0.42319426051145104,0.05410983498960083,0.29397680214386124,0.6389235795197079,-0.168733885556859,-0.4316655437858446,0.01382478960839425,0.07034179102984181,0.3062847127270082,1.1633120115323123,-0.40886155850258693,-0.3172305761690039,0.15091377242148807,-0.5967452847666392,-0.3535243798440849,0.03856763569437955,0.44057707390234974,-0.4330840013733746,0.5471530732133778,-0.5473649990657261,0.1386953398409156,-0.11726866894909976,-0.49563900280803425,0.08965355455541367,0.06923011652725601,-0.3660079539254399,-0.3073082048088568,0.06139723466334662,0.11701735146564592,0.03551995116028869,-0.38741525971157664,-0.4803045721718821,-0.31848419021803603,-0.11264380842176311,-0.10828998114920262,-0.7061628811667308,-0.01000084258877445,0.46044559666179713,0.1023664038625511,-0.255321714576892,0.6056866678479895,0.3179872343975758,0.008383346394573448,-0.6210215663301408,0.15915619152483246,-0.34839296669251196,0.5463006042656491,0.0035387290756863188,-0.12487932201831364,0.0034603138176580455,0.04475822982735831,-0.5484068209778129,0.5730527622864702,0.5458874965442949,-0.3770323938876836,0.454293626238928
-0.11538549762932016,0.6775943007389119,0.23828903834915863,0.624160239074922,0.536480809951618,0.3041347844246562,-0.10550742220598174,0.3220008904352145,0.2657087936036483,-0.2245579789914111,-0.034536162096068065,-0.5602796071779174,0.07315260738459234,0.10087912651523256,0.49725460224655627,-0.04329801087370597,-0.22382457304514186,-0.15709624061393118,0.012848001755343206,-0.041215046384431374,-0.23857111312435975,0.207026881145047,-0.28844351942438545,1.1298068154901861,-0.14037284231607414,0.5924740155631197,-0.009068439999090074,0.36551451478737357,-0.23201166497733783,0.07866530447919771,-0.5887621289984533,0.7429319027179246,0.378237918992034,0.5342157392091214,-0.6223100012818268,0.22289924088610757,-0.04838506930614205,-0.20040299373075257,0.07155637162820379,0.11103927302706501,0.08714326089806594,0.666918062685426,0.24860952678343637,-0.026412560287800424,0.6373784398741615,-0.6230244225070448,-0.23612205983202625,-0.28055192125255185,-0.22590172029504735,0.07068978258909948,0.575044857555038,0.642275492732192,0.8450114119301484,0.05822234528039523,-0.21338166257471178,-0.462268199135516,-0.4579518530774461,-0.1338058862479312,-0.2525946254143959,0.9505860270302756,0.5088790111682505,-0.18630507985628345,0.3040755774710281,0.2514318853284895
-0.4270295303197885,-0.3346284665982809,-0.929082643990281,-0.18883554699101365,0.314157186603341,-0.09828032369739116,0.24177611958040218,-0.1812611702561807,0.5863066183711151,-0.14247107634351716,0.6391325235403015,0.15198584411636715,-0.14045020089520333,0.21034360765126253,0.05571286196328411,0.04435721826629633,0.225977854743913,0.998824214451171,0.31307171681376844,-0.6376182774679885,0.19706439361493372,-0.27755786770879803,0.28675948200985896,0.5105639590900981,-0.14297972521431104,0.48634991312146547,-0.29612664346409917,0.16824369854057203,0.5884574383283205,0.27537322500719386,-0.4647107387325963,-0.5806931738604462,0.4947057430396077,0.33695180970610594,0.35584724276229845,-0.7950502499789074,0.10741756244052093,0.18004483947112934,-0.08942096047767877,0.03859988641982279,0.17105345386930731,-0.10186531606430141,0.30031398308236185,0.24766236470421113,0.2759132952605553,0.17174942351051428,0.29797044102288617,0.6057498201156939,0.33394438997502307,0.28177497728847306,0.21799265017089764,-0.4644013118349006,-0.11345109109721299,0.04646510095714746,0.13008324604186144,0.42955159692817574,-0.13557032294190563,0.2292049364656133,-0.5809668011471685,0.6597059639689498,-0.4193419323850695,-0.028453927887945263,-0.38406632216987785,-0.269045045706761
-0.9873312668847891,0.07453752570058966,0.06688278084376906,-0.03766500371159235,-0.29555906315786257,-0.2726362860938497,-0.29042071002719916,0.13981018779311338,-0.4032388085297855,-0.0800286237539675,0.16120471211858964,-0.47721173322720173,0.39800364101656327,0.09384616000168429,-0.4570346143453989,-0.4697522994893097,0.31161106423760754,0.7741874076173707,0.19611734894205837,0.5604466205364622,-0.38899551705539526,-0.3581898972629106,-0.1129572425895443,-0.05942897376851365,-0.688907372934709,0.11198016964941343,-0.08591159820056798,0.13890828539944114,-0.6201788279395382,0.2481202466648226,0.546970449865255,0.5220640825236055,-0.25052610437580586,-0.18819006413280914,0.33746972776013173,0.43835449009439315,-0.3959461705472588,0.35094013675992985,-0.28893777848646085,0.047451975079032066,-0.2547894573513299,-0.3521829390062591,0.24716379682278308,0.11936739118321232,0.03988900963537227,0.38690872568751256,-0.14778331829031321,0.3003720335072068,-0.4400214519846305,0.05024796568487961,-0.9160379904777891,-0.22983331864443232,0.5630819898353484,0.17410888229556762,-0.33639411102562383,0.008735805455095592,0.25185463892459714,0.2919048670928893,-0.7011238871563288,-0.6350859350805488,-0.49769493406664567,-0.47682145404119175,-0.21145378140152724,-0.2941961508406606
0.28775874661629824,-0.17902286374297838,-0.18087048937951097,-0.06412466786627573,0.1164144398143855,-0.3515363121616099,0.7249359487938738,-0.5018039541887243,-0.1694848814263782,0.1385409131686037,0.2269780758533488,-0.1730729207803834,0.06386483861116636,-0.5243259374183159,0.49026534974774766,0.5059041371317065,-0.3948971446974147,0.44684581882132796,0.5838296353615722,0.06736766481370472,-0.15997025973054438,0.08367903769374709,-0.3214478569661543,-0.22637908718186422,-0.36085852860261636,-0.5128938316528258,0.33564020032230907,-0.11381867545797018,0.44944873802328106,-0.403103384466757,0.1352063623528895,-0.458803826284197,-0.297887109302223,-0.17341823038809373,0.41563438701638633,-0.7330421095534742,0.9550936123328891,-0.07024695198824059,0.4735172256874994,-0.5982137590928607,0.1402775979682269,0.3154986651031424,0.08023905313722032,0.44474113522998543,0.19544830826744286,-0.39877461233742817,-0.6948289241164338,0.22999727644989157,-0.396824380958088,-0.17866304847214287,-0.237897601622227,-0.1894180858939959,0.06463445596712966,0.28559595094447177,-0.2461886600335039,0.4939568265313758,-0.02849822591050747,-0.23456956796439776,-0.11002217126367736,0.13558801808769622,0.4162699357101467,-0.15593082258953733,-0.5030914265842151,0.3587607044415607
-0.30250825355446326,0.1779717346147485,0.2189338527050904,-0.5971704229804213,0.4914352020332335,-0.39970091846458033,-0.15725961503300848,0.1647073422791017,-0.056169508274658685,-0.5847414853457392,-0.29704862761811585,0.6260565249120037,0.2841381209598619,-0.20936948729005384,-0.20580446982168538,0.7290193087957058,-0.17295980771241537,0.46576518243227666,0.576419792272086,-0.051978036693678085,0.7579998880530685,-0.7815271731295007,-0.01130744938564723,-0.26507052156594224,0.4417126244350844,-0.4774823623772948,-0.4079513667187016,0.45157249811109046,-0.3527083261939264,-0.026117958839916015,0.11471584242851786,-0.648128382525788,-0.3657243498978917,-0.4427024036531306,-0.09886316434630889,0.8678005507470553,-0.41007480830517007,0.4161934603333616,-0.19807081154582493,0.43503687971900834,0.44501993233407067,0.3521452102446294,0.17246664617704252,0.25285433866533213,-0.45866859537784394,-0.3729815903869088,-0.01100279116859474,-1.0841229568767323,0.517120103274629,-0.40545714603079785,0.15898609643154962,0.032338850770583065,-0.33375935119525296,0.17687674460019945,-0.337433611553153,0.1516688159385016,1.126309153507766,0.04847003777149184,-0.4016526380440697,0.24366390982169184,0.7753378077229187,0.25480731707881743,-0.20827127885547192,0.2584819344679006
-1.0210377582639076,0.237340969590825,-0.6509194060566452,0.03849653814784453,-0.5364720194151597,0.19957952385643707,0.9615110354919066,0.058148370458003557,-0.1477131407562048,-0.33087082831086534,0.24940757876915323,-0.5495343082288349,0.0347509994929042,-0.10022030388075685,0.3392786755113265,0.348181802288115,-0.16390778291340852,0.07028927917021374,-0.3328907953768447,-0.5647704414751823,0.07872323106649293,-0.31328494632926474,0.07016957201930031,-1.2556089889081958,0.40882745239597595,0.016270015824780205,0.25837884324181026,-0.14860147455675876,0.27757966776742443,-0.5810627399626915,-1.0056145261406964,-0.5589717881567494,-0.29737777132037807,1.3064750021304514,-0.4027793364568771,0.08645821789846588,-0.3280192582276667,-0.06371679421126476,0.6725457026438505,-0.24661012318263117,0.18678467385603748,0.13409543011795264,0.3337839334942258,0.046168856631868954,0.006206031103737487,0.003285649643914505,-0.5542599616681678,-0.2474901095621581,0.3851795085354023,-0.30249183588219775,0.15812072665074492,0.28289892770280334,0.2182043630385751,-0.014173905947469359,0.8229033880524236,-0.1889436044064856,-0.775726872769678,-0.6458149350130205,0.013948188047501872,-0.20988287496121374,0.4584895344473938,0.3253132689787531,0.4815483568680191,-0.6410830689152553
0.3132936733545942,0.09464035484633916,-0.07382285150500494,0.20088137797112549,-0.09703593064070908,0.012974127729554287,-0.002119576607735544,0.4964410917536459,-0.9823071729634598,0.13449591155605703,0.20024382523041243,-0.540933954595783,-0.3300027049109549,-0.3791940991248339,-0.08897880200647316,0.1775455821853387,0.2899671405938918,0.030961544649787946,0.12405823748400967,-0.4671639505273129,-0.04162938920006317,-0.5000289527592011,-0.025621075095692693,-0.0003541055027666653,1.0618669489827461,0.06991320109625193,-0.17072330993046037,-0.8164617531283106,-0.3299164770212148,-0.002114268160530897,-0.002833808846143289,-0.21177501638579907,0.20475783621006866,-0.27518795885198954,0.5234653195998235,0.12908245469572519,0.8636206708269696,0.26723598282151007,0.12287119832209661,0.3927287529789725,0.13144216969585057,0.8219244758843756,0.07613715064819758,-0.05526071909792062,-0.44541009878815446,0.3739532659001192,0.17455288696236118,0.36372339632628875,-0.15435301916906183,-0.2868070771869941,0.6131778393650004,0.07468226841108816,0.1388263835671437,0.1153895261875926,-0.05016560557723462,0.1713554619525306,-0.32620074599678267,-0.3241451416467216,0.12433755446750003,0.1942362589299202,0.5004053966158691,-0.20762396689088053,-0.034107825008380825,-0.3293486134150264
-0.21095560371299857,-0.054554156158275025,-0.10062637077364113,0.4402740296953246,-0.07104712414460584,0.28004822168906973,0.23878218144858243,0.8656437046947367,-0.22208341776898974,-1.0616823743212507,0.963617236522246,-0.20986223292118406,-0.04163868912194716,0.641715957420268,0.513844771048678,0.47672308527665663,-0.024885655690264605,-0.7467628712814439,-0.3780022811635713,-0.4532551432189553,-0.6450080507045504,-0.18012569841722298,-0.5393984841378854,-0.05195452136760969,-0.16889834615327007,0.6234048617434974,0.12468221102196159,0.22349314709099766,0.639853637926257,-0.2736254551485653,0.10814408969421634,0.28171289389729304,0.16208645586301207,-0.03742711064333926,-0.9412316868298962,-0.10602714184753954,0.2610149076516476,0.031111716182084848,0.2030301519712646,0.3333447585008826,-0.124776497302196,0.42153542999429605,-0.13328394385744452,-0.18945876940762066,0.41870305050775486,0.338084606096742,-0.25472195748758036,-0.4973920492493026,0.4218922560661057,0.4947681204578132,0.056104988350589684,-0.3191439110957392,-0.27334975965035574,0.5078731731467869,0.06159966684928071,0.47089813243489576,0.33626853076235075,0.7252545364241678,0.35318251759765973,-0.0059870384911427255,0.24128267754208998,0.673460347024921,-0.38519981340478276,-0.3933939817154724

hidden1_to_hidden2:
1.0,1.0,0.996199601835323,1.0010416369255877,1.0038371230041372,0.9974456479929545,1.006959377350899,1.0,0.9969547714729605,0.9985961328116756,0.9983181364592405,1.0,0.9968852820784456,1.0,1.0064630383063213,1.0,1.000494931413157,0.993406788656795,1.005706707445313,1.0018448205093118,1.0016539331670284,1.0000644562627086,1.0,1.0,0.9993593704978945,0.9996445806316712,1.0,1.0028635133607844,1.0078368273331666,0.9957948949324168,0.9972228483132115,0.9990085472766013
-0.09562944378066565,0.11565812702530247,-0.0894133952867483,0.1264084305531171,-0.3199207529219484,-0.18638489190286342,-0.21219423472073257,-0.2851087585212404,-0.3609240699821477,-0.18121991263384596,0.026336530893453596,0.31905639756453846,-0.19958612954315738,0.3082163756705363,0.37005633118947495,0.06284144690010453,-0.08098668933000842,-0.21538514117444196,-0.1992144103765921,-0.18523083154891407,0.09749579294443933,0.11640562404000532,0.18891064403278687,-0.1872995066845973,0.07135557943326354,0.034602296557576843,-0.29515302074989147,-0.16557036095653488,0.08123086094282184,0.05187271655618462,0.21267194706847742,-0.10523382730521845
0.10852164727334386,-0.02320108591073412,0.04002924440786835,0.09624920180320988,0.16252726489374245,0.0021581332159104545,-0.14333760738703408,-0.22035790338957642,-0.04805308290101615,0.2743567073007872,0.026696074857119775,0.08865143482170806,0.10275777819305591,-0.07266932544077709,0.1533702161350646,0.026628001689376797,0.11582827455943104,-0.08146514244380129,0.031792983804480486,0.1493084817697841,0.06104387367552387,-0.22102101007612293,0.011742705653174281,0.259257428759381,-0.13221372190187172,-0.20622697578271895,-0.21106931064532658,0.1420978456051677,-0.022909930375507266,0.02232393548476918,0.10353036262798862,0.019521960259532012
-0.16876402615315395,-0.005857314322220632,0.16296894458750683,0.2062867307050942,0.3368366021038155,0.3065452502868218,-0.09339430970634907,-0.02634832692968163,0.1856844300147628,-0.16290013279538765,0.23572967404052714,0.0797280655967579,0.04603978735117456,0.07139433507092799,0.16205639017349519,-0.12228543408676458,-0.11020295330269311,-0.03783464249646127,0.13771046178980348,0.12659699045506506,-0.11150475539161873,0.06030999673617641,0.05383565951963712,-0.134501056207791,-0.07834291223628842,-0.0022291240459794324,-0.19691647520206715,-0.29908516108338246,-0.0015540802191860803,-0.20432208371078905,-0.12638354268875232,-0.1973213031142503
-0.1299241625804568,0.10745156847644122,0.036610725894456235,0.2201871566761737,0.010727019670395424,0.2713589578082231,-0.26279447906812986,0.017553547865392104,-0.012786587534290062,-0.3525300718416685,-0.09149666098677904,0.03038949735920803,-0.2660720268557241,-0.019429612943493185,-0.20241012707002257,-0.18114360868790133,-0.1023118627081272,-0.009892247082773399,-0.024097933953156587,0.24159395252344582,0.006486850935227854,-0.202852340137881,0.16019294209992702,-0.13506644305430685,0.25174643000830205,-0.018358153843731153,-0.0343057844788237,0.02622136623659355,0.13771723987787282,0.24376666335823463,0.12190914633120987,-0.1594895325339304
-0.188874741075829,0.0724750865869664,-0.06458505522791172,-0.04260215673303582,0.0004034942216968724,0.2624151686960216,-0.1223520220661787,-0.10658996870496117,-0.09806086173949594,0.039825116620181074,0.004984918767649211,0.12593064530463435,-0.10140161418600448,-0.016904657846248883,-0.15210041876428462,-0.39488952245422687,-0.17925902464517077,-0.137718898613487,0.23604300582369747,0.08918547385875226,-0.07474474622274319,0.1981112954169442,0.009758193459329222,-0.03378265310701435,0.08069148097645215,0.26440530700099246,0.09537893259839217,0.22676080696609024,0.026723567377405846,0.04927480494709918,0.10203731654017151,0.08680699415144841
0.06886805323364961,-0.09538644468909808,0.2807668922068705,0.02478086206131843,-0.24838900675271988,-0.032282911049817294,0.07997751415733531,-0.17163948138318838,0.2697369078262731,0.1285167419591633,-0.13542090624153025,-0.30288334979499837,-0.21482145159151897,-0.1492112321807335,0.03703808255754101,-0.11624826299494802,0.211136785891888,0.2494490103528223,-0.05062642372737912,0.10601667891920337,-0.04312857573231326,-0.23291981805365866,0.07593003628015359,-0.2557185108306399,0.1375231230785014,0.09261216799758325,-0.08876624507078193,0.2685757415296751,-0.11074541753855842,0.11230106813929339,-0.01010864124990712,0.2297462647684465
0.07401354856466395,-0.21679948075619504,-0.33483611833342836,0.0015600371872474884,0.183717611636461,0.10715022320421302,-0.37300062394746114,0.13183397628542828,0.20553607750701908,-0.2554487569439523,-0.04537642224257277,0.2553941439741985,-0.05389417289228734,-0.15930032124503843,-0.06495223909389851,-0.02261578720527483,-0.10491703610804562,-0.1704492959164175,0.11798891070769346,-0.04123024191742231,0.17582020337542414,0.18222795685784343,-0.20464441871159045,-0.14392423766975657,-0.13269942363895307,0.03190906151077515,-0.08746583023427844,0.12457384828545784,-0.07685764353662985,-0.24187953105016838,0.17194306240299656,-0.2016963304945935
-0.18539306076868892,-0.31025983813311153,-0.3586685295815789,0.2160006905926801,-0.061432053980199505,0.17045702962321127,0.1412069435308493,-0.12366225590734023,-0.01915336627998682,0.04988761026248458,-0.021155214424135965,0.02010587024918993,-0.21651071254586243,0.22524641416134222,-0.3166137795171437,0.04377946162512317,0.13713838162566153,-0.2421773605558654,-0.1050231109565639,0.22960668396503284,0.13576781833183624,-0.08461928795975111,0.022938158329404712,-0.13115599875623493,0.07687724940944123,0.019435243274619984,-0.07823198138332493,-0.07977323241030078,-0.03671314830177503,0.15802463101752387,-0.16331376483994517,0.12966621259952493
0.1044802086742636,-0.02830715053290682,0.199700158344962,0.013802070438880775,0.03322555052856931,0.5527975223279586,-0.13090214861665658,-0.09586850149851012,0.3072268364172771,0.15510964559877582,-0.23223544413176334,-0.29838854883951704,-0.16700718559549535,-0.010289630786799382,-0.029563454884265324,-0.1252254487239543,0.32655894878907593,-0.12527014145158247,0.06453740721769384,-0.03330197939553631,-0.0755245541240222,0.012524943729406952,-0.061936602406406034,-0.06952777008420835,0.18861185589229668,0.0892004635597781,-0.08713699628056852,0.009970904272812376,0.11617763945380752,0.11368629931575874,-0.30083597112061994,0.062236231667471026
-0.019325919024873007,-0.15033000206020397,-0.054337474162554425,0.2113622990743043,-0.19643368385621432,-0.14751760956261653,-0.015729576747927684,0.18359482803651295,-0.10990812489727604,0.13334266033981235,0.005038857776429671,-0.23564660941767107,-0.02154881439629494,0.12408849315235693,-0.3078717395609304,0.12427731659239877,-0.0469309307069973,-0.10977038152573768,-0.20230042762070072,-0.23927261887112874,0.09733781045432285,0.11901047015385734,0.4592815871734466,-0.0821389817536773,0.10358708494621426,0.17525145444144236,-0.009909721627703122,-0.4111332879426862,0.011797054792163848,-0.11039754581664397,-0.16013904450305586,0.1685810531089019
-0.1221296269801116,-0.13877328996942698,-0.3141290143581836,-0.10140220998719685,-0.038649097926471,-0.11303807855282112,-0.09988711000453848,-0.08554929616358144,-0.1111455632844251,-0.07007822604179237,-0.13062416950508635,-0.023517053539881084,0.26308527037832113,-0.014923224917175707,0.20378830372867568,-0.3957299810492987,-0.03889559615105762,0.10405348483423514,0.03824425477270989,0.20311116458667142,-0.13928663062252175,-0.20276101283584963,-0.3236782423964063,-0.03917090128517386,-0.03683867955567087,0.3168173465834573,0.053269749478711735,-0.04586882499021806,0.31792525727807924,-0.22217634907954076,0.2656531063079616,0.3783818495677411
-0.05967770222124116,0.21883642190628297,-0.048988873384723484,-0.039571677196182035,-0.19319397487007015,0.16864277647822198,0.033363271937562805,-0.06470753033919927,0.13380816155370448,0.04300208067028931,0.36203081686969496,0.06240535825865768,-0.07254824467945074,-0.04727532276235844,-0.1445779472262197,0.05753871637466683,0.13243731512575077,0.3516738282338764,0.2574353919159827,-0.16127561305015634,-0.1340056991118517,-0.25039012741451033,-0.11640626570976335,-0.05976988278917821,-0.1422536512085381,-0.1037727426792685,0.0015653245704451786,0.2923096319988311,-0.17365247510738818,-0.11269110401431591,0.12957616499637903,0.08481352001974317
-0.21723533974843884,0.10640722403460948,-0.031094198957645654,0.3119085552554886,0.0994555716721009,-0.036585480662123075,-0.08805414347596047,-0.08023311775689344,-0.23292380668263793,0.07668452176251567,0.3659615783199952,0.4500770882015423,0.09092688566499547,-0.17308244452631485,-0.11756392375314008,-0.3399060722015797,0.10356492932728287,-0.07915949100731287,0.0072409037917943245,-0.09212232808057014,0.12426633077040353,0.02150018007319264,-0.2026183310106764,0.06832124999223854,0.16268441702303907,0.21120338107153186,-0.12751527291255535,0.029991840438174756,0.4513573314920789,0.14030044144304962,0.16741555560537727,-0.04430731155699458
0.02697973129378035,-0.08952668632000742,-0.062044365919678504,-0.17662893545353367,0.1375773648080682,0.23078970374757515,0.21238862310189743,0.05461995086217629,0.01915539712048922,-0.1129251345590339,-0.013349706491807627,0.009739540057486479,-0.041582433162528756,0.12373677325000929,-0.2952008272886307,-0.042335094150580094,-0.20962348459883604,-0.10017502657477476,0.30745809631663096,-0.09978705626263733,-0.01187108829015551,-0.11199405528568039,0.07827529748550155,-0.15996483119992572,0.1575730285988701,0.09182260235463269,-0.036642122295065714,-0.14011842616268258,-0.24395328828096974,-0.09369866153562997,0.05768198557366877,-0.057963323554400786
-0.05671466902536863,-0.03673012150248107,0.14701432629166003,0.1230004367823751,0.09772273479419871,0.35375746397675845,-0.047926729497671905,-0.2879434808354227,-0.18510998865523712,0.33516904417060656,0.3292416856635288,0.025606687203805045,-0.05511474811374238,-0.33189941304693876,-0.04567851786421036,0.08409489023993288,0.16831187722039978,0.04372766136905453,-0.2834545104692342,-0.291207972824479,-0.0765064789313816,-0.02564560398417855,0.0843765183300881,-0.2414572662850033,0.2668121487085705,-0.27445705870923975,0.03573552165836528,0.1940890612854373,0.18162506939480086,-0.5303538783200618,-0.21037659455434352,0.3631264341298925
-0.28489487542115854,-0.10148122304579098,-0.14086620688820617,-0.00990813116330453,-0.17637132372460168,-0.07441211407225032,-0.08340036341176481,0.07681675569745954,-0.042964268893874905,0.20478102374740362,-0.18861903686999498,0.0264410729158954,-0.02181460529157063,-0.06007409744798542,-0.24717737840782628,0.0691933267170739,0.3129731056928984,0.0760512865545202,0.1039987310056117,0.10947496239552865,0.04453555336003774,0.10087248783774805,0.04400017745591928,0.02098851289194924,0.14420542775462325,0.08746451618060329,-0.2593639460402964,0.13586282899612498,-0.18518895137053618,0.2215213424908495,0.17353281238428575,0.15234053157605024
-0.04435214849551844,-0.034035426762562465,-0.07649021660264169,-0.25647537595507214,-0.11475725631070569,0.027612100870910598,-0.04294676535360661,-0.120023749956684,0.13942329859270863,0.14715882991243157,-0.197785089529397,-0.16640711557106552,0.026250870947601018,0.11985660448569631,-0.08061830706597671,-0.09084777840550072,-0.03627659832673263,-0.2900772022320505,-0.07675666130218231,0.16123172610373313,-0.017232712347146836,-0.09216903804884587,0.13294520041817712,0.09460917983123697,-0.24677945100500304,-0.05089048267315058,0.05873412063942621,0.12973530006461007,0.2885058692275002,0.11287139979716075,-0.00848887686985242,0.12239807148181761
-0.010671435326403791,-0.26798129782014524,0.16748412406929386,0.043607351212106585,-0.48396520555394634,0.0504121277200369,0.0605390402440646,-0.08667267447730413,-0.31703925299723074,-0.0906312152050407,-0.08451877831282559,-0.1792881211985503,-0.19742160751336865,-0.46462193542980995,0.029723272725583626,0.1777780656075898,-0.061735964382585454,0.1814623747329035,0.16704340680856508,-0.14525041094869967,0.011026459927065963,-0.2820017475803651,-0.0443933625583485,-0.18999770492784024,-0.09697290515470765,-0.0754195777451773,-0.3728526567062338,0.15144414287712374,-0.001572062436062711,0.07920014571331176,-0.2308555957255771,-0.40370676298859154
0.02959529545836791,-0.05399186137461289,0.07024608372633223,0.07876555295940317,0.06550661989819512,0.2710780202596977,-0.08217675149563876,-0.007690079431319583,-0.07399855355755168,0.16335591162515367,-0.10817327419261667,0.02300704343198319,0.28737794630780944,0.2582739810798535,0.08301082082524053,0.08407685943516711,-0.13215854593741044,-0.18585790043544967,0.15681830757142817,-0.08602727922149818,-0.06734017176689477,0.12541704864419162,0.021379663137272287,-0.12299989079066659,-0.2697878746393372,0.2411161988785844,-0.2125122658638393,-0.04224121769582706,0.14443436229212717,0.11558808447403494,-0.22432746028218586,-0.1719481245810201
-0.3563118547480372,-0.04928919265362454,-0.09503691850015529,-0.06880013137112292,0.10375073415912857,-0.19432071981494062,0.16043757532506767,-0.07923672002066458,0.1229090635010736,-0.11639037190199746,0.014188213678120714,-0.041656294520287004,0.10743896720470983,0.23514086521079064,0.25573458118275644,0.1626858483499036,-0.012585983706011964,0.10126863529288581,0.004197866845818493,0.021131312465994097,-0.03456204234702155,-0.04873734649137593,-0.0610681995606293,-0.282891958652179,0.22341753389081614,0.12848173539440033,0.24152782590798946,0.0008879547656518095,0.05206902356681214,-0.02955667683859164,0.05735658088702019,-0.06072939945531828
-0.02407265992542486,-0.20075509265124822,-0.10959603395295324,-0.1330280407775977,-0.125812047561681,0.15189900116768318,-0.3431050545292103,0.225618042540424,-0.34972722093455844,-0.10674065938798928,-0.005663295099687867,0.11574141307078352,-0.27025405359646026,-0.19498391685769254,0.2085188342119004,0.18141796391846898,-0.26422508970633335,-0.04867804234921155,-0.12706696885511642,0.16855790020635733,0.2730015820915928,0.09609775903093226,-0.08664439214219717,0.1954543953597494,-0.12983968674416166,-0.09085466391639903,0.0760784428128429,0.15770506621002475,0.3257068225304562,0.2822889003758484,0.08646238163993461,-0.0002256207892495531
-0.08141698957358527,-0.022713178829791437,0.12527918015957049,-0.01683393997558138,0.1370962394729898,-0.03062977338579384,0.06959212703707754,-0.3775513862790685,0.03298577246254946,0.36528316963057456,-0.022225070488666364,-0.17908627933454818,0.24633271994623906,0.02578167992439403,-0.1505677997277861,0.37593338564636736,-0.11484469456969605,0.2263066271239592,0.05753979036660244,-0.02130897527602561,-0.07204139440516527,-0.0384145475413613,-0.20804471867774363,-0.12039094299307707,0.11802723629526504,-0.09479319031413297,-0.0665072212819691,0.02979617821514287,-0.0013677904405590858,0.12613450642392188,0.12967214051245618,-0.0589606132638054
-0.24697278537876013,0.23302078105689472,-0.1377291280161683,0.18692324718660225,0.19555440782339234,-0.1466633156048933,0.24223672274191654,-0.05892286277634404,-0.23927066541281933,0.056333140359801054,-0.3008436686804373,0.2950766199873043,-0.38283001783884707,0.014156897564671806,-0.0731151542298323,-0.3329551301202561,-0.166089801308124,0.11091466764660877,0.11866101119989529,-0.003940588040773794,-0.4015826927095002,-0.2835360377541423,0.08301780954793564,0.3489711443700717,-0.023158213209786706,0.11992163921627409,-0.14843326291868914,-0.2310588776703711,-0.33126750398066224,-0.24976473236962676,-0.01915105182451394,0.032691724081139795
-0.21910165516515806,0.2695601388653417,-0.17935922607289173,0.21511684649142987,-0.26580272235628855,-0.010941131697282126,0.128938272949606,0.15578676189530363,-0.2583684868743025,-0.2497794334163941,0.3857464441406134,-0.0796656889256754,-0.2148068206158105,-0.2040025485034862,-0.35211794024059234,0.05022057788119683,0.03517129351008688,0.2927737413534935,-0.02965900172116649,-0.17646423239860634,0.2311307891065018,-0.0730444194140198,-0.1546142394367902,-0.2658816509764419,-0.053167478832514915,0.209412336174542,-0.007651098949846015,0.05805946729028437,-0.14392449779769495,-0.009486177710726766,0.14264818605847449,-0.06401572210045704
0.17090566196524584,-0.0146824691437746,-0.07590248304988204,-0.15748558618646635,0.25071149138454774,0.05109457266000235,0.316253631482492,-0.005474564075080078,0.32242455913951723,-0.21062449313817957,0.011659762509597348,-0.0036698069684384833,-0.2196172155750355,0.03213875551151346,-0.13874899572604812,0.32740175253267195,0.19442431892558346,-0.014989416151908987,0.0048854346290826065,0.037479291417181336,-0.16288912448336257,0.17417804273697648,-0.13308107973855834,0.18534832113106506,0.092393222769429,0.10635290767327298,-0.11749034204623833,-0.028694646597128216,0.09986128992503396,0.20831539831110393,-0.0655586776375483,0.346697262416493
-0.176758320167334,-0.3343111508895753,0.23060622233804426,0.2077495745586735,0.0001340803493722281,0.05655800461021791,-0.11329465636083995,0.18611485520379517,-0.06590470205482747,0.042561460941999286,-0.263504273718682,-0.2891953829284484,-0.04765091048911163,0.21323981455235938,0.3196400096531739,-0.15831873791176684,0.12283161936042351,-0.13323812774951793,-0.026399579946969134,-0.09770410879031868,-0.017432024697132932,-0.18824266777344123,-0.08357865685420893,-0.16776382608409754,0.1409446535190356,-0.1443480816072137,0.11383987591961611,-0.11979304617864099,0.13885682151050333,-0.2586640291633647,0.2835842344535391,0.15504801912147198
0.14906964246068505,-0.0322638116447253,-0.07391840180100336,-0.40559684889145997,-0.10467782866145785,-0.30413915950401127,0.04324473439587489,0.2956396452819974,-0.11626840624101913,-0.0971990575351165,0.4582526634044678,0.013659103882743278,-0.3521369822361648,-0.06933613858440063,-0.028203073950086872,0.08112526677650733,0.08255138504637516,-0.0792059339223493,0.12028390974522406,0.07316918466689752,0.1653723906276768,0.1401728900372807,0.09515757204752037,-0.18233620782663473,0.055048445457826854,0.3008294980628552,0.09243678519258641,-0.0062815381758053734,-0.07874958289332575,0.015957097433029258,-0.04550852337189439,0.1826761933436614
0.09107494759261871,-0.026708455187396545,-0.08588730457189057,0.15144053874714625,-0.0456257607026826,-0.041060327586314976,-0.0731529857828525,-0.003498785735641962,0.33633241891075716,-0.1629409135230154,0.21499143630749706,0.23303445189115382,-0.2700628535692021,0.3293733394687361,-0.05415951848924898,0.07584909163847085,0.3553338624280009,0.051367491907291285,-0.033263038487193,0.13290061615763912,-0.16862913823298056,-0.16490339351523586,-0.07531968636931287,-0.014483917022498839,-0.1883468729002495,-0.23246779209804994,0.038238423538079144,0.2434945146666373,-0.26603651709395804,-0.33461125918376095,0.06855186706848798,-0.004825238493384414
-0.03481579583768767,-0.07084567661068962,0.3968048597556511,0.0737965250754165,0.357609635162975,-0.1382801117597654,-0.3561114322889839,-0.06469011903940011,-0.05798831716013672,-0.02917098239816619,-0.012739106602385818,-0.11903660738930312,-0.15136893624074166,-0.03417508193809023,0.08739505589103207,-0.10060219589562504,0.343251612186131,-0.29790758221980757,-0.08333321890527993,0.2243948326442656,-0.034875425576556485,0.11215124910720924,0.19078466116689813,-0.37921416724054013,-0.10952078529274399,0.0997723814213255,0.21125624843783586,-0.13518742861915575,-0.2465302949233913,0.10152630761114698,0.04738587401193474,-0.17815617684200605
-0.11897674709061275,-0.04927143490179772,-0.3772404887153969,-0.028592482059618153,0.31275561510178707,-0.0855055603897081,0.44190672839985434,0.06441939183478494,-0.0869833164246063,0.02816080224133884,0.23628968629385044,0.009070883258704997,0.06903081236090282,0.1946740881564307,0.36295036619420057,-0.24687201739658932,-0.18417595115565089,-0.03147522651446048,-0.17354584694267075,0.03633253012019424,0.02891536745900048,0.02246891721547061,0.07014499315634999,0.011248025566787105,0.07589247033490261,-0.0501781228064966,-0.18690325859684867,-0.3210456385795102,0.15761320507272533,-0.1917481989260659,0.11987678742008334,0.2943688637141409
-0.03209318088724027,-0.13057220195212654,0.2413304605984157,0.05444997564949708,-0.023099458608341724,0.004924329513405095,0.52677302724619,-0.03214334386195672,0.16106472426554036,-0.049561155608034854,-0.12381802713133457,-0.29004081373946267,-0.0009919016624968867,-0.24820088063825801,0.2651174020227857,0.057033850995975625,-0.005776705846238177,0.036625243990392575,-0.32596104759172945,-0.10154185178350501,-0.4016029033181572,-0.23388503791074472,-0.09153885919158518,-0.16273995679503842,-0.0738083286262268,0.13358699081940048,0.09735998983173719,-0.2045917821156762,-0.003924867764354739,0.22108335872437496,-0.2339161590183253,0.0988515792502456
-0.36217847157850186,-0.001514453637216552,0.38085840219986533,-0.130048923582713,0.2494010711594988,0.03574328043725594,-0.1172379867076764,0.18161573335822997,-0.06262951100368676,-0.0073337847827833575,0.08491592210810515,-0.036990713420899816,0.4091490311294318,-0.2959029123870668,0.05288809754614999,-0.4135984628698875,0.11489722051566488,-0.021807208808878868,-0.1315067194674496,-0.21936398775790658,0.1398422239717662,-0.07305676234666537,-0.03433056798470716,-0.2673414019196049,0.011325831250932002,0.12925150281492764,0.3204377551301636,0.18248374404411702,-0.041171127177947346,-0.04509741233985425,-0.0877750354338259,0.1653983062451118
0.11286545365472862,-0.2661855628125413,0.04610217244118444,0.09047660517871006,0.28292648466145426,-0.36571176986853066,0.1636205955063254,-0.2333486999526431,0.22692774812085412,0.1963652146322279,-0.03231599472187324,0.050648600081708496,0.13654366296331438,0.17499619231292277,0.2159665465476726,0.10324060440712853,0.11826764535968988,-0.20708342999337367,0.02088977775198327,-0.07966162884530599,-0.22456378500891394,-0.37008538999570234,-0.3289070710701298,-0.2024713002191893,-0.287045861949618,0.05449776978484369,0.22355466401250024,0.05555118391369969,0.005565916987203332,0.016829726626734594,-0.0387221046092911,0.024073736852186736
-0.07996517808086012,-0.01671439343372162,0.0690813833227076,-0.05751287120396479,0.08660357872279051,0.0019241441495589753,-0.12191284070879779,0.11015532347593188,0.0729514866978482,0.14908492105097385,0.28935532855049184,-0.19013507731829069,0.2639475611453223,-0.15721256088650143,-0.08194716435211197,-0.24560871558135147,-0.10973791952915334,0.031234634161619364,0.2857239905562931,-0.028583875662681967,0.027659262669843865,0.26423688631901454,-0.07283376257602728,0.07949499427809127,-0.1856112187838854,0.14612138370112207,-0.11767184545273189,-0.33954090193955794,-0.07604201298354088,0.0525286462524497,-0.0713224743542326,0.2951871136116998
-0.012134587193201525,0.00257615171396813,-0.31476613271019427,0.18201866809644335,-0.1034504374453916,-0.20481263519099865,-0.11687504256398148,0.28685339594709713,0.0040476172128029505,0.43973548419499486,-0.0061971254329252065,-0.027502119319391987,0.11762455281644253,-0.0448956673170811,0.0630389669477843,-0.08730592543773874,0.1758989365674533,-0.002749484953384273,-0.08277967507167243,-0.033870720583561297,0.1050101050058531,0.3219104611662399,-0.20130377050394924,-0.22838756586015738,0.07115920079873043,0.18579949388069106,-0.14227426026395693,0.037251320814947926,-0.44588975328152886,-0.0827700889700049,0.20987439565731336,-0.11232076632946526
-0.023139681659130835,-0.26014720709321465,0.23973151606497733,-0.21848142921432964,-0.09456296022815433,0.26248698523365577,0.22473846594411456,0.022129670938607647,0.31687696374015023,0.090010461879012,0.0026451920123513922,-0.0026103041536594774,0.17587854689064342,0.018962141187820285,0.07445822759284375,-0.38751606332288896,0.21943089253746065,-0.019667216146128694,0.07391619350775652,0.09006227686851008,0.09163786929050358,-0.056480870142792905,0.039882498007236075,0.02235590986922775,0.2828066166398693,0.02666622983394646,0.06983822386017702,-0.21069529814737833,-0.13797209612754838,-0.01695027342354548,0.23108320483215364,0.3479012612259013
-0.40348542192609277,0.1075716853175735,-0.057524600040219254,0.6754655810256937,-0.24577453011396003,-0.22343385348280193,0.041750878043844676,-0.19546031388997598,-0.10352862434108806,0.1739509800474076,0.060792690901907816,0.0411496711135575,-0.036429038739658,0.025407023737532675,-0.13226917928386267,0.19646394851943394,-0.08789358166555877,0.2973136053787985,-0.0931647742474556,0.1634502636389578,-0.21773557509692107,-0.12828724158323407,-0.048795500287280955,0.008289651641287489,0.04141251493931161,-0.046664116203229945,0.02928390825912057,0.10609017677570573,-0.04138354628137428,-0.12262006904479825,-0.06694538695111454,-0.25938245301018176
0.04712316527427418,-0.1432402146534415,-0.0032677848853016104,0.12084614046406467,0.14595816791089317,-0.005430161876372208,0.2705044327012844,-0.2126719894886634,-0.1056291826769558,-0.18792646256121426,-0.08464626469815495,-0.2510036482615739,0.15628064251278123,-0.049783979144347276,-0.0009595543267775133,-0.16586201365603612,-0.1363858403993695,0.05670039207641479,-0.16282530359768752,0.03712362537205975,-0.2299905307297612,0.24453239838542654,0.09417684853608428,-0.168092931215064,0.19936125024281576,-0.033358662919065286,0.03772625136320544,0.2029962380572395,-0.17502691782640992,0.05324584694206224,-0.0012902769911769512,-0.07387959920149462
0.04463404429139516,-0.16473887289734035,-0.12726011719424316,-0.06104153347723711,0.14678681060971713,0.2007499567656052,0.010945872534493705,-0.11729601059910252,-0.006371068107314877,-0.008561089577940639,-0.062425866265145284,-0.05519732412037559,0.0022967859910553424,0.20309028369251148,0.04068375129308067,-0.12480218379711824,-0.024867834546609707,-0.1949866815085265,-0.2727653551340188,-0.12894468902289957,0.3018285876831702,0.010533331853857516,-0.14689759164383806,-0.19030173342754683,0.11716439034534545,-0.2889913637609743,-0.04646558126801004,0.05723698977406875,0.0316440298034972,-0.1455793327793393,-0.06948549996146018,-0.19432096208182953
0.24041899211827636,-0.011386947055434964,-0.2070396059496173,0.22626801811165298,0.1279224231158006,0.23316238206354464,0.1246747741612276,-0.058135542428730584,0.3486358878017114,-0.11520921686933445,0.15403337071328035,-0.1022187807406927,0.3250922125038491,-0.08859275632848337,-0.08751632243005157,-0.2690152747072527,0.3305666203018102,0.22292712021937963,-0.19138257177095264,-0.08097681166821523,-0.06974845062278656,0.17642676620987152,0.20811886626786247,0.3398953154536511,0.15355369797002194,-0.013722541465292627,-0.21638848865316554,0.056679892565552656,0.2556162525393534,-0.14421829193044627,0.15141383067573302,0.15714517459649646
-0.08345333106211206,0.3146742723528669,0.14918514925952275,0.33485236628371723,-0.0007350621497765984,0.07334793279113876,-0.0577638929108733,-0.028119293902382058,0.21709726459992962,0.23446012301566577,0.14943521560191278,0.1707978695182404,-0.38851943900808994,-0.018454608374547057,-0.03295983215932603,0.37434088001833876,0.010052153490424081,0.2230201140016527,0.02664047975657062,0.404737460348172,-0.21502935771418175,0.2242300291864072,-0.333062023529582,0.05833621860773617,-0.19532858629388986,0.2196025053224461,0.18938468484548412,0.0919499264072589,-0.12844262767190592,0.11032867065688942,-0.12845458280203995,-0.34574875063181804
-0.2882871326980314,0.06460284485044818,0.19428511027873607,0.08980885330975238,-0.21197141125046723,-0.020980164673094687,0.22946309173193946,-0.1688073483404693,-0.01910811429180511,0.029570427389536028,0.13063709829867465,0.10564575702337088,-0.005722749174537895,0.07041198718081254,0.2681872341236531,-0.03464788387789935,0.015636560122996485,-0.10275372925028042,0.008618896566424797,-0.07579309745438682,0.1549649308324606,-0.10432622359124553,0.08933608740772055,0.016133881599691258,0.09537270423867243,0.1274165744064418,-0.03663705688209613,-0.17668612622017316,0.11571716625011062,-0.13475420160082963,0.08738607146448289,0.36690320957039835
-0.4475841813049542,0.0880170967415912,-0.024179632178682183,-0.2640914974566107,-0.17284049470626897,0.3003163478172446,0.12595157337327356,-0.11997331725424489,-0.2057213478318731,-0.2352282362094873,0.08142170315976646,-0.08121524336097405,0.05272255077596092,0.0836757404168497,0.09329054947360513,-0.20394534436562026,-0.02740491814773144,0.05238191775994252,-0.07641530527282664,-0.12342250301826375,0.07692581006789757,-0.10480768526820036,-0.20524208613085534,0.20212712547833886,0.053327226189165015,0.0029175568028926204,-0.19567707145741287,0.06651458168123277,-0.19255644308009015,-0.1586326119136809,-0.029303171077440574,-0.07235616172186585
0.05765546913580393,0.163113745002647,0.28931186369095035,0.19550273184458197,-0.03554590487719319,0.033300761164196405,-0.023680181488773495,-0.03677778639316717,-0.052671956986412485,0.21585047896107015,-0.15569224363717285,-0.4175910767710686,0.13450645576929296,0.18907185593953735,-0.24161470062463689,0.16723675273580177,0.13961009301131821,-0.2333479885962191,-0.1817789717598538,0.007653678441715507,-0.12199015786219512,-0.01596814530241788,-0.04419110569742237,0.35469914233428157,0.24357032973320436,0.03454429478112736,0.008949997351719164,-0.12651423533578876,0.7446122127834697,0.3655293833901116,-0.05963623520837919,-0.28718778123362587
0.013747487806559877,0.1314453165054236,-0.07844666603102533,-0.039926688310499905,0.04656934350269306,0.06474475861927913,0.09320242896251256,-0.07995083195383501,0.04455872406371607,-0.0802460537920788,-0.120399502469002,-0.08427595961700571,0.1642683399337654,-0.06712229328110521,0.19026102612949286,-0.13239378310020172,0.08270777222479257,-0.20985479687187805,0.12244910247172182,0.2130659447513001,0.025178629518930004,-0.08963596384927532,0.10345171045353294,0.05743191925658793,-0.19791049874181016,-0.3410920540096946,-0.10095914556573729,-0.17013434852639153,-0.30973824148629536,-0.20787583847919214,-0.29495184147545866,-0.1155532013918083
0.5745931059368408,0.18417751810112146,0.5160083933661423,-0.19187185514655877,0.11807973729966154,0.1835071372651978,-0.28153889611622324,0.09681306049107122,-0.08328406807781506,0.12922921180920446,0.0999860525729624,0.049203366118234095,0.08907080253082585,-0.07815706424866521,0.021650995554635486,-0.12146286869388834,-0.17461626151195608,0.2785904236923956,-0.14428495186804824,-0.04886316372036601,0.11638370419948865,0.20224353387188282,0.19250160453390525,0.01489496591432089,-0.10751897504655768,-0.014650481476168233,0.29474599554588304,-0.08516821697604327,-0.06532612140601855,-0.4377796514666291,-0.060114939791307206,0.015879571697861108
-0.2388022110964875,0.10722867202130652,0.2236597819057641,0.024950161681973795,-0.07685293336738702,-0.1880035062894389,-0.05585456125978066,0.025491576443111914,-0.05773727563302796,0.13686709343904704,0.03331167197134446,0.1768537843873699,-0.19646345684725577,0.13743221680516834,-0.04367577930266973,0.23592829220063388,0.1424016583422004,-0.08639230226308862,0.26232132016191073,-0.0349425225506797,0.04193601878459779,0.08232123276925551,-0.0394767212953223,0.11518817028799978,-0.16024826613167648,0.115588470921791,-0.16030665821397594,-0.21233447775918596,0.23822200412287753,0.180042272625568,-0.10455032141175553,-0.20893120140617422
-0.08352960171097622,0.024396548749915512,-0.07281011268282594,-0.15680071496748643,0.16812245703981787,0.049893083396186595,0.31770830880672657,-0.08996746430190744,0.0067316248050053994,-0.09548367426748681,-0.06185354126420841,0.05473170286446918,-0.01871144203318273,-0.19382581346284347,-0.041699306384677275,0.02649742083761014,-0.019742009228982844,0.08815894707700483,0.11396397608032428,-0.21231227680614514,-0.007555993291542884,0.07358829796985453,-0.0011135526140345034,-0.14653151107657927,0.07646553716742735,0.06453398743308227,-0.15848117923577593,-0.05863984088855858,-0.0895162362619049,-0.23336824366036243,-0.24996078309180478,0.10160970299406591
0.14299085512474852,0.1853373561291683,-0.07206146961310521,0.0703213509109402,0.025498308427482828,-0.12799453802672184,-0.09009724237431424,0.000807141532957865,-0.1205270271246209,-0.3565450517791858,-0.01909834706121371,0.05624700155557039,0.04357676672386566,-0.12746893874902215,0.062420301501910386,-0.07613136408082441,-0.05672774222846634,0.048717898141984,-0.004464968548282412,0.1727809222968381,0.09322989649008304,0.1582641742407515,-0.0018764513304169652,-0.03803927400353924,-0.018130465090466216,-0.023178888831809435,-0.6504449972999419,0.4046784381472455,-0.14125370705630355,-0.10758033818377372,0.7053395038965091,0.17853508126454212
-0.097563245005989,0.13569039422297147,-0.04536066102059828,0.33995289395748896,-0.03626185796459811,-0.13772470279862176,-0.16216796082246435,0.010434978495926714,0.055186971851641065,-0.030428058910522072,-0.3102236283911389,0.027966000757832035,-0.19578616266795712,-0.1993625909136505,0.0702260978671346,0.016869276601257047,-0.06721555706177709,0.17677010470283963,0.04338375533861444,-0.2670464049243562,-0.22978849025382528,-0.04355907056927878,-0.049097683236447594,-0.2791652623797311,0.16842810621647786,-0.1267986158541688,-0.16992136766564694,-0.06585633947099954,0.26498354791297646,0.06749647260142773,-0.010429242888953643,-0.11580321584231096
0.021008626877444068,-0.22969921600581283,-0.2131188654538277,-0.013941711187826698,-0.1045955747798136,0.2444292864940684,0.14411885942221367,-0.15008997950070282,-0.38202233510174727,-0.20636564989343192,0.03147634765883812,-0.1454640589763124,0.044641221836653026,-0.1781984417425898,0.292800198086072,0.2722159725105833,-0.04227645064716324,-0.25572650118109225,0.10125809548570225,0.11458828938905237,-0.13606469168340898,0.039483533255150624,-0.20793990873654655,0.039678335608782554,-0.03045613134492254,-0.05462312512662726,-0.009356845878231018,0.026201427403086532,-0.28686267135325866,-0.09193474235911855,-0.12884769461612877,-0.06375905778849984
0.2651165873219852,-0.1158609462065266,-0.1102767626923641,0.3166140223578423,-0.27607602388780256,0.11316871327396823,-0.14162279640364708,-0.28443505493511445,0.017236417596618286,-0.13787339297426776,0.07148029719953393,-0.1486662408045541,-0.011837965365199475,-0.24676830819084125,-0.07203818063490006,0.02199384056566001,-0.026942446716208587,0.12638550474905594,-0.21230683796253835,-0.006069708369500002,0.14246880562491354,-0.07199546117210973,0.03530007108014815,0.03284162162881445,-0.2959931661818391,0.04503217654022981,-0.36894486415062616,0.07201878084559299,-0.12493185185646348,0.1824560710782582,0.07369193896043168,0.01398070534707911
0.2483652423139524,-0.08129835468986624,-0.2321279429102094,0.1186403570068793,-0.05124268886714969,-0.04958268314481491,-0.10996771308928581,-0.18357379996359163,0.03871971444589098,-0.23446481815231138,-0.3003742312667728,-0.29911554906690724,-0.2944732931674431,0.08757744729916242,-0.0699655466629564,0.14983539210521654,-0.17410876702759917,-0.10219796371642373,-0.0988578264034629,0.3128143311719802,-0.13889618399248713,-0.31358100344448037,-0.16446452055257682,-0.08023619738586785,0.013461992781449461,0.31564739310005774,0.013086090069250865,0.14005847649884778,-0.01448229584050434,0.1687064301120932,-0.141241821795865,-0.20475130696467855
0.17152157804526072,-0.09979039942346087,-0.2968868948414252,0.2527055312411765,-0.07957438605029818,-0.14400430135184522,0.02889293886776314,-0.04294264002921892,-0.3391135768096957,-0.027050269665914638,0.15548093257448342,0.12797601100127926,-0.21329599529921422,0.07905106742612572,0.006040251342998383,0.052849619970038286,-0.06808087649120441,0.21105393855497548,-0.42585341246889147,-0.011635811715947329,0.1307742946305182,0.1972010342990318,-0.022035607412780784,-0.05406766035480988,-0.08647033206516837,-0.03470093889427515,0.06442467714904346,0.07621216968270945,-0.02930400176689699,0.10014550117112095,0.28072660089073315,-0.0658824533985287
-0.013217173322516054,-0.0024654025846457166,0.04116141859447571,0.1016779518216648,0.11792298602950133,0.14571241199059592,-0.1996196059702987,-0.256640075398144,-0.09979564463153485,0.09826975757251978,-0.08424245773382752,-0.15258942356992858,0.09831206773389148,0.014690938498478417,0.34742239502054906,-0.26731035679473064,-0.27818588623912344,0.6394925203830939,0.23362938088508017,0.08286828997421694,0.1553854086108246,0.19736199428602785,-0.040401028016000394,-0.09243728700182054,0.2803792810493699,-0.06436529749104916,-0.1081568961349716,-0.12165178881778534,-0.04635392110679131,0.09414311387743246,0.4341475353284345,0.12479859478201033
-0.11304932841716177,-0.20820531195353026,0.2454515645979798,0.12078295460334265,0.2733123723541753,-0.09454925746247272,-0.04524005298526835,-0.1578000676259059,-0.140801023972083,0.3934180037385528,0.09144768219445884,-0.07007431856840589,0.0020923697975924836,0.10659368685712878,0.3371015850714499,0.18952609008786955,0.005764732609503587,0.25081638147253077,0.2572770845670951,-0.21155931746702553,0.15372617380559356,-0.2577065852865948,0.2832769680730061,-0.07769678168628161,-0.029825715022035498,-0.06163106381740458,-0.18145925460253323,-0.10097902460558443,0.1439086566785484,-0.1258230034273798,0.3699444124582133,0.1038139567448329
-0.010788003413299758,-0.24673640143265416,-0.1754393825882576,-0.039918315732313685,0.08224929663053634,-0.09158460084951925,-0.024539626016490405,-0.008400459223536614,0.09931006051098902,0.005919273121201553,-0.0768032074448934,0.12685952152374347,-0.42210146779769764,-0.04642277521159048,-0.1770173891181716,-0.03117002101489,0.20552571481417464,-0.11267647740481185,0.03476466747602835,0.14777943679618083,0.2956759985347583,-0.1276883832745193,0.03282737466781613,0.32160740926416354,-0.3845650118527285,-0.11646857663174297,-0.2460611400356797,-0.13089147369732942,0.41946080115154233,-0.336123935079408,0.12751203827972102,-0.16748717480051042
-0.175385301114588,0.20437438521400753,0.08053260677358431,0.04237460858304893,0.2538735830698061,0.089551188038758,-0.17421087856881715,0.14905001496023035,0.02102518840544759,0.30142946501518364,0.0081838691903342,0.0957422074211124,-0.2509927865635916,0.06217771284519821,0.15730913661329374,-0.07239024066037457,0.2392928379794239,0.04090783525099043,-0.19050340115720035,0.2332931557762599,0.1755367917196854,-0.0139378882938213,-0.14415196334085773,-0.29008172148191746,-0.15571342629196833,0.06020076820478069,0.16230848158906447,0.11861188147515091,-0.030795550691344875,0.048160967023771185,-0.2585958008267347,-0.04687235091996322
0.015101071759645398,0.1204395334929649,0.0635742695464144,-0.15299384833214974,0.13297261938447427,0.2790395039686411,-0.021961738453035635,0.04120337356892467,-0.22681680307378677,0.0005372846905881433,-0.10359128177568029,-0.17426727084673588,-0.014272869925849871,-0.023308712761072787,0.08699902515014554,0.24546549537103682,-0.060623894863829006,-0.08761399378024207,0.18108963221714128,0.15687173920117337,0.28799687075610125,-0.14595185603857158,0.03015077113677892,-0.06650832175195477,-0.1047926742144944,-0.16572490297366843,0.06438910034889828,-0.3011296579250655,-0.3027203518717714,-0.7009027893870206,-0.18064731296232275,0.27386779403501454
0.1955307926321655,0.2666382748148547,0.13622778374841357,-0.026916474547457755,0.05889324596970643,-0.022843802161531594,-0.09321423600699852,-0.3346065873342321,-0.01925574245430393,-0.0397233847784534,0.07277742968606714,0.04920960341554939,0.04689098032817251,-0.004315438762098766,0.0035182812465814144,-0.1957261077780632,0.32950253686389164,0.03642890213374105,-0.2857084217651584,0.1865311718298445,-0.052913638678038645,-0.377630164711903,-0.00019657962104250017,0.3134652443294679,-0.2517455017980727,-0.16551490010484407,-0.08173976376761886,-0.002815431117057587,-0.27794188228272504,0.01062048287704475,0.0005830193461206718,0.12416493281139568
-0.1913201924945655,0.2047350044319516,0.07733939283034215,0.1798945719287612,0.09467813076004059,-0.33240316809762505,0.08674825667212592,-0.03278266460150524,0.30820013605398167,0.06022646099705503,0.042998370879249105,0.10073797431953659,0.08057352764330318,-0.056153804082234846,-0.1558658203766068,-0.15852739042683917,-0.2792020645979753,-0.053248363238440816,0.08206128929697525,-0.11569491219927669,0.0801617942823678,-0.2092411745815577,-0.30114158986959966,-0.26599890912833996,-0.1999203976048105,-0.2642748252325221,0.0982684220646607,0.04639632761668264,-0.18610751015566143,-0.09273464129792347,0.19904366148585628,0.0748037404742281
-0.03135460344153025,0.15455480637775468,-0.3114223224124754,0.06998937791747377,-0.18344683727082425,0.04217848827740706,0.284500167682988,0.2615246927897737,0.2520015005499513,0.0005351715966439796,-0.04523440685350195,-0.16765016204963287,-0.07350636029347185,-0.16042781137812778,-0.22554838402663843,0.15035645927591007,-0.05070567086116936,0.26502320762808085,0.25761624638173775,0.2465535769417627,-0.22881419719650486,0.10093603741774036,-0.2823108108008698,-0.02660506947175569,0.0884503904086384,0.14758325343740047,-0.10757855846380089,-0.06867439414859461,-0.08825784553638237,0.0972083465711589,0.06797985324707691,-0.11702712172092583
-0.011589168605204937,-0.10430280628172485,-0.18184896468529718,0.158587967222803,-0.016449256908989646,0.04991755112646556,-0.37832138974912777,-0.07726331321375308,0.03677489712929487,0.012982524746665718,0.13093291073802563,-0.15625253796451943,-0.08696179260591047,0.30475532312166353,-0.13612583175650594,0.1475507528210635,0.27676285681661694,-0.2462670269262585,0.17619994970023867,-0.28972506148887356,-0.12194204153219167,0.04209190572446896,-0.07127826025017717,-0.006534870669877718,0.21870953882509372,-0.18834273180942812,0.16055518783790515,0.017777263719033896,0.03650060933211581,-0.09641080699984686,-0.10116147674657844,-0.05207704053028153
-0.03749778506701647,-0.03253592313448006,0.06482520279860936,-0.36256222920760367,-0.2685927506219444,-0.2327664488528183,-0.1430270654774947,-0.09506239814740951,0.11571489974992123,-0.22424304362115813,-0.192029371181786,0.26899459768866835,0.11513710449969511,0.3450106879154832,0.019437966878354633,-0.07348824388862975,0.10980338642540818,0.15557070876446316,-0.1923603229622907,-0.18760478028326932,0.2351858271874306,-0.13617386722608332,0.022543801511489808,0.10439444849634968,0.05065255314620158,-0.26341686976049217,-0.11797478835244654,-0.09937866362828475,-0.051473311093930774,0.04508953435627922,0.14981840911214822,0.2123717311307213

hidden2_to_output:
0.990181273266981,1.0049371907167748,0.9922683303680239,1.0008211655888484
-0.4386632857103967,0.10592490685447555,-0.1102578029891378,0.07719703177881906
-0.1715015050335712,0.14466391987808588,-0.12479526292579565,0.6270786274777527
0.04631572379391088,0.3128104414563362,0.20159786201168775,0.22840358137700767
-0.06526401321149897,-0.03564236026597271,-0.1473362102573549,0.01360685438023036
-0.14493538180888726,0.31793720862439495,-0.23934374051410548,0.05764787201029286
0.24983288029410627,0.15215418227827948,0.13210344010429947,0.11604214566591753
-0.39774115008656086,0.20025749866106177,-0.5222417500499734,-0.21225016330940533
-0.060186848364087796,-0.1609929729143246,0.12777876095177895,-0.0863607041190377
-0.3231592420814026,-0.10346905145383427,0.22775841521846468,0.43774440737798176
-0.005049322898401126,-0.2439096487446581,0.0313652173658994,0.24607198113075315
0.15666351528472416,0.07940032786938411,0.04264244341377333,-0.1853251242600482
0.1011414433086166,-0.3987973640582724,-0.23777157168051077,0.10421168968474986
-0.3609219000341256,-0.041152763485551434,-0.08008025848429426,-0.18131403036971494
0.4375512050146359,-0.032940983117448634,-0.23806286769059265,-0.19068518550243221
-0.4904735383330452,0.5718629637076434,-0.03752883794771645,-0.2763872939777797
-0.19412400173740954,-0.12840847743508174,0.1352450574493775,0.1697055466891063
-0.1131622183047987,-0.17026849812793057,-0.07389176375957592,-0.06399910813657493
0.4615977902885117,-0.004630227553440967,0.24988462375946857,0.44012510209652606
-0.24855383433554118,-0.05797903855258695,-0.33250198421467964,-0.19821429923015793
-0.1577620033742948,0.05546719711525174,-0.070163934686671,-0.11804029212574582
0.1048377517664725,0.008885256119979082,-0.2718466022795929,-0.053576264214586215
-0.04409963733530958,-0.22233540434228724,0.11357586965839216,0.5033891324389688
-0.1509875321058937,-0.017749779427429703,0.1080107236252968,-0.28888960294184207
-0.11962134504175388,0.27642737299126624,0.08365888422301883,-0.16134124457539406
-0.0025188217827844073,-0.02085031972069968,0.15078406171475206,-0.16153149998041227
-0.4174264893746169,-0.1738501660574623,0.3680112212123736,-0.0776689714549224
0.2955796040449793,-0.23412595320703877,0.058416425486945,0.05769160303512881
0.002301910655475235,-0.004802339152512871,-0.3851786217786529,-0.026691739770933386
-0.08665539105167547,-0.04796289173773615,-0.06750400857535375,-0.3719087808218576
0.48127371945594083,0.19324354856174294,-0.08651458696940183,0.23473682705637502
0.05004646395653701,-0.17498981605030578,0.21765453030175355,-0.033391967031519226
0.17617273403950262,-0.23992732291138485,0.06013224616813225,-0.07357310213385648

