input_to_hidden1:
1.0177343296138608,1.0229376437627862,0.9963462702745405,0.9917309714288631,0.962698217861227,1.0136889674459364,1.0320151002832267,1.0087843681290434,0.9908297625834103,1.0079736709215257,1.0148596871053188,0.9917834358206996,1.0006146998905567,1.0195307480689126,1.0043587004157015,1.0051755455901676,1.0043238261733547,1.009810996055584,0.9857294677410063,1.004189352985852,1.0298426600368438,0.9863085530287748,1.0098945810894489,0.9997457735174755,0.9791596104352817,1.0274273944189751,1.0023068179031762,1.0142273886160273,1.0041737869795404,1.0193716653538787,0.982193743939001,0.9995288387726787,1.008093534353724,1.0191282306106944,0.9994002252579054,0.9940569360334574,1.0084142287626852,0.9963089833267189,1.0167604503677936,1.0134639255303257,1.016055164042781,0.9986452372627088,1.0193408296743542,1.0034805286159647,1.014684265431998,0.9923978774900928,1.0213070612729849,1.0042905066898131,0.9926208857107525,1.0025802389707552,0.9991371541860317,1.012405679301447,1.0209677199852905,0.995350707726675,0.9957696384426885,0.9752347762807588,0.9721030596894407,0.9899919060616907,0.9945961209569006,0.9892956464317462,1.0113324905892556,1.0130787562168677,0.9929770038902871,0.9956947601778284
0.3898991728563541,0.5925645774845313,-0.5155697770928702,-0.3110677499974904,0.671875818210106,0.5446317428460081,0.14602023269401468,-0.16498605735260286,0.41649764470580886,0.3547432214837578,0.2199193234073689,0.2146993159480415,-0.07466865786631335,0.4133706809871638,-1.1019132315429345,0.0822443256624245,-0.2074618474968436,0.0806412420351369,0.05122635006025506,0.1628193518556475,0.2910086557699313,-0.14678519085369132,0.09191028170321812,-0.36357401255785643,-0.3790219917524255,-0.2748912633353492,0.35843169039260586,0.26084973407973094,0.400800405772202,-0.27842353823338084,0.0024034031673925817,-0.14093993127945553,-0.6788249933769197,-0.571172815587651,-0.22187900072770586,-0.32425476481359444,-0.4845827466976957,0.17191159161521571,-0.021000749105044837,-0.5468209149020176,0.3760188884134241,-0.6446174648498726,-0.20841873215698836,-0.4670192745870493,-0.2862614045318113,0.11262909591235584,-0.2165542691240236,-0.36589105687672924,-0.23399082220200093,-0.20481358044268402,0.3772571390218879,0.17427216791719882,-0.07312530306428795,0.047956301833254986,0.013073390680473005,-0.11552132507181308,-0.20084376213521957,-0.1981894883844915,-0.2909870907247197,-0.24631283118567618,0.10964259303110381,-0.0218328145928572,0.23504965048580156,-0.25609787183067195
-0.07548487186518749,-0.35869264564523884,-0.45513355536781075,0.3347674669897572,0.4540566741545013,0.12574230543994896,0.28393831212730436,-0.11985480067991516,0.23719360860321828,0.10771676079103272,-0.03831559489570419,-0.12809477323145477,-0.11748546346520489,0.24801749575998092,-0.030581731862213624,-0.2530163888208243,-0.07097354631642115,0.2678531521493242,0.045881187021018996,-0.7584987132489509,0.09255960273857837,0.7147480302995011,0.33114893571072185,0.010742926480363603,0.5611294725007026,0.3090743148220633,-0.6943560664603508,-0.1003092228748617,0.1521465748536622,0.26702103932460763,0.21489444242872832,0.5452671234930839,0.09040199825457748,-0.2276296049835486,-0.42607816259368064,-0.7373535162041711,-0.018219986197734482,0.10690819502019598,0.35488194678607327,-0.015343368909781392,0.09511685768211386,-0.2724181457000612,-0.36940995955676975,0.3002400094972538,0.05785353494526032,-0.4029676567956467,0.07964148462524989,-0.32699649570684725,-0.35392020034412286,0.22415248530208698,0.19517417400235695,-0.014196790737886615,0.47083466270851726,0.28524129957489236,-0.35185401235960934,-0.473772693274168,-0.019397201182999056,-0.6650467300891446,0.4005887864399744,-0.08042977380422577,0.6092455885000817,0.18846480659223747,0.015546942166867911,0.299086229380981
-0.20265411178454037,-0.1557871225590452,0.10608409333748159,0.03132522078740625,-0.06227255051661389,0.3638283367627897,0.36909557572400553,0.22743265868467882,-0.41641867183982806,0.18927009103045384,0.5965365196681386,0.4399114334838982,0.31307211625461645,-0.34881030121261364,-0.22540962410466528,-0.5600157323396586,-0.3667009674140714,0.4250917989505104,-0.20409270950912656,0.2224542926493539,-0.19335985665017097,-0.0919078009156901,0.263041203614959,0.43191377804303177,0.2985079680131173,0.551405056202561,0.11302340203598644,-0.5184657978843421,-0.04317757145234445,0.740317976828487,0.07836932575744676,-0.1889369037526575,0.03640569751861913,0.15944246902304884,-0.38849734931123414,0.4558624864658917,0.555221861616814,0.006363001404302534,0.5013142628190783,-0.03414685121856826,0.10053231917467921,-0.3042743859272019,-0.17203328184320812,-0.4627554556648212,0.2642933437223033,0.6268167745824691,-0.15461353640076883,-0.36161352381327216,0.3508144224996068,0.25669317820575177,1.0545797475927365,-0.04290001009179952,-0.6985425202095521,0.07428858520140032,-0.05636532775629019,0.7188811470699459,0.1555220216878133,0.7470439535170449,-0.23587192841586774,0.3787998304280212,-0.4992344225423599,-0.1827397492892693,0.2374563264290144,0.8008737948262376
-0.7540450596444304,0.41630338551214385,0.29682387113849484,-0.4452341758420639,-0.06747260976288931,0.3880369472142048,0.35946143112675544,-0.37779546751287824,0.000873415715029316,-0.16332781709576077,0.04920612555956826,0.3514257285682418,0.20164086097000092,0.013728640942337337,-0.10080598689699133,-0.21643470121723435,-0.051317482419704116,0.25237675642912294,-0.013799399324415805,0.13012052322026355,0.7797406029682534,0.037468910782110704,0.01054158006661985,-0.7713909430512527,0.00014399020810957057,-0.40996581738802307,0.33918024847210376,-0.5938159059195859,-0.3396651350149247,-0.8123481024704284,-0.97822363698391,0.7657019823453372,-0.9411722188409893,0.01259971477096534,-0.5448743523121323,0.37024143666519566,0.20469549737913534,0.8260512924281083,-0.10239250272340088,-0.10519164727274849,-0.4906903338019032,-0.11842354979572968,0.27809624622119317,0.18104328543101714,0.5546260520797689,0.09998748614540971,0.2982239716949852,-0.002992197902199423,0.2695285516587439,-0.24057166019740586,-0.5554747367620084,-0.17323198557891567,-0.7498679080377103,0.1762989267476977,0.4893207299518551,-0.3178313059680601,-0.21639820554870656,-0.21817706038713902,-0.13160727419682958,-0.13107768033198486,-0.11098169276255294,0.0690220456599352,-0.205180519534969,-0.4413225160670715
0.33765489867655535,-0.09505644671244894,0.8228920171947572,-0.2677433765177185,-0.08764179893865168,-1.0608701763348445,0.014292294295442537,-0.4735967036473417,-0.0038538514046735093,-0.21720130851741315,0.01963331353145889,-0.2708608755544927,0.28719376638776456,-0.6658937729129677,0.15003328578044425,-0.049683000048293194,-0.09841744335351134,-0.3332084592510156,-0.5170442650550056,-0.7226269996361205,0.5544131933025006,-0.10498354530304436,-0.13391600317192018,-0.08334812146210263,-0.4352211942082506,0.36657530331482374,-0.555192098366965,-0.18438761572465528,0.4508205263472572,-0.692907249842091,0.3370733363599678,0.1570554847897582,0.2003583155577642,0.19016831669405113,-0.489130310063595,0.03195974891566992,-0.17359745640445454,-0.5040019420769627,-0.10272107707803713,-0.11386848396410393,0.1697598986294732,-0.14779218740613026,-0.5156798578919632,0.355532628301637,-0.4708772892153678,-0.2703735758350977,-0.17030722081664737,0.6454269950018408,-0.18221632885820188,0.49464385550702145,0.1531246893322577,0.0785845585246437,0.3595576133818704,0.3623847485456798,0.3731811119488795,-0.44180565477332123,0.6153287508189429,0.05728507891017533,0.0220165349259987,-0.41099582912257443,-0.19841875877157647,0.10787260292176765,-0.03961515669231005,-0.2635094772822393
-0.08875457139924886,0.4877610761226437,-0.4739038978760664,-0.34529668033126415,-0.44109552293707327,0.3749678453774276,0.8032511595339038,0.6881221290836808,0.10446634976526409,-0.607104805372172,0.12829938179806327,-0.45632953620597994,-0.09893504866624592,0.2545769686673605,-0.021866357296463735,-0.4069141172745281,-0.03483578621746408,-0.33252102264928485,0.5845429441937903,0.15095241218418196,0.003192128050742125,0.23983714536018821,-0.11576147913597216,-0.1906337924441618,-0.0027472169489097618,0.5027594403700167,0.2077393821340298,0.6086616162391039,-0.8928672866868047,-0.06443121407430606,-0.18050366139746635,0.7681991992797732,-0.15728409144816,-0.0701277004431979,-0.460423054761208,0.8172551396283855,0.5054259591105458,-0.6009079284154406,-0.3171262275048973,0.7583703384883742,0.3600099972087617,0.3947302671340491,0.31939281664504904,0.11930528538192031,-0.30382506626291395,-0.3888041453131109,-0.18857849092379442,-0.5420905582704069,-0.02454503412385899,0.6308820162287356,-0.1250049287749473,0.02842149904147006,1.0553692945693793,0.4176191071750018,-0.4796498529580872,0.45716930222531255,-0.38479444449405176,-0.6080722565821554,-0.2443033237927441,0.765453326632534,0.4135420734104987,0.39997073555849244,-0.04519061279753481,0.2681633655425505
0.0628546246534906,-0.4725500894253013,0.6291507024771613,-0.5586248701184484,-0.6722039268258422,-0.05781179961458684,0.3220909376165857,-0.13876653682777107,-0.4159713233704642,-0.20633987172779014,-0.41047381838469527,0.6272132742395726,0.04160901277010175,0.038878063620477785,0.32597584232986865,-0.16954053367624106,-0.5182727816940733,0.6131219811649237,0.20377215874623458,-0.7041239826256276,0.5119536971422339,-0.29049828035031056,-1.0359574235907547,-0.06878740233362085,-0.12772639521516502,0.4636677727226355,-0.3391801577826813,0.26657261235276997,0.049179695797617766,-0.02403319515329713,0.196606836766224,-0.19185004729604582,-0.1666350605773198,0.30529540683284156,0.7107122092073315,0.1749210176007603,0.43728793410478606,0.2527377299349393,0.40693996236943397,-0.15465397041570503,-0.5588542559254294,0.23118739631246138,-0.035804605491818575,0.370211268464998,-0.030826326271376936,-0.3655189926865519,-0.19399712095598395,-0.5668865793165055,0.2596576032711508,0.10141955184103496,-0.16669378832008772,-0.10909766660401692,-0.16400818758190924,-0.2784299535451207,0.42482403829649235,0.4792486216661659,0.4041931972705514,0.3522961379209991,-0.3163734569691584,0.006871778001684951,0.08395944810719176,0.3322732432567247,-0.18794298509738383,0.08737892965811873
0.046246516347427304,-0.07932144920645093,0.47445889228354704,0.10610916789872045,-0.48905356162112307,0.7056785122752753,-0.310945987034999,0.3416265370420025,-0.2299008446274764,0.8741033497594064,-0.37646065438122506,-1.0489190651631335,0.24806226051042732,0.23085882794921786,0.3289394271977272,-0.028590320920726168,0.22177748984642878,0.4156119937781181,0.43087657796595086,-0.3594047828734526,0.5089511967624379,0.12218125695238735,0.35568712805520436,0.09130538135722054,-0.05725039925189695,0.20684393805336734,0.6044268101644704,0.16612260844379337,0.5779789729777712,0.13464125962958626,0.8019796895522268,-0.20432050632969356,-0.5277002854352518,-0.04850492388707195,0.39157881517906995,0.8007857448800647,-0.43616357741063727,0.230932935309826,-0.12334718332808113,-0.08881794296433954,-0.2042194137475268,-0.43830455682398756,0.14039082357927757,-0.4194864359689897,-0.033904420901617306,0.4522015768922213,-0.0732765904690398,0.5965439135390413,-0.20134163612505832,-0.10468251941693997,0.4520458177614968,-0.26593799553213066,0.2290134170550274,1.0208315584494536,0.255259487784457,-0.23077239899949856,-0.07757318294431416,-0.8017042813028902,-0.747512227824111,0.09385534206205877,0.3132959628303398,0.3192553079428531,0.9980405285941478,0.08822492808375228
-0.2012964977009013,0.2912557563984386,0.06645185454192296,-0.1937439444165499,-0.10186690709030961,0.10343469594811303,0.3557281031562225,-0.07633928699304587,0.8222981427308703,0.35635267167844664,-0.447680003822008,-0.28314477610880084,-0.0647468057765901,0.031904877271375774,0.19540735437312137,-0.6808057877437532,0.1491449694445152,-0.10122204553567252,-0.009967579052480705,0.31535058035514746,-0.17797951124231473,-0.48172762786813095,0.30034894360117115,0.4306861750321059,-0.02453238004326618,-0.2323263675642605,-0.0303195845308213,-0.8788467580675884,-0.07111687813048419,0.37085561695855407,0.6019371915805654,0.19800412499077216,0.813690533419848,0.18720556694077145,0.8489068833809297,-0.7104125902218542,-0.09603959524621733,-0.7033541813584292,0.1650075225424036,0.49747705671563663,0.3787793933271341,-0.24065623883853582,-0.07842614664862392,-0.3186368661247765,-0.5782393706472317,0.16141768764120085,0.19980208771339683,-0.5116952366908725,0.15127093957361726,-0.06237960961220324,-0.08682931412702247,0.07829874970643726,0.510113446432283,0.10980724490117486,0.24019179913183095,0.22590355248670418,0.23731450374690422,-0.08241869190919145,0.17088810447859534,-0.48119645562792,-0.22218450959591374,0.19809658305428732,-0.01886285400913211,-0.5766331715152724
-0.0845008076127072,-0.7456967797718873,0.49107918231606507,0.4643559105151099,-0.3232691339420011,-0.2170782559090348,-0.9153477597910461,-0.38160962489608774,-0.9585176521405309,-0.6769326458433494,-0.470175840613869,-0.10014383119313909,0.10248924927164482,0.103586590171073,-0.6103574101259338,-0.4914158963259465,0.4422047317996113,-0.514706001885793,-0.5327720602751113,-0.19818260735995843,0.16815972744956093,0.2632372529270117,-0.4381505674781754,-1.1190256119205328,-0.16086768008518265,-0.48504021714204315,0.006023790900337345,0.42624558768414894,0.4912252163524576,0.3783717349783299,0.0399861700967628,-0.36282493523071896,0.40869142898081806,-0.1332381238754895,0.7036451403362326,-0.6114288845913394,0.08532037217561489,-0.314068570672058,0.26954881384508,0.3955002051983435,-0.12281350818893062,-0.4810150531491436,-0.31026247098166093,-0.2874147774807946,-0.3475367449724455,0.5705030334848976,-0.0034966454186657657,0.07216945966181029,-0.25610524928080375,0.9875891149719508,0.0789684776338665,1.0537516300429675,0.5988391187410183,0.27375336157366864,-0.24163493441874734,-0.02862190063941313,0.1703223828406742,0.027424355150785236,-0.4072358422096754,0.1337338498801307,0.47517710390835977,-0.42023954974473127,-0.05986022933490857,-0.10990771684485667
0.5425413616900577,-0.38030450035247,-0.11269240919856467,-0.10217502386291305,-0.05931647067287387,-0.5098174665068553,0.7896778845819433,-0.542978895938222,-0.44293708224711353,-0.06713760086583181,-0.08877958589765947,0.0942017496369474,0.19550386113270443,-0.17912809892831144,-0.19569579390345743,0.4284016951767476,-0.3721822452093578,-0.5627951713778628,0.3702678575960529,-0.10199415104864717,0.15172761549112201,0.07250646199159598,0.10898589028929563,0.554178431805937,-0.052951660807997424,-0.12132608158743832,-0.06342953950659416,-0.4682821681250852,0.38673146988344154,-0.7753867859372343,0.5774323432833228,-0.2411277297190424,0.04014012551110858,0.10385093432968776,-0.217924384969419,-0.01335855880528499,0.15664174541614878,-0.6937300166942258,0.18331336628123854,0.03663828980138583,0.3678835225540804,0.08737693671817924,-0.5489326166002275,0.613931186822308,-0.32515546834031794,-0.3860653922189206,0.860962643342477,0.2667961868969162,0.03168233699524297,0.11285749719699073,-0.7215951964734131,-0.009541615420863825,-0.1999499712542584,-0.01364227541342218,-0.21018597022496202,-0.18141310047771814,0.33361174955994755,-0.0050736119992706415,-0.8399196768847152,-0.4527222409077047,0.49829071290119875,0.05657093499687745,0.09401417304978305,-0.3451234050501719
0.19971147516385437,0.003742781528879913,-0.036615346724601074,0.7586049979353382,-0.2444201884729753,-0.564416490867661,0.3925001155235466,-0.33271360341050565,0.4899516397513765,0.25721361953166,0.25603964283352226,0.896679452377393,0.2629673520632587,0.20891468853202808,-0.10324293888511671,0.5032819501273987,0.2075363894933208,0.3352778089722525,-0.6821976844892818,-0.4713074550103332,0.02049894511882702,0.26419364880532864,-0.3250950491901262,-0.06565075436359631,0.08631396185544042,0.1493721333829978,0.3519162897065474,-0.3552728475117854,-0.8325618923924644,0.7120580383696018,0.08631412001437443,-0.8620347413187327,-0.1557855550248978,-0.02148193954174276,-0.1547302051166585,-0.3630377402219754,-0.5608391394629034,0.1551391545071759,0.22397090920687043,0.2222067442614266,0.02019385424802934,-0.20267076797977832,-0.18628771084139853,0.20043773844693943,0.04294289238648168,-0.4516623806331581,0.06523892794427073,0.3316142135885124,-0.21509155689738485,0.19566773347056052,-0.5097295009814953,0.7167694442513276,0.4183004978148142,-0.11040459217075986,0.309054294121381,-0.028170159495561044,-0.6304645097842854,-0.09249276680694128,0.35819685003302165,0.25133509841565255,-0.16800369675170843,0.19844226843289575,-0.26530633138207105,-0.6977708473944292
0.30970282588014714,-0.28664869607514754,0.45004909936191195,0.5509350786687728,-0.34321094763063076,-0.5470877730753977,-0.7260828686227042,-0.005251347710328925,0.9233522004277356,-0.6615782670382611,0.4281258952882256,0.06429871962461314,-0.5488751329519067,-0.08193800718185254,0.27413516661383497,0.10202644129120636,0.44936333442956133,-0.1040111886327152,0.1546603690870869,-0.3179693826125253,0.040897983516129915,0.3254852443009327,-0.015229585856227988,-0.46609173567330703,-0.047639528558333755,1.0179319058664837,-0.3195828747621245,-0.12411880690735824,0.0945590251682071,0.3603017488905978,0.5079988272488525,-0.05352610374839593,-0.3125747156310343,-0.6263398764152922,-0.31735563292205243,-0.32272229728903606,-0.22497364076867518,0.008342945765435253,-0.30047102099214984,0.035748643986232995,0.5767346831733262,-0.4471654480793926,-0.5622695429503679,-0.1035253373350896,-0.8387125123590004,-0.25568681161144213,0.07626798424320956,-0.539381826440996,0.7421976211315422,0.1347499371589259,0.6104916255197795,-0.23203061670370081,0.15785750548089586,-0.05775233366290481,-0.042076417495482785,-0.7577637060366083,-0.18597505582737028,-0.16066463654560603,0.5516385875287179,-0.06786915061222075,0.24902237032674474,0.1709103935801395,-0.25646929206880725,-0.22516574033404144

hidden1_to_hidden2:
1.0021352297186983,0.9766122101542646,1.0195728286934158,1.0028429652488478,1.0014909318784642,0.9938720289967622,0.9929030147239786,0.9999888531544079,1.0046347158954463,1.015924739695453,1.037533800799883,1.0006292400841226,1.0,1.0012337765511106,1.0016117492460352,1.0138298773076133,1.0258765342156602,1.014206569814461,0.9850749918506749,1.041783223164372,1.0200446615594359,0.9999510034992842,0.9949411129652765,0.983040356155641,0.9898946323316674,0.9986068791605601,1.012485383863018,0.9847324049205195,0.9930919243213056,1.0228494145230749,0.9995514592680318,0.9834856995582005
-0.0009217082653791302,0.20705461256438606,-0.009118138976368663,-0.07597400852179469,0.0673782315028951,0.1845655840815268,-0.029128279644319126,0.3737306309426486,0.06108769132491497,-0.2597471000626609,0.30194218737041817,-0.1951020639492057,-0.3106717064698038,-0.18779293258266322,-0.07622705840585142,-0.3320060594292595,0.020127513255588942,-0.08166078156323846,0.05225245036636563,0.3887950025416239,0.26732644083586765,-0.07133715931301493,-0.27522223645366956,-0.0630100444165655,-0.1509080911872955,-0.11797492258537351,0.05726067552528549,0.010975540626650074,-0.1561297010153045,0.08292124101521214,-0.17230384305904042,0.14310151596458745
-0.1731677211887053,-0.10093442993506255,0.0691016430615429,0.27463443621984873,-0.011459030594544234,-0.03930706875115587,0.05015905141279386,0.23056012724243904,0.22185716350243986,0.20561656880169654,0.03142899468316459,-0.375273306642251,0.07358106938847565,0.011949851253303459,0.06060407262360883,0.1363945140768769,0.15060883907946346,0.05036151786558074,-0.07050055083325224,0.3420449394252126,0.20239584847341255,-0.17120583846102053,0.043822802124191505,-0.042619607663985565,0.004236266643188416,0.0716537375805962,0.2070605342673081,-0.0035312431014233882,0.24400987686284858,-0.2846968514649836,0.13487992326312054,-0.01432557163481315
-0.3096978166162478,-0.24429663791594206,0.07026822577158083,-0.0886433272784251,-0.2590963817807661,-0.13909927414584092,0.3334117367506491,-0.24930500270995884,-0.12961190350203552,-0.06880810703258862,-0.21824651025582836,0.08562367172778586,-0.22676105904577432,-0.07080147982369588,0.006800490692801284,0.2141064411830068,0.11986246922856318,-0.11440990458406529,0.05675213910057311,0.03480403095432985,-0.07841559839098303,-0.07268055500711984,0.23778645207139057,0.06691641251263415,-0.13632154255416107,0.09317048044467342,-0.2756990957574802,-0.027086914500958407,-0.18168383637473365,0.284727889550818,-0.28128870380108234,0.003312499827042895
-0.16784276581780125,-0.03411399811779762,0.0450486118204306,-0.2348601049656853,0.02778530346258196,0.1373457566374441,0.18310950969848752,-0.2640953925680796,0.029521100795595383,0.3130548588455079,0.14806606384051546,-0.019567628232218404,-0.07598692356912376,-0.04900736465238319,0.18638772166511963,-0.10376583069465872,0.009998604240469609,0.1117539228839728,0.3606747757193169,-0.2899523932488695,-0.04856783349870116,0.009359138348809441,-0.04671795015267247,0.23723405312140952,0.036183958318175356,-0.16113861209376895,0.13863281871150623,-0.2664138500334673,0.08119591350793819,0.056591603842804886,0.005449050721092343,-0.018949056534271713
-0.5762129687062075,0.20207915691016817,-0.14734932140334348,-0.13031660549854565,-0.15895604411605568,-0.07526929940078424,-0.13147116744244022,0.16541991072680767,-0.12442252177504842,-0.023076193066385992,-0.08138014122208638,-0.3037222190128178,0.02815542169247033,-0.10548903880941873,-0.17488736539156438,0.29484332508707617,-0.18616711993904997,0.061904978116145336,0.1693455313684182,-0.30913475820775543,-0.12422284145443871,0.16456576846666837,0.1648383503375263,0.19912663621427673,-0.1272643584907378,0.041021370880146964,0.14848204466577145,0.03345406372068269,-0.1865540577910155,-0.21127300356300177,-0.07166848751448864,-0.034064874877259385
-0.1627233944898925,-0.08987788582645116,0.05261123736057387,0.07527281721371457,0.13184974201240665,-0.0331704731453813,0.026494875711509193,0.12240001647349177,-0.2879620579412252,-0.26503208874523515,-0.06909273633585043,0.0403857663081485,-0.1541071197498217,0.04174248502980904,0.2148065628444995,0.2278140977962782,0.06575528123070043,-0.1733428560714766,-0.06454450768044463,0.23255745059056446,0.3462829988451682,0.2463168750493062,-0.06702058553405041,0.1121806163085081,0.06075954602545984,-0.2786798771286064,-0.11865246073119602,0.026121656297525383,-0.15100421047432844,0.26112999400727666,-0.27846558125680415,-0.02498848918918252
-0.2920930323252544,0.12657851622092345,0.14889489523813623,-0.020387497161409716,-0.09081098508687081,-0.3881179659579253,0.07117051370698069,0.07653090808162782,-0.002900065519580842,0.18510838481009048,0.31334485299445136,0.2108383773973359,-0.1078628311848412,0.05093064110045861,-0.12353086204914134,-0.1730448254336643,0.222396886150106,0.07684197306697452,-0.0060127756287526495,0.37549601644861197,0.14024291354906673,-0.30986310514300325,-0.30144181909661594,0.24622674664878766,-0.03136969114836058,-0.25250984787651326,-0.07207300581761772,-0.25102555993404524,-0.295810935066568,0.11300476404700942,0.28781367714234507,0.20936847777265466
0.0014081496102907381,-0.004021858743844808,-0.14701434395112892,0.13695210117159085,-0.09808306735501778,0.0522501600344503,-0.3615590107580215,0.03381331387682656,0.2849246451013376,0.23455741111702563,-0.16817496044307853,0.08978507193647305,-0.18877910400330314,0.13191985473091628,-0.3352912819413252,0.19113511313177464,0.3268325137657963,0.1803457476069068,0.10544501283804456,-0.0447729261975881,0.14622166560892097,0.015405450836220998,-0.1917610936680893,-0.1606997498839794,-0.11887953348304671,0.23574227964605948,0.01715089459771688,-0.24589495059141092,0.22893621420722532,-0.0050407056861602115,-0.1678636481170208,0.40175287828543477
0.04532462601351841,-0.11672147030769695,0.29095427604109103,-0.15979840283738472,-0.03428707288677277,0.2564689433048717,-0.17620423890109965,0.0038825534582729985,-0.08717010095267988,0.1839422260954628,0.028506680982748743,-0.046114265127720544,-0.21654646701068717,0.18296860090508352,0.1520143737330935,0.006063967152229245,-0.07307739753429571,-0.0033673154896848062,0.025277826093853997,-0.10508493264543022,-0.27053075933767834,-0.47785385301665717,0.15103820724058586,0.0852264560846622,0.29473550332625087,-0.2036800502853182,-0.17765687675663583,0.10546525502985717,0.025013898338405796,-0.10452467800776108,-0.040482703733691124,-0.4402691028762447
0.2626505692036132,-0.3634530679259983,-0.15208513997052,-0.02173062425596296,-0.0032324064145226854,-0.11908602530092009,0.0975758204804046,-0.006454891953460125,0.04530041861134103,0.08064518427661668,0.028259520169879298,-0.13389096490955643,-0.28256634400435493,0.23450577439484513,0.07578946416073297,-0.010312381317896883,0.024201615621213625,0.22576078356141532,-0.10044343339138574,-0.054193412361751826,0.1442321854865126,-0.18552532209123102,0.11731212597169484,0.05204102775004971,0.033177835552538955,-0.42521700799208917,-0.08637867307450901,0.018150858602753703,0.2942050604690657,0.16952520573690905,0.07820251143683185,0.0021758346003785314
-0.1362001768289737,0.09417118420398538,0.330282830068831,0.12110389233842783,0.24135873061836743,-0.07509085702051722,0.18986202776235608,-0.09631200188977515,-0.023524018423056306,0.25654987916496785,0.06085246553890153,-0.012669440718142551,0.06399276516913605,-0.046725837008410966,0.41872695469018506,0.07496882931608671,0.3053542087130082,0.12007291791848326,0.2060322603700552,-0.04096146987879988,0.05356427722406784,-0.1314917274244693,-0.1548101284852412,0.06880681987095351,-0.09206725222947532,-0.10857909168139226,-0.014553060782651298,0.045796285247606004,-0.08885169889713895,0.013940515911946507,-0.0959858743838939,-0.024082293214560055
-0.07918057199985004,0.23318601574261527,0.013360618496973497,0.027470727021041513,0.19458163545467874,0.003549193392464037,-0.1873391529833539,-0.09702989871400687,-0.1858095000190385,0.20738665557353425,-0.0764801354866398,-0.2913184954995463,0.014577629411089029,-0.07747504989892313,0.028027737950096023,0.14047947149764495,-0.04384400816800204,-0.010284344646925266,-0.12364906859784439,0.0973278061271716,-0.2940066749608146,-0.019751244932501837,0.015715818785102247,-0.0014216975588717338,0.027911965253584227,0.41468730590963804,-0.03882927489264284,-0.07792464775295561,0.20409829904389462,0.08272764415583195,-0.11891227338889927,-0.04755478853521081
0.1774856265471343,-0.17052208633475766,-0.11560126665568814,-0.07964232051980863,-0.06044136900919301,-0.06246482149164087,0.09237213971948421,0.19185929909160246,-0.16574188713223797,-0.06192697980751816,0.09811427894291909,0.12799488908038237,-0.010838742626732347,0.036132155487085545,0.05207385373293798,0.15124599285702883,0.18869543133415587,0.048686495993941994,0.09065970401243985,-0.0828546133272236,-0.03173838396885457,-0.04861056294662428,0.18013624988717292,-0.10428685876936557,0.34353162470108606,-0.02856002382932516,-0.16474240933703999,0.09672856905189291,-0.016931100876418196,0.06619758343591803,-0.03165339018165045,-0.24013218187838936
-0.06008853164564533,-0.007456014192183595,0.33039483552197807,0.009137927625188115,0.35608717885431834,0.06461569773925656,0.2984216599753392,-0.02516191440639661,-0.025033351942715096,0.261604735018288,-0.04777174712072228,-0.3350265537715943,-0.03240206867256312,-0.08234976948788411,-0.16945334430179526,0.0472537628407529,0.25395671651250934,0.07379233073894204,-0.24064287465832332,-0.1411445746761095,0.04024072622571081,-0.03035667278760646,0.020691664906893118,-0.35055320604349777,-0.3882458951032423,-0.01915533536496371,0.42522707348189775,0.158528259989738,0.17585038902041653,-0.04451891088420828,0.29146744255908485,-0.09674431438750146
0.1398110211719792,0.1937152640179403,0.20677495663590886,0.12835966644719216,0.03939432920008777,-0.21785517288433537,-0.10849966259926093,0.09017471645500706,-0.18666604981738505,0.05487136717287575,-0.11950372696334771,0.03702639737252795,-0.28483892902669894,0.22347183163768064,-0.0077938721962323675,0.04078570353544412,0.13097322157424324,-0.0928329576655401,-0.0159680813304414,0.2243383284387651,-0.10660485833317451,0.12093478549829019,0.07404427885214712,0.039995028833346415,-0.07580263152768975,0.06087764078885177,0.3011586785934378,-0.28756251131770116,-0.06494267624851602,-0.0755928270560226,0.1856231878691334,0.19726476866142864
0.182282981815238,0.17436302901185516,-0.08829458665480075,0.22319917615600293,-0.060277503358029526,0.24998441771751295,0.12197432278891998,0.18157220813565997,0.03159339227101199,0.17241235964056986,0.11713206476754039,0.2019366228932882,-0.06136666866606669,0.39651933732207173,-0.3194331898214953,0.3713442433660453,0.06539867487146957,-0.06860407701368859,0.12141964766621355,-0.2791717742378278,0.07703723979503219,-0.04223685401952071,-0.22332611445864123,-0.2302240017707462,0.2552257461228015,0.055065980347492244,0.19892876561726683,-0.3658947730768386,-0.09177031585294751,0.04222010835687566,-0.09808676020643242,-0.15760400522350812
-0.006122041639168703,0.18326227628522604,0.1016885788025363,-0.2556680430657332,0.20879311434518172,0.37653363768376497,0.07017386877402676,-0.09560884280217385,-0.03219648752419985,-0.018122734773051277,0.6732078163479946,0.28435651627916786,0.057238691730281024,-0.23561809285608196,0.07102798599973836,0.067839206946853,0.10468529798306035,0.2370560150499616,-0.21999506368683117,-0.2281785579490386,0.08975073648432191,-0.13969425674284974,-0.21796728288220144,0.20315167501999046,0.01637929233728912,-0.35615257299543485,-0.18595332632868633,0.26702571590873897,0.09363301501473548,-0.16074129609333848,-0.12765127947745725,0.044786445305090156
-0.2307921947669268,-0.255223515920625,-0.24812411665482587,0.19094872578031724,0.06345891628445154,0.19254214064206912,0.15232330339778036,-0.1538673964438642,0.30845788172551175,0.1957718031336671,0.23700571988016705,0.20285259477237416,0.0077262849733765685,-0.0013901897679061365,-0.21950016327924346,0.0957206221775666,0.12069056963099647,0.1436845623894551,0.27294445120981453,0.11823746927377006,0.004071867892457178,0.01579788721909139,0.25356693132410746,0.1341593245397302,0.022379513327335853,0.08133592949954586,-0.08824830846898506,0.09838240654221223,-0.2925506468288396,0.04931492914479677,0.1090695486758139,0.04706793097029573
0.1686190185147852,-0.07882778671841233,0.09501849760892365,-0.04610614369325756,0.04225083520627472,0.24952772341596252,0.025147139641838435,-0.009166011111598574,-0.0371717921106925,0.3326571128680844,-0.03275968972081707,0.11277187409881433,0.06430248349481102,0.08774463377707176,0.18482610791987028,-0.1370381310622897,-0.17264601715866879,0.01882589068513354,0.11742185579474793,-0.07827568982007914,-0.3583566408654884,0.20887145576071622,-0.1769447762728441,0.2378712095069679,-0.3355538234195149,0.042640679111265366,-0.0019066120358058815,-0.03492680837459454,0.09195219914628609,0.0130552511868511,-0.06523697859354192,0.020658177428969457
0.11500530001013354,0.20325718565297865,0.1914861647109743,0.1550268523081511,0.11156713740545321,0.3132369643383396,-0.20465821794795647,-0.025405319076694747,-0.3185228999009941,-0.020667348277503893,0.07390137955285908,0.0317312273072715,0.22899246388783293,0.01653062720433283,-0.02707997971652545,-0.016293570976417628,0.2032998993219582,-0.024319542423238815,0.20839063208032013,-0.016395841091743787,0.24525946689166714,0.03709824369773395,-0.2492761269123291,0.23272487538451253,-0.052992600846432765,-0.2272966983498637,-0.1773560206605873,-0.17426083431278466,0.12320945631129317,0.23614036204632985,0.1944739678958355,0.12429858063730556
0.1356735546664307,0.24987113277691586,-0.22838121506688353,0.05346398106376881,-0.034710067340633415,-0.01705093661063222,0.023363606701579758,-0.12326877391421462,0.08967809198507028,0.3281610315496641,0.24509353756711802,-0.23428006851720884,0.24282014205220298,-0.3035197903657459,0.23454851050471198,-0.22722627435490012,0.18266486315890598,0.05426435755163181,-0.10148575913255435,0.2547626438935469,0.054492404439149794,-0.12056967214539552,-0.09984970244913911,-0.18967823431441933,0.11588712420440336,0.08488063936815986,-0.017864864765425526,-0.23801636549013902,0.00047301737589350214,0.33542242856662335,0.1771373110263029,-0.2139291719166086
0.1109264353366269,0.03215168577233843,0.3919201572269973,-0.05052789628095195,-0.20571153455405042,-0.04522657694204746,-0.06820845916658891,-0.14954462799086626,-0.38540196502673596,0.3278550049638508,-0.13272984979398944,0.20426073147877744,-0.21694508093087295,-0.37108295833278576,0.053872237509978,0.5210042943202507,-0.10145747736289881,-0.017389945389186034,-0.10930212311241466,-0.33901303212849143,-0.1073666713187612,0.04448691486910419,-0.09723202699048294,-0.02661912143880613,0.056526314780301214,0.007668676711903974,-0.08681385439065994,0.1105492635284094,-0.0739102056593683,-0.11251526354751977,-0.0514220408640222,0.00662796877226317
-0.1578088583843623,0.09990101748544833,-0.06656614078405408,-0.027158492734587883,0.312332233048637,0.07621590005252771,0.10860687047232565,-0.10307660416079012,0.17592457712158155,-0.045184278557824684,0.16784318519182345,0.3280895116149885,-0.11224388718064264,0.05489486114404746,0.07583446049192683,-0.026177043565824374,0.1604846661432189,-0.298199947226501,-0.22030187466735565,0.18736666032390034,0.06840651306686421,0.04328859043733235,-0.06386247811441774,0.2070255475980094,-0.08050433282740824,-0.09786264989452632,0.18171801870067333,0.029727320941789013,0.15741543269369682,0.12252109236869407,0.1069847838586372,-0.005839740059199544
-0.06250751554693611,-0.1956096963325599,0.0648198304592699,-0.039975272263974244,-0.40743171412831525,-0.13888980127461825,0.10107520897611644,0.11994187786425543,0.238726835728541,0.03005654937914812,0.023542060415125066,-0.07727377084618692,0.04937549547877246,0.04681286515403078,-0.022179365903453735,-0.22566630964498097,0.03591742740859371,0.10929529325348566,-0.09082073544326978,-0.14546643220128805,0.11777501767377095,0.21431409698695886,0.27044844382623884,0.3233155282257396,-0.2687463956031575,-0.2431481641094429,-0.1385341766951408,-0.12039062511008461,0.12024483408131895,0.25065047252130934,-0.10877651480717822,0.20359138410727393
0.15911169290997518,-0.10233684336345907,0.0483591419083934,-0.2077525978455042,0.09005047616444813,-0.3064146842819331,-0.3541234723213995,-0.19037536521515167,0.01689893431165769,-0.15761990437682727,-0.027496503947718662,-0.1723546737029084,-0.09288220187819933,0.022351306506897674,0.034427450537144945,-0.08975862983200679,-0.20922874895968727,0.20020917277671094,0.17826433574205822,-0.23428982270458074,-0.005669156660536461,0.11030991827136052,0.2393006128093197,0.03507635515943091,-0.15274881173625682,-0.07277561219515297,-0.20038503863654533,0.0043122519691182574,-0.11232448547299696,-0.2211096567305113,0.1650110670699523,-0.07355405452985318
0.0021949573101808554,-0.16469352900035017,0.0069602766428891434,-0.06184149419569146,-0.12155996241946412,0.17799946287474594,-0.12529324524962807,0.16107679947789963,-0.003871126869956248,0.5869955225641418,0.022324796134318488,-0.15795981332437167,-0.007287769285851063,-0.14139822586137835,-0.07246230407512898,-0.06701513757362357,0.03256809627435988,-0.02311351473352672,-0.2215889892751464,0.132262899523144,0.4765337740555461,0.08151579495001654,-0.10133991238332614,0.03390708247196146,-0.06126595142447157,-0.020576438047619137,-0.10386135366731458,0.08963864790315479,-0.23545691370938004,0.14354086884869255,-0.03225958482917308,0.04791913598191492
0.11868251796349817,0.16871873125066628,-0.007566419241205782,0.08725587037355154,-0.03475786262863618,0.3707367714366961,-0.08891292408435415,6.749555950067451e-05,-0.2513893680800598,0.1810255298993599,0.28859323453759556,-0.33684557785995156,0.32997100825387293,0.008249230386957076,-0.08398675039723795,0.045867129470134195,0.002709780188416447,-0.27518458265364193,-0.21904948271566493,-0.0916758024979643,0.08184644093697303,0.05239073080891846,-0.10708641703145423,-0.15229957878596667,0.1916465314273267,-0.13031403006587322,0.15112305843405416,-0.0399472376095811,0.044559057833295106,0.14702214574130512,0.08901560688981329,0.2139393538613897
-0.19908727066701354,-0.030836072433618307,0.23858515399711117,-0.06268318902500587,-0.16450372752163364,0.3197719770187518,-0.15730317770524538,0.21537779723686537,-0.2272954731357083,-0.2584012381701119,0.01928664327889517,-0.057256150874416316,-0.31210388557182456,-0.009201149788578954,-0.21314423868966825,0.42982495452599845,0.026741108870903377,0.2855164094102069,-0.04058582517521166,0.35596026800429487,-0.20993776470239667,0.027635006900873057,0.0982662486190163,0.21404080118415755,0.07200698160708627,-0.13713777827535747,0.23951128394583648,0.011789219643676992,-0.04896451140067638,0.20442393026153297,0.18084154172601963,-0.156631859860271
-0.13042638718479352,-0.030001847515475143,-0.04165259916725503,0.09102316776082671,-0.058141088128359435,0.07963073882283378,0.22720418734468117,-0.2240479944104435,0.13485962837438054,0.11873500651135505,-0.044342756740072556,-0.2686752188404608,0.09564202994872789,-0.06316730358127758,0.1403551860587944,-0.1653086553995937,0.06247214663855504,0.11969948172682478,-0.04272206190017968,-0.10999177186117978,-0.000894413529021291,0.06376661427442026,-0.307290261534205,-0.15167846322462494,-0.19152630133817217,-0.04150834232200682,-0.045529668365973955,-0.12624569566565177,-0.2294178660303782,0.23839547148344473,-0.009005997239835917,0.024858346468851204
0.10119215816079001,0.09081995811175671,-0.04618594410250539,0.20894631614629308,-0.17922755395524367,-0.2530493309131917,0.24824469785534947,0.05851783778949749,0.28007978423616875,0.24293560367141864,-0.19739947303671884,-0.1199960650228285,-0.03569147851996988,0.0031273720226404904,-0.3389821520252708,0.1759985394971556,0.17760453903616635,-0.25710029658160855,-0.05904687562810606,0.16342135093874885,0.36499400673243915,-0.24005288852319698,0.2320341464608977,-0.21986050047456937,-0.2836901930692323,-0.08682672248288158,-0.13347215391949177,-0.1792741419197256,-0.1181586315756555,0.2163459955271345,0.1102962951867201,-0.13553320136216288
-0.10443894187135987,0.2525089868490757,0.15550591092147992,0.17281444519862604,-0.2559862784278461,-0.07973193793171991,-0.03618627495579151,0.06760745197672374,-0.016403845937464016,0.062173470313042975,0.07611688749466983,0.22485122721959583,-0.002140345317948864,0.20665910158905254,0.28658438889320065,0.0018895369066802526,-0.05496853843738032,0.24663584229862834,-0.023278237323717626,-0.2057811204480569,-0.13240473178355555,-0.23197413961712832,-0.15902685573729733,-0.09345116187819016,-0.015950462454755558,-0.1485992496028017,-0.006714538962599378,-0.034764656890135526,0.2900106330241539,-0.305056091480278,0.15785074088898096,-0.02044831405653557
0.1561592177492988,-0.03057818570094851,-0.046643637127919135,0.03558502801652149,-0.11143838168858956,-0.3135199432493499,-0.10996856846985074,-0.012164401958106108,0.036826315801908344,0.30997226685639123,-0.22274771170017235,-0.26282324200793516,-0.11639599162500038,0.16117245478495779,-0.04927983415927948,0.15809236074503363,0.05074478966732135,0.06310561203550641,-0.19753947368986094,0.04469941644233934,-0.18834250621538023,0.013929487181347202,-0.17166256404581828,0.05212428665019634,0.0061550687558946,0.15613529769323445,0.299755498180841,0.08924621169772266,0.2457391865223237,-0.24032981323697813,0.16201652901739372,-0.2536331271910537
0.044463094778902465,-0.26099126611733214,0.3258426301311076,0.03968155817811763,-0.14607945518256085,-0.18447973552500185,-0.20631541877722617,-0.03774825654688487,0.07379310470904907,-0.1724898437218435,0.08896329285714306,0.031774799258483415,-0.2989748109927905,0.004494367768307704,0.023941696624537556,-0.09457740854210113,-0.11972309093258926,-0.1594379085919826,0.10260274716930902,0.004397211362183095,0.20277889329671583,-0.298385965101295,-0.20700858150385368,-0.13333209823608214,-0.05933318780115779,-0.07091080980070819,-0.16007680935442264,0.09530814081806345,0.14365984589426037,0.012062846421856543,-0.07020911366942259,-0.07937654637379095
0.12836208000823957,-0.21463557814222364,0.188501753961774,-0.04662009169416915,0.11668846047808568,-0.021831981863050434,-0.00965557974987957,0.225684399001695,0.09788341786488673,-0.25213474648231127,0.1986739415128163,-0.04826597829664711,0.042423307222833904,0.13231615700846347,0.043820054052307655,-0.22463390316293555,0.05633701919009836,0.08452501515054611,-0.16792750718595914,0.042461800801189865,-0.029091630869990594,0.08369465405684522,0.07595890544982044,-0.2945073870448193,-0.15556420388106068,0.006138776292127465,0.22198362056685442,-0.15785879270653813,-0.27561905525944236,-0.33260232871718365,-0.3967357693830569,-0.12697047667760256
0.1801753918533072,-0.05037005170085646,0.07277664793185015,0.0663147316835251,-0.13668364682558376,0.19728162374399943,-0.04339018963423829,0.058378272198526225,-0.1615285974628856,0.06150084708782635,-0.07098216030910232,0.37410757399990713,-0.100972576009828,0.07490805729607605,0.1462128500456658,-0.15792190197983194,0.18068291092296748,0.15766801748766524,0.1851639536910185,0.06727178388502283,-0.1589599384563796,0.4892417776453302,-0.1612549557282539,0.12345441747983912,-0.12688656802816056,0.09989126550628549,-0.10512629321274451,-0.30062660015783144,-0.131248543643969,-0.19511743438557363,0.03998784301049594,-0.13018096874076848
-0.2252539461777061,-0.024538565419983727,0.18018375390258798,0.09793619670793606,0.03577488912040647,-0.0989213866351963,-0.05370118265073828,-0.10908069509138132,0.1040029620570112,0.1474508443890424,-0.35753588952964493,-0.11238881153912023,-0.10503893665150026,0.0005323108119525649,-0.007820269852043222,0.04371756048184509,-0.004289201226378451,-0.2898906941091014,-0.3193106229185813,0.11582305469788075,-0.07963436286705239,0.22931926677433379,0.09832274831385279,-0.16962154357204515,-0.10812128703268034,0.07630023592094666,-0.010057287393965558,0.005419088315272497,0.18217853143046112,0.009518640430514086,0.2192531142156293,0.24574258925296086
0.3473283622301201,-0.06101927082732468,0.030525548442032712,0.2288006423574388,0.10628819601158923,-0.14863149249287566,0.08669039048753231,0.17181845007488522,-0.008544719285771267,-0.1845446828835101,0.05160111921621461,0.2404558377704954,0.026418193819854684,0.13580800698865877,-0.11407884614022107,0.07152428087214373,-0.1698782656318336,-0.09078790819329793,0.012956151578809113,0.23752086327134514,0.23796559466788253,-0.1639168496181921,0.08562799669514368,-0.264764894328589,-0.10893009612712008,0.08299503763125933,0.19230615526124187,-0.05640084903465947,-0.08218967969802822,-0.3209709658814743,-0.17977817461145276,0.10394845897450511
-0.0034592700579998835,0.09645171891642455,-0.2476145703544361,0.05989727013352127,0.16779609397968492,0.3130800674532209,-0.19205979954757868,-0.10413002341465792,-0.1640810625625688,0.22637320147434267,0.07862831772536309,-0.29101189609667416,-0.22148065112911441,0.2989453565440838,0.05807982657682957,-0.013241507893618538,-0.16238634875928148,0.4565619047413537,0.1810984171509676,0.2719577140614719,-0.2941283345051624,0.04030956842562667,0.15025665808697244,0.10697520490012831,-0.032273051792777896,0.06759857407525298,0.0533912087115939,-0.10463234999321486,0.18436944312046527,-0.04508082064383532,0.21770138223071533,0.10874391260167751
-0.15116025419392667,0.000328301342849351,-0.22051069710060758,0.1942488826268977,0.18421096274764762,-0.1887983616510168,0.2031535641410152,0.04443819929231067,0.10671725029540388,-0.06408740365927044,0.11106720036371884,-0.07590704591757917,-0.214286842584532,0.26626413941115307,0.19920746425411692,0.1406567374579488,-0.14206811770457414,-0.09529240872948971,-0.032255361941314946,0.30522672078393265,0.20735961301995068,0.022815280843576227,0.3499288884220728,-0.20223512128219515,0.15259573420313874,0.23625629217125765,-0.001336244472555874,0.10275983745382698,0.048747285934597456,0.1961599007261394,-0.20743376742232136,-0.35526936197396813
-0.0520084512576899,-0.06705504057257922,0.1793074356993214,0.07678817876989356,-0.2448821573578444,-0.23797611485777773,0.21156238762821825,0.047627411318588254,-0.21697072775966111,0.2461895317979062,0.09554151346988579,-0.31942839035518455,0.21975799505959032,-0.23549246332862406,-0.28644722649558585,0.17549197607599426,-0.14975128805383786,0.05911406566351,0.1977435200397776,0.060807096010058966,-0.2581428702645804,0.11287201631731184,-0.28732295342353464,-0.28324763033907613,0.002660390020717955,-0.07829287888829572,0.27405416071213246,-0.14856588757258488,-0.18339400131064482,-0.026523815868713968,-0.10544948670503755,-0.08398330134859312
0.07054805060749295,-0.23965651677325245,0.11281701293903451,-0.07814245406111786,0.06253059855420491,-0.20664243242002847,0.1135548520751799,0.18247931688663002,0.033412904157404166,0.0816419927302388,0.15822102403134403,0.25640160246015087,0.08315862289435415,0.2105766647731825,0.012165275829900356,-0.12099020456083211,0.00943213610336624,0.037609100553948865,-0.15278426875363574,-0.018598445199912092,0.12304045948748772,0.1096994275141263,0.025678425304327453,-0.1032265040922065,-0.07242473240321806,0.052615210828820966,-0.16811764799560192,0.1531598180180462,-0.05094553359939901,0.16306603827024224,-0.05987609678825297,-0.04151362347188912
-0.09156175031713065,0.1445443186943058,0.0715891737821189,-0.14554371074850134,0.11076823194712741,0.034152978647447554,-0.057155753230609056,0.18709412695315691,0.03570841445192438,-0.14753018739158544,0.021412900726489572,0.0009944655952490214,0.17618935288348217,-0.05708692040889676,-0.2796476300568242,-0.15619720694555608,0.13845757732643327,0.030258493123580223,0.12355321577112745,-0.11035199417468561,-0.06927788036987041,-0.20191507768889233,0.09231092559101926,-0.14880339488495103,0.1676874550746802,0.02536890896884489,0.10193199241957712,0.07844344349198255,0.0501139640295307,0.369292965153117,0.17599942870094454,0.012811728058403249
0.06259477557929931,0.024599312470854076,0.12448283002272884,-0.34866918360050375,-0.0945650826366691,-0.0915276462412143,-0.00714627036214407,-0.03382831089421143,0.08234625387616214,0.011458868062758316,0.3223874526940153,-0.003381139309772376,-0.03759462023510821,-0.057016954103159635,-0.18069155782185703,-0.2599591958067347,0.29510123043813874,0.003490019863387571,-0.06758808299051189,0.1347319744093451,0.05177087408325051,-0.10019553033905303,0.298258042734325,0.020307474236830686,-0.0985301611505605,-0.042054125619865886,0.2442613447569822,-0.15727706795376525,0.421531321908743,-0.00839599556894439,-0.026117279742797768,0.024426868985103118
-0.17767308132636597,-0.20605684545469735,0.17923198566534357,0.1974920696203459,-0.06922834973595272,0.08735945851163769,-0.0624607623221096,0.18150229919764677,-0.32368918993948076,0.19007165990662475,-0.2760083652825882,0.03330278152151167,0.20964780153316478,-0.28504314867554414,0.06868583375550061,0.25825800056898485,-0.009009501206536272,0.17408595397544277,0.030051485518999662,0.033511871506310874,-0.1689424409092758,-0.23453249339007376,-0.18864147972590287,0.024678967323999153,-0.2326574884231713,0.09933436630734586,-0.04023055946096986,-0.01174119879692451,-0.030008085192769395,0.056641470593589045,-0.0020987189650395195,-0.012179540719305163
0.279650098354391,0.0461395045378323,0.023419232295117824,0.10559377403598519,0.20796434511336773,0.12785660309650815,0.0265808033230634,-0.0218129517050958,0.3545070844800716,0.2806811079788917,0.0061364065577192844,0.04679774485988618,-0.06968857782540736,0.07817212540059006,0.4188075389030369,0.16166458333838524,0.10948177423570782,-0.02865264786928261,-0.003596292354747026,0.07584610074218628,-0.27430397989551997,0.012702062123321676,0.15023369824610636,-0.14377725154779608,0.12493474992673578,-0.046787587938087086,0.1271158358007997,-0.23498821331023076,-0.08444029447334392,0.20123187977314883,-0.24868923006416602,-0.1863136692294603
-0.08217138291213776,-0.057614151652420655,0.10052367805442408,-0.31136043774293554,-0.01435938712370263,0.1305156453659967,-0.4521866685858717,0.19579913639840574,-0.031879738548760854,0.026529978562882167,-0.1202662651877028,0.16482208138285212,-0.14265928554676502,0.11056379198070003,-0.00742886837368885,-0.1088610467393602,0.019400455593193023,0.25728346797193646,0.03243120373037579,0.0694110134415099,-0.20364889635838435,-0.27429221638776863,0.00550865109240253,0.00019273496757697946,-0.009296104224024545,-0.2015402667912542,0.04640243095700324,-0.06753415109968161,0.014278249617940192,-0.09964199159765509,-0.33565100584313823,0.2602853411313507
0.002773519858600398,-0.18798314430304938,0.15234470234588293,0.22626365694532066,0.10290779501691968,0.21679082723315984,-0.20428685416160663,0.023997265631361647,-0.25372801627787306,0.11109351326745526,-0.18145329087246986,0.03396673048827798,-0.04502475369712546,-0.06473106237118573,0.2506112919705914,0.07851249441490692,0.1100663752370891,-0.02874284542534992,0.19286142881938748,0.28312864353426176,0.18468376352799346,-0.10192883615753087,0.02596793547511758,-0.013709392141897307,0.1716129389164673,-0.3894456446720258,0.009144155993111958,-0.09589297928258743,0.14481622584807471,0.3624803547911289,0.007495518609052157,0.040157018660531396
0.11593427137471714,-0.004817717740669649,-0.09213438775259994,0.045390547749669254,-0.14568634461747113,0.06491617832515181,-0.15867188645987076,0.06695432218467784,-0.35163576264580115,0.09455236323259766,-0.13047287734257687,-0.04194970706559751,0.021647046341673942,0.1962470862654037,0.1888462106440738,0.18567648860841954,0.07195939502758558,0.1190978881791922,0.04915984093006156,0.1910468707152961,-0.04934248565332479,0.07476345825105972,0.18387929569055472,-0.08964853803745271,0.05602211951931722,0.24373396684465465,0.16117092870545013,0.12248086525435696,-0.07917272750343315,0.124342435071918,-0.08626168391884007,0.057067559842728155
-0.20856768955486565,-0.28502932115164836,0.013538320191105336,-0.0666872691293414,0.07215984352962458,0.0027388940149983393,-0.030006828784740782,-0.31768586723376235,-0.10906418387247709,0.2313771366093212,0.005465668386885789,0.04434673650534207,-0.052759776966748426,-0.08935898551552679,-0.013080370439399068,0.03453387861663354,-0.11566841902570937,-0.09577238096462577,-0.06168344131816686,-0.11589005897743425,0.04030481152666394,-0.12690447984515707,-0.09051169121356532,0.2913229585104731,0.06732816739008388,0.10243012963036445,0.16907272645833502,-0.15304358762123954,0.1757255619577378,-0.3147722162231972,-0.4003725164149333,-0.20750381547424177
0.2854733841916949,0.03387803051675618,0.23437344135271562,0.20123289576144554,-0.34388420420029914,-0.03330039904617966,0.3019195142385697,0.10447336050817677,0.009865300387317017,-0.2828248261251519,-0.284424279804882,-0.3365761108100585,-0.2099360223337013,0.20853825898982953,-0.1929970048380446,0.10184879438674614,0.30161493453341665,0.0004890382482428868,-0.12813347063909916,0.17273084050915027,-0.00786442597380526,-0.2342574016139004,0.03787698871591187,-0.14841621781025605,-0.07474150368229028,-0.1013816046293009,0.06256102073843657,0.05380961417340456,-0.0923943097121814,-0.07733705394650077,0.2898856628010931,-0.13731901235097843
-0.08114104149905028,0.2325293053840494,0.15961321802065312,-0.2020589881059947,0.13673220615985562,-0.03614440399790121,-0.34537395404303145,0.011998372388705698,0.3847247113599892,-0.01703570569378828,0.11973101264354771,-0.1256712601022414,0.048475843861677,2.845430909470766e-05,-0.12099103169444668,-0.42713460270831394,-0.42061376556767144,0.21850573968155,-0.16175917132971154,0.29210378107941437,-0.19161812255062277,-0.0818486257929391,-0.16441524187965117,0.29140399508460046,0.13460314432442053,0.2239478660222655,0.40213812130896415,-0.0034869829822379624,-0.0019488959852267756,0.058873825893531254,-0.09305766104519943,-0.08339241594753408
0.381750990985394,-0.22077888949430627,-0.006379236966168641,0.2782883736776699,0.161201708748558,-0.15317718868362282,-0.2824255936117869,-0.11717350960366403,-0.1261039421107585,0.19896009017224872,-0.026053345691271764,0.01952959411897478,-0.10557383316815885,-0.08905530281626678,0.0002258697353095963,-0.3295740858767072,0.14966699092685098,-0.2602603850684269,-0.1529253760785817,0.26212945427680295,0.20671160722750628,0.31815128227273404,-0.028399430884610968,0.13314260489279295,-0.21197548851532647,0.017921886214386964,0.10609312823568144,0.2315141019155792,-0.04401951681992193,-0.03403947304016737,-0.06740071550276283,0.16765163280861067
-0.10078128119719267,-0.06238361940066894,-0.16160429645493038,-0.22725897975128842,-0.04189185195697841,0.13318045519250035,0.12990437008946798,-0.23610357287188366,-0.3156421062931994,-0.009978813466482264,0.13449083840663514,-0.29956282893890557,-0.04454486691847384,-0.17303072050284027,0.022159376314251085,-0.10749805897059765,0.16307188266845,-0.09329654611479501,-0.22475736535513013,0.40610574013016587,0.1552113567160008,0.1378690615540079,-0.0961752415882927,-0.018950529030241827,0.20638413975701686,0.054783076450274575,0.011796193135186596,-0.047966660091470936,-0.03255599106559604,-0.23998308746756214,0.028898041839927183,-0.5374594209539558
0.09733734959009796,-0.23485980116619676,-0.21733503702732637,0.06323334429858313,0.025534990599846086,0.06399626025441883,0.26379687385175604,0.28447686455865423,0.0020203993913217645,-0.03205040062697115,0.3601656078708084,0.028244388765243843,-0.17018365971565527,-0.07318813465513753,0.008492579177133556,0.0557920166978895,-0.2749482235976116,0.036011010588236685,-0.10961223314200537,0.0246056958965364,-0.02962923464821843,-0.14397624763593253,0.21638912990510878,0.07829470505447839,0.053923062592034166,0.005416944102188104,0.16715370412730465,-0.07708077111110374,-0.18348451293648038,-0.19781834988537383,0.3050477713310344,0.21419203775849396
-0.19489498133613925,0.12646824439087562,-0.07350751116938242,0.08117063292846664,0.03738171836010016,0.030539229188232164,-0.20388836862621287,-0.07993473300218196,-0.1785702510111316,-0.07565670911285327,-0.0026293885486894024,-0.05443367948073194,-0.28209947597499074,-0.06630176777159322,-0.02609518640770638,-0.005405649982114597,-0.24175288827915184,0.06710139126312939,0.20677089757769057,0.02517288159932509,0.3524159275674696,-0.0689194098400148,0.001012734959217745,-0.22174708914091623,-0.15666899403556098,-0.09294151121719645,0.2670746463867184,-0.11381467716883209,0.001542867206746326,-0.19527609911654997,0.0711193680102167,-0.028291508638217434
-0.28512469847573546,0.029619254714894176,0.07009808652388583,-0.03840957215839675,0.05969862699405439,0.2649387220729018,0.17464945932083775,0.020639738554670346,0.1703583700246159,0.17563751678680517,-0.07940341988134268,-0.3215360220419828,-0.19065447877509456,-0.19042383750004765,-0.15143043680736187,0.12314078488143002,-0.12930456892783598,-0.24003422276298877,0.25830333181703563,-0.10015824291570175,0.15693953969452926,-0.0555142790790562,0.19159482586065252,-0.03415295477960822,-0.00802911124248821,-0.01285648073371674,-0.17215069637919983,0.0481440285224648,0.058229022415978715,-0.06292926283350021,0.05207287733402744,0.273140725551171
-0.1590075886921001,0.27450833333644886,0.09829642380931242,-0.5336693224487239,0.12321617295663209,0.16880358927323807,-0.015830479822417823,-0.21288851917738455,0.02670252333083377,0.006487674075820384,-0.031440226682204184,0.5001753929192618,-0.06673520655834358,-0.27004607276689785,0.22289947922436643,-0.04156897445980066,-0.07369706173500289,0.0899760228864434,-0.04228971401904415,0.060462114370260556,-0.13226862582836246,0.3016950135168743,-0.04484285308077136,0.10551709031676594,-0.36330200913662997,0.21725607226972096,-0.15970838016130232,0.23853803752797362,-0.0017208360186637007,-0.0870751732512002,-0.03382124649849149,0.7202678126527664
0.32862842921980767,0.12113858963583636,0.10600698199721735,0.25315734902052817,0.06467159800377037,-0.11372952058180505,0.2604057676318869,0.0395210736710272,0.19232664948979952,0.03296152234790456,0.03761547613449607,0.08369498767551152,-0.0026764852856990015,0.25196759121012136,-0.1919332239092668,0.13749641225563547,-0.2237784538674286,-0.03940897276412397,-0.06172303037885971,-0.10963621062086627,-0.22162745602093303,0.09480367244158869,-0.16531746645429818,0.15580434357530845,0.13324209319490868,0.14276670418080442,0.2986424085751518,-0.04809256397417087,0.19082645841201337,0.1545909023069549,0.11164395989973852,0.29815764278748014
-0.11974415581759863,0.29369528825704644,0.05273291066864277,0.15595261271341446,-0.08377282370621442,-0.12940690435648164,0.2582023921699367,0.04783800472602341,-0.012215610713208914,-0.07660239336522869,-0.014248854616272068,-0.3006728530933552,0.005518163678529321,0.23953574673725583,0.13440871200710602,0.4210997951829913,-0.009944070431277777,0.2536757400447608,0.03538633230913077,-0.07198422099003808,0.023034778160240795,-0.05902406126043559,0.2045842206001999,-0.028828575335349677,0.1757968076737752,0.09503862868534917,-0.06679934857938247,0.031000803844555076,-0.18310776285949193,0.035905421267010657,-0.2208905773997737,0.22305347540598544
0.16905924366884803,-0.1787865609217879,-0.05427955337241428,0.0827245709607577,0.15473793658195012,-0.1210284997525395,-0.23757333619878773,0.09942458649838747,0.30760354853370986,-0.3070608850013169,-0.10600234240520914,0.014834296653329916,-0.23202354772878497,-0.04573181579698269,-0.3251967412114404,-0.09969410003557555,0.09519285642047821,-0.24939930883453598,-0.29356244873894405,-0.009462394082228508,0.16558299636055052,-0.17795241640648027,0.04215682472553628,0.2432170283155768,0.10579402544305493,-0.11051757198825601,0.08400098446082976,0.17465408255984355,0.01213341548046563,-0.30339880377650513,-0.008563214760866213,-0.21156882937368623
-0.0840741024584288,0.26331833161642465,0.038258478550721994,-0.2776813452879111,-0.0433055723071588,-0.21465816217183167,-0.10717126768871402,-0.06136807934607933,-0.0916367900890665,-0.04166498400590972,0.3489430821557194,-0.009960355572061461,0.13736418065649378,-0.001940572886358546,-0.2580625033413485,-0.016511735136280892,-0.061057175076036904,-0.116643360578511,0.11974539153385687,0.21920969280141372,0.14391215715791458,0.034495317738315975,-0.3610916987556239,0.07769492575735253,0.0833843488329891,0.12989578027656098,0.12381891377464903,-6.950595757923336e-05,0.10057584638524898,0.2528492971697575,0.16067645092388713,0.18296500510682295
-0.23177974780464963,0.12249566836624369,-0.12131013971155996,0.10568294331284628,-0.003856202068796755,0.39300860135635995,0.2539350865004861,-0.09377938575912091,0.15060535437652622,0.13987760971226804,0.03527171116929428,-0.004273611656495294,-0.2741756823586429,0.0941052551753682,0.0529278627895521,0.010357416161949016,0.20955253891871406,0.12029833567918283,0.20725270712915697,0.2191267746107536,-0.12819478775562154,-0.10435087714612772,-0.041095638352329295,-0.007095365155511949,-0.07239991689161183,0.0974524149064278,0.18588604452655832,-0.19988578642260404,0.20680571471081033,0.31456384668850595,-0.12664888949234987,-0.04129507300085479
-0.1393860909912735,-0.11717168728405473,0.3591170611234191,-0.039399180883217214,0.12297978151362414,-0.23418825862651074,0.3849048446861469,0.32739539207807905,0.008199396817001756,-0.035907446238584946,-0.2788171527212675,0.00425221965713004,0.24202220522888407,0.2363330807424543,-0.2899181037468935,0.005528464138301588,0.04501347775468456,0.06355916354774498,-0.2689449963776453,0.03979221486129823,-0.11444095906394625,0.09636036740956713,0.046060877648613496,0.12304170133486865,0.01859664467181805,0.12647024627741063,0.08655185093876433,-0.05736507379963431,0.08975555332519614,-0.11234821785530313,-0.10042551813489894,0.05961018721791089
0.38737719099805307,0.0979001496583733,-0.21329320877462427,0.08857281259769918,0.01964675057639834,0.21792021587187682,-0.3093164909661665,0.21315200408961854,0.17125215873592528,0.18076604452457218,0.11676001800804471,-0.1579428201236798,-0.12399366378921448,-0.04557984170664709,-0.4111078439302948,-0.03441394742597329,0.1661120215011089,-0.06925205252667624,0.32314956142683804,-0.01759038999232159,0.02197043584544358,-0.11672083407665754,0.14247461238435302,0.03159764944626072,-0.0030803694080050515,0.1882558715979175,0.15552544929178835,0.11321701977609772,0.028434238732435224,-0.024795600762838023,0.1378700982121579,0.08877213903437978

hidden2_to_output:
1.0728288655229374
0.0747940102192385
-0.2871172819038484
0.3793382227085517
0.10421910858116774
0.06350485523346347
-0.03447588461896177
-0.01776363568506905
0.06323934302762033
0.14797974673516162
0.4258201837933278
0.6180619895341901
0.07950634074622517
-0.21433993153455452
0.06373888759718215
0.060731594985473626
0.27510235592233084
0.44553465588148594
0.26157398117137787
-0.3715145821410389
0.7367210554617645
0.3643290839278467
-0.004636098453152747
-0.12124162521870456
-0.1685004686848073
-0.2411229511988437
-0.012993353857684502
0.2770151740878509
-0.42857011088897257
-0.051788882301066805
0.41364783006272227
0.04095234284903771
-0.2507909871419037

