input_to_hidden1:
1.0086824868437745,1.0018271824709448,0.9988275259502523,1.0027703977913256,0.9997328756197464,1.0022334660138252,1.0070752352603656,1.0004019094867644,1.0040186326144485,1.0028071225299078,0.9988018743608889,0.9937931703340216,0.9999354881523796,0.9962215145120261,0.9924270253324075,1.0000956654940896,0.9943801268352245,0.9995192655742422,0.9980637399063218,0.9987752833002351,0.9993691191853613,1.0019147586589423,1.0078961102288158,0.9945912923469225,0.9935971427084465,1.0009391346808283,1.0037639956743878,0.9996219769802425,1.0097028715342657,0.9990256625756696,1.0029588939256735,1.001490752679895,0.9988228467458932,0.9943379445822423,0.9993950534577665,1.0097935610242366,1.000746803460122,0.9952075455563313,1.0053951251487188,0.9988832723999336,0.99715926235754,0.9983675205500514,1.0047963937975555,0.9967814050391278,1.005005886528298,1.0005255467625025,1.0037899793813705,1.000533230452042,1.0007015583831378,1.001490330596704,1.0000655722285658,1.0035383660790573,1.0017898843376412,1.0012209869126747,0.9934388773852457,1.0020437165342575,0.999345263578322,1.0050728695441264,0.994838983270648,1.0029707277717181,0.9968677892048975,0.9975219435155532,1.0035157622546578,0.9984709745994025
0.041947002404349086,0.42942399305342926,-0.7644347771021753,-0.5414548524443188,-0.9008074744756659,0.9468240805490742,0.6831289243564075,0.8652099977869079,0.31471950752404193,0.3849760867241,-0.4650868584923514,0.7466138140648355,-0.44035107519613703,-0.2630311301858028,-0.1541614085969361,-0.3102642816290801,0.33304785732294595,-0.09067700502312911,-0.02696841900222056,-0.0827896657837194,0.5277009168377393,-0.23671419174245986,-0.06229516032556738,0.16149691655372203,-0.6499987194433949,-0.1890915230101184,0.2127602110464938,0.4569780275733853,0.07065173883222893,-0.2647169511200746,0.5679041630436377,-0.08551390779720743,0.011228330675349748,0.06709020620778935,-0.025073179440938707,-0.20520444633649734,0.1866560296698081,-0.46032992852917226,-0.19215009246293618,-0.1613211973660161,-0.36858526489581395,0.031853190470225695,0.059866638768161354,0.027084602090951742,-0.057408474998227474,0.21639751082777092,0.6706972390111756,0.3949484951585096,-1.229288792066061,0.44838269736157227,-0.733377720751849,-0.6956326745621678,0.05147535159410617,-0.5289503925180407,0.6045415469880762,0.2750099178836517,-0.31878067949702205,-0.6410251818731809,0.1256246598060174,0.482738723520796,0.03519355868541064,0.7344151850547873,0.2119352125331965,0.31205828499016314
-0.11754337839737701,0.1486930493197731,-0.0892342798181412,-0.7391956373202376,0.9695808391530896,-0.05697772733937562,0.047020761340926094,0.5217278515738349,0.04404275738714751,0.0853327447835825,0.16800555077414547,-0.4527245203124033,0.5977390598982906,0.1402102992940937,-0.24142796420986673,0.36473540559511997,0.13831068513936706,-0.3737947330172366,0.05886876530714094,-1.9892161054221587e-05,0.13136044053944596,0.14757089157460598,0.2818272302160779,-0.471576769832464,-0.0014728375399608033,-0.3610560652207261,0.19566829448501702,-0.522280760931969,-0.8567439702363255,-0.17120610101767722,0.999124583320898,0.45123180804571705,0.03297962595854524,0.9737930108591558,-0.07644690648948585,-0.07046150327197406,0.33512477710575905,0.11931108068787882,-0.02726330013274965,-0.18394350777460583,-0.026404300703680772,0.4125299865862076,-0.5123904037541364,-0.26296634306184713,0.5274955289020603,0.9930690456769412,-0.721238718407077,0.15907737121386123,0.6406145949396996,-0.0872960351563916,-0.22658383201373608,0.48856691398294066,-0.21666196152367864,-0.28320349608201184,-0.2257668018708631,-0.5447978404522231,-0.9396351948738296,0.45420451122997546,0.6610347508938869,0.08847532342632644,-0.07968428650528148,0.19523126621528805,-0.07018013461014741,-0.6867787515086173
-0.4706856418274852,0.1675670910963939,-0.15317861123118348,-0.6093974384313754,-0.5645398390531353,0.3733306290816811,-0.595516925923005,0.44641185549286805,0.19220894543195904,-0.391794331956956,-0.12574563493272992,0.05894516800123427,0.14141323303996853,0.09811374515810424,0.5554120052795247,0.3636553710936961,-0.20289208002407924,-0.06742238548102306,-0.3573557482514068,-0.20566480029922493,0.02871993446119185,-0.919675277247975,0.04302312214330612,-0.020981536334190923,-0.09959851735466543,-0.5116918228889324,-0.2240187158465384,-0.30009172908641246,-0.018640191299146878,-0.955296678905395,-0.12816819734215656,0.18644621567071526,-0.3480323911540011,-0.37347811190562463,0.28804814479831,1.0416596589239402,0.24024555997545766,0.2553127789044674,0.02091224650638201,0.30134536974528636,0.23108225937285184,-0.3669035791532897,0.14981460267495994,0.3588446012336514,-0.27737867401204225,0.14722399926331511,0.4952430037452147,0.3829701643978363,-0.008361215796213746,0.8109289260973093,0.40484132787184035,-0.0966242521150986,-0.7715027223246969,-0.1274083127913368,0.049247381514208335,-0.1485885505993606,0.009269418619478192,0.6452001178004838,0.31885947440519946,0.5294205618519436,-0.5408639281351193,0.002302015218463136,0.5240010957041102,-0.3253158802314653
0.7629204914165039,-0.49949033011897453,-0.2580150376543543,0.5949492851203289,-0.8568854043792989,0.3143472042727241,-0.4968300736158068,-0.46015231369173365,0.013145228264047067,-0.02764929798128506,0.2126412493242105,-0.06871093568119212,-0.12559360513123888,-0.46995044116905554,0.09969154079018283,-0.9836359575460869,0.2415992686970563,0.07506099701763784,0.5293499962373224,0.5451951479005338,-0.5669098869844449,0.2265761673335227,-0.31636359855861107,-0.20666652509893663,0.29461868376765,0.17412458817245052,0.1731677806813954,-0.03580446862081921,0.07311895188623284,-0.4453118092743155,-0.25497373533590856,0.2323160156098205,-0.46692297957133344,-0.25652076970692844,0.28818942024313576,-0.017918249694308892,-0.3287603781943757,0.1090816014381603,0.5080743890025052,-0.3907718111674409,-0.6027892436402005,0.04061207047833969,-0.345027118203398,-0.14519747007898595,-0.22508228279259068,-0.3560429555979278,-0.02313329821129654,0.06619807156517175,-0.4397631495267008,0.37717559106395915,0.5063924038966916,-0.09266416953228193,0.051140199485857456,0.5685221510992092,-0.5361846192226181,-0.44518430296557104,-0.1759635090742406,-0.042790223380730144,0.2086919061406731,0.06532661385236566,-0.7631278146685097,0.38305192021927326,0.44584717034349247,-0.41030365727148077
0.17929486414976464,-0.2847314693392675,-0.19984507113821393,-0.30485162599873483,0.5782496747379905,-0.377839525995517,-0.05553144330156026,0.17830285319297234,-0.37757236473104583,-0.13713380638146366,-0.07818682154901081,0.6317711698485581,-0.5364835993674728,-0.03195227302814049,0.05548392368934434,-0.13440793462294282,0.5084983445842003,-0.02641833161231364,-0.1965348806259193,0.29935575277400694,0.47392567578394634,-0.35581059795304926,0.3220553608521312,0.2590747716656941,-0.035365165858898186,-0.3294297600404784,0.33171000562607134,0.24051145719863315,-0.38401957479653837,-0.20882539273169182,0.6764044225323267,-0.2690423190150709,-0.8153952186223473,-0.12705429578251948,0.052098573878376485,0.2746309439067473,-0.1610455161973503,0.768124898456342,-0.19331310573250307,0.0736798276763867,0.42967895949782076,0.028903321112045598,-0.9467360522462552,0.27751590786325714,0.10042643094637624,-0.2683809540396984,0.4504169888946672,0.41821020057551095,-0.21061951512954682,-0.5789234246652772,-0.7093039353626479,-0.07408696044455687,-0.23210163580695262,-0.05664869878063887,-1.0541577366016615,-0.007751761374907781,-0.49591330290999613,-0.15729089482143468,0.8649560792602785,-0.012499928632848283,0.3869504979295859,0.1453544918004751,0.2815149541501398,0.055827589890973126
-0.054287604463817654,0.42655299785634976,-0.5081974598583328,-0.24733465884024292,0.1967977774778218,0.0675367251134211,0.8055719815875254,0.027586558692250632,-0.019499216357110032,0.13991057901011086,-0.5861903511877996,0.5871329139483005,-0.12203540193792481,0.2529061197639097,-0.3215850279072915,-0.5332762225983202,-0.030904037093949597,-0.08886025623976651,0.21134980136121667,-0.20152085655340116,0.9745536808872248,0.0581842671960352,-0.4458480081353862,-0.024867186442007406,0.5417001941511442,0.05972052161474143,-0.38121782067382437,-0.2052208933802554,0.30275749124027285,0.57895216097468,-0.2976769586835146,0.5602016153713981,-0.2954044218032518,0.7968990921378792,-0.09787399970636453,-0.489488256282091,-0.11123230586925395,-0.021677578172843246,0.29284315150983875,0.413464296915827,0.22092231129107887,-0.38911796464594656,0.030133874915341537,-0.14712285437764452,0.04203714875540403,-0.15819169950451398,-0.30400519508553414,1.012615491072568,-0.14330876223814762,-0.7198353556071704,-0.1758202322802086,0.443254160437133,0.18236856236119875,-0.3427877482249085,0.3953249577714088,0.8726995512938125,-0.5649402516249145,-0.0016176267354959647,0.2808891262677514,0.4795915291764389,0.11633620721712953,0.3703365846610847,-0.4357888240860735,0.5849860271059422
-0.33631814174072755,-0.7784933182817253,0.04536266621006873,0.00413580412654973,-0.38612986002608646,-0.2115502399624468,0.14402576793705318,-0.18551708119665533,-0.26116749869147854,0.30310501540717444,0.22010634224138806,-0.3916634221585783,-0.017654066744864003,-0.27275966823875114,0.08025713615796533,0.2784363223202172,0.37782403422465527,-0.16264064411654108,0.10690739082926919,-0.30900430668097434,0.3263062730341549,0.11565803136139029,-0.10348814732604598,0.15015380145430113,-0.7057737855782124,-0.39383051865475277,0.0006966566575404313,0.49757414045485215,-0.2289204374267105,0.1276230800518813,0.4590689551195321,-0.2724774098398581,0.1536975543557454,-0.2274128433727122,0.8212926478749717,0.06063173268914929,0.32390129273261176,-0.2692555213683887,0.10525193210770667,-0.19922629397623726,0.49603654868757735,-0.4901223424040867,0.7601993715456368,0.07062109488471957,0.2347333309464917,-0.2573450278193544,0.10701523691040427,0.07549000134563598,-0.0028017284012457583,0.15523123005127834,-0.5384323539592002,-1.1175751838753167,0.2917111851349148,-0.5952881685665894,0.22162152564640653,-0.565506003190518,-0.20925270550314748,0.906890686017043,0.6478038572732386,0.00859359242291209,-0.20998484723397168,0.37200820068260737,-0.8680175774564877,0.5819637936586247
-0.2297461651818157,-0.33874044366936895,0.033258545211310546,-0.2473637957738363,-0.28685582157620415,0.3490095754091246,-0.017672753258983844,-0.30609894796905407,0.150597807274495,0.23205508255199933,0.3098363542716496,-0.11642143172492034,-0.3023119108506087,0.44202103853169805,-0.05589556158900467,0.3424021196712254,-0.5671905399249161,-0.41754596821727835,0.07714249680023194,0.12400513662738291,0.2395143613323519,0.47816819111828884,0.5573542600932989,-0.14089344492407285,0.016291047631095616,0.33077476604966555,0.1053044165687637,0.04319950790202143,0.8234650847133852,0.5064848756738017,-0.6862978311939881,-0.22042880624840722,-0.1275267423983887,0.7370573319627148,-0.6515397442072067,0.2336520532579311,0.09282952198468919,-0.24212876727872817,0.32050879431230817,-0.13659271909544865,-0.6286069650651315,-0.468562607785853,0.5353332507624685,-0.24225553834446178,0.5286056431376077,0.054099930632805986,-0.6961431563423158,-0.6490185130161933,0.16278584942765892,0.6155805699805716,-0.04066030439970821,-0.14511117791626363,-0.1049475598783388,-0.0575173986098714,-0.013286518476031892,-0.20683477701286193,-0.16420159893777478,-0.2465183780273921,-0.08806033016086849,-0.5311204934251914,-0.06790033357457066,0.24357956941164796,0.08655389847517887,-0.4382623605485102
0.4209117225825494,0.6466001339599803,-0.649137067055354,0.47728808854431326,0.3598814199666747,-0.21273206295805133,-0.7645774310466551,0.3057912756526987,0.47418522671722957,0.4115627872658623,0.4656987072569048,0.4653297333506376,0.035584784628181994,0.456593143699007,0.5524431905426759,0.1258995852970012,-0.41452940003877314,0.8156429313472526,0.01387882149882518,-0.4894362861466358,0.4317562003192996,0.5787971063317897,0.23345376780539243,0.21105539192799358,0.5202276588636285,-0.3765204484052668,0.058701087116598626,-0.22981952068362183,0.3723739413846821,-0.010813353937893413,1.004650428158844,0.2098070642304766,-0.3426071597793334,-0.5327218261454214,0.7547255687710829,0.7296218029620327,0.16635565779115646,-0.006966526347483193,0.35124070841793,-0.12881011463944986,-1.3965039920156037,-0.4991905681964037,-0.04363896867868499,0.1813791631789757,0.1949559918479727,0.35151107301235646,-0.3990969681688069,-0.2481110118715898,-0.1455210545571998,0.3045493069771949,-0.6365500470847907,-0.37574395194677646,0.3516433976263243,-0.10982476601816701,0.13752113221795112,-0.6274036613949587,0.22896878413216992,0.5849555150977827,0.3548519677790654,0.2474842930469051,0.1464964955293997,0.2012603616487914,0.2408268597421633,0.9306431463323891
0.6644328425132278,0.029947361238855497,0.10734663631581798,0.0075710035911880896,-0.37532673310525805,0.17479393303745536,-0.09223914895860155,0.4229417058261946,-0.0506632075023772,0.10631817594431087,0.29775314921681145,-0.2404842430428529,0.30568853281762465,-0.42814755599096654,0.12022597609276593,-0.3687901212127229,-0.5139902020214642,0.05967529129773418,-0.36655462964606095,-0.6531240335983282,-0.5223824551469429,-0.42406104317193466,0.025416051522967716,-0.633676208026861,-0.477088104651588,0.04984441455670987,0.5313703650748894,-0.3581480528770861,0.0785805218287591,0.45970580884741513,0.13587386559785614,0.5583997724084816,0.30432733777791093,-0.388857642289931,0.6146752721274801,0.21375803631779366,1.102885527319411,0.17609180414350703,0.6792479235117403,0.35135235998602904,0.04259075372684543,-0.08022374727151409,0.18775624357519344,0.3120407526144852,-0.13712354793345294,0.02455324496218524,0.03075681682484143,-0.08793716807864373,0.7187077297305802,0.47287982814086305,-0.683427214706504,0.29687262532508946,0.040964544362086304,0.4303728067911009,-0.15377724460123737,-0.17339972569478102,-0.08666754614066711,-0.4986602768048226,-0.07005002924623402,0.5687495292851146,0.39378691060146737,0.5049267300112507,-0.07642150860758722,-0.28998059464173714
-0.6687493737436344,0.077502885452404,0.7929794259375297,0.5720179960504994,0.3886209403447425,0.5686677306689591,0.2933598906906765,0.09855018753212026,0.33423539050006307,-0.4858935098673277,-0.5222895093748402,-0.3940482152568704,-0.6876599113669443,0.14764816555387858,0.07888783881653037,0.08516247673316255,-0.14419737958384032,-0.032124046532330724,-0.40513075763409584,0.7478973527602879,0.46847544497668736,0.26403816902037525,0.6012509388322728,-0.13071051939262146,0.2947628467083744,0.10593369348266396,0.03641435206153341,0.14805099070884542,0.19013969092176805,-0.5285026789292762,0.64300060668897,-0.41929459499911564,0.1116614095894308,-0.1473072918402781,-0.21618022850462565,-0.25656014636014707,-0.22930605607073387,-0.09435748512593903,0.33880557234633407,0.34577338194277313,-0.14815580074448026,1.1372227330036593,-0.054059946549598524,0.1819991117971883,0.06860125857471715,0.24425711970098699,-0.43393102970514075,-0.16429106420177733,-0.4984635558259222,0.02581432218570692,-0.0468806565362487,0.3334636977718017,-0.05565675874893012,0.3776071460501193,-0.020988163910743464,0.9131437800215185,-0.05346506383285004,0.2802610647067594,-0.42171746735179083,0.08894532325888896,0.9193411452030374,-0.8169304505172031,0.4595929079872529,0.12657886111360173
-0.10484172236759075,0.4376510635814929,-0.3624146308273993,-0.2660365981467374,-0.06511922377052849,0.4814271696233229,-0.3892093535431738,0.09124947385490066,-0.004715906620933482,0.01717542552076867,0.4277194788921525,-0.4820523727905138,-0.19346146995267263,-0.24652563518961912,0.3560606432682543,0.7051686991159948,0.11243210779145273,0.251672852993743,0.15317095886145835,-0.06049545126669188,-0.14676389314891927,-0.40955439226574203,0.8711674962278404,-0.025717840511276454,-0.01760163284634777,0.10899796140708877,-0.12572682893761664,-0.18916480126556431,0.028642899473973908,0.19831207643954615,-0.10959291721681862,0.49183832762418717,-0.6236772819834219,0.14391693648313383,0.46414082980621596,0.09660370192696538,-0.441979654322923,0.12771769242407174,-0.2989063666994107,0.20779500896787906,0.526494867596201,0.6942580616995977,-0.2630866598028262,-0.13228417931513625,-0.17855478629487545,0.20760265877198553,0.40930211574358755,-0.6160227348453,0.4553848952440646,0.7430958906663393,-0.7797262920206167,0.16982219555548142,-0.23128317750465235,-0.08289937831678851,-0.26137010700755997,0.3740748955654012,0.27143262942794893,0.043164682569047465,0.16352160641793376,0.8223091526327477,-0.318790676235019,-0.19990647056880786,-0.8468078391263625,-0.2737320600216477
-0.04483940855598352,-0.6558332714507895,0.36478888734850207,-0.04376239581171268,-0.17491026248870103,-0.453148661477113,0.11446570815505307,-0.24402241125062346,0.3416218724119207,-0.4486202210562174,0.04293269279738489,-0.23907284168328397,0.34158252832216623,-0.1905847363149714,0.3331809222496457,-0.09312639359795533,-0.24588662335344377,0.1498524331024181,0.19418862358481634,0.10392858999550403,0.10339662249877217,0.44009423579771223,-0.127766237897516,-0.6999634687857057,-0.04057867628964837,0.29714087997194094,-0.5063532812018734,-0.06207799274654731,0.346467676245578,-0.24863478954435195,-0.043554128971283565,-0.23415137958294524,0.07221084134542478,0.09122214409330004,-0.6097500769155383,-0.4384727611959963,0.5298740703811844,0.6481693577044375,0.03374572198794376,0.34337070227203914,-0.21025469625076926,-0.4886144091026142,-0.010708516912559703,0.7917280282551085,0.289989192772099,-0.26221768156636555,0.5291237963014059,0.39694883082918153,0.1232047095688168,-0.3212470186797987,-0.373058747611046,0.1306087373561909,-0.4047452841338774,0.2370036773454432,-0.5099722824534874,-0.37342141255980965,0.7653615155518847,-0.07692037948511589,-0.42837715561175804,-0.06789142317488547,0.2585896971730885,0.2047171716064257,-0.14021525571441742,0.1611212289288042

hidden1_to_hidden2:
0.9991190240489389,0.9990754502493568,1.0008201473853882,0.9902535213234774,1.0006964410586117,0.9920209351614895,1.0037723261008853,0.9976486152063062,1.0046113058022348,0.9968078238163289,1.0056690350213249,1.0002586767092763,0.9982556737620679,1.0021242330110562,1.0031182225249355,1.0000707780029592,1.0100261930248944,1.0025786099705452,0.9999472365999204,0.9988041376245028,1.0095297206154799,0.992898387059161,0.9994679744454108,0.9991075206497204,0.9996825534334688,0.9961965290674617,0.9974595932114747,1.0007109006744297,1.0015569175921513,0.999267840384791,0.9980107376416939,0.9975426534491671
0.22751593772178044,-0.09718524197128194,-0.294053165616654,-0.1143588207833909,-0.173491626641887,-0.09567855935274373,0.14360583169809868,-0.5628716268862609,0.10212272667312323,0.30952580998748286,0.3580342340556601,0.145236704289235,-0.23865975107461038,0.0256802297508766,0.018515527152675734,-0.10809299360391393,-0.3202771775925736,0.09868699160472089,0.15237505343356003,-0.11542239598426454,0.5522313898614116,-0.2660222239326954,0.17220154306323243,-0.212098109674317,-0.0709382546888177,0.023483490444769217,-0.31612421714607664,0.021824914795061025,-0.3367868532265846,0.08744137454214168,0.05845943588996935,0.21176716866614206
-0.07791341482310561,0.056508733512004646,-0.21132568876681335,-0.01689062319809738,-0.04567216870497891,-0.0429684256040313,-0.07427489183787656,-0.2550969227430762,0.05181088390327557,-0.0628168674710287,-0.23086950711630155,0.04820608613595742,0.24565174920704508,-0.10139193375057201,-0.22239001585099172,0.1178857499757928,-0.01795088608122335,0.09298737988527343,-0.03382130040130913,0.2453297756770885,0.24471330876280034,-0.3053491835020522,-0.17495566760463244,-0.011893361923381007,0.2620110919861514,0.015367626752981462,0.24291449409995147,0.09203921017723878,0.08113558136866761,-0.307650093091419,0.04834809914041891,-0.04655691345411136
-0.08996001857701615,-0.1362923893542431,-0.22696970181204584,-0.017125176188499798,0.22420525138210892,-0.019991257686650343,-0.11780982422831289,-0.06328555120973593,-0.1789220747395103,-0.06799716974737079,0.09342463647356024,0.07242654806902507,0.09689101690935954,0.0049127105718435775,0.04202689777327642,-0.18203134220832518,0.27058724792991173,-0.1758510559130442,-0.02271201771697113,0.10268456807133063,-0.4239110644971925,0.1884275782588042,-0.04532498868064062,-0.13343331017887214,0.0322083176850046,0.064420198107482,0.04669587712886717,0.2579895765871175,-0.05707141802662329,-0.07427264554209756,-0.32829886024356725,0.09896970685455829
0.25899613949636885,0.12763292403143908,-0.21559024583553124,-0.16336251519093178,-0.20624205099443174,0.17801248919975024,0.25611866582166637,-0.04259141855197696,-0.0946602611869758,-0.06070784304031909,-0.24363283470958796,0.08419854389898104,-0.02639746782374977,0.34960859459657107,-0.0851096294052398,0.039349534733226665,0.24841785840898867,0.04198340873384346,-0.14187004879727969,0.22000549577279038,0.185313356282477,0.07637973668157017,-0.1185389776757333,-0.0367251576790078,-0.1782264952021279,-0.16978884018374743,0.08938444419742195,0.08696051887120967,0.21966862472211693,0.23248283347307983,0.0065460537246558115,-0.2860676745431962
0.17509889510660365,0.1183832318060903,-0.06799556024422972,0.05792076835172304,0.14274151068734062,0.1421453373570575,-0.028759962056404475,0.15675273992347147,-0.3767274485760728,-0.21206872257862178,0.12969475146523274,-0.03157190101281887,0.19192742779977892,0.048438256963693596,0.0001835019448490615,0.039886328660002864,-0.12507985688073137,0.13279497765672066,0.2210551328267636,0.12683087479208993,0.19694507310958154,-0.22346746026106684,0.0958677314352267,0.05065131201855191,0.28532919662820616,-0.1413692961377888,0.1714857317019389,-0.04474519425928918,0.08975876665020792,-0.012137660023230946,-0.029248601899797753,-0.03429563348707287
-0.02782597468954625,0.04041279903111981,-0.22487153024453993,-0.1354367944483082,-0.21743007556990185,0.05996939546962819,-0.003656327474777993,-0.0006000940846476463,-0.1883246629033958,-0.052636117267793964,0.06791377118818603,0.032993137919695985,0.1520977630071574,0.26910391872025397,0.0696040565933139,0.5149710175986459,0.011022376356680944,0.2747244412735817,-0.3719404164498765,-0.22547125755081945,0.07421695234265993,-0.1320639202159344,0.07701294490141028,-0.054563397982769116,-0.22533220126289466,0.20854192193438423,-0.023506661154800584,0.01473826717970667,-0.12735798078037705,0.04716035406386704,0.035506458664481634,-0.12287178413189435
-0.17950442449319937,0.010836768734804797,-0.170292474986255,-0.1709183195002077,0.0008797435747490812,0.018946832193931628,0.1481557950857552,0.07143363735363452,0.3249736929285936,-0.12604439304143053,-0.2091129319073085,-0.2595649246391722,-0.2671452559950724,-0.0780157428186451,-0.12323462391476421,-0.24496118359372954,0.12093755545625098,0.08323356987374461,-0.23654403759221285,-0.2650661715955116,0.17586601955806666,-0.1733252190658293,-0.07598331494999012,-0.22463966243945568,0.015733866288152074,-0.2726383400700186,0.10266740541049413,0.17689282282895852,-0.2677987308397756,0.17397090411895524,0.052693038745190934,0.024088032479333162
0.24235694766706042,-0.0854344689966561,-0.2215130629519503,0.04257498221034821,-0.1736318430094697,0.06574722226816508,0.023266390782893574,-0.137613912667065,0.12965667756722002,-0.0064954945599915185,-0.13541718287364216,0.08814309040957391,-0.19760550138282562,0.14466203146057743,0.017735648417889414,-0.01302130430745304,0.11742318042466732,0.3571984519243641,-0.2133200503011954,0.2929670664959766,0.08818851782179388,0.18935034712861576,0.04378242377366015,0.018448750343300815,-0.01884810022436674,-0.0893692143580135,0.18030210864468676,-0.25822418726801444,0.3988430237122554,0.05314967256189476,0.043049023496444364,0.028449315625149848
0.20514568490257462,-0.06606839780229817,0.2561882960787331,0.0537927098016716,0.00041425329089547313,-0.05167821733058303,0.32286699072571023,-0.2996043402933676,-0.14060306592968344,-0.050831235428951786,-0.1280951866428789,0.10902360626583323,-0.06739566868917536,-0.04245534639233208,-0.04913267157096228,-0.25753717116137664,-0.07679312540258072,-0.1310404098227831,0.23046124541885532,0.24377671377957527,0.2115639910794808,-0.19699630332059073,-0.078620128122258,-0.34240808803884626,-0.31420845128265634,-0.09059808571711904,-0.2462551750801844,-0.014115624454822461,0.09968196629938374,-0.0071073740946520445,-0.17264106145871377,-0.0007503564722120275
0.05967287052991084,-0.031699712693095766,-0.12876607631817072,-0.23149780267696712,0.0789871425402591,0.14369458709173263,-0.08764324308606374,-0.06143287746263951,-0.03684194717318486,-0.09499322986436888,0.0426925409168186,0.07915282974300013,-0.3565731910937279,-0.250201643044515,0.13998870033309496,-0.010319271589258173,-0.015244086737223137,-0.07295839069071072,0.14062962363052417,-0.052218226482910884,0.23083178415591246,0.06147185521299127,-0.22639972786349602,0.19557501410348543,-0.0552845603856851,0.08101796966257506,-0.269355836713266,-0.1528814284932507,0.28883827484687974,0.12029831562928092,-0.00829735856214555,0.28175405274505744
-0.10485496979939861,0.17170789559138433,-0.09308969825246124,-0.1493343702883314,-0.1248387075846414,0.09152199881189486,-0.1569640116894856,0.18644758353953403,-0.06570349417607758,0.006073532346325449,-0.17839730824395503,0.015739592110926688,-0.003481264376850788,-0.14811807689242532,0.19596306876342964,0.20208450171023198,0.20750319904763403,0.03996354271413306,-0.0959477402653001,0.20254011819636691,-0.12387913855536718,0.12374819533381445,-0.2877011544018426,0.05365303960412017,0.04908277471166699,-0.1548229424315635,0.10378914001141012,0.08721249513668225,-0.10459191256381357,0.1416516572001174,-0.40410685574422917,0.10154218958622209
-0.0778899655571931,0.03565061939828162,-0.0030797810849761418,0.44664057795553014,0.09072496044589429,0.13443956030881346,0.04386018337090083,0.23061143701469736,0.19913948336015008,-0.16809862621271351,-0.05187774850598456,-0.21279363363058248,0.5020060640266982,0.07048136723981424,0.026230520322410997,0.12826108812465947,0.36849151374299516,-0.07483261538073434,0.3641810832918916,0.15749573420110982,-0.21727860166383922,0.28710194955684176,0.03727316288464008,-0.06343723912478308,0.1392126017364894,0.083998599919464,0.10009642656433283,-0.38642626519109713,0.14391088122557982,0.13473132065666554,-0.11837908164571918,-0.10274587719694142
-0.020486960415384812,0.04714021805983129,-0.00610358754042897,-0.07315272409126428,0.047561851474643084,-0.04787540748082353,-0.2584228329708647,0.33301348508102363,0.18346313138116965,-0.03842196893288658,0.04526067059978816,-0.06452504012835392,-0.35193535048243624,0.2450146742926918,0.07658813345311197,0.31193010968618234,0.01117833083102343,0.13525134394128288,0.12038154850945774,0.09141349442253302,-0.06399820208780424,-0.038731387815547066,-0.04630770556637931,-0.09419710391191534,-0.015782292048005842,0.1637088964974244,0.46719963282075977,-0.13424179300159816,-0.1072459628100758,0.39033090152689165,-0.035740331945181496,-0.1331680089302926
0.028007432409719556,-0.18549402883022834,-0.1266951204014545,0.341653644903479,-0.27431437210267734,-0.04199468798187854,0.34361273669808945,0.2996025785149564,0.4524800570409497,0.2427130387614252,-0.03949822224392482,-0.028456084961202024,-0.0921293228179148,0.11573771824588729,-0.05624357106976473,-0.12760721306206868,-0.2075908734905771,0.3999071794287689,-0.21640939682728835,0.15100297785203207,-0.11602967288990444,0.1261926693336962,0.20626540796529005,-0.027168880624501006,0.11148190476288093,0.1605366761460919,-0.10018952818362871,0.3105667519864572,-0.05144495024735472,-0.12487058046955414,-0.02073244436520568,-0.15563232091202361
-0.03786692249856967,0.3946566262262403,0.2862714923382759,0.2642344436295752,-0.2553818443621687,0.11302507137101442,0.4201014705080434,0.12440443518897834,0.2799593144406098,0.07717318862293716,0.010512198906792206,-0.05877761439937829,0.0830347006196757,0.13518252057586233,0.268034157483502,-0.27635239603077594,-0.2899960418794098,-0.12416250807886042,0.052347014506030944,-0.3234367893512262,0.12904973101220718,0.31524276786628347,-0.1789471729557226,0.2737482720476562,0.09537043998731873,0.33751918191501523,0.14197615906169858,-0.2975986878634196,-0.0006485434075376322,0.01565748518083378,0.025428449403833476,0.30404071644209085
-0.04850657179991796,0.267144281727472,0.004024468952076145,-0.03062621459227349,0.20446047698500366,-0.16442931885838458,-0.11667314077772495,0.04728581320868999,0.23689207189574638,-0.06582829287866582,-0.056943756245380124,0.0829474555841183,-0.22473310416228523,0.10767626741275252,-0.2521696768185418,0.013539122801793703,-0.16021564682307385,0.32981976428413595,-0.13553505855970016,-0.07466299518894207,0.012710031322146485,-0.07464572857024154,0.1713357667472306,0.20362904437997953,-0.271336500291865,-0.017653161988172048,0.12316146159154626,-0.279270251213552,0.19975803505215511,0.001960176440484055,0.14739691619882764,0.3297243167334233
0.3075882371972451,-0.021392244327011128,0.09705544631609155,0.2846403993923375,-0.04224496320900731,0.5265603792568319,-0.005872732503650688,-0.10044139524293083,-0.21263390817007302,-0.135619164827431,-0.08792198308617452,-0.10529014719854445,0.02570248752592514,0.006006634790843146,0.08783992163005491,-0.05081684383854005,0.026470446019488336,-0.05037145134989345,-0.10543236705638741,-0.208850521576167,0.033874664504947964,0.08354302692584183,-0.16077717401971695,0.04971209787660116,-0.12874903628237147,-0.052710845573213566,-0.26149888381662045,0.08176389013552857,0.0705734092764772,-0.19815462075313803,-0.31131407463417493,0.11949744372328122
-0.26006686072007246,-0.07093035085967389,-0.04900237945139111,-0.06848150015390485,0.0693463925525755,0.03990693112117361,-0.03256686640624779,0.041152070977670235,-0.006560326252594379,0.1408145367399316,0.1853718052495307,0.018311160992802892,0.10472627878821975,0.3210748152619108,-0.24614353987813065,0.09605110797383706,-0.03690382129967383,0.27149020501145715,0.05027380930340137,-0.1929923025270615,-0.20533979976439795,0.013811903608323786,0.27839657234464216,0.03392835657676522,-0.06090267575118042,-0.11192513125216705,-0.16340996737827027,0.24123485120226187,-0.05503451200371211,0.18447795023807292,0.15147084968766722,-0.11184577221470676
0.3180571471796824,-0.21353902607828223,-0.3647494707584583,0.014083554402501312,0.1281065924641342,-0.1632754571045309,0.10388781844375533,0.015302639403288644,-0.06536725319111268,-0.0019694703205026106,-0.2106340504138653,0.0011293577444963887,0.1482286996040021,0.05168422888444122,0.08304712113412581,0.12544637546610213,0.085188130338343,0.009523474905968804,-0.020329559193377523,-0.03028542954292167,-0.20546552019458117,0.292319803116634,-0.14587751083829742,0.1743307517660227,-0.06227726338364755,-0.31013535379000534,0.14648609099161758,-0.3973920696430869,0.10782052513818327,-0.20517609041523216,0.19126282906569714,-0.4818188123746149
0.13784023415229543,0.016335282212278576,0.0030769118668883206,0.04600514920086445,-0.2465609048383295,0.04558539436502209,-0.03963262832714817,0.0609305453699575,0.24434979049468497,-0.1456695855675915,0.03692248241817035,-0.01999025760078397,-0.08808734498852644,-0.23566835189101715,-0.10295947394802535,0.16804922678577766,-0.03703675881105151,-0.23094959325093947,0.22947424331710864,0.2343477123312771,0.14705832709287348,0.10281526964702958,0.17037225138420342,0.267408281707056,0.08164825496062753,0.11443485523974177,-0.13781665820905867,0.0665026989017174,0.01144763659802599,0.15384892288596624,0.035663042205350326,-0.035317189926689904
0.21541243596527662,0.5101919136739924,-0.144438068912698,-0.12319377631517404,-0.12035164891423553,-0.2789064380106168,0.07899469176761059,-0.020611683704493903,0.028268973074014023,0.12109220609446546,0.04746970169604807,0.4609966655487606,0.12703163652057792,0.08694806567225717,0.015835201396941608,-0.22614957709513275,-0.04085329043023135,-0.1504491629218972,-0.19068865783113204,-0.09967191530277467,-0.1313459865181709,0.027318326662205572,-0.30447563096808816,-0.035905105312120995,0.0690050448882897,0.33356534894444,-0.16920266718043311,-0.2205298673307864,0.18933778084185296,0.007690159958553486,0.15499004421388296,0.07966722358134383
0.4872979832594872,0.028714676903556537,0.17459676434946375,-0.12138646408640744,0.01913675880659616,-0.1477397506813489,0.06912463057821043,0.12433058534240819,0.04074065051151183,-0.014342917511717915,-0.008114893225194968,-0.04499017938907969,0.317527465284575,0.1246161276430821,0.0168125870383863,-0.06369307817394003,-0.04122480942854539,0.14277933149532274,-0.19006190190220756,0.1277484957474336,0.05491608247941991,-0.16430550993618998,-0.1207699607332353,-0.14240160653930992,0.013724940397842542,-0.025764063084982875,0.20984948767662792,0.23826018036693578,-0.2221528913947194,0.23562563176446036,0.0653448142449844,-0.021204073025947536
-0.02494156977967114,-0.13659179576981692,0.03968366127794381,-0.13112313264026945,0.07309326662846737,-0.23445749697732596,-0.0410248592240585,-0.03983160491740206,0.10959998328948158,-0.18746906872487296,-0.10865367703966852,0.13862715084446964,-0.041002286468427254,0.07776358223374587,-0.15874630263144127,-0.06503867224920488,0.1894880562387475,0.1530358284458718,0.44260907337582,0.04879274650217402,-0.10493163761407327,-0.35521992280782266,-0.05120236152140436,0.07984006935374979,-0.13232030235058057,-0.2230546992123414,0.06259393985271856,0.23009896222821768,0.031303934516779215,-0.3053066389766773,-0.01609598012280243,0.06579467523636964
0.17006401276681507,0.029458548294748303,-0.15246364127952128,0.1042755714127906,0.2557211631176816,0.1733495166099456,0.1000185649367074,-0.15533588365608528,-0.050775602921091144,0.2387271044866223,-0.23511629463952852,0.016729292219125416,0.032511775751905544,-0.09052851495059491,-0.06603307836157313,-0.08444313327508302,0.06162719571514025,0.21831812820396318,0.2620363504769932,-0.07434803220339818,-0.36000167777886405,0.10113041367312378,-0.11007861925737311,-0.002635453799522003,-0.10956704079972696,-0.10149574287496205,-0.1302968839960324,-0.16295877122959881,-0.1246477755899217,0.1969337201375266,-0.13247222660469304,0.1668705896949682
0.09486002902243516,-0.13130763299602316,0.12868002210108972,0.046577254129577354,0.3235529780287988,0.12179588909351452,0.030726409212249995,-0.05942384486132769,-0.2538617095521726,0.030827790829394314,-0.14902763629640392,0.21856783814132125,0.0027385543206810484,0.16655965248446125,-0.21851135000434568,0.09317433808427947,-0.2540799698027719,0.04578687218629905,0.0655587103824474,-0.29176018023046574,0.07385086383678129,0.2392194567724434,0.534104058711662,-0.11070027356325776,0.22241499549836427,0.05698866686941901,-0.01468148545917921,-0.2938480542619676,-0.2961697321237364,-0.06469384692123409,0.10343139097053984,0.04356142083331922
-0.2586838471270717,-0.25301887231498965,-0.1466760415554799,0.21610135634555935,0.026204946794273907,0.051679459899129886,0.09474538028628261,-0.20750535965844583,-0.05302199245733223,-0.20867871032172655,-0.01931662779744763,-0.1074983182540472,0.032272154167849995,-0.03744562797652028,-0.21081862396052709,0.19015272009088874,0.01096689101669469,-0.11571048180453866,-0.07435348727958264,0.04908010421926252,0.1859180768482947,-0.18633152152824248,0.05868708832342002,-0.09081382904893993,-0.41545726933833454,0.04049036799898599,-0.09477516010369624,0.1363411662204633,-0.22815680324916401,-0.14466952166035726,-0.013252352217084786,0.002981966371131342
0.39593936093810844,-0.07417329569819446,0.1621450476182699,0.21948333139814835,-0.25680816209086793,-0.13624455379940625,0.03119727166520488,0.06011665182057595,0.0038342695380390113,0.3582548916695814,0.4038556778639336,0.021526308978407377,0.03463262625862595,-0.13641552575594254,0.08459984404455623,-0.26583713509944346,0.16704589368108982,0.3209624482454478,-0.045201894617891175,-0.11136588430603213,0.2641969136118504,0.0804472415232649,-0.04666103705300791,0.46490379357356154,0.10517133243015744,0.16115262169125638,-0.14459305589837307,-0.22575720902375332,-0.08330056776505353,-0.13084515258654855,0.021047530234092733,-0.30311223547063415
0.13418286213008965,0.11879764957411279,0.4456207062672566,0.002698050317051695,0.006157494312861676,-0.1064075621698725,-0.08931828630354836,0.11956772709133595,-0.022439518131249326,-0.09312510341994881,-0.008175995667622895,-0.23834390196538693,0.03879101725306919,-0.25500475728525585,-0.10126968201909947,-0.08624533087604117,0.018160771949279834,0.2828832176614503,-0.04737269567937922,0.01438656823531265,-0.09484715671829463,-0.1897482917699366,0.389187540330075,0.09713043271941307,-0.2361197657729097,0.08252360555242233,0.1868765955032619,0.18436674826922753,-0.06253390471963323,-0.003716217671395766,0.1080266906840363,-0.06686619498109407
-0.23195966929379908,0.08447002844679752,-0.32173998117360947,-0.17367746182471122,0.2978670428605923,0.16762944681479153,0.2167079634797681,-0.21504443061055856,0.19769031311450283,-0.007293451005849334,0.026289211533571492,-0.0494517721496302,-0.09806260722143051,-0.05697207847176367,0.22027664078119608,0.22410599029080094,0.44484301921689573,0.29899450393555504,-0.09555818276903119,0.07265879038904495,0.017783993532741956,0.14919335714632723,0.05778859870026526,-0.11654023915431495,-0.2563618740390802,-0.16928926233054017,-0.11641389759184224,-0.04339896939842019,0.32312594332976513,0.10246862961127182,-0.07383063573325124,-0.26479974587058436
-0.15624804601615738,0.12471030837819472,-0.10403507406732102,0.20407247168033577,0.11028011688596301,0.21900812763894625,0.20502892006320797,-0.01820040638531025,0.2570036178869731,0.3407927595384787,0.27976600856494516,0.05443708716455242,0.21614759982857365,-0.1645904953952805,-0.077797851267093,-0.29209918481686464,0.1855364254752557,-0.1736818549107209,0.02094268958225623,-0.010232283647035397,-0.017928493266196024,0.11741539292713941,0.03855472087704191,0.1521083556787043,-0.02153790337599349,-0.06564419281047089,-0.035981353740222835,0.12736402036092978,0.09921585811902035,0.03236807423439089,-0.12291330700303968,-0.046723915969113815
0.1434971580859758,-0.1443200799788851,0.17946169552471986,0.24044364319574613,0.07494215168022203,-0.08268036911295756,-0.12816408507359947,-0.1647018529349747,0.2540548726538265,0.224947164027731,-0.016486905141466314,-0.33709274893955754,0.06392437878614592,-0.17289241500946817,0.04640198833329355,-0.3060192958333085,0.18236409237730827,0.23286350609991774,-0.19646409384577737,-0.08581557332260066,0.15583632849660387,-0.1571307436453299,-0.05838027834004529,0.08779235600058544,0.019287354150143862,-0.10848844388911127,0.23030647825204445,0.02714312528998197,-0.01154926592545423,-0.10880619930150796,0.05052686217583186,-0.12717195492310765
-0.05606401292050308,0.11980632876885645,0.0712634347726256,0.2971218798198835,0.12999983337460327,0.10537092543934967,0.2388794899798387,-0.06716762152825274,0.07100653000249933,-0.47572780958183003,0.006081197018314945,-0.0970121528667857,-0.16603872414448442,-0.004168546897923336,-0.21836097935854135,-0.04466806544455604,0.05758267655680151,0.29574316351862273,-0.15891747474763215,0.11086789787763161,0.03022679293516756,-0.18596993538204606,0.355262443891932,-0.22347014444700275,-0.04101220679192458,-0.25496410774084793,0.13518983069771884,-0.03372469797338704,-0.06346913223018036,-0.12367425462332567,0.36535069542281273,-0.1442680915834805
-0.054435059558682615,-0.01372197266814421,-0.007966882127869297,0.2748597750746607,-0.2104987190611567,-0.001258603955059889,-0.10037611587013293,-0.09444968877612979,0.16483021300291092,0.2579488647929034,0.10961136455200664,-0.07257163335771809,0.3056785287148063,-0.2599057123436023,-0.1448423344022805,0.08920187403916667,-0.32391103638797175,-0.05980675356581036,0.07339825544378169,-0.15415644381437393,0.5366458006589663,-0.1020608623753032,-0.07231560093886848,-0.04416236023627386,-0.056006158955685836,-0.08856414212085606,-0.02392329202179346,0.05603105813194001,-0.3010416891712712,0.0675357976086075,0.08240615331398332,0.11580311865722515
-0.04308278872201353,0.051683766071885684,-0.2626100011875942,0.2529936765553322,0.09166509686284383,0.1337759200244989,0.16479592297409207,0.18779319426744093,-0.1088986889605037,0.11821108844266331,0.04625438277296103,-0.22305333761884558,-0.032743445166176846,-0.1895948644314544,-0.15693235681197884,-0.16929903821866488,-0.17199474993236638,0.030332689013283048,-0.15277404527505067,-0.04772141680483675,0.22566199583743837,0.015506464792240902,0.2024363812474015,0.24605500525471077,-0.2487605176991091,0.06740617446134109,0.05130637431825791,-0.17433542536153535,-0.16993173970038206,-0.28565163411454164,-0.15748981070730952,0.2384463823856022
-0.17971279938786705,-0.12269727894771627,-0.04761507260466425,0.07748595729125808,-0.24321236476780386,-0.1400278083904895,-0.24630808327814313,-0.14327812814797763,-0.07270222276262535,0.21981161759020793,0.03764707930518656,0.1439020960960326,0.1651970092349635,0.2014799535490864,0.10466384420807474,-0.10823145918644458,-0.09736532238449767,0.07844071535591161,-0.010697323021469989,0.014041195169840984,0.2126902072464722,0.10338431416427721,-0.1982245200149693,0.06266698065026904,-0.11132723522697989,-0.1881125980473757,0.02617857233317953,-0.035630487615926944,-0.17675764329658214,0.022880951621553916,0.0688678072443759,0.14879204149695321
-0.016466085385596532,-0.2190310081291318,-0.0014549688111332353,-0.07802565390599138,0.12107953321848816,-0.060921219594204074,0.07189744072368749,-0.3451857257846435,-0.11164233444913042,-0.33147734497624964,0.4034970559204449,-0.04773750861697116,-0.1627931623192407,0.09503425375809081,0.17282279016624186,0.04345753578019711,0.2878089449110921,0.04581951683779185,-0.031539713312406285,-0.1351514387591304,-0.14114014938292244,-0.0022648919549926,-0.009668738822960798,0.07245555200916183,-0.059119574878361135,0.025790332136082474,-0.34974590928398214,-0.07200422932950276,0.29487505780440043,0.0623808022933453,-0.2738812687148853,-0.10708373726799897
-0.0005355719956519481,0.049472614074093556,0.04816412014732961,0.004482841007988396,0.07608895945499092,0.22098347528903328,0.21792797627992525,-0.11174677361989287,0.16397011860175642,-0.17592277346948804,-0.08864487187765774,-0.05976181718578642,-0.00011589975653727106,0.145166993494964,-0.08095721103907674,-0.31374992057476997,0.022255668625233916,0.07987794671240879,-0.06298432654342362,-0.3562071236667103,0.06357113270884672,0.007601539904917847,-0.2900885060233574,0.1512870895154783,-0.15648647014211134,0.14932729309528278,-0.047377167581517915,0.01670162991934373,-0.02808023584600293,-0.24139020178989923,0.06145304898985751,-0.019992686613288735
-0.09534731966436406,-0.22876892839750537,0.09752992973831691,0.11781681459298583,0.2578984018733507,0.3558682081852399,-0.12022689151398784,0.23486780962567233,-0.15303465291115415,-0.2441448204514811,-0.1126108479944183,-0.13949316795543262,-0.06217235783521519,-0.1962025661007762,-0.13622376497702876,0.11202061087783956,-0.29035129813972227,0.20320852243533497,-0.01861266049686743,0.05569498955917122,0.24312400216556138,-0.19027355879776664,0.01139433416431579,0.183721846987985,0.28648444259883543,-0.025727884085950677,-0.03730298261939276,-0.062313715225616954,-0.07477986376043104,-0.23546707136164233,-0.0976344979910072,0.036205176628423215
0.09841150022874763,0.06577058996269919,-0.42468191426269924,-0.11295652315514602,0.152198531026916,-0.07161061365971667,0.2851272287005182,0.2150831332108201,-0.15568751639211142,-0.2017041596686739,0.30716897974916546,-0.29505572159377785,-0.14518833971374856,0.06542893861601341,0.09086242095649295,0.18365428493812577,0.24138805569136448,0.1495249345204085,0.12963564716889334,-0.015607918723750435,-0.14475594236777037,0.2432284882826709,-0.20312040530451372,0.3046793287347513,0.021804531563748744,-0.24896566183659646,-0.17121004985577912,0.09793767150010022,0.024967853035068304,-0.006568544610513162,0.07043468026797214,-0.35168347757466195
0.1825268924474497,0.15920006363273081,-0.1539581048086412,0.0005962937976587823,0.16691044324850368,0.10971520911711595,0.480825102208426,0.13756167325896854,-0.1481395352761067,-0.01799254146131377,-0.29840020048473603,-0.1204791484995516,0.23754850609875555,-0.19807227092848786,0.18591421330854235,0.2552173778838257,-0.2555901372173111,-0.035426611721637614,-0.33752513868719275,-0.14352599170739053,0.24897107767754761,-0.0769910732191556,0.06862707546982769,-0.46730588063155176,-0.01324722831479037,-0.050820200054175445,0.11565380362676225,-0.0583665807487407,0.04810423253071505,-0.020379569264760398,-0.3835595858654026,0.01119009400533964
0.031815415905965476,-0.22637973006587406,0.2346710338306755,0.08200862543582674,0.09149000676207146,0.327779011619981,0.21423200933085118,-0.08238238038851618,-0.009796610274742431,0.39400160205609064,-0.017463034799923543,-0.1842560129824064,-0.19049322005030217,-0.19379764900604318,-0.06161206580415695,0.2314711207909532,0.00703430338990771,-0.09411385969785889,-0.08141043017153514,0.0686317477602873,-0.16757870907532874,0.12271403281687955,-0.03578833657778159,-0.12673608877134293,0.09505683787262713,-0.15801401314725635,-0.01502139404559794,0.18774120952347756,0.2780045848698031,-0.03810557339074074,-0.1387555391733471,0.07332166072647579
-0.007225605488695571,0.010213067204456482,-0.23866780471921306,-0.10486782940058025,0.4412370654794421,-0.09026207124365476,-0.11186131891409976,-0.038425787310940124,-0.10527111085285132,0.18622234426349207,-0.06825846694617768,0.12358824913635645,-0.05726959566155021,-0.17466895879265956,0.03857249977388585,-0.06645098938933443,0.048548278098762186,-0.07519119079091169,-0.04500084294069635,-0.025041185116230106,0.06833083965436239,0.2675098059679704,0.16576837815644607,-0.1850844007185299,-0.3412466921798306,-0.01829293108561731,0.12405982742383584,-0.23975962011067284,-0.18437840604939193,0.11026114378934779,0.10150707941179886,0.09416466503356598
-0.06524231848424247,-0.00999822855103207,0.16832638591594848,-0.0980848150988167,0.06798669389089317,-0.251767588463274,-0.12398854201287608,-0.186131053810678,0.18718096947435503,0.24895124925071493,0.06486244103025492,-0.1679507405943891,-0.12663351259151198,0.058100985373126385,-0.004024161242463536,0.39634372559959563,0.056245582802222326,0.05353246393728217,0.10462802668718649,-0.31935704112659413,0.06448391273754196,0.05664592846321785,0.09596031903670697,-0.6759347714040431,-0.2341887399521569,0.06859696263224734,-0.04822803013647149,-0.3934107248528802,-0.12001172501312606,0.11688631109758137,0.053472735400065405,-0.06573550345025643
-0.024762176455098605,-0.22321575354954903,-0.24371277108150086,-0.11249427071839746,0.10644762277620094,-0.001790647898352216,-0.26341773474931696,0.19134422475723892,-0.10152832851364421,0.2655895343101149,0.18152182566838623,0.014323127477191234,0.070574085790205,-0.1666602992257442,0.05887865327211429,-0.1751729290651717,-0.03472725091988327,0.049584787656638325,-0.13756677795948818,-0.04711527981509036,0.04117984237757103,0.13535229647545302,0.03847690437385165,0.0690366488902228,0.011829241467868125,0.08265029025095061,0.24104274405178228,-0.00665496795154278,-0.11387263165234254,0.06338893171381643,-0.11513075028199206,0.09788090823284923
0.11880062943172741,0.15524493029956105,0.026192875186160144,-0.13787257312213785,-0.4548939680065246,0.03892018760297127,-0.01715210717329126,0.1256798603300443,-0.055977043013370774,-0.3334170672641873,0.04515653296733004,0.16604649755887568,0.3038601948749539,-0.1857569595843285,0.21247419798353956,0.23871493878729264,0.25350195989642565,0.07079207236959713,-0.17221837447379823,0.14979122025002545,-0.1045709307539897,-0.2193683301549923,0.07596122191058592,0.27619977793968775,0.04149489742275414,-0.12523651966575722,0.018797963762998714,-0.026214925071533658,0.057824854382694406,-0.04628005257733798,-0.20592000047063577,-0.24023107829080223
-0.17198588342735738,-0.008000831798587939,0.23721394680937344,-0.023304041331377937,0.1519028101351589,0.0806188519890486,-0.06492036175515734,0.1254984906589218,0.17288051664124895,0.3780677415686612,-0.11004572532671003,-0.052671479315684784,-0.06077522490418893,-0.3494612243106302,0.39144021718282174,0.10945603095469993,0.3654292526616962,0.03684449475034138,0.07329419577319861,0.23679238195884586,-0.27127165627402644,0.034611313202427864,-0.3454802749964001,-0.0023280011284265703,0.09541923187221447,-0.16338885180347135,-0.04549187108497088,-0.034773858053379,0.23087419841953397,0.2599161516455215,-0.20008803571007977,0.08199046050025827
0.21541510036747852,-0.0004099465552292063,0.11684719452687164,-0.14218655235084937,-0.15242426951819796,-0.29751261461750605,0.13260695344808668,-0.1072927741519858,0.2636161380055567,0.21261071015819963,-0.01718380508793313,0.2928750461634818,0.26160233786091197,0.0034564693091334304,0.049602008581054964,0.17272917089581638,-0.06413703969652267,-0.03706309997695518,0.1747279936894738,0.2638911428908374,0.15334907283125435,-0.08216534667972503,0.08873556501950332,-0.13383453589568164,0.28135770678348115,-0.08435168899677038,0.2527727268646346,0.0954604446345677,-0.0704747330450065,-0.17815165904987532,0.026766489350421533,0.22803673571898558
0.1374877617790769,0.014933173831249046,0.12398250113092378,0.02725526213407109,0.28597721512701973,0.06977334100496235,0.04462351760435131,-0.015797774496351568,0.29161148041903456,-0.1228260886705097,-0.03961989095332812,-0.2897770512700962,-0.2806711242015981,-0.2726036900091697,-0.05506812916088853,-0.13769261772773603,0.11918496010770101,0.06264266499504334,-0.222822589338297,0.1394965927083636,0.06001271378914469,0.11354607322478348,-0.07093284251981785,0.33826848467751486,0.579301375986723,0.06462439631876532,-0.007709405451447067,-0.12539633928350155,-0.09388363940196391,0.1912070962343775,-0.10354393448987642,-0.03603973362972881
0.23536982158751915,0.05735826496171608,0.051277529650441925,-0.061373342939806265,0.20993772156029492,0.10907623186634723,-0.40325289086181654,0.18271769806042326,-0.19334347828063217,0.18566478889467627,0.29371498684895725,-0.02562355370595299,0.012696803319812832,-0.33130961585093716,-0.15260914704880468,0.22463538285752596,0.23007055165504087,0.0004472414018455252,-0.09728088503825151,-0.12916880925972443,0.11668589713781861,0.05660787789927707,0.23215004110480744,-0.27167391145125375,-0.3825261443138958,-0.03356535500265409,-0.19978103256733623,-0.135954335750192,0.14805231553174933,-0.32526030462943384,0.05363473782938604,-0.1619829627348365
0.3925910479778295,-0.07312616640982497,0.05552697522572744,-0.1351138237298369,-0.030402452096377403,0.05668706987915324,0.0723978454477423,0.2229025741245752,-0.06548137284714248,-0.015106828345332583,0.0878693924070245,-0.06708756188666821,-0.24624762980278106,0.19828855787696384,-0.24753714611690278,-0.2202796032371592,-0.006987807015228605,-0.10649979131962183,-0.2150274363473685,-0.16435097465225,0.07009676359653372,0.057563747132961064,0.2533115672524132,-0.26446741306479615,0.3808096976001193,-0.04585183406360857,-0.24547259728563428,-0.05650639121417882,-0.0029720266869738823,-0.08453059776159591,-0.06702772331269477,-0.18603380050314397
-0.05092135817661726,0.31056384438273743,0.2083242277211868,0.02157503921292859,0.14403810697219369,-0.2295128053438502,-0.27812136372357066,0.030102535542850497,0.18088664609767194,0.12711726935737255,-0.03276165911502776,-0.19805916857804431,-0.3209961281790986,-0.17854425079034655,0.06782391795645354,-0.04226161820603194,-0.28352286763719714,0.39073716311052403,-0.14027671686602633,-0.2189814149730713,0.06929616441059878,0.04710446959088425,-0.00310332494312079,0.005972273488006745,0.09848502699808821,-0.510249903388829,-0.1332815457181031,-0.06449033411717595,-0.09489697621012795,0.15796100122645146,0.13182311852516723,-0.042574171493992084
-0.13835103840230964,0.3508156104680627,-0.10791134347730881,-0.23167892837378976,0.2562273132419494,-0.08078697566003756,-0.14072970051456285,-0.12941499796168637,0.05533981744302843,-0.00595231503325996,0.06988151318845895,0.10838921507594754,-0.23758311999322324,-0.08374825187663382,-0.09760643766119866,0.3611535613636854,0.007624430275789083,0.18555117716538375,-0.2539609361501193,0.22466588656483105,0.2815774711448851,0.02550869345683317,0.31174014810275585,0.045097408248635035,0.06026912927811093,0.06064665822605016,-0.1823141871133587,-0.16652456917538858,0.26231316286929357,-0.2214980732320403,0.19593956116440825,0.25831948513938535
-0.22278250905277205,0.30373201270670197,-0.002096671016065243,-0.011772783886492779,-0.1644177825698308,-0.2537637503685228,0.13493208775746385,-0.1830095796585439,-0.21759171782045597,0.11497347829419967,0.0719170587468043,0.28130858912254786,-0.30035750807450035,-0.22009811946798444,-0.0379141726824151,0.03774471132630066,-0.12933928349823284,0.06812676006106713,0.026318983605212027,0.13871253045884546,0.011465021956602433,-0.10985811267708347,0.005873383517238927,0.013054683629233666,-0.028813413463305303,-0.15611057068365838,-0.01173744738723757,0.044187120929545506,0.06708460538510178,-0.38541194018677627,0.12015731981030532,0.06983884379506158
-0.17498694445858745,0.1259556173742256,0.1327253147505601,0.03924906579511633,-0.019516720587884052,0.16424429001883015,0.05020438592204924,-0.11002428210660893,-0.045731268158721604,0.1585790071200323,0.17241116449765248,0.006464964410041435,-0.07089090852317632,0.11531143450608418,-0.10750389090105524,-0.26040104749570253,0.07063438171931644,-0.2899677530684067,-0.111206400504834,0.08085939142232337,-0.07351039970242741,-0.29166120686990643,-0.14049684933250509,-0.2743521039997861,-0.14225012406026416,-0.038319900746885,-0.27667924980771,-0.15522529318156036,-0.011043773698787444,0.37248948476579624,0.06563340674006915,-0.23219087143523987
0.23618239779781278,0.23659140740917417,0.23894345956195187,0.3214688536086412,-0.18180114937593006,0.31822828368562217,0.12088006500021385,0.19691279048333207,0.01822716356813731,0.015411750989141984,0.007359863902698138,0.045939001770713445,0.11094130041458825,0.01111761056899273,0.10725151278618307,-0.02572366342083389,0.29036898442158227,0.09808143293118902,0.08351664522523955,0.03138152593693594,-0.16466689270323845,0.14837934687649,-0.03322353119896927,0.04772972297623236,0.14976933020796576,0.13654333865378512,0.16503752599301214,-0.13262985351894876,0.17873077474099483,0.12377067829927739,0.02384954835319073,0.0627517994206257
-0.35374821330571443,0.24713590275654757,0.021605370058765935,0.05742766727991198,-0.2321766207652049,0.02221754533784335,0.13488018479254277,-0.12795727278296484,-0.08738902965550607,0.13373975318932327,0.013499992505319464,0.12512803525311844,-0.22929453095885116,0.010775982234712624,0.07433900536260285,0.1555852600442491,0.2614623283696043,-0.24524523260090492,-0.19678644156400052,-0.09175282104574221,0.2549168468512268,0.016599681200589588,-0.23747000201359253,0.0826431377162786,-0.16116882705064906,0.026218169945835368,-0.0010888101781250643,0.03410820560667062,-0.32237261197559713,0.15590078598359597,0.056088379086585545,0.26534201429937965
-0.007943352987172903,0.0917984076846077,-0.33490054692019444,-0.017634801480979522,-0.1872820701579871,0.17860427204037774,-0.08131511194636391,0.18065730035802574,-0.07190888206754566,-0.0806095059442704,0.07387671882080311,0.12820544849477095,-0.01332081070371774,0.1225867826055173,-0.04952303605703783,0.0018953367197554305,0.10606980796672424,0.16172627252182742,0.11341384506999923,-0.19687305896460305,0.02447813593872566,0.16811594536808416,-0.16250017382531726,-0.29304662344490495,-0.16942759935920235,0.042621938539205824,-0.1657934871250223,-0.08775346120448835,-0.10667915890917884,-0.13375384148277425,0.08924045174222511,-0.08173390394423448
-0.07688183883424905,0.12938860291620508,-0.12843539616935332,0.019792160162948453,0.24320252720712326,0.0018905080935361766,-0.06748707963913785,0.05638678074764901,0.23051189644349462,-0.07794353659056213,-0.05248014490675387,-0.09368472972029937,-0.14682164817965,-0.2042727999358995,0.35037078257489457,0.230697335918531,0.06206739516892857,0.07664707227105977,0.1098856045967198,0.11520021818594164,0.4308610570572759,-0.012226398150523277,-0.1665975855375744,-0.0374736744744443,-0.01661584055124272,0.12693745153365404,0.021660550776805784,0.15419380340275393,-0.10878140460732602,-0.2173614258696948,-0.01274999277707919,-0.060530859066079704
0.13667991842948662,-0.17761449833655538,-0.029795116982364516,0.16474024812514887,-0.20224874226970796,-0.027730252394093918,0.14807664401229245,0.03298496251171916,0.06676755228254729,-0.0183347438289011,-0.10653377230918983,-0.38111118858621745,0.16739488037165715,-0.26469866392521624,0.041645212944673944,-0.17918035675259175,-0.1653136374823385,0.04285876558372659,0.14608961053636377,-0.18219083540689793,-0.07651689789429778,-0.022683740692652235,0.14844556674972767,-0.21171269204115675,-0.10570073629127118,-0.06380795907672752,0.25568142052136084,-0.11588185462324362,0.034936852879367986,0.09517657412775,0.024773692289365566,0.09883809607062237
-0.21999142776264427,0.14496226508943555,0.19378089019248063,-0.045137778073760626,-0.04537371456206198,-0.18931476168641653,0.23007119521597014,0.11495795251651673,0.25181292880340544,0.23744000189976408,0.2672443728932245,-0.18806407577966935,-0.16838498554107137,-0.02982310611205783,-0.2566998551282637,-0.3611366424060023,-0.12030370490031082,0.08629103898190568,0.2550589379747802,-0.0010499036472750654,0.14625918213630273,-0.05873179880751973,0.061639295955579106,0.17228761588949465,-0.05788267802086708,0.12301042970718541,0.22679863551097965,-0.09207140933308557,-0.19234496171880114,-0.044149993724521025,-0.04683147810892452,-0.10635466787209986
0.14139593664051864,0.2487187565685851,-0.09638652868159919,-0.11114799928560443,0.17175671246041713,0.2645134441370489,0.3192297472669175,-0.41059851916792456,-0.030725530188944677,-0.16351790097623076,-0.21975249064366983,0.11091107122715414,0.08611498388589413,0.14569702719027644,0.015592221320556786,-0.2541026794606626,-0.03440670473696195,0.21495814367545293,-0.27526942274642424,0.08843620012670311,-0.2747159488484211,0.11008840784854541,-0.36264266164570536,-0.10542919383672916,0.09616538006648631,0.11896680937770462,-0.13864369321658554,0.0970784616517974,-0.05604557283476577,-0.1045434822149036,-0.2084025874475971,0.1757578998950322
0.17739296289639472,-0.04779727574340861,-0.02902197254548486,-0.13051952246641868,-0.052843883983518296,-0.08651981176247814,-0.12236135660764148,-0.018088024687332418,-0.11062843666960509,0.1598584883954908,0.07088012416480804,-0.07667258025622921,-0.20682782493798485,0.1881979609942154,-0.1361069095165792,-0.0612270758823778,-0.11984741928211799,-0.06338590744508421,0.0372642618355798,-0.08448595805443009,0.009259313288229414,0.07883013656316258,0.07132435904157981,0.0821813084942736,-0.0785461909310467,0.09488225233295115,0.4138456185838044,0.20833359237228213,-0.10425558757863163,-0.056641215404317644,-0.10066009226570109,-0.03168392760098168
0.2542835315959325,-0.09396246555354038,-0.010406331419622156,0.02273417861551514,-0.05463307572021125,-0.09978040436488446,0.2623877432224074,-0.21902482547937083,-0.013505050399192052,-0.4199646722841147,0.02406714745649216,0.1281484936024598,-0.24832739278005966,-0.2394692516660063,0.22994180765327601,-0.2822448475635806,-0.1600134950301105,-0.025853553247531996,-0.19161697689537366,-0.14715478520786127,0.08213059481551058,0.09535597825212343,-0.059331847777728014,-0.018422039624302673,-0.1326347021832553,-0.09753189421909501,0.08929467789649026,0.37324737288594767,0.16687378944353443,0.019711819133314375,-0.041469374489737094,-0.26458415773823657
0.12041772977937742,0.010993887072978005,0.2169100822371592,-0.031134708897879834,0.025640380245336245,0.22859028893629904,-0.06977906296019593,0.007919922102331054,-0.08684034646197603,-0.054627466324591985,0.00010842480148975716,-0.1215452898579722,-0.019463343459810305,-0.13119467332470133,-0.1203775814702968,-0.137095408393339,0.1750807683515422,0.02865036748094371,-0.1244048066606012,0.20777182734801755,0.12484815228155709,0.16545809284524124,0.11764090473599036,-0.07263049208568063,0.0015847912627263744,-0.06434652234034137,0.1598223030113811,0.2139517505589237,-0.005889784681588859,-0.05220681677280809,0.12562548345100777,0.018241237531529716

hidden2_to_output:
1.0212576828610855
0.008634206960903817
-0.014650522854906513
0.1484348507170439
-0.4384673349447422
0.04409652703532021
-0.3537473070043491
0.2297476063407644
-0.1726007778832744
0.25293506569242596
-0.13029283620844387
0.28988163338133294
0.17347040677878248
-0.3525188965310196
0.17861427539660008
0.19768960408331743
0.03263980583904135
0.5019383309302339
0.18691388105400103
-0.031312086349283244
-0.08431929538667993
0.4974576660127748
-0.3121191986886788
-0.02789442054615042
-0.03797350786570438
-0.030895750652763496
-0.22104547241879047
-0.08942287315488817
0.3083732547163258
0.1034383884840041
-0.049166205886940005
-0.19602644247263462
-0.2523538266783898

