input_to_hidden1:
0.05759638789174082,0.05759638981405259,0.0575963889739598,0.05759638984387677,0.057596390853930035,0.057596389310457186,0.05759639063421881,0.057596390181797796,0.05759638818702564,0.057596390632455106,0.05759638743132361,0.05759639291431948,0.05759638901931741,0.05759639178193825,0.05759639138631999,0.0575963921667748,0.05759639085928818,0.05759639043748461,0.057596390609360754,0.05759638975964872,0.05759638795885332,0.05759638970001181,0.0575963917759611,0.05759638989304118,0.057596392570142596,0.05759639086732974,0.05759639168660266,0.0575963925025519,0.05759638910421286,0.057596389196882286,0.057596389715119156,0.05759639113315554,0.0575963877639307,0.057596390878896696,0.05759639010247473,0.05759638965512452,0.057596390517601154,0.05759639030218824,0.05759639001446701,0.05759639030410592,0.05759638839583973,0.05759638900849574,0.05759638987289683,0.057596389200711966,0.05759638874591011,0.05759639094354889,0.0575963889917019,0.05759639016538354,0.057596389192167245,0.057596388228448606,0.057596390553676734,0.057596390892403364,0.057596392170035704,0.057596389785832286,0.057596389773030755,0.057596388634490944,0.05759638758977242,0.0575963898718943,0.05759639121048649,0.05759639046552615,0.05759639160572665,0.05759638932372479,0.05759638915313784,0.05759638791640171
0.00031290418638471503,-0.00010223983053728003,-9.819657111561023e-05,2.9780448022708667e-05,-0.0004550948119773311,-2.4561811687666008e-05,-0.0002017842934891135,-0.00013318552900478642,-1.677622004613367e-05,2.296773610572739e-05,0.0005533900048012078,0.0003347867535325927,4.173401304900119e-05,0.00029939680107894385,0.0005216388698782268,7.03226165158629e-05,-0.0003377385483103693,-0.00022299847971211622,-5.5173356660179745e-05,-0.00011113246059607314,-6.909113974020463e-05,-0.00025009268664977474,0.00022506415508156792,-0.00025243430445631476,9.880838046729221e-06,0.00032703107564474224,-0.00013748572426346112,9.019257759478963e-05,0.0001035289853866332,0.00011264065804742988,-0.0001774679782102696,0.0001615312303536884,-0.0002773584221064419,-0.0004516071597515598,0.0002830043041177611,0.00014147069566120804,-1.4622324433653355e-06,2.5474238205531086e-05,-3.085119433489998e-05,0.0004679576229034014,-0.00017774581715525526,-0.00013532275931067662,0.00018277286431946433,0.0001555520987781381,4.634326308243443e-05,-0.0001693304736863054,-0.00015942420016978894,0.00046572779039353196,0.00018316586879614215,-5.354224301619901e-05,-0.00015555964852512753,-0.00021951557867924706,0.0002874508317434474,-7.724854909057252e-05,-0.00047506110750013215,5.46669118282653e-05,-0.00010666072300222861,6.11000364013669e-05,0.00015611025546902077,4.980241215755061e-06,-0.00015138378559084614,0.00011401301019538163,-0.00010579481443611996,-2.772157788346095e-05
-4.720846867850561e-05,-0.0002637588228197871,9.134485592580052e-05,0.00019152788622182453,0.0003904634466699309,-0.000498962877983135,0.00013860005882726563,-2.2577285642394467e-05,1.4916154313233743e-05,-3.659351953803368e-05,0.00013282800026120115,-3.076664979000021e-05,0.0003218460271455606,8.540876429911197e-05,-0.0006064890874534443,0.0004231411728974493,-0.00011293227378290051,0.00016529678664585175,-0.00020094573571189777,-2.03105880182482e-05,0.0002285664888283726,0.00013931240329593918,0.00015318660608874344,0.00029001555618720764,-0.00025171379119406814,0.0001833326099464669,0.00011246777980712365,-0.00034994492522449146,0.00014513829227090562,0.0003174588384889801,0.00010988832117689899,-0.0002482407269332284,-0.00017279761169370324,-0.00026853320126429267,-0.0003098678311121927,3.9180422086418315e-05,-0.00046291121524066154,1.3083771134920947e-06,2.752220261654859e-05,7.75430172443467e-05,-3.395851809847756e-05,-1.095088987783788e-05,-0.00015701212126873024,-3.429932014034935e-05,-4.137422177720344e-05,0.00045764608629541756,0.00021347629076610955,-0.0003548066014871616,-5.896207412537408e-05,-6.168742245031599e-05,0.00030604070414436645,0.00023657138551736294,-0.00016467930016727717,0.0003032089733661097,-5.3256166844323425e-05,0.00026596406450818573,-0.000210410063792263,8.926922880926643e-06,7.978957889357745e-05,0.00036397725325675864,3.450086911329638e-05,0.00023593868392488316,0.0003696943925668711,-8.170081714224388e-06
-6.983770903891325e-05,-4.3782356793390394e-05,-0.00023867464634582725,-0.00014195907667782068,0.00016521146800569262,-6.985169198852108e-05,-0.0001000670886312827,8.352783405763283e-05,4.822206200714887e-05,0.00010394860923034076,0.00021622610863319491,6.052008063911219e-05,-0.0002535655727217096,-5.259528621439507e-05,-0.00012247996607846009,-7.543306020800821e-05,-0.00018551510442382967,0.00026705523271382855,-8.322825508893845e-05,-0.000585958036779618,-6.604014283416001e-05,-0.0001644550154766418,-0.0005414147624660011,0.0002335173160000884,-6.843626267121787e-05,-0.00010347659748938202,0.00017899868244399773,-0.00033199801344403827,-1.6784620856085094e-06,-7.303282446129276e-05,8.372705255909494e-05,-0.00017301994193598272,-0.000160865858990628,-0.00020486185307476166,-0.00011364592570427608,-0.00011479185832031938,-0.00032216827017343035,-5.386435972896701e-05,-0.00033723642008266487,0.0001427405512448271,3.601770578834331e-06,0.00031324846551266587,-9.358934559721755e-05,-8.727256568043967e-05,9.433808592327257e-05,-8.068702780062158e-05,0.00022722303681105773,0.0004759242545835721,0.0003992815334525432,-0.0003333568571756033,-0.00030075963812126915,-0.00016166980408202018,-3.709824183646511e-05,9.854483316044506e-05,0.00023541542126892995,-9.006081501286463e-06,-2.104997318563635e-05,-0.00034142018155859975,-8.328118161697011e-05,-0.00018878571477593006,-0.00021003040211571024,-0.0003808237079890861,-0.00017213186482170368,0.0003017959188941165
0.0002525602224366106,0.0002240801572928238,0.000171966574871476,-8.033650855044801e-05,-7.219722115870637e-06,0.0001859387391443263,0.00043844667283610475,-0.0003446286096873774,0.00024800211043825315,-0.0001705034886300941,-0.0001428574385839947,0.00014317671693898535,8.175891295246476e-05,-0.00038889483530306194,3.807473894961918e-06,0.0002643635186450661,-0.00012989297858494043,-0.0003887535590378607,-0.00028743052542200195,0.00044479316926624,0.00026758591930650926,0.0001358881708851621,0.00017820316104240686,1.6105185539818226e-05,-9.835183761138656e-05,3.394223966671614e-05,-1.2485602157572177e-05,-0.00024814225695392794,-0.00019335963445109262,0.0001962446309667898,-0.00010076736365147295,-7.856205184341156e-05,-0.00026454808636374225,-0.00021262865522579587,-8.762877079727392e-05,-0.000110447884748343,0.00012472641984848294,6.787694355275836e-05,0.00011585415448542198,-0.00025015135376137815,-5.1703648847322845e-05,0.0003811847568727336,-0.00033840931535994776,-5.544978266781935e-05,-0.00014775245691108608,1.7788190006044934e-06,-6.306347569466523e-05,8.961213787206032e-05,0.00014306170144781405,-0.0002607510974034406,-1.7963604649303029e-06,-0.00016847811529570425,-0.00048425572194024706,0.00050715474497935,1.0582958056610161e-05,4.647815292055397e-05,-0.00010964828359036863,-6.705582644955941e-05,-0.00010402614360503091,-0.00023459103258797754,6.8784690659365e-05,-7.605291650313694e-05,-0.0002821496222322182,0.000342465209510176
0.0001312090551197324,-0.00024045941455142346,0.0002688069141053296,7.955994406163231e-05,-0.00019370308725141707,-0.00038370883261459903,-3.541622491384783e-05,0.00020673538706970527,-0.00019499804822468937,0.00016392496324765153,-1.798848819156964e-05,-0.000138382046926791,5.149305809953584e-05,0.00012402574495491464,0.00020512742457460758,0.00019378328168003918,-5.903383195466346e-05,0.0002793322669056782,-0.00018433455552315257,-0.00041429260997887435,-1.8378076292264484e-05,-0.0001652255199055653,0.000364407220116856,-5.783905862272033e-05,0.0001349125103367121,0.00034523597220773803,-0.00026700923399468834,0.00010074285896669429,-1.2159799668628031e-05,-7.306696324296926e-05,0.00015788637147583494,0.0002201782537599894,0.00022844764546255697,-5.90228641997944e-05,0.000416948129311164,-9.94329956603319e-06,0.0004993430525806681,-0.00010223594917652985,-0.0003759455534943525,-0.0005902433349708735,-1.122651942470316e-05,-5.2683383729003844e-05,0.00014896198595510673,7.887456479435446e-05,-0.0003206056748986726,-3.287964909478183e-05,-0.0002205174519774594,-0.00024982071868995454,0.00015503227920270462,-0.0002666969487360555,-4.503182955628694e-05,-0.0002466319404791406,0.00045272487148032676,-0.000280026630765643,0.000162609031548732,3.9340969934836555e-05,-5.822106982181987e-05,-8.268597298115903e-05,0.0003264537391679294,-0.00015602827150240682,0.00017615446486652823,-5.80531664707874e-05,0.00040722345446995935,4.669824042411119e-06
0.00010463159748958858,-0.00027368771823165015,-6.381844057152598e-05,4.032316925734541e-05,2.397709295702307e-05,0.00014140078759657918,0.00030503435694111624,0.0003156762713462681,0.0001506368987667555,-0.00012960183374141152,-0.0001063573582238064,-6.399359572986378e-05,-0.00011185438252203529,0.00027388889932034705,0.0004731118166053459,-9.582952408813176e-05,-0.00028053288389677896,0.00030307393388224454,-0.00023204818192026905,1.4667306136661626e-05,0.00019672566039145395,0.00010432925851105696,-0.0003320033124156278,-0.0001404712360029584,-0.00032332769582601897,-0.00014390461381039074,-0.0003400350552525716,-0.0002666587810762731,0.00011186490993753667,5.063045304607459e-05,0.00018127559211266774,-0.0001577331076144752,-0.00025858013867990237,-0.00022376118844586276,8.631835837339968e-05,-0.00030983889006450354,-0.00016277552149856838,-0.0002262476855238576,0.0002257930807528903,-2.8204538976453735e-05,-0.0003979829041792192,4.876748971612314e-05,-0.0002165478130532419,0.0002209957529071886,-0.00025437372900769526,9.859421440307792e-05,-0.00018703288969541327,-0.00012539592531349907,0.00015219650081747872,0.00011647499509694898,-0.0001544552563724419,-0.0001840399169442945,0.0001764744932902511,0.00017501661446397474,0.00015878343339883043,-2.071799925850032e-05,0.00031816013070652644,-8.424328060261912e-05,2.5007171379439085e-05,-0.0001680114706365204,-0.000497847467034424,2.2945374631574997e-05,-0.0002546434291090417,-0.00042174935927541987
-0.0001763546199517137,0.0004355759778720049,-0.00027178907882499843,1.9460560911110812e-05,-0.000239372782669189,8.159816431108316e-05,0.0004119257117753276,0.0001707875728756065,-0.0001490562600984289,-3.503253065549814e-05,-0.00013543754626762155,0.0004086293088059007,-0.00010779589711313323,0.00012912571059320036,-5.857728795199823e-06,-0.00015321960251626703,0.0002579345673138107,0.0003532274898933631,-0.00037663630806964755,-8.678479998467612e-05,2.515391565676657e-05,-0.00029112531976481834,0.0001291976417705806,-0.00014350088203085156,0.0006052636187408275,-3.8004567491018496e-05,0.0002772654223555355,-0.000130928946036658,1.6874905395616727e-05,0.00029869401005583074,-0.00023148875535178147,-2.754985394087562e-05,-0.0002742015913724541,-1.284143597524851e-06,-4.0308309982434226e-05,-0.00017774058085040002,-0.00034473693102100416,6.040963446148694e-05,-0.00010105806177463413,0.00010701548679990558,-0.0002729653358090456,-0.0002955600545462741,-0.0003793872780051337,-0.0003611480660077549,-4.851124471037227e-06,6.132654052122481e-05,-0.00034367922966986277,0.00032730976138284834,-0.00016882815290072232,0.0006202992633260833,-8.33882431761055e-05,-0.00018451623743711572,-0.00015465466035221724,-0.00026279498050340173,-3.6782515962834016e-05,-0.00015454271978475093,1.5179859099709589e-06,-6.265275729954953e-06,0.00016557780625063367,0.0002443773553790323,-0.0004339357614363335,-0.000212638090394031,-2.1282417517299163e-05,-0.00028827393264067164
-5.198518277461394e-05,-0.00018863205106998862,0.0001738775642833141,-0.00020409504199313928,-5.873549266832784e-05,-8.237943660442535e-05,-3.581596118086863e-05,3.6785149774280395e-05,5.902561663188434e-05,-0.0005630543527100725,-0.00018162802834629257,-0.00012774535109323903,-4.3878743960423996e-05,-6.099258236695827e-05,0.0002166637091017243,2.2670093088234625e-05,-0.0003449924777547873,-0.000213755316210251,-0.0004299194282478911,-0.00019278027258041812,0.00020290630275217566,9.249150983309799e-05,0.00013925408644538685,-0.00029347927950690994,0.00032479113114160696,4.962867825690723e-06,0.00021312091041472442,0.00010283240091361839,-0.00013618943330689852,-0.00025675074507999654,0.00012626545702565365,0.00039740997014154277,0.00012106592319454022,0.00014979231123048617,0.00019769417735886338,-4.999929815659911e-05,0.0001789800037689227,0.00022571157445293956,9.265951310226995e-05,-1.467694082481949e-05,0.00028499049499953793,-0.0003340038118943186,-2.7409948750266512e-05,-4.978147007025388e-06,-1.1364333248190534e-05,0.00039553650110730787,-0.00023063750962322752,6.442418014457324e-06,-4.4757971651975464e-05,0.00010519756702337474,0.00031920504948250596,-0.00021718988524828487,7.818376957952084e-05,-2.9383715770741776e-05,0.00020557404152327116,0.00010431945767595814,-0.00010642247677375405,-0.0002165724785411542,0.0005687256132553062,-0.00019453817438045052,-0.00022354399030427468,-0.0003717145391523682,-5.83709142310177e-06,3.8015433941348845e-05
-0.0001514216762662503,0.00042236901474210675,0.00019912917815448775,-0.00016333466317098658,0.00013218805411215507,0.00020084115161262642,0.00014822975513473124,0.00014751571578316684,-1.3235295986505226e-05,0.0004145014247110216,8.13964305784983e-06,0.00036266897993846416,0.0004872453667573265,6.350235031593489e-05,-8.213810898437895e-05,-0.00021741927306151304,-5.67446155883579e-05,-3.3028776385435464e-05,9.420276691233818e-06,1.0550887388880919e-05,-5.7462756231174076e-05,-0.0001826400460572362,-0.00021599978114339224,-0.00019609099987479115,0.000186308546711001,-0.0002895016442848452,-9.450054529024713e-05,0.00011238763234722667,-1.890356095900813e-05,-0.0002209132090065594,0.00019957203435743738,-0.00014307529058323485,0.0001101613925628516,-1.7257974958905747e-05,-0.00010698510483411935,-0.00013787141977082248,8.10583442335701e-05,0.00012308521880053893,6.424499413344857e-05,6.028874703161646e-05,6.473645668209664e-05,-0.0001620935576266057,0.00026813642854797915,-0.00013117636640130588,0.00027375525643769317,-0.00017577362712314725,4.724204954823098e-05,0.0001758252665204215,0.0003867516821173348,0.00013895559636729085,-0.0003281458289604378,0.00010522096946088498,-0.0001014711479742106,3.122469978959663e-05,0.00018229614297855906,7.427135001922574e-05,0.00023521545908773098,1.6821568147535078e-05,-9.008302569095967e-06,-0.00022476765074722784,-0.0005051051240508289,4.97982320182275e-05,0.00047213504186894846,0.0002488178932586673
1.621812917946077e-05,-0.0003981147195202181,-2.6993176765527004e-05,0.0002592482543223012,3.132335089039081e-06,-0.00041928460085838103,-0.0003090758061970503,5.371963453212362e-05,0.00029494289348599436,0.00018130987145669592,0.00034176912289304596,0.0003809576302966384,-0.00021779384666252195,-9.62070377973912e-05,0.00019604084532391582,0.00037942109020554823,4.7651570729776354e-05,-0.00016486682126451777,-0.00032262921227329405,5.2698466012650915e-05,0.0007294371763265423,0.00019492557666830757,2.003947021983326e-05,0.0003166815617660922,-0.0002291528293857882,-0.00013969613992847476,-8.537897253354658e-05,0.00013576106514235159,0.0001832124426362787,-4.521416442474076e-05,-0.00014178229232002522,-0.00027691996007086546,-0.00016341946656629308,0.00021181078957449955,-0.00044342511059793067,-0.00017728404490733126,-0.00014054823534551835,0.0002037657996241789,-4.362267788300403e-05,2.0099844211166897e-05,0.00017842456777313512,9.435606327343277e-05,-7.723377006414377e-05,0.00026301313728939864,2.0420955724669775e-05,-0.00035035581952742455,0.00019468080673164695,-0.00016520201941947708,0.00013611736757786972,0.0002357148509339541,-0.0002982884347048678,0.00022206476685047023,-0.00013097327167444032,7.229962243342074e-06,-1.956318618353446e-05,0.0003159006885382784,-0.00018353239243567099,0.0002446117070456188,-9.55270265606192e-05,0.00020450521852063676,0.00013520760974571636,0.00031833575174105324,0.00026265476251439263,-0.0002643320919931098
-4.596387062718601e-05,0.00012996839444046057,-0.00022251387742545356,0.00015939890728820962,7.657376963119306e-05,-9.249671901430704e-05,0.00041339917627595185,2.088987469578897e-05,0.00041834453650230517,6.836566967865774e-05,-0.0002131306064584742,-0.0002354954426816664,-0.0001584321380042043,0.00012553447708730028,-0.00022811337389528081,-0.00011368904764748471,-0.0002580665257343853,4.8715049598533224e-05,-0.00011673907543429537,-0.00014092751108464967,-0.00011186504615392442,-0.00030394244529229183,0.0002208649586598527,0.00024222017328040998,0.00010911332095116046,0.0001021113088050782,9.632556427165303e-05,-9.543293604507761e-05,-0.00031891891156178803,0.00019768115290707874,-0.0004148214315613572,-0.0003696701765936951,2.9626721636839732e-05,0.00025632192663110605,0.00032836858680886566,0.0004275137809162065,3.9010076299252026e-05,0.00017168048355455706,-0.0004216761059998236,-9.150439819690334e-05,0.0006102652140200923,0.0001298851416948083,-0.00018770097308381996,0.00038826586725747015,-1.241316543835139e-05,-0.0001864524686695195,7.510528613505267e-05,8.243044253120208e-05,-3.5432672855808724e-05,0.0002040524811037465,7.642203716116307e-05,0.00012583590431805458,-0.00019081190809249095,1.6319400692122373e-05,5.632413351761523e-05,0.0005625777232676431,0.0002382131100165337,0.0002920909436595685,-0.0002737318177214367,4.566602771722051e-05,0.000440919351719387,0.00022244806203199644,-3.340536894116701e-05,5.078922252170893e-05
-0.0001423160998424552,4.841688070799401e-05,0.00010068950975588171,-0.00023717788808995074,-3.75134784173135e-06,-2.268320242516669e-05,0.000272087792850133,0.0004097500323228948,3.0002935872823125e-05,0.0003231496457827076,-0.00018322834412796122,-0.00017556572172111224,-0.00013714265616340354,0.00014420199885909735,0.00031981000445061253,-0.0005526157310963133,-0.00016134241812409695,6.149071881780123e-05,0.00025166330398769255,0.00014101881173347048,-2.592506063659501e-05,-0.00013647173758977904,-0.0003088505446560517,0.000294340440499437,-0.00035016726974535786,0.00036441676027853045,2.5409801001102215e-05,0.00011694756607447244,0.00010644915780477841,-1.3913573161247368e-05,5.103137156831386e-05,-0.00011369982455044803,3.0088625228689125e-05,-0.000568196894928178,0.00011885063487068306,4.153249793966193e-05,0.0002745386065169659,0.0001453775487210748,8.529734686797122e-05,8.277537737847868e-05,0.00010898705794393766,0.00021555025812742325,0.00021700759296667665,0.00035449205726289503,8.719932810087668e-05,0.00016470559696689743,-4.093253912994068e-05,0.00035013483227346043,-0.00033502572385452555,-0.00010238738699407733,0.00025491050053754784,-0.00034113956139265617,7.3018062774924064e-06,-0.00022647446198541127,-5.9414909666430585e-05,-8.097316948326987e-05,-5.588681293047946e-05,-6.581025078049154e-05,0.00011775729459731084,-0.00019556802780475592,-0.0004495503885032836,-0.00026588705591455556,0.0006299128700192001,-0.0005080108137472304
0.00017490043034645308,-0.00017554519370554167,-6.056763963899115e-05,-0.0001548921351815097,-5.09019595101965e-05,-0.00020251364901908964,0.0003837931411103801,-0.00024255343824360856,-0.0003659561958254066,3.0131839045190077e-05,7.159539090922907e-05,6.932981316301651e-05,-0.00014899222349245864,0.00030126196676546503,0.000141436742373904,0.0002634974366681004,8.343238697283704e-05,-0.0002900981788138352,-0.00018246453697987964,0.0007023704214854256,-0.00014396150473387426,-5.221508109633907e-05,2.0357723666046228e-05,2.1468245790113494e-05,-0.00018348865016203423,-0.0003923078897110872,-0.0002913655268553461,-0.00029884660986392576,0.00025268657313692514,1.907939605108455e-05,-0.0001528767035444638,0.00017560881748921787,-0.0002580328850995932,6.221364797982172e-05,-0.0002949712184381313,8.023518063854249e-05,0.00010985079124635952,-0.0002543923964520752,0.00024821954014513515,0.00013115292334346199,-0.0005443539507041414,-2.7673515284106563e-06,-0.00034021345509106733,-0.00017918251963742912,3.3271110335812915e-05,-3.910952793762295e-05,0.000202188083002392,5.014667894561199e-05,0.00010913264128490964,-0.0003647144219898352,8.311297890946369e-05,-0.00011076238199746873,-0.00024057640510879687,-7.587487719253565e-05,-0.00032152567441017915,0.0003554804192546596,0.0001725666617529986,-0.0006372190477275438,-0.00038067507811381763,-2.1166132812736844e-06,7.324931213257145e-05,0.0003842299300673758,0.00011715529344035143,8.093458146414087e-05

hidden1_to_hidden2:
0.057596961440540356,0.05759673635167831,0.05759707596248402,0.05759649469814393,0.05759702508747163,0.0575975365502429,0.05759724678227215,0.05759632266545891,0.057596805168560555,0.05759581923191529,0.05759622797126821,0.057596435546646514,0.05759609623989968,0.057596239360771094,0.05759669473884,0.05759637608365324,0.05759626796694511,0.05759633299163926,0.057597100309528526,0.05759622037190836,0.05759724367141564,0.057597287474576625,0.05759638721267278,0.05759663042030451,0.05759674572493115,0.05759680944550092,0.05759667315048473,0.05759636845750682,0.0575967609536558,0.05759698755017753,0.0575962591865395,0.05759718493271351
-2.9902497158945626e-05,-1.1795372132838296e-05,6.554316662324091e-05,3.384502019743413e-05,-2.3685665614645948e-05,-0.00010015704445387115,-2.991587098014405e-05,0.00023672374327716173,-1.7101825132204314e-05,-4.185671615620245e-06,9.328733931645409e-05,0.00018818609089401951,-9.679106965967561e-05,9.26966756142702e-05,-3.6723588920864326e-05,0.0001070148381274258,-9.114042699060487e-05,7.488480623376158e-05,-3.3764119436962704e-05,-0.00014064350319574029,-0.00018938400973264762,-9.525567144306956e-05,2.5158973606955177e-05,-3.796238050400621e-05,-5.364777539329428e-05,0.00019819885046375824,-0.0001218937586374981,-8.705918268502406e-05,-2.2396971932341555e-05,-0.0001727485068647792,3.5826131893240415e-06,2.8720401719722238e-05
0.00013066662516495207,-5.4588068444556105e-06,-4.847660999842286e-07,-0.00018356989424935435,8.439053402423885e-05,-5.701436518707695e-05,-8.716612700827885e-05,5.636116618143629e-05,-4.212807379640316e-06,-6.550352132460532e-05,8.230636674385988e-05,-0.00015384265189204442,0.0001160832672863111,-0.00012098337148340214,0.00011363931792275347,-7.35593318404662e-05,-8.266860685470841e-05,8.931114967081754e-05,-9.834578434427153e-06,-0.00010197845224149622,3.7429836964866035e-05,5.9624124428311456e-05,4.979045543967232e-05,1.5300786668797218e-05,2.825279813147885e-05,-9.563314620496825e-05,6.200397150164754e-05,0.00011081544811372759,-7.687593480666057e-05,-0.00018290154289778767,2.15415459234246e-05,-7.171208583307027e-05
-2.3321336552955625e-05,1.1079267674965177e-05,-8.222351389625903e-05,0.00012200565908175786,3.08638501081203e-05,1.4356895048727747e-05,0.0001214253222381421,-0.00011389377887055451,-2.716781046989916e-05,0.0002915259419580212,-4.6270901964990526e-05,-2.3388781188310823e-05,-5.767031217392205e-05,-4.75676084898448e-05,0.00012448908172322943,-0.00012638956452262228,-3.3706942704012094e-05,-9.014090552161807e-05,-2.751004391103417e-05,0.00013197942999046395,-0.0002067941842768603,8.186018933976807e-05,-0.00011915409774341525,0.00016513293331736346,-0.00012148267419389678,-0.00022206124208751143,8.134250781514144e-05,6.504946597281211e-06,-0.00024507692116842474,-6.271515227832134e-05,-0.00012866857449060116,5.577020351128195e-05
-0.0002558610460647593,-6.874716139668569e-05,4.573958209909371e-05,0.00011912986438284058,-3.478200677208022e-05,-0.00019081214367767095,8.875214313586981e-05,1.465535954115538e-05,0.00010280966960699982,0.000141995912933296,3.380845591888668e-05,-7.125066760889384e-05,-1.6421077913283387e-05,6.230057241137021e-05,-0.00012153227804020284,-4.1811594238740114e-05,3.831748825637997e-05,2.0029823457695143e-05,7.417235116055141e-06,9.317045106150366e-05,-6.154736782539407e-05,0.00022014722767902043,-0.00010604503682181315,-1.6030226900715658e-05,-1.6298281254862274e-05,3.904271518416419e-05,2.3046218926006436e-05,-9.857776412266522e-05,-9.203903221191473e-05,1.3784735010326493e-05,-0.0001059375911517339,0.00021524767540842668
0.00011733460498494585,0.0001613041328472664,0.0001317084811713801,-0.00013097251146553147,-0.00017372375407502852,-7.608948692457617e-06,-3.9362202113515445e-05,0.00012018083655115471,-2.1465228853936275e-05,-8.826727787056636e-05,-4.8106493011772686e-05,-3.3659632907259734e-06,-2.11967306324647e-05,0.00013208710611649832,0.00021104315906293153,-6.104398154690444e-05,-3.678678852166439e-06,-5.2547354765960644e-05,5.53587050659844e-05,0.00011064173714127692,0.00012564782188384318,-6.280697454721735e-05,-9.072135422436401e-06,4.231648021818614e-05,-5.4250865659611665e-05,-1.8523062310892996e-05,3.399407917684025e-05,-5.4164703603451176e-05,-0.0003133857829391627,4.764254497614436e-05,-9.775368179072636e-05,-2.6344708792225586e-05
-8.57040345298025e-05,4.530972034042776e-05,2.9959430765804787e-05,-9.163612771360463e-05,0.00011283561965983867,-8.704374018850352e-05,6.041353136560109e-05,-3.613522925867889e-05,3.619264170774145e-05,-6.74816646277767e-05,-9.530811468002875e-05,0.00011943952856245916,-0.00019416321294040234,4.2426023023878434e-05,0.00010148014752140118,6.839249958927482e-05,0.00010928196802538069,0.0002433204300614339,-3.683883176534621e-05,0.00010020351302952638,9.280408541838238e-05,-0.00010873140173621713,-0.00020725506573557824,5.124790125316401e-05,-3.3609035373783e-05,-8.543006672765343e-05,8.11756299303808e-05,0.0002584733839407264,-7.614437354591467e-05,-0.00020297093518320222,-4.9826483558447164e-05,-0.00010684754654770118
3.557895738630216e-05,-2.165191114182089e-06,7.035521404408469e-05,3.0743751614467456e-05,7.276810143074796e-05,-3.533770541653383e-05,2.3877579336769142e-05,-0.0002522610120989595,2.2813538251646653e-05,0.00013484046573278833,8.478616022111731e-05,5.792296045445986e-05,0.00014765492001560587,7.326806217052687e-05,-6.710148136308187e-05,-3.5763301195163885e-05,3.3021127929780363e-05,-4.776345888998208e-05,0.00011282123855683199,-6.560701833241199e-05,0.000157648579914945,-2.4006435936775038e-05,1.2320813100057704e-06,-0.0001049658766354751,-7.950318780808706e-05,4.8651943207397276e-05,1.8435734740155285e-05,9.223411806693596e-05,2.1948997860950804e-05,7.493658211730926e-05,2.182434973221481e-05,-8.003844600155697e-05
-0.00018288115441245393,7.642884331535245e-05,5.5900068416825106e-05,-9.775638152265359e-06,0.00020968604830689703,3.337566878565176e-05,2.026448173445912e-05,0.00013580218563204776,7.178787889372633e-05,-2.3776319924171896e-05,-0.00016347243771948022,-0.00010035859337301177,-1.1831655527068976e-05,1.8800462488869643e-05,0.00010450723500928676,0.00010187053425367252,-0.00011221187732720893,-7.499866092367572e-05,-9.591627561294494e-05,3.208607296337063e-05,-2.4335336752505682e-05,-1.582355743106971e-05,-8.944642756652596e-05,-0.00015562583061407695,0.00023994673651721402,-8.773807233984176e-05,0.0001265397160398968,9.78805829041806e-05,-0.00024440093196999795,-2.3078724163183095e-05,-8.39795065053629e-06,-0.00015313304350606023
-5.13730367027867e-05,-8.066893905226042e-06,-1.61900558949304e-05,-8.249520934842056e-05,-2.436498303098223e-05,-0.00022220062257024162,-7.349649662636193e-05,6.60692828627059e-05,6.660932682589579e-05,-8.626975079621704e-05,-0.00019147695373217388,2.2993438796657317e-07,0.00012661663876447046,-9.266469568573437e-05,2.1135068371431255e-05,-1.6840364867705295e-05,9.825456911556522e-05,0.00011172032065641537,-1.2445169118597887e-05,7.20728234751511e-05,-0.00014294798984670957,-8.4663797718441e-06,-0.00011742492385512241,3.73752695632946e-05,-7.557656404573057e-05,0.00013380169863127882,5.3780382085744415e-05,8.019074786659133e-05,-9.70525404480018e-06,7.82118369885252e-05,0.00013969664980715193,-8.680253512049484e-06
1.6701957498362693e-05,1.0907166139312439e-05,4.104222002670462e-05,0.00012628913441388217,-4.226478039316551e-05,0.00017875026933255936,-7.574883628098006e-06,3.726610023028013e-05,1.707249401746833e-05,4.786360605913827e-05,-1.4185230961860923e-05,8.81038505446781e-05,-2.9779459859177688e-05,-4.327783678422953e-05,-8.30804218688753e-06,0.0001568193468727642,-9.209829796047452e-05,-8.15078716883985e-05,-0.00018312658819936536,-3.306008510472447e-05,-0.00011563446247909244,4.106123691034498e-05,1.268204365789875e-05,4.1854085164077473e-05,-4.478388476474039e-05,-7.772006062568287e-05,9.367873899093578e-05,2.0706451252112047e-05,3.155860312884294e-05,-2.0114252899619924e-05,7.941831442223115e-05,9.440595554000219e-05
3.289166530270946e-05,9.555830034222864e-07,-0.00016982869112925996,-8.769285505335563e-05,6.26937027883244e-05,-0.00011386004575176922,-4.7489624086183406e-05,-3.89291399820769e-05,-9.601443739720235e-05,0.00011448250511601844,0.00012039358572751873,-2.1357944115281297e-05,6.19433320196974e-05,0.00015705359130185637,-0.00016924361186817705,8.672336186418588e-05,9.3834840473696e-05,1.6635739881165445e-05,0.00010225008741229075,6.203928621148633e-05,-8.56789608361817e-05,-0.00011270969962845187,-0.00010713237484902914,-2.059965085790561e-05,-1.957684572655322e-06,0.00020841045461018746,-0.00018755828918279476,-2.324197175125959e-05,6.309657706096453e-05,-4.346201627934211e-05,4.197894949283686e-06,2.479944445084895e-05
2.670415391110344e-05,-1.5023623413901865e-05,-8.290427488912607e-05,4.314863583740116e-05,5.5136028610745916e-05,0.00017664778172147362,0.00017823797990975063,-3.6944473116736805e-05,-7.146771910735023e-05,-0.0001679393918796012,5.022903461405325e-05,-7.667549529163933e-06,0.0001258224278601531,-2.6154247905869736e-05,2.7914381927428256e-05,-0.00014681619140041323,0.0001619004343082157,-0.0001342079401712407,0.00013223630274010538,-5.134918036194206e-05,6.911474429103528e-06,-3.9862684354713556e-05,-3.364908363421582e-05,-0.00011719389194328288,-7.144541680373866e-05,-3.710092342285802e-05,1.841826897949601e-05,-5.482421332833763e-05,7.725361685473019e-05,5.3813353944947415e-05,9.36614203972765e-05,0.00010590648271314657
-0.0001821096158701734,0.00013391238563890961,-0.0001316445284325027,1.9200129417681764e-05,-2.9861776618418006e-05,3.2098073613155295e-05,-0.00010752714549386518,-0.0002801916073517591,2.3124761219372276e-05,5.49545951183657e-05,6.761017374016364e-05,-0.00011457495919610643,8.031596965474343e-05,0.00010310766678829865,0.00010414627650172253,2.7284052112388767e-05,-7.928117488641574e-06,0.00025059280194834633,-3.474849973327686e-05,7.549208620349083e-05,-9.54953610949977e-05,0.0001488004819861823,-6.630026768191533e-05,-4.27084805928148e-05,8.449979550766912e-05,3.8735956035716394e-05,-9.626268761413251e-05,1.0600673435673456e-05,-0.00014442435943459855,-4.9219849190535366e-05,0.0001532019121950244,0.00016264540427303288
-2.6510596894447293e-05,4.2262463045592974e-05,-1.8651622207766406e-06,0.00013257610276351252,7.474728967898672e-05,0.0001262007751362919,2.8665004024786148e-05,9.173378202358506e-05,-4.638118763634524e-05,-6.577976794297746e-05,4.013642366474862e-05,1.3845822379434144e-05,-2.3587823652959302e-05,-5.740315824287871e-05,2.7829033574583737e-05,-6.47518844224236e-06,4.6051539082560916e-05,5.4316817403779476e-05,5.321733545495885e-05,8.94428032334976e-05,-2.1195041895147663e-05,8.841835183662413e-05,-5.234328182087174e-05,-2.1409307807344654e-05,6.764681642084646e-05,2.6112421487747536e-05,9.72356281603683e-05,8.896228577268118e-06,-5.462020334251502e-05,-8.655845320626807e-05,-1.1184902027894156e-05,3.064580185941742e-05
0.0001151881799576532,-1.3009236307421358e-05,0.00011886198669768131,-7.475287611187901e-06,0.0001302799178490109,-9.045326824260929e-05,-0.00019290935969090519,-7.265799594461379e-05,0.00011159099116303665,-9.556093962813871e-05,6.08961047568771e-05,-0.00010473487671122936,6.404084061982371e-05,-4.031320965724856e-05,-7.2753614379107675e-06,9.353335951381822e-05,6.466477565104004e-05,-0.00018731752156729453,0.00012185930167403613,8.509938222821369e-05,2.3106861503315848e-05,-3.144838063072179e-05,9.70961380558908e-05,-5.1478308896193045e-05,2.6490004190978546e-05,0.00019696343781234763,4.599395137717954e-05,1.666331490765732e-06,6.665406216701094e-05,-9.982342748189015e-05,8.360249348246354e-05,0.00016279657572346618
-3.804135126410316e-05,-0.0002330039499157741,7.61259224399035e-05,2.7859110700398135e-06,3.102882018452101e-05,4.678985481080504e-05,4.949499705778108e-05,-5.25295106854363e-05,9.091131002252775e-05,0.00019091801703871993,-2.47024714133079e-06,9.388570253127744e-06,-0.00010313555857809694,-0.00010667124503117144,7.289004495309355e-05,-0.00017885622531248237,2.0226888673715595e-05,2.4619649650902e-06,2.0597231888558773e-05,0.0001307414202190106,1.096647945981796e-05,3.699031405148344e-06,6.931312624317866e-05,6.69806234253069e-05,7.888141146189631e-05,-3.7376387336436955e-05,-6.808105638847976e-05,-0.00021896434182533143,0.00013482288510398088,9.391082619225117e-05,2.9251635762723816e-05,0.0002628843194570487
3.5333239367809735e-05,-6.777690692713368e-05,0.0001529771843529308,-0.0001131884838100818,-6.589795448338257e-05,-1.8808253261792716e-05,0.00023570364176611844,-0.00011126763363850663,1.2117061440733558e-05,4.136836552195785e-05,5.956584363790951e-05,-0.00010142876819803108,0.00018298271673346123,2.1120269891026416e-05,4.931053587042644e-05,-0.00019366675901128768,-2.189827063597382e-05,-3.0292861744012903e-06,-0.00010792045328594858,0.00017654063950431388,-0.00014984162104632597,6.705988560446637e-05,-7.020656363227579e-05,-7.146127445776969e-05,-2.7426288572780825e-05,2.1752235454737133e-05,-4.078789125876743e-05,-3.9965280412203746e-05,1.8123984941542662e-05,0.0001231743199318887,7.389391336137417e-05,0.0001204246135403484
-9.363011271266541e-05,0.00012935206786177458,4.6645773764304174e-05,0.0001384664975381298,-4.8525479889734525e-05,0.00010742381683961298,8.959472025751096e-05,3.062296650643683e-05,3.198338341594796e-05,0.00010485754462676578,-0.00014396729275293195,-0.00011260712965784752,-3.279502061349978e-05,0.00011392528077982745,-4.2782360190893225e-06,-7.050359665078062e-05,5.0360095492837405e-05,-3.2759142576668465e-05,-0.0001790853566989036,2.4910257532520107e-05,9.144604498368705e-05,-0.00014369429306553623,2.7808469176072693e-05,4.063944438592939e-05,7.04426869544766e-05,-5.741726895684687e-05,-6.985005585199884e-05,0.00015612318905120897,9.039951155637326e-06,4.834961304242758e-06,-3.011909314001057e-05,0.00011090110967911876
-0.00018372564295285703,7.139221123946166e-05,6.895318557581465e-05,-8.255124144361776e-05,4.7156598665297735e-05,-6.005101375025262e-05,-5.281113713900256e-05,-3.366480527054983e-05,-1.9175183646049812e-05,-0.0002251949167579875,-4.024107802105454e-05,2.31345374044389e-05,9.024489404822212e-05,-4.484366823585418e-05,-0.00018950420380485497,-8.788832890290853e-05,3.9004351319173366e-05,6.68138214112263e-05,-8.065774693615629e-07,7.213787489871348e-05,-2.3167090287972364e-05,0.0001209925518631407,0.00016206341018120646,-6.484061735807578e-05,-4.733204242804645e-05,-1.1754725409743541e-05,0.00015448936543075107,2.298593742772885e-05,8.344151183479725e-05,9.725960367868992e-05,4.5070544595781686e-05,-2.542563092985496e-05
-3.462459463750304e-05,9.70682195785104e-05,-8.307326641579639e-05,-0.00015983439662001068,1.5479683199758677e-05,5.159103322733675e-06,4.5316166818267836e-05,0.00014860759348026096,0.00011156483590385219,7.46535829413251e-05,8.517272471934381e-05,0.00022820129385614233,-0.0001354683895832407,-5.756572019862287e-06,-0.00014979410432403855,-0.00014497325299566487,0.00017884063693504736,1.725389663513538e-05,-0.00015748005478328537,-2.770811240092413e-05,7.703572885442792e-06,-1.266574946666638e-05,-6.704413927237615e-05,-0.00016320445903063603,3.7790215906278535e-05,-2.0307149959554523e-05,0.00023414071848925762,-3.491310798748443e-05,9.66070878298068e-05,-2.5610844931309462e-05,-9.189532631564382e-05,3.2505001660029634e-06
-0.00013268393587542702,-9.524778805626497e-05,-7.116536703665906e-05,3.079969338722387e-05,5.618128221129682e-05,-5.911571291688522e-06,-1.0995060551655597e-05,9.49002904254015e-06,-6.754629562538301e-05,2.1957097512084e-05,-1.8351873869904266e-05,0.0001499935943826998,-2.0815820372617135e-05,0.00013673510999270158,9.520076111022366e-05,1.3446329721463235e-05,0.0001948926484915376,9.582614999603595e-05,-6.555130826600419e-05,-0.00011121494359318042,-3.161615714432403e-05,2.3130187979386547e-05,8.361153004110661e-06,-6.442757698980907e-05,-8.299343042762156e-05,-0.00013208125723704198,-4.878764621065164e-05,-3.2908121617353795e-06,-9.693524782372349e-05,-6.115125080931048e-05,3.439999320264529e-05,-5.994575904608793e-05
-5.095486001116897e-05,9.007186726896004e-05,2.3023771668413637e-05,-0.00018110323165536777,0.00016986531095605534,-4.1074523453109864e-05,-0.000141556270749802,-1.8361612591330614e-05,8.464597215862671e-05,0.0001301019437830656,-2.1827077202222537e-05,-4.500377774729949e-05,4.280026711388117e-05,5.7193376097910606e-05,8.011969698152483e-07,2.895427288548732e-05,0.0001565216587676958,-3.910423551259535e-05,2.0487418014225233e-07,-4.676622448402164e-05,-0.00011388881914976807,0.00010609513982275623,5.1101346472427296e-06,-6.386872487648793e-05,1.567751593119727e-05,2.2382722954650576e-05,1.5571838374022007e-05,5.9347182284458543e-05,1.0818404222110932e-05,1.1477092669218953e-05,-3.962429200535992e-05,4.29785600738078e-05
-5.3752445429058326e-05,-0.00011014830766593775,-3.995073078013101e-05,3.841441566955031e-05,-6.079811194727832e-05,0.00019272675158709676,3.0010043129825475e-05,-0.00011813716549124562,0.0001386421324246809,-5.171261517659559e-05,-0.00015607137411278202,-8.528477147261212e-05,-0.00015317656516641967,4.3100391790784186e-05,5.487568930505689e-06,2.4202448282407214e-05,3.067746680682136e-05,3.844840846633649e-05,5.02490659644168e-05,3.519672469609198e-05,3.492539356043706e-05,-2.1253657340864017e-05,-5.1366548458906427e-05,2.78652166215282e-05,-0.00014014701962643906,-5.285024423772626e-06,6.120391762859406e-05,-0.00015839717703843066,-8.839277800003204e-06,-5.504304902166398e-05,-5.5032279956778636e-05,-3.293486598717847e-05
-5.649192717645335e-05,6.89647664346292e-05,8.063474025545328e-05,-9.478267051047299e-05,5.148943484326995e-05,1.5095516671333355e-05,-5.9857286679238724e-05,-7.422262790296193e-05,6.698294522309603e-06,7.051791795152758e-05,3.386291792555539e-05,-5.112171173367852e-06,4.708756567135328e-05,0.00014858525590335663,-1.2270490488983713e-05,6.97238952861424e-05,-1.920693059986207e-06,-0.00013996018724358976,-3.984482887172688e-05,-2.9717340234248333e-06,3.95028482514222e-05,-3.217037146271911e-05,-2.9113469760445787e-05,9.512983638534407e-05,0.0001447789829541468,-0.00013207523160265445,-2.3206216005569057e-05,-1.4574612582712432e-05,-6.88705999502164e-05,4.209631259907957e-05,0.00011112351141147513,2.2446207667182907e-05
4.587797427012216e-05,0.00020426437869273248,8.818877870085429e-05,6.499412168784316e-05,2.3399164155333018e-05,3.184286350919133e-05,1.3067121633765992e-05,3.88246911467276e-05,-8.834438012600155e-05,0.0001048134575030764,-7.742097707598895e-05,-0.0001078868696657028,-0.0001066904972831245,2.0996631523453296e-05,2.7002940879010546e-05,0.00010628429527105063,-9.737484671038854e-05,-9.82370616152822e-05,7.514579812077498e-05,8.804769205224649e-05,0.00017341033205043845,3.3000908440519027e-05,8.917946164526312e-05,-5.878988952765342e-05,7.407228790709482e-05,2.82215621434301e-05,6.511602942761195e-05,2.6559000434717377e-05,0.00014679066889848862,3.8016972648833406e-05,7.570049086454344e-05,2.0332044011589313e-05
2.547447523754835e-05,8.598045663384342e-05,9.380967765494192e-05,-1.919625692574686e-05,-4.4803319471670355e-05,7.154473492983469e-05,-3.1113603853939154e-05,0.0001302171212927091,-0.00011888848572017962,-7.731285563006532e-05,-0.00013984810516400715,-2.5390021348186554e-05,-4.860789206673954e-05,-1.0520366756586261e-06,1.7065207304648562e-05,0.00011858711083680947,8.246574478050614e-05,-0.00014099791469057235,-2.5100756488842753e-05,-8.832491417934227e-05,-0.000147827859044798,-3.353215983111144e-05,3.204165918495301e-05,2.7755863438720385e-05,0.0003546240662893047,-3.544645035853613e-06,3.800444311703312e-05,-3.0354514772023284e-05,-0.00013882400916974885,-1.1542215376178798e-05,-2.9057972669142705e-05,3.067987901170066e-05
3.285591489940117e-05,1.301096873744792e-05,-0.00013258862173113784,-5.259226808357629e-05,8.388818615198045e-05,-1.0233122780275e-05,0.00018697895625244108,-6.29179087308049e-05,-0.0001009147921523897,-2.8357119166051457e-05,-7.555137776677727e-05,-3.554278055344058e-05,0.00010985325237791648,1.4037788757352716e-05,-0.00011050975487344212,-5.82978660290506e-05,-0.00010920960693367616,6.760123760288225e-05,7.384723713996515e-05,-0.0001430009228034609,1.2856444832715998e-05,2.1082495278549322e-05,-9.939008645098467e-05,-4.177346291379627e-05,0.0001761327641656092,-1.5973183324500925e-06,-9.630371771447939e-05,-0.0001030270318282852,-4.2217745784664675e-05,-2.8735584264059753e-05,-3.866189525148924e-06,7.875002946668245e-05
0.00012378632684598148,-4.0422393691026557e-05,8.713136869255286e-05,8.873071099537533e-05,8.47175121288535e-05,4.151395539838457e-05,8.647506536741449e-05,0.00018525585227800007,-0.0001694697857608431,5.9347947615913385e-06,4.594301615670583e-05,2.8700995176117647e-05,-2.6884007415438295e-05,0.00013732727214131794,-0.00010371204794715447,3.13999492040144e-05,1.1148391007143781e-05,0.0001668778916371667,-3.8486747407931346e-05,0.00013573672185988238,1.5152339567939922e-05,6.368091802563298e-05,7.310794786940921e-05,2.3065881770687686e-05,8.193433056921082e-05,0.00011078247707913634,-0.0001326539931654264,4.37804545089111e-05,4.865226333201214e-05,0.00012529036311877215,-0.0001207399004581346,0.00029274386234983026
-0.00019499085234234685,0.00012700073842354147,-7.577605788181509e-05,-0.00010861138034480502,0.0001844333822839345,-0.00015472783044041024,-0.00030215175957287575,6.82391820155473e-05,-2.3691963921721505e-05,-4.808579962828989e-05,-9.401928352630429e-05,-4.3363407056790826e-05,-0.00011944043630780417,-0.00010326411156246038,-0.00010593657574334118,-0.00022980903855186768,-0.00010210558805748614,0.00011409496195350639,0.00011240545569475673,-0.0002300522090508634,5.194853018980825e-05,4.918013816975308e-05,2.648117475327129e-05,-3.499307812252465e-05,0.00019925425913992043,-0.0001434079388812263,-8.398265369018256e-05,1.0716322123622076e-05,-0.00014516381494521016,-3.942252581961357e-05,5.3626385226727035e-05,-6.380448692330855e-05
9.516674812995587e-05,-0.00013955857490905983,-0.00011552376270584532,-2.0003126104262815e-06,-1.8396427473613136e-06,-0.0004196938731864908,0.00015789772062909814,-0.0001696059043826336,-6.2427107119310255e-06,-0.00015192779893549377,-6.918910044164959e-05,-0.00021778894756146314,-7.927813331300675e-07,-0.00011949398508928745,9.266853074260317e-05,6.289412393689965e-05,-9.205112022615138e-05,0.00017021647496729358,6.7872052367491896e-06,-0.00011542303438427605,-3.3548027828581234e-05,0.00016197353983693808,-1.0900241311032927e-05,9.932826028421491e-05,-3.645256274723292e-05,-0.00022822117373845962,-4.878733479924684e-05,-2.6300493096879452e-05,0.00021170140475318432,-9.237287246079873e-05,0.00018245890700995454,-5.7341107083237614e-05
-0.00027354091355693264,-6.853886643038013e-05,5.4924443402300544e-05,7.565010249899517e-06,-6.131403330595006e-05,-4.609299163274935e-05,-1.282248524267148e-05,-3.078608861449185e-05,9.25220150579124e-05,-7.25618922981862e-05,-6.110589684684769e-05,-8.639204306924039e-05,-0.00018704067127770508,0.00015449289148280432,-9.042734459502982e-05,-9.090049319105724e-05,7.854331107018759e-05,-0.00025200615580844957,-9.86215477358772e-05,-3.2203556937836096e-05,4.180179907277187e-05,5.789134610474372e-06,0.00012420398340703468,3.863301980466367e-05,6.428854968388789e-05,-8.946618070358347e-05,-8.59017116547554e-05,-8.072559489530299e-06,0.00010516869290418078,8.053785128116991e-05,0.00014965831233503243,-3.8127033184608364e-05
6.914311251448055e-05,6.622950466622967e-05,-3.930451800512624e-05,-6.658787132231511e-05,-1.541284308319618e-05,-3.5252164013801835e-05,-3.20833096690442e-05,-2.0810417575039724e-05,-8.39325398250864e-05,5.514390788356559e-06,-0.00013411922557854714,-0.00023753438840329934,-8.30765033350628e-05,5.090420653754606e-05,0.00010630946416098314,3.401778731202485e-05,-0.0001446369023003968,-0.00019730822609007655,2.5813467741701174e-05,-0.00014868886995629462,-0.00017309915640390617,-1.9084483991860253e-05,-2.509386760193647e-05,7.690516377434865e-05,7.207150751856718e-05,1.690095269946879e-05,1.2740773215193197e-05,-2.2633774240282534e-05,0.00017208530421420294,0.0001297934948982021,9.359772952310243e-05,6.774482735466855e-05
-0.00018246626613454992,2.8142702819802396e-05,-5.005611097460743e-05,-0.00015983369208717125,0.0001185655562808805,-0.00017844997821156057,-6.958250583514416e-05,9.26527496938775e-05,4.807082766822266e-06,3.4093529229200035e-05,-9.039002591266236e-05,8.502963063721265e-05,0.0001864630204360741,1.2056069655358561e-05,-0.00011318952526148683,-0.00015064917289513052,8.375521174801577e-05,0.00010372209656783601,4.1937885376674795e-05,7.65539955943405e-05,-6.649092296327157e-05,8.77293188666683e-05,-6.736492344698662e-05,1.9298255652439635e-05,4.4029684662460815e-05,2.928503242820854e-06,1.8774158632779577e-05,0.0001614822868463282,8.24128946891038e-05,-1.2063810077080371e-05,1.4034963055367538e-05,-0.000122250490417811
-1.079186910165779e-05,-0.00013132814068356945,9.454662384343363e-05,1.0646182892906453e-05,-9.40900385469354e-06,-0.0001081017541257128,0.00020227059343303882,0.00025281633391549015,-0.00013132992659974733,-6.819325356486884e-05,4.8544472323056834e-05,4.645692959180874e-05,4.779998485930532e-05,-4.263826436029425e-05,2.575831041255064e-05,2.1620678030305745e-07,3.390888961465545e-05,8.208093258081966e-05,7.5036241891275284e-06,6.89929247236386e-06,-3.1007045583783916e-05,0.00012892073603770762,4.295156129040037e-05,-0.00011239103670067543,-3.488948973729934e-05,5.383358392172599e-05,5.039311512113386e-06,6.402892968821413e-05,-8.246051761886047e-05,-5.427516314203587e-05,4.6299958777887255e-05,0.00019093423913282693
7.238607659347995e-05,1.3776521689872039e-05,2.3937376739386264e-05,1.472346309654352e-06,5.733144377777225e-05,-8.372354590841126e-05,-2.2804505891277187e-05,-0.00010448640889048237,-0.00018788352296457764,-7.775573699898017e-05,-0.00022087197596966417,4.323150979684055e-05,-8.801579335221935e-06,-2.8539466746302607e-05,0.0002196859864922672,0.00016484636647868877,-8.205839830389984e-05,4.310184400823295e-05,-6.883155865071327e-05,-5.0740583750122986e-05,0.00014730261229751595,-3.3489625411947096e-06,4.285312991364588e-05,-6.244498775437727e-05,6.091652044839902e-05,-0.0002624395646223399,1.5905582002626557e-05,-4.5719678724216004e-05,-2.7087929126627795e-05,-0.0001377466637659155,-1.3783898683449242e-05,-6.914369291026333e-05
-0.00012016950514003743,7.834523571186737e-05,0.00015782500776122762,-3.3660934827933494e-05,5.2056040019784095e-05,-0.00012646220838016776,7.152101849692712e-05,0.0001326015106044682,-1.759281891933842e-05,2.00382709584567e-05,8.452781977273941e-05,4.531384980792269e-05,-5.647073992201419e-06,-5.268692842315811e-05,-4.548445208314531e-05,2.8734378537146516e-05,-0.00011273245875225918,0.00011545411248218369,-5.279177030262211e-05,-2.2516269639118084e-05,-0.00011426009322182937,7.820799150131834e-05,-7.495791546521113e-05,7.733822859625295e-06,-0.00019241190664802494,7.793413272260792e-05,3.1399133633239005e-05,-8.117367590598665e-05,1.5003240743799257e-05,-3.84691872862725e-05,6.64671698085301e-05,3.0480283876029427e-05
-0.000148012738570654,5.399111273100768e-05,3.7288543014818264e-05,-7.855963466020664e-05,-1.579109146036754e-06,4.456891098872325e-05,2.1498269727485403e-05,-8.095777226316507e-05,-8.979521325394717e-05,-0.00023925396928281228,-9.181988472332841e-05,-8.701634660139884e-05,0.00016807364398886164,0.0001609046580389142,3.024118761253849e-05,-1.0439831509255577e-05,-0.00013815181609477098,0.00016405939132417018,-6.415391030454886e-05,0.00013513255078834716,-3.4323268238101795e-06,-6.216419526934194e-05,-4.122432463036558e-08,-9.221793885111344e-05,2.667345889993634e-05,0.0002107466105739229,1.9922905427037256e-05,-7.1328826018991405e-06,7.637101190788232e-05,9.117971252310116e-05,8.034506668533163e-05,-6.253227141138393e-05
-1.5584152478928164e-05,-4.257794435367513e-05,-0.00011127023885633331,-6.07369769636749e-05,7.616734192776589e-05,0.00010040080760942141,-0.00013215202286418718,-7.819195328369941e-05,-3.7947228616307344e-05,5.596562762393503e-06,2.6905769859732462e-05,8.064689967431295e-05,9.552894743078866e-05,-0.00012906092845613312,0.00011969547217059997,-0.00018517588033423933,5.618884053776195e-05,-1.9149408642171976e-05,5.897227138500869e-05,7.0448949983709724e-06,8.798252123406374e-06,1.7845083924384883e-05,-1.7902238070384925e-05,-4.775690838192523e-06,-2.1946498814656118e-05,0.00016150108536176408,4.7238269558166035e-05,-2.395233357645119e-05,-1.2392624730439781e-05,2.4890090760038754e-05,0.00015924010661309837,-8.133532773619698e-05
-0.00013518804596002326,7.213560881106004e-05,2.9628367509552197e-05,0.00010212019863465792,-6.781985440562498e-05,5.399591233134757e-05,-0.0001750686561718785,7.462327407258716e-05,-0.0001363732200267168,-0.00013576346548001893,4.231511233378525e-05,8.334318141506772e-05,0.00010289104711325002,-5.270170059114056e-05,0.00019105561188402086,8.042471647226371e-05,-8.378532079638885e-05,-1.8268985481658536e-05,-8.801151377043784e-05,0.00024148052578126726,0.00012889980367561545,0.0001681593859452988,1.0653044935273475e-05,0.00010283628406577961,-2.8129073484948972e-05,1.9912321930764014e-05,2.414950302415205e-05,-0.00011448706724108492,-2.8710918848816256e-05,-1.4043237643867339e-05,8.21842611105384e-05,-8.737897361670964e-05
7.389466658296502e-05,-6.072389377746203e-05,-2.0778301093956062e-05,-0.00010728438275603274,4.73104017778811e-05,8.585084964974234e-05,8.76394840570333e-05,-3.527554490371711e-05,-0.00010615530331786456,-8.455426167507165e-06,-0.000256003578966601,-0.00012479613128987523,2.5243065793309777e-06,9.734333324488181e-05,7.200905895936214e-05,9.017927420235718e-05,0.00010412825908284927,-3.0201305898658443e-06,5.087623540967937e-05,2.731834461671944e-05,3.4532822458426506e-05,-0.00014610320640332514,-7.028348676738003e-05,-6.048728769325372e-05,-8.223132596938563e-05,-2.451785052169085e-05,-2.474515106286695e-05,-5.377755671296588e-05,-7.019684361756165e-05,-4.118073698166909e-05,-0.00013602922451695567,-0.00011239100835165097
0.00020582451259611287,-0.0001491647319367246,8.453987135669835e-05,6.48119755444074e-05,0.00011833169143409306,-9.647811023399262e-05,-7.764682204557341e-05,-0.0001719632796043263,-0.00018747958245108693,2.117077795175936e-05,-9.702564517904198e-06,-8.884351628814367e-06,3.497516495253289e-05,7.657293610652641e-05,4.742352116472311e-05,0.00012560845759398184,0.00010278842399122454,-8.683754002696848e-06,-2.7053413534460923e-05,0.0001645907683024296,-0.00011543610653416567,-1.0638101179157445e-05,5.800315807420057e-05,-5.3421612800399755e-05,5.694426160092176e-05,-4.761956851023697e-05,0.0001196792994880467,-4.839349230749664e-06,-9.745941499506546e-05,-2.9953586717319988e-05,-0.00016185549190940657,-0.00015067675945193467
-7.259341356857427e-05,2.3338897499176566e-05,4.782412350792112e-05,3.572521881348234e-05,-2.071355688853422e-05,-0.00014367618409742662,-3.718667006910031e-06,3.435870720824589e-05,-5.461240798825655e-05,0.00013833847449536997,-1.4807750995915929e-06,-4.597580928780392e-05,-1.0301987760289536e-06,9.843357529427867e-05,2.1878558744885323e-05,0.0001386061922216392,-7.598695877093698e-05,7.190707339485178e-06,-9.156676720044255e-05,-5.7554279823654446e-05,5.833871238434048e-05,0.0001218728474186795,-2.9668065245300903e-05,0.0001482432611121886,5.933075394167106e-05,-4.7657497332528676e-05,3.509097908938234e-05,-0.0001714287524347606,-3.828999677289257e-05,-5.066839845448206e-05,9.772373767353968e-05,-4.021314533861987e-05
-3.5859128459747305e-05,3.337587433626939e-05,3.173734081854369e-05,3.058197762719651e-05,-8.572675046897668e-08,-0.00017800440380323553,-1.1610978339949534e-05,-4.194102853990899e-05,-0.00021139541587200737,-5.059836667520791e-05,0.0001083778050636822,0.00016196546102752301,-6.868581676396753e-05,6.339878650988288e-06,-0.00012533498861765384,-4.485219181453703e-05,0.00013799546096836978,1.9930488511716387e-05,2.185524355672141e-05,-2.218700438222543e-05,-0.00011335968348364712,0.00014087905293680027,-0.00010205914966128606,-2.7747471495111388e-06,2.2005962836798646e-05,3.242823364494189e-05,-0.00016999329106909768,1.2650723012988646e-05,3.5042391667427624e-05,8.927770728361524e-05,-0.00012318438920733921,0.0001253536144751408
2.092131296888561e-05,-6.5440314425426574e-06,-9.740289450716418e-05,9.270818258781239e-05,-2.51065541717904e-05,-0.0002177188066163699,4.987250451586607e-05,7.700703679290666e-05,0.00012077084398893432,-7.612843605470691e-05,-2.1662282431691713e-06,-9.197834621923149e-05,9.42994140845381e-05,1.0869453976026732e-05,0.00012577952520663303,-0.00016927219161016002,9.42829000023215e-05,4.068300060884147e-05,4.1140416763930566e-05,9.775544583618562e-07,1.5708575066487115e-05,-0.0001716690292112677,0.00013780639413705663,-0.00020411337775194828,5.558354692684683e-05,-7.88874847860915e-05,-2.4571897444804454e-05,0.00010785571304114217,4.8557963319017874e-05,-7.380878330622046e-05,-0.00017332301319281034,0.00022064053581102118
-9.88828131151264e-05,1.645943946399388e-05,-9.023315145992085e-05,6.370457304142266e-05,-1.6746613856649853e-05,-0.00011859612500991526,-2.363056732409781e-05,-9.335152132429617e-06,5.300550281587899e-05,1.4351676209432653e-05,-9.126832447401501e-06,3.980852481550738e-05,7.230343713984818e-05,-0.00017645698443999352,3.7133122823966314e-05,-7.289283269643361e-05,-0.00010153324816196146,-3.106499675619492e-05,-0.00010668543264627753,-4.630870499585806e-05,-1.663667052774777e-05,-3.276757819057953e-05,-1.0355113363087968e-05,-0.00012841865483075957,2.477717356020635e-05,8.988705799309607e-05,-3.4345324823987414e-05,-3.555952020537876e-05,-6.818998307185745e-05,2.1451485245032952e-05,-2.307933697561462e-05,-2.4275862065803694e-05
-0.0002139096771003746,0.00013660293654238798,5.860439722875371e-05,1.5576662606192104e-05,-3.365219338273917e-05,2.0419288426607724e-05,0.00010576311786411401,7.044876306532866e-06,-0.0001062728665487811,-1.9988814618244038e-05,-8.77728537345631e-05,-6.828457039808514e-05,0.00013749285625730775,0.00022002063849956645,-8.245352220151836e-05,-0.000141072593332925,6.12334181184412e-05,-4.173696132154572e-05,-7.115514804153852e-05,-8.626054367029949e-05,-1.8479026585606524e-07,6.962963945863365e-05,2.441991495124683e-05,-7.273928580218682e-05,0.00019199155330161714,0.00020304848998925078,9.621352842101366e-05,8.842973734814562e-05,-1.5984995266311228e-05,2.4036173360987493e-05,5.372737135900359e-05,6.839393658983544e-05
1.8824020651868312e-05,-0.00013622835081024604,8.291555913625553e-05,8.00931251416464e-05,-0.00010789542107452702,-9.571753723164185e-05,0.00012846587862729302,0.00017545420856099537,-0.00022901861431628574,7.17725742271471e-06,0.00018220282227916193,-1.5279038403395587e-05,-7.827643891360886e-05,0.0001842638367142926,-1.7623836685285813e-05,7.429483584069148e-05,-5.4383492206992806e-05,2.288819605524141e-05,-1.7590597536802234e-05,0.00012934145807528538,1.0814727948962223e-05,0.00012052974294767902,7.384954169967848e-05,-0.00011767929286763006,5.9284079346026565e-05,-0.00012256717498614487,-0.00016321595634333187,-4.6380244950923795e-05,0.00012412208974993532,-0.0001256448886890075,1.6424511415572902e-05,2.8444767090819888e-05
-0.00010797227309598417,4.231978825169806e-05,-6.018653436784919e-05,0.00013887145604480795,0.0001786844145665194,-0.00010887005218590731,-9.374409418876175e-05,-0.00015073560562480913,2.1072556525747108e-05,-7.121926251517672e-05,4.073972638516341e-05,0.00020470542307556518,-0.00015182823305351386,-8.912226827815577e-05,-0.00020308467747724398,-0.00012628411757149984,-7.808619115582869e-05,-6.481297465242439e-05,-3.5202060842108234e-05,-0.00015073537903453413,7.637243965609165e-05,2.1845464538249744e-06,-1.7147314806815846e-05,-2.2815553727452983e-05,-6.57800865564616e-05,3.383014980332496e-05,3.0525081808593045e-05,7.978929121990018e-05,-4.376203975197263e-05,-6.378772364508104e-05,0.00011164467125330239,2.3693604371561306e-05
2.1441043446640762e-05,-0.000142628350407196,-1.6631454508610158e-05,-0.00017881435013413388,0.00013187354648067456,-9.443071050371826e-06,7.997006032608581e-05,-0.00014707954001015152,8.661518519729985e-06,6.377686350123705e-05,-8.513114903827137e-05,1.6999209488845512e-05,-6.389688332161908e-05,0.00019751035055013327,4.1640959990205515e-05,-4.438715355990302e-05,9.068151720222935e-06,-0.00010638626901631268,-0.0001748207437634924,-8.064589599582254e-05,5.0829154265672804e-05,-0.00015964606346559988,-3.1460145355262705e-05,-0.00021683046930664804,3.767300191460364e-05,-7.963621814421526e-05,-4.8835864492381146e-05,6.638827033908796e-05,-0.00014875213335844607,-0.00014769429453091333,-5.392635867679857e-05,7.584460195817024e-05
5.873804719817722e-05,5.152684585777151e-05,3.143224855694549e-05,-7.881919253507185e-05,5.819811603214759e-05,-6.876841854651466e-05,6.752333520869184e-05,7.741125761537258e-05,-5.5268159687816105e-05,0.0001099470695682876,5.073917056421534e-05,-8.972600682962172e-06,-9.283488649621125e-05,6.787917045845469e-06,6.701258582107796e-05,-0.00014699315384135417,3.579215593786588e-05,0.0001661313990910187,5.000364726699349e-05,7.796730970554987e-05,-0.00014559773778421688,-0.00020381106744915315,0.00013344288334459918,-3.6599380170134156e-05,2.0472341893812757e-05,-8.172914037889791e-05,-3.897193147577124e-05,0.00023009439901227143,-0.00015233054882317658,2.137622013524332e-06,0.00021719942365201278,9.452611211490155e-05
-0.0001325644804773126,-0.0001247878601120442,-8.215219209695244e-05,0.0001602581638084723,-3.4562116847529176e-05,0.00016487616719551625,-7.192583520785169e-05,2.5119177291841877e-05,7.577013671891909e-05,-0.00018385592093473924,4.783435824294915e-07,0.00012733646265636906,7.319106177035654e-05,1.6310633516661112e-05,8.464721551517181e-05,6.0239493739119804e-05,0.00011544285686988193,-4.24013106744556e-05,3.3677321263172745e-05,9.95388359745207e-05,-1.2798966669951244e-06,-1.0450454096896639e-05,2.8296726476704907e-06,2.674909536889898e-05,9.688091772570429e-05,1.3406702105134916e-05,2.0993762611279393e-05,-0.0002530834535000769,-1.972266649990257e-05,-9.281438208878437e-05,-2.9281695648416082e-05,-7.441917615318014e-06
8.061619865861097e-05,5.652044884841662e-05,-0.00017218327130684132,0.00015705484606757232,1.07728240884913e-05,-6.896746137478593e-05,-2.6140420541609247e-05,6.663254078474754e-05,0.00014457648437637714,-5.713346541733973e-05,4.3311591838642106e-05,-0.00014398586207270238,-0.00017545862308208425,3.912249202024375e-05,-0.000121220489930031,-1.7904734028117036e-05,-0.0001381114752279774,-0.00010844905961554594,4.713728708906442e-05,-0.00010084951207886866,3.9060469327669625e-05,0.0001934695058394923,0.00013072621237718873,7.828937566049201e-06,9.03651371296238e-05,-2.524281568671011e-05,0.00020512788627329994,0.00013213736300727772,0.00013521680225877817,3.336300339610968e-05,-9.999434519350099e-05,-0.0003462875188638942
8.349563796933495e-05,7.914903962959459e-05,0.00011337970914420028,-0.00015761171167433645,2.5548318978302495e-06,-8.840301518585187e-05,0.0001257914560435406,-6.905211114983341e-05,-5.2649791031574665e-05,-0.00016125601688747655,-3.606193421814181e-05,7.058634497758821e-05,-3.39195359373743e-05,-3.273150872867499e-05,0.00015185116361888002,-8.986660120424803e-05,-0.00010216884706875708,-6.399502691738602e-05,4.709614439077239e-05,-3.25763388801029e-05,4.543086673523589e-06,2.0839022121183173e-05,-2.123654268332348e-05,0.00010689032409928279,8.67847807032978e-06,-0.00013746895574746345,2.1394118492877544e-05,0.00011879718106027125,-4.5505338301960615e-05,3.2267648771538595e-05,-3.502300300391526e-05,-1.3485252046494167e-05
2.480457828245501e-05,-1.2282194412225798e-05,-0.00010953048502610683,5.484958204835192e-05,1.0927831581898498e-05,-6.98750593725544e-05,-1.674430120164697e-05,-5.026367046684198e-05,0.00010804675381628598,-0.00027445192724367186,-8.991209975505621e-05,-0.00012325022186427515,-0.00012040394492694934,-1.5363099466516473e-05,0.00021218874858157583,-0.0001563898912360228,-0.00010136355749853048,-0.00017968660810323907,3.4458366444423065e-05,0.00016458227531741663,-1.7317579494497524e-06,-9.853503961577751e-05,-3.773254107380051e-05,1.7530057862476397e-05,-0.00021602033296732587,2.6114642599121353e-05,-9.860260127241542e-05,5.2369572417701434e-05,-0.00010324589828412225,-1.058485754816861e-05,0.00011345376897677754,-0.00019218689114346252
6.010448256411249e-06,-4.77497123441907e-05,1.7191418657412383e-05,8.550055433104907e-05,1.98773968947861e-05,-0.00010243190000998735,3.5968322981233404e-05,-5.305050770505037e-05,1.648167196896915e-05,-0.00020535011984702253,4.864267934869264e-05,-0.0001532389580654157,3.1515614314918595e-05,3.770140978940377e-05,0.00019985539951461044,8.049245310686217e-05,3.588714950781324e-06,4.092707112363463e-05,-6.490202853073349e-05,-6.20560968133761e-05,-7.841724056696673e-05,-0.00010288630831640366,-0.00011503469806739075,-0.00011527943184411946,-0.00017688550074862686,8.053325403449755e-05,0.0001026912549963498,0.00013038086528837175,3.992186436853116e-05,-0.000128455923171068,-7.590173978118929e-05,7.646687171766567e-05
-2.4696322671461367e-05,7.960172408810209e-05,0.00017413362429915725,2.3342735115740525e-05,-0.00010269502301469884,-0.0002549341607579857,0.00010381613392228058,-3.5096327358338534e-05,3.923665078455643e-05,0.00024418541878655774,-2.541495476297031e-05,2.3231600993883808e-05,-9.075375526620262e-05,7.482424375772937e-05,9.130823464743068e-05,3.494917664479658e-05,3.423908535758779e-05,-9.756032769537041e-06,1.801629445809636e-05,-0.00019758595497040545,-0.00013069966601255212,4.766706494937366e-05,7.226455764851712e-05,-5.47404600095007e-05,5.438101831216471e-05,-0.00016137165820363873,-0.00013102917226218025,8.703208979673069e-06,-0.00025958478381062593,0.0001166234305441512,3.823423562445615e-05,6.349452746303909e-05
-6.820972260589084e-05,0.00013019833767631583,-0.0002912828041408189,3.733952243119587e-05,8.309434343574707e-06,-7.415512356733364e-05,-0.00012363665930034432,9.918449145587204e-05,-1.3575304193641498e-05,0.0001029107078136074,-1.9914587125522112e-05,-7.212878000722682e-05,9.454928869921122e-05,2.056637316055838e-06,0.00012459445044574197,-0.00014940405054129094,-4.1704735502248365e-05,9.811637483817552e-05,-3.3043377221634106e-05,0.00029354429311511494,1.664742453472428e-05,-0.00011326934168722207,-3.901488638979914e-05,5.083920972369702e-05,-4.325271471189204e-05,0.00023927814488988364,6.468140306053699e-05,0.00013153815909905427,-5.201095416298876e-05,-7.33598114431857e-05,4.9841084222104754e-05,0.00012769736668625763
-0.00012684164625006248,0.0002175741699158105,9.158554007208961e-05,-0.00022908514483308215,0.00020164128476174743,-0.0002981324743414089,-0.00015413921786073734,0.0001508195097981382,-3.738332832286835e-05,-6.617407531677123e-05,-0.00019213637090447194,-8.151306932815616e-05,-1.2886775280366876e-06,2.7406234050612355e-07,4.059849475529893e-05,2.695605669728335e-05,1.2974406335646618e-05,0.00012620274605744595,5.11619666631134e-05,-5.509944756288882e-05,-7.407456072732977e-05,-3.99411728777682e-06,-2.4014032954764606e-05,-3.439145822390267e-05,0.00017100224488954122,0.00015428652330233447,9.032531472673833e-06,-5.171954807790195e-05,-7.74791539955046e-05,-1.4020893706532617e-05,-0.0001475386352417539,0.00010176857305615214
-6.448020570347862e-05,-0.00025968679800677,-5.830945072673037e-05,1.3059846350822797e-05,0.0001485003963428063,-2.446435052537639e-05,0.00015534318707778163,9.953780763980298e-05,2.695438327175663e-05,7.433888332367743e-05,0.00023705324448964943,-5.2185497848321646e-05,-0.0001367430546320836,2.7102177658600107e-05,-0.00012892482121136235,4.4980146918841215e-05,9.533003369527576e-06,4.196825442523473e-05,0.00010041474357246074,3.263527409751542e-06,1.782571968874561e-05,5.54235383336917e-05,0.00023624581476467776,2.3689350099005128e-05,6.32921169658846e-05,1.8404776993972298e-05,0.00027311727747491676,-0.00030319373099584263,-1.4702506812992697e-05,0.00010594790506107493,-0.00013009443007860013,-6.262917809861214e-05
-4.2857521574635844e-05,5.184303548309565e-05,-7.479669988962125e-05,0.0001221900778423304,-3.5586952765447607e-05,-2.5411683740131832e-05,-0.00011728635392287965,-0.0001796701194462005,-0.00022248561234803463,-4.4338918171102335e-05,-0.00013690928205418212,-0.00020103312365249938,5.1004871946712805e-05,4.81768560151575e-05,-1.8853326144085667e-05,8.20008894521681e-05,-9.478290409820413e-05,9.937363829988476e-05,0.00013095726613878355,-6.713274647815738e-05,0.00016961340455664328,-0.00015140795297270086,-8.473943668412776e-05,-9.735463342816288e-05,0.00018740759212032836,-7.28097999972163e-05,-6.855174504046288e-06,-4.935691878676265e-05,6.579337293648884e-05,0.0001588328752608522,-8.461709608748476e-05,-1.7681293026928045e-05
-0.00012342344796083745,0.00021620506952492943,3.474429621250194e-05,-0.00011580687766239313,0.00014446414016712814,5.871331773616664e-05,9.000068682024489e-05,-0.0001097458532215203,0.0002939677683496356,-1.5030380544300066e-05,-0.00016552333922267994,8.211908040542966e-06,2.8489660857999988e-05,-0.00023100857722608935,-0.00020258146080522695,0.0002075321156388762,-3.663212961472949e-05,-4.35175158274607e-05,-9.467756558977813e-05,8.402226970270142e-05,5.7866923668478113e-05,-8.126310835186514e-05,-6.834629676848479e-05,0.0002772297810060142,2.02647773277884e-05,5.404843241616365e-05,-0.0001981542176938997,-1.0432230591826181e-05,9.592868567625835e-05,-0.00014548830282976822,-0.00010463218075656852,-5.69946188341163e-05
-0.00017541252553017372,-3.1458371233748416e-05,0.00012546980160438098,-4.859453659343123e-05,-7.4690444868916764e-06,-0.00020429188252351805,0.0001455178676548771,0.00016623014159380972,-1.0638160556314685e-05,0.00011005689530902828,4.464638490608381e-06,4.98194686179221e-05,-9.035286166567614e-06,5.925351428255558e-05,3.7295495021714207e-05,-0.00011481638193904072,1.560149036388342e-06,8.39958370226619e-06,-0.00013276325765139248,0.00010043601185888914,5.8312285242199584e-05,0.00011540511070143991,-5.649128720420845e-05,-0.0001386537607780484,2.4474635393540557e-05,0.00015602933354341185,-0.0001880408918240364,-5.196273485999369e-05,-0.0002926151068237962,0.00014203947672654125,-0.00011493776942084685,-4.897078443677655e-06
6.349305591858325e-06,-6.22282468073266e-05,-3.239009626755664e-07,0.00018368366561920222,-0.00010807706127239413,-3.381092502939091e-05,9.929037761265365e-05,3.3545065989937715e-05,-0.00010801967103002886,1.241940911578669e-05,0.00012631936209350978,1.6018292932102035e-05,0.00025917485006175296,-8.18178672996685e-06,-5.22405048904196e-06,8.961816486873173e-05,2.0260891567667647e-05,-0.00016213092290584002,-1.2012020779562408e-05,2.656306938373586e-05,0.00011944997996755056,-3.534284329657213e-05,0.00015828074193510085,1.2025670987051153e-05,1.2167381447718596e-05,7.144846092700544e-05,7.35465780731192e-05,-5.585226472632687e-05,1.8584496582437646e-05,-0.00020826377092948297,2.8210950506461058e-05,2.782060489612236e-05
-0.00010991952146285292,7.812542877737919e-06,-8.850393820388543e-05,4.614791978903254e-05,-6.865956837693014e-05,1.5185342540792054e-05,-6.879249969584545e-05,5.628076548940956e-05,-9.770929518764792e-06,-8.574572260652447e-06,0.00017990421090262752,1.053451187046303e-05,-0.00016765459200798839,5.335220832995114e-06,5.607051843981535e-05,-7.161620523406135e-05,2.2565781181950278e-05,0.000188343804878636,-1.0055214023738744e-05,-0.0001408489244536212,-0.00019594890322874306,-3.345849551175852e-05,-6.0149784891954493e-05,-4.6265433616274755e-05,-5.277105150964491e-05,-0.0001618537130952911,3.203091135790732e-05,-0.00010736648523055359,-2.8321596174617874e-05,-7.750256708799744e-05,0.00012701242504083063,2.3312164465365758e-05

hidden2_to_output:
0.05854077980754649
0.0002868137566186512
0.00020559902562207306
0.00032916107919249877
0.00011735411205260874
0.00031100313489636813
0.0004961634543698972
0.00039146914241830927
5.478010523628397e-05
0.00023022785818140214
-0.0001287615913864219
2.0001209843625156e-05
9.562167560737777e-05
-2.7725449312518608e-05
2.4722884584989227e-05
0.00019052515304039355
7.400405379092959e-05
3.4870522773865006e-05
5.862540334719348e-05
0.0003378313839028285
1.7642911158956006e-05
0.00039000775359786087
0.0004062669025640973
7.818984853656063e-05
0.00016654835739755925
0.00020917834189524724
0.00023204047182350467
0.00018248080473934108
7.140912762183767e-05
0.00021402534986834503
0.0002966771852664195
3.174246080666515e-05
0.0003690586145902058

