input_to_hidden1:
0.9969806713774022,1.0009294845125993,1.0010062411637068,1.0004693319246953,1.0023748922878177,0.9975793329189522,0.9996779956987184,1.0022976762991755,0.9986186574807261,1.0013734810694555,0.9981794575835398,1.0016507898268852,1.0019781699357688,1.002543821023689,1.0001418666303312,0.9998376412371301,0.9974488608269538,1.0002675794597642,0.9968593316589794,0.999233126326681,1.0015134876671283,1.0003012935813478,1.0043079380626958,1.0018199271097128,0.9997150670997897,1.0043423730620467,1.002371898108026,0.998144815507463,0.9997975094603027,0.99948378360439,0.9974795077688697,1.0031340030974045,1.0004897533884576,1.0010852795089187,0.9993102585809293,0.9994602494411252,0.9992456534696691,1.0013889824614095,1.0004227773526075,0.9984324223583605,1.000355272102477,0.9968735712813636,1.0038728581795824,0.9999860187990924,1.000440047237001,1.0010931641857208,0.9941978795047973,1.0003151456247694,1.0002054064326629,1.0023108209923637,0.9959323628662359,1.0004961049862056,1.0016781035157287,0.9992131467375132,0.9981218980461752,1.0023472913875118,1.0002505491801572,0.9999013874166898,0.999407422166288,1.0015267950615263,0.9991278600976755,1.000296539703513,1.0022556163801606,0.9998970862290472
-0.5008190328948783,-0.7598577195949447,-0.13683353524330036,0.46404024828036644,0.34210384274148886,0.5137353709349135,-0.2861747026413532,-0.58287939900621,0.43420553081092494,0.1546746186162009,0.08226100472197703,-0.20662792686303966,0.3317700514316602,0.1114485168885487,0.4376776421936583,-0.40421806007101596,-0.3965263596454298,-0.7554320111765778,-0.23848196505116726,-0.20831895639714235,-0.09573997866874477,-0.1996070484270115,0.09747207071650447,0.19009012213648838,-0.08936482854027168,0.18228303884671326,0.06447870244016701,-0.03579272143978396,0.325092199183716,0.6040671392006587,0.25208876029691196,-0.3641408117721825,-0.5697491721480656,0.15915958360344984,-0.4839933724401612,0.4948470328432357,-0.18721803705352819,0.4019960268375491,-0.29500978748263734,0.13031752603239732,-0.7312805685959463,0.46727566665297904,0.3380092966244917,0.8157175348319197,0.22264155907515776,0.18461019372666984,0.20550446530058034,-0.19445712520322075,-0.7387518612074407,0.4702167692058248,0.2149518845540795,-0.15733129650002398,-0.7896376278363374,0.8502358484653709,-0.060033916763744165,-0.0187263203285185,0.6818750382593685,-0.06273651600815303,0.04180374108480826,-0.10379769529887092,-0.036619877927324906,-0.020765503727525707,-0.010213486823508712,0.3127036082891837
0.7181489464799121,0.588636857012458,-0.025660103333374103,0.20084446791934776,0.7612637418851621,0.059341474469856874,0.17880782927500732,-0.31255350864421716,0.15816155720537184,0.5226043449778667,-0.18954123375973514,0.06943445348534193,-0.5127051490712988,0.3054222261605281,-0.8680811682326105,-0.4197874157955774,0.23250173221137765,-0.28290070332075606,0.6374619357307038,0.06385158460076203,0.42791087280752477,0.32434642932646157,-0.21892963752335615,-0.36547962183040594,0.8268676981014865,-0.09617181849363587,0.3413473736552689,0.14477017310490684,-0.676948388604085,-0.7189191460883746,0.6905554949737528,0.40123846601617186,-0.38212272434717404,-0.1412862173677173,0.18330476399096415,0.8261458992376234,-0.6503485621504063,-0.49354827404328644,-0.340197049577957,0.24792261024538728,-0.24871148382352165,-0.10945073210199525,0.2969858033474272,-0.6174581582936693,-0.08417142799713632,0.2247565537145406,0.23610916591597847,0.13942893966984551,-0.5826859119838783,-0.41404912444050773,0.26029086894572995,0.11367349911392378,0.1507193664340207,-0.20329247409727833,1.1708050209904568,0.48140905649114424,0.07300119393149974,-0.9164801394039576,-0.19838285494504493,0.23178647216321585,0.3229993145150581,-0.015500794669966496,0.22071030949623677,0.2040336751016825
0.5505417547198512,-0.6863976164681694,0.0847381707911312,0.24253901934568844,0.17210184926590952,0.06797737696285554,-0.46104022464732636,0.8457114071292836,0.2872024904309141,-0.24738699749088403,0.04635400125261545,-0.19226569985188136,0.12324639261267986,-0.578158905436077,0.5699206447660016,-0.016239328842756307,-0.4496842169079806,0.18858189359159686,0.6053578659962531,0.6154744475795948,-0.16759907320919856,-0.24920708932764285,0.89557277875161,-0.5973414238114799,0.47987623830647763,-0.37483186873497315,0.2911240904271251,-0.3064110603757076,-0.5577920570898701,0.10110197270171593,0.12390186016903722,0.4503520748945274,0.421468374549434,0.6360431622698773,0.33996076464090014,-0.7115789819558074,0.19528669470225826,0.0797197921524719,-0.1276857175675352,-0.6260926017859401,-1.1014732280316308,-0.5288455713251502,0.25359043319778385,-0.9465701482425227,-0.2799128406381758,-0.642272129763033,0.35612761221585476,0.5134814885900398,0.1419664524011262,0.03210558849827894,0.40442942651706404,-0.07742030481980701,0.060937261580415125,-0.36460349752183346,0.5100607061421052,-0.0487469326525677,0.33912085837230016,-0.02519833256947606,-0.15608914555186168,-0.29488225489901393,0.46395130321254113,0.0052091216185597995,-0.3219053035655588,0.4484026525273149
0.5165498958920155,-0.4192648894540748,0.062463360326752766,0.7605105202358912,0.11617513752596441,0.06685772334201692,0.43377305248534975,0.23088973455705591,0.1317354056202182,-0.25845229573343714,0.40551014208526676,0.6590284411397995,-0.25118317135313056,-0.20575276004000118,0.06996326549402854,0.25498293773058633,0.2281517324727827,0.029623411189913105,-0.2880897519701175,-0.3563498086534097,-0.8660673753389135,0.08982445472180013,0.07137531594757551,0.23986689618537882,0.6985170031892842,0.27584559848537704,0.47483568028262296,-0.23668931118615955,-0.3957339434242919,-0.39995622958419047,-0.05855128827249789,-0.19756159141927576,0.8465624702664482,0.7495741572824711,0.4177481847418173,0.12831126611250723,0.23002167343694566,0.21042102323941636,-0.07665579647515271,-0.13078318216484772,0.19726850017571956,0.10463551195837563,-0.07277248312604793,0.18657229443176548,0.1722311113713958,-0.21904666736302375,0.8109325065517563,0.2360533002950211,0.19204951684375457,0.0858811224033598,0.10303486057083328,-0.18650998937719818,0.37975400316975927,0.17295204539335948,-0.777187991789128,0.1981670692686803,-0.18184958711234256,-0.7630104776434221,0.11901731591012238,0.5377764461504254,-0.3120330530171249,-0.3968869886360508,0.22211406851607243,0.2737459223136887
-0.09356884932475414,-0.08619512645499552,0.09856317410056949,-0.1505655194656383,-1.1063298472541194,-0.22207254019167502,0.5227631848091353,0.5410856745344904,0.08861978013699921,0.6147444411487297,0.10986809093689102,0.39587793050107645,-0.20522209248532788,-0.451420960072605,-0.04137323531598736,0.5775566016475183,0.46017137326166335,0.38097351593891454,-0.1630098927944509,0.015933677405451003,-0.1845254043473816,0.6992461120441448,-0.19566643110752438,0.16932334030327661,-0.03488262104255851,0.02513532596460222,-0.0603119802378638,1.0353359477798347,0.06923095368929526,-0.5836525776585235,-0.5673453863162013,-0.07650132579996516,-0.6871066461013512,0.029827762412147102,0.296777117394364,-0.9848881325956181,0.41812973097991657,0.06919117731258996,0.32639756807134507,-0.17576774962241373,0.07946524857424722,-0.009208350293739433,0.21909619374985728,0.020611063658096694,0.05771214998618601,-0.6687904596757539,0.08575810056437658,0.5026708502126309,0.22268500899980864,-0.4447666156390402,-0.4320991200310991,-0.2710606930250669,0.027614456195736974,0.3878062938687097,0.17335207395338792,-0.4317440545282041,-0.25656465982666843,-0.6164673656917372,-0.00372147617100383,-0.6724345025026468,-0.49422904086291186,0.23340542290229596,-0.08289437944450423,0.06623819927212284
-0.2278275549735937,-0.8941051120487147,0.3054206854555121,-0.21930337466609076,-0.3467794236616984,0.04465832835464871,-0.23453081214007,-0.33906003334623225,0.3275795307748827,-0.16574727736329004,-0.6154416497596786,0.05516871196126988,0.15298591083972413,-0.011058198897471169,-0.3099356670458387,-0.5242921070794894,0.08064783772067595,0.0721216783451638,-0.3752776021878737,-0.6641260736748782,0.44322288651301633,0.020331883406355323,0.7036338047083379,-0.172518627828637,-0.6360375259759147,-0.08844982252853743,-0.48740577278746955,0.011465648299418424,-0.8603088140232004,0.448551439938046,-0.3817217451660035,-0.41106926034787844,-0.041590258841413714,0.3636605618543388,-0.3474467832282349,0.5681943936829554,-0.5211409349971641,0.11576503136520269,0.2531967575768946,-0.20921009284420253,0.2234886941456152,0.35558991001063417,-0.18084034655572365,-0.3295076338980382,-0.24906444601162342,-0.4626419420844375,-0.017486990087961157,0.009467209255576743,-0.0761657359041949,0.1975025454021573,-0.2884082907212823,0.8331412514302193,0.09371443400373947,0.1510145951899191,0.2478556226127888,-0.41700294351886824,-0.17063202950333223,0.2814125130429916,0.38061309403810106,0.49106092864468054,0.41051329513354623,-0.387856073613683,-0.37092215906682596,0.04209210122084791
0.24895346482505293,-0.7911356834813661,-0.29356561788777075,-0.7088224392987094,-0.41419699877328214,0.24672380492596382,-0.13665117038845873,-0.24492548062264574,-0.5620013876724751,0.15448158069548534,0.1540911430698817,0.43198970460737185,0.7431869764850872,0.34288654697928306,0.4911157160257059,0.35471850228786517,-0.007790206028541102,-0.5291415384576166,-0.10134383919511203,0.13577465149158127,0.22103316384839455,-0.0810516349184526,-0.019875660444724885,-0.13100675790672575,0.618329809293808,0.7693793114783852,0.11959896482739378,0.7409014928057914,0.5145122206494855,0.07757275129028846,0.5834723654106465,0.0057150162848711656,0.485133639728783,-0.27774586666554985,0.09635931356967978,0.9520856194524852,0.2850168387632267,-0.3180016551198951,0.14982052597848625,0.3958048142421187,-0.8293550883477423,0.5671275158163424,-0.4398626799312114,0.31258057398079786,0.00490796861991718,-0.3326785617111798,0.3311563285212353,-0.172440595805012,-0.24605549782760724,0.7515633448171628,0.1064164119301477,-0.538353999986444,0.16911122637087223,-0.5175819635697703,-0.009540542361108639,0.6019980295085711,0.7688212405206127,-0.6027162182272032,0.1783842709122889,0.10935497690881579,0.20458418867604783,0.07442999012452103,-0.053113042708930865,0.3804171167208679
0.06870065227594854,0.21685115648142536,0.4140409185694319,-0.27763422169005303,0.4665813287115672,0.463594929156556,0.18392863985252617,0.29666405865856127,-0.012964236255082664,-0.2924054995550463,0.31569402858253565,-0.16574727888445664,-0.1522485899818696,0.040703280904055957,-0.37392324866610754,0.42756860498631244,-0.15535946109259094,-0.2558174060440309,0.22429368963195168,0.07103978465067569,0.2868202258308421,0.02706343846401956,0.131154063420558,-0.4619871967465073,-0.06322165364873768,0.17813109722117595,0.051337787778501974,-0.11153740741979802,-0.0018063977934686744,-0.2159481002984498,0.5138403039273098,0.19182309807572,0.13863710440702537,0.2657400203349409,0.6438238953473752,0.461667974921831,-0.14358561798879263,0.3632688400914919,-0.20664014897795505,-0.07524895934217271,0.2717160024799589,-0.0959408360761216,0.0026393108101668613,-0.3248097973488677,-0.4336080023554654,-0.49301270635348005,-0.05597176360154957,0.23586895611409983,0.1257119713297225,-0.18722489052359004,0.14217543701416566,0.32734154417441025,-0.4599547125175331,-0.07326705405211914,-0.5485420859304889,0.4947809088438035,-0.41605651795608434,0.2298028343576759,0.03620331385981384,-0.18635879386759602,0.2632174905466398,0.2720144642333132,-0.3083909887928631,0.07037459865323084
0.2852864728080001,-0.055693251266829946,-0.46572269189093146,0.013563868944856087,-0.43374464538331176,0.002371007441030033,-0.08156648888279601,0.28552296606111877,-0.5862830230496091,0.36270197239973856,-0.5239779128260736,0.3913774729751258,0.07719955833085794,-0.5835373774559635,0.6004527558877647,0.35723156002436085,-0.4948458895128111,0.38681425522266244,0.2874538645942398,-0.498267366560935,-0.29794660056744354,0.3668846044752887,-0.03477325822889204,-0.1113452807984027,0.6743799637902855,0.557103924613605,0.49538293446348486,-0.2712039578682163,0.2715999435020973,0.30659177682445454,0.30293802480344173,-0.06426016337011242,-0.397096747399149,-0.2053272962930256,-0.05644338830340473,0.13898420842563736,0.012875975892930902,0.001156582874925565,-0.4864229108429309,0.7006813378976842,0.26557535456881887,-0.1947931307029225,0.24321962291848453,-0.16094462970789006,0.1660445748970133,0.37185057235803654,1.095514156639812,-0.2785008353737809,-0.01062496112639314,-0.02318753057250875,0.20587044058369425,-0.3850275088492287,0.025969991615451674,0.10040978142294293,-0.04319683490232123,0.3459483942667582,0.05175754075475439,-0.022739645549948288,-0.18842697676733536,-0.3541912032016958,0.5676189376675314,0.8888542660725471,0.29614888171588194,0.45748534702986876
-0.3112805926537044,-0.0170539119043076,0.6144803190136068,0.2662302862052078,0.04302933604119021,0.05577949526135718,-0.5316381411262863,-0.17897036454918902,-0.023874650257181346,0.4260837003370633,-0.41504602341078906,0.39360185588338276,0.4552490645167361,-0.2499051941232661,-0.3284892944828602,0.021314287152860704,0.37038545367845727,0.1260446225598899,0.14501429597278495,0.20183172016865641,-0.20814082564430214,-0.41261532494638653,0.06293063270359936,-0.158554215396091,-0.2699141098249056,-0.3759103877307201,-0.5996240094598938,-0.24953049211049314,-0.08378005722438232,-0.13153129960212132,-0.4460816749197276,-0.23773010118317248,0.702672769797738,-0.5448779533457293,0.18709118377756925,0.2289836687032051,-0.6543625884117321,-0.057232593135942686,-0.40590505745021166,-0.3036764883244973,-0.4180715069372564,-0.20358356485953338,0.30145061920624655,0.4627971164530521,-0.6702460235020493,-0.22496312217434966,-0.690742466394271,-0.04521321818849075,0.3422722057479544,0.19543323991492,-0.5249892279310088,0.0913229711590229,-0.42560149674616043,0.17951357262786677,-0.420627071045698,0.3615286362004307,-0.6547091506726659,-0.18950715982853125,-0.6903228586423961,0.44268972266775314,-0.15675388617506017,-0.18454740383271429,0.3648581824789828,1.292480888254874
-0.3887618263244371,0.6256631094636849,0.7339978630094935,0.48344464871259935,0.4857481757627247,-0.5903157543372255,-0.14198991481115475,0.39130639905101716,0.14419153693509631,-0.4101102504952035,0.13780251367600405,0.1728341346472672,0.27886872738101276,-0.7256001113439944,0.043836098854371924,0.18220589623821953,0.17398177324842465,-0.26499227171928663,0.19430996779676502,-0.29308608076939136,-0.03812755117067381,0.5227301272080231,0.3359031061512735,0.47963056207210203,-0.16775721465223956,-0.10075060806649047,0.25645117933033634,0.6443490167769378,-0.5992089828585234,-0.1354625068345097,-0.7302965225318097,0.4586398647896539,-0.20090988477994348,-0.3296019755194996,0.15590829715567808,0.8227067613858486,-0.5988830465417879,0.491982190219839,-0.6240081103604936,-0.23738933537963905,0.018750214999461265,0.7271779431288553,-0.30749421076491545,-0.463775232551744,0.04433563744864856,-0.5449135061377627,-0.1444896892087774,-0.10105607142484338,0.09602962242099865,-0.5981995248772504,-0.030184816089211676,-0.1478784235264253,-0.23552617512371377,-0.008958044444389069,0.35938703776830827,-1.1076094447759344,-0.17673420957539077,0.17556358004935088,-0.5861173021517081,-0.22559490519072822,0.3052789973076164,0.11902882233196885,-0.606051693861635,-0.15475416426999253
-0.2508174265428824,-0.1915763488677945,-0.35020905127906077,0.6490916838760538,0.6023566219727366,0.8011246499925746,-0.12574751631561365,0.019562209983616703,0.10189772907241026,0.33823687691088133,0.13198023901677727,-0.5274966312939423,-0.3490031842773865,-0.15041823845476224,-0.435193540762002,-0.6563624097902819,0.053805986096440925,-0.10206570252296494,0.4347358337767403,0.37656903312664364,-0.06939197554974477,-0.3586293794605828,-0.4849686051377713,0.7745180584677258,0.40643479306923935,0.20024491541424436,0.11896457266837486,-0.05986224328406429,-0.030773509897022287,0.11196418498454999,-0.6286330379363019,0.9237956327762231,-0.1488368985795888,0.13315196070743,-0.43366922326688295,-0.49688411121060444,-0.08870866248978343,0.688817442864742,-0.6001954707110227,-0.129930732089498,0.12211929310763019,0.5930239243279211,-0.12405854515597192,-0.07511528760177559,-0.1671740184805074,-0.02030119362445812,-0.5698180350941162,-0.35747392036588127,-0.6737872616789864,0.05124840563844429,-0.5140733050268809,0.2769219350836082,-0.3322275549635008,0.9203619526276714,0.17643208538400285,-0.315387438832892,-0.1429049783486719,-0.02131435043953093,-0.4471267148594994,0.22790266133815532,-0.5245112628688983,0.035383972345844464,-0.49848889562882154,-0.577385562383174
0.13376353006028616,0.19550852106673142,-0.16238642132531123,-0.5073323761176293,0.3516268290044979,-0.177451931163098,-0.4343803077516335,-0.18807020690485815,0.24231811866071964,0.6695002191690125,0.4750576659891362,0.27389207435141266,-0.2147467990809055,-0.26701631213139576,0.31558269989629295,0.38243968697317154,0.3971866260427527,-0.0772793440809426,0.25672960632465175,-0.4730662564728647,-0.5774185849270383,-0.38238685894199465,0.29558274511097776,-0.5059090279735703,0.43184765363541217,0.06026532812315262,0.27100425393033517,0.2091535396898585,-0.09562372845935814,-0.4838667112688528,-0.2984152062176145,0.32218323191627385,0.18655256039840015,0.24867297543558892,0.43735521998891996,0.32822619553781823,0.17061440623382007,-0.32267857606500283,-0.09341582311238554,-0.061520507292868794,0.513326950317908,-0.12683603009014027,0.27933786622659046,0.33916920095082276,0.14791971393483794,-0.11808167329369118,-0.29434470915911376,0.05421737978185422,-0.8176886022155742,0.12699172086592406,-0.7112012767016783,-0.060030462233371065,0.15306173487974947,-0.2234016279140776,0.35142822598819545,0.07687994820208416,0.47745103983224063,-0.21795161652519648,0.46882001656843436,0.6605627326710923,0.07807679519038158,0.13121782624057718,-0.2569224163265572,-0.3787585691767789

hidden1_to_hidden2:
0.9999987128873421,1.0012620883231151,0.9995435126189414,0.9998602968238811,0.9990544218077145,1.0000561617430828,0.9984934345428368,0.9963506824383196,1.0052679465330907,0.9997411880325943,1.0008678935903805,0.9999560270989992,1.0,0.998052254360737,0.9995034557047996,1.0004262071255865,1.0018948399787673,1.0052387996905703,0.9980908987744505,1.0001984119429805,1.0002302663185112,1.0006263473699222,1.002101689058634,0.9989694232916694,1.0010956199741496,0.9990990501166774,0.9991468875793847,1.0,1.0,1.0028512819114268,0.9967293734615796,1.0021295624169029
0.06524421474103105,-0.3318026058797941,-0.15213251121411822,0.06905621974222913,0.1457324900047156,0.02191465510044372,-0.22588766239309788,0.13835241713782395,-0.09110224750830374,-0.04643280582066999,-0.05449319438108451,-0.043112941139220234,-0.2211864573570984,0.11499064679285598,0.014895776003667338,-0.2506436689644173,0.03609248756189422,-0.10304923689277053,0.11819553696894279,0.1674876233760964,0.3419694252300491,-0.1038018678514308,-0.14973113310590144,0.166029849983443,0.21826362564712332,-0.049709688501445935,-0.26321789485657887,0.17203606657818024,-0.021874422289610798,-0.23467929706539942,0.00699756314055128,-0.0857471407592024
-0.019051299279232794,0.0638011006308482,0.30656371470052296,-0.1759600376126137,0.19262091516962812,0.24735799950008114,-0.21484214580876923,0.17754170411615325,0.13501003362103736,-0.12099318123237572,0.4901628185927261,-0.3429792256895314,0.04401207000423559,-0.21944005739596567,-0.23249676416056883,-0.0669875067956168,-0.0917678048166108,0.06953861034217373,-0.1440971498082325,0.30682512795247446,0.14491715749228437,-0.03512253519855133,0.006929852984617903,0.05780574029802503,0.006415755254019068,0.03345755972884161,-0.20731891102692476,0.08804179111581735,-0.2683600345750503,-0.10334419361813503,-0.24178798009822755,0.1442690476907964
0.12962249803966952,0.14553499979119663,0.3122772804579099,0.055376415449858385,0.09459961882618792,-0.0925263810835448,0.1348131653771213,-0.3017454789883588,-0.2164060822754767,-0.298177903446943,0.1061077934307864,0.06275931915020375,0.1427617909622315,-0.0651312400576317,-0.017880492949919783,-0.004082744835914226,-0.10587550067589241,0.10157942240079666,-0.05797390331094087,0.08334361480214575,-0.15947280314214943,-0.046599838297369314,0.12118490170610334,0.27974530495990385,-0.003857426559711462,0.15540749188445305,-0.15977806752890641,-0.0006506558278565601,0.15243068524239425,0.38585050291636563,0.041321524382746916,-0.08272556994085839
-0.07710184188569179,-0.06267367686048976,0.11149300124467683,0.27107639656326016,0.030537937262851204,0.2794109684125592,0.0851509304414269,0.15323366300951174,-0.12564959570008177,-0.2811299684919843,-0.1644139366487227,0.01630498194744778,-0.22153032640681528,-0.32099715388314515,0.030554846375110422,0.029669338187601698,-0.12302125936195278,0.3285025855973677,0.009907720371740727,0.23203744102468693,0.23458125634339658,-0.03477014672696338,0.16015335611189427,-0.10550175729798593,0.0716963490772475,0.04847391426599827,-0.10645401826629612,-0.3534119758165629,-0.014860700762791562,-0.2589974295168689,-0.04295734412351873,0.01456142293062957
-0.264706976021874,-0.17319150237547662,0.26541803488814875,-0.18261017741270227,0.11343631264585555,0.04620033468030989,0.42544368068971966,0.3636612514327251,0.2187382817621515,0.18279642867835696,-0.016584082157849983,-0.10712263000845162,-0.023507051855614972,-0.0663210275843808,-0.11738282237348906,-0.05919943633124651,0.2875930090142827,0.44506801030462456,-0.22489045540286343,-0.049368529875477796,-0.159223168592133,-0.10486827141050147,-0.21166255116440408,-0.18732804335386138,0.15272764681975143,0.09141145781878193,-0.07788836850349143,0.20877431975890437,-0.19325668386947698,-0.009020493009254449,-0.11289932279323965,0.09827948017153962
-0.13378774500723506,-0.13280238331978644,-0.013363642909770752,0.1352135384972067,0.2999777556332963,-0.01708557760329098,-0.2681815987017404,0.34429530015373866,-0.14006741790533397,-0.20234008289416566,-0.18749662762635855,-0.033840202534127554,-0.18988373625687033,0.09710168895085106,-0.025882674126028463,-0.15277422815530334,-0.13215821792031435,0.13008238631444438,-0.05990566259542341,0.16205520668604556,0.21471085378633012,0.1605160230882173,-0.2353637166882314,0.27117218436702256,0.2904839823171308,0.20914346715923304,0.10428652639402654,-0.07363665287039675,-0.22591218936277518,-0.12560312530008302,-0.2608833098939102,-0.18822514786379024
0.12226733031451084,-0.11929959234794668,0.517703666565535,0.034998378868449885,0.24107062172599372,-0.10778031676853086,0.181288741381223,0.13352070639870123,0.014220431612144757,0.02760353631439461,-0.14393016369413705,-0.13041106200395522,-0.07707327833970613,-0.13843652104572138,-0.20251496476067277,-0.03941370206056083,-0.027533887748006886,0.17633946424974684,0.09022468803482313,0.039211533560508556,0.025884182861446486,-0.2648731499662951,0.058586876016130704,-0.16367310708848837,0.29961032638120344,-0.06196346631288161,0.088092024341963,-0.016677929131878398,0.042586980197215595,-0.07020063105733455,0.01896223338465387,-0.1162023173695347
0.2302320337836124,0.2636269185504045,-0.1038844991500392,-0.2774358528918378,-0.26861696736728413,-0.025593786631462175,-0.04971707534245118,0.004497250423243207,0.23182827777351284,0.004071789259471053,0.08433316743802263,-0.15135260210354032,0.09456410370048254,-0.06246842774993017,0.18568895096050264,-0.06902283311423645,0.3146540951921513,-0.04555091313173563,0.10757120519344382,0.00851098932510688,0.07161710060237439,-0.20857767329656146,0.09563150911911453,-0.07648617648425012,-0.10958356942841165,0.3329827110929574,-0.13704243083653672,-0.08089900312246051,-0.03074480802009099,0.0035140544963455375,-0.07499330043489187,0.05379107371190883
-0.18311019163163056,-0.06624211350572512,0.007123696144303869,-0.13574435160699466,0.15737038072817783,0.09342978423703463,-0.18901336083053696,0.05271017215543416,0.2835445671814828,0.09719979287144997,0.03344119242463652,0.0826683350413623,0.08899486887558065,-0.22678628796547007,-0.0723850288417146,-0.07829443860667328,0.21365000616122615,-0.4376137979152432,0.24883561473922244,-0.02585756799939259,-0.20077024585029066,-0.2825005491750552,0.11746651018935995,-0.017766751563182404,-0.09385083666083999,0.37887839285167413,-0.024411700773957885,-0.16982439054490386,-0.13270005157543882,-0.17535994181860293,0.049528151997036175,0.13473896360822524
0.12993575156912046,-0.21428334909355296,0.00877998331412061,-0.2382395718037076,-0.3602419640593451,-0.015279661563978425,0.17059480667623178,0.01125784015992307,0.02254081386847623,0.15390824092260075,0.012075175782998042,-0.07462141568620541,0.13683679224536213,0.14106602458586326,-0.1276999274042212,0.1283352876803951,0.09331666573871697,0.022612739843441552,-0.3773658397977913,0.1300316243627888,-0.10307628066375543,-0.025307340672502895,0.4001680016895085,0.06945354614759586,-0.1035732806314986,0.14154547618774332,-0.07683670311018362,-0.32852398891560003,-0.12049473246878026,0.30729906299652715,0.1795361748819059,-0.07218238096205226
-0.23989683552723992,-0.0006130030334976114,0.026653421758015796,0.01767653002129254,0.05659192746934957,-0.01633913050677501,-0.2865732679213952,-0.11404059308531883,-0.21787314687504578,-0.19020254156361732,0.14758298212261536,-0.006325297958789595,-0.2082038609385896,0.15898590004293925,0.15573668667200619,-0.0006069580133578233,0.27909312625183974,-0.09500855836788245,-0.28011241994577507,0.16754684549986062,-0.1602944291780084,0.02194060001121395,-0.06047758191052616,0.2187629924291484,0.3026059390795201,-0.06380532856957424,0.07210250865789403,-0.08213272229407911,-0.3251330749772397,-0.29108125785875727,0.15880952174121277,-0.2511619105354301
-0.18740003798906574,-0.06516278029946054,-0.06387036477298183,0.22185193811492307,-0.11055543586256038,-0.05703581614447393,-0.2982804671366001,-0.06494692600672874,0.025356916103779013,0.23179441330537376,0.12091569160735827,-0.29924740711910847,0.02055653455521615,0.12260368121554766,-0.026331924660280594,-0.04230262970992583,-0.09583368308292846,0.09304486761765506,-0.01011029143322258,0.2292199335539312,0.185473722233118,0.13584675198501736,0.07671477345004728,0.08057194265999001,0.05871783076012755,-0.28046423919868524,-0.2668444115469236,-0.09466152554504585,-0.2688355252768121,-0.16908024760511203,-0.31578469071529464,-0.27234346245751
0.20441789078322561,-0.12043608667613062,-0.30627942972116545,0.11504441349759591,0.11109484111498835,0.11813576517487516,0.3570194208170014,-0.018575294591556255,0.10644934906238565,-0.13103203129452165,-0.17440489343867033,0.060297465178010844,-0.01576848700399893,-0.17951458249100202,0.1001774104521499,0.11742555797561535,0.3047886388797791,0.3151466796170486,-0.015072385836946806,-0.08484458885978327,0.2815636598188312,0.22418526261224597,0.15600711923925614,0.1711783529159868,0.003085502367881319,0.04926102121255697,-0.08622141437535753,-0.10627494090696663,-0.3200707150772182,-0.18316420757438692,-0.007150293739666513,-0.11986806337306427
-0.1398061927524045,0.18147552454081275,-0.23872181506526152,-0.43575789450395247,-0.2795270983210477,0.03583340020982164,-0.038387020505818166,-0.21605752993673813,0.2579882970139213,-0.10895706812514314,-0.17175540681842566,-0.15454885599710141,0.1441632167065596,0.24098083229598088,0.022673688421956932,-0.21955453968313643,-0.11551360137569855,0.09967597945546045,-0.1795993335505901,0.06015080807276541,-0.001731698244088848,-0.054926586576501533,-0.10155013471278485,-0.022433689695656536,0.05769425852641932,0.047559931696565284,-0.5203561105291158,0.08827619833221542,-0.12589118868618862,0.22428585762899092,-0.164881176830344,-0.17939867618840924
0.6424033565199025,-0.2081655447812719,0.19733409020671397,-0.16903499803598104,0.0004742648750199581,0.03473775663687856,-0.23660053231647016,0.37788525408334667,0.29640036575501166,0.1244220584641587,0.2287201190834462,-0.0921575323803187,0.17579980445001034,-0.09883765873045373,-0.06723913549508004,0.2450460464759748,-0.06441485779130694,0.003156999434038575,-0.04592567462702975,-0.11003572853699069,0.018038291492260057,0.20716797790689956,-0.20728493184372707,-0.01498883693427425,-0.12778018475658492,0.16882630173640703,0.011924434675813556,-0.1074396510033231,-0.01393958884361515,0.0332959992524658,0.030461537953290416,0.06753289034143475
-0.1478951408507493,0.10869749246168069,0.3403631625954096,0.11646334347986043,0.13264900307144145,-0.20945994445414778,-0.006042228264927817,0.05179365723578103,0.16803697518942345,-0.21523740321012094,0.1311273123056745,0.1778256393632218,-0.06597386104046851,0.04556851860459929,-0.10620520724424795,-0.13582954747573697,-0.2342061890281481,-0.14558427860644782,0.29148362890816465,-0.13511304600137655,-0.0036257710587328943,-0.12035804081576502,0.1977876083014425,-0.26372986238960117,0.4532994855092483,-0.17119270453028718,0.07830071021218876,-0.00942535522241956,-0.0871443030647616,0.0002509589893405996,-0.024877354060331806,-0.08511342748786037
-0.04882324404773574,-0.21063304279160613,0.15767286636403657,-0.3043323811289872,-0.16749704532527376,0.18402407513146388,0.172350500436405,-0.028600430979601795,-0.14544972609188828,-0.11470815915307868,0.18563899378208387,0.037787332057851064,-0.1409260623094448,-0.14221385113400836,0.08267843637249721,-0.16108499185057584,0.4008410560574041,-0.23936981384123363,0.3599622643425659,0.033330749956451446,-0.09044113680882222,0.23693823117553178,0.12834301861813685,0.10054026364085111,-0.15292541184350947,0.1953588045826984,0.4438142321113987,-0.17143343489106733,0.026832861070654985,-0.04526271829639994,0.2851933774022521,0.15486216760896315
0.09815919316447991,-0.354745042353445,0.08762612038208185,-0.2030483354333411,-0.09760549173004358,0.0987608792899359,-0.3133050086055406,-0.25381053509187423,-0.009269436918453723,0.05554512448850998,0.2764838186633953,0.23080841209402145,0.14036182382308404,-0.22516414060129109,0.11724081284053159,0.13896046758830913,-0.03514862300362941,0.08004575513945787,0.10751803246916625,-0.08453249198737281,0.030528513649098143,-0.23468349489646312,0.034377486777180916,0.021013383112365946,0.1125986794811866,0.24841284850557646,-0.10171881841875277,-0.12424554497921908,0.2144542135369075,-0.005858015978049158,0.2635256294056731,-0.20943131899586265
-0.08149868160006497,5.716132444872248e-05,-0.07492502267338952,0.14963174578607605,-0.048983236069148166,0.13825233419746397,-0.030767195217399776,-0.06721647744197187,-0.11660185207240865,-0.08183726735578514,0.01754961880909267,-0.06395202733106067,-0.03044113925503037,-0.13494732143776775,0.07792240709920462,0.11868060006312832,-0.09112795627377186,-0.06733452537602715,-0.0111130515075607,0.06203777398255516,-0.12026295266799365,-0.3424285799376415,-0.11205057629821254,0.1503720742225655,-0.17049266677608374,0.12675966840616953,0.23611979161407637,0.053965666530452844,0.03308875028095557,-0.2833780376753607,0.3225725263102156,0.18044183327440783
0.069028169104256,-0.02270354065913493,-0.016013357254451036,0.08853838582209506,0.3125452712161913,0.2294850542395618,-0.14707441720245118,0.14827066525289545,0.2694851301694175,-0.15559765064845776,-0.13989016339540036,-0.05692540954984576,-0.22932235450622734,0.0254645347971211,0.3070390058517541,-0.4483719769702654,0.020623839612687732,-0.2569410553639746,-0.20192118939137654,-0.018951303918688763,-0.03643163070257052,-0.26657230255311765,-0.09617512253850183,0.0585054018250423,0.26194070642651274,0.17609513969951868,-0.07735209521344462,0.06048073475427221,0.25538766396450985,-0.13815546024657882,-0.16588914620376957,-0.14731980078575466
0.23254312899668522,-0.05115881480352012,0.41740239936203694,0.2873334966732022,0.00330405557884524,-0.18517626776976215,-0.0470046669258062,0.05729407456396598,0.061615248795694744,0.227156107865305,-0.18771573380199344,-0.11609608472844705,-0.18620154232505715,-0.3554143052648026,-0.028168583948491296,-0.15567399793862985,-0.057975966460539125,0.16277076025662918,-0.22742441488742818,-0.18158649315026493,0.13860324714139474,0.11510893823187256,0.12669750529554297,0.30118679217988076,-0.028232370295383814,0.007028844930842623,0.21823775026129352,0.04469639840077021,-0.17485902190939867,-0.06764663823540254,0.039613032833338335,0.42014904407413334
0.08709670703439092,0.011734117486758604,-0.07299386050518461,0.15212952537764296,-0.044793436431647855,-0.01699636286039095,-0.00919026847450818,-0.05910892849168883,-0.2158329923622012,0.12829818671494356,0.20088058183278942,-0.06561443454627497,-0.20860326164845314,0.12907905072700515,0.07393488485882062,-0.3452906332933233,0.032585866378461247,-0.07356827159395674,-0.13547246707893731,-0.19532084971916083,0.16649958126133257,0.17191026453226643,0.08902189265076663,-0.13420263706956745,0.12648309981920802,-0.052272424632090746,-0.37786697115857176,-0.260759578202997,-0.31415622369498963,-0.17567634693681228,-0.34454096323357697,0.0594962648232667
-0.18245143874141745,0.2659763617792143,-0.12365227525374389,0.11805356983325448,-0.18007286136202477,0.14419232869176934,-0.12664181083917683,-0.011940234372272818,0.22067516065558532,-0.31036839940191957,0.07586261514318214,0.012917260040430398,-0.10149994066395214,-0.07662987184017432,0.09075475143775424,-0.047693796844208505,0.28171612448350725,0.3284846859218025,-0.12785806824987817,-0.1770199893010237,0.06951463739773607,0.1283532741112834,0.08121156909221025,0.10095080721342163,-0.1335983721240509,-0.33879861293771885,0.1694192775342451,-0.17494900045136244,-0.026816513494194935,-0.009754203528957464,0.07754533841968608,-0.059538906165038104
0.3229171492607355,0.2000650298122702,0.08972443917362448,0.18509850795733368,0.08878897393726011,0.18220997895963656,-0.04628366119214908,-0.04023444075755028,-0.07352792540179855,0.20479981693785695,-0.2806452258819579,-0.1640779535261251,0.0492903105205548,-0.13586308130609198,-0.2567489830721414,0.07739254951225648,-0.11902351997975286,0.3971706781974747,0.041085080411293294,-0.24919137591523247,0.062241531721084604,-0.0869061180865044,0.10411504848089125,0.15924803935802678,0.22882404148369567,-0.12588477739895967,-0.06516342449934055,0.20966961004754212,-0.30972852176824545,0.2516542516946252,0.16375988157466648,-0.058382028105822124
0.3221882627769369,0.2701000681119703,0.05046278432488254,-0.0005663742436825625,0.14879574271068577,-0.056214211546049705,0.0991552011280684,0.09534652717427312,0.0893117790632717,-0.05332311367271451,0.05794339811483334,-0.05289340127929972,-0.05393164231276077,-0.0717806525120955,0.0016651696359253963,-0.005233077657242117,-0.12101955949740595,-0.017464586737411712,-0.0013416082358086293,-0.0365090488200385,-0.12477060090243623,0.15574693055216293,-0.295930285912824,-0.3464777601976152,0.0606917870266283,-0.09896630474591016,0.06966796346723104,0.07870937243756819,0.025272045283951914,-0.04322918743977628,0.0841582833715537,0.14701965299024328
0.02442734792272882,0.40036146661266364,0.037576916597900786,0.20965370326236363,0.03776631694676999,0.3225222380904127,-0.008020890978583719,-0.10378771410202707,0.28931088565649843,0.40690821075875333,-0.08614931861587273,-0.11730860713598595,0.20663576862713082,0.0312679574095011,0.06435957566090487,0.10399099853940989,0.355241899947156,-0.0512009834126246,-0.005096233507515797,0.001333573375077359,0.039246217440097306,0.01460555936015562,-0.008708974682326417,-0.2233606402303891,0.13914560993298827,-0.060242555595641345,-0.46416293326868646,0.15586654935816802,0.0014936800830380613,-0.0731971397993076,-0.214777820736267,0.2878671803522565
0.3320600208669666,0.17211745962679434,0.14473140968539414,0.03780027893138769,0.2799756973934807,0.1892266339085479,0.35971100643020076,0.18828992508722728,0.11644912344855404,0.1707084475787421,-0.19823726817859366,0.183759328024966,-0.16770490723981737,-0.03551173368952064,-0.18703497611968298,0.031075480825376978,0.3385816821931448,0.039848750692862075,0.13229876180426656,0.12653432559213876,-0.12792159448425766,-0.044026868930222084,0.2478058836638074,-0.300244315168514,0.15968610723921087,-0.16086109105652638,-0.3887613913108976,-0.07410061078355586,0.12872797959584598,0.10296343398389467,-0.0747419002405612,0.30685677037355774
0.17781768814806762,-0.16147287829699566,-0.20776439231429245,0.1793678331920959,0.31368405000197047,0.11408488598055413,0.055244320746526604,0.155038476807819,-0.03892772675997663,0.2814050784440148,0.1413710605365913,0.16384135874528033,-0.03995816012472331,0.04005800938946239,-0.04779658569059276,-0.1036372023836991,0.09925732653734348,-0.3638930068084671,0.03937911631726569,-0.17685555187646038,0.1436211341854732,-0.12665662322374607,0.16572492698691846,-0.03313474126747105,0.13199750506353308,-0.411494307547547,-0.051506783160476965,0.04576021070763748,-0.19888314020491554,-0.1541556291723734,-0.18021106837065173,0.15294635540217955
0.25465740406088183,0.24202875246795438,-0.1393618752746681,-0.1637468332157318,-0.02358995068722948,0.15073193301373428,0.020565817032079263,-0.20175864676805447,0.1572315416491927,-0.3696735657422113,0.25470631057132936,0.11419496478044394,-0.06388466325010744,0.23813891877736984,-0.27704759223088377,0.007933848789912115,-0.13477809842058058,-0.23388672266085736,0.27123288960704145,-0.20983198674347625,-0.14962046995233044,0.20251381604525726,0.07100074809003498,-0.27999749037918864,-0.058434665969867905,0.2115276664625776,-0.04428077451160067,0.34186619495424575,0.1135555289421597,-0.03476558614731605,0.2074507022548677,0.14437772091648007
-0.23512651824749625,-0.23983490448820835,0.07377302787157552,0.04554907211370265,0.23233509836457755,-0.3530550245731142,0.06431290653428927,-0.08186353720425384,-0.14106315578556336,-0.2660324780561679,0.04560752097044545,0.13549307924124415,-0.024597037141648022,0.08227827124543506,-0.06396327287380299,-0.03079783322639331,-0.07158429833329966,0.27020711826864735,0.06588023949940189,-0.0911084043795267,0.243868565688752,-0.19260245797806566,0.02094252284727421,0.19828299449571463,0.34280203880855253,-0.06598895244698681,-0.29287830103538987,-0.048203898613068945,-0.07765665019552401,-0.38236822648991803,-0.1556022152597748,-0.21366208298365835
-0.3931727108143416,0.13133640990883844,-0.04229875051943245,0.10572427979132167,-0.005674333695994558,-0.026800665242709423,-0.1521117662605496,0.20584897447806555,-0.10057665258854095,-0.2983047064266668,0.20228051850573697,-0.2796108813342627,-0.0970199606038589,-0.07977622253440513,-0.008375612131146902,-0.09298657278831028,0.017230399224283075,-0.5026034644239744,0.08623885345561046,-0.0952984405237632,-0.17426234352131934,0.19321454199134638,0.3151046662204937,0.0160763203333169,-0.11054335132428858,0.02920812860018754,0.05792267827738606,-0.12467769041651572,0.1957954839909839,0.13492312783175917,0.13632014444731605,0.03184884906620615
0.010233578567914847,0.26561327009141833,-0.09003848180547834,-0.022252154580661668,0.2117158554796741,0.2676369490990897,-0.05658959841929912,0.08920568647841619,0.17866065700522527,0.4645437893778457,0.002527314581414903,0.069689951344789,-0.17850548017986767,0.006827601888533348,-0.09908125917394675,0.028568879003871554,0.0010480604076675358,0.11481689257771541,0.25920281150371094,-0.021715100420376058,-0.1536760252635193,-0.059332645597446235,-0.14365942279963023,-0.0024358673139947824,0.25013734914298896,-0.1965244589634879,-0.08302487706422022,-0.1468198167380692,0.1984048664587562,0.2838369386461528,-0.16590468053769902,0.3682918430711076
-0.08994638917695473,-0.024194217511926554,-0.09562904628290636,0.11184937990673154,0.16738518812182168,-0.3886140817464838,0.0577953042635779,0.0673797885720501,0.12077024599379743,-0.02339139280773671,-0.03613734638973588,-0.22931609832945854,-0.2909980687001495,0.10730301835079274,-0.05788971042151066,-0.09528467559422105,-0.02540078955459956,0.16929946371739132,-0.17633869014637327,-0.1104017137508121,-0.11407755071271587,0.44088387611812935,-0.06832372579784915,0.028252437941244723,0.07101650952698374,0.16451414084389837,-0.18864969650284916,-0.03908758812765548,0.09284430907515681,0.0785639724911492,0.30238543131226253,0.06466822929133896
-0.1913969512102865,0.2991371490067287,0.31306516234317316,-0.06073117402486137,-0.0885768159748965,-0.17870917667448546,-0.15867294858527645,0.03387054884801515,-0.11438101795031262,-0.23454783504273347,-0.05830934470537473,-0.006829435954949564,0.38666319025739965,-0.001984193777028381,0.07929637856585826,-0.08999844265865292,0.11318305209832273,-0.04241769341459099,-0.37781162980314287,0.13150999963191323,0.004156928632940206,0.05301357688785745,-0.28001549434607237,0.13374842037851417,0.20795517498747212,-0.05422029779497707,0.18529088396248927,0.09080756638705113,-0.0968640874676271,0.2693743885588748,-0.09465561800889903,0.0763514364948616
0.18617856092910473,-0.0021014859220544577,0.22093748930969867,-0.01730121234381192,-0.18908684578495447,0.07555479853565635,-0.4407037112719328,-0.050710463781606444,-0.030720440864036497,-0.015638644522061654,-0.46450536570162954,0.2828618223325033,0.04668644617201479,0.021484413116802825,-0.4098222911765901,0.11463502965201851,-0.05924350606943089,-0.2723616595058911,-0.14255555206227083,-0.04392439134541934,-0.19573897559170372,-0.15672132522952628,-0.12326312044465855,-0.3357025337459447,-0.30211188780000015,-0.08323290500804892,0.060006016109121596,0.1262597779834674,-0.09323876698846129,0.17764024683568017,0.054851895419685735,0.05836161289856098
-0.3303558735699061,0.03195223337422064,-0.4206519749475032,0.21598082304117192,-0.04696470420603026,-0.07427076926038191,0.14676696686115462,0.09224644112374784,0.011592562239890565,0.15791398377458163,-0.2227639663334065,-0.20980875408163313,-0.06555367930040384,-0.026614438227712593,-0.17196270847677841,-0.12343831885015444,0.06476098600768641,0.23225957302905081,0.03845124139535767,-0.05345102017700487,0.18558902842575944,-0.07456629291219147,0.029091355894850922,-0.10117266400961898,-0.01752221441408512,0.18801671280856908,-0.21549491188478773,0.15092455962957574,-0.0647056982492558,-0.10787126425786199,0.27979083130861576,-0.09408609392281275
-0.19079389972610747,-0.44212778507180334,-0.35844479706209137,0.08085719931163128,0.17808550835403045,-0.1637615813655411,-0.06466622002411528,-0.07221604158193057,0.09063406846841703,-0.04980066810876358,-0.33964169228946317,-0.2508064148218709,0.0028871686718448,-0.07496313509032805,0.03624615924869413,0.07856914019470236,-0.14124494100453625,0.13838333763378063,-0.06031328970947912,0.11997402259285314,0.014808788211758588,-0.1839620266995012,-0.2926518906139095,0.1908225680024067,0.01126862827251156,0.11300688734277735,0.19067199563526993,-0.03223968150856159,0.0896362942936105,-0.1552904311965802,0.3102568984584688,0.378735760771166
0.23196490002462197,-0.0844438746755392,0.4558604461502291,-0.15258439849537053,-0.11315784036381239,-0.057542344052915854,-0.20940146176982954,-0.1981230664580675,-0.11511889921980445,-0.13840467221909533,-0.16373960857497055,-0.16491181531895252,0.059004201133701105,-0.18410804693829397,-0.05981004048652263,0.10627328969855,0.053259714679161074,-0.010025049224071601,-0.3597176437532759,0.25858976606839956,0.07892682799039433,-0.13162475127038287,-0.027151926749364886,0.34640646597759694,-0.24011423515568137,0.1953023181442013,0.1856411686342721,-0.29752986198131953,-0.34521968795320906,0.3598236788762626,-0.18416509591677271,-0.20339172030864136
-0.000787758194646897,-0.014722656766690158,-0.08812379353474166,0.19948460864557074,-0.1292620698721767,-0.07292941447087363,0.009586983332999979,0.04083505284865664,0.2265389490483448,0.18421358429666304,0.18601008462934157,0.2384378217025904,0.0872364555352208,0.10553207823108161,-0.23134192653880317,0.03668619574399915,-0.12439566616422044,0.16277585575816098,-0.26610110279569094,-0.17214911106090122,-0.18337675631846073,-0.02584260870756879,-0.07344992484102421,0.03813476833632566,-0.13509056365225686,0.20222152230501914,-0.2659273871871817,0.3023223930564772,0.0022374792757930686,-0.01976327106179179,0.03059562838339742,-0.029568439377384573
0.11689340185806944,0.19079890835214636,0.2736110388633096,-0.1203884061745601,-0.054184055785983336,-0.06741455471757372,-0.08439738948996951,-0.011675661737947918,0.22876032249850778,-0.16055165921552245,0.05654748265106856,-0.47929093057662653,-0.017992976529200556,0.06264742741022673,0.24042086641399407,-0.2071704756823567,-0.016463350123780474,-0.16244594660194148,0.04273633759177635,-0.12530790564326566,-0.10718852849644725,0.18075513890518644,-0.32226569388520937,0.03433125943197324,-0.10994851933659647,0.07981097121351356,0.032973429827491615,-0.42811833309592007,0.003306528553576088,-0.0948649103735538,0.35126485625067455,0.09778190296847673
-0.09597676610508912,-0.0810805280914008,0.06459382265658584,-0.055288980672258674,0.2768587453134791,0.07333142168248616,0.2067761561690373,-0.0019865337234035267,0.06537174699245288,0.13960423386128548,-0.04789859980024861,0.3059320176061141,-0.22359864433074736,0.03734208592202325,-0.27676744399816844,-0.15418439105665357,0.26597723499823717,0.027968191987781343,-0.08778207295667766,-0.04020192440647851,0.2462247245539622,-0.22729333507168856,0.13596728404326686,0.12682357155148746,0.26547610237664065,0.10132475520730302,-0.03173631101710226,0.3817649945539857,0.2554218900221593,-0.06481691479662278,-0.08311358354081953,-0.006725724621711218
0.1778640183614955,0.2726101098763289,-0.024371664770827663,0.29810230337962906,0.28806768690808177,-0.08181855779042647,0.16977588374242028,-0.0017023638377406155,-0.26299176750629316,0.054337788778121184,0.1708625003814098,-0.0036522060699079105,-0.05156127872054389,0.26874191433384503,-0.27696754008211866,0.011571065190297719,-0.2633583417038287,-0.11373117809404665,0.2983092036745174,-0.09403606564197935,-0.03434868850864899,0.0412369812184109,-0.13666185748850804,0.24407532675170612,0.07882561378462516,0.08326139609594463,0.15816503621537334,-0.03467459515923629,-0.1240436755549951,0.04603380572934937,-0.2632344073320865,0.06841604269475247
0.18419638344740666,0.2707784273900448,-0.023037839304988136,0.2461687609434625,-0.04728887170851496,0.2587936087288206,-0.21115528391881438,-0.000935693365528273,-0.009195272983090938,-0.3289671113014023,0.1841792689668847,0.12343229811303719,-0.2105425666931928,-0.20110260835790827,0.03985411288912914,0.07311764912121406,0.051827595212517064,0.3638585725238502,-0.07387081388055007,-0.22246348915705408,-0.20521740654324164,0.24577985343981,0.19979805204453585,0.0029501588162543697,-0.02574433238966641,-0.023940903764403554,-0.1619949737493847,0.16120450195465327,-0.207847716921797,0.09879618068158305,0.172310108900552,0.08949543742254709
0.06665672294366297,-0.07374288341843344,-0.04238180588867745,-0.05233606430731709,-0.04067737285234251,0.11653403366648513,-0.01822939077329031,-0.05796736466975022,0.019015405046093854,0.05730003840717261,0.13633000851920352,0.2543370154931187,-0.14787625542456811,0.1248501537545654,0.2810290857218523,0.03465594198386198,-0.024393989952538594,0.028628438015898195,-0.020259394929905125,-0.1220256781450466,-0.1600478567437734,-0.17060725433780094,0.2819392961927652,0.17483696255092318,-0.16673361611483492,0.11108227805511775,0.39857348613275456,0.16548616803485358,-0.042176690115345083,0.0907076762313568,-0.30767771595296994,-0.46621625967407027
0.2937578491388969,-0.16636809994802707,-0.05883867311005754,-0.19553585054989445,0.3060005041332432,0.19255371433782922,-0.08805119905493841,0.22721586650540812,0.038403362687148904,-0.10956547046076588,-0.00585317421110543,0.1063787789479395,0.0694158754730015,0.04476560748948626,-0.05915724939429827,-0.16214457501427534,0.05635885050958775,0.13675454693167333,-0.07516898429080926,-0.07145282107393323,0.015525083464433044,0.18008070798281406,0.17027007626678772,-0.19780905501690513,0.08520553624639476,-0.08934295320823414,0.0016762068619803059,-0.16885538655518198,0.2390521014290319,-0.09105991560531189,0.013600793852742205,0.04071017671416679
0.0666068150576883,0.14376819825513823,0.20323920569701048,-0.23534700236404418,0.4427727403135166,-0.06599033586940034,-0.06817115458071288,0.024104818049613442,0.2402032615353703,0.07386272305131282,0.09188422491901543,-0.3681587368664525,-0.0786294027564117,0.08388490067214285,-0.05782235435736989,-0.04066720395576544,-0.06739614464312099,0.2082511283434942,0.2296499974362458,0.4158062562016038,-0.08050388591293026,-0.06353683363918117,0.09021339265288979,-0.08952102546903008,0.021426845672766096,0.0675583372962967,0.026096516832346428,-0.20877788908087494,0.14132030146456898,-0.06553424450463047,0.08599509957461769,0.3819386259953156
-0.1924316509270351,0.03793279788500916,-0.01143620113039653,0.42277648883200736,0.37679038877521315,0.33919767269762746,-0.12058897814405473,0.22139446420755096,-0.18923485696619355,0.22537601571464935,-0.20057007560235618,-0.08134753683910978,-0.06917361003642972,0.2691081753647001,0.2621954882044958,0.12870190151701025,-0.33852446441555,0.011446858527975287,0.0396775900877939,0.035260088814635916,-0.17591551567821276,-0.34263060818057933,0.05545387684568643,0.01043937631138262,-0.14652195419564037,0.24899752825461785,0.017128209823599812,0.08856992205523295,0.18264680509300615,-0.1940689422494423,0.33988427206049315,-0.0181250187232943
-0.09891454486547804,0.1276343718265215,-0.20272287875201042,0.20156658604613667,0.2946601788038322,-0.20609053037464353,0.3377433755596784,-0.37567952596642856,-0.017728338566921485,-0.09708015662313169,-0.042383122760986845,-0.4083734211623999,-0.19851036424902815,-0.03698744406269632,-0.21439628121789917,-0.06401448751331547,-0.11464562414224996,-0.24011777565152823,0.08819564257946731,0.13069236174881063,-0.3142089039898671,-0.06850958358017706,-0.04275186904778779,0.0619226510336364,0.16634715473181835,0.22919376167872044,0.22391736888629704,0.0688618667840798,-0.05800273697197066,0.11317563040361958,-0.25458319097872606,0.21507774076791358
-0.0580161753598321,0.00189064192597278,0.07677494364635201,-0.09178715182086858,-0.12104092511566791,0.29765381048502887,-0.002934943176084801,0.040165679291956656,0.12159168513155492,-0.42045955622598863,-0.10135860600640305,0.1256516407264078,-0.14518700902543202,0.08826623645292415,0.06566718877239434,-0.3055657430073269,0.2721140523081797,0.16434031390269527,0.14084883364531592,0.221224179368498,0.19185201061434498,0.0999174758898242,-0.13116783500441703,0.169914492218779,-0.21198485293248637,0.06552077505726599,0.11954235472380008,0.2740315294850155,0.28376975563498386,-0.09048699264969941,0.0895771588466949,0.10059468929286373
-0.1456267451677213,0.26118936176599306,-0.1571398216002907,-0.38924129980409927,0.27687234416121054,0.03831953262259783,-0.027293784288148472,-0.013902986301961118,0.10924753554174686,0.5380360333494918,0.2961517956166934,0.1027694277939163,0.028901857691812034,-0.14828098265090023,0.0033240001262937894,0.1762692440836051,-0.03319906502927238,-0.007890799127172122,-0.19091321410296683,0.1501490802854818,0.015883232501695353,0.04583139137026405,0.08011387522665886,-0.13929747016045968,0.09019340549135275,-0.02299231317261598,-0.04826220532731454,-0.3529402211113986,0.0075780919827872426,-0.06303352982028795,-0.06489184052136233,0.11392814923910154
-0.14750569426345492,-0.016519227100460207,-0.08711825644634856,0.20753948441379672,0.24629829629941355,-0.0830402878960375,0.10733630701037669,-0.04802130197309105,-0.09490992466774804,-0.1465834876685916,0.05767538767324178,0.009831578607799794,0.1232436593332322,0.1520182767072742,-0.148965257313122,-0.12492475250713972,-0.21193035773005764,-0.47996114183358746,0.22874774310007134,0.2113776685542895,-0.12485222051263281,-0.036433548722314336,0.07635652482901728,-0.18809038630080235,-0.1182388001125334,0.058397029741405225,-0.2653923330399356,0.11730552061361621,-0.34182190205811425,-0.18097244747153735,-0.13221085858969261,-0.1669186995921765
0.33460986520146857,-0.0692379046547699,-0.03434391979267961,0.18435785451979128,0.07348546440839215,0.1405555117894604,-0.5597974686324988,-0.10567094031038268,-0.02446478408953396,0.21886708861079054,-0.09342075054296228,0.3722295072543797,-0.24434087534814383,-0.1500422899284093,0.14592378633672703,-0.03273235962714464,0.10834997317607087,-0.07224153934958291,0.11312366288688218,0.17542702950970437,0.13440686207615843,-0.14340286875902075,-0.09569879926675692,-0.12174715534952908,-0.185356267185998,0.26849694125679113,-0.2633858427631253,0.2784885800980645,0.16518237892270413,0.23169051336725302,0.0029243165260200714,-0.1218751119504706
0.2301554601021948,0.2100640668466344,0.042148858008050565,-0.08356031472172919,-0.07295586867511902,-0.03951892317087324,0.03514367849681227,-0.21512984892302942,-0.09091927628732988,-0.057725772546265486,0.26296166312094343,0.16782441961529115,0.22896779145135268,0.1441375378035725,0.14921455591456892,0.20167803675747273,0.2204187011205042,0.23770648634469524,0.23737028424018655,-0.15448783001740574,0.28177562029806436,-0.05798579845334869,0.6078082314371043,-0.14752836584060114,-0.11498279516313764,0.06118876427322912,-0.09816451185793307,-0.16472003098430163,-0.06268674599817985,-0.3079465639192943,-0.09560178659142608,0.13088641024297584
-0.0706755996048782,-0.11513253295812458,0.1591456227701756,-0.1363238161709798,-0.05793147507597334,-0.049093437522556474,-0.12455416050268585,-0.22416922368120623,0.14930326679409123,0.08121729516649065,0.09980894671496261,-0.022844161693403024,-0.2474627693523268,0.2506674391878042,0.05279718130454343,-0.1065845809837788,0.08223317053285628,-0.27784995328366247,-0.059105910896371475,-0.1519542872412191,-0.09225826977497657,-0.36509872800668325,-0.053882299841304056,0.07857878838501009,-0.028162469264591098,0.07403363457132306,0.10117087828523642,-0.20028137619069694,-0.37301032765629766,0.14618663544533325,0.052137987868488306,-0.11241536631955514
-0.09607497784079293,0.3676663767879842,-0.1322902749594349,-0.17039214477554424,0.07889364284134692,0.15802637433179081,0.06741822798568407,0.43165658791046174,-0.1716411649075862,-0.12218893780482021,0.2372155465316463,-0.411029027740417,0.17354042607082493,-0.2110958491776981,0.11544332281858341,-0.2562221319797138,0.19882931232770124,0.07184597211333338,0.29907364536431436,-0.1893009704564607,0.18951506931833065,0.06318460517991226,-0.1714289452777125,-0.08453400758628467,-0.06591569381987598,-0.17664880487629386,-0.1036983012198866,-0.3220926369860468,-0.2133585109667441,0.11624121337066556,0.09395931896751274,-0.23646837056487172
-0.09254502576099204,0.13312822703266752,0.17687333311511988,0.05495173484099189,-0.2669598952132257,0.03636735401151453,-0.08568420877664659,0.0800041723511055,0.22373814646018425,-0.40796391273401406,0.2631590989510314,-0.07514912320578164,0.29010953118511207,-0.08016997653136274,-0.07566015514788967,0.17007760864886282,-0.005482984025811768,0.11858162739529433,0.2654652392356616,-0.13924344289851623,0.23388324690193626,-0.0846507024279472,0.04756720481265242,0.02960426455620613,-0.065656075819749,-0.10723700770460613,-0.05964185443243441,-0.05486498140121117,0.024961828912844646,0.16629024092563116,-0.07255183151236848,-0.1882372235746407
0.056118934613008487,-0.014045990785546652,-0.1995695507636247,-0.16532223032359752,-0.07377507689232482,0.057209520321601155,-0.04037199451738085,0.46971654812795843,-0.26657605814007024,-0.1266172944573254,0.17044387066667901,-0.0849482568742076,-0.06998867261641065,-0.1081909386001064,-0.11017823789496214,0.17198187011040691,-0.07376532263377353,0.17652056188851603,-0.07141428984923177,-0.09461755732516464,-0.2964381459303559,0.1136625556682403,0.022438118963703683,-0.06915753287646896,0.11349393917265295,-0.0715879075458085,-0.09862831598478604,0.23363835860789428,0.06949026525097736,0.40198578716354183,0.006098312580552175,0.13204833891298984
0.005106860581306145,0.1451758431465429,0.2103805271013204,-0.04628962101425207,0.30613080544528243,0.20386805220540058,-0.11504391366709266,-0.13334524298138817,-0.058849114411216166,0.031720050837480016,-0.011368509662859757,-0.4159781581349222,0.3156994334645342,0.03304081574188795,-0.20840231756612593,0.01918609856176545,-0.06262270639797006,-0.089644475150705,0.20363096159821176,-0.2197223360816858,0.09815088552273889,0.14833594356725907,0.15903325994805334,0.10756096479302707,-0.2329489038841172,0.2634882665244039,0.08445014580081607,0.12334256346918909,-0.119677333928906,0.038132793547044075,-0.025974315123063745,0.40175964284886057
0.12027494642943516,-0.1896148568719084,0.061685488593231814,0.03763260862494295,0.1834206091082076,0.07547266756419273,-0.06740338207186307,-0.2276165849147472,-0.07362045396587603,0.1890505011380386,0.25364051739119375,0.33781999127720297,0.007312429693421313,0.10848897071514477,-0.09923382517348593,0.10386602866731366,0.05352474688421703,0.018426711865305832,-0.39184549709922106,-0.046557316118705776,0.1558243730359577,0.021904268572819983,0.31548076855913193,0.015920340663169323,-0.13492396582413926,0.006468770512922189,0.30035233663065625,-0.13805515031512927,0.26132252975722675,-0.26607864583628504,0.46982380547740343,0.06471274096049816
-0.02505807006040767,0.07870163677592287,-0.16078481190527108,-0.21562144871936298,-0.16023522017876077,-0.12573343040223342,0.22125051003393426,-0.21691791163478077,0.06823851612775485,0.1414798517941308,-0.032761381045942804,-0.12297566271997974,0.21046487228004274,0.10256433999617529,0.2508084782728217,0.0032002290978388093,-0.054951228289728905,0.22397369770148193,-0.15360377267248054,-0.18428223656024814,0.12893545808281381,-0.047951303574210465,-0.04481091646277763,0.2061515427863906,0.0020002013265439022,0.03256419038420205,0.2302882648055497,0.21520309747744945,0.19156987270245068,0.25388255232965357,0.11481382219531505,-0.10591287481250242
0.20675285142325708,0.05487350575204116,0.18895829247731008,-0.42088835251286827,-0.03245397245561907,0.2136546434658763,0.018830565298312188,0.08647619555265162,0.07285989068851938,0.14703124613595933,0.1706924835169605,0.271609492699558,-0.107774125622517,0.1632295326307806,0.024912079764155434,-0.14472399775709757,-0.08192420300609941,0.03328047220664083,-0.019000172588882917,0.027723837138438803,-0.1566368562141394,-0.07960194989034493,0.12482134692884073,-0.23363792680980297,-0.26025737262425835,-0.11367098669264666,0.13228265243550097,-0.2492256954911986,-0.1301105152998739,-0.2878548920296579,0.02130205642692092,0.046427978988989996
0.17270165129277212,0.13506742588246437,0.03710235522836416,-0.12529766886317284,-0.3575163360222758,-0.14612312723688645,-0.04175986955984218,0.0978234227502385,0.05068781327854428,0.06866039153287092,-0.22162718772073267,0.07783879128524171,0.1800185331916466,0.299468043518983,0.20234754638985034,-0.34380526236129544,0.4277894032363861,0.14179372574342963,0.379750440830498,-0.004101558913574078,0.06222117171956933,-0.22689099606665783,0.138497533512645,0.06515763141435263,-0.3707001680504865,-0.1828942709364249,-0.19369766608350478,0.16432539758292591,-0.06882063747362385,0.3940775334821664,0.2236642752709424,-0.139300565754558
0.22882512147405798,0.17039216823249204,-0.2227680512359606,0.0153177012584272,0.12345467631382318,0.05205131775033981,0.2388009848748445,0.030367848310907268,0.21185053146407096,0.2228278760698104,0.057985928808247475,0.0059066767102492436,-0.0732740991050562,0.16361785930237266,-0.1801179680017013,-0.05857489692621183,0.2673682136834883,0.13909648742334263,0.019669339737621017,-0.006715967685856248,-0.062068092862149156,0.2517787583428026,-0.08422255929879689,-0.2580516968207606,-0.26543909835882257,-0.0703815642559805,0.22247362782336544,-0.21643193503422375,-0.05905366867229975,-0.20251519239516413,-0.34523527938502463,0.06830924614457012
-0.11248476752697711,-0.12832998513302618,0.39340334747369166,0.09276423509201687,-0.40605489801376254,-0.18816888932480752,-0.10242741504324859,-0.23128939182262034,0.1536563497388407,0.16061145611659552,0.06625521048935389,0.18251307329317745,-0.11326780824508842,-0.009478309763677875,-0.07332291915566896,0.03943726578978497,-0.2779779102335104,-0.31177558592493265,-0.10352819521331628,-0.3175972108928577,0.1133530643993763,0.015361016745210917,-0.17549018896491214,-0.23165999816528154,-0.04076047025509585,-0.004919306612075254,0.1613089685793711,-0.12018501524852394,0.2324576038100237,0.28508186717076317,-0.015493737853480146,-0.20674410284173053

hidden2_to_output:
1.0101062336265019
0.011355553641100182
0.14260881056246955
-0.030246670287693695
-0.0032638425041894383
-0.07746640370769022
0.020869821676409047
-0.47208314565221654
-0.34663563814291715
0.534993119739336
-0.02114626273391273
0.0963345261851072
-0.01284315865238648
-0.37007384877162586
-0.2099233449310289
-0.07802624854105397
0.192493137795466
0.20061724277060808
0.530407268824458
-0.28988908872020236
0.07900383237502043
0.031166310296755192
0.16741761385974682
0.21623725810748287
-0.15816204438142753
0.1220376618019955
-0.0763898263052644
-0.2085776284978142
-0.21823985419010422
0.20014842741031394
0.30079315616705626
-0.31694572733412035
0.25481401657583186

