input_to_hidden1:
0.9940804998834253,0.9995829865372845,1.0076332956996292,1.0025508377046604,1.0020839967974926,0.9964165102305113,1.0087663997356833,0.9912599078756531,0.9942802053794082,1.0201552787567765,1.009509885744052,1.003123032576263,1.0186906968459992,0.9995350880096558,0.9948078094574763,1.0009401125532047,1.0054736369222104,1.0006406096656586,0.9977814149266554,1.0019089009389899,0.9933210025748129,0.9881082840552691,0.997930431870799,0.9966920142339729,0.9952751122556341,0.9934421453395823,1.0000710958909924,0.9937157682172452,0.9906146339654296,1.0069913675568902,1.0076212501817732,1.0005557514620367,0.9968716290750007,1.0281449419517696,0.9941120871019584,1.0074573858501008,1.0018774910749437,1.005545639996319,0.99596464753436,0.9923728930929796,0.9907970967951616,1.0146383618614894,1.0031609813901268,0.9958648156393339,0.9977680801314579,1.0266004758157021,1.0014412801637111,0.9994318347813426,1.0058060471722654,0.9933953760663807,0.9937322402371492,0.9873888816156781,0.9938906148912817,1.0139658492461001,0.994401409947986,1.0077982285348916,0.9983011816240766,0.9971099310613193,0.9787016531088932,0.9773922618492435,0.9957971721749835,0.998072146760474,1.003361531022825,1.0030378934843742
0.05200025077159536,0.3826627742444203,-0.4813086415059062,0.10958457173251913,-0.8414053748481246,0.039090018416281194,-0.44536439445387543,0.6673183993712659,-0.45470143429017673,0.1816379209251006,-0.1696336491018549,0.7879343617803047,0.4722409082510383,-0.14676973909841004,0.08883053279175994,-0.6799258437216313,0.16427338435996253,1.0041305956730033,0.26393558013971036,0.04921763097772205,-0.43782711276129455,1.0440183401304006,0.4173488907637855,-0.4704484428102489,0.14964915975501517,0.028755023261683523,-0.18427620421016444,-0.18117841462092962,-0.08746959272194237,0.2363979826117142,0.15552782927680187,0.7249931173199013,0.06879615351012908,-0.8030341140135857,0.06966308951502453,0.30410888881656195,-0.3438871912288296,-0.18970934414850493,0.9876000660152418,0.39140582120579515,-0.4821031647835537,0.3892615106391694,-0.13764816936270527,-0.19704853938286157,0.35439670389229466,0.060079152258403774,0.20042575636713583,0.31731334393406196,0.6157055339962285,0.21126469101912057,0.4689816656302201,-0.029510840758747197,-0.47520090920960734,0.26691164449351745,0.27490770663995223,0.15261457357918107,-0.287842545637608,-0.06789210303750323,-0.33407363700730713,0.2657762913299817,-0.4735953290804095,0.43945797233286626,-0.6196610422367985,-0.06821202951587932
-0.21303023458527134,0.1930402370351416,0.3228717429036678,-0.2947609170581408,0.3517988612839052,-0.6358507663039764,-0.3955629641861525,0.21101169678681914,0.06981213194003234,0.7466262981374111,0.0033960819154520852,0.016644920060894183,0.3843728850031787,-0.0032282214943318717,-0.5622099006813135,0.1111199619758646,0.16378401303807724,-0.3660482394431521,-0.07097120729549095,-0.3673360993894749,-0.3165090364718416,-0.4446162641361209,0.054152237094357215,0.22706773666778518,0.15354111678299803,0.26273618266808185,0.4116069708399374,0.08367772688723384,0.23544897030476777,0.47220009054936757,0.812218913742466,0.04235326722594798,-0.5274608271984874,0.08201167020879287,0.5076947040955371,0.42645152624543226,0.39669573602660085,-0.030611457939898695,-0.47104033018424035,0.24430381426650682,-0.8885356212436749,-0.10074468678488505,0.43999435639817336,0.848392095957836,0.38811074827572456,-0.25534194943800087,-0.8090078451763786,-0.6293290482473561,-0.08764031552647454,0.7127200328688215,-0.11815487062997816,-0.6455073587354343,-0.5788998329353461,-0.25998926728495825,0.013136704592276113,0.7975686775219203,-0.29858909859310295,-0.5520470476120436,-0.3897910812786306,0.1966643697990026,0.11177239203524274,-0.3338721730739867,0.4085636762385701,-0.4814743001628919
0.08459432935521116,-0.021014594916411118,-0.41907826307984675,-0.32483340365387914,0.40622127522628054,0.025582754121502117,1.0420154971965565,0.4400870762886383,-0.34543356011747667,0.4949626066002618,-0.5152312675639749,0.18434662391615272,-0.7020312480630951,-0.8123544572701661,-0.016544524975559992,0.09014242242678151,0.27077737822508663,0.5443224460703568,-0.33038862739579383,0.16998559191564805,-0.2968522352707266,0.32721749248930565,0.29636224877274514,0.1420595459527393,0.21866535768690656,-0.33707443429448664,0.3510801221735812,-0.10267189366035456,-0.31386931412872765,-0.36489731802512604,-0.9253636385855346,-0.18461735754405076,0.23387160162231177,-0.22094572590886508,0.3686371738382866,-0.492663677783972,-0.21227176986281573,0.65299216825844,-0.17641109415075026,0.22602681809275954,0.22434966054245337,-0.21438448860312215,0.10934590997880451,-0.3264388028374639,0.6254667077097243,-0.18135401062959888,0.7863195176022322,-0.2622245874482365,0.00600481234027157,0.7343878283894633,0.29262186755791947,0.8357322389556111,0.04068273554471858,-0.24685859502458737,-0.5875970476377187,0.0727356853109113,-0.03940136387084384,0.0779083987382136,0.4001085767206159,-0.027416069072414825,-0.016631127664085518,0.4172994878580218,0.9487653677316309,-0.5381954236435958
0.21860847021462193,-0.24984259708008597,-0.19073384596040568,0.5143802655151407,0.18626421556768402,-0.3030818231718376,-0.1694248931186999,-0.7121127900582098,0.3571784956402625,0.3435780322989539,-0.28001646424327037,0.2638042605773062,0.04351356163947809,-0.42642450624989914,-0.4227871816348833,-0.43443816360356613,0.23427500820930305,0.31250079895699406,-0.28238700292388236,0.8271311103381602,0.23127414164182125,-0.06085740705309517,-0.4264601786232315,-0.16304985444936712,-1.052593481409493,0.15075017962561077,-0.4330867738290501,0.7211013974408533,-0.0671583799671893,-0.004445300470869977,-0.5180359919950792,-0.06756389672103326,-0.318552674536639,0.2979527918206013,0.00011434253201412984,-0.3727489637423393,0.10759334342182549,0.3362628109899894,0.16909929890485415,-0.4996661975714919,0.03421525562969909,0.4004478094173336,0.34053110816772253,0.3305408613285262,0.06273748550201418,0.6828765614114221,-0.202084183678833,0.1138301179822495,-0.10911093033177577,0.11814648420541651,-0.2367420972791722,0.9031412322807085,0.21080077297169783,-0.3374536026363798,-0.20013530701798024,-0.8105114715924614,0.7760696695579048,-0.642937579143852,-0.7077305086431862,-0.3716979491303959,0.23899398268549876,-0.25210689542863324,0.2286709410363873,0.42272719107427137
0.28962990538100764,-0.6262374346167319,0.19329403232105996,0.2687648315577451,0.019980586077767534,0.6968576120776114,-0.20896961283680132,-0.33658217252159084,-0.6838123287578738,-0.5896485700193782,0.5962166126097692,0.229348280553164,0.04349780731740602,0.11069566580259542,0.5270875016711577,0.17803092997966172,-0.26572941750177254,0.20715187890117506,0.0693945230575986,0.80939866007039,-0.4869920532810238,0.15064003075950308,-0.3294763333950958,-0.42222818672610696,0.485893763989518,0.1776431474356016,0.3148169508438898,-0.04268865662306879,-0.3884553142582114,-0.31793730546765,0.42161912556381076,0.014570046862882097,-0.3856853586517761,-0.04156292738834075,-0.5783501483992914,0.714462908937761,-0.32454152925928775,-0.0698872122483264,0.190003585608871,0.5561362928260374,0.8242763088669746,0.700098819198859,0.44387994628152816,-0.04587950176650386,0.4862342229754426,-0.5590689051301406,-0.22594649125421154,-0.05430892776133329,-0.20866495799462453,-0.1612075879222265,0.20499897316985355,-0.6404803931399146,1.2015037097982155,-0.055363312792490314,0.699069588952145,0.4747488121745949,0.7466624379791583,0.15321555660065014,0.3420626345768291,-0.6331187146182059,-0.39620848846957557,-0.1302757382464293,-0.02321874222243154,0.19198524783533671
-0.2342138682575318,0.005094095005631398,-0.6815311804923382,0.8610023029791309,-0.3803732015054548,0.3054364467213177,-0.7897100878260219,0.04493984981686853,0.060677254861671644,0.023514350774709848,0.5482804050570657,-0.7945123025506202,-0.3186115068894068,0.046706306533292524,0.046475476282728925,0.09282932922093928,0.004609659350308364,0.23874019921817446,0.714522179455079,0.2034550421715485,-0.39486212945338295,-0.6810257095146727,-0.5810322973614509,0.11205548785111874,0.36254899304706684,0.3185104454404056,-0.053279450289239715,-0.3723802692246681,-0.8320707734096893,0.026413438929128317,0.3386535632816864,0.7992866055265401,0.46964349327240734,0.08568010418328081,-0.8779094286750603,0.5788377570785612,-0.05090898195481846,0.3687112289334039,0.5456354014798642,-0.5799342139520741,0.5531967321493138,0.2408795132371667,0.15138407360755773,0.2949067811396375,0.06534098793343254,-0.2784974452563569,-0.3219723978715385,0.5283233260107357,0.07271165887744369,0.11768527085734605,-0.278502243426242,-0.5491418425879794,0.15789318440350045,0.32646322092878055,0.5410202861191334,-0.06580502061601182,0.31642488758932674,-0.8082112470482031,-0.5642048460541346,-0.3014274279706228,0.3917538264313476,0.5557275928388287,-0.294392038780167,-0.010720060525263494
0.31383285569926705,-0.22012488019436643,-0.4242835873249124,0.2844173436814946,0.04128078072590955,0.29884607333142105,-0.69487267035159,-0.7065102074933403,0.00242239061753391,0.16586965613478327,0.09350950741675901,0.29056337079406536,0.20708593748563142,0.3703522746773282,-0.2728920900499395,0.5446503040205802,0.16458068216503252,-0.07951657053593929,0.13385412943719863,0.4036194132574169,-0.10315492709389137,-0.14349815078396813,-0.08240288339253125,0.05284600890158723,-0.04777070180724469,-0.2460573882901083,0.5389951688981018,0.2295502319557441,0.5031631418263984,0.3150672532325565,-0.1808893593010464,0.02905014818188635,-0.10935263575222197,-0.2462395850931058,0.6174539382286525,-0.17041264685271543,0.13031616754004394,0.14201715481226984,-0.3184700622520881,0.20830899440569114,0.07916028630017456,-0.03898000665681479,-0.33922714512942725,0.31542337809123266,0.021405157802576995,-0.33266022107610665,-0.26053557622196255,0.6015374548132775,-0.6067811613823708,0.3908131337201031,0.21474889622812782,0.45576100445306245,-0.8085504197464306,-0.1014262753346452,-0.054907659707341794,-0.4637397637815614,0.330530862733216,0.20324336057614234,-0.012172543171301136,-0.42542472810121706,-0.44467079010528715,-0.09538230739070529,-0.14303022410449592,0.341416178604248
0.533544819077963,0.040329924982461046,-0.7892052512727017,-0.3581305294822095,0.16504713607970312,0.5275704572785782,-0.0871029458471568,0.007104224147296504,-0.567671528788624,0.3567084414189267,0.43427310254870294,0.38806454852088307,-0.7281488220704329,0.05468746859020814,-0.3751652874481857,0.6931772315675037,0.14354796524960461,-0.01669018392380244,0.021159222855155254,-0.44098212753788296,-0.1229991134557594,-0.6083225183645133,-0.44212468328683796,-0.01688367659222015,-0.15416359691178028,0.26203914123478445,-0.028882499155858166,0.2362349533230238,0.11450467205693346,-0.0921557518638411,0.13113380506584177,0.753962895599124,-0.3649579230374796,0.46894326938993963,0.09455969838696879,-0.40395349514979173,-0.3286797651947461,0.2651393503341161,-0.09023057853757281,-0.1580955079498105,0.6150447611346843,-0.14383012992149521,-0.6402747465006857,0.16072531247637328,-0.6211587679810768,-0.041297871253361894,-0.24033804768910966,0.556905364976676,-0.41816756120974374,0.7916672652362354,0.38845823078819636,-0.38383930239889835,0.4718809877160923,-0.07929653087244627,-0.06515612944719809,0.33320292217668357,0.8442711718297591,-0.04688065382521112,-0.5134507539723306,-0.2679672816728008,0.7297165038671605,-0.39730256508172684,0.31925355162285424,-0.27652372596938685
-0.27685407186964717,-0.4735036995970849,-0.46977663109310813,-0.21366979177021822,0.07155983086664043,-0.03651515268984064,-0.9394158711487598,0.5476776210661704,-0.9030070274274146,0.1494873151696517,-0.3533909077817889,-0.27105574260126647,0.010572908205351065,-0.185677973121702,-0.3469756822607959,-0.45905705440125716,-0.2248944438662473,-0.36561604939165543,0.3456680144377955,-0.3306008051129576,0.041142136941621034,-0.30048708150692877,-0.23601067588087885,0.23419480785931931,-0.4314260183680197,-0.3770765905108926,-0.16954010705108175,0.1571449989976421,-0.047367824860138866,-0.8327477991695212,-0.07220440886296912,-0.5086082905714078,0.9611221522968162,-0.7729336265737659,-0.02161622151544856,-0.6672299738195242,-0.22541799428261144,0.7739834323746234,-0.1379769163653836,-0.005169025391889751,0.1813911910813093,0.5880572408196569,0.5246954214566205,-0.6640700635439771,0.05547242569758051,-0.2729465765117964,0.26345823774644644,0.09344963639267702,0.1243887959389437,-0.001813227811876076,-0.03487395207526718,0.5294387620544023,0.3642796761581701,-0.7911777620888194,0.5803430524061435,-0.7981275414868049,-0.11536982166936405,0.9536516535155084,0.2517823737983445,-0.034221549693652764,0.34952587688081826,0.11179977594795618,0.08594725600415966,0.3018644816609032
0.10734341237123134,0.42029136137361545,0.10015506768034615,0.13548426306618022,0.8607927402663945,-0.23257765497284136,0.23695835399334067,-0.5965528799722852,0.2675760855534528,-0.13320213943363338,-0.4397021268813521,0.22313407060105028,0.7181207131788163,0.3057124919664155,0.06980224174074313,0.020345534774155107,0.2908010802571484,-0.14161302196317654,-0.2401243839587183,0.6324318610900413,0.008563733231479274,0.1515563710810828,0.399281733435338,0.10611399191251604,-0.5728646937536289,-0.3951144581896619,-0.031937540720789595,0.07823837373552606,0.6992308316288456,0.35789704191412497,0.08906538791842576,0.6204412339724462,-0.1357921683429865,0.4633108343288429,0.3972147651032755,0.2867814580655356,-0.290917661118204,-0.44037569064729987,0.10181788507452937,0.07565533347294687,0.3801533793867501,0.5759925619344525,-0.23590320954120492,-0.5508350331208468,0.2393133002070838,0.21317004814204144,0.256010953420391,0.07277799053848455,-0.21021983325989374,-0.13458464370641945,0.3487610065942552,-0.15976469974640395,0.19588864999995279,-0.179486347756976,-0.051949329090018335,0.040864203232781386,0.5271477246226637,-0.4959950538578754,0.3111227934607509,0.024348672194050694,0.017321009720743734,0.7790829889097634,-0.025423986925294254,0.45743838360130057
-0.7906976562198909,-0.39762544304287256,0.1131360482869559,0.12623129369496777,0.28244036928822464,-0.24608043512736416,0.212243119827885,-0.06443306111795741,0.4640810755359755,-0.372055884941506,-0.03667128408643115,-0.2907322880663613,-0.2523757900836375,0.16765990303461517,-0.24715134411936845,-0.36363344148096066,0.39820621204895507,-0.07551976144323229,-0.46441950967148865,-0.5749047717857678,-0.6452666577942698,0.23064244895272537,0.3560680860094686,-0.08882663235753514,0.584675408621013,-0.4473798192595824,-0.27234779435959544,0.3645726821072176,-0.09213315330721508,-0.004553538770600254,-0.3402062553668209,0.6411005930765782,0.09621891537370195,0.17395432218094364,0.443401475579881,0.0023943042363462207,0.40692441907781696,0.717125030203026,0.4312160035145047,-0.21493090316552343,0.9421352803540536,-0.11383079985048783,0.076738494697601,0.039602963715050045,0.5353911494061089,-0.7621130513030999,0.15851406070354027,0.14479726138934174,0.13581212755106373,0.16259478780770545,0.4360018779770608,0.25729437995362814,0.2944469728065125,-0.07790435560502391,0.15417951011805744,0.0094007983996562,-0.08570716224323945,0.36543907130920805,-1.0674444830744834,0.16292827138547053,0.24742954395967587,0.06635594456824105,-0.37578147780640914,-0.02928103141332345
0.4612964751518646,-0.13130990422805006,0.6356205134096685,0.10801421095248209,-0.12615910644296816,-0.48828729986904124,-0.21379363749266597,0.23052865940589354,-0.08536792011493016,-0.41807149362540125,0.3177906413855581,0.15672261630963782,-0.7062132880649834,0.4781192372264824,0.4242915484268365,-0.13055001390182364,-4.48504115995186e-05,0.06943575596071766,0.29956977403281176,-0.3477813498925753,0.2574806948714683,-0.36838039147215235,0.19217190830986547,0.10789840631227134,-0.11426340236752304,0.07566749717970522,-0.7667602929765909,-0.12021131042844724,1.2142520273757842,-0.5222918812443118,0.18179639654970067,0.2987511158463504,0.8476988677169358,-0.2216087790512625,-0.22102121573171862,-0.18961604993921075,0.6472369498035072,0.2827794939329227,0.2184086881063662,-0.5260125349885537,0.24605491030777343,-0.07615784415160226,-0.5490476318313161,-0.3874115124047377,0.010111277461921555,0.6353232232992408,-0.32224973909816196,0.27024061451384696,-0.410319185681456,0.15262127203426193,-0.6710555847746763,1.0516082469491892,0.14211688395176855,-0.31526826252923734,-0.3833019419191797,-0.3796799939682401,0.1480587300916081,0.14867578861391428,-0.5113137823737489,-0.3696392337323931,0.24141567569566014,0.26336369303065355,0.19320115845401603,-0.4771873749148109

hidden1_to_hidden2:
1.0011555840364719,1.0041767798249048,0.996904151624027,1.0018372129489994,1.0043608257590222,0.9984296696755476,1.0030394563927814,0.99693708206199,0.9970418292643588,0.9952511332362832,0.9891190419879586,0.9884250565371253,0.9878257431634048,1.0027128331169275,0.9951216243455623,0.9951222662487287,0.9897203388644648,1.0,0.9905068484740884,0.9969390462455305,1.001721152038113,0.9932958118399404,1.0,1.0058357245000737,1.0,1.0018694582568628,1.0012803614278762,1.0,0.9902662413410379,0.9925403070656162,0.9968795163845322,1.0113694999026004
-0.16347705661218254,0.003853745674583958,-0.17115306513425918,0.2050826428364645,-0.15157178763296197,-0.1460020094038166,0.17019797066772782,0.30910268800877416,-0.12700548212649024,0.24429674994235323,0.20721343871893824,-0.20758799671983336,-0.0866164162833225,-0.4418417128524389,0.12478882783864767,0.4048034374373294,0.2043751123193488,-0.16589837920534223,0.26367133061124515,0.08670164343035551,-0.013873706867792187,0.11162713441331724,0.22357033804772372,-0.2740327734221581,-0.2182998629625416,-0.2593011420177899,0.15312571136496608,0.0920257802953363,-0.0790521231425214,-0.21253652788706706,-0.06585142282216179,0.34265468050717235
0.13539275882764767,-0.020634835728530535,0.06546191890604293,-0.061294673110490014,0.16292787145261475,0.20936667166422368,0.18944235318218328,-0.020215491116603226,-0.15759280640716913,0.07031819918794842,-0.03706760162860343,0.04067772967486322,0.19712744478374622,-0.03658805007969009,-0.08672762586132733,-0.04628833315331526,-0.09399668782250274,-0.024785519537412766,0.2332203864504943,0.06596754811163316,0.033060671879390255,-0.19574041521956473,0.0783961695631934,0.41753079079390926,0.01835312186831198,-0.521555954481587,-0.17210876340711412,0.19944275986982227,0.04510367478187024,-0.04103859969367073,-0.0915868713576996,-0.019979025753386982
-0.11982507135308314,0.13627733919117246,0.008979909030899704,-0.034841709614551575,-0.0903932534697756,-0.05481614756502306,-0.17996297064158082,-0.007949953134202777,-0.13513158367028685,-0.05630265784234573,-0.02140946550548173,-0.4901981991549237,-0.09255601306192901,-0.07390742231064847,-0.15707211508315458,-0.15036905771183334,-0.002828115859853414,0.18730398825839562,0.1756549632946814,0.13858597254857666,-0.00107736729921199,-0.056421796060286925,-0.08158106783541288,-0.12251040590805876,-0.0914667431660308,-0.18947325022663022,-0.3093482670307997,0.10773848197285457,-0.19356122657174868,-0.022801955705205084,0.20504154219495696,0.23491410142290153
0.0022051292802307914,-0.1988253364818651,-0.2201895544946053,0.3217477788238703,0.010970990394070493,-0.012057510978201106,-0.09324071232572904,-0.2761544269721471,0.057098129406326296,-0.25542460344751733,-0.0358072074977263,0.1238121835279743,-0.1893566300975564,0.24179704977806488,-0.13662193119241942,0.07322900743778449,0.21364844315045145,0.08147882249253867,0.010336479754458592,0.28736086880271,0.03434635683868097,-0.3065601782095344,0.17085560079949938,0.15477426370604144,-0.11345824015109142,-0.1754172229937031,0.2556953645800119,-0.19400815026319643,0.18125205668009234,-0.21458339751093547,-0.31296193651830595,-0.14861058973573438
0.5162125166349122,-0.28383365269442534,0.20200601116353203,-0.3087248711421857,-0.044310675007726966,-0.1558162971569924,0.018423127530576806,0.002039447330030753,-0.003228276129957997,-0.14095262714816517,0.16472495134359005,-0.34560494923652485,-0.12164821062443537,-0.20356862834820913,-0.005574509619802795,-0.17263532779645857,0.10344359183863876,-0.1320107680659338,-0.1323181214594838,-0.032336211399871674,0.08675719146838698,-0.14345479920463228,0.2077657089539324,-0.17980389774222086,-0.23431143412330635,-0.06319160199118312,-0.6451574117658953,-0.10674544918681173,0.040157720674156544,-0.10137519179566871,-0.008077081387371664,0.05047384684452776
-0.35091388228019615,0.1875937917833091,0.017467783340079243,0.05432902501096315,-0.15079670842174894,0.09807347389815439,-0.033885086645492196,0.1501209351358625,0.205467496973367,0.18860168154403442,-0.15762772333087627,-0.10351331384742367,0.006419691531121671,-0.23054455923227676,-0.06561811667835214,-0.014299002019954756,-0.0936043469265277,0.20376044366202423,0.23423288466519573,0.08789353092396814,0.23585377417115672,0.060370837454037485,0.08446733676346936,-0.1274751980711015,-0.11079672563131975,-0.04676280765494151,-0.33288242226737513,-0.15059534341792613,-0.02396173197611267,0.02076410222816336,-0.004121329809116258,-0.041380694432313625
0.05247588230877228,0.0355915823638097,0.07701697438408406,0.24323411032641964,-0.20988304170930322,-0.22852827509401877,-0.22170179997182102,-0.401799974063282,0.11726103552771631,-0.02431826933964816,-0.2894097894253905,-0.17860555646181128,-0.06991420915052947,-0.11145348322581212,0.09847853661371318,-0.07641551640991572,-0.03659482301718827,-0.1583324744855975,-0.25846012410165004,0.044072504695319634,0.19848157026109745,-0.3165933007809202,-0.044864092725147665,0.042211882561896834,-0.09583490455211087,0.019805294460382282,0.032896034705662096,0.1551709260487967,-0.20466334922430282,0.16137733480411234,-0.1464446899352384,0.08205444260593
-0.02181368778952997,-0.059325257684026696,0.017476344374866632,0.1759494349298203,0.12518742695595267,0.22231905606620603,-0.08453510129291025,0.20468290330406758,0.10476883096014365,0.09569753420233865,-0.0540516958285559,0.41063251038254645,-0.10368828504639305,-0.06164875622011668,0.33748972975773334,0.1981137684623369,0.07521395293297031,-0.05978129134378536,-0.2083514720027836,0.4384256438413321,0.14931697754917586,-0.4031420550218445,-0.15510122749457042,-0.16280030915596794,0.20972028157709216,-0.32688113855854317,-0.006533369777919459,-0.08458838712329382,0.04470981520087787,-0.2637136492400107,0.22529897947288696,-0.21449668966057422
-0.12567941821779943,-0.21671703698878525,0.14056493306090967,0.02034974291299205,0.029992195023594074,0.30258742854919346,0.05736591552246911,-0.015161557161545207,-0.12124678336522282,-0.18469509930707678,-0.22068275210046315,0.022320379208957186,-0.046353816307622954,-0.11428112752312423,0.015586994233815226,0.17307194858199612,-0.008042742600798708,-0.08507970618906624,-0.15694779988024854,-0.22666769018859334,-0.019483711540687648,0.05050248173311721,-0.001377114771549338,0.15223567433483648,0.18788010697250804,0.01411320008139242,0.04103817294006968,0.027858429101205024,-0.2448662641484174,0.2874614863593728,-0.20208139621551913,-0.17185146919983202
-0.053919270593787094,0.2719628078356357,-0.2361412139684649,-0.1264115681695154,-0.289898079558418,-0.05459548440725774,0.18132679586226683,-0.21538720992951085,-0.19775706772180168,0.06389332486460454,-0.19175792568887698,-0.24293879440952412,-0.3606812040715261,0.22053642909093696,-0.2835895377736616,-0.1303887245021797,-0.18700133500131064,-0.20553401701692112,-0.3577429654062668,0.21997967343290042,0.2147485885312946,-0.09208371546349368,-0.1398013990637572,0.21865933393359197,-0.1362516529604338,0.17299304015832057,-0.1317187621710636,0.134492957727942,0.23111927657767783,0.04089644196291055,-0.14148210518164692,0.27880353670236446
0.0501785385392715,-0.2157943230511468,-0.06757302757738808,-0.21137950230356134,0.10615849346775072,0.16021973459501426,0.2775445548505013,0.031102991381131453,-0.24178636942012474,0.1347619358003979,-0.22558188371200028,-0.10083730793224277,-0.32705794890647505,-0.22436809714281336,0.239580369038523,-0.11511181963714819,0.15471630454647423,0.06283629314516571,-0.08609189465127041,-0.02467061949767502,-0.10590143920463232,-0.3483071529372891,0.012047301743893752,-0.1787447999487855,-0.16464925287140963,0.16946457754375913,0.007395224332977493,0.1553626478821759,-0.09907310740201326,-0.16278566653776785,-0.32901467336841406,-0.030812016354384787
-0.07420529314928363,-0.173370114110707,-0.24029268679418667,-0.0921420108040156,-0.2534865815782259,0.23586972843326476,0.05711648708431648,-0.025798416862783436,-0.09837843429392366,-0.1936834769786741,-0.20853518079281944,0.03592172278031038,-0.16012301867955692,-0.19992138434460044,0.019465042729971523,-0.24459875502882833,-0.10600027676633539,-0.28554345021373617,0.1150023304599566,-0.016304862332855916,0.10111174532556634,-0.17822983491763683,0.1471685796036275,0.08813170823290768,-0.16479444306886018,0.034836228196409615,0.13513728407134784,-0.11675092702360486,0.25027736860986405,-0.027292943815511058,0.03609907656315142,0.12101875913074238
-0.08458605103232922,0.05535767683395762,-0.19099172265502934,0.07346040947263982,0.14476205594020003,0.00015409649062391787,0.0789163071961122,0.2787949105102783,0.10530318624316792,0.048501798280569636,-0.04753727208860114,-0.36992126193834196,-0.11946779071894952,-0.07136487980283757,-0.10741767759393389,-0.1946975246173212,-0.3047316440456677,0.533102044098917,0.15892777229206145,-0.044077913858244507,-0.04293421643263496,0.21235441090598317,0.051054642345841506,0.05266366190891539,-0.22669140226656034,0.09080743895125884,-0.03050998317018922,-0.06702955041808761,0.1907045098712366,0.13953464012178762,-0.014888294090898296,0.14192342995059035
-0.30022058349961556,0.10944469775652006,-0.010147908334791534,0.2593238447667897,0.24660056728837257,-0.03535274839465395,0.10518047297080037,-0.2677572890024822,0.010520953696632921,0.013408660103151419,0.07123768713837719,-0.04723970680030405,-0.3009811010456354,0.14800222983794323,-0.18649837167981664,0.3136920651388939,-0.21278673581480306,0.16357767734514533,0.40776858769751206,0.10378067628804236,-0.21438008611465525,0.2608650587546405,-0.06734662596079576,0.013276220023986483,0.05292250834052501,-0.21472217602444071,0.014332165251531736,-0.13933462723856185,0.37956896140023744,-0.21549355994844674,0.12008523119038762,0.10047096959960647
-0.06145805216310453,0.11812808885031209,-0.02665885941684863,0.015519931716364089,0.3090994940233243,0.23553358217160744,0.08289199922006554,-0.21270205743969206,-0.02958025199313293,-0.15664793210363098,-0.20939262018060262,0.20139787723012006,0.03250840069762399,-0.187100270834262,-0.016064571976533295,0.11550639008821409,-0.10875099048771396,0.1879594908862451,0.05413225870006708,-0.18691245879562385,-0.2993144483859868,-0.3017047540693738,-0.03825434885681219,0.05890125625237201,-0.029759052386220574,-0.06131693166342792,-0.15112424118288348,-0.34820659052532116,0.3486979079525443,-0.005641544368292467,-0.1331581223746388,0.010445089676103563
-0.42689598359791353,0.16888542957093944,-0.25088679315754303,-0.013631997819209492,0.14985010332715265,0.03783039933388324,-0.2222756867285521,0.13048060478432433,0.29127618514874287,-0.010802999964870306,0.0438649567526799,-0.051384657553391305,-0.17512562705334753,-0.4110577715575925,-0.1606531991464583,0.1263937300799535,0.007358325751134119,-0.28189089095295106,-0.33395664887085164,0.14972547223398996,-0.029836265330492287,-0.0016532770647949638,0.45328603117358257,-0.3300737128402541,-0.17092046804685573,-0.05610630915342065,0.1580576977905533,0.2512868877839704,-0.26068793432299786,-0.01832677018165063,0.4718368985625721,-0.1283006153553029
-0.23172618883555432,0.13468397077400887,0.178039884606381,0.31049568755824547,-0.07823032637363836,0.1490130493954414,-0.2662930275680631,-0.07897924694023863,0.17110214529988552,0.03408755466542619,0.1388012090281743,-0.15036007561351417,0.16151446366407,-0.048426371117850364,-0.19409887355924135,-0.32606262454119406,-0.09385411594990016,-0.13872176410240472,-0.2753543887026746,-0.13515788849026383,0.22682861199738769,-0.001852919545189039,-0.20012006868592738,-0.044536172549359446,0.006132889946645493,0.06093410682152209,-0.08248402413758786,0.13561924724560143,-0.1861867547697253,0.12672816519694644,-0.0687803468776773,0.24030941894225322
0.08665889802490491,-0.15829342099620713,0.3499850480566589,-0.08851435559902172,0.3320472420850615,-0.14623037846152184,-0.004958823408416228,-0.04519344738829249,0.009765251052544072,0.01578430762676996,-0.06272457010734472,-0.049923833174035905,0.015802946367920373,-0.09991725060574327,0.1834840532126612,-0.06445835986536655,-0.13326252472603065,-0.3867073208288596,-0.12793526494867616,-0.24804473790819612,-0.03636641370619634,0.11173679861777028,0.052644218621108824,-0.03187141601021524,-0.19431066459621488,0.1596435978204395,0.38511142923742003,-0.2948171811996135,0.01578583335330213,0.029379939214652574,0.007521426009579065,-0.05418015279745588
-0.31739916368856497,0.1927537448647796,0.26039647424569423,0.16225964155106387,-0.3001024387789799,0.22341750641547292,0.091984621566916,-0.09624758532449997,0.10104882749946424,0.034812964790417164,-0.021284974969604867,0.013510382068001484,0.062301202261122034,0.14805554021790354,0.0945897557594801,-0.24928387406225633,-0.08636359895569604,0.1631901736793086,0.30721395843613414,0.13550320111830713,-0.1259168597727306,-0.17191037665129713,-0.06376048290853756,0.2877469346319393,0.013298708362072876,-0.11763299767228129,0.20848403337255025,-0.06514348827797455,0.2629810580906212,-0.12151901791484485,-0.028059338109761425,0.09976344509787798
-0.13554144857386954,0.08938500491529726,-0.03758906997703818,0.08866885967399342,-0.18305668785896423,-0.04966826740107517,-0.026605330839774895,-0.022058022413111146,-0.052192519400444067,-0.21743382155546365,-0.1546693755834734,-0.016696122977871004,0.026611420477838703,-0.08749840449988468,-0.00595418028338492,0.11043093716198078,-0.06932790459535938,-0.25701759992421597,-0.22852172103923815,-0.5041183840161932,0.31296656317474797,0.30185020871358786,-0.031101057606435903,-0.3241093839240602,-0.15173943087853384,-0.021246110055637632,-0.28633187471003674,0.153787368550156,-0.07052590184731021,-0.15091175454385244,0.09777406686895612,-0.10372213452123216
-0.28448603698607916,-0.030752932168493324,-0.07726959492520473,0.13191025743490936,0.1885322856404423,0.27826899854574166,-0.2866357723534007,0.13521278269066334,-0.2067623890373608,-0.5331412593811997,-0.2867774548474022,-0.036258541156879855,0.13454128612802974,-0.12771669327248714,0.7289955361702471,0.07493759617202536,0.17702378412156577,-0.03138779392407351,0.06780470731492311,0.1328513767055403,0.24570333084959967,-0.37576072207277617,-0.07068122687964098,0.008144669792214943,0.05365737246837575,-0.02369670990456789,0.12207846549177763,-0.03700091406274064,0.17956865910458047,0.14444357025566323,-0.07428189991122176,-0.04949447041780858
0.18897471163663404,-0.14282889402436658,-0.20828959680923653,-0.1529281988333022,-0.3058118912788955,-0.07926183370786491,0.06097488423238072,-0.13750317324680605,0.39897306591825943,0.24199553659327416,-0.06468248509580482,0.07121587697511758,-0.25777636399426995,0.0636468716294704,0.10613512711598758,0.13118520873419393,0.08391418126108109,-0.162687754632584,-0.05434101174809909,-0.22674761989110423,-0.05134709495198548,-0.25896078895218694,-0.06051810465408778,0.03148596595589735,-0.2124786693719192,0.16376535369061232,0.003504755369363822,-0.13820147309947914,0.24097932527259333,0.009540837466509675,-0.06927857502615953,-0.059912728905841095
0.09190867231551288,-0.2295694105819052,0.13293320790727875,-0.08685889671434305,0.07559607291380348,-0.11131458628475804,0.09345531068119928,-0.04931334565639239,-0.10571283344888727,-0.25360649546009645,0.04409082564665897,-0.02211691528230606,0.2417855465395397,0.073369114496787,-0.0857060922584058,0.19807491891603574,0.08549622271267049,-0.283521666372334,-0.041719088645652685,-0.38895480232205404,0.018868745041344358,0.29611759845645164,0.030292270161657815,0.17263019787914252,-0.3376962980005397,0.15354739165635992,-0.2084590258992145,-0.08370745096874704,-0.30231929633575483,0.155678518169064,-0.12670854159491848,-0.030800921292447877
-0.26455168937599804,0.008147209639533538,0.0373284227408817,-0.09490269798481374,-0.15148482544905031,-0.11630033755298681,0.00623420703009036,-0.08532371110832081,-0.22955338483716708,0.12466355316190028,0.2788579420877533,-0.23619994033981628,0.19613243692804488,-0.24594868065370698,0.14448256719127406,-0.06386322993307861,-0.164876078848228,-0.029683156911081192,0.21390938385331432,0.011281086337798224,-0.4009552015660999,-0.31615402128561637,0.08072071043123918,-0.04988430093932773,0.027311377169085552,-0.019350865759609575,0.12709938678559884,0.1251389549576044,-0.3781111176599621,-0.018327519586050816,0.02146723774237194,-0.23780547922837184
-0.0857773776734108,0.12411890206560733,0.0858340037767967,-0.049299084528109875,0.21483039660890738,0.09247148717146997,0.22124687446157304,-0.30817730594878934,-0.05607028513673959,0.24591214416167076,-0.1125175542265633,0.15056835382532657,-0.12899333446700462,-0.15502952361035743,0.13329807647287972,0.21818222902942752,-0.052859255808070785,0.04513098103561394,0.08110346302122795,0.11046446532609866,0.003401763371630091,0.18092474984313633,-0.27633279498879476,0.07745327888939066,0.1366459336901813,-0.07830914178784382,0.05009811575203065,0.10257473809337839,0.10165012349440587,-0.13644763950954195,0.45349098363380014,-0.03627142279966505
-0.23443123564776316,0.03720818559507633,-0.07318420432254984,0.15456739923807036,0.1142621210538344,-0.07425878319746534,0.0936153590609523,0.03249090200129713,0.1758718322866532,-0.023744563849108048,0.18706954814849205,0.11108212701820377,0.10537797203079485,-0.20611719721552876,-0.08612913163522738,-0.003860680541199624,0.012275039094994486,-0.2355167367356857,-0.05351507965459134,-0.05700040302721553,-0.08499208957844369,-0.1701161423959483,-0.06376270163983479,0.046866631943072334,0.17752485997461404,-0.13116660287141968,-0.15463844617294845,-0.13493748687576568,0.3354205750511562,0.10042967431164598,-0.004975223467087791,0.03827934154668558
-0.04869471284140561,0.024662513123390396,0.1584130443671906,-0.1540912826410613,0.3670324775305584,0.09147285747036767,0.003166687173969779,-0.10722770278154019,0.007389972759480062,-0.03712024492613653,0.014636171091591814,-0.0018804466131738878,-0.18186301449786066,-0.02304338221711213,-0.20483900187365903,0.2036341851553086,0.14433947049922224,-0.20810682007782705,-0.015218508329276055,0.13212743210970104,0.17200372305102715,-0.05707026311509143,-0.3966797547071181,0.08285410936500011,-0.09392932512822359,-0.03159249108250716,0.17253954536717314,-0.3823923363937428,0.07099369964741448,0.09052204762456945,-0.12922799873877136,-0.09336459545006136
0.28478287159602406,0.1642533214025457,0.07472244610062505,-0.23726655671430627,0.20856754424741208,0.23348377739535223,-0.18570387752446643,-0.19254035401896136,-0.045196293957697704,-0.10436561257429602,0.10811793630345594,0.060035989307560204,0.10744503466639811,-0.11713116985678597,-0.1315415332762659,-0.04920742446503022,0.22958519241713632,0.27043336245201444,0.09223100263189236,0.20188968038338942,-0.11355304619008996,-0.043243951747765574,-0.06560733985102998,-0.007281446038311834,-0.04933531474370875,0.14234093128315725,0.06481955209066154,-0.3695440703923251,-0.08032081813289409,0.14325739320013098,0.14731600178274623,0.0628667985624471
-0.014238849215088856,0.053605201233293286,-0.2962453437689781,-0.016832783203789465,0.15144316697927884,-0.3621049709216889,-0.017619397554638323,-0.19941999946656971,0.13576953166570685,-0.016760853281713648,0.04983141502736469,0.26249359233616787,0.04317068716684786,-0.2950200747518913,-0.11470598979979456,0.5270907279086214,0.0013706243361949542,0.20001769815748122,0.001974579776367768,-0.14118553887730176,-0.18792795683410393,-0.0019725437897513748,-0.07876730742319768,0.06224972830716491,0.10131175674430766,0.1340798755877025,0.21296259426262767,-0.02323825638098007,-0.011921650533098904,0.4626983081233385,-0.03443159245625742,-0.06462883950534415
-0.024728298880362442,-0.1579784321657018,-0.01592194580515516,-0.07536500725256648,0.058981730467207366,0.317374528123425,-0.08357446299511839,0.19716666210738865,-0.1727318799451335,2.9410318049303732e-05,-0.3228405956847419,-0.18159791189004823,-0.2566907949666489,0.1825279990190934,-0.01168758548908295,-0.19607667814738633,-0.1277403241619509,0.1189810083464685,-0.2403315126738664,-0.2032154805611946,-0.16021748239338604,0.15947733403889497,-0.1586523192988614,-0.22158478247414948,0.4199777049624022,0.26566273091807674,-0.1599720295906895,-0.23438867930005114,0.21950936484558733,0.027403802486928117,-0.05713440086472237,-0.09716166505286129
-0.23359595326439306,0.08606434715005534,-0.1555724248040998,-0.015424407960926272,0.16688243329887603,-0.1856899220183411,-0.29859117668573526,0.17518459643166814,0.07001329147563425,0.07745496274576609,-0.22133673120201147,0.2115599041036,-0.26650027697623335,0.2687033552277358,-0.27441442112994285,0.11550764968900053,-0.07791303501557414,0.009423702842278597,0.0033675289377170367,-0.09514238744824369,-0.023669265567862814,0.026620636932830958,-0.08686422480013943,0.2514582872548726,-0.0974742229592887,-0.06241741739626489,0.0045969703183247725,-0.3074254727478968,-0.152828820086204,0.011321902895126829,0.047599524907667924,0.041442629075304584
-0.10922033560051504,-0.05619833607152639,0.011356843817824192,0.4242599567338223,0.05322657201070261,0.0009043678967927795,0.20797293153328933,0.19202950351075265,0.3402853612191377,0.14344114494177668,0.055004383929988465,0.0852154835843388,-0.07629998079529411,0.25702744012329803,-0.10023409402416798,0.24000822109315342,-0.4411290153645688,-0.2864938337942914,-0.09755332782027543,0.32486867688088217,0.2091578918776678,0.26999702734208314,0.05278555124657891,0.2465535513258696,-0.11971397996995341,0.0615428484117853,0.028945006695368383,-0.26459931402619136,-0.1686247434167572,0.34339195859085525,-0.009965879886907177,0.03766190279989813
-0.020501150369808253,0.018425208813598104,-0.069313427989058,0.18686632557079683,-0.20237636038187315,-0.20460396111896723,0.1760567556674531,0.27691331837445454,0.4021372198439465,0.07490139057170633,-0.2525388058194097,0.11035238779137921,0.04579322276374268,-0.2848350184379345,-0.3717889057193659,0.09507425400785939,0.2052886667984004,-0.08054309513539362,-0.24818304273071468,0.10981209736599959,-0.042502398105319916,-0.14304003447348976,-0.35484202263568704,0.04080837830673826,-0.1965903979454118,0.06290652068219725,-0.2497376669283628,0.144613289864607,0.04867382397672122,0.050097038929384795,-0.01253004031550821,-0.13563943248678115
-0.06094402490210935,0.3602507935907788,-0.03574604840862492,-0.06718439116840118,0.04877302110342883,-0.01833601481836184,0.034308045452120337,0.44603718584593466,0.42688510400449153,0.32693401441993436,0.07763678208250974,-0.1474401139257376,-0.10041646062891527,0.011018569564144388,0.14117742320495927,-0.0016930400662498188,-0.34378823149224763,-0.1868671326599765,0.004034944297619758,0.2343557369764589,0.0324301237817408,0.1970211094777525,-0.18092821376180296,0.1599185385687707,-0.0788964998208888,0.15757782031925152,0.18725886097444494,-0.03892440170670695,-0.22296764568550168,0.19548251994223942,0.027296892345396482,0.04950388451457225
-0.04116282841022615,0.03961610714217382,0.11550231247439335,0.05042526315094259,-0.29071348899225485,0.22390231226841822,0.15266458265864113,0.3214125713551924,0.005725951724127932,-0.32408972003293707,-0.06577537493190719,0.2574582806015376,-0.3759238336184249,-0.3146915436527273,-0.08674445332555367,-0.22947514723024048,0.179680314399501,0.11731156398291535,0.034644190323409464,0.1010100481356609,-0.2818789350807397,0.05451436534957041,-0.2433896810769601,-0.133589435334259,-0.13955632761169054,-0.00015359645926133056,0.16316003979536176,-0.27964704093520487,0.1334309710125478,0.1884516360150513,0.20773480716642306,0.116548347020238
0.1916014921598189,0.05374423994475116,0.028043071544771418,0.14505254887720007,-0.06638336805523487,0.09059769629836015,-0.32439432682043856,-0.21756336914474067,-0.0019312243292619023,0.4250523217114173,0.0029584239251840734,0.09983987850294261,0.1973229965559066,0.2945802275604638,0.2458081484460592,-0.10527809331926016,-0.008319533579436959,-0.15335647206115793,-0.05590779536290478,-0.15752071182167,-0.1969901740244287,0.30093922559226055,-0.13395329813558482,-0.17320222164266105,0.04678329935246357,0.06280783740198799,-0.05809105590074517,0.26861923434691487,-0.14145896763963375,0.2058862708047204,-0.23131923219873426,-0.00017655275358777181
0.17824394416059777,0.024067241799101795,-0.056251714864899514,-0.12027494371573985,-0.29641010283351715,0.09085598118572626,0.03492717894436407,0.12470710683572626,-0.011443439848828896,-0.011188158863313822,-0.0001990486259453546,-0.04091022765158029,-0.09367571435465034,0.11675132616225815,-0.16938516981073112,-0.04709689478504005,-0.10562311601653898,-0.042827953437525976,0.0737358002842791,-0.25945423383463234,0.0595432928727616,0.27321447037446855,-0.047614036996474964,0.20994044575073798,-0.053037134049768044,-0.06305884924391764,-0.27936190144152373,-0.11338134896523214,0.08908086776740971,-0.1579718385915782,-0.11262730824303722,0.037420010457955774
-0.11444782995015082,-0.11451520624689875,-0.07260918827458582,-0.21431281285951645,0.0712777430069094,0.05979145666290527,0.06458734265918799,0.01700052134505916,-0.22526611141788552,-0.1436884044130572,0.16690333348176759,-0.19770033118034644,0.15383372912606844,0.33757903148297436,0.6456112781651681,-0.2644326053976382,-0.26570420182715054,0.1476138886903128,-0.24128627325661195,-0.4211876490266025,-0.13750036145095698,-0.05676972236129354,-0.2451775198819764,0.08830165285297469,-0.13016078059077232,-0.12742978367955024,-0.025233647791915184,0.24665292023103663,0.01287150068597367,0.11086945870066373,-0.3942423585461604,0.20863839575253504
0.10891878623354397,-0.09910098252341447,-0.21408380688827125,0.08305240063972845,-0.03412680575520771,-0.05588166591082766,0.19175012843504474,0.11383349930752364,0.013433057913567314,-0.1706892787061352,-0.11816422935778854,0.3306436958303096,0.35260288616709473,0.03680534076215146,-0.22185422773938615,0.21052196818105942,-0.15110021005213253,-0.12527749331460702,-0.21929160720415186,-0.009882033501879089,0.04089758768900181,-0.004679180134876275,-0.1547721880645424,-0.14428373613104006,0.02822857867953704,-0.022062457691118875,0.11511859835755514,0.29761227319109657,0.008234510277036962,0.36075647514419723,-0.1635965132999963,0.1497496176413707
-0.03720165246607493,0.3437003918187624,-0.15319027200895508,0.02201307210894503,0.08388308268366264,0.1499205886473908,0.08576923050434912,0.08150646682512695,-0.25937791224516726,0.2750349675945971,0.440476096356705,-0.1739256722481986,-0.1378794991816629,0.058133475242416854,0.11497893465475874,0.25592441443304415,-0.061205059092320685,0.03058814787976915,0.27407261280263584,0.03275796291284665,0.010182562543855887,-0.026549789334493496,0.12389674045002842,-0.10808984092349695,-0.05481389202591606,0.05315665488602236,-0.07862539201612515,0.10436507197183717,0.07146109994982351,0.09589736262327535,0.14279879537778742,-0.07866850306178431
0.06491895992094893,0.11906522104298574,-0.08837617471267903,0.02382062692097318,-0.03961197003042439,-0.09850636740813565,-0.13370862184287685,0.3165958752194318,0.1586009661734015,-0.09596990409303162,0.21227337436896518,-0.14641706382379646,0.3188224329563884,-0.04961203305575116,0.08594425129595795,0.07187810611885197,-0.010977822332410002,-0.12561891140319387,-0.11947241317830647,0.2298751250005144,0.13893757529644335,0.010474100360728412,-0.1040872017515331,-0.21726809162938487,-0.040171269150564,0.37685837769099445,0.28262952979137074,0.02863038892313954,-0.03680185969909165,0.07716360593599436,-0.0691944583630527,-0.20657467812057226
-0.04146967547360491,-0.24099663706198898,-0.2436167375278632,0.012183690055276685,0.3248014674967728,0.11227802143978428,0.18382209932002125,-0.3328145127544475,0.0952318956219006,-0.24267608451477543,-0.08631910186631714,0.07961788069760126,-0.05132896417526639,0.13567880472433222,-0.19733710236886665,-0.03557694333019384,-0.003149252032779089,-0.14828128565794604,-0.2525596921607187,0.23162681674959934,-0.2614929952706487,-0.13188024081215202,0.10911714241465933,0.29558854192109385,-0.03892479995291475,0.21743798956921273,0.1578412600501267,0.2240164131186444,-0.1127618624214804,0.07492260191165077,0.03183937039116534,0.5003580198795683
-0.09037876684176052,-0.0017589758320679797,0.21561221731519778,-0.11227595226297833,-0.0653479510611464,0.15847619488898854,-0.05961484075008807,-0.2554844917412558,0.19940426635899017,-0.14048552760342733,-0.26095116683094716,-0.046864658979663486,-0.12512083100576707,0.2041280685433658,-0.0004970586900870834,0.24087581031713884,0.12087226917085123,-0.054956773588899874,0.00038515466890333113,-0.0384409328832253,-0.19888196325333407,0.1186732600467794,0.2522637497355353,0.0298401816163256,-0.08651270739876839,-0.11705542413598698,-0.110218329102652,-0.30392247865999833,-0.029464654722289246,-0.25867138215545443,0.08188278880613346,0.08426321862036246
-0.2036391493694715,0.08586488898378417,0.1039397384829607,-0.07448856474196329,0.061961360458578384,0.05120652170362367,-0.23881440322840514,-0.17746164910795728,0.019255331060370168,-0.0366881112166311,0.0526122447757047,-0.022122642817554657,0.04970519080222241,0.20805854672693455,0.14851423221320154,-0.2746847750104981,0.03189290434388742,0.06596723995987865,-0.22374559768789848,-0.2788519304435013,-0.05331258029402564,0.3180931621488607,0.1564697938402973,-0.09089929466590808,0.0375966276009977,-0.24448859282791466,-0.32837273675591033,-0.26889071764272815,0.20946675336764603,0.12985240228002703,0.17186366742348846,0.09721361591739534
0.09196951366718184,-0.16603369427569356,0.27912861385149246,-0.12501850188131464,-0.015518010560257223,0.2734534861701381,-0.1800780486984316,-0.007155364529224232,-0.00012427436894070834,-0.2624457025791263,-0.2804694228664235,-0.001480293106267702,0.03441047076669696,-0.05951638694608216,0.04205188235098309,-0.18838254941978613,0.24334233487230772,0.15964950875181383,-0.0028860899411072825,0.022042646998963113,-0.019325847345772185,-0.006247231805464199,-0.10597475250279695,0.2940294713333487,-0.203164243018201,-0.1728059581084723,-0.03081717025788632,0.06986419358444369,0.37718090999398796,0.10552549913271145,0.08287295041652071,0.3316536706506589
-0.1551965702715976,0.11751731041033342,0.062424575605861364,-0.2485962547328285,-0.03769083406775674,-0.10690520795575652,-0.18119872534904533,0.14137946969838291,-0.2067164549105191,0.15105794708939363,-0.07505074257931843,-0.13816691851516044,-0.13404272686003357,-0.09756341470382372,-0.07165304422509391,0.010825356130823256,-0.093889653607362,0.14460586243425033,-0.07570417359436937,0.11818336932647146,-0.1947795524568541,-0.016616436334610494,-0.0018088457152298147,0.27244076348367835,-0.04491915948837328,0.032485516026490316,-0.46311885115381995,-0.3411600652264936,-0.038389716851298696,0.21407711204200983,0.30315759635670647,0.1436944930625869
0.17539714510130003,-0.08953645458984084,0.011809217947948498,0.3417369823295126,0.4313612036690542,-0.11433695267831476,0.05161378701796938,0.22024733330657614,0.19123225668463062,0.13396632713122755,-0.14498700387176566,0.07810701265508652,0.057391462947857214,-0.04456846846822788,-0.21325033701688578,-0.21369996064485486,0.2193120697883808,-0.022765115114448703,0.04882527396597966,0.5350048309965333,-0.0540908059486136,-0.11159248045984724,0.039274394694847704,0.2769036685235027,-0.4332167409185986,-0.17158394668054033,-0.18256021180610288,-0.04459369776461817,0.03470290175153206,-0.38360226083171267,0.26944277447254117,0.04281944706590693
-0.13804383129321646,0.16662528535104043,0.011453301682778562,-0.023285067378274696,-0.10068664625065211,-0.2832657402823718,0.005754114608654994,0.1419826862063907,0.18239592518658315,0.0592430091186655,-0.007859971277132973,-0.01719139413574956,-0.041589230618981524,0.020987396397992106,0.13174513614103717,0.08245693643159549,-0.22703918934185743,-0.09540871949751649,0.40854313360266165,-0.011182857220746006,-0.02167217032298386,-0.17945411340224277,0.15384874257310394,0.08598871175255741,-0.050403332943725766,0.05366643399777596,-0.019486281453910785,0.18467304402896986,-0.017726597599840594,-0.1725941903526445,-0.061599344481954074,0.011857136399414716
-0.03747476685506008,-0.1646700634184572,-0.08436321292923298,-0.03495147107584323,-0.12264288640412535,0.008618434877651224,-0.07601947553907894,0.17292176288911115,-0.011442312199738642,-0.027493529892407224,-0.21834369415314048,-0.26403295400684695,-0.01801042824017777,-0.20612191201930163,0.027945042950592042,-0.07950061790309887,-0.3673784762004199,0.14419497928194472,-0.10543550571534611,-0.24074860044744864,0.04559649107334936,0.3657084749548775,-0.10916795510014742,-0.006865480882862088,0.28394313374063157,-0.21000802358696916,0.5624019956590669,-0.197280092043438,0.12439161375028476,0.15628419813210093,0.23568859886295038,0.20285427071420475
0.06562083473932066,0.017375937438735976,0.2610250622372954,0.4130718799288393,-0.00441125768298717,-0.2671048312471082,-0.11412211101867023,-0.27857770568276125,-0.30058922695213613,-0.0029677244560562667,0.1531737274002705,0.3506646309589406,-0.03514458286583816,-0.09165692499160669,-0.2185411122190472,0.22512245359960473,-0.23624627322539768,-0.18967595603860338,0.23637346252732241,0.06506039862237292,0.14674408495215277,-0.08771761156941416,-0.30817045240650365,-0.26190582222997444,0.4065599472055075,0.2042978495541137,0.03549016345195287,-0.1274909901861693,-0.011564426086128005,0.2136749928758553,-0.17076276849446023,0.09223397818794292
0.06168212481652237,0.06345971434678747,-0.1669158026694304,-0.073110218364246,-0.08219030594220661,-0.07854287330914808,-0.10534775371943056,-0.259690079834044,0.12150834350999533,-0.1616043876963024,-0.18551868845392588,0.09060946603482065,0.11405430165953431,0.14222845823573238,-0.09812906411875083,0.19702411493938832,0.0908370741465442,-0.024163112502754425,0.12397317997225127,-0.09751325290705705,0.073141672543032,-0.1645074114418423,-0.20774174713619065,0.0006476003769055072,-0.49854389142167005,0.046175028620054605,-0.041694058249291635,0.23525672764579725,0.1841588672987245,0.16139118168885586,-0.14589540610949397,-0.2126755829717708
0.04686419204144866,-0.07692817555431151,0.15740205337322657,0.08508639079751382,-0.30119481993456737,-0.20004772655934777,-0.20417884351965293,-0.11890354277041357,-0.04201279562368487,0.17864204092365352,0.012144956624744175,0.3897583045283347,-0.051065623741723416,0.14499873069624034,0.1639681517728287,-0.11080606284023736,0.08168831209976668,0.18077322815633953,0.07380217419309185,-0.2089318197795127,-0.20061036176534225,-0.08535688125972497,-0.2634769689069288,-0.014554195090266214,0.09911095629118427,-0.09395409320134479,-0.06178357954967536,0.01339333670118943,0.21860728624020548,0.17688978647019896,0.024646584419626104,0.08633494670900865
0.2088268138883873,-0.23343181506147007,0.09727035578952938,-0.10695475679337631,0.1547104612022765,0.00629892534885877,0.07090088799534329,-0.11388790021652138,-0.48045439599337925,0.10758015617431906,-0.005292496025781848,0.13527916997819917,0.2896480424076993,0.04619585688856329,-0.20171437805172518,0.19857192576094684,-0.1858881095479052,0.1710072430973564,0.24377823757618047,-0.19977685585365657,0.1718414252114403,-0.014812287686400593,0.1553508304004025,0.037189286705829334,0.2830778947389595,-0.011235410834454678,-0.1303389901035759,-0.08192364866957624,-0.18708760896817575,0.05954569097781238,-0.062058356695009975,-0.31160484497874896
-0.15126368707365864,0.20292925303286957,-0.20264173933678165,0.0942737681124073,0.026195536524276142,-0.36509669208457224,-0.3926825152390427,-0.09621070419904483,-0.1895174439781715,0.07094911556615105,-0.08389746383756026,-0.34997642093294357,-0.11883030772137287,0.05156380878444289,-0.1151840244769954,0.45251052828127797,0.13691263012915053,-0.06859981711467658,-0.1133749047709859,-0.08917151166585781,0.05392008892340438,0.05481188500857426,0.22448624516814647,0.11916060891467357,-0.09496825053802067,0.10601846966335164,0.12565053289311337,-0.1847399262834832,-0.043826321887979,0.041536168214175155,0.13847092774625966,0.022763764824889447
0.16463825377866625,0.03634604201140198,0.05839857312680134,-0.18855292136559842,0.19014154427190935,0.25705175304010447,0.3234607140394786,-0.01949397210214315,-0.09519680378858329,0.25911719317194626,-0.12453798634189302,0.11203748345304518,0.3250554586428707,-0.09008680739670444,0.03983440471143492,-0.24249403470781805,0.31282331542865643,0.234786421235565,-0.043982049214535066,0.17995114602231896,0.10548557118050195,-0.2141506828529045,0.03795644014778309,0.1686540556067235,0.14011143180302854,-0.19807971295622984,0.14427705507534067,-0.009550654490087929,-0.11424650341518595,0.04204550480611945,0.35729093329882977,-0.05801675634141708
0.19257168149014028,-0.15658698462745904,0.075350852040429,0.111112663687146,-0.2450647466230341,-0.2707727302654484,-0.010242711715519937,0.19327120821980953,-0.0034639260448795996,0.160403746654438,-0.14549411640789367,-0.060427309461922506,-0.29606158786115855,0.06530403502276848,0.00047272543570428413,-0.13282206126119964,0.1807797791142602,-0.18675830694190465,-0.004752192686383092,-0.008933994586924534,0.09187472141293776,0.1793773522238767,-0.07664997968625022,-0.19242628501644346,0.5426534401753003,0.15290666149066123,0.037930547875330345,-0.22616695095747877,-0.22853995128104018,-0.10988026241104396,-0.2226196693577739,-0.2091438476512473
0.012546792133193468,-0.16446547655157162,0.08388959782264485,0.16069691453628523,-0.28349663913808043,0.16201456638621672,-0.06290237192516596,-0.1494349668868188,-0.006216422220966058,-0.027303150947222306,0.19354245711416562,0.03994671865372391,-0.37863313996626463,0.03332895288588313,-0.046013649720124346,-0.036982093956256366,0.11327189910907214,-0.13009219979883266,0.12483259677278163,0.07581987646813318,0.23729400055280928,0.053784237471816355,-0.18915545265569986,0.28648666749454316,-0.31108168620429844,0.11758110395367911,0.08602456582323526,0.02343059236122987,0.28039169321379737,-0.05637114137917925,-0.37064454481427206,0.08130017815097389
-0.1513798245498949,-0.09813888045711318,0.006028979391239201,0.02944237346271865,0.17170629052859274,-0.06266131793995715,-0.39431132240907224,0.18894002166399584,-0.19852112820056078,-0.17373060848935273,0.09723088750853692,0.37217667546514643,-0.06955068559366166,0.11968447923920968,-0.048897752821902826,-0.22634812419659386,0.13749943710346,-0.17899775959582837,0.02636928410612966,-0.28580220513024146,0.17146044300086521,0.1396561062980086,-0.2808735099173227,0.02081169229009729,-0.1961424229205708,0.19505666533931765,-0.003996427022995643,0.3108845064243988,-0.15336314027381903,-0.06291848967023704,0.14798137892194768,0.07492290350891918
0.011650311249180454,-0.1878759254577387,-0.19729811322700144,-0.016945863070675648,0.3188304401269797,-0.021531846690870837,-0.23469155689387447,0.044123534761414854,-0.02808696653622956,-0.0834414298999046,-0.14307310125993164,-0.17761867344185073,-0.2202445600646394,-0.14649604396058746,-0.22168411581633884,0.01701686476715754,-0.11958285695456862,-0.004376890353642103,-0.17345332132011737,0.02333222211813871,-0.4268343940008111,0.02616519251019796,-0.24268949795810293,0.09221056279941658,0.05221187759522301,-0.024340609801056765,0.02251256365680832,-0.15524397193901782,0.12806320392948148,0.10343431950726811,0.08869958437370377,-0.01621625145032029
-0.08449653244799117,-0.08904715961759883,0.08334607309018766,-0.21398286877212527,0.06092731155835988,0.029650494632950917,0.15292134236382676,0.2091449170974878,0.2098452053988817,0.04737515624885678,0.06971097925658956,0.18946173483372242,-0.10835729746842906,0.47160836256417976,-0.09610297352655033,-0.18838815655608412,0.08505293298458387,0.28367448901639486,0.18784321069950943,-0.12273977445940477,-0.019772867392881942,-0.15510239087525168,-0.1068091023392073,-0.24407854603287354,0.21375428979385758,0.032102943969284425,-0.033618767320036796,-0.07403150998636852,0.013935888404473386,-0.016035790406520825,-0.2053131439031551,-0.08253282090374021
0.20586300571532504,0.0943603377230784,0.0013308548515352447,0.029862204984230614,-0.12712380464154158,0.12177893482620399,0.032018792200982915,0.14538468655089845,-0.10435493896625882,-0.2631304336788774,0.13374259026487137,0.13378940362658956,-0.10789347029906829,-0.2089670479782444,0.08172161240432675,0.24978209413242938,0.265518404160424,0.08240867246742689,-0.14697426821914952,-0.028145223088342167,-0.010675289461894152,-0.06360713981187018,-0.16226486868794737,0.10764964371316385,0.11359856251658852,0.17589186978341328,0.11043800228669941,0.09360513510649436,0.21316927447887649,-0.09348806820171725,-0.02177993283238414,0.07119290915804467
-0.30787283264743237,0.10565969466335273,-0.008646266443323584,0.23800607279245184,-0.14989429926055314,0.165516470501059,-0.06955686607239808,0.2797480428140343,0.10767721373212658,-0.23737528665825855,-0.1970784634692584,0.01584586762317135,0.3207518425149946,-0.12107802129035519,0.022119703198823403,-0.060035797731434935,-0.15096267403780148,0.022700767082205357,-0.18580990440829956,-0.01491922991346195,-0.07115893001512776,-0.1949426391376455,0.1334766208192439,-0.5874258358186488,0.43144964805661995,0.11410748986752532,0.23354136587014718,-0.12946658312179163,-0.17562783299006932,0.08038283182340702,-0.03456824030593771,-0.07962704259727212
-0.10798203101456856,-0.009476885503602539,-0.16099388083788976,-0.022125305993939796,0.225440671831795,0.28308503312760763,0.07102425773710207,-0.26526477858897546,0.23249097445448721,0.051184525281138475,-0.39386773089656785,0.23199261385884884,-0.11926634123776048,-0.02950440078590194,0.1032508392296122,0.11172754438141404,0.05157568732888103,-0.20876958366036302,-0.35366415920594174,-0.24089856330493042,0.012579985384137888,0.12723272725414275,-0.2964446500466973,-0.0852884615230683,-0.3294456640858722,-0.18405869239708839,-0.1291658172102823,0.001988885180874937,0.03212358629037181,0.0736765637841833,-0.1342440327678151,0.06105643986706321
0.004542407177383034,-0.05128651093655801,0.12910819987082411,0.08683724056810033,0.0022249661064122394,-0.09424868149165003,0.09331801573924381,-0.3706097107223596,0.13053958720090394,-0.14588797842803936,-0.03408578527555333,-0.044165507618569,-0.3034083256029918,-0.1416306240731996,-0.09104397472809453,-0.2488852681667987,-0.1179542472169484,0.0631075339462489,0.1410980868563257,-0.10591828489678068,0.022839235845439104,0.14886081574694368,-0.08790883685417268,0.10767425363942466,0.19517847094985094,0.09270249344722001,-0.027596482107164904,-0.034345319671687045,-0.09529755865631746,-0.15274723659070333,0.2877158610894071,-0.422558194961856

hidden2_to_output:
0.9747447348408609,1.0038410016962613,1.0065919902211047,1.005158198783821
-0.020820962969262145,-0.4228023614432952,-0.0515814396286106,-0.11950119986250085
-0.052991836099747634,-0.2010979552561696,-0.08110926087980239,0.23212195759489657
0.11696576901564527,0.193288342123256,-0.03942925754654633,-0.006251572036003745
-0.10118500839846327,-0.07595103387718972,-0.09526609663028572,0.2114608019337138
-0.08401009445693997,0.1911099806500578,-0.07029795185846728,0.08029963586030897
-0.1969677553895154,-0.26775582869181463,-0.3918210745089419,-0.4608360716657923
-0.22971348520537466,-0.10216711593303436,0.09326520565974558,-0.529244707070789
0.21752927971118272,0.22524943681786727,-0.42430260789114693,0.1254386889760951
0.1933646359835925,-0.19232351770440914,0.15624046404477152,0.4570129110754763
0.3080131303461197,-0.13110314731778308,0.18981541767786975,0.14317318450618075
0.597092586153819,0.10200676627645425,0.28326578009989845,-0.0360005392432613
0.26055416562842715,-0.13357971756633982,-0.007295287523454398,-0.034531285888555426
0.29553494144886167,-0.10316450260343556,0.13350083449536457,-0.26234100411564915
-0.17181664877035316,-0.08565383738455855,0.4529945422417507,-0.20007914534487142
0.34088362658100657,-0.07702958842434461,-0.22390393693314456,0.2138037321263981
0.18111203571242965,0.29087019539025555,0.11063069264252216,-0.1082314808760532
0.3284396956865003,0.22882034062660161,-0.18787078335344679,-0.4336010164187056
0.07223975587122616,0.21031786488617052,-0.2521645039963827,-0.5365182309441977
0.5231256730403064,-0.09579632655690953,0.18949568908544406,-0.12288383166916071
0.21982803368523132,-0.23895098452101632,0.431682311853789,0.01265869523068682
-0.14458475688155994,0.20207901449067397,-0.2534452419692513,-0.1657724064625146
-0.11719952576904859,-0.3738809951034604,-0.11168761472464055,-0.3156421660534963
0.4149972342659413,-0.00874628311643053,-0.18634778590748752,-0.4780319513732488
-0.22085397628300013,-0.4773048327595045,0.13174799057738842,0.3668650348862385
0.35681238432734363,0.040879314979663364,-0.31725014809282903,0.1004396584254537
0.07793848323204594,0.10599939417404805,0.5251184649285606,0.281121259054894
-0.15206180718513665,0.30216041300161406,-0.425969745145778,-0.054581955713959615
0.44278235148614514,-0.010408839950197932,-0.5596286137345787,0.30802559654822187
0.18781847270930155,-0.146864779360493,-0.15991298137533075,-0.0689305165477302
0.05338755011363313,0.026705620270310163,-0.07788717750623049,-0.47829981034913804
0.011021684506135639,0.033322906064164305,0.17006392867407302,-0.027684100608841536
-0.402644327186241,0.2677618551274998,0.11406066993780657,0.21339640941339594

