input_to_hidden1:
0.057596389254818435,0.05759639090440052,0.057596390459502836,0.05759638968424235,0.05759639011275457,0.05759639024661691,0.05759639225091441,0.05759639030800235,0.05759639070489859,0.057596390551930214,0.05759639116252829,0.05759638909237158,0.05759639028212311,0.057596391275629655,0.057596388744328084,0.05759638962369092,0.057596389136958664,0.057596390988609455,0.05759638980940215,0.057596389160063155,0.05759638897961564,0.05759639087070283,0.057596389696960466,0.05759639035131848,0.05759638995617848,0.057596390752387615,0.05759639108166525,0.05759639024536153,0.05759639122825742,0.057596390740779886,0.05759639109555332,0.05759638855908384,0.05759639000569858,0.05759638992408652,0.05759639156353087,0.057596390002173356,0.057596391780022786,0.0575963896540214,0.05759638928867813,0.057596391017640775,0.05759639105093589,0.057596390390137836,0.0575963898383082,0.05759638946376779,0.05759639011169644,0.05759639076099569,0.05759638948856841,0.057596390688082824,0.057596390998480164,0.057596390269414266,0.057596389328768094,0.057596389360942295,0.05759639094417263,0.05759638983802739,0.057596388221650203,0.05759639331715023,0.05759639196712061,0.05759639067577659,0.05759638773149031,0.057596389513773716,0.05759638981045698,0.05759639007115911,0.05759638806606028,0.05759639036833504
-0.0005786460013869456,6.431377623695883e-05,9.200480779489703e-07,-1.2625190338988352e-05,6.15472233100409e-05,-7.765071206470026e-06,0.0003587332125039271,-3.4442921403181156e-06,-0.0003580061496140446,-9.49237358309267e-05,-0.00011646501045657444,0.00018590165901190614,-1.8104951237359746e-05,7.464554994037647e-05,-0.00031097374573094876,-0.0003219079111469183,-0.0002593849780720128,-0.00011977835813796467,-0.00014920596858320062,8.816885771155728e-05,-0.00021202329232112384,0.0003391643298244762,-3.6396924423865535e-05,-0.00015047703575278687,0.0001788677514847008,-3.5481570578967965e-05,-7.304309756465941e-05,-8.904200668206784e-05,-0.0001681533399765616,0.00020458554207781354,-2.026553330200275e-05,0.00013054137035662045,0.00035777074796171333,1.8361330425696132e-05,-7.228175055985936e-05,-0.0006047703785279946,0.0004619599915877163,-0.00016759100533213887,-4.676308653853015e-05,0.0002880253107661992,0.0005348960522422311,0.00030496688954349084,7.973138103002253e-05,-0.00013250554884036648,-0.00013059048174951724,-0.00023822016514473993,3.2621160334492477e-06,9.93765882513345e-05,0.00013204853332681067,-0.0002199670220784016,0.00025967775817630477,-2.4655074799171655e-05,0.00043985791053732776,-0.00014899540908153543,0.00035581041008420615,-2.8549527075975984e-05,-0.00022706240804478618,0.0005058873303868895,6.71792095018672e-05,-0.00044640536685201196,0.0005809133881428085,-0.00011371027784641879,3.524965377529877e-05,0.00014035835951004325
-0.0003689635559714625,0.00015579716720122547,0.00011613352479171228,-0.00012622757317826705,-0.00022348614360626241,0.00023398046248999683,9.441065512530471e-05,-0.00010795096969919862,-0.00028102455473305593,-0.000281530118961355,2.588479762458772e-05,0.0001722861831295214,4.964476161394842e-05,-0.00013520991413187982,-0.00014849550995038886,-0.00015754752809091053,4.0879300891623106e-05,-0.00014773272907312373,0.000266232591097271,0.00021858836446828864,-0.00013823458763822816,0.00018318493137784713,-0.0004903588869431408,0.0002162326150141964,-0.000243128362819679,0.0002229889981071208,4.225294783482503e-05,-0.00024870665285914686,0.00018123593642196937,-0.0002212368024143355,4.9318817096749e-06,0.0001303780978821079,-5.330152652620756e-05,0.00027371401037011014,-0.0001375180375595198,-0.00010330606103880238,-0.0003339146434455721,0.0003346060797565667,0.00032131416364903,5.302425447032515e-06,0.0001383707378029708,-0.0002834368813124895,0.0002458649693090705,0.00024016547470250541,-0.0001231684337728655,-6.103272057343577e-05,-0.00035879801489383374,-0.000179290954319601,0.00036664108304595766,-5.385098175098037e-05,-1.3797023105298941e-05,0.00017130975812105822,0.00011183253589623523,9.251767316576081e-05,-1.865370392192181e-05,-8.955875422317641e-05,0.00018959711118408433,0.00029790340178465044,0.0001816517343283932,0.00019384140254244584,-0.0002442672831181079,-6.222255146868677e-05,-2.3708872813454765e-05,-0.00034180059928073556
-0.0005061198700782321,-0.00014085261212817967,-0.00011857172302983232,0.0002385531557611532,-9.571211515562457e-06,-3.2936181201951194e-05,0.0003836689923157657,0.0001333559977886595,-0.00010018184077171115,0.0002897724633323713,0.000478511230411909,-0.0001980049851852177,-0.000130409432333462,0.0001909138203582256,-0.00019027906538502586,7.117605763697429e-05,-0.00016235032038797273,-0.0001503941273463273,-0.0002489421799163209,5.992033234192365e-05,-0.00041408234988095453,4.5369787300249964e-06,0.00028878912375855344,0.0005640449447777878,-0.0001166423227198622,-0.0001770874911564683,-8.462630922225327e-05,-0.00021991612989650955,-0.0003738886490319108,0.00019866515659855544,0.0001835657606684958,-8.636302675167604e-05,-6.009331017375555e-05,0.00010378028884292676,-0.00011267940365279692,0.00011533046190819661,-4.5336465655615154e-06,-0.0002957763226421982,0.00021607448650262653,-2.8910280446655346e-05,0.000304031770602805,0.00015779564658665717,5.5941329281864117e-05,-9.782338068562948e-05,0.0006222876576235755,5.541083517948876e-05,-0.0001105458989195917,2.5346652000632294e-05,0.00021006634186728764,0.0004358862220313304,-0.00018431069312873998,0.0007358666954626794,-2.9272958753782413e-05,0.0002842789359109574,-0.0002538290091450931,-0.0003448563876429449,0.00023856362680132966,-0.0002436871175169172,7.633447705297385e-06,-3.6279216018460114e-05,0.00032173449430999176,8.625421885060864e-06,0.00012808148567122575,0.0001354994153035614
-0.000307296367782422,2.6743215656883364e-05,-0.00021163990987828292,1.902874874018081e-05,-5.754615549945756e-05,-0.0006133035423715645,0.0005097356596064034,0.0001539574458782546,-0.0003870629137825244,0.0003382923660425042,-4.622516258568426e-05,-0.00010753087365796478,0.00019520755234263515,-0.00032086102204615334,-0.00014619883067326682,-0.0002387447013070459,0.0002242180353423344,0.0005357178424312178,-4.976304744342411e-05,0.00047657325760592915,-0.00027542153557843217,0.00010478598880718378,-0.00017434109659898156,0.0001602754188830489,-0.00033874322931578237,0.0002881988035979406,0.00016377931544562732,0.0002764625182915203,-1.6799066953121998e-05,-0.0003943415682473303,0.00021512147838139667,-0.00015299418347845036,-3.151943470030191e-05,0.000215730215938776,9.547522424688418e-05,0.00011272573154873424,-6.284634015831214e-05,-0.0001792867871857471,0.00031230265975170014,3.204366352406979e-05,8.460973570859385e-05,0.0004633689853905175,-7.99141015763298e-06,-0.00038088291556542337,0.0002801040510276912,5.120490770244659e-05,-3.6814451307555115e-06,0.00012079324323603837,3.796441204489249e-05,-0.00011498403608494299,0.00010092213731354243,0.00027371658395832746,-0.0005223860328900981,9.591965731497143e-05,-4.52671436224821e-05,0.0003811999491541496,-0.0002234183059222788,0.00012771078894682815,-0.00022575761553300327,-0.00033422162833127107,0.0002443011964271435,0.000163455280415933,-2.367318337306195e-05,-0.0002626766654294036
-7.997644180254868e-05,-0.00022723010893140947,0.00025330612450051696,-9.559099730277384e-05,0.0001851215706192214,-0.0002248008248370686,-0.0001151016487324276,-0.0003054486046293437,-1.9291346405666808e-05,-0.00011156571268823885,0.00020354413002469072,-0.00015215230988349198,-0.000523683447678113,-0.00014072706585729295,-0.00023884903033651915,-3.2537575028077736e-05,2.5769835980846336e-05,0.0003942390751471541,0.0004346386867776606,-9.262412367694144e-05,-8.099305226890478e-05,3.744015953663392e-05,8.192601814474986e-05,9.02040039055347e-05,0.00012066552841956736,-0.00021976127274050175,0.00018606249126579483,0.00019896322465571702,-0.00016652998437399318,0.00023699755797626537,0.0003890821128168722,-5.889457199024793e-05,0.00012332209672344944,-0.00014517692922532086,0.0002498538817287615,0.000488807818332468,-0.0004415371254306426,-0.00027182340839927233,0.00032213286680344964,0.0001357262931085137,7.757727950975228e-05,-0.00014087355717916654,-0.00025547899934137296,9.681532131008528e-05,-0.0003686523740785285,-0.0002993551374344339,-4.754417725416551e-05,-0.00015850139598536152,0.0002947501211220527,-7.003995875533144e-05,0.0001467123875032167,0.0003357180730964149,6.133728366613972e-05,9.705890608291163e-05,-7.781477818076512e-05,-1.1378054394819876e-05,-1.2962931959981293e-05,0.0003446762181843196,0.0001225931431519978,0.00010586880344230995,-1.444140231913099e-05,0.00036125827486384776,3.5477669226243486e-05,0.0002374798753477084
0.00034374825987494313,-2.775669463758413e-06,2.6560122079567314e-05,-0.0005636534280732744,-0.00019982125801851997,-0.00026546698441905984,-0.0001618260518274775,-0.000165576618475085,-0.00020325767131031242,0.00022417719032859337,-0.00015451735962782205,1.7418477603561854e-05,0.00021361974519525556,-0.00013405479171432977,1.1598800327117558e-05,-6.125806376003633e-05,-0.00026104124692746876,-0.00022414378399078218,2.0862393159783034e-05,0.0001822867389366356,-0.00029472655306031015,-1.0757053648360836e-05,0.00014964765970347415,-0.00026694000289552796,-0.00012915482998149128,0.00021023991191927726,0.00026130523835628884,0.0002324067159482186,0.0001770323093978003,-6.0084204285876256e-05,-0.0002651987066780698,0.0005961057598342629,-0.00015544975823945998,0.00030826924133109813,9.703240469751308e-05,-0.00033597918602140876,-8.949653038898319e-05,4.4659347677096125e-05,-0.0002622918654940303,0.00010733098672605829,-3.568459636656815e-05,1.910030095510453e-05,4.226732239631017e-05,-4.405256926946126e-05,0.0003282252292916995,7.15863215690361e-05,-7.142656977890655e-05,-0.00015677546614957768,-0.0001231905694286824,0.00024912804052839704,0.00028927499029589456,4.692717615067425e-05,-0.00012089600873509108,-0.0001535674169239957,0.00015714990123044152,7.720255439498711e-05,0.00010237737105929843,6.265717731766381e-05,6.816820534717277e-05,-8.234863658205681e-06,9.271216004418552e-05,0.0001826759334983608,-0.0002099876823622786,6.346852525881439e-05
7.067910456292411e-05,-4.109570676268365e-06,-5.8518266629756e-05,8.665734123248314e-05,0.00032112268847883435,-0.00034855991759880566,-6.039211855540493e-05,0.0003079978706247687,6.158011342768335e-05,-0.00039550345967635277,-0.0001789726446235195,1.7000144907714642e-05,-4.4797312257576856e-05,-0.0002685966159668752,-6.218512380950089e-05,-0.00023237992943115943,-0.00014318083016221663,-0.00035459954394670163,-0.00016571060115850024,0.00013621440020710948,0.0002333412358665862,-5.719378260520604e-05,1.318494372304095e-05,-0.000294913631600958,-0.00046090825769149114,-0.00018144398674923963,-0.00027562920902118193,-0.0001799988788959081,-0.0001333550565871394,-3.174800110274378e-05,-0.00021849273265272788,0.00019848151599057053,0.00015796155631044145,-3.502166004203092e-05,-8.349561683626909e-05,-0.00019933641800150916,-5.600826818897774e-05,-6.675598758003368e-05,-0.00021041767663208528,0.00020658701881796137,-6.5538476196312e-05,-0.000459586540684508,0.00012885190788292628,0.00011376978083117979,-0.00036935096276317464,-0.00015919491437984678,0.00017630382101535024,8.417852551779536e-05,0.0005666244202249727,6.718306406384574e-05,8.82652888819614e-05,0.0002168615810435679,-0.0003438274163479435,6.170083183782576e-05,8.568425765248625e-05,0.00021748532465752665,6.693668697158397e-05,-0.00012490428325795445,-0.00030627632757931797,4.088173064571151e-05,2.0152164951102625e-05,0.0002000925601478486,-0.00024452411366333426,-6.556677746552667e-05
0.00013504109153060145,-0.00031689705661676635,0.0001667514676894837,2.3719196785444305e-05,-3.870935049160728e-05,0.00017066977911404983,-0.0001330867134597942,-0.000277519710755356,-0.0002379585945456222,7.2936883186328e-05,-7.904814324392065e-05,2.279834223739446e-05,-0.0002958911138129289,-0.0002454067215596852,-7.588484412401565e-05,-0.00034379994257450114,8.425928382187226e-05,0.0004783791593769587,3.8464396192854995e-05,0.0002947478067886913,5.276437892035722e-05,-0.00010181714357030662,-0.0004891863973601084,0.00018354392959771826,0.00022758571580202476,0.0007540935400344237,-0.00017131087496841143,-0.00034646297401546834,3.636810504494402e-05,0.00013379746208046849,-2.5096895855995074e-05,0.00016484549488368145,5.527946628666667e-05,-0.0002935207112401712,-9.839546727898684e-05,6.525388593984916e-05,-0.00010239135329587017,-0.0005264502567282883,-9.290147198914983e-05,0.00033906294064077637,-0.000272406170345698,0.00013720006761662159,-0.0002937271135429034,0.0002504177577977977,-8.682433773309696e-05,-0.00021586054910593326,-0.0003884425594957917,-3.1222933346110536e-05,-8.902803423716985e-05,1.4930545593113434e-06,-1.6741643217552356e-05,0.00023600913698272166,-6.364427295662084e-06,0.000489893490038692,-0.0002615972698017857,-9.185847330027465e-05,0.00014380272259347464,-0.0001981362095762741,-0.00010479591376779551,-9.834844417650066e-05,-9.093173378276324e-05,0.0006272101326793668,-0.00017892260429380185,-0.00010156261282548399
-0.00018290304037604712,0.0001904906495422536,4.3617068399568344e-05,0.00017875142818913237,-8.37731909575288e-05,-8.477175951301718e-05,-0.00019820154817539772,-4.5555414343367795e-06,-0.00013367822547443977,0.0002237225186933922,0.000408962211175826,-0.0001553973963169879,-2.3667937481612873e-05,-1.6428487323817644e-05,-0.0005526180485546345,-0.00022580566879809664,5.2096894568859305e-06,0.0004066451013110385,-4.3840206891881055e-05,-0.00012179901007167471,-9.014672763954925e-05,-0.0002252705310008696,-0.00025066766154512526,6.283948978282972e-05,-0.0001738270725810709,-5.134287197675442e-05,-0.00017746783652626213,0.00014334779710923866,-6.251846556532044e-05,-5.360745422726933e-06,-0.0004942343363767508,0.0004896732749658751,-0.00011658020662529118,-0.00024119809353331386,-0.00010792943929400687,0.00023989807867429118,7.681420601514272e-05,0.00044688205930247055,4.4897061905496524e-05,-0.00016288273587156438,-0.00013559560081255774,0.00013480347867907404,-0.00011114317878710902,0.0001087537985913947,1.5212565119254666e-05,0.00012666503896219985,0.00030214460254548113,6.094816939975747e-05,-0.00034185490898903974,-8.498908148833134e-05,-0.00011456995050698548,6.897543177441663e-05,-6.246596652227574e-05,3.6539631849542885e-05,-0.0002047675101443205,-0.00019169709929806812,2.2193392580840153e-05,-1.1768260033699718e-05,-0.00022768021096517398,-0.0001812343907272131,-0.00012429876743137982,8.382533563119726e-05,-0.0001588830621877138,-0.00019323061370604122
2.8787621791255468e-05,0.0001752493634892308,-8.80975079788829e-05,-2.6368387430403435e-05,-0.00025048638398397874,0.00016063887152745443,-6.0970154123572595e-05,0.0001374673119803132,0.0002258592587218009,5.366887655078709e-05,0.0001643786139847332,-0.0001083348621510479,0.00024086208765625319,-0.00010493989911391354,6.0729341910238245e-06,-0.00011130284110012329,-3.0455305312595368e-05,-0.00010269569342147854,0.0002938380207802039,-0.0003157723737384335,-7.837360534311706e-06,-0.000350593944414756,0.0002335338254852391,-0.00020294896801657496,0.00012690642644222334,9.580729230715146e-05,-0.0002228930809447984,-0.0005792389235067699,9.812119515448261e-05,-2.1706934580772613e-05,0.00010436057001035246,0.00026580270357454876,3.0902699317242166e-05,0.00023109158454172023,0.0001199043228911929,1.6844535316515894e-05,0.0002489490131803701,5.0725145501385456e-06,0.00021597463615128032,0.00026827035300753746,-6.475202429475061e-06,-0.00022802151605887932,-9.500771121866433e-05,3.1554389333116234e-06,0.00013627503458231752,2.9924818879942486e-05,0.00011023223269714958,-0.00011419349042664162,0.00032774319759661547,-2.5961847930630476e-06,0.0005762853049031664,-2.150489972975873e-06,0.00010915151102471634,3.643366389039758e-05,-0.0004126438349130723,-0.00012834241813964139,5.921416830844996e-05,0.00039971842089447365,4.4512511509327424e-05,0.0003565816947228263,0.00016271405966946335,-0.00021392439606227813,-0.0001055141710691113,-0.00029467162163474486
-0.000584678011465481,0.0002522874454055286,-0.00010536696967283531,-0.0002523381271629926,-8.11400140906515e-06,0.00012861497140561842,-3.6437165959434445e-05,-0.0003614357651427769,-0.0002267329645039388,0.0002163936654332562,-0.000314582891117475,0.0001785041101564226,9.794274036603164e-05,0.0005171179990994233,-0.00023617177232146107,0.00039888040463879334,-0.00031926077511407777,0.0001648734520709238,0.0003133413491026409,8.518040374417765e-05,-0.00023630959245283606,-0.00047683114199740753,-0.0002265916039013207,-0.0005417710186952284,0.00044974085842205307,-0.0005931028505361142,0.00014488725699626288,0.0001445217417230601,-0.00036457527054142386,7.97472741719056e-05,-0.0005695995893821147,6.545339686834087e-05,-0.0004390454993690995,-0.00013966941618035565,0.0001405294719921621,0.00020540031228119646,-0.000465705796299644,-0.00013283702078720756,0.000550711093072785,0.00011503878269616175,5.694155243392075e-05,-0.0005849822252638807,-2.8478458548404414e-05,-5.2183339752027725e-05,0.00025414812275668345,4.6469470396067935e-05,0.00020998500965504647,-3.901254713916094e-05,0.0003759228956816414,-1.7929766050696978e-05,-0.0001602216929325747,-0.000347465696705948,-4.101112512801407e-05,-1.7237334065181575e-05,-0.0003368854570749231,9.686320852580548e-05,-0.000287198615231869,3.3621233702397565e-05,-0.00031493897388624635,-7.553644285717848e-05,0.0002335964720583959,0.00016719370065059217,0.00022850721431648757,-5.326817871513424e-05
6.225612232218142e-05,-0.00028388156488004925,-0.00018885568340400502,-6.974663598259372e-05,0.0004428365605978252,0.0001315903382221837,0.00017855388498743367,0.00010580287550803123,0.00010303412546281603,8.067023680337559e-05,-1.3730526422847678e-05,0.0002979282774671011,-0.00012427132514497143,-0.00012479971882226753,0.00047523098218159836,-0.00023149841775552487,0.0003473758161062611,0.0001885977556342884,0.0003035705789626342,0.00025965797954686587,0.00015843518345445818,0.00029350483011828443,8.18955214861664e-05,-4.441752199674459e-05,-0.00014141998148069882,-2.4294413957793007e-06,4.013321446767076e-06,0.00017921631978715308,-9.206535679498787e-06,0.00012428801651584255,-0.00035664175263682416,-2.22498208704451e-05,-0.0003115311188658025,0.00010974269597776342,-0.00031731171161704114,-3.531816483726025e-05,-0.00026178275845604657,-7.922098011988285e-06,-0.0001880423349694209,0.0001076440660172674,0.00011502024514311293,-0.00025907865055540267,0.0001379423034400446,6.311454362991744e-05,0.00010352538722332274,-0.00014843376452632672,0.00039131613979525616,2.7592719394150247e-05,0.00030711762277770883,-1.949708668508986e-05,0.0003845102215385026,-0.0002715678628874642,-0.0002558157605040009,0.00012026172961988836,-0.00021642226331997208,0.00017723344560575252,6.26296641223049e-05,-9.220731289082541e-05,0.000396131372393118,-9.925439855004176e-05,0.00010344325692121548,-0.00023741188209684943,-7.941044051869982e-05,0.00010056331729864284
0.00015224117776891028,8.930867439244822e-05,-8.142023794663686e-05,-0.00035690514929620704,-7.482847457618953e-05,-5.4518968636753915e-06,-6.904830951416024e-05,0.00021992039195715285,-2.6936551463676825e-05,0.00024486338636820664,-7.822572146202963e-05,-0.0003012374259264935,-0.0003915552076882658,-1.933740275451859e-06,0.00026610230348110347,6.075940444067643e-05,-8.1787725787201e-05,5.430879996616123e-06,0.00015683375491002918,-0.000206360889911635,-0.00025547123717883615,-2.3401391311682166e-05,-0.00013232773827671226,-6.750984038464662e-05,0.00025283731422637534,0.00024337102974412138,-0.00012158485822146199,0.000270442197093905,9.255861531522358e-05,-0.00022926406310966392,0.0005411112089149158,-0.0002369112684636185,0.00023954199318946184,-0.0003292792741852604,-1.212159897968229e-05,-0.00035449189652446314,-0.00012604213389738806,-0.00011036765601105912,-4.2723551595639055e-05,0.00031396500133745806,0.00020973761499151934,0.0001223193477597644,5.282509433481071e-05,0.00013123583422206832,-6.794463316257875e-05,0.00011694187253919464,4.7309897753803884e-05,-7.974982393352915e-05,7.456384487970531e-05,-0.00020303219980731494,-0.0004050096835816167,-0.0003134209616770968,0.0005518804705019466,3.411700069775411e-05,-9.736847937084904e-05,0.00011158090874802026,-6.731972225711333e-05,-0.00016579703803596343,-0.0002574621530533964,9.962489842032214e-05,-8.627948932104965e-05,-0.0003719229708134292,0.00013927524845629816,0.00019998629054646523

hidden1_to_hidden2:
0.057596121246436136,0.057596668658941225,0.05759598520576588,0.05759677737137388,0.05759601408712633,0.05759610334496082,0.057596203708309736,0.05759639526342438,0.05759707424180339,0.057596624165211024,0.0575969843495432,0.057596549757462534,0.05759662628000109,0.05759645659533266,0.057597141869188455,0.05759592224180119,0.05759609252673407,0.0575961045739386,0.05759658817461976,0.05759630135609535,0.05759677980394013,0.05759701142507357,0.057596180239458415,0.05759682055629974,0.05759667356077789,0.05759582721267802,0.057596847142271285,0.05759622336151082,0.05759626756451956,0.057597190704037515,0.05759711415500885,0.05759698330101004
0.00015120180794529785,0.0002035703474689546,-1.0031239326099683e-05,-0.00011277366235640525,1.769373598090421e-05,-0.0002858391375990945,0.00016041569806824062,-0.00010352208087907521,-9.198443204234554e-05,-3.417580531888478e-05,2.2802733270419085e-05,-8.209698128637924e-05,-7.54989831131086e-05,7.59498337699151e-05,2.1496449324696857e-05,0.00021613931174607306,8.21816733327556e-05,3.1388972724055314e-05,-0.00012149822161960953,-8.495526908502507e-05,-0.00011373825048430019,-4.440121691633454e-05,0.00013887445713971997,5.390568201103216e-05,-2.017600360786936e-05,-6.200284267759716e-05,0.00032492595070268167,0.0001408184450271071,9.37220739471322e-05,3.940392952081838e-05,-3.2374410988515415e-05,-2.8693131971036226e-05
-4.279834570932673e-05,-6.399055255243897e-05,2.0088313666281522e-06,0.00010395466656792712,4.9962891025302186e-05,9.233104286226793e-05,-3.918457451863622e-05,-5.44243993995955e-05,-0.00010532262818913654,2.6792693125046796e-05,4.3636604288304075e-05,4.907736100788079e-05,-9.63650140398634e-05,1.7423500799502676e-05,-2.76477403217444e-05,-0.00010390354978811374,-0.00013963860268056925,-9.678436325812669e-05,-0.0002998164149023061,4.298499173662696e-05,6.173645499301251e-05,4.81366901439713e-06,7.290500051734364e-05,6.079875968377459e-05,9.618126120326497e-05,-0.0001863984194642794,2.5068729236250478e-05,3.138543374346718e-06,1.3179967421016952e-06,-0.00011985587277598039,1.5383588375059664e-05,-1.2866975152794643e-05
-0.00010417975998515965,-0.000188065366610353,-7.77306866660143e-05,-9.04204691045243e-05,0.00029779801761894124,-0.00016392693869587952,-0.00020230150565091594,0.00011200945386101385,-0.00013742978565019846,-0.00010582121916082171,-1.922015881192291e-05,4.0473860001043995e-05,4.756996483731635e-06,1.1476237014585514e-06,8.762887839371067e-05,-4.787611352484359e-05,-0.00012932130025845507,-0.00018356254668386245,8.907849278544937e-05,6.454184222099691e-05,4.161229858597846e-05,0.0002399133823364377,2.0073922360684377e-05,-5.591369086076533e-05,-0.0001453434624126963,2.6573112397316282e-05,7.178493695681826e-05,-3.3754275852774294e-05,6.65582993294836e-05,-3.957225143662072e-05,-1.9361220200511023e-05,-0.0001888473421118724
-7.160815748103735e-05,5.048424720443433e-05,6.969155465984913e-05,0.00024295893983364934,0.00011340419576424271,0.00011450671224477977,0.00015012010147868755,2.8535290884424095e-06,4.6972431288544703e-05,-8.763894306476989e-05,0.00010551386777996192,-5.358842280608194e-06,1.3617380827397732e-05,0.00011762569523019501,0.0001644101643691668,0.0001418637637513279,0.00010328065983306358,0.0001085479072740427,-0.00010205281644118962,-2.699355342121553e-05,5.5752383911609084e-05,6.143902729398578e-05,-4.415601228211818e-05,-7.68248692233818e-05,-6.720333752949047e-05,-8.718374505866344e-05,-1.6496727100722132e-05,0.0001438530890438628,0.00017497049707429637,-4.0098587416328654e-05,-3.7395287881342574e-05,9.43065155419045e-06
-2.8795332221000026e-05,-0.00024068152303496684,-4.559852753527574e-05,4.644027898540814e-05,-0.00013987094798277166,7.692395080900222e-05,0.0001643782183016063,3.218996179518979e-05,0.000166111512075739,-0.00011073621455133908,-2.9995153641771614e-05,-6.117458501172169e-05,9.081215018531033e-05,0.00011218493198792918,-9.007452297655841e-05,3.8806590713049175e-05,0.0001208237369160607,-0.00010644142743315456,1.4496379042534159e-05,0.00025766391775217535,7.586299787092158e-05,4.832101913578735e-05,8.089577416821385e-06,1.3239592801352043e-05,-0.00010292048480542611,-4.1710531677139386e-05,0.00015286970211374516,2.6605321430437043e-05,2.3347894197174238e-05,7.904696171791226e-06,-0.00016824514912268146,8.636903628612895e-05
3.833852316183626e-07,-0.0001389372837234702,9.623523564946252e-05,3.371660392660606e-05,-7.699812272366094e-05,3.216071403184318e-05,4.106579624257344e-05,8.065993734701597e-05,-3.1812985956193316e-05,-5.481925721065333e-05,-2.514829327153523e-05,-3.6765220670428785e-06,-1.2045767606221262e-05,-1.253563818726333e-05,1.0658683638762149e-05,6.889123104021633e-06,6.420970276494462e-06,-0.000209193886532935,6.256320954824727e-05,2.951715693137307e-06,0.00014839821983347857,8.806815018870315e-05,5.2412128047271603e-05,6.342928113236938e-05,-7.664302488376872e-06,8.749771233839033e-05,-5.539533888631124e-05,-4.550028696655227e-05,0.0001332902535120812,2.834401681631284e-05,1.1979334349375878e-05,-3.118912729290041e-05
0.00011303581483568606,9.761005850549466e-05,-8.109547965418849e-06,-6.061093797176347e-05,-4.091784227123938e-05,-9.649743825622066e-05,0.00012511033612000507,-2.799815903230417e-05,0.00013449079553197365,-1.2651603528676518e-05,0.00010443694990130627,-0.00010319901309713844,-0.0001399044432275021,0.00015871024203948983,-3.504082727132487e-05,-4.885559180323475e-05,-9.501881688452693e-05,-0.0001458095685927625,-1.9130287924572095e-05,0.00014227476635762372,2.05719734708358e-07,5.71113377905206e-05,-7.102920816612828e-05,-4.039997126516552e-05,0.0001648807627715763,-0.00014425118369214943,-3.0409446263814988e-05,-1.80425518804885e-05,-6.149414692002197e-05,0.0001473801844462728,-0.00010068067147178333,8.616159285487325e-06
3.962174656757531e-05,-1.8292905041922557e-05,7.681218189958346e-05,-5.863658594398338e-05,-3.1771588645150586e-05,-5.2969916780160495e-05,4.388220390258157e-05,-5.2255978004499496e-05,1.4642423127135043e-05,-2.3861762098962015e-05,0.00013415816414804533,2.8433744933140516e-05,-0.00014756051304740356,5.9970036193413274e-05,5.963020962784356e-06,1.5719012106894534e-05,-0.00016592737418726113,6.902781541105008e-05,-0.0001230975613308483,3.9451370681715526e-05,-6.9545186607529695e-06,0.0001686043868531421,-9.992788461604274e-05,-5.7088660473853065e-05,0.00012830338601580647,-7.467072912849477e-05,-1.8570806945956006e-05,-9.9206740314554e-06,-2.0939591176208373e-05,-0.00020330585709276742,-3.3798983797176405e-05,-3.068631442290194e-05
-9.697018309868247e-05,0.00011695411606478009,-1.7896847703365368e-05,-8.385427691947982e-06,-0.00011593551217022173,-4.2853359814004314e-05,-0.00015219675113308884,5.695447020861652e-05,0.00010893991926015512,-0.00010057330943849683,4.490567258955738e-06,-4.897849919304614e-05,4.367451257600984e-05,8.408115308547181e-05,4.872447223533093e-05,8.11228283518412e-05,3.568533565510873e-05,2.9176311623909013e-05,-6.274838219050517e-05,0.0001303998121469456,-0.00010934271630174879,-8.834591616076372e-05,-2.510674883965436e-05,2.550892841803317e-06,-0.00013968702624191984,-3.103615470223213e-05,-2.527865627581897e-05,-0.000227110333795332,-4.085839561390084e-05,-8.366905481876297e-05,-4.3439925124042756e-05,6.654657851837698e-05
-5.71809116233947e-05,-7.5398745893541195e-06,-5.4533623417651386e-05,-1.0332366958555558e-05,-0.00010948593134789414,2.9828581156100816e-05,7.174359468383249e-05,0.000116288058223081,8.241420759843685e-06,0.00012759091944740083,-0.00012240939643493658,-1.1763176955337936e-05,-0.00023481686986396723,4.517948737731034e-06,-1.1944304854071867e-05,-0.0001099266395776008,-0.00011199878056571217,-8.955080766840688e-05,-4.350992429035139e-05,-0.00013581415931257151,2.9266186115936086e-05,-6.525495598118927e-05,-4.4061847804968926e-05,1.828970615659767e-05,2.0820746585317288e-05,-8.218625512502903e-05,-0.0001169541187661061,3.7862746936046154e-05,4.193154593052114e-05,3.467234819899911e-07,1.8052909307767966e-08,-0.00013198421098808155
0.00016094472375413713,8.01130195038262e-05,-7.459983149034693e-05,-1.6743668010726103e-05,-3.0122972035833495e-05,6.873623374323661e-05,-2.845100155065886e-05,-2.247233916801098e-05,-4.1720159020531545e-05,-6.83712002677009e-06,5.926968898192317e-05,7.0845641211450295e-06,8.123568693962627e-05,6.101322924898363e-05,7.749979669820364e-05,-3.245609270070314e-05,-2.1417573597520354e-05,-0.00011775992253684785,4.898683674098011e-05,-3.3486850877751074e-05,0.00015765678825794443,0.00018936432313294962,3.713590409843357e-05,0.00016967955756247077,2.8107045418727953e-06,0.00018037518150018528,0.0002241966176845629,1.925491941586845e-05,9.438649602861684e-05,-7.882656501278453e-05,-5.269006077438083e-05,-1.8833217688643378e-05
-2.093206520899569e-05,4.454210357379484e-05,0.00011195389096104296,-0.00014032856794157105,-9.062928556737193e-05,-3.639414574917047e-05,-9.040421915125953e-05,-0.0001485490788292109,-0.00012603217817437636,-6.67367284157333e-05,-5.347031024333911e-05,5.9790488284758846e-05,-0.0001128762882322227,-0.00016487339764007647,2.9162788721217093e-06,-5.849336397723055e-05,-1.6581039092947127e-05,0.00011378467902443066,-0.00012258686516170415,-1.587468306412272e-05,5.042398219571274e-05,-6.226035455736184e-05,0.0001811576771495099,-4.2146608106627105e-05,7.188084881576266e-05,1.6255709434124574e-05,-0.00015317497032419784,9.042347692260236e-05,5.8811603385301924e-05,0.00011308909422527986,-6.796880644576746e-05,8.228752124446164e-05
-2.0380906846567062e-05,0.0002462107098793162,-2.6034070714762484e-05,-1.894134895240685e-05,1.2206605943644846e-05,0.00015213364592095712,-8.250929863759173e-06,-7.186619748668628e-05,-2.004682470390821e-05,-0.00011572194277041149,-0.00015208696791629224,6.973639750516762e-06,4.3622236939014134e-05,-3.466679683246639e-05,2.7540074039279384e-05,6.338836298876109e-05,9.766208409667532e-06,0.00010074390711349988,2.359414463598209e-05,-8.38394804521919e-05,-4.2872133024287114e-05,-0.00011988525981666302,-0.00011749101421636869,-0.00017502472764902117,7.50725948977818e-05,-0.00014060523887364526,7.405118023523907e-05,-0.00014084194878902968,7.439715364920816e-05,5.2683161416308315e-05,2.3073981426095822e-05,6.393305075622805e-05
-0.00010059161700821199,-0.0001315202349855423,1.202894583791697e-05,2.9775314410791577e-05,2.125276460323172e-05,-0.00015216707754417747,-3.588157889046283e-05,-8.03306646059945e-06,-4.9291744250848416e-05,-2.6108886513697976e-05,0.00010206955526519289,3.833336276855805e-05,5.7999602261554665e-05,0.00012706849021512328,3.1422471709734816e-05,-1.9821904878955334e-05,0.00017846828047765164,9.33780453254192e-05,9.225362688169365e-05,-7.23433640567074e-05,-0.0001300114868015272,0.00011653951044966923,6.128088064667598e-05,0.0002193008124012079,-0.0001036531992316842,-3.416078746108474e-05,-3.4573397761925796e-05,9.481571261183e-05,-4.585076633911436e-05,0.0001542539502076446,-4.417622399759561e-05,1.1062425460886835e-05
1.9871369406134764e-05,-7.650687488691354e-05,-0.00016994189460722695,6.412592530255742e-05,9.693840458460361e-05,2.1346081144966894e-05,-2.9606327649569156e-05,-3.2817202948544595e-05,-4.720695504107543e-05,-2.129296909651217e-05,-7.542650145520723e-05,0.00016535843711031693,-0.0001558178602355405,-5.7352223230877904e-05,-4.671048209959432e-06,0.00021470658998660073,6.420127132046745e-05,-2.6606183761836964e-05,-8.68623001089357e-06,-1.4292697835985122e-05,-1.4731593333388636e-05,-0.00020677142742402056,-5.95067861338859e-05,4.8069162357553674e-05,4.679955178587146e-05,0.00013113394726527741,-9.363553950505015e-05,-0.00015396079271223027,3.856629439985974e-05,-1.5292651525376064e-05,2.7971291505883634e-05,9.69201134098226e-05
-1.2457542777657246e-05,7.464029650360325e-05,7.97740402426665e-05,-8.45097261324286e-05,-0.00012080237946536249,-7.76241810453323e-05,9.267766744761165e-05,-6.786280458688617e-05,-3.8732913044856146e-05,1.0538916672984233e-05,0.0001301871893904328,-8.263394454498333e-05,0.00012234618616210397,0.0001664789208571038,-0.00011534178461417737,3.5677741047051086e-05,1.3944225391615478e-05,0.0001143290069006796,4.289451793404282e-05,-4.0333132632045065e-05,0.00013575859760375672,7.98845852951374e-05,-5.680710470141103e-05,3.795408525421326e-05,-0.00012568534599939726,2.821450226420936e-05,-7.905732169822615e-05,-7.19549376144135e-05,-9.971986060847363e-05,-7.579754920939584e-05,-0.00013471510881588253,4.745555628559043e-06
0.0001716422978891263,-2.7072272743161455e-05,7.020377903410116e-05,-5.3095620634842495e-05,2.805644561560869e-05,-6.152555757417382e-05,-0.0001256500158901481,7.363009549284021e-05,0.00014094048736757158,-5.692337632564498e-05,-4.0073063641800516e-05,-5.3682038607777584e-05,3.310893319688365e-05,-0.0001382579887745678,-3.000606261415232e-05,-5.253825401565066e-05,1.7892113958253882e-05,0.00016229426780277987,-0.00011869573043262613,5.87607233306763e-05,-7.748722335351483e-05,-1.2108236851227641e-05,0.00013935496063402513,0.00010877593200700136,-4.039999910663022e-05,-2.4783633757246436e-05,0.00021347367812276264,-0.00013791404124536058,-3.222144960691612e-05,-0.00012034687864299613,-8.74761065326457e-05,-0.00011927314707774015
3.1169444787446143e-06,-0.00010129457081130222,-5.325948604755535e-05,7.552337933069568e-05,-0.00012226250169680329,-0.0001368489103664358,-5.00389393032438e-05,0.00013288015181822107,-4.272721866483264e-05,0.00015830569011735258,1.84865071022404e-06,9.94479187016107e-05,-3.0431578299421587e-06,0.00011832694172013131,0.00017609126073614588,0.00013165562439448848,-4.4783925497569935e-06,-3.420311859517162e-05,-0.0001548810085514907,9.312718753890691e-05,-8.442391132548147e-05,5.175989346634958e-07,-4.701867061855554e-05,-9.239382515573993e-05,-0.0001568036848483173,8.194858618384012e-05,2.7893528864090835e-05,-5.774234917301249e-05,-4.2631143383996725e-05,0.00010687180194904042,-4.569054460328119e-05,3.188279525472565e-05
-0.00013749493470811857,0.00017479736778613868,0.00010593362291802706,-0.00012471350348710139,0.00011825050142029386,1.2765217827971581e-05,-9.519309239682184e-05,-8.088925116121433e-05,0.00021626499827565794,0.00017033386240669407,1.8667124151688963e-05,4.0216859145759685e-05,6.1754640163722e-05,0.00021756573282673028,4.201823729382292e-05,-4.416567035010422e-05,2.3746112374339305e-05,-3.010585731052278e-05,-4.415915873283291e-05,-3.5179587444610354e-05,1.903902711380077e-05,-0.0001210038154091626,3.887460611637422e-05,-4.170552957890377e-05,8.244633370582312e-05,8.892652343017194e-05,-7.933317696297031e-05,0.00017801170296537566,7.903290124476556e-05,5.141879512175662e-05,-0.00010572848244241002,-4.599544830492215e-05
0.00012194570740487479,6.724833282127743e-05,1.7651803691638127e-05,4.0900313495294595e-05,0.00010120511815147765,-2.523242860880333e-06,9.0046545487008e-05,-0.00010496548461090984,-8.90146979385994e-05,0.00019959579465801526,3.963050361893287e-05,7.71075975665798e-05,-0.00011484679663846605,6.60525275173247e-05,-0.00022500953452627066,-2.8999796249963596e-05,-3.2977718120792526e-05,1.025044957833349e-05,-1.3265855797177846e-05,-0.00017935015973107496,-6.003865849167532e-05,0.00014833492008397057,0.00011053362776138211,5.170190420337126e-05,3.137553306664954e-05,-2.6982129162572297e-05,-2.8982528037264583e-05,0.00012697954828957451,-0.00013511765884789082,7.01532166641583e-06,2.679406566453393e-06,-0.0001252749563872175
1.6084793095286853e-05,6.275607762694736e-05,1.0269256178423233e-05,0.00013567134002208346,-6.453533117578218e-05,-8.359001792450592e-05,-2.1886411741084763e-05,7.524183515153558e-05,4.331256006418307e-06,-0.00014249818573080846,5.153901170226654e-05,7.080892483919488e-05,0.00012476724380528924,8.243988173366732e-05,-7.529240847590914e-05,0.00017906097358066537,0.00018903095083217355,7.552890164614571e-05,-5.3879704540429304e-05,-0.0002189652059163172,-6.216380559251164e-05,-7.270932249750015e-05,2.5885158614360003e-05,-2.269172813648047e-06,0.00024816532717184176,6.189407218439133e-05,-0.00019472087626084576,-9.674065074189945e-05,-1.8945425777077114e-05,-1.4299755892209932e-05,-5.972446984630514e-05,-2.823055439440646e-07
5.228946425810027e-05,2.139249152143042e-05,-0.0001839405081988166,-9.464059976992624e-05,-0.0003263929096063106,-2.5473640125025447e-05,0.00011117374279765412,-0.00015463394887242645,-6.0213921339224864e-05,-4.346993113256518e-05,0.00012470535927776546,0.00013590604984600824,1.9523442298112936e-05,-2.1450329044112737e-05,3.000483935709086e-05,0.0001573460016448412,7.384975340848957e-05,2.0089512173306466e-05,-1.7599471503180692e-05,-0.00014682974869638965,-0.00010464849705084747,0.00016862283117948312,-2.2511922626091525e-05,5.6979928644968294e-05,0.0001260349920148355,0.0001000579584081602,0.00015252621448528782,0.00013918738647814688,0.00016785159889156598,-0.00011399252355551168,2.1030079666910808e-05,1.7990222815440756e-05
-0.00013341587882704316,-9.063812065214033e-05,-8.879677974063953e-06,-5.343885304466242e-05,-2.453226888450547e-05,3.155377927772502e-05,1.019527619140834e-05,-2.505584142920507e-06,-0.00010292666072132415,0.0001177196760228684,-2.9457122115111588e-05,-0.00010327796302804852,0.0001252414592949441,2.8122591710694198e-05,9.506977039558494e-05,-1.0839946708608177e-05,-6.594837774524513e-05,-0.00017306741892905987,0.00010286542387642142,-8.535086895587958e-05,4.3558408573857905e-05,-2.623334553620696e-05,-3.959471264907967e-06,-0.00013057079287667232,-3.776556149402709e-05,7.420020823641081e-05,-0.00016151378071151904,-0.0001209729066165024,-4.164536311672934e-06,-6.317175513959561e-05,-0.00023522613002137504,0.0001243140857006585
7.57187555267181e-05,0.00013331688726886178,-0.0001134699801909874,-7.911690957174737e-06,-3.961139498968023e-05,3.294976732922777e-05,4.789209500989781e-05,4.990628769002033e-05,2.8655733251078517e-05,0.000128052206830312,-5.5792434939358276e-05,5.652223647363331e-05,8.039764732047699e-05,-5.3321502257453265e-05,1.0049884176354231e-05,-4.572895498516724e-05,-6.747113320896825e-06,-5.7031127836799e-05,-4.977006137437436e-05,4.527116094109446e-05,-6.867587770566061e-05,-1.591524868476119e-06,-0.00010518476194435711,0.0001206881997585205,1.104512947522494e-05,8.536094314223387e-06,0.00016624522051855806,1.0589603937660645e-05,-7.131447573254197e-05,-0.00011405955703632424,-8.081474821567208e-05,-0.00015542991113966237
-2.0779721796369292e-05,-1.8355814116705724e-05,0.0002260938645457617,-9.158311966386251e-05,8.400551416124862e-06,-0.00011417020148358311,-2.713323787655033e-06,-0.00011260052735523984,-8.661706255395823e-05,-7.198998453852675e-05,-0.00014932211661642473,-1.0516450604415284e-05,0.000124067356067207,-0.0001171243485569305,-0.00014950205834503058,-8.118721080711747e-06,6.334761202104569e-05,-1.7004347637659617e-05,-8.721645297901656e-05,-9.07218864416215e-05,0.00010276914564997261,9.755023893606423e-05,-0.00018554669956294997,-0.00012856406673469474,-0.00011011763235190943,-8.425888224916877e-05,0.00013419276274986044,-0.00022500741460998902,-8.950458130891291e-05,1.5098172953730285e-05,-3.0037400672220263e-05,9.739993413945914e-06
-6.5811499008286605e-06,4.276558187406468e-05,1.3639470987355537e-05,6.641205259733957e-05,4.3647784521072804e-05,-0.0001275239179596194,-5.1432310279153395e-05,5.9042742726332465e-05,-0.00012204765673612454,-5.679136284251943e-05,1.7057630246408047e-06,-3.556793361710715e-05,-0.00010247380619494964,0.00019148924056676744,3.3565614471970383e-06,8.653074002187448e-05,0.0001750669682626325,5.577440745816212e-05,0.00013008808908341005,2.317275022609473e-05,-7.826605849915867e-05,8.074033344391171e-05,8.028267233366773e-05,3.31704637824156e-05,7.859820063052738e-05,5.164402621829048e-06,-0.00015133927678626747,-7.583366591195855e-05,3.6038626258649847e-06,0.00017910244279767753,0.00013962508072122402,0.0001265386263931844
-1.6648088517802653e-05,4.9261193467116176e-05,-2.420921592373318e-05,0.0002024963341347458,-0.0002167862485783657,0.00015502467994761397,2.31905471563001e-05,8.528066250314971e-05,2.8034535009228502e-06,-5.1258740062354446e-05,6.237133942228843e-07,-5.767053795320353e-05,-0.00011247797199873728,-6.26401927555457e-06,0.00010283207635814034,6.935765401973448e-05,-0.0001562645682891852,0.00021623623320556916,-2.014398234939915e-06,-0.00016922538342860818,-0.00020016336805100325,6.273603967500046e-05,1.2495081796623931e-05,-0.00012862428115565118,-4.747582444183878e-05,6.645315446052851e-05,-6.615445218893941e-05,-4.1104859821738444e-05,-9.824040575378728e-06,0.00013440482304250014,6.580412372815177e-05,5.066340316623681e-05
-0.000227379751885241,5.657133279760756e-05,-5.004848216632824e-05,-5.397410112992949e-05,4.806280063516797e-05,-9.693510040306487e-05,-7.638437254633546e-05,-0.00013042526039450976,-5.417222413789589e-06,-1.0979655776450396e-05,9.599202087095924e-05,-0.00014851980272278652,-1.8102096208483997e-05,7.816610277890524e-05,-0.00012145279425212121,-2.424285758099972e-05,-0.00011415499215068735,3.567849130456115e-05,0.00013620148316205495,3.523819798252882e-05,-6.624283362758686e-05,-0.00017887208866851776,7.681751975378231e-05,-1.3961641472228717e-05,-0.000233392956641053,-0.00010008647731027152,2.8163586543994463e-05,-0.00015450149685747734,8.73977006823995e-05,2.614582549943567e-05,-0.00011775643686430983,-1.112143786068129e-05
-7.523927131321621e-05,-0.0002782898316703268,0.00018576557987237576,-5.737555427964294e-05,6.456342281493787e-06,4.6267448080499994e-05,5.903173173268695e-06,1.300985356762753e-05,-0.00015685588320055692,-0.000233348386156552,6.628931551775093e-05,-1.9211376790547574e-06,4.509947165447316e-05,8.445255333799155e-05,-7.916482002667588e-05,1.2979266390841905e-05,4.891794409519018e-05,-1.7282146843645115e-05,2.8612030983639296e-05,-6.802989832533194e-05,0.00016126391203348793,0.0001566849615275652,-4.484967615636968e-05,-6.91338745168975e-05,7.104630235098147e-05,-9.168065325082861e-05,0.0001173124457626104,9.132690822490388e-05,-9.846186192494669e-05,0.00012115825258363141,0.00015459595756751778,0.00012956046839860893
3.592902741309171e-05,0.00011771813420354662,6.464336435792667e-05,5.554204611946521e-05,3.974787122527064e-05,-0.00016953627568885605,-0.00019179250052649128,-4.222791350511395e-05,-8.297512965559877e-05,7.015161267942888e-05,5.6629973373181837e-05,1.5151516846457537e-05,0.00022927781275228359,2.2935695338623214e-05,5.42046569515579e-05,-1.6283475885933504e-05,1.4850956668568101e-05,-2.7139041747250722e-05,-9.095177790839925e-05,-6.225022419765113e-05,-0.00012589243877152978,7.433681543268999e-05,-2.6029732256856795e-05,-0.00011655599388931957,-5.955453894813731e-05,-0.00016981525361856276,2.3799890402260255e-05,-6.40404423777752e-05,8.01789523915828e-05,-0.00010094411893155189,-0.00010473848680428997,-3.953843300852662e-05
0.00011788842388961786,4.687067932798499e-05,-0.00022446387220763811,9.542081474231514e-05,-8.706718824895668e-05,-9.885100026800795e-05,6.175005421206097e-05,5.4564851913756066e-05,0.00010234086797780832,7.098422562395028e-05,-6.385861418985841e-05,-3.0154316885685277e-05,1.2184420683376683e-05,2.0800365326676412e-05,-6.748296203412118e-05,-9.74516523376815e-06,8.227355046651062e-06,-1.3231125255752846e-05,-6.738546292773498e-05,0.00013443365852435347,2.859525161463081e-05,-4.39784236892389e-05,7.649352051687991e-05,-0.00010124028403623354,-2.5032306744140058e-05,9.984995358963714e-05,-7.908386171369582e-05,-0.00014630395888643054,5.043212646651978e-05,-2.5412684783948167e-05,0.00010532664469572473,0.0002410735860686866
0.0003269566228323833,-0.00011367379809532027,9.374318158446585e-05,0.00010811041865839244,7.038533354078084e-05,0.00012783995099047642,0.00018166809701794333,-9.661353954661938e-05,5.5748960038814636e-05,-0.00013330151542030144,-3.668039080238429e-05,-2.6961792564104825e-05,-6.729579477794522e-05,9.760545817156225e-05,8.173225947812343e-05,-1.8609059449685444e-05,3.994011930974881e-05,1.0470273614485396e-05,0.00010277813953807849,-0.00013594740767737933,4.0620123536055884e-05,-2.9062016395832677e-05,-0.0001196763926774704,-8.317434533138084e-05,-0.0001572904595210221,2.0318917653937597e-05,-8.102975189802293e-05,-4.5273791343404696e-05,-2.0240518662022645e-05,2.6086365417427004e-05,-5.6984629311571504e-05,-5.6361510038106684e-05
-6.146435919922773e-05,-5.092538874478355e-05,3.32464673932877e-05,-5.3548624079444247e-05,-0.00012842624230938898,-6.997073177143708e-05,0.00011427007203273316,-0.00017766697559708686,2.024699824016582e-05,-7.15617886535661e-05,3.8591518801977985e-05,0.00015689010586494948,0.00017600058499855364,-0.0001491666051310609,-8.542935817012367e-05,7.130112283676618e-05,1.636251084243133e-07,0.00013829636252788588,8.244603012225013e-05,-1.27537802018749e-05,-1.2297984404666797e-05,-2.4194132473497554e-05,-1.7294400751198025e-05,1.532147382990751e-05,-2.5185763498195155e-05,0.00010773235681581603,-3.2386079188523656e-05,5.560289665130528e-06,-0.00024284062564256542,-6.972173491391859e-05,7.542888388152179e-05,4.86772416882651e-05
0.00022172446832767568,6.362687337406041e-05,-5.12786168167276e-05,0.00021206027314670664,8.902308290103997e-05,-5.552009988862719e-05,0.00018416636998123563,6.516654159711055e-05,0.00010961750864579075,-0.00012949184561522454,0.00019194993094003108,-0.00012416563435659658,0.00014254575771538178,-6.416160214825633e-05,2.1451258281942246e-05,0.00012336602053581876,0.00010660690909909169,0.00010315361697086188,2.5358404676057807e-05,-7.430893011285874e-05,-4.5130237698090096e-05,3.2016628450135864e-05,2.911336094748218e-05,-0.0001725538499966338,0.0001162281459058676,1.8460282190442928e-05,-5.1152325171181696e-05,-2.4481411613391837e-05,-7.111034848800057e-05,-3.318009127836949e-05,2.7023391127887117e-06,6.435440340474142e-05
4.8175608404997835e-05,6.8631093006798e-05,9.112490223590893e-05,-0.00013521691931006285,4.096273078912854e-05,-0.00018471199923522907,0.00013724173322007024,1.430137020736453e-05,-6.463637411858677e-05,-0.00016812265674968175,8.49684161230551e-05,4.549372297535188e-06,1.551143924792302e-05,7.723462617902499e-05,9.969494787765915e-05,-0.00010296649630765356,-7.989063758028509e-05,7.000075524150603e-05,-3.537516729621333e-05,-0.00017728851186405743,4.10778284222796e-05,-0.00010880898022409852,-0.00025767330421981556,1.2297322708216479e-05,-0.00016382891929246225,1.5701712372135786e-05,-0.00011684468155837595,-6.170982360644868e-05,5.45706945886689e-05,0.00010287950487869292,0.00010038287858072207,0.00018170602309514484
-2.6694743954712713e-05,-0.00016717618579225598,4.507221740201765e-05,1.334720875649955e-05,-5.3249557561516486e-05,-4.3996092652127415e-05,-0.000127774553081467,5.3693892958702555e-05,0.00013123202388276134,0.00014884490111972357,-8.683386356005201e-05,-2.2404980891789404e-05,2.9191061222598e-05,-0.0001059056757345519,7.5377980681051586e-06,-5.7700485343799946e-05,-3.5168509889934494e-05,2.247134274330849e-05,-2.2227742664760353e-05,0.00022604050758829824,-3.552825785732818e-05,6.719649251739615e-05,-3.857913341364251e-05,-6.451212295939756e-05,-4.160117454530595e-05,-9.868364322644435e-05,-9.882221761818058e-05,0.00011397074241544692,8.50335501465635e-05,-0.00014892655508816767,6.323971987075916e-05,-0.00012199755282069126
0.00012650954006289115,3.187350772896752e-05,-7.102150846930934e-05,0.0001588395101758143,-6.82082474362783e-05,-0.00012165690267999892,9.424149186005279e-05,0.000222169829303562,-3.952921445984311e-05,9.963662276818128e-05,-5.320581472016088e-06,-0.00010752539047716145,0.00010348670994777462,-6.75202188935875e-05,4.780781825618189e-05,-4.145620172484747e-05,2.5426445912168975e-05,-0.0001677928922055637,-0.0001709732429652397,-2.9000636535036296e-05,-2.8922551281464755e-05,-9.185958271607529e-05,0.00013141527502060553,4.5955820690043345e-05,1.013118907837218e-05,-8.248870744182172e-05,0.00016146902202586678,-2.522888422586327e-05,-3.0438168748813116e-05,0.0001285336241039171,-6.537746981999875e-05,3.823353918916108e-05
3.572167962827816e-05,-4.561763449312855e-05,-2.083660058481482e-05,8.826036282794333e-05,4.4638781121108796e-05,-5.503870403941593e-07,1.006938285832851e-05,0.0001513194360244452,-9.777611215260612e-05,-1.2013359070798746e-05,-5.825624436869512e-05,6.853077798428764e-05,-9.583669925273942e-07,-1.712885797486747e-05,0.00010668375811410948,-8.701020107721798e-06,-3.5572121184627624e-05,-8.487623260252968e-05,8.051014547701759e-05,-0.00010939894953783075,-0.000193539551296361,7.736888591479879e-05,-5.0933914658484764e-05,5.5846259582862984e-05,-1.3382537497916087e-05,0.00010361326871387709,-1.268887411936919e-05,-1.1031822152142073e-05,-1.7075357306004677e-05,-5.488010645489957e-05,-7.467062979505477e-05,-3.5751689930257304e-05
8.213713530078309e-05,-3.706687712352528e-05,-9.33038165308872e-05,5.317810813622971e-05,3.122820217005285e-05,0.0002121415193981908,-5.406372055847966e-05,7.532132951974553e-05,-7.829278093537424e-05,0.00015322737417144597,-0.0001348152725311491,-8.70487546285057e-05,-9.019911024331268e-05,-0.00014969146483426656,-7.790462894616984e-05,4.456799148915366e-05,-0.0002292033769920451,-5.3965283128078e-05,2.961461346748111e-05,6.724675579466765e-05,7.705692144315583e-05,0.0001032930686045078,-0.00011310650810797774,-1.0567638667491632e-05,-6.0861349618800115e-06,7.860869536226045e-05,0.00022889018770926112,0.00010850990652170826,1.4481395089504645e-05,-0.00023777942876365216,6.897979551336706e-05,-3.561173659105256e-05
-0.00017707979194165284,0.0001804474443558276,-6.887125265841494e-05,-0.00019604718082301124,-0.00010874424235636118,-3.554310991179698e-05,-2.1314897355760655e-05,-9.091887429829603e-05,-2.3319540981029008e-05,-1.0797338900701995e-05,-5.2387130054993655e-05,2.6777336481273106e-05,4.0469826790363266e-05,4.1474221631359894e-05,-0.00011551536922229452,-3.24492256992106e-05,4.5883607279889835e-05,-0.00028612049660600963,-0.00019811828458899717,0.00024156509794127752,1.2354570536977357e-05,-4.521678970304901e-05,5.199722931325321e-05,-5.0523413543558e-05,1.6735639391931014e-05,4.79209533405871e-05,-9.854257008119394e-06,-6.649946902980699e-05,-4.7635003740438617e-05,-8.019694892236755e-06,0.00014576738180374814,5.599344066030608e-05
8.163676313866144e-05,0.00017992024891638406,0.00018698660831311298,4.637016506259164e-05,-4.8038851465095306e-05,-0.00011401858071919936,3.102593429669566e-05,-2.8137267228712007e-05,0.00012267638638914345,-0.000104452674195409,1.4928331548392858e-05,-4.4395858275051843e-05,1.5442102163434544e-05,-4.248241683795041e-06,-2.144854508866133e-05,-8.668030059181822e-05,2.356062786320889e-05,-7.747251378401947e-05,-7.033138075157061e-05,0.0001280798488162202,8.573212925032079e-05,-0.00011808148162249641,1.8291747990050116e-06,9.56841129605575e-05,2.468563619967759e-05,7.069984032578432e-05,4.471043042025539e-05,8.139384248503056e-05,-9.701442880550483e-05,0.00014916104802371112,6.117452145872197e-05,-7.66177650071246e-05
-0.00013469541235253577,-0.0001769888962147028,8.040445089797016e-05,-0.00018432680034895772,6.187660361618634e-06,-6.1773551102506e-05,5.984112390362098e-05,-0.00011154661792107762,-7.593534155583106e-05,-0.00012105597233873332,-5.371311318351159e-05,-3.054438860832028e-05,0.00011216327193106514,4.1724638209781416e-07,6.172551806964019e-05,3.0184084782406977e-05,9.997919755270725e-05,9.415809436568233e-05,-6.632158062021277e-05,3.192154498263236e-05,-3.218883689263133e-05,-8.856997427073478e-05,-2.9868344749922792e-05,6.103403150186436e-05,-3.617014803283604e-05,-6.415035936770083e-05,-5.78425093032622e-05,-3.522861528541928e-05,2.681062783392523e-05,0.0002198825854681544,6.069261961309958e-05,8.909840059404924e-05
0.00011340030092725771,-0.00013538747902577794,-7.61815067819597e-05,3.0761514053492106e-06,3.1317386323469124e-05,0.0001227407288953565,-7.976018465896032e-05,-4.167668600423734e-05,0.00021191602977294727,-5.4035611264153904e-05,4.629601282497938e-05,-8.226422327088553e-05,-0.00024147884257321548,9.606117735236612e-05,0.00013477321389855512,0.00013131516097092248,-1.0685200330338581e-05,6.832730785215653e-05,-9.087802998600628e-05,9.167835993880882e-05,-0.00015546511309955793,-5.302610467760158e-05,-2.7044724606415303e-05,-2.5711475120389875e-05,4.914061820110097e-05,3.564743678636702e-05,2.511838458328497e-07,0.00023368443856742395,-0.00013516717513759329,5.857823644486733e-05,2.520058427358124e-05,-3.338434256896533e-05
-0.00015405300544803753,-3.888616188097432e-05,4.412365752559931e-06,5.76420608656974e-05,-0.00012115139155972497,-3.933345499727324e-05,-5.2021544323167197e-05,4.2303050283801575e-05,-6.04219585508771e-05,1.7148263655267384e-05,9.496265605438854e-05,-5.5612550791444106e-05,4.415293088940422e-05,-1.8074541543215494e-05,0.00010927584902312856,0.00011266180266081277,-2.611581939704913e-05,-8.629368582702581e-05,-8.170690850713539e-05,4.140832989461702e-06,2.215653358905286e-05,-1.8968983842526926e-05,7.262257542767783e-05,8.641226453028978e-05,8.525586941286987e-05,0.00020494045144364036,-0.00020148371284728545,-5.2950533707574527e-05,0.00015565496481989729,2.301943702323014e-05,-9.716498489749484e-05,-0.00019774252971974413
-8.328571817303654e-05,-2.0076215265241785e-05,7.475631313685547e-06,7.179187441360584e-05,-0.00012393175358705723,0.00021915947104749424,-6.996692887915246e-06,0.0001955361698787472,-1.68909963798368e-05,7.671809781920813e-06,3.070817107668262e-05,-0.00030932159389792237,-3.92453015626259e-05,6.798027840209121e-05,8.533499500432366e-05,-0.00010855456476404666,8.876319644628917e-05,-8.791238328457183e-05,1.095985489484321e-05,6.117540449192408e-05,-4.129586538441672e-05,-0.0001939629214636211,0.00011847193089743247,-8.182439622084942e-05,-7.43848994567345e-05,1.2326759796182285e-05,-5.400387719245401e-05,8.136369302776377e-05,4.7430757044081406e-05,0.00016909807028411388,6.5745142763456e-05,-4.691801052903229e-05
4.404191841327601e-05,9.530376295456683e-05,-4.546401747375683e-05,3.3970878166221376e-05,4.476895517415212e-06,2.8371651631373637e-05,-6.9942258777423385e-06,7.138143193182887e-05,9.789444679557829e-05,0.000150639317556585,2.7456388118495197e-05,0.00022991024015304713,4.396261675701962e-05,0.00011740128303789192,-9.397170187503544e-05,0.000123215245744609,-1.0564675638551954e-05,1.3340716638376994e-05,1.9555587094908535e-05,-9.322214192400821e-05,-0.00011952403295320632,7.732401023232454e-05,1.5473886139262136e-05,-0.00019608372870645615,5.0170197602936105e-06,4.704771075323478e-05,0.00017544438687562656,9.437974750963388e-05,-7.430880665162411e-05,0.00014320806457422585,1.0773646680278363e-05,1.975987576447718e-05
0.00010028126350414328,-6.700948610288296e-05,2.5544692480642504e-05,1.948204530250716e-05,0.0001793876231117838,-7.366366907588057e-05,0.00013392537965610627,-8.74095112745122e-05,-0.00016211117217186703,-3.306586159643278e-05,-5.897473663484205e-05,-0.0002074758442617017,3.591462149807363e-05,0.00011706600629287859,4.2606576659538605e-06,-5.3209278232400307e-05,-7.382663211185542e-05,9.459099650001934e-05,3.760857295616293e-05,7.993346951240066e-05,2.0552414346096268e-05,1.0524869787346644e-05,-8.993964861461783e-05,-4.4932281963737145e-05,0.00013365168291715898,0.00012387191197595692,3.4192207827713514e-06,-0.00011742060009946942,-1.6883521518299449e-06,0.00011132798489170004,6.760296701339267e-05,1.0931725953892643e-05
4.020603267403231e-05,-2.4981082762402942e-05,4.303493960890663e-06,0.00010102805831906531,7.060025679586808e-05,1.6006155314596395e-05,0.00010198271378238163,9.925646812094198e-05,-2.490707240253372e-06,-5.046230128934297e-05,-4.609004209466198e-05,-6.214848210205545e-06,-2.9021973539592985e-05,-8.002236790653919e-06,-2.280759041004817e-06,-2.145191331605872e-05,-4.164014085302025e-05,8.242110491745217e-05,1.403806427262088e-05,-2.2743663226006523e-05,0.00011940127580581637,-1.8065451290201017e-05,-9.652134827142679e-06,-9.343947371865576e-05,9.943920982348826e-05,-0.00011200952748739083,-3.62133189667316e-06,5.744390822619446e-05,-3.438589316700331e-05,7.15531494564849e-05,5.062408836003645e-05,3.960221927352034e-05
-3.494466488555321e-05,-0.00017017538404428815,8.378158091000912e-05,-9.961319161924953e-05,-1.7590252532269817e-05,-0.000168874937729472,-3.410959659910344e-05,-4.4983577731861015e-05,3.423497634630885e-05,0.00012085193273736567,0.00011769839329426605,-3.7613074838804106e-05,-0.00016329365514890302,2.31799209692531e-05,-8.667199190617022e-06,0.00014212875523707933,-6.642097996986574e-05,0.00014819322794119987,0.00015100999204286904,0.00012805432968641638,-2.5396606999789335e-05,-1.3283125439254398e-05,-5.910077575981403e-05,6.41444738357838e-05,-7.473674342977198e-05,-4.2039364146230986e-05,-6.446605800670665e-05,1.256675062004441e-05,-0.00012612529753207766,9.457850516557044e-05,4.8120990205286005e-05,0.00011924636656852012
-2.5462128857221247e-05,8.242691121687055e-05,-4.214401531541151e-05,-0.00026782527594035343,-7.209157722300345e-06,-0.00020629489916321642,2.008437122691332e-05,-6.950409276305356e-06,0.00011999500818631503,7.513212781580342e-06,-3.70629661596469e-05,0.00011832563366436352,-4.700022200545641e-05,-7.696329275188563e-05,-0.00023887762188826148,-2.7414394846651996e-05,-8.931014302034682e-05,0.00013330405482458766,7.208576953166486e-05,-8.124787572862935e-05,0.0001221681211357696,-9.996212150488027e-05,-2.0738940243536994e-05,-0.00012474638053998978,-2.648493093903036e-05,-6.597411642773287e-05,0.00010161849262619974,3.7274161614830936e-05,2.6944609591216093e-05,-8.201814750621781e-05,0.00022251605414210207,-0.00010207542347423853
-6.351919618560319e-05,-7.831255272129231e-05,7.68189429777811e-05,7.355130637683974e-05,2.9314872978129463e-05,-0.0001189663787320152,0.0001678012723367869,0.00013107716395400058,6.47509737202438e-05,-2.9278828599379854e-05,-7.463139290124275e-05,3.178675470891133e-05,-7.676662506716991e-06,3.275745836439177e-05,-0.00013354916471487271,6.74676180491586e-05,-3.825401940000894e-05,3.749966085060703e-05,-1.2022768425431756e-05,7.204874127151483e-05,-0.0001708809142449678,-1.8973440560340043e-05,-2.8419076805906236e-05,-7.404683866849277e-05,6.342882146858768e-05,-4.836156617509194e-05,-1.7399249859422395e-05,-8.970222563198647e-05,-0.0001133143255899894,-6.05919145221622e-05,-2.5515819244940166e-05,0.00011559635964832473
6.0700754001344344e-05,4.2115167594033126e-05,-3.375378806176214e-05,-8.689286250386021e-05,-8.938171611284028e-05,3.736046063210661e-05,4.140241236979199e-05,0.00011917999820600604,5.06372160387983e-05,-4.893330437436893e-05,-1.7326377538408213e-05,6.622492417251603e-05,-0.00015796775907162515,-1.834649885783738e-07,-7.290824563585527e-05,-5.075317296881667e-07,-0.00011000504762160477,-0.00010013720575131206,3.527910205763579e-05,0.00018560062604466434,3.800063640622189e-05,4.571371969402343e-05,4.407805622051999e-05,-4.746540468608719e-05,-2.4926665811159093e-05,0.00015356210764416948,-0.000285510460969444,0.0001233028303645397,9.661828418173073e-05,0.00012917402036480947,-9.16711627910139e-06,4.6653974514080206e-05
-0.00013457460133006497,-0.00011765605378846644,-2.6418890150096642e-05,-1.1234947513114536e-05,0.00013887738040547766,1.9890846938369142e-05,8.667087705341124e-05,-2.460795732489638e-05,9.921892736384789e-05,-0.00014339244900909103,-0.00010229956580956147,-5.403358139381638e-05,3.2831000052087334e-05,-9.90265472873179e-05,0.00020533988745255623,-8.92381861869632e-05,0.000122884419652054,-5.4517371423466305e-06,9.351551143984172e-05,4.425614979472166e-05,9.270646804692604e-06,5.8958731086739874e-05,0.00019455036429464177,0.00015388362825166494,0.00011395817953775948,0.00011146155909136342,0.0001291346514791013,-3.5195282453895685e-05,0.00019141772776942563,9.475448253951898e-05,-1.6649090197208707e-05,1.24965736289916e-05
-5.618206964929937e-05,-0.00010507093981835168,-0.00014774448752157538,-8.084488633791075e-05,2.5337254010361286e-05,0.00013964227181552464,7.76683088850013e-05,-2.3034976216949112e-05,-0.0002383975800193875,-6.805723214698932e-05,1.434511868652048e-05,-5.249330134286318e-05,-3.138339512057582e-06,3.914032698442148e-05,-9.69795640381926e-05,-3.090882844418999e-05,-5.48579417989644e-05,-0.0001477247729896834,0.00013658428043930788,7.362559599598794e-05,4.6798581014664035e-05,4.6307668967275406e-07,3.1527012305178156e-05,-3.839529637018958e-05,3.959968076424271e-05,2.424627477434014e-05,-8.578691688687893e-06,-6.958351299667194e-05,2.6215926572303444e-05,-4.278073836327731e-06,7.262678200075043e-05,7.716704370132182e-05
7.479118680777716e-05,-4.887688199537526e-05,1.420032853126181e-06,-5.563886636845279e-05,-4.501548177467446e-05,4.499613765726305e-05,-4.0035080027100864e-05,-7.598204264893436e-05,-0.00020802386925404756,-4.604652954112431e-06,5.9307485673574884e-05,8.581165019695668e-05,5.811976027920635e-05,0.00016712310297861447,-7.464073955897473e-05,-7.995278745322286e-05,-9.709760447851314e-05,7.1241713078766026e-06,7.97571135200496e-05,1.4805588203175602e-05,8.044210993865634e-05,-0.00016638498451633946,2.2385520729662766e-05,8.68240890417489e-05,-7.541093360641284e-05,1.5801660161476527e-05,-7.112484543829259e-06,0.00016112656988311023,1.6263657458410254e-05,-9.186827744552011e-05,-2.2158522080676207e-05,-0.00020775790668643612
9.059735146642206e-05,3.304046560911716e-05,-0.00015675000733241055,-3.375595581881991e-05,-8.367514162850309e-05,-4.174511948130131e-05,-9.009134263608227e-05,-0.00011090082834281223,-2.4552858276178933e-05,-1.2307625084981505e-05,0.0001230196866210068,9.839807595942113e-05,-4.0177550634324925e-05,-1.627394485311915e-06,0.00019550321041197195,-0.00011752141057130544,-4.331418513985738e-05,0.00019521460649041,3.1860459831946564e-05,-0.0001289839481463054,1.777696699783494e-05,3.4495445512381266e-05,-7.487473336487737e-05,1.3360651492740605e-05,2.4711321044588132e-05,-0.00015904003563179268,-9.064502629622801e-05,-8.025319247442014e-05,0.00010527002994812513,0.00010394592903960909,0.00014146350856983282,-0.00012416073926060147
-0.00016188916022313526,-4.5936063481552936e-05,-9.084765389337401e-05,-2.9476401366327646e-05,-5.61594345272925e-05,0.00013333783338651827,0.00012649348103083735,3.343294982968817e-05,3.079452246191634e-05,0.00015405299926212005,0.000173449428965573,-1.9074832156852118e-05,9.735906705218961e-05,-3.8599141307814456e-05,2.9096253306268546e-05,1.173147432069251e-05,-1.225436204117818e-05,0.00019578260134346686,-0.00011375188487656475,0.00010971163013395444,2.503769095699602e-05,3.7379050106800296e-05,-3.478984791864495e-05,-4.592225450254873e-05,-8.967252985694518e-05,-2.401335572934865e-05,0.00020458070103463689,0.00026119524014807513,1.737190088317613e-05,-8.075345392161058e-05,0.0003189317980779275,0.00014583096817828332
0.00016417816345130578,8.193907101690228e-05,8.904633146141493e-05,-6.454252018416863e-05,4.9602469852630724e-05,-0.00018529390446407016,-9.300656269820468e-05,-6.002093194558163e-06,0.00011802396692736293,1.7961101866029924e-05,-1.4263620387477265e-05,1.8620396091944574e-05,-0.0001262537649499288,2.3195044112354358e-05,-0.00011773296010502188,-0.00022960130795174872,2.9039697189792224e-05,9.117166207483911e-05,-0.00012875659386974556,2.591498891767951e-07,-5.001398910069237e-05,0.0001254595932011482,-1.1932813707771413e-05,-6.94590138282248e-05,-0.00019126345549538574,1.3698997907159536e-05,1.7938071456465616e-05,-0.00011059185978422649,-0.00010232055902997534,5.030638475243196e-05,2.8383412285904173e-05,-4.69912625244412e-05
7.854621132768696e-05,-0.00018695414232366612,0.0001910155719286814,4.605095165381778e-05,0.00021333046994327957,-4.7494525412335055e-05,0.00011455230920630021,9.865916722090762e-05,4.738612079278362e-05,-4.136842134687348e-05,9.377375703716321e-05,0.00012604120017760655,-0.0001562006644565703,9.640726987317089e-05,5.3774688883190526e-05,0.0001962460629832825,-1.394799875292024e-05,2.026930478072108e-06,-0.00020494525493110178,2.0508201423079148e-05,-2.4091840150042323e-05,-7.598591068007062e-05,-0.00014641657322544786,-2.5814688759702098e-05,-0.00015661063178085553,5.0793036984163216e-05,8.584773241049314e-05,-7.273939520847761e-05,-0.0001888317369047374,-1.0097549996742934e-05,-0.00021239903397680325,-6.268366314714895e-05
-0.00011810125388962547,-0.00018012468187896555,-6.992417273440105e-05,9.447793095328779e-05,-1.0025860356702302e-05,0.00011068376705082066,-0.00011272850509379743,-0.00011022095877830723,-0.00013588665540361115,0.00013075882668444897,-5.92714964929394e-05,-5.117635521666114e-05,-0.00013299863646236014,-1.4042874927638554e-05,-0.00014375746731418773,4.370421513793199e-05,0.00014347391662527018,-0.0001437744072447891,-1.4026930403099107e-05,8.106148179192599e-05,0.00013543969809855455,-4.32627094150152e-05,-8.551997818485429e-06,-3.3202022617408616e-06,-1.8429308381460918e-06,4.900452610809154e-05,3.020801228732321e-05,-8.470131084760121e-05,0.00015709001551964452,0.000114100913810782,5.4809930608492585e-06,-6.246325023038893e-05
7.087441539171988e-06,1.4062619019291967e-05,-4.5751917749522445e-05,7.339207773176279e-05,6.443120766603509e-05,0.00012056261067207962,-9.175529461080254e-05,8.207278793828148e-05,-9.311715028546185e-05,0.00017154378724942696,-2.284878194956194e-05,0.00010950721389036972,2.4581236280877907e-05,-2.8345583760140996e-05,-0.0001652962958232294,7.12242852206711e-05,0.00011160198522781063,-2.6075010201766227e-05,-5.063731344374005e-05,-0.00013668553291836395,-7.880667839436372e-05,0.00014218431464273418,-2.4489518442002052e-05,-0.0001575538757047684,-6.935840715506041e-05,-6.650037147282308e-06,4.823949658414002e-05,-0.00011224804461266718,-1.9589699512366903e-05,-0.00010689760519675927,0.00012182776426237092,0.00015120393499175482
8.023167357658856e-05,-4.8595375857869084e-05,0.00024021361131926184,0.00023829242556059932,-6.507640572551206e-05,7.75573853436841e-06,-0.0001017308212025469,-6.470469608562498e-05,0.00017178179877739766,6.002435657352988e-06,3.8705710258751115e-05,-5.69814440089824e-05,-0.0001942609667436956,-9.457536942174653e-06,-0.00018248972833943293,-7.035700120683155e-05,-0.00019439372921915216,4.668787652669524e-05,-4.1159527419431896e-05,6.8453823013307e-05,1.926893413950169e-05,-4.106538868140263e-05,9.194272424951996e-05,0.00015026846254152036,4.4007555122473517e-07,0.00010232819929224804,1.1693400923141378e-06,9.57677602092607e-05,0.00011713982116994556,-3.6648102935019014e-05,3.1920875239243154e-05,0.00011268329661176503
0.0001983463255164671,-2.7093830934226468e-05,-0.00018080921517485743,-0.00011645103201596975,0.0001651660979896929,-9.971381274411268e-05,0.00011035587274375518,-9.97919936858104e-05,-0.00012815889097317397,0.0002893571112741017,-6.172704416897738e-05,-5.077050153907479e-05,-9.720581230774828e-05,-0.00015890632875206995,0.00010821667429297152,9.129373201749704e-05,0.00012414588433057132,0.0001136008100999124,-0.00012244497799503146,5.326096252017921e-05,-7.304025858734421e-05,-6.829921478644987e-05,-6.382193615290926e-05,-6.594847410606131e-05,-3.5400076139339906e-06,5.858462707935137e-05,1.8006621998835148e-05,-2.620464884004961e-05,-0.0001283175669654587,0.00010222854152913974,-0.00011162888512901356,-0.00018385792128942146
-3.181710803881364e-05,-0.00013579002625883487,-9.323281587826331e-05,-2.8835621384924815e-05,-0.00015006242315279326,-5.9593395224032094e-05,1.5132600316577302e-05,9.897781694505339e-05,3.89307553018883e-05,-0.00010454075579268249,-4.2126270145283547e-05,9.380121042656285e-06,-3.04793855569801e-05,-9.561303287846747e-05,0.00016359065045179938,-3.186276602612417e-05,0.00022771489535006274,1.3864789795086354e-05,-0.00013670178600754524,0.0001656315321154309,-3.064329761544838e-05,-6.225922292869597e-05,-6.029384347760683e-05,-1.2342888146722326e-05,6.995943095198196e-05,6.011435375862903e-05,-8.87017915115961e-05,-6.646759833485402e-05,-9.296217908701166e-06,0.00011131062715967452,-4.905643388463384e-05,-7.215051966367858e-05

hidden2_to_output:
0.05854130653361798
-1.811198667227304e-05
0.0001805110266076176
-6.773164713377237e-05
0.0002202625987593084
-5.73567947506466e-05
-2.5106165369388332e-05
1.1931472523803285e-05
8.135953218282737e-05
0.00032805546470967965
0.00016449344378839426
0.00029560645462215753
0.00013744239308812581
0.00016514740458756694
0.00010392728552503345
0.00035269310716517865
-9.039936279300808e-05
-2.8684123585642508e-05
-2.4252963329220966e-05
0.00015111930473636636
4.7318534032097044e-05
0.0002210130981958313
0.000305375551712192
3.102539750922045e-06
0.00023572037258602526
0.00018236654817181612
-0.00012502489525799317
0.000245677519691047
1.874517549024239e-05
3.4963186830522574e-05
0.00037072288320556335
0.00034266480293721044
0.00029511492780366475

