input_to_hidden1:
0.9991188983492865,1.0007331011328715,1.0013831719879862,0.9980269300993054,1.000005311650031,0.9995990187777509,0.9998360018549562,0.999798120272688,1.001651602693712,0.9997427596475017,1.000111348688235,1.000344526420781,1.0013727675162054,0.9995577667850943,0.9994511370647057,0.999666426117396,0.9995363358264863,1.0005361495840728,1.0003643658144437,0.9996576498811964,1.0002897976196257,0.9990275772974888,1.001514987741022,0.9991865623051025,0.999212714383362,1.0010666942148088,1.0001711645434983,1.0021225904229623,1.0010632023684083,1.0000625502535718,1.0025323914256432,1.0010518648796078,1.0004171509072108,0.9995309743773979,0.9998675991604234,1.0018200536779636,0.9992529758202102,0.9981087502657505,0.9982891454610181,0.999072570392222,1.0001902263769584,1.0011080434401718,0.9990459250376669,0.999812658496806,0.9998082915140987,1.0016175789213637,1.0009753212394703,0.999995973597336,0.9996798782643084,0.9993284741048126,1.0007209107473343,0.9994760625317193,0.9998534100276953,1.0004890939682975,1.001890679694047,0.9998338538884853,0.9984689935252761,0.9998854045667269,1.0010074888703686,0.9995553837306347,1.0010128198055075,0.9996317826968735,0.9990292961682479,0.9995363546920676
-0.5885834205775548,-0.22394991992912908,0.022669464046040373,0.27633763225783653,0.10933143047333939,0.33843966533740505,0.12782899045729285,-0.21756378564332268,-0.22307242604111754,-0.03817610634391074,-0.5869281759891838,0.5016861296037477,0.09169527948849009,-0.03894139296426619,0.6583770655480903,0.7380968050625387,0.02284829357931436,0.948437411257357,-0.4684753064687462,-0.3285316087024966,0.08904374000779959,0.377973543592357,-0.27892915088254155,0.3666250551761984,-0.5833020927539901,-0.7155283219566564,0.14520207665724028,0.304852201785354,0.3616225689867506,0.364471907621325,0.32009717827312856,0.4995387054288323,0.23012256855337382,0.7122128784805795,-0.1634781578328295,0.265664336138945,-0.03032749410733402,-0.23516583245615938,0.42056685620346657,-0.009316287517797619,-0.7927522477551335,0.2553548693666255,0.24474911601967184,0.032565700699074114,-0.41344608711504877,0.32404851405839985,0.519418738333093,0.5229329954071901,-0.0937555082220263,-0.7233572778964782,-0.20355454177999938,0.2110389014498282,-0.03984035996359571,0.9551913370422465,-0.014474354871133544,0.47603903346475324,-0.6628928360982645,0.7658862082212271,0.5671079677486531,-0.11460090613892625,0.36394003958616156,-0.4504136349749962,0.35269690394946734,-0.47159351993259413
-0.37942500259010564,-0.3343385096657432,-0.15377426959665927,-0.05644618499466706,0.02222687607460409,0.37773641374664957,-0.3856334580689917,-0.3485613874495443,-0.4091253682286047,0.012409715908598616,-0.750890650560623,0.06417826938683924,0.24783530317618427,0.07568111767221318,-0.08445329601025539,-0.038175418482383046,-0.0655566702018376,0.8104353840302292,0.7536340287212271,-0.31826756645949517,0.19522462523233433,0.10544696790212214,0.20517990042484302,-0.2691417662339764,-0.23359831710911505,0.04320866826901991,0.2827940298281443,0.6237124113709004,0.6030990441963605,-0.15371817187460604,-0.30479727938104806,0.009024375134520826,-0.7981902407975358,0.35018756954031444,-0.39654504689047915,-0.19049633322894005,0.22262847590182336,0.5187803244331097,0.24516471205434892,0.5574548255317123,-0.7264384004569882,-0.07002845841745353,-0.37577695002604017,-0.041292419937881665,-0.3680486031436564,0.3599095008477888,0.11721320021050456,-0.39669195529567536,-0.021417985010918242,-0.6155238267743828,0.4596452776136271,-0.09885718603766797,-0.06510054876134964,0.2982277874900148,0.45690316921724344,0.2544260233622073,0.14103548963930582,0.4724986710988073,0.18011715762252684,0.49112840400032104,0.13201189863262186,0.7080467884377757,0.027252082538277666,-0.23037803333907772
-0.2972898257498372,0.30348288096442083,-0.28353725276090025,-0.2997061787116829,0.5498953498096959,0.2892288219726382,0.11116004787738948,0.14802207786887542,0.11931294963734167,-0.19363653842165496,-0.530552303786789,0.8355688198818014,-0.25236904614638267,0.10945693198259002,0.29065329393982586,0.0031948150690835923,0.13227438485893264,-0.13198075466164155,0.2594360568604452,0.18694742540337006,-0.029482503552314382,0.1004549927597367,-0.1422783858744382,-0.2580742006066867,-0.05132030896890674,-0.4565961982723165,0.371372481030574,-0.050347721406918795,0.03103229006089312,-0.11993886847055972,0.30692739280442743,0.6961184037249966,0.17411706370236701,0.23171949104184092,0.16591393496585263,-0.1381092559137908,-0.10828300972106501,-0.37748559709826984,-0.33049119975305163,0.7503086743424945,-0.3700211703445024,-0.09462609426239109,0.13289735141005854,0.26733145280720194,0.20036483393337362,0.20960300734407059,0.27156276449950895,-0.23373327009985928,-0.19775959402185878,0.05139384741322566,-0.15399315821488727,0.26357687618911524,0.34685125437427783,0.5253899132661592,-0.5258551470766023,-0.08664405759774743,-0.5564429196250793,-0.5747854503812612,-1.1883677629229157,-0.1494566003656544,0.6687717931673504,-0.41166881388573096,-0.7528233596706211,0.32482968693832825
-0.11764836313308652,0.08093491217414898,0.217925598923837,-0.15506240314597322,0.2913466244192718,-0.3242029264351884,0.01231049653175863,0.07141925940299353,-0.1343081251769274,-0.42947595882786416,0.283666728947513,0.8563622168423958,0.24913029028303246,0.10388857006636427,-0.12872595574332524,0.33878479632427233,0.15221218485067198,-0.6179763449461636,0.013877732590607709,0.018646971965684975,-0.22426087554636678,0.5428244051862771,0.45064285044792196,-0.164990008994942,-0.1815642693227951,-0.5070834247573633,0.44154381932737835,-0.3122685703073176,-0.08010389989160228,0.16324918931130675,-0.0905471606456661,-0.5845305098314622,-0.5462311818001376,0.7918090913947032,-0.9301706378696487,-0.3695159190593431,0.06399814063027107,0.3790772593963016,0.24981887495201288,-0.3917635309773492,-0.3725769175730618,-0.6681997595283233,-0.45705640220519567,-0.760791169045115,0.05456466420578149,0.3519471125650442,-0.4725460512235817,-0.15590906201686217,0.7468604194255722,-0.044983354104875514,-0.04000246526498106,0.5529822007589908,0.11898054209987599,-0.6600118061571341,0.028374708844246012,-0.4822762967251211,-0.2840138850515225,-0.0417584150042958,-0.2625108205788253,-0.4681502432669053,0.4875362416875789,0.24586835361342696,0.2450761072909531,-0.12284643690709669
0.7992535382224266,-0.4027249925421692,-0.09749005690435626,-0.24966179569658656,0.21929203330416733,0.2873966868279913,0.6061213007723879,-0.07471891068114167,-0.20798787800648122,0.6972530059496478,-0.1672869784200862,0.004705979591930338,-0.8082775072527184,0.17626970618282345,-0.3586547624181002,-0.20440194562901645,0.025160317083380526,-0.5738989107554684,0.1107951359442333,-0.004269110495861623,0.7865388531402183,-0.04341536818779082,0.2062269859234388,0.5862708083240401,-0.5460577353930488,0.7313487416427444,0.0370731930113725,0.7168551546729215,0.30739596026772087,-0.5820156566493291,-0.07049068570405058,0.8073132532287343,0.42948316520528856,-0.655746601005355,-0.4116825955504065,0.08180136151663325,-0.17055762353881634,0.16698902948956135,-0.29087144020769745,0.1603523515941774,-0.5546322858104561,0.30548802338497355,-0.03757989042042384,0.6819213462108454,-0.10113430859793955,0.09436947497772538,-0.02196596499948418,0.07213848766686144,0.19509922276418346,0.3209351191945042,0.04329079305694112,0.19557034339436888,0.07829271170241295,-0.08832379910562817,0.12224438501959578,0.3199346248649725,-0.3585475859494148,-0.37254588324870325,0.3128992623518108,-0.7030998343403325,-0.11169181208739186,-0.14336306976865829,0.38286804200410296,0.28110091710034335
0.6464226005284206,0.37174604627492336,-0.02595026168620115,0.16920989678488213,-0.26510526090039926,0.7621804963678546,0.41521925230202944,0.3148236239493514,-0.3406906572399287,-0.027428777119635227,0.4068568887719263,-0.22153809118788062,-0.1737165130477604,-0.6416546845231137,-0.11947877857666818,-0.4613933477042909,0.28522647216781766,-0.004957584696367359,0.03749620678587961,0.04783523585342348,0.5032600541701021,0.08330832148509466,-0.14707510900171727,-0.11345499961269649,0.22153530227726626,0.13303142065965987,0.33379995133054247,0.040170224442014776,0.1445799490511057,-0.24624784979847758,0.23570085213681746,-0.41167086591087554,-0.052294935820155035,-0.5713407137368802,-0.47135601231913904,0.09095072501860607,0.10310465659048666,0.41797807456135144,0.3376092120650291,-0.11346668978038058,-0.7408545544390928,0.094424378934541,-0.15625868067451512,0.07894474171713693,0.6588811249594994,-0.09317211352131834,0.09024616032570296,0.0810532353396369,0.6127026724131817,0.3842808940603094,0.16266572617211966,0.11812111449535827,0.03131863332254858,-0.7166877753559677,-0.09231995831084813,-0.0928622532264816,0.10519987581800821,0.005387094888048373,0.5854335417920863,0.8002360944497617,0.12001134599260102,0.1931591194438282,-0.5487163082556401,0.3855245207081681
0.15828668330385504,-0.41526335345595294,0.23697853711689112,-0.1354059693863481,0.22429412815900351,-0.1415349092536971,-0.572832583176357,-0.2129084982065661,1.0701468982245514,0.5542855764815878,-0.019088560773744368,-0.5005517982301968,0.22129610173008388,0.011654292616875022,-0.5837951411094954,-0.4764901494637375,0.0586869310718419,-0.29077341158716224,0.7191911988804416,-0.044106924761340885,-0.11777686406134742,-0.14578584437505662,-0.6752760165839949,0.0887809181773174,0.4602858947132572,-0.0983703326820259,-0.17015868638693285,-0.24046480890855068,0.068924117476666,0.08926102549414056,-0.2080446109308566,-0.3226699509779065,0.31275008507583724,-0.4294893844219491,0.0295368295627711,0.9371063439496722,-0.19230939401168948,0.31469833186903023,0.43363239194748465,0.20364562159129354,-0.30651624912937575,-0.36569897241228816,0.2054019198536914,0.7514641818288527,0.5629515584163056,0.15278941729849574,-0.4307192636002573,0.5197952627147887,0.7710052413084524,0.40585748370086294,0.44248108390862384,0.4133989033557273,0.06605840443487904,0.273436239428793,-0.30541232868747464,-0.9808487751001911,-0.004379663293382729,0.22721980322252994,0.7123837839709547,-0.09151594467152531,-0.4006739009285418,0.521161330650228,-0.3043248134113218,-0.015787870476972627
0.797395242932506,0.07818070127124001,-0.13022181326866,0.14778151903498615,-0.3071332393500007,0.015310199555255788,0.19403950331547756,-0.9334001763068881,-0.15728423268177402,-0.39715197326022417,-0.18690769044951722,0.6231059373276886,-0.08748766406990552,-0.18739836863828152,0.43703812771492184,-0.8203190192097435,-0.6424168076176786,-0.2630078237397261,-0.5138442217475951,-0.023415865477284088,-0.3474795882774574,0.15217681216545229,0.07734241061981743,-0.6940931235084873,-0.37325751522077694,0.25562984766092106,0.487881431524768,-0.4379621150261902,0.047944334828188835,0.25345846099782443,-0.012946649261242709,-0.21531431916083482,-0.13702173693180275,0.6812949849047287,-0.678798240244851,0.4356163450079716,0.005216915223266525,0.058965150085889095,-0.4915121672458761,-0.9010464126450237,-0.33250495478108344,-0.7671994858939616,-0.6212635929095963,-0.6166738812325652,-0.32885988140534456,-0.835456380360531,0.47374224405057996,0.17101218131616006,-0.03409052610033056,0.3830687191507698,0.2770981705741563,0.43757464272547175,0.5194561970351699,-0.6841396317269012,-0.14821103052442813,0.22292119477217845,0.790111638901672,0.34785579378787357,-0.02126141283208303,0.723242609219093,-0.16371330977952162,0.06382791262459842,0.17040460721806744,-0.16021433904532367
-0.42183040031740143,0.6872130066017844,-0.019073453103834515,0.3099172504103725,-0.24280311552811287,-0.06794442531059149,-0.03975809795324209,-0.15016918416355646,0.687394220890833,-0.11833354978680191,-0.5129914351714677,-0.24010941257471494,0.16392007069247225,-0.2002425493184022,-0.722003372814529,-0.06564000210821432,-0.6873594634503172,0.8174146842622859,-0.2612416156978669,0.027039098230440338,0.09348923363763759,0.3518599184108598,0.4340234442985165,0.19560678767450831,0.2300507708184338,0.700284218050387,0.4140559871651233,0.04425061666607216,0.39929469839446424,-0.3683921130933135,0.2547380587317136,0.2063501855072797,-0.3706351320634746,0.23856438596000223,-0.20809966202564767,-0.22169993279978528,-0.8777589526099597,0.3403142026595572,0.2927874142371109,-0.3017589783734508,0.009751026264829146,0.15027464090206516,0.30153636761765124,0.20467564693370233,-0.05616954074927949,0.3428515734416395,0.16903816531817398,-0.0039215876013722305,0.0845310696930733,-0.10396158144346367,0.6111070920932862,0.33853279191278485,-0.6691262452502198,0.4665361269352328,-0.5708299819779293,0.48917653818590306,0.4084440284016573,-0.028152737173776667,0.6391049078769638,-0.038891308041446325,0.7180868444920004,-0.5477434920662423,-0.4179978369292787,-0.5690573368589592
0.12750345145615105,0.2897128979776393,0.17886424385546384,0.17066759860379022,0.14320209050141597,-0.028923944572619837,0.9198958111449256,-0.12255331066366494,0.3922642728958358,0.03389251439728681,0.28016045501155723,-0.006571936380081957,0.10035867927590285,-0.6677686856829992,0.5753768256530022,-0.2980804627381243,-0.5377021190577562,0.07859648189528835,-0.5542145140265148,0.31361343960069366,-0.30380572277788276,0.23611483978744907,0.20222720273041028,0.5217842540401968,-0.575625287013809,0.9818010825116679,-0.23070562525551466,0.4379633689911052,-0.15066289428671106,0.19907712372139647,-0.24676241473104182,-0.9341261339258254,-0.14904691384433416,0.3012140229614646,0.06923887599301036,-0.22305241914139387,-0.0128564955887457,0.20662096516381298,0.19126934572559307,-0.31731086428965105,-0.8700736026329339,-0.06016735234822384,0.4950932423682131,-0.3008726582195705,0.22813869877768456,0.6938199192894074,0.13626634504356988,0.16946538423488894,0.41294624193555923,-0.24624418678823418,0.01869505568311227,-0.1624002647986063,0.2414165637147198,-0.229893050821007,-0.21130518718854174,-0.7610193724884723,0.2522221586613318,0.24091473442055708,-0.3728583662067958,-0.5982871607787086,-0.08015953673999648,0.5136192981457438,-0.2997236633487833,-0.08301219182745906
0.21322134222835634,0.3909047677262189,-0.1619220653382935,0.14084553415516954,0.9158731055160092,-0.16931600652679965,0.0877933811115114,0.1495438236186056,0.2735850764186433,0.33937834754745017,-0.4998180847148336,-0.3732304300075163,-0.5340045147331032,-0.33163670237441284,0.18210164631552522,-0.08936941353060754,0.5689559810210629,0.039791908092569384,-0.19021901049753484,-0.45763789210531114,-0.12129026509890282,-0.33321192070013206,-0.23354409127545228,0.2583906262444489,0.011327434510418143,0.45977320883076844,-0.007494912647931495,0.5909730102095473,-0.14927123100397965,0.042790857342748914,-0.30379039558905374,0.24206576479197858,-0.012393966126793316,0.38340878242686277,-0.1406300917763923,0.3765469193542828,-0.36789864767690017,-0.5413300116637286,0.07911233582755199,-0.10244610239065188,-0.04668706256492524,-0.30981239326688687,0.022456472679883405,-0.3281911909299102,0.10100561734397953,0.4339281859480425,0.5312150073580674,0.26957291699707286,0.14353032192067658,-0.7833373012351623,0.28326523887150984,0.33598138937184424,-0.6982888411880279,0.3169825679470975,-0.2640065837031961,-0.20110693215017175,0.4364832544773957,0.06353677369577239,0.41214789311772887,0.6143072297163744,-0.4475194229481748,-0.198808084765727,0.7329860993637081,0.3842589951711937
0.007700678344162863,0.4013775907118613,-0.0432815796558411,0.432009971332176,-0.0011334440761407954,0.5489939049786031,0.8702538651888826,-0.40027412712339167,0.11336660196150543,-0.2689072945562437,0.3059418449884485,0.01860796992718642,-0.022904929865302237,-0.5907005322686975,0.13964759693778658,-0.03711957658761162,-0.037805046496284606,0.7875933187057119,-0.41805100324565825,0.11095666455697897,0.15407703916008206,-0.1667284179784249,0.12820086850653015,0.7166634538547775,0.07270267715535798,-0.05906430188281877,-0.5017559235540302,0.1312030994410199,-0.4707495648184764,-0.07023658404462309,0.43450646970251594,-0.4029357085914298,0.14279982646472913,0.225853149933101,-0.5474636085720944,0.26446841783174757,0.2758150501776519,-0.3608442478084552,0.5050819199347607,0.4213930301849641,0.5440180349868046,-0.1591052285889628,0.3184408165868465,0.4308225261929421,-0.20589620483862708,-0.21380688370421522,0.006981921433571143,-0.45313279343715035,-0.47180438797389396,-0.1577637879788807,-0.02714892229213972,-0.120268562076516,-0.1310159602935149,0.26784015692340596,0.028730009079251898,0.36433094639304464,-0.4552482098024101,-0.1850476808880939,0.26608772948695003,0.4333378383874367,0.03842392997691961,-0.590844771820981,-0.5522674687142898,-0.07723733903836282
0.16710056709806823,0.6187541259557555,-0.2733915046924563,0.2351853186572615,-0.7103678717739748,0.5638262482863,-0.29888321756691105,-0.12213980576311986,-0.42903937983884977,-0.022019176153845327,-1.2190165221510283,0.13191618920957063,-0.2303652523806266,0.59106989751657,-0.09206102605327092,0.3045666858511788,-0.06668194338788175,-0.0003198398946846211,0.09976943828683082,-0.37030436360243557,0.17451509896665915,-0.2049144751096359,0.5140530756896963,0.8623192951938135,0.29960079600006567,-0.133241352309696,0.256387191327885,0.27964580057279464,0.010609124258893822,-0.6195185598328206,-0.5720299686578381,-0.18337509677903685,0.39270763411849036,-0.05086245729359875,0.40031076750822814,-0.283510373976238,0.021501877604370494,-0.05759445496981839,-0.5170356689272988,0.19406332629419124,-0.20597163512896038,-0.22031135601115973,0.38173744039086804,-0.18406001537656086,-0.1304021402830416,0.6144133774413166,0.5073119832063682,-0.04958244818309725,0.1767833117035173,-0.14637506234652883,-0.5895777351343195,-0.22820896291902804,-0.5095238073478666,-0.6151103084165076,0.5020575163936403,-0.005958599369845168,-0.6649391838431132,-0.023845475040410714,0.34165335480922543,-0.5535595272383959,0.06719092925964654,0.008856212298769666,-0.10341653766968018,-0.24388357979206704

hidden1_to_hidden2:
0.9999750684014573,1.0013071009903836,1.0011482143566608,1.0014809810205463,1.0,0.9991185404749822,0.9993805209062541,1.0,1.0012406996689212,0.9988816351639968,0.9967998215288922,1.0028783401526846,1.0008047738745849,1.000706002546983,0.999968515127115,1.0019331090089547,0.9974819689705862,1.000026590703769,1.0014625581722445,0.997570495340687,0.9994930505209556,0.9975269229967859,1.00002560198976,1.0005665102297152,0.9992944177468311,1.0011996719493452,1.000334728567428,0.9997329583661594,1.0005489549956978,1.0011124637538542,0.9998741019422362,0.9989588863280208
-0.09483297441445462,-0.15668372292945024,-0.10694512285254068,-0.0760790305838612,0.32111878749190936,0.0674760142771553,0.3631813522978527,0.06006611300978508,0.08592361614041541,-0.12047830160226276,-0.1129640128114235,-0.32287579707413583,-0.41532101579990544,0.05827648712968806,-0.31371714665900097,-0.27607342576350163,-0.008762306300836175,-0.13163097180578417,-0.09959107479974155,-0.43072829474866975,0.1341064050662978,0.029001409338412047,0.1970168569135413,-0.024175759792376836,-0.14824103488430057,0.20065301066550034,-0.19888724997425,-0.06803384021346559,0.026716866557262943,-0.27653502601152946,-0.013361728414064144,-0.1706045659440464
0.055839127399703425,0.0757242338332297,-0.3465826142277987,0.3179204269232588,0.061062600929330836,0.4329040763363513,-0.21369968020242733,-0.35344969893308137,0.29702120090996575,0.18942595629870948,0.1431036097091956,0.19660807696560728,0.23769583471139233,-0.13508797704017111,-0.032637364227256695,0.131840260602026,-0.17643225251453515,0.0083399545333638,-0.06382592797639636,-0.06502221904747796,-0.31371833890732453,0.2325790166088319,-0.0966941627660626,0.026998079008723547,0.17345363364337751,-0.020299626562159473,0.29881406898046314,0.14438742885658484,0.08249306307001944,0.2200871058925347,0.010486059816864323,0.056260839831739844
-0.24361618274884553,-0.0529297950123408,-0.04112421923823455,0.09692487523058886,-0.09468198277838842,0.12527231872971034,-0.04251992857960675,-0.35611890584681505,0.18158494597658886,-0.27528244680111913,-0.061315440609285767,0.0312502259678725,-0.30626203383049816,0.016625231763782576,0.29396590446318355,-0.2257479885002439,0.04136154501237454,0.16707027260194743,0.10887075589277766,-0.3622070682919786,-0.1200065263124904,-0.058388996451235346,0.11367925116127099,0.2472847721309336,0.07750380557757161,0.059437981084530536,-0.33326265321183796,0.23015195876381478,-0.043979549687111055,0.08383701127500182,0.16378428705534118,-0.13554970556345405
-0.22937395985887504,0.11896640589278398,0.07573040748250488,-0.32286033343871007,-0.2098674823625326,0.1655177374012954,-0.2552069412522806,0.2075869236641124,-0.11256679585083997,-0.1924630721431067,0.21942421705016912,-0.04295666514366567,-0.19683503382380613,-0.19000321866372172,0.01833650707189601,0.15392520411019592,0.10807739633375676,0.011115925398396197,-0.16751675594745608,0.1567075585534262,0.15507942634356267,0.03777059979089424,-0.17100330307029502,0.05280824005952079,0.07573962653168435,0.25113412452690015,-0.2322464178092169,0.04679540198512305,-0.11303795407906306,-0.045309803197177326,-0.27236450959845304,-0.0004963461827611025
0.08585833420914847,-0.0770746965984231,-0.057097267924215926,-0.06548779163803872,-0.06574867335437352,0.04931895025031524,0.05269333867806731,0.06990518837180246,-0.09752566657812922,0.009754278487160458,-0.11932416753250513,-0.330408669024523,0.033521373389840646,-0.16556605267817598,-0.09341423916715011,0.18148826689555528,-0.08239679974618021,0.21312678439532337,-0.15734927752934616,-0.027854153179507225,0.07226056112143786,-0.10869724876400068,-0.0912270002481906,0.07635916295921236,-0.044445049276918745,0.1722773592387759,0.171268466634587,-0.41282710932854366,0.14511259724466555,0.0057598272010040705,-0.18481025095886258,0.014568448334616213
-0.26345302114856967,0.1453562356238496,0.2975460891323384,-0.1247150910027411,-0.13283280089036825,0.1973476426466427,0.2966934080619117,0.26545091738987914,-0.19056767561733087,-0.1705681153925026,0.022062237487751952,-0.18529242504427174,0.18355063135564773,-0.20305034176030984,0.05426720330449011,0.16328359430931477,0.29859241400535697,0.05328856716164558,-0.02360324702625514,-0.10550477826974769,0.02914914993656651,0.08623308137956663,0.32986951033943107,-0.04458340308435999,-0.13366032965607363,0.30978660608937664,0.3711049805160658,0.16104042123505508,0.1509960166285591,0.3246768987770846,-0.10698890060706014,0.23153616148973552
-0.16086142825487465,0.23332294180965646,-0.04324232862067593,0.2733119074352088,0.3279842863097205,-0.18991596401240407,0.21878208609277688,0.02452527039494721,-0.054092851762110185,0.309313433339256,0.08266018813645998,0.2637598199371746,0.23609768033539277,0.09371898619367505,-0.23721411085536054,0.4186779296936225,0.31616951627622353,0.12653811544467158,-0.057857740070058436,0.12187209976123749,-0.0414975865460933,0.20180132310593105,0.4592180030833216,-0.013544706875809888,-0.06711507406415154,0.03915724907820577,0.05747163535612543,-0.06536125949387327,0.013135683789931409,-0.027134085285330043,0.16341638176481132,0.3777809233406485
0.08255427390936529,-0.031034308191316518,0.2003533159647651,0.10207750198744363,0.18758764376725753,0.2743404916392437,0.07617039161487554,0.2938458284646841,-0.014984810573489419,0.2148749869433753,-0.13619903508793407,-0.2671907214342089,0.36390266229436796,-0.06342865065979095,0.14068133679219286,-0.3577174973246526,-0.06647064960112337,-0.34745403258081636,0.15480019052210672,0.0036178049522398877,-0.020251551247463938,-0.040731959064239175,0.2725703928298692,0.02847364544893941,-0.20446497612293518,-0.19687373406489356,-0.034664640684826414,0.24965295891999603,-0.06281323865973067,0.004756682226424801,0.015136144086414578,-0.3171378667361066
0.09234183501922852,0.10870956672825344,0.086700015677773,0.018311206855927246,-0.038629429955260135,0.2543503139800629,-0.11055785566069203,-0.14492460644341001,-0.10400688175098155,-0.3410114309393838,-0.0891077322982825,-0.1456631084300615,-0.01435065654828692,0.1365823121397906,-0.06325641057993826,-0.10721954370312928,-0.12461618595459581,0.25734971564915016,0.11997697795385022,-0.07438146604271277,-0.11819417294517824,-0.20498882169020344,0.3249086126893137,-0.09968779531498624,0.01586027976283339,-0.19430352672026485,-0.19718085626460571,-0.26921437327847764,-0.3206209043631141,0.6967423946884368,-0.0572348551625974,-0.020684489910843436
-0.10950418668949438,0.0006378148149303883,-0.046474634342791615,-0.22343423665998996,-0.1347979939223212,-0.1595272455156093,-0.15882793653824284,0.18798849912846352,-0.3085741270905145,-0.001443757980595894,-0.029939210043550293,-0.4518778370655168,0.11502933876461859,0.015475859116372174,-0.17961085393596654,0.33817280583380743,-0.1002853157316471,-0.1745358153667702,-0.23944652564516616,0.09846118792171225,-0.05430676248042708,-0.2853763643395,-0.05354200246320806,0.02903374128839188,0.08437934062104628,0.17755279082929415,0.16281864799554363,-0.01006565140179508,0.1845178898194392,0.13086473893298928,-0.2995445873477139,0.15723044560136895
0.043890230351460516,0.35682309608764307,-0.061234718167416054,0.13849636610481725,-0.10763571563907366,-0.005287567468009551,-0.07262693929577826,-0.1545859643717743,0.011440810941102308,-0.07986555659798024,-0.31217170583793574,-0.07426355201953362,0.19549897455190765,0.10748417278193172,-0.023138861501875,0.2845446469825308,0.02975882636989489,0.2721082569535438,0.019502543897534957,0.27849317823371145,0.25108682066128096,0.23544474903818124,0.13441800899581816,-0.08513516147932744,0.13365678535173983,-0.22607411494404692,-0.06332482647009834,-0.00547423658700432,0.150430528040881,0.02591194047910267,-0.22434979717576398,0.20286943380107308
0.29291772080973905,-0.12429639028470948,-0.20442361429758685,-0.10691204544825794,-0.023309301118258702,-0.20527885392594192,0.027356972912028925,-0.10256334685439869,0.2841032492155795,-0.0555531314065141,-0.1207976967663988,0.015976945083183515,-0.2502072458494517,0.13724156498423692,-0.28123009797208726,-0.2375518045291887,-0.24939015045909058,-0.05955317328345507,0.010699730000379265,0.07740047986097175,0.02562350019133107,0.13104217151877212,-0.2065644719555334,0.035776184192796885,0.06250588962140455,0.30318515730758083,-0.09167029510429459,0.028765110741051897,-0.003821154177464114,-0.07974841883558996,0.10956303005914064,-0.19198504188985338
-0.05509435457889607,0.28868639708335997,-0.14009026372542635,-0.14991207116425145,0.1337727795473127,0.06010119734411244,0.0681901175352658,0.20575679695136784,0.1955895289600497,0.1212011165583116,-0.4260830753530098,0.08774442714095455,0.006053494939826404,-0.2132087577115756,-0.159535075132791,0.10904169821730282,-0.19826522347165904,-0.2183497561243069,-4.6049913982221076e-05,0.33787114012463215,-0.04617290595684369,0.07297571505003927,0.18289357182905472,-0.24182767619833043,-0.046799921307400995,0.246914834305327,0.03643033471508854,0.09589682278774439,-0.10941148776262934,-0.058299550527253496,-0.03075469255235623,-0.13215716667118685
-0.017929329700131814,0.08778785571643366,0.07671976463030442,0.007620096383538719,0.16594209375402363,0.009868188916896573,0.13831874764246976,-0.17623753499414913,-0.06444330090972675,-0.04184514841942006,-0.019205961232630648,-0.12052936293498467,-0.4786369473369756,0.27322673930476377,0.14228215947058623,-0.11981624471041,-0.055195973935690736,-0.05098063357188437,0.27646835939294484,0.09854221819620088,-0.24803591004540207,0.13269136913257243,0.33333230215754844,0.1293276318773858,0.12694633390958593,0.2636852206919401,0.1972051711223901,0.081507416941767,-0.25635015627217766,-0.3658102378381499,0.35428104605722016,-0.07802557877917014
0.12125213210694158,0.2567645141417262,-0.06696574803654962,0.11096914920081385,-0.14116779858804723,0.10772874471179004,0.15740685215470834,-0.057598267368670214,0.2305708292227263,-0.24403392022433526,0.12384788112629058,-0.35371324362966994,0.26954959409684237,-0.1059742707171568,0.004791318878106777,0.17186192744812934,-0.09776134686152696,-0.3175330409385271,-0.190512325213731,0.08014132088391221,-0.13071071331942738,0.10341207725591982,0.1237876273795128,-0.17904798253815984,-0.19646420624433117,-0.08769131247969625,0.24265503338803207,-0.35480124513212463,0.196279608424656,-0.18267265841581684,0.03748435383182607,-0.02895790257496505
-0.1545967682878766,0.13746494424219266,0.22139845409504194,-0.17247771610752236,0.1938676150423545,-0.13369429719971654,0.02591579575414235,0.24600891030997418,0.04939286382872313,-0.2616654422272511,0.11517352940649161,0.0072709662437063505,0.16147736585835645,0.1349051549015667,-0.08250629753316337,0.32695419146976834,0.20606418069454788,-0.018945172467396843,0.10470252368937938,0.23925084455041618,0.20558952268864292,0.1672325316081132,-0.09129773127418976,-0.04632417094969655,0.0803927363326922,0.08628666602803217,-0.058570994969921325,0.01363040469844434,-0.015534326967454094,0.022405536165347132,0.22939408078470105,-0.026457145281693642
-0.01984960427896236,0.008613458179460638,0.0724218033900256,0.24405482755597885,0.09140591300393626,0.06847093376229797,-0.2553139603697373,0.05178081177029202,-0.01422668018771174,0.056758556187536516,0.2262861044049136,-0.15569080329040366,0.038468397126548905,0.3064004559315246,-0.034720327782592396,-0.030558688364278174,-0.11839633922550623,0.2531487154770597,-0.07118341810896078,0.15169443854929,0.32898276511487584,-0.21941679120438795,-0.25198278928003537,0.1391755988814819,-0.03372089268285406,-0.2710864348282246,-0.1570805956215776,0.05494586201936161,-0.15008522343989908,0.06821883114077933,-0.12393347003899362,0.11835934912244107
-0.044252275236952236,0.06824439257518052,0.23461729225644512,-0.12407201260263145,-0.03328191877192861,0.2680499053176378,0.08269038876756671,0.14372856117032654,0.122591867114427,0.122424095892351,-0.16102309700574136,0.07618751153239102,-0.10338503375410273,0.1352274246100953,0.0848499042957375,-0.08348486454891445,0.11318674761534685,0.027213694112204447,0.21145219767796572,-0.13520894916583098,-0.0028787223670587695,-0.05919230863245187,0.09570890958255376,0.14334999887044583,0.298842467740972,-0.20661890383482487,0.15431527668103612,-0.22428243531533615,-0.10477838889836295,-0.063685641455066,-0.30727664361373175,0.03484383220246164
0.09782057570459246,0.28401162897123605,-0.29686245393304395,0.15312950071876796,-0.059922986568581214,0.04933148470268672,0.1243814974873923,-0.058442006167188386,-0.17015609945316484,-0.09875864485154097,-0.2557276589416707,0.042731316848995955,0.27322986663750987,0.0700558881459385,0.018339889606624322,0.11334399171059971,0.20984132059566896,0.08186019341045324,-0.04019588329362858,0.028716033176702866,0.03019478661902813,-0.12691236749599025,0.11703338714693211,-0.16169093307004265,0.10721914545974846,-0.16330135350687605,0.23237044474471608,-0.22027719530349857,-0.2952260957797085,-0.06509830849621061,0.15394379144332215,0.11020589746186729
0.06775512233033895,0.014298053742291468,0.2949061446618828,-0.036619689568133315,0.020196991678004365,-0.18196168836155774,0.32623080939068727,0.13063845907164123,-0.009798338505196551,0.03656381565615634,0.07877930429622747,-0.08956936576801698,0.008698401292906437,0.03125372007884457,0.2240407977004308,0.07507402485241495,0.025683541759011986,-0.11745069242976133,0.16385436241282417,-0.09906807467474842,0.0798465606665835,-0.025591060748027205,0.04520103436955326,-0.22730370759796853,-0.1599776569252663,-0.07544533590898744,-0.26410699193108866,0.23299787346171666,-0.0432318584142427,0.06076073662810834,0.13856429332051792,0.37543959853303127
-0.046484471704377923,-0.18821001734882098,-0.4099302268463002,-0.015095262203924957,0.02454480698615515,0.09577457604358156,0.2126961135198493,-0.016626329518569013,0.23916689843762598,-0.2910791518892545,-0.050864343075610226,-0.05724195488717763,-0.08226123570788473,-0.04829712517370783,0.1068125823789221,0.05896472060457299,0.09556739642808859,0.0053509787447241445,-0.20901691093362978,-0.30894063982391384,-0.056657276746012744,-0.12546731010529472,-0.04490512078487196,-0.4024771031892929,-0.4379230900642712,-0.3932518473852203,-0.0014862120039206082,-0.19449284556759774,0.040984364558977596,0.13049572007461147,0.017052618729148924,-0.2650546614971446
-0.00833485932085316,0.16912484242985834,0.2565750144922443,-0.21912158028322554,0.047170524196533614,0.16398967171444434,0.0771305469194624,-0.10121212105167854,0.12523122202094364,0.316985493376885,0.21394084653825135,0.2551840822238781,-0.0594325507225507,-0.016227636047753527,0.016711332479631507,0.23405771544685738,0.12146947988603006,-0.7524718920130167,0.07707749708117552,0.3219537879152808,-0.07038290107659413,0.025099809224648273,-4.38788871694913e-05,0.005169195668863932,-4.2393460466792014e-05,-0.3230138859884797,0.12516831873652776,-0.02186935223807963,0.353352548424069,-0.1661944240918402,-0.12396345918893366,-0.16200297130319563
0.023219226380340283,-0.10384147291049134,-0.02665625578504586,0.11772096253146787,-0.05918662222667899,-0.11305453892152988,0.10334536223037684,0.014512761705617702,0.021102178284879956,-0.11656665267407285,0.011772651358272723,0.14775484030779637,0.29749511131461076,-0.07805263118334933,-0.055598104924181664,0.30049597299615105,-0.12432856917562782,0.04798412921960845,-0.4076684492475441,-0.08810922146823989,-0.12465016476857087,0.10526288323277401,0.07809847132448662,-0.06075727204493621,0.104412031310073,0.27828554351501167,-0.15031280340578435,-0.035274689532089266,0.022027215595853963,0.10105958847915102,0.04237119476100108,-0.1572846754958505
-0.3022405988277177,-0.0937281469956994,-0.10840692287153597,-0.15830272033851123,0.049853402042095624,-0.2671283071422388,0.0765327510845733,0.054558996066148724,0.06482426521094627,0.17086402387558283,-0.10380832937729362,0.0850039137382637,-0.16784915421403,-0.19969020621788236,0.3224943270856094,-0.2661334713401457,0.034733664262102185,0.09142333743179684,0.21541592152426572,0.10416586458153106,0.03168400376199089,0.18803689456845732,-0.27402813590020014,0.07253044774586101,0.11766518494143297,0.18061439108044294,0.1055176262128434,0.11200841469549498,0.053189486764501845,-0.20170558255087534,-0.033776864076835146,-0.3672364957125935
-0.060565088364120924,-0.07359918268522651,0.0062714057229002786,0.15423100808176524,-0.0011657793766168556,0.20262849867273924,0.06627166134875996,0.15354773869346405,0.32079164811892324,0.15841187047735159,0.020089552693911324,0.18302200850431205,0.22311445520062545,0.19718825512611246,-0.04529777182522339,-0.0664167833395254,0.10913972162864886,-0.16277382593661255,-0.46665358851792277,0.24327528596792697,-0.09985041736638456,-0.03360605946933331,-0.14538843684862732,0.025951967374286133,0.02115166474748404,0.0022646065376410464,0.3213993560268525,-0.011709839649147622,-0.28361916536220955,-0.30001447434721007,-0.41036145323733825,0.10103686219925623
-0.2788224486964096,-0.21805722464403077,-0.0005417562279938736,0.1078171789386526,-0.2085892688281883,0.4382022723944415,-0.06982526040819631,0.02351849100618791,-0.012115697815704351,0.28188115512324374,-0.19030721567962883,0.2297782671447697,0.03892492622021161,0.12066291209375368,-0.20133852676522157,0.026079123213731552,-0.22355635216483755,-0.3964458286409998,-0.2779250972723533,-0.08245903187071636,-0.34698230213031983,0.07694007978532572,0.07622275090149955,0.027133039566537346,-0.14098105983507447,0.16679182051990094,-0.2800958091609019,0.10925150094206937,-0.06145072982873502,-0.13402743369657938,-0.152601116678057,-0.08065523892643096
0.29499192401823515,0.04190138655683945,0.19021068366362978,0.34274895373544745,-0.24552643862671705,0.3893928903897148,-0.04462628175900612,-0.06644470422572207,0.039995909999314884,0.370453208723847,0.2595268355691315,0.22067235388130213,0.008442789398249592,0.12463846092429495,-0.18137196043087586,-0.10511220601559848,-0.07162774952631404,0.11682076349537976,0.03804560013428422,0.1770966498829036,0.08444362396141043,-0.19324032466578084,-0.1009442546582641,0.19813399792156186,-0.18615417459686845,-0.029952066012264394,0.1105511283275117,0.14615258837297407,-0.14941990111319922,-0.11854904382059227,0.030475672774208887,-0.19065309590283164
-0.009995735798667905,-0.05102684917125973,0.01374072814554821,0.2724596401505093,-0.36065570962720694,-0.10416789436305289,0.004051342442394371,-0.28368214521268376,0.12197602237944274,-0.20565452280269372,0.035694674633497715,0.022647918308765086,0.392719067213505,0.1134846615708199,-0.19448641262683594,-0.12213739453629584,-0.0190470656369235,0.03245448780871188,0.3651966972045751,-0.3273763819918109,-0.06480889914143241,0.06452522559736017,-0.04115120163869558,-0.02702834835742175,-0.10557998917653781,0.011050385224223256,-0.29227290872684536,-0.17606304503646622,-0.13585174733562042,0.11083401155213152,0.13002681118204482,0.07239851688523904
0.08391492789187963,-0.21983660434996646,0.013090838977494943,-0.016309082786615935,-0.024101708774846152,0.03377937740098632,0.20790112528048896,0.3103669939245097,0.11089522288854813,-0.03591770250684683,-0.24393750334576342,0.234948203976861,0.0329075794935336,-0.06448450762661706,-0.3325314482778582,-0.031209341637841143,-0.10787231617530217,-0.13954009780083,0.0338845943038294,0.2044248474836344,-0.035252362544719924,-0.09103454734414197,-0.13856689009861198,0.029560652551645198,0.21887456326834626,-0.014699616203090548,0.09641050550558426,-0.018027910145683983,0.07621457284779498,0.007594579593659124,0.19240500783191639,-0.0270322046291698
-0.3646199521821187,-0.03355099562452771,0.04445503804535972,-0.21717008380024516,0.12264731019687324,0.13554543289498946,-0.20317521715290546,0.2183619430192848,0.14009948520371857,0.21060694847460368,0.1467202587024617,0.03867498470823144,-0.16651994295636555,-0.050706820504970364,-0.14663265972078374,0.10567011533812279,-0.12370219148746665,0.06574726748669607,-0.31855379981425913,-0.3382802706893313,0.07467055861407573,0.08428621936505157,0.20525114493008276,-0.10841035160771637,-0.16057591632443236,-0.011606835314020928,-0.169638969556037,-0.20096738850205997,-0.1586485387466707,0.36235728887510865,-0.07917429536973375,0.01962190506908529
0.046986850992082496,0.2275175165558269,0.28218939172838653,-0.036906084512388894,-0.056699075814393006,0.1764910613980165,-0.14822091796285733,-0.24909586786020577,-0.2169666468462285,-0.03810976730092003,-0.2744079913050105,0.34128765133743494,-0.42239554941521573,-0.05226691323802658,-0.030989127770229507,0.33725373026092087,-0.1020151188195657,-0.16274851855481692,0.06336662560606929,0.16464629842369324,0.2778678080737318,-0.0525636877888109,0.10700556810874622,-0.05114101720169352,-0.08488555752693629,0.12070492080010552,-0.052787128395366936,-0.20950054786451877,0.06935427746570438,-0.05121785101494177,-0.1821652205605778,-0.1731470219401259
-0.12281792705097355,0.1894193822442658,0.06065985240729727,-0.15233927127559782,0.10779811977572218,-0.19818742456888475,-0.129687951457867,-0.18779287229994568,-0.01711861298937933,-0.1020353755120211,-0.25807478041734966,-0.19175560018288024,0.18658547073885962,-0.02537985521706759,-0.17474133337464523,0.05838002810083839,-0.0549800265487343,-0.04100158608648187,0.16765821496192107,-0.026703370889248384,0.14279762260749293,-0.03324134987551378,0.07152380216293373,-0.24570446855888697,-0.06217182510676445,-0.10624124541757862,-0.006559597804565116,-0.10315135268446923,0.048148101920104,0.027804059034341994,0.021995405011176677,-0.17858953405026048
0.2488924087204856,0.26139716073971264,0.09872496662829121,-0.1048157170750752,0.026697921538810867,-0.2624530776621244,0.03576318015145273,-0.01210462045811069,-0.28204782488859387,-0.026749909881409333,0.03693714479855095,-0.07078987173994351,0.23470459450837483,0.09877698396035615,0.2423215019987877,0.21340360705515724,-0.2742051501657824,0.15501296680102714,0.24396523151936308,0.06615942444172913,-0.03610004077175126,0.2127831062942012,-0.0028983962426067187,0.08586433233098206,-0.2373268775193037,-0.15699880307701383,-0.1162345562306327,0.05852731659750301,-0.20883949367193366,-0.25500475997857747,-0.0976577076809592,-0.1066319740261085
0.01702493543058221,-0.11768281565404987,-0.16122395512830545,0.015441523214931162,-0.09497625170200835,-0.3406485917187448,0.09330936829134724,0.02076378159975219,-0.09868630333102332,0.0504173595226088,-0.2121876740029371,0.1514143981042647,0.02163085972884714,0.16027616126789926,-0.11708797834828649,0.15622614543128335,0.19521137475258202,0.12787813776255616,0.10613457592131885,0.18942448394848094,0.17448859890954363,0.11865679230290879,0.20576967600679547,-0.07194799315920228,0.12164131620155087,-0.3056756362087122,-0.39370046404859893,-0.025438543989127115,-0.0031146089742350785,0.10718220921702411,0.26603858321365714,-0.005580435635893992
0.16564084042334698,-0.14639426961777563,-0.02903547667548729,0.0828128223425488,0.2001353674104111,-0.29370664938791474,0.011588721680633523,-0.007561212660116316,0.17785906092292322,0.24981184439544335,0.10745671714727717,-0.059264859249976765,-0.22644737215259383,0.0851905363263084,0.08220945999731623,0.03792319432273593,-0.2157043594012479,0.09617054232668777,-0.06462718960246831,0.20286069252046526,-0.07910034121467381,-0.14371697365450561,-0.33702264203020155,-0.09637161364564063,0.22696122421532702,0.09888103052455467,-0.07876622155343023,-0.3308106209446601,-0.08630802331893597,-0.059949895310499844,-0.2116771814653091,-0.14587928184079293
-0.37461731658495523,-0.22451204638273453,0.004181362309994901,0.24078923252900986,-0.10925236583682352,-0.13523427668283725,0.11869506023426322,-0.018658649903468244,0.13882890137106957,-0.16440025652996976,-0.3413505529509878,0.3306068610900296,-0.17686930885673352,-0.005756384798817177,-0.0007723604840401202,-0.05540833904178135,0.32125235058014456,0.08595499226193186,-0.07696378477159838,0.016390702533950596,-0.4484717218720722,-0.14714414435755496,-0.27338155465817454,0.26001677634571163,-0.17219987818563723,-0.2508538543735782,-0.15943725244278345,0.07430937062354258,0.15684211209101326,0.050384068814145956,-0.17200274028186224,0.09124518660104806
0.1294033924618435,0.23442857284638657,-0.08405971666384959,0.048383860402210745,-0.04860766211016414,-0.07517185712748617,0.11020027255270182,-0.08228567064183552,-0.1933795616500825,0.46165540298995716,0.17037848458417817,0.09402714269790052,0.09807768833528346,-0.10460611122922997,0.11139418830039773,-0.11006135393827651,-0.15989906225230616,0.04052944765178268,-0.1640678134461566,-0.05434579113077658,-0.03066292517656746,0.18644845824250889,-0.28355747534092235,-0.16499220269216786,0.026335585297359004,0.09759284220676531,0.03801284426836779,-0.3311088071289707,0.10377583615067862,0.040522569817423436,-0.13119357603596557,-0.018319138121556035
0.011541948073605379,0.25967446256655524,0.012379038326506296,0.033411481542177816,0.012837924983481597,0.04417970683754697,-0.038383409185908136,-0.004217244724101834,-0.07836302710108047,0.02824353010793321,-0.0975097760415605,-0.2933737924139753,0.07437789829565221,-0.30209231314232843,-0.07053417840018428,0.13675103150813986,0.0477212881081736,0.15022229184988894,0.04400037343679785,0.12762653245418948,-0.07212451724966619,0.2718969961943412,-0.12125590529439252,-0.31686500340495727,0.17925694594118344,-0.11058805101046665,-0.16881260420500185,-0.20614540505013637,0.0064584418750021945,-0.1853342210316576,0.08021516113508763,0.04110871172980245
-0.26067345200615033,-0.18887333121662195,-0.13384973742684814,-0.18616446449243565,0.07218894001759918,0.057490039564017194,0.06631195071838691,-0.05907060140791748,-0.018991325294448747,-0.19238026361497906,-0.19557202193446346,-0.11459555115502762,0.2058746807468638,0.002218062097672967,-0.04459462600892136,-0.30584972339194866,-0.20161834796128467,-0.025511094379296637,0.0011453602633131456,0.21112830120775247,0.4274583454786028,-0.1116612251176705,0.09978328452435689,-0.25101890898948737,0.010231880135590319,-0.19372584379355923,-0.14325923380270555,-0.041390618171006914,-0.17772907693996992,-0.15005000799327,0.10279696348240756,0.3134420038741698
-0.03256692767239168,0.08685659187682082,-0.13604082216017646,-0.0979466708566296,0.1014304407188045,0.1796907437378419,-0.1657345283823445,0.29724067265958115,0.06836899428401273,0.013532581758814399,0.17385763752992386,0.04523245804221103,0.0719961658034117,-0.16157216644250783,0.1293261069115667,0.12027306120899511,0.09434790423817202,-0.020941057300157394,-0.15824954517575515,-0.31796423621570175,-0.08049024571335497,0.11450958579820718,0.20102010659935107,-0.14598807843125733,0.009120360319915593,-0.13366295019000796,-0.11260227916639469,-0.09584904855182083,-0.09513403997613556,-0.11916996313975181,0.00800124894057508,0.17344372879793138
-0.22438871876751165,0.2251008287875194,-0.001999696806041595,0.0015354920965679481,0.14258717619411543,0.07520653673655915,-0.01139360124258613,-0.36045195995459817,-0.0666698510703153,-0.13012660402324683,0.01275661572856223,0.1762619633074522,0.25664561668095953,0.397504078991727,0.12326869695123546,0.23498347948389886,-0.07286712066852538,0.07070539478384985,0.13148519707659093,0.3461543330336043,0.2265300688454197,-0.24576836640654928,0.020579791340292742,-0.18055311730529341,0.32009098130676467,0.11987455264043856,-0.10527347148115757,-0.11131655854190432,0.21148156887125774,0.28073196490555524,0.16807498481023597,0.07260878886069982
-0.031627341019926425,0.37214336657812924,0.04656880120403552,0.18985373598172237,0.20973926299686008,-0.0004857678221328872,0.1883784888764451,-0.05702602069198825,-0.15923981518127664,0.013694187997363676,-0.15618863204865702,0.41802970555923774,0.2661505309951176,0.2638850224757399,0.46079377461561927,0.2706676568251088,0.20529773480839122,0.46487156985899114,-0.20400282660072272,0.08504648489777868,0.10921427828112298,0.22549290581575573,-0.26151286240230587,-0.13505070566435745,0.049608480452873,-0.12845241944964136,0.004761331370981838,-0.3746037372173488,-0.10326496686464147,0.14289872620287583,0.1406669240826752,-0.15811618013818018
-0.1684820735710963,0.04342152879746044,0.06684802571946838,-0.02076643486688253,-0.2177290584407266,0.06578597333807885,0.07705270763080743,-0.13134158017031106,-0.29504437963621144,-0.06555775868874911,0.105712341716793,0.01890001919145145,0.12267224832359815,0.27123927404063275,0.09527129918591665,-0.10110030440824495,-0.057302041999979444,-0.0016496676956737337,0.10203743590594079,-0.05733563232286486,-0.2239755929235677,0.26659591037276875,-0.20611504463323926,0.01283888039985586,-0.050657334764635804,-0.18825281124490512,-0.062337057915807535,0.12087108509759294,0.17361657472139305,-0.022858096863371525,0.2798032699205159,0.10497522894231985
0.007991513803179147,0.3231856315084094,-0.3399320141573158,0.009881255890995486,0.011536147608364288,0.3904609301379675,0.3993117696857591,-0.0019431393912939564,-0.18611805019546054,0.11164800369527603,-0.10388795045111937,0.3495203332624519,-0.16855571071223935,0.22394015110325635,0.22598422835002915,0.27884721598951323,0.18865900099616587,-0.09307658395090475,0.055744697038487695,0.11529218313770766,0.1315077591560263,0.18974617759595352,0.34779069675036844,0.17371733158850086,0.11089694411815788,-0.09519496954548022,0.20427178117972938,-0.14362988887230488,0.10060545406290207,-0.164204240747202,0.0956301247052107,-0.11722202733773665
-0.0976106049141009,0.10055704893889117,-0.020039521338489318,0.10228072676354574,-0.3407170433226243,-0.11434254346763609,0.10622374201346503,0.032743369071600886,-0.21458832200272965,-0.03132314625183707,0.09529687802211526,-0.30707096318264493,-0.4114063719624463,-0.10171336878379367,0.06954488301109124,0.26973698771704363,0.006027789396059595,-0.25011208619449493,-0.04055631430866375,-0.3819478260592197,0.07765501825959409,-0.06660165075743883,0.05266710104396534,0.13348762372088882,-0.026582315663721923,-0.3333019829128276,0.08472046723610978,-0.1778553418351635,-0.3186889654977443,-0.02099698931176275,-0.3134641811483423,-0.2493723433698646
0.062191756789709896,0.26864750668528187,0.010012600518486596,-0.27244946036093765,-0.11890984805735674,-0.3247971257879571,-0.003491185789584103,-0.20919768587798154,-0.04009838790552419,-0.170822391522531,-0.1956174521213127,0.16581833119751396,-0.3773129325436078,0.13553601120544564,-0.04724498449727514,-0.3307661354158027,-0.08636923017337698,0.0649296141573648,0.10630008862699727,0.13042919807485506,-0.32821364315971924,-0.14054634685281375,-0.21368932466901125,0.22018496469285123,-0.15112780255220437,0.18926843018140138,-0.229292424802778,-0.21048430082860906,0.19697588710807384,0.07504627756687185,0.19836328852235424,0.13027540998147372
-0.2370277796144373,0.06664857572831236,0.012783873464480757,-0.1287759669233747,-0.19796672538020196,-0.4530552872626413,-0.04991910795904523,-0.08413726901300234,0.15373662112583206,0.016084254342528047,0.04993893745582618,0.0704115959763796,0.41987900750406815,0.10220081971515282,0.057912854635055605,0.24791747537721573,0.16274748893690996,-0.3048347903054415,-0.12499622039138145,-0.11782252260537776,0.18227289390125034,0.027926544723647372,0.019576702126435842,0.18817078085043476,-0.0022921660279068036,-0.21762236252458994,0.03193439311629538,0.021407296513708658,0.20728569480026218,-0.0697205133281518,-0.13501565621635428,-0.1437290836794027
0.05764482690694905,-0.07411743792800825,0.4090064259520657,-0.3839744007254018,-0.21539872717335332,-0.19832914952750458,-0.03852464929240377,0.047995370187465886,-0.18683723134154953,0.15358709040971172,0.18351609942747676,-0.22167137627886538,0.07806837823892608,0.09905594090730362,0.11274951858596809,0.15654989040963344,-0.17316763779726463,-0.01857747957934921,0.0571913238986782,0.1366717648232156,0.11206371312595492,-0.16613594823310301,-0.13523765949541317,-0.12982313020999267,0.06953453587680472,0.23989238441834615,0.10385360059018993,0.18606698821543213,0.18546238720188696,0.4502010849382063,0.12253381585893973,0.042107356302380404
-0.2651078033503623,0.029549016222773047,0.21747591597557223,0.0744921491891403,-0.15343539261219394,-0.12484078012926256,0.001975275468639978,-0.37409530610447295,-0.011604429912018013,0.026283233751627312,0.17685027988624963,0.24586728202003352,0.23082565869325242,0.17143009169988258,-0.1416405897417017,-0.31280514304041884,0.2073380680089431,-0.25152482808345167,0.1871761262994324,-0.05919346435641554,-0.13601418702917287,0.0715427519222985,-0.12141601539634651,-0.011781369466200942,0.2893303868149939,-0.1784208344865423,0.3105913515312419,0.29329780834944297,-0.3689609770560541,0.013246524504394923,-0.14330661369982203,-0.19726813663854792
0.03003277385543179,0.1530156063885239,0.01996844938153977,0.023555832513636833,-0.20215321068991457,0.1005816048849073,0.30204961647577294,-0.36402865605855195,-0.44702438918066006,-0.1598871247447897,0.33166687808661405,0.02676416961005665,0.4149980345039103,-0.14165294508630144,-0.22343059624765257,0.09280024317912458,0.2100123400097847,-0.2808464823768808,0.0959104546388842,0.041312386048724205,-0.10778306230726024,0.09047965650711681,0.005799133818164503,-0.020759774264171457,-0.29299095410582915,0.18656326689151428,0.10368402804301025,0.12446808925035571,0.05859935760303354,0.259648175084577,0.35893228875860794,0.06785942004311706
-0.22501506779209252,0.1722609451331755,-0.0736838347380018,0.1671639185537324,-0.2443811724805291,-0.25469071435790513,0.08343094931915179,-0.4077105213480984,-0.21323565029127323,-0.316993886548502,0.05007838745650112,0.23627588329015312,0.035495603239989876,0.08896619676366214,-0.05657787019561028,0.00841787669927713,-0.09064166025564901,0.003406978336414859,-0.1682311273619007,0.0404215240301509,-0.02601671297478037,0.13867119710872355,0.006357719149444454,-0.09070679145406639,0.23639386587513808,-0.23317782099438833,-0.154238320905926,-0.2120613210516242,0.0506447514532084,0.060912606754226994,0.037970873717943075,-0.3093135299318163
0.06640919113649932,-0.13391778568144358,-0.17973466417742998,0.12043113073574839,-0.031223163462218633,-0.3511121890225565,-0.013186601569757971,-0.14237172358900071,0.3773764811838842,0.49629235814719286,0.23049360043906622,0.12289668443473849,0.1627100130303366,-0.16291221961286512,0.08211202339284376,-0.08373853998700648,0.19591573439259968,0.14775287446602908,0.5421525526135259,0.027370291701219702,0.09193219806262766,-0.015023483285432876,-0.11752901106849067,-0.23920804588873334,0.025571160484703297,0.00399520510329051,-0.05638098611055731,-0.06173480393107559,0.10846247595781003,-0.04186442990285258,-0.008135075393800756,0.04735850868124489
-0.5261651841150151,-0.129616968280006,-0.11483350569413486,-0.3219155871765487,0.2779374464772098,0.012563958735773552,0.0917632080537789,-0.04591361311450935,0.17875931744373544,0.22265024996914015,0.02374092859675376,-0.1271826827697365,0.4230053744038059,-0.08358168641376337,0.2478516826432962,0.06508275742028433,0.06984533417727092,-0.19157351509834056,0.13126391798315182,-0.02265038541310655,0.20421201549582133,-0.21065023065108318,-0.0889275598963514,0.26027359131724437,0.010055453424485012,0.10227852651618008,0.4655864537619453,-0.2938398960342309,0.08982016131263557,-0.4172358073708191,-0.03300541272369317,-0.06701490289814382
-0.05439420245681869,-0.007630721679584082,0.17653317264350912,-0.061671461074484304,0.18736193148434085,0.11210800056028002,-0.23458143566805267,-0.16381226989244405,0.1448439790794284,-0.059712868522176984,0.053690204891400264,-0.09032769541325136,-0.20321387072345648,0.26510902526193997,-0.15330906340784153,0.14944965149584727,-0.07998776755387026,0.24632473185793868,0.08249911130674907,0.04561684623155893,0.27106052540266046,-0.23141613509141098,-0.1561947859519425,0.009006991297399344,0.19361033062635258,-0.14932082529175938,0.004781652030635934,0.027403046401351706,-0.13665833480769882,0.07754482907952134,0.3147737763997162,0.03247955470842492
0.32188812649071574,0.12355085446466199,0.00415648747787529,0.15822299781913635,-0.14595537107619713,-0.2485574882918377,-0.13088523174925887,0.025197835077876776,-0.023721658773782232,0.10268782632277092,-0.2447172625788074,-0.03540079174023385,0.10527414215786159,-0.044588899338961985,0.06153093533287925,-0.018468620076528972,-0.4601231644460724,-0.24867085268861558,-0.08987142136250374,-0.08855746920738398,0.35334142531346446,0.017268525147949552,-0.0033071367151824987,0.0749597474228369,-0.07160989290139191,0.041249349741724096,-0.08956218575423369,0.019463209314196882,0.2010327643617362,0.07835393291159871,-0.0005948267979736812,0.19678933391886763
0.11962873016410443,-0.04710896461035292,0.23180370120507074,-0.16284214240401748,-0.016837815043538158,0.07592984183042678,0.08355684367813966,-0.2571691249666831,0.15593879427765753,-0.196853103222084,-0.03116853537721953,0.05464677950993697,-0.22131728570260542,-0.3076343694214647,0.332149982058551,0.3070470424366357,0.2876014780166774,-0.1755352704489593,-0.3757748117541212,0.06453747246098392,-0.003408560322003064,-0.020833633822051043,0.08219066137969351,-0.10937915451154781,0.013921675222942392,0.40045705530947046,0.3318323053066994,0.46386629026964743,0.2247982831273327,-0.04111514317479205,-0.11887102374396269,0.06877362903641533
0.03315862100715504,0.018394526948191194,-0.20336280476517457,0.3407908409939674,0.10846560900973913,0.06649585760129004,0.15302952451700408,0.20216635740857636,-0.026022611537969025,0.10336246738874241,0.20594544971699105,0.04547474816795288,-0.06520074007517654,0.12121738888480532,0.014239544064509444,0.2046700938571948,0.22860520833648817,0.15929627061400356,-0.2645884756720602,0.036482307975391766,-0.06243429239913375,0.183954833801458,0.18165021093127875,-0.20261973421025342,0.009593458776227269,-0.08760056742402664,-0.4325407853509774,-0.09107079388116697,-0.47178330104894983,-0.11149964624953368,-0.22169237466651304,-0.022944701895020347
0.14028448071559776,0.0910355501730844,-0.011711626025503206,0.2510070259197573,-0.0020003952884139085,0.3729019646465425,-0.30785021843245514,0.006710664656070395,-0.0005461408963489146,0.10611920196894091,0.24613546311012022,0.06964161184748617,0.014289659723387105,-0.13342883096025804,0.018780075245884088,0.029171807298906973,0.05891543313457363,0.07069698542367998,-0.06607109172357672,0.1787560765012196,-0.10439624571506052,-0.3762908418949455,-0.04248634408811593,-0.030588901902828657,-0.05103973473007226,0.13729880211483367,-0.16811731155235826,0.23823622034682626,0.12044677430686705,0.0993018570854153,0.09509334011156563,0.1951257727147044
0.09101777810635708,-0.10836878704365437,-0.08711715040897934,0.14655372387922594,0.2771007799039361,-0.10498392299007123,-0.07967444607333561,-0.1306196584752321,-0.09814275405485123,-0.07814145569717071,0.10541973602353036,0.12468088262902959,0.034759152761359415,0.3847478618837022,0.2657143326394575,0.017398005444801773,-0.19765914548026636,-0.18554155187312393,0.33468580972846046,0.2804615053307255,0.06205833787547688,-0.12906544657328733,0.06724978358506069,0.09338599625315977,0.06109308642677092,0.028471467158399977,0.06858633206130653,0.2588606595131292,-0.027621326653906764,-0.08268813215218407,0.014879767853303215,-0.1461550403481667
0.1930741967964822,0.04756157871262587,-0.23929703808373376,0.11452139709010213,0.03398302338147664,-0.09983518062488,0.01822136642660779,0.14484985530708078,-0.08124507921349336,-0.057239020832518576,0.09346492807358404,-0.09198775160341867,-0.2503601799497374,-0.24133353510615532,-0.12872831346910862,-0.45482773716800656,-0.3084502585183681,-0.10610271039608714,-0.1172176654862061,-0.2497293431469827,0.13633969036234103,-0.0332047914251874,-0.06293348957502945,-0.2697003976623186,-0.14769299475445447,0.22465980427897203,-0.2431942359146103,0.05452099842281366,0.1693356069425472,-0.13523064110502633,0.1769057433005215,-0.06409722733635204
-0.011839920159195142,-0.06380282810538854,0.021401480902189973,0.039476851062891706,-0.08068122109363446,0.1386106957042377,0.1259027255631336,0.11470780872800938,0.0056711143908292115,0.03855085093936486,-6.426746104417084e-05,0.32059569317321385,0.05216829125618432,0.11242676033312583,-0.06582639676324738,-0.021060111983633955,-0.012467462234226958,-0.18864214367725723,0.057714188036530355,0.17370578480017326,0.2521393254882471,-0.24654218191865976,0.0331934951941991,-0.20485398719790293,-0.017899498251716345,0.02493925589255085,0.11087985880483982,0.0794764299268745,-0.07304627301636457,0.2308451895731594,0.0441041260940619,0.023773949054943632
-0.28533559121398255,0.4007584935252714,-0.11232686179558073,-0.1833827579676133,-0.12673612279889718,-0.04730209078095064,-0.13764889737903113,-0.30355556918968235,0.09253786013685655,0.008222120851248125,0.21067427348029946,-0.1119038323101848,-0.08672668414080804,-0.0381430222757472,-0.2724618666838287,0.17878472917798055,-0.10413522274925605,-0.11643571905749009,-0.27637005779052803,0.21360908742802506,-0.06382934426879136,-0.12290367347080916,-0.06620915374890317,-0.14709037941209877,-0.21348262856505337,-0.005383878411610736,0.035520082628128974,-0.1287334009548031,0.2920300216740984,-0.14709142470740996,-0.2261928987000495,-0.12667166468751154
0.15308901524898033,-0.26149565320538154,0.29144778843531993,0.06963563416221231,0.20155193281932057,0.056192583608939355,0.21646781025241352,-0.31396091018891115,-0.07392202820994935,-0.06461321130024623,0.04329426891174157,0.01767072902076932,-0.1061467299224151,-0.002452876156655458,-0.10868182940877695,0.1432754013333857,0.3216122929380012,-0.0661752075884407,-0.23728899633552605,-0.15620947334801394,-0.24987034190414123,0.12218348366626615,0.08129492628174112,-0.2114412407562104,0.016308101981525044,-0.20492801436436583,0.07774618891232704,0.14444648506546792,-0.09863215983481376,0.21791364221607643,0.26636018648225773,0.2652764596406465
-0.12963753848809142,-0.08771376142043101,-0.286846772618759,-0.15379729621607896,0.024286136774080976,-0.0696460110317138,0.17810662570919583,0.2524900447694537,-0.05858981246669086,0.09288806568158912,-0.20065290787689208,-0.2343048013832743,0.23038202121157092,-0.25328111505075196,-0.0027317563170613153,-0.07147262250971906,-0.03747512037439253,0.10596513964825059,0.0555891216558945,-0.044690486092015404,0.005547296317491653,-0.1029074913771939,-0.07269819908246543,0.3566509433053842,-0.11139147031708972,-0.05657183236733946,-0.2721874094929352,0.2304149218142106,-0.2863910204599691,0.14876754419316848,-0.08355637104509633,0.15659288876214036

hidden2_to_output:
1.0062159749673971
-0.1242038793864006
0.22128324950549197
0.22681788400293687
0.31277854824640833
0.3323426726701985
-0.15521970536019788
-0.09049377117092094
0.3913861417866761
0.20974637274629235
-0.1747256986905989
-0.5337397438831742
0.4748711779969382
0.13752364260993533
0.12120962819134466
-0.013647514405957873
0.32111849589474906
-0.4004371464134624
0.03101735149109656
0.25068297757728925
-0.3811157332850022
-0.08666944560813715
-0.4649363849278636
0.008127951064999675
0.5221859435300864
-0.11276635343876618
0.39689181895017817
0.08727516426610392
-0.09011323303969747
0.1133643437617775
0.18516071458831274
-0.01559130215206131
-0.3684362797091908

