input_to_hidden1:
1.0023262564549504,1.0016673522548536,1.0018425547427803,0.9990794060946347,1.0014039266009902,1.0026497128013863,1.0027389069888593,1.000220247927548,0.9990314973817608,1.001105894774561,1.000098328016143,0.9987314023290187,1.0039675849151237,0.9990254426842119,1.0013252917385138,0.9992623397007956,1.0012023917146629,1.0004275561000242,0.9985238228202309,0.9984530458502238,1.0020066921570998,0.997975147348924,1.0012979901795254,0.9995574952116538,0.9984006292854339,0.99906034217817,0.9994871248633488,0.9967817450376909,0.998602097300374,1.0008762514492082,1.0007361476628078,1.0033753778372847,0.9983043039287618,1.002058326065035,1.0006243938363133,1.0025836950874352,0.9999802564672066,1.0031107101279553,1.0012118504079908,1.0020609568558443,1.0001453751386165,1.0006820853088925,1.0022675884491536,0.9992487647413597,0.9986144134305164,1.0007856446400056,1.0018079113145717,0.9998617973978874,1.0023220667769632,1.0007456638221404,0.9993550581179799,1.0009324226222673,1.0006237085517389,1.0013884853841046,1.0010845316388641,0.9995475373050624,0.9997229215359349,1.0003133041345076,0.999890241228524,0.9969940053626449,0.9959468847065989,0.9966640436429699,0.9985122437415074,0.9974194514112863
-0.6376117109299364,-0.2783125464440371,0.1530842938407796,0.17837393462597903,-0.5094794876163629,-0.15124011905600374,-0.2904868796312163,0.18495371025260676,-0.5660408286169396,-0.10260607140224627,-0.32391473749227084,-0.23015699235417703,-0.2608355999127111,0.020243776862184898,-0.2720973237145158,0.34027772791717703,-0.4260846266651967,0.46317255794429707,-0.475680477860545,-0.4525746431524861,0.14122237079373623,-0.16062624126004943,-0.3990223764948865,-0.09648644510663991,-0.4206550310987316,0.5983803612113987,-0.4782949288031155,-0.19867672948890536,0.30910302434803794,-0.4344905351274725,-0.1054704004258833,0.3584712789359211,0.11042766712559,-0.41271829559795004,-0.11734515942247917,-0.10470428811185561,-0.010246533189139675,-0.16106609260775157,-0.20031273406984193,0.04689708757633276,-0.28386276677303013,-0.145234346073417,0.5205089568144332,0.23943076825647144,0.048280087706714075,-0.7655883788760238,-0.39464298501995554,0.24440100003786377,-0.34342581180597626,0.06384879967417945,0.05709019614061894,-0.29008179608657325,-0.2026665716194106,0.35993944667054123,0.3650625572438268,0.36163808579269263,0.44739448945281013,-0.5004741282301033,0.5177170891869665,-0.2870358760100021,0.061450526035599806,0.12382262497984123,-0.354328284378055,0.13758874101646607
-0.05049102039224459,-0.10030107140098707,0.46586588870620366,0.4126696591458036,0.18158590179593118,-0.14322792657212205,-0.8754775585664079,0.08512233269257101,0.3126978217413024,0.4488460335380614,0.11390722633403012,0.1246747289151059,-0.20008934761710925,-0.3515652162924972,0.368922184765054,0.41139705059224113,0.002576517190900944,0.4413197028083099,0.44108995185659944,-0.1883022290544973,-0.05751810075333215,-0.28863349673266436,-0.20997958519231472,0.03691302526661538,0.15843505486916645,0.1022507873636229,-0.11414248107663688,-0.8115694556410905,0.574497517538446,0.8400961041344005,-0.6768069403418727,0.39048144541399027,0.2767920749437849,-0.4413509381302278,0.22942254799966036,-0.2793413358690511,0.269337374581896,-0.3411817638407673,0.019315310888523635,-0.29339435257182644,-0.613996649252052,-0.07989907765084948,0.3934302506593514,0.5954345351894965,0.45517887039735333,0.049633778921688895,-0.5709839750297169,0.19346073857634816,0.3317055366639279,-0.05129533522739654,0.5925389160008216,-0.3619978655346138,0.36957407001071474,-0.30212526754024777,-0.4498723925706016,-0.47398673181857315,0.14088665829163616,-0.44739457161880986,-0.30205002727039604,-0.22968237796523752,0.2528258620970798,-0.8602240557006177,-0.01775605849811401,-0.34885915235352
0.06359525235643508,0.31876680400825663,-0.3127772406820054,0.39702443953871674,-0.3073820515079408,0.4664025969260115,0.1391113222903605,0.5859986270087411,-0.34535001223237605,0.46219262268149774,-0.08826688765876775,-0.08731062276036873,0.14803949730655314,-0.2925930321511282,0.7632935646425172,-0.34128755208709727,0.2964041548641305,-0.048334083506383574,0.03640097683365635,-0.998998982131062,0.15226542802776388,0.8438382021697413,-0.20934891977849904,-0.29311759543405524,0.4791526755363789,-0.16058874697492356,-0.23757072275929447,-0.32577908635263264,-0.4788330178720755,-0.4264406731067535,0.7099974892005271,-0.25422832087563546,-0.6550130382944309,-0.11960113271360744,-0.11521851979094187,0.18342700023079186,0.3460406810386236,-0.029449485530113884,0.8126378772863365,0.4893698036129512,0.5004998558335221,0.029085206701918356,-0.15316092594601904,0.4408218634160278,-0.17154615310231508,-0.01769721544584595,0.4704880211345366,-0.6415102072164058,-0.11420284912764264,0.4395941944963252,0.29403810946598097,0.5049382258516539,-0.17387370345218428,0.5300077468039678,-0.4559617196795425,0.6056422101510596,0.32905124486225223,0.1438990264617734,-0.0708317913588336,0.11609778052347859,-0.25049037461769513,-0.10177734234667728,-0.28445471866955946,-0.2630719522433771
-0.209146850295757,-0.20764389063716562,0.008017543427015144,0.25428886180038346,0.0680883951894172,-0.6414635189487703,-0.0633836064211366,-0.01554077697377097,0.6986056517188151,0.10286506241003032,0.40440715511965764,0.314450724882505,0.4319010282672392,0.7569701166450176,0.32334988780544477,0.5195353438985937,0.4340686726592936,-0.26704600902021836,0.013154032280204042,-0.25541683536740756,0.9892905534484839,-0.28586577798432455,0.2649680402796733,0.3625277620472254,-0.4430115934847225,0.4352377481421475,0.4226808104898717,-0.18381552340527865,0.09826687336966534,0.16951569371456374,-0.723189445160705,0.5299536886854341,0.21454870537105547,0.02453965176397112,0.1557241221130325,0.2670877893242866,-0.5866624971146633,0.5857555643152582,-0.167076244635161,-0.8736641859810612,0.02996546167330282,0.2084221881533784,-0.05978488436557392,-0.8187699809318062,-0.09641462797675364,0.31904710037625916,0.7988172555990588,-0.8718740316552817,-0.06707598002379621,-0.20578244755541136,-0.16344356511768143,1.0760199703770603,-0.13124490523604107,-0.6036929866401907,-0.5734312970510111,-0.06848209342320195,-0.21391446980488146,-0.01034223286447318,0.12818421910783862,-0.45361658411696354,0.7927574389903758,0.19043204268505812,0.04262023863256948,-0.27906682388664705
-0.5272570245339533,0.49534701578323564,-0.8470145632054762,-0.4463776850905397,-0.1262589118266417,-0.3694213890315102,-0.24554321169718651,0.20875394730950123,0.2788057376486503,-0.4610930228605418,-0.17386001362053943,-0.14525573345264906,-0.48982248669556366,0.48207536558038594,0.4731454986394315,-0.38289106181356103,-0.0446305980520228,0.22842190922749514,-1.0245253185128658,0.5975514710123851,-0.4976115343618333,-0.9445452344708772,-0.39743564308752827,-0.6247878807062375,-0.034081465118863875,-0.2581949969383944,0.35183520738570073,0.4179351446169358,0.36262513834478627,-0.2825868228677629,0.1708549294579597,0.007508095687725924,-0.21508843290546673,0.1912092771199298,0.7993838306726375,0.5196349855937754,0.16242514518463777,-0.057871616278075536,0.26101799617002575,0.5728967285186859,-0.22853759944342128,0.33283178377690537,0.16552422799306987,-0.9476246423250754,0.735898054614913,-0.5782423697797621,-0.2970224978190173,-0.24783272459567873,-0.7656196909834491,0.16788401269019984,0.2467759109298786,-0.07637162484819852,-0.0511637074502174,0.9382212541310613,-0.11023606028027713,-0.008968166844753312,0.4170158058593358,-0.4254821054255476,-0.888851389807767,0.5715932669618046,0.18017378478913612,0.44434508035952186,-0.04451557116423086,0.3094049744253667
0.34231376210678605,0.4000484973548714,0.386934618227966,0.5034665614326127,-0.46310620451856865,0.5668629532646895,-0.4651695573516878,0.28523288377331535,-0.5168567170503582,-0.7117485565616047,-0.5541798994211065,0.3497645030094866,0.15407204135139843,1.0010450847489643,0.6618677856794377,-0.2224746889015672,0.25093015427854787,0.9210036236369681,0.3408207248782127,0.24151513865030586,-0.10544281917893802,-0.41859965708567615,0.4776592779729331,-0.09581395407778966,-0.08734566524213719,0.36582072019783496,0.025230525995964377,-0.11990092517216808,-0.811762257745626,-0.1520784101441808,0.14743699553840106,-0.3570624938376742,0.24589021270934677,0.5907791755171694,0.18950735805432029,0.20255433579341608,0.11502508423203692,0.3058463246243062,0.22484131870464144,0.035153224651383715,-0.43987196666963596,0.6699110200261962,-0.22732368835703448,0.05507952318512821,0.19564410464654405,-0.3585781145684744,0.08207571489287518,-0.8216353949136856,-0.031012570749591736,0.12302217174880549,0.7307798347845497,0.5261256870300408,-0.1918827941453976,-0.15948361717662185,-0.21299244892500854,-0.22799800798451836,-0.24982882824761507,-0.3320867800914559,-0.3831882659545068,0.6095407311420986,0.3972306852698373,-0.44295016226958156,-0.226546383353055,0.14008081393338645
-0.30212694147688984,0.5009323160819977,0.05529260583053075,0.5274753386951947,0.4232004420821057,-0.006781225742944165,0.6490749788384683,-0.25007118673336803,-0.31734910588210613,-0.6298208495607499,0.016087076566574064,0.2915875780247508,0.24594336661384417,-0.1776797148459473,0.08566505983339626,0.1632401004085872,-0.2587860858424409,-0.47308966194922825,-0.026565043427265678,1.06035892041482,-0.49172727052277265,0.5524775106753085,-0.8334085187909357,-0.08402104228861847,-0.32212862964344197,-0.39383885571982136,-0.7459847707686306,0.41839156993325294,0.3068566595179629,0.797303634680916,-0.08987389366373767,0.13849136169132342,0.6911996697580886,0.24524774599629567,-0.02206150991983077,-0.29808074093693643,0.04020312708875784,0.21050092547834937,-0.4632520563641288,-0.2029870335914679,-0.24342510665644443,-0.8701796712304506,-0.07022953843319663,0.2071141557593488,0.3082584952983578,-0.5566741171881576,-1.0375654007805148,0.15551416890126027,-0.1543999855975157,0.4119145231981457,-0.33858448200597396,-0.198494706145707,0.1886035757157559,-0.2476988603011099,0.14148022894844356,-0.4409084693184805,-0.12192674964065664,0.35754408638312474,-0.07076231145742586,-0.14035663339127905,0.1511495800843534,-0.1637645866958071,-0.28998884358868804,-0.37201355809063363
-0.3013085785478002,-0.22715697713113248,0.2005296145623685,-0.19060534691300507,0.32695545787395447,0.19661128409287879,0.2779098812411521,-0.3718505464969446,-0.44540003834044195,-0.0592680390430305,-0.10947256471889077,-0.4378116013660548,-0.21665583129390217,-0.5780196353762802,-0.2531189744325918,0.09941431672353436,-0.03745082527343363,0.5918839903461974,-0.029907960287949873,-0.33327406921651,0.04065716895826848,0.6206826885281043,0.4488694737331404,-0.47894522629513264,0.1479067684913811,-0.3990770482051071,-0.4919759187190445,0.03984700546257845,-0.5602035194562575,-0.7556184674456726,0.17039842257410348,0.23384842131305666,-0.31815918254077225,0.08629989490574329,0.23436292699414368,-0.2910077523258953,-0.2564803814795094,-0.14219404941430144,0.27011576346641086,0.31537792848143537,0.5478769813160566,-0.19601256156799202,0.8881211930638627,-0.9793856218581838,-0.502120217244788,-0.4390953247438444,0.40269602969676344,-0.40254463641741905,0.5856995537819448,-0.1980887322764281,-0.36847154483169337,-0.11813570156149225,0.224013544025554,-0.3307678418906117,-0.34451214080149095,-0.43350590488194557,0.36163063054252753,0.1816914576305328,0.6752167971621172,-0.1379481282720055,0.29708676262049427,-0.07592815331220756,-0.22296708227000084,-0.1859886797387868
-0.09963390754467587,0.6536559584876265,-0.2960322197589726,-0.5796227363738017,-0.014807134320272815,0.6266392304964848,-0.5646502535781913,-0.12281938494603863,-0.11313108581239992,-0.5493526554824641,-0.29857161666494747,-0.38968002539879926,0.8562418311567318,-0.12679437836840626,-0.2361729274484675,-0.20696099042976512,-0.36931883512575353,0.05961850253341402,-0.07490925004409307,0.14521896135553733,-0.2206852181530855,0.5566774753647337,-0.35535208416346425,0.6264711102649029,0.10292126980558458,-0.5052710291559979,-0.14305632505635554,0.21980934169446825,-0.06575939037986166,-0.16555895385056174,0.20413018116465292,0.34902296978252934,-0.6285968238305899,0.06228488922143326,0.4053940746994402,-0.605906350670122,-0.014414524914085576,0.5787118010016681,0.05589300463444795,0.15613939168812943,0.041947665586557666,-0.2105529894294954,0.06963801169941974,0.1583902399363815,-0.7027780174617144,-0.21205883060102168,-0.1357037411166758,-0.7872209584109988,-0.42759031217494864,0.1620013044191755,-0.06715763228043446,-0.7462337057750635,0.045892251118922305,0.20208602216369026,0.8730582617220696,-0.6008071058322976,-0.4274134435974339,-0.3151848332008163,-0.02173538792105913,0.3286566452691757,-0.35798113378539165,0.042029938027691685,0.7327744732379632,1.2155246918823102
-0.22147898510579167,-0.09498179115650372,0.3798872325442446,0.3202470129025352,0.4043530064170916,-0.2686655789349546,0.18112862268231383,-0.6445357156675517,-0.2918633590012481,-0.1678012515438166,-0.2676339679627047,-0.2354372443244847,-0.16068689313600892,0.1063947714212469,-0.5281808718523001,0.08134435435401226,0.35881926313716667,-0.5731543973069628,-0.47213363409559295,-0.35958115876966606,0.7451559248769672,0.737446451666918,0.05429619684952565,-0.2999515554237088,0.09142158488096346,-0.6336043072896699,0.31414562773193316,0.3137442844222406,0.19362579774697497,0.2326333398323853,0.12668856604989745,0.04109127655829353,-0.4561583110509337,0.4988287614546329,0.22094284257426045,-0.10533857982747183,-0.17445336772373504,-0.8355871225096408,0.014052374913177498,0.24177235197265737,0.3063864560707611,0.14372353398319082,-0.23859548423357355,-0.3055495321651009,-0.12830085940395186,0.34000832885172105,0.26790415428425063,0.1962287956658015,-0.17836839686657496,-0.42497292221748123,-0.2752923563761405,-0.9461947043949787,-0.2635949389005023,0.27407905238178465,-0.017431460497822276,-0.5159022271100756,0.604291716748817,-0.8053601801080095,0.030620520074696393,0.155045837597028,-0.1296529058039867,0.010030460112047373,0.39896598812914724,0.2950124714274931
-0.16745449778084848,0.7914542197301945,0.15643779784168663,-0.028862149135873923,-0.1861797492647481,0.5409653655955041,-0.059184739059040016,0.44873948174239636,-0.020005333436308927,-0.3115374611803311,-0.324884461714211,0.0914774859445983,0.2135290104654775,-0.21929114927001983,-0.29855470520393557,-0.37109989370331975,0.284367417531206,-0.5523562854943208,0.2606334097656547,-0.11504737275051109,0.09195436826008856,0.42777983424287547,-0.2699586517341704,0.1380250708418639,0.23028179251565198,0.28933525206756927,0.07868781537090662,0.04506136350961161,-0.35634686142743466,0.1302873845910967,-0.38073357488246506,0.2289343356263735,0.8759744248601468,0.06971379128956075,0.33045440314990115,-0.324668765387879,-0.8720405622526459,0.054834208340641954,0.5267252748273669,0.22598389289257026,-0.09581807299457415,0.015013568414852668,0.1095684526784044,-0.027845954928586204,0.03721004325190359,-0.4716117157855832,-0.3001772293364177,-0.09729049831485018,-0.03234527763448232,-0.23122830999346258,-0.20193003309260546,-0.5297947371594536,0.02685601344603357,-0.1787432133955258,0.16043020505187883,0.24030135411314052,0.07060899580402698,-0.4746292790108272,-0.20998903653563902,-0.07897219603190805,0.4933393217383597,0.37299438421915804,-0.18926627021990342,-0.3315218499294967
-0.18500951879697644,0.15822270474692757,-0.14535396575028373,0.5202717886835443,0.23327567208738856,-0.13310082163942025,-0.4605758070887839,0.10557453624360161,-0.38811735688651233,0.035140872147830016,-0.2965924996869462,0.4984017268351294,0.07496053763851213,0.15182272712210018,0.015222424143662667,-0.5286007313860982,-0.20442552591827642,0.09620419535194803,0.21722759316388943,0.06774365218576284,0.022891991198623052,0.0998768390929295,-0.1897280249327843,-0.6808600960787926,0.019675941256565004,-0.14901805042694347,0.05640162172763292,0.22263889508969217,0.46601111638608617,0.031069003136017362,0.4893197806254912,-0.19671025820846477,-0.1705984555019777,-0.32515699318249003,0.45192591629998186,0.0997929119769335,-0.050714608172937756,0.8482683807280703,-0.19052516218539786,-1.0378686806168926,-0.3958672620491464,0.2618055383507601,0.0029657022923983765,-0.08017707090251791,0.4888059573529893,-0.4167662101161643,0.8588111549828733,0.06810872629372985,0.3154011520287133,0.13797285985471844,-0.887644606657002,0.10032238622926123,0.07229217907462818,-1.4001651049371142,0.0741585438742055,-0.07110152126153634,0.17324824211484435,-0.6247546465264854,-0.35879526393284966,0.25407886441700095,0.43240813070601164,-0.10308040996451787,-0.9395008535555115,-0.3170240537632687
0.3851377797228272,-0.05555718738501677,0.07307785036478462,-0.3641141041452862,0.0541878133351627,0.203090882245991,0.7408238611949096,0.08182903688500544,0.5254471775830645,-0.2968769295791376,-0.20763969123267728,-0.3920393265560371,0.36959286106212685,0.0023603358924924028,0.1577438922842556,0.3345084145278784,0.35772732913499894,0.5158371179042188,0.3397667560265465,-0.2551363065481996,-0.3950040192599122,-0.02048269565601794,0.6178213269441397,0.03427188374812933,-0.27358907709558805,-0.5189964457312726,-0.062440364053777044,-0.08179350509693925,0.45102468046671573,-0.11707034555821745,-0.11406234573452381,0.2982013534810046,-0.5800043056601866,0.5390423522729393,0.02262589293419011,-0.1950089993078323,-0.5240482880765498,-0.9935331395221,0.25968362057244265,0.5370210203672323,-0.4381827258262597,-0.4727403632067365,-0.8176585868346207,-0.09578275590349958,0.10537820589138565,-0.03561671288268649,-0.15255137118004847,-0.07954077410804768,0.4119884674042248,-0.6704332247389444,0.029955885125500566,-0.019293218373543926,0.5571364384943797,0.5709730878499311,0.1543205764907288,0.18022236951230747,0.0319510118406341,0.20436290617372152,0.10801922569451125,0.11603603104396198,-0.3066949234536174,0.4115475862366998,0.05268568420877709,0.4121453503793556

hidden1_to_hidden2:
0.9984995126503605,1.0055363663088899,1.0042004476631934,0.999377434966289,1.0003988677088154,1.0001767123347212,1.0018912474126391,0.9984227494793635,1.001507705302413,1.0018436609928159,1.0046373101414503,0.9995445796995932,1.0,1.001891078949372,1.0018507961341936,0.9997177153070483,1.0000898646061724,0.9989729240311107,0.9989368444842966,0.999986140507787,0.9987350919401784,0.9994369678258056,0.999969052222212,1.0,1.0026710652405915,1.0035983436132558,1.0001618892851456,0.9971197993792041,0.9998968421872895,0.9996014766008657,1.0005390989769534,1.0
-0.20008856599442237,0.2801414077047157,0.2820656737158957,0.25000820380572025,-0.014933762002972145,-0.22078545860131443,-0.25943766744811614,-0.026465818832283584,0.11918287743647259,0.0181606374085902,0.14026046179773136,-0.0749249320250956,-0.22356896080530808,0.14958404549151808,0.15597677426454157,-0.09842735408525258,0.036719009996532555,0.10811301418095863,-0.0347654556622424,-0.08176217415918151,0.15822102538120045,-0.17652480787243388,0.22711461055480012,-0.09690419893288606,0.08365576858305257,0.03409073732235896,0.12567669941937318,0.1770968193848138,-0.14682945656080515,0.003713301763447675,-0.14960598774351208,0.2654164684141249
-0.09779379164060469,0.2738827568234238,-0.2554752647615243,0.32169771124757596,-0.009443982465353287,-0.2663112723923155,-0.016803369753085568,-0.12930344706659957,0.014189375914915897,0.1309504672326412,0.051054919182983834,-0.14531218955922118,-0.1351658069814919,0.3807768845866163,0.08324201756673481,-0.04676411655645568,0.3397907182656829,0.14724522272368373,0.2230263566349443,0.17607576768395786,-0.25077583376795154,-0.14828726848026272,0.06629277926083017,-0.11587081429175795,-0.1058513456726173,0.14775524659803743,-0.0735798137185131,0.19478530826305446,-0.0076588740079980904,0.10973313979135342,0.25323986174157115,0.058095912163137406
-0.18522633345007228,0.009944535924353012,0.12447668830090601,0.26786902953457936,-0.12707251112330145,-0.1238677068457552,0.00590219130013662,0.27704685651971245,0.12201092798402875,0.337859840975848,0.08998759536848096,-0.15697218868670157,-0.2300934248513523,-0.25975732774268506,0.3537145321798148,0.3027557611100388,-0.28113422753486067,0.2679478475413931,-0.040764691529662306,-0.07513662649795773,0.21093116832646094,-0.08005835439363118,-0.09147051444546288,-0.003856516891353586,0.08974269801284629,-0.06268792775689214,-0.1946048664875637,-0.31344930126225395,0.23966190676338986,-0.12102267592008778,-0.14060209171424998,-0.3134232523288717
-0.1492152425138367,-0.05544527838337891,-0.11486084029247356,-0.10028389280838614,-0.002942146321633348,-0.20067567006750858,0.2510398225716757,0.016509257225546248,0.05108393278884653,-0.12034177741490613,-0.10622056093016381,-0.21886419316549496,-0.07620269006314026,0.11781839049741182,-0.19831391422140862,0.3275183834671446,0.05698889270874734,-0.050860607902896614,-0.218940504794996,-0.01957884555065985,0.09061943613466457,0.07239913147438551,-0.13257780748407705,0.12079526008210753,0.19229505321830487,0.06684100819534886,-0.02555196079898936,0.26200750123481226,-0.04733808149090121,0.021547051709807957,-0.1428577613706404,0.2662467447909584
0.3350460560547061,0.06868066137416366,0.305942960237921,0.012326266451621503,0.09013219514004497,-0.2336894020920294,0.14138083080468364,-0.0846845770312185,0.15446772902111103,0.15273718128707686,-0.2221799737466044,0.15749227379211375,-0.0672581345089663,0.2412394866658254,0.17578220089403854,0.06760882850901287,-0.010093046181419155,0.17820447654971922,0.16225845890348578,0.10916064704507095,-0.01558576958485988,0.3423137978393452,0.15830013136100715,0.07078545653848407,0.11736823155004306,-0.06004098859346842,0.37207842296657834,-0.06504825310332787,0.3446418634843737,0.01893305262430534,0.048124241483296956,-0.24090255289664353
-0.08106800373643588,-0.011866694307418268,0.08299606398803923,0.20618461607278468,0.14457892134309117,-0.05455119542599274,0.07722087357076442,-0.1251353205439045,0.14087473277900917,0.11572399228920596,-0.008667473401396267,0.11675123993684414,0.13746644109650574,-0.12047214939336273,0.1378883568145978,-0.03632132634146088,0.016443580182218313,-0.10031772850154975,-0.1556495490321439,-0.30418262955569747,-0.33914450011558683,-0.13863257335265516,0.21244845931613796,0.06572095290062255,0.4973973799029431,-0.15152264166377516,-0.03752824711609385,-0.056311054196877236,-0.14092381696019102,0.13084705239623431,0.0944690952936959,0.18086471782435587
0.0960388418223899,-0.050021254861436354,0.2250665204739239,-0.15647782700285767,0.001681436320999647,-0.19722664414994992,-0.06108211646541287,-0.18848270408879103,0.3298177614818108,0.020777967757590648,0.05997359359960883,0.21443103580545322,-0.028934744796381494,-0.09064610579365764,0.3958688185904738,-0.01966475912320226,0.12858494543320642,-0.019168465477001323,-0.045475232047869484,-0.09913835124066497,0.06648011080939474,0.06014302267972216,-0.2350285233431499,-0.10492991704157313,0.13501592963438466,0.23113443773575296,-0.05842146927045722,-0.18619020086404875,0.12736727906693288,0.043779820635716914,0.2021941204195132,-0.04118592557124186
-0.17596527517806587,0.21481766570760474,-0.1778431074587775,-0.007595907960666617,0.09769428637471349,0.161971387680366,0.18478207576117298,0.18626938239250498,0.08045486409105825,0.48068700858685254,-0.35780128464653327,0.2032916806849018,-0.3391136917911875,-0.005542786677230263,-0.16199835884581087,-0.2507969696079941,0.048634077873196846,0.08716287965305036,0.069342170048785,-0.2953839562959179,-0.08806559102533561,0.08193834451686084,0.13589336123774257,-0.10448396294130394,0.2073615206317117,0.0382569908720092,-0.036096929944422276,0.08044305312783241,-0.01472812997352626,-0.16610375478238112,0.028309918721581603,-0.06855058701068158
-0.05813793574978932,-0.08144184241888403,0.011755236095994707,-0.07491602894470886,-0.048513877706640444,-0.4417377931600366,-0.02475599787562789,0.09215229591634294,0.0052451087511510746,-0.3205536097974955,-0.26940519035246413,-0.06909751313558958,0.18012596036094314,-0.1397338025258072,-0.24647913506063157,-0.22837119142503062,-0.25609753175826533,-0.30242276691027487,0.2426708640944234,-0.08064191972287074,0.06097725226578119,-0.16857492276907138,0.08785228753470743,0.021465804010987962,0.22466231670995512,0.14944415183812632,0.30431609509004226,0.0350028823136826,-0.5990107960485567,-0.21577888299382822,0.1520511933987703,0.19251062883320147
0.052013330552638175,0.20698225259582,0.13893042837252334,0.25815008146150725,-0.10823352738520223,0.13566848631318104,0.11067847514730536,0.019827869380100446,-0.17715627632489392,-0.04461811688201253,0.13576805537862524,0.21519186168534082,-0.01535401873755555,0.010898738455989335,0.14614977156389614,0.1301297785485338,-0.1366229801856211,0.017245272026809057,0.23605371130978314,0.14111228246974727,-0.2075920363241366,-0.05496091946230111,-0.125684724649504,0.028665407227293296,-0.15511687339356708,-0.00019890203023567398,0.39887541124615183,0.05591805832669081,0.03831453500931053,-0.024190985310366824,-0.05076689204969001,-0.23318576167172392
-0.17914904223809577,0.05243499247910515,-0.09608074668834914,-0.4882007817969628,-0.11224560784415388,0.15617332680845986,0.2747055589049211,0.13937301403973618,0.2841911344477078,-0.2449247145898433,0.11872933425903558,0.10518870365161802,0.021450928729750154,-0.26618656531298934,0.0708476088046264,-0.0024229510514514364,-0.4529160142600686,0.2490426168110783,-0.19203823293947037,-0.00892045486296935,-0.004975983160498711,0.3423943567449795,0.22541289537328696,-0.18778224676357125,0.11817416954626149,-0.15719053220043194,0.18759828274133752,0.14644008094704214,-0.053364723884072034,-0.21274529251523058,0.1261228787414018,0.0014062787433560097
0.15618135778279255,0.003201508543948958,0.03188979766222211,0.12491896054663362,-0.07929215837949963,-0.033280149307044024,-0.12799930577106894,0.15631564699096995,-0.46166309453140364,-0.06296697692312674,-0.08706393653003872,-0.40805072099823797,-0.21093404580802866,-0.16396026757810042,-0.07358820895061707,0.29613703574964684,-0.07700000729210613,-0.18488994467730732,-0.23196811519715985,0.2312554841549217,0.026872335208148038,0.251463723168702,0.06841220551899992,-0.1973916138025942,0.11704934993673177,-0.114000487531543,-0.13380583860701567,-0.2582146009051584,0.06246437368435943,-0.026890608287919678,0.0034293531906079908,-0.004840682372510542
-0.0281766424989917,0.03233119349635859,0.11600247532405354,0.020329991488762588,0.2700666783062568,0.10004058663195307,0.015092381812614724,-0.1236691293043843,-0.01595272011410773,0.1949038387697727,0.04132539800984139,0.0726031507570284,-0.24919868064554834,0.1201016996782133,-0.0028873192399959534,-0.196437001717258,0.10679941440495679,-0.1525966878746492,-0.08410958931923945,0.06106562921539372,0.0014449161767046007,-0.34259303924886103,-0.3439181956051329,0.2098399132786238,-0.17739699805577222,0.3005603567692538,0.1210048623099832,-0.3965362207200716,-0.37139410543886753,0.09874122906968606,0.05348109714074124,-0.4341760773224557
-0.012501580364468202,0.0015443867529930607,0.03344913796136833,0.3431854826885749,0.03917206108903973,-0.24631338728758362,-0.09624012111682802,-0.1959694910336691,0.11916936956768912,0.01635875949475553,0.062119256338361156,0.29512302609454927,-0.004268225772568316,-0.1416675833902431,-0.09898711045734711,0.03974673032357874,0.0860362277592472,0.10870316990243394,-0.12513684300824476,-0.16783879179542305,0.3070960734709283,-0.009898710895070353,0.006989028616212593,-0.13687343793238402,-0.17653369832647864,0.1292503975863914,0.12635325880652934,0.2134155029554286,-0.17085532167995526,-0.22884251221001264,-0.05687063220051884,-0.09646671174719149
0.01887941271606488,0.08964079981150999,0.1850691036273867,-0.013345306402751845,-0.04901373089921803,0.0576434420408281,0.013544135906200775,0.1334163729444709,-0.15313083219898294,-0.11482252862858461,0.010991848239782527,0.06261213913717881,-0.3298574382844116,0.2495445916330167,-0.001635060101756053,0.03530642194631233,0.19668344409953675,0.028527216295555317,0.02802613265148905,0.3121788066276767,-0.15127747586361956,-0.17848942369295306,0.04589134737059006,-0.17004286179339012,0.2703262272329914,-0.17515210260127123,0.27143265149309626,0.007538266798282584,-0.08544192451200334,-0.1999013699075438,-0.23019272244146527,0.0970193863606394
-0.041772075695403275,0.14051631052067484,0.14635831639635072,0.27305720159375674,-0.3166581666215163,-0.19099073416136486,0.24394050772237494,-0.25651177927951,0.04790656825958806,-0.16198689485970316,-0.330521361690289,0.1352517143394316,-0.11502415147774193,-0.1866775945742312,0.22485211998180432,-0.06019601250966482,-0.04606968841870978,0.0357190290195792,0.028240741231227356,0.2459994874439178,-0.08418686508192842,0.04000146016703443,-0.20192696627293208,-0.2932292711765578,-0.09570539661104284,-0.042446890372944836,-0.07831712841586938,0.1977408338062463,0.011248194881202534,-0.4369902675808699,-0.22582272792383026,-0.2089158630985068
-0.0825544447440304,-0.11979962464439561,0.25704219771178455,-0.00951595256547467,0.2095026666025722,0.28924139797496634,-0.0983574900075201,0.1826914850963003,0.28527762860902056,0.02302613266336429,0.1984327408965363,-0.07006977372006654,0.08759514048550998,-0.07661153066430004,-0.013458089047772754,0.1173582171619294,-0.047420004043780245,-0.03611821936834203,-0.15037620738682522,-0.21102552163275495,0.29688729359368793,0.09997214464695353,-0.22026314633229468,0.23609607197483123,-0.0038256695723212645,-0.05816112291073844,0.1218109497141607,-0.12164390362193205,0.02290319200628943,-0.29018800173181897,-0.3558238916276823,0.07188702139833747
-0.18187790069790072,0.07582437769830982,-0.07773558559144703,-0.28076244198347616,-0.11730248051781704,0.0411262321966934,0.2518658200069678,-0.13995395688031198,0.2643537629490008,-0.20784079927405827,-0.3659224013478186,0.1392619196026006,-0.41522546343272665,0.2602892889091471,-0.07082422934177506,0.16821513257227394,0.03608850952686694,0.1418873312176164,0.07877136376577623,0.2510088362704168,-0.3645006050770528,0.07747826651409771,-0.1117712649718131,0.03476351149402691,0.07991124843637143,-0.027323855287542692,-0.13837450417288738,-0.11272703292685236,-0.10264119369991356,-0.24662936848158368,0.11623147335411758,-0.051706173323936504
0.001736738542993622,-0.008199581449074846,-0.3053270150240367,0.18772921323121636,0.03076611069237438,-0.1935914926505945,0.02795084777380992,0.07067176879606928,-0.06414216669273247,-0.16183793969688715,0.1377415633147357,0.5607473348746754,0.18424148000247884,0.023224304567891322,-0.006790444968516881,-0.1112712520907168,-0.1462554879357149,0.016542521633915168,-0.37858520758355496,-0.09534208701775246,-0.23941496237486287,0.49448182606970204,0.02316248188456903,0.02149074014999207,0.004925497985863837,-0.06969549920627867,0.028219530354130676,0.0444121110423887,-0.07619330971752415,-0.25896339686492914,-0.16302541764058695,-0.13421672645043328
-0.04401820175628826,-0.3119907051592182,-0.07564157263325845,-0.026632273605296092,-0.4061689474771053,-0.17029198624842842,-0.35815859901356706,0.044297935884802894,-0.03264402004860629,-0.19447009030596293,0.08052028078904806,-0.017397575063767115,0.014541409915981482,0.09065915828508772,0.11665507453030043,-0.02781921814326422,0.35291983076736866,0.17443665692068466,0.051612930969757845,-0.0609978774165491,0.18755850237768862,0.1505063882010855,-0.21373566975403854,-0.46006641918228913,-0.024498426470146134,0.019650780390101628,0.1327550797363976,-0.13149811252836277,0.07019859686754146,0.12156546104708618,0.13179890739581163,-0.2155923126466406
-0.2672806123239692,-0.0544023545579539,0.3712649831815884,0.03348353881169381,-0.1144507338088715,0.20468929252141987,0.11892504238549402,-0.04883467383882298,0.12794992415031423,0.09296041072051171,0.13773658324483803,0.2944246427225594,0.00522214858248931,0.043165375373314364,0.02600436974207294,-0.2654963110426768,0.04548138783097312,0.05557277567891025,-0.33622644258043044,0.13407689176393417,0.08847960493332074,0.09560715271969095,-0.24719400002324907,-0.022302615509482645,-0.09045451164914749,0.0010508976182514358,-0.25138226755381154,0.2459366166941718,-0.3650871869113782,0.3846471979474998,0.11207143353457852,0.0435713628900913
0.32346472307322155,-0.22263196193960452,-0.014530171719514467,0.09194851719472491,0.27037937181321986,0.2714106606783445,0.2586531718101008,-0.20020377235582715,-0.046062757434861865,-0.04591667770894245,-0.15514480611588433,0.010842917437626842,-0.058434089473780315,-0.22739080630072053,0.1609345174914931,-0.001055642519475844,-0.0987756719534875,0.08064711100692727,0.024528953798246184,-0.08001853350236704,0.0546662025031747,0.19905883736237207,0.11195599910274291,-0.06243063965310739,0.11449507739203896,-0.031746165781907684,0.1048148767766099,-0.05184819936320992,-0.23746678454189654,0.1835810340052092,-0.02735049624694644,0.24024432812224855
-0.09303891643280462,0.04839444919587471,0.13418647096496628,0.13127186005545868,-0.0776182770882739,0.026246887928149092,0.010156379619366456,-0.2816558341623964,-0.1491361719876173,0.08877195274957823,0.07035299072143775,-0.10598773497032422,-0.04706801936511681,0.4523334229761662,-0.11652438837457028,-0.20115995447160162,-0.13135024445782675,0.08358585977023486,0.39324651522277326,0.0370502584419062,-0.12791339731900955,0.2983622146852338,-0.1175335840581982,0.04928047386030174,-0.08270870913908873,-0.11190745607542861,-0.05270306943306875,-0.1214525705090895,-0.04481499259287151,-0.13733302412675474,0.20600734366196374,-0.30835514993732394
0.05628257348507298,-0.176128581849297,0.2224368318057868,-0.27392109887929894,-0.1472475610808656,0.08544877344834452,0.13502459973832748,-0.13390916400866223,0.025273089953363477,0.007432449208778744,-0.1103144422859749,-0.12840822223398987,-0.12187033333268793,0.17724169940926418,-0.0966018447089974,-0.1656394510744292,-0.1786117705626912,0.18412426644649288,0.4684744324209742,0.2449578755831836,0.08140110767265371,0.15973565779008128,0.01287736376669538,-0.1793830501811246,0.1332620271932093,-0.17537909820903816,0.14160363954584942,-0.14982268750468464,0.029554408329892312,0.02721755264489391,-0.17741355790633256,-0.05836294112364851
-0.13155789400518247,-0.44728837227512863,0.29672158860996384,-0.00604510692757803,0.3496213172966717,-0.11355265894075635,0.19975086586675786,0.00966702638799016,0.0017238215924850987,-0.05590699070931787,-0.2514635633383629,-0.10999479473028029,-0.24065884339813134,0.2016508409404067,0.14950039799990095,-0.06278079487429199,0.10663899649944289,0.014635152261738041,-0.09257699763999049,-0.042293253949793976,0.13325525789840814,-0.1291554151827489,0.34664841544741204,-0.1756599540620752,-0.086096151058273,0.06451944842636209,0.22673216529210097,0.14225409108894277,0.287590127183491,0.1385925235875157,-0.15925726233656798,0.024847344440409116
0.06912715445793857,-0.20810077576273767,-0.1604521863201211,-0.030554315426235077,-0.022546425724992634,-0.04936797497358419,-0.23934308956744324,0.07747354816858891,0.0036093935622434985,0.07764904789658374,0.2102682526522024,0.08989059769066832,-0.1494104403048942,-0.049715901345853505,0.0547654228640638,-0.14172834150039348,0.20193479485929938,0.032342671733136916,-0.09571454456707605,0.06314462136580594,-0.15730959690351642,0.05831373814444425,0.09458916487117448,0.2884035688064211,0.06381651931444993,-0.1350590874796912,-0.06285933607313227,-0.1262135964678712,-0.12416904994274267,-0.32685012938612673,-0.14166363772683427,-0.25748779668480926
0.003522109096597754,-0.16395934937135348,0.08911940318706163,-0.23821168406678664,-0.331908886027897,0.0012941397983194938,0.02470619539701213,-0.06675907995485184,-0.06024648106690143,0.06612922650994346,-0.20319601928608713,0.15121096475068382,-0.10230374305887702,0.03334415340358485,0.141523800532531,0.1998298848817221,0.2092108167369492,-0.051188464810703306,0.20342008076891252,-0.00470659514042342,-0.07976591932358276,-0.15516972523003705,-0.35208784254876335,-0.039355144587020635,-0.03837605733475578,-0.0976565167830395,-0.032681640151514105,-0.1768112948266404,0.11760915359007026,0.15696023987767435,0.31042975500208314,-0.2379173825080647
-0.13772192443921177,-0.2253717130927389,-0.2439567611171175,-0.0663459011725488,0.1626657908527728,-0.2679775822001221,0.2060706629964421,0.20947387768795675,-0.04508025871404765,-0.21779450301698017,-0.20027470152995014,-0.2353014801979041,-0.11487303716763089,-0.20900773073410792,-0.07800710792688582,0.0005656602807959266,-0.005860806473132808,0.027985961712879728,0.01177306788680735,-0.14177291866089342,0.11851589464019237,-0.27332150048081005,0.015505901842801218,-0.2452106547252782,0.25872188396204543,0.1834739858153777,-0.08875296897681435,0.3127520245926325,-0.10250644105515998,-0.15327609847461904,0.14648127765018598,0.024672678000867327
-0.1398471054952511,-0.06076631616368856,-0.3604907597815791,-0.399510305475534,0.052460652644770824,-0.21451489125040266,-0.22074665176249625,0.0646677729946161,0.02613455623996577,0.21798307394170643,-0.04167621803993171,0.14904151977888508,-0.17992318329213144,-0.019034575284417838,0.06196075731139332,-0.0019197733813877604,0.1324411380609102,0.19510560153608328,0.19483784401476828,0.04964352745269656,-0.008776988048029432,-0.009135641598159522,-0.1402988644117574,-0.1065683566270057,0.151682053043251,0.1851027707729621,-0.06294935889001368,0.1238187839410874,-0.07191710220511745,-0.10675791623379688,-0.1796066397583461,-0.05802865394680121
-0.17406007993779363,-0.21378785963366204,0.38525863816532424,0.01661293931512297,0.06530589930685968,0.0051332924127526795,-0.052935538916542804,-0.0594584666481884,-0.27122368986687234,0.05895927536431784,0.05177796208243673,-0.25907341667200623,-0.2264528899725647,0.25178185373023015,-0.21132769598937803,0.12502920537702006,0.17707187231190288,-0.15565947708249198,0.12324430251549154,-0.06518140777949288,0.07542939366410885,-0.029736054048405198,-0.041668185433259584,-0.054873493221123865,-0.17013851259540885,0.22561531226536788,0.1186105773885174,-0.10629352167332295,0.08110320656989593,0.011586854212487533,-0.10058378233674467,-0.06845877093157436
-0.06179892188028049,0.08500057447493808,0.15867657237215402,-0.140131057372987,0.0009886817151763911,0.3335394901149842,-0.17715600881547294,0.19453090560631775,0.019031179842537393,0.0024549958438780995,0.3912432289864705,0.0035274563693677707,-0.11118751095894482,0.1451846463062624,0.2222116933562546,0.014090355411056821,0.19487709707115128,0.2365113483076411,0.34983583506482535,0.069938748891227,0.13835417214742624,0.39388741168871677,0.08989798502597218,-0.00424939092385605,-0.23189594323675222,0.01317283773814171,0.24366014457187116,0.28221881223221074,0.13354457742258108,0.08872165078986205,-0.1514519660562885,-0.08040693445541193
-0.16076425066165395,0.5410130228381711,-0.22808154413606133,-0.1861729721170126,-0.08898090133812124,0.03768439085338553,-0.05227597709347081,0.336016019667,0.018615481860909805,0.03275113976743529,0.41291036906257755,-0.05505246062181138,0.05146198813084428,-0.4421974206477392,0.5410165848823122,-0.25793109501191197,-0.11590581020123397,-0.06462762069133697,0.11793774025012402,-0.18601497356557734,-0.1494408398038,-0.0017847371026506978,-0.19701669872677258,-0.24358197746375587,-0.1765546810178826,0.10827852517955827,0.16718158470583375,0.17639966581048058,0.10626222605982504,-0.07255301798124125,-0.1891472560183123,-0.05897647683080584
-0.04582795821662686,0.07549931131606157,-0.1440308633298156,-0.2967026290555953,-0.04606680954690553,-0.13684416727467366,-0.1857512510429154,0.16786214141607447,0.12397780722422848,0.18886532795338862,-0.24643609319974027,0.03906469578276872,-0.09330055418238742,-0.06123243104525655,-0.13195694013995488,0.2790802695467232,0.007170577042818776,-0.19880483820608288,0.11271960081544365,-0.31304097919931884,-0.029222598872170318,0.19459898171255008,0.016062255546970203,-0.002660034120415893,0.04130502749852981,-0.2437123077960039,0.24457006163156744,0.015306871014548487,0.1865624378797996,-0.028200476862435916,0.2415153039762334,-0.2201150215039733
0.03766067973648637,0.3482019261826266,-0.05192116140536174,0.02868799100396903,-0.2389156283166956,0.19191112353248707,0.19404540548742377,-0.023089981797262446,0.05722464653658754,0.055919807793151984,-0.156304451583858,-0.12282146608658868,-0.1908699007801823,0.16684877363634,-0.0813825144814502,-0.02836767063031288,-0.29829211128648503,0.049390817133481806,-0.15287094615531407,-0.27827192682053115,0.14362660006305597,-0.16632925958760428,0.05131204107062489,-0.009295433077582682,0.3761268061464782,0.048404040565860625,-0.45639741329805245,0.26282626267050796,0.0726228631904552,0.10207226290798974,0.303897577488226,-0.03248132343044026
-0.009291673625428137,-0.020625334223922046,-0.060170422334361186,0.02902080554676333,-0.12380483715863355,0.09478925956579302,0.1221558108900045,-0.08392156204056574,-0.14445870930309118,-0.3762063176279201,0.04789298896711983,-0.5457304315351112,-0.07837914339305957,0.2460689891708431,-0.3340679343693507,-0.40526292615566945,0.13201976380122635,0.04857917842473368,-0.23084214654328053,0.04969027707358709,0.17522410091179336,0.07102698068703532,0.26849978495156973,0.21928176794361603,0.12500393481534722,0.23598037200032107,-0.020929790418813838,-0.04043238210083548,0.06791554913623352,-0.11174764153281241,-0.03399053956451563,-0.3313030792185102
0.11016597168204256,0.24365778701414667,-0.061545013200064315,-0.06535139972406309,0.014202011306332127,0.09591248267830779,0.3182429412072702,0.11663711838794179,-0.042066902001110344,0.08603319759531504,0.07775296402714484,-0.1783380025685938,-0.24856818202871306,-0.07729932386820776,-0.09807204991627926,0.049808700312332095,0.19696797776400188,-0.09359152616936023,0.020980230519963377,0.16826058203973035,0.10897834769558035,0.14778948011757348,0.03832905493191786,-0.1372713899550886,-0.006101909454131611,0.415573100928595,-0.42724251911662586,-0.047605597319399076,0.008014047432223436,-0.05973570640620541,0.4364024365733713,-0.04563772193437517
0.04126739694510597,0.3261008925514466,-0.24989762127018822,0.060370685189615914,0.13374935106709915,-0.03426133713895412,0.10389814956168501,-0.10228923514964072,-0.0015221353622541327,-0.07978373805273012,-0.2498392898312036,-0.37221279507842814,-0.07047057520087421,-0.03992839704106189,-0.16794997049782479,-0.0670571923726868,0.06603271273496945,-0.05052593142144983,0.16855736295534873,-0.12024285859726333,0.12280222854598595,0.11865825024052527,0.10865530813339408,0.08264874788387849,0.02578675226104034,0.028944710065154273,-0.06729328142449068,-0.14308602852022456,-0.006112150686624524,-0.13462681844773478,0.15004433360370592,-0.017998213952678175
-0.08405594063040428,-0.06822157484502539,-0.016939404902264293,0.07848504241427534,0.3015334296959671,0.23272436215066947,-0.13256967944386114,0.0025390768401804854,0.24187280487645677,0.023725771945479146,0.238924368591821,-0.2811320921007597,-0.2248745302681597,-0.06112683118835805,0.10686621460859806,-0.41221719507532995,0.040124209369194926,0.24680480928818335,-0.10261701734620023,0.4100374160799627,0.12885831166821712,-0.5171731544808985,-0.20376041504864215,-0.08014367180346675,0.17511852770683384,0.36892784148415053,0.17902147924271936,-0.19192657103597285,-0.08754290910269759,0.1312594111517306,0.1314902802998933,0.15210299501080307
0.10453999135222479,-0.17410285375929666,0.05553973426883881,0.3261400971777838,-0.025465204890960883,0.20535706051470828,0.04336378751212462,-0.003839363920971003,0.2850810067427394,-0.04756056539234282,0.3176357998970159,0.21281913217845888,0.20771791177334417,-0.07185484673711567,0.1492602656521694,-0.004059636618998494,-0.2731595751831034,-0.02566304617724406,-0.05191222238779792,0.2184797384786879,-0.2547072190867931,-0.24933837619379773,-0.1461198811981953,-0.15176208628011148,-0.17617758258030242,0.2178527042316948,-0.24418330447349235,0.07557324867579286,-0.016340530452134558,-0.16476456833864156,-0.42373589623563224,0.32465951838029417
0.14791250232460731,-0.03949361660451038,0.04887961238543877,-0.3174017087372358,-0.2494619928898934,0.21650688507419016,0.23936366651208102,0.041965173959455496,0.05610002436793867,0.10386984898486655,0.4534868587569332,0.15330415516256732,0.09056375684607612,0.2159374566669823,-0.019894124024217405,0.4434050279008544,-0.16308525598159776,-0.21033116424584283,-0.24094789011936976,0.10353576781577796,-0.07223886645161742,0.09374915554584098,0.0765537628876804,0.166293967943121,-0.29266610990461445,0.08973210839308865,-0.009692500779704353,0.15533351125372233,0.11679828100746159,-0.21027447224912693,-0.02917239169070892,-0.1974635625002904
-0.19059391262313985,0.0844335653351794,-0.20300528831497755,-0.050283044533467804,-0.15724171165973774,0.1564993448770678,-0.23398361354943273,-0.3419346903685428,0.016000854071961668,-0.07106053820297882,0.09276122928191674,0.24974062983090903,-0.41449974971676284,0.1713109631170913,-0.03835810215184463,0.20733640570066422,0.2899182943815127,0.05780753674512693,-0.09205159345072503,0.017920679974852635,0.1270905455927511,0.05865692973682654,-0.2706229482027259,0.1859611937914846,0.12379279908655942,0.03777056798564222,0.12618670100702897,0.1640092420911889,-0.08890868363666755,-0.040704071108880545,-0.07314110356780347,-0.15411632186553972
-0.04459622462641275,0.13141166796859446,0.12719395736332956,0.39520874153177216,0.06696985031607594,0.16990290457066679,-0.02991127458117992,0.014893761070112319,-0.2167547592980918,0.15358808936722268,0.022644554141812344,-0.1267476534116343,0.03929239528024327,0.014831769862431466,0.1370766512835609,-0.13287884191395122,0.024407840006529655,0.22590801211824318,0.16969566480426754,0.0526327987004919,-0.2223393828497153,-0.015537188789562915,0.09825583179527453,0.004302316336474667,-0.05845038625349586,0.11944576091612923,-0.06431573868262783,0.31787942850976897,0.1423604201335407,0.003020712286830529,0.27982576069917947,-0.013449869044091472
0.20874491705396953,0.2914160651024425,-0.030987179413310265,-0.16537830250235463,0.03682054633525944,0.15991535830217646,0.22451574755000653,-0.07998755724188832,0.21075538171580988,-0.13421913034750108,-0.05309730596856838,-0.22317454362973718,-0.02291333140904424,-0.14323020680647675,0.11664549184806601,-0.13300606245192143,-0.09245497730439906,-0.28936341496662715,0.20735501323242483,0.14169075825759048,-0.1933463880041659,-0.010460519038701316,0.016026546224341492,-0.23100733151999225,-0.10245956944982408,0.3713268394561212,-0.34688020380868856,0.23196189965689493,-0.07872667623660937,0.3253809022701877,0.06846578928171972,-0.16755770148865576
-0.07522367584273863,-0.009723360516916156,-0.031434644718772144,-0.27748873043469763,0.05460875467630039,0.32756361268237305,0.0593678396679468,0.08669470391785833,-0.2405376958594705,-0.03426598424503635,-0.07975082057792872,0.038443350475899155,0.031843388057029846,0.10955922801498445,0.03253260333667547,-0.09193635347879142,-0.21622051812677384,0.16003939912336348,-0.02305753082028601,0.02446287179848407,-0.17358174958528758,-0.021075093434319646,-0.22710983471372073,-0.028793382801394176,-0.06983691106596625,-0.03927079757342995,-0.3277646187763044,0.06532859867683742,-0.2662514709394161,-0.20349351931724843,-0.047043434690648006,0.11082841995564395
0.2193330367102923,0.05071649685869213,-0.13632297200453755,-0.09395411767067936,-0.5455530496519856,-0.2683018772689465,0.05486866487407576,-0.03833188624934496,0.22694529974618788,-0.24655062922411397,-0.18152331988575848,0.035780021945071815,0.10905651987952042,0.0027835506823243026,0.2243015240941553,0.040364476091181954,0.24751662567081642,-0.2846197670168261,0.16560743281735943,0.045821132906535576,-0.1676463992336876,0.025338425581292155,0.1740749376460445,0.07343018088341857,-0.08200740315780787,-0.041629158646070065,-0.2809559056126152,0.06771629519251761,-0.02676762801291394,0.10732033343395785,-0.01527082797968075,-0.035952436061522895
-0.0018294766970541338,0.17973813469748395,0.1357531220207281,0.42703156743195614,0.10397078937626658,-0.18836606599356176,0.013927589389617322,-0.0878729226002611,0.21724115914490957,0.05099934042491903,0.05103127889888285,-0.02486832049158651,-0.16022634717097103,0.16985565937580724,-0.048799429614902634,-0.15474535031960665,-0.13375754275019489,0.03246552763051839,-0.37191496652512757,0.27624845428386036,-0.0578049406233201,-0.09065983979714727,0.0198653321965755,-0.16064608449560724,-0.16751834164182253,-0.1240018114524594,-0.07518430042916774,-0.003979891298337698,0.15874446116869864,-0.02361579913161841,0.15350659782812134,0.0603531544243397
-0.07233567879884739,0.14597164567077717,0.03410746422704571,0.20968851042717182,-0.11049644159609467,-0.05336945765832553,0.10508061086014833,0.17392126561766788,-0.04389277537431501,-0.23914232856433032,0.30779039454028995,-0.10604853862315176,-0.16356698783591245,0.25211965836864225,0.06523490657283293,0.1889463688105125,0.10773529575025326,-0.1468432652017068,0.08242128741409636,0.14763513071471793,0.2381643299601325,0.10354343119884137,-0.003964966617979352,-0.05091314859456289,0.09504750560502076,-0.13240466895295366,0.0642830465471811,-0.11328760636386666,-0.010523695298543098,0.011519888607981709,0.056156276984782705,-0.03904983447374814
0.2255261273750863,-0.03545353079005016,-0.14851520706243365,-0.054012594162893335,-0.06786537433421237,-0.52298295176863,-0.23011220938263244,-0.13897275271397555,0.24454222171566006,-0.09727205833336412,0.2626420131157687,0.18131431490268346,-0.03669747320638636,-0.18093060087390803,-0.02703952668279219,0.06278121506378725,0.1362861678864386,-0.23860672414147682,0.213337912525306,-0.11002552571166581,0.0030178602386656604,0.12234152144117279,-0.11259396234306442,-0.2574234743609625,0.02189909213979693,-0.057095160008402736,0.44535570044260303,-0.1686294564047147,0.05924121155153576,-0.13999148914555928,-0.29578556555511193,0.19061277920163988
-0.1296291092746356,-0.10029754169617361,-0.11193520669818716,0.28411323199844557,0.15528183346508717,-0.3464466400807244,0.1644102523830996,0.03368310028833583,0.4243028856494788,0.11802062926572152,0.33100882473348553,0.05103150768561659,-0.28063869431018484,-0.018227025591212986,0.20689167819405735,-0.09591352967270238,-0.11480415209656931,0.17773449903810878,0.09632145128915735,-0.2500495240945442,0.07599524846320609,-0.16836448136529242,0.06934199236697221,-0.27105644467416073,0.1397550589042087,0.1601538246036612,-0.23901177828102452,-0.0018280929036659042,0.2897057301525112,-0.22872385094506736,-0.021745216264016595,-0.015785322130044115
0.12370878669661522,-0.13753260100933717,0.18457541477710196,0.13632925029151208,0.10959579523333253,-0.08776003997810432,-0.06975620923006114,0.07238634951968301,0.0958484859037541,0.22610170515303596,0.07577384311978667,0.028000138674990863,-0.011566750629776735,0.1619358547882843,0.011996408543362425,0.1675718534593042,0.05043680686361495,0.05705989718769532,-0.1837743900876754,-0.051099584790386614,0.08669926974241965,-0.11504988318036288,0.21639756734127596,0.03391198794259392,0.0054716600679784715,0.15551213587212126,-0.018380228245736596,0.20015664576531564,-0.030916224310633636,-0.2354387232786653,-0.09874239231235,-0.05819982254666032
-0.25160329739368487,-0.031782238965799146,-0.19678838722358785,0.012373702906943751,0.12327344599487988,0.053512807810706955,-0.24837937176878322,0.06135730260851537,0.23348417250999476,-0.1816812311876438,-0.017476221905258056,-0.2157367197051571,0.09925491463009233,0.3390006919230085,0.0380489339554803,0.14026366716938227,-0.5207668527951305,0.027838515014926613,-0.1999969667675921,-0.09169284103387225,0.2985635925433525,-0.13161629694203358,-0.044094468998371696,0.11024747720784638,0.02701980808959453,-0.13613458943057466,-0.012466084537464556,-0.10422986337325935,0.1718136246555557,0.05670220532369804,0.12041256430784675,-0.12181779022637611
-0.26006591683230457,0.05442315585145101,0.16153320641968394,0.024398234838104334,0.08156813809949495,0.020870227808377717,-0.14099829637109196,0.011697897836357846,0.2309774570562665,0.09549921973928241,-0.023895175861480905,-0.07815718742777095,0.29891410576687455,0.13753191913437154,-0.42842668056191036,-0.10336048476536558,0.02458594418604557,0.23392328800134868,-0.02214154497179893,-0.14675941970708833,0.10351369282681996,0.07009618516761795,0.21037844320140273,0.002108458521337196,-0.16182340270576442,0.14246427665137354,0.129712626923019,0.01174911265164,0.05589451288508223,-0.3406539535716012,0.42387616068773465,0.06607349135344964
0.2951099227449369,0.23063534828770302,0.0820367736235181,0.07472006693067698,-0.05306203046935953,-0.1801611817644312,-0.06408140197790622,0.26843774621009125,0.06898385527461602,-0.12128297792324806,-0.0670036495127787,-0.21390809635230415,-0.0649952355231955,-0.03546836370978525,-0.04132316134268863,-0.3369071438255373,0.1439864171364996,0.013274265847699508,-0.2041910637733797,0.20848456329575218,0.10896709804811679,0.23962084468316636,-0.09325651403495525,0.08186137951690435,-0.1010026510630065,-0.023079471290869166,0.3195942336303998,-0.2747003789388386,0.014619107160555235,0.13441383354854292,0.28333218416989214,0.049829434695555265
-0.02182328005181253,0.16607600832167504,-0.10872302607781621,0.16140251966840513,0.010793535973518698,-0.014492358409058303,0.24047116443262348,-0.022702078935867995,0.05590880089895577,0.38735754479250517,0.0162114898322429,0.030004664823140244,-0.1381636411429245,0.2529668311467104,-0.23516437676007088,-0.3306051653739242,0.13291279171755713,0.07104536805827436,-0.2385691113726181,-0.04378522772731598,0.23117916403017297,0.09166382007502816,-0.10803596176073875,0.00935774348414962,0.1475302221614998,-0.05845659067791276,0.13975928984072664,-0.037674910349869965,0.2690016802903098,-0.005145241908514159,-0.33232726304424237,-0.0066823272924655
0.028665386314254106,0.22569862896224688,0.17732948985608427,0.16519411676365348,0.06859472844910162,-0.31240875134515705,-0.19032677041355875,0.009766203438044805,-0.2106143038063873,-0.06690390357120274,0.15983150759692508,0.21550865139934702,-0.17613152343817984,-0.18951431832744317,-0.1978018640046326,-0.16629841463716805,-0.12409547959785563,-0.04954858202973915,-0.021693772815966694,0.012159926799397548,0.07053076603193237,-0.01618537889345083,-0.09000364499601134,-0.10012115291320195,0.19574317877010977,-0.1533114211848838,0.1852634881488852,-0.053976982858131475,-0.43377167206743,-0.12864424983556244,-0.005065825986636183,0.23796986642327758
-0.05041190521291924,0.014215797561830501,-0.17387854925434507,-0.10708970044745762,-0.36663362337091066,-0.09029733365967255,-0.06167760019276466,0.09970221518120391,0.11826469175403896,0.30457563437522767,-0.192314131141387,0.0768138029466547,0.15007261306730862,0.25748006129949397,-0.12287345360877233,-0.2370930006843979,-0.250973738719406,0.03293935112206405,-0.29714811454226203,-0.08976987694931758,-0.06091533513320085,-0.1389133334937925,-0.28395254233119543,-0.20687102586734482,-0.022060453947706046,-0.017048284247948183,-0.020307557700824087,-0.14403715486815272,0.1359491906683312,0.4288039006690941,-0.33005833129465784,-0.06551388121561096
-0.04495183272635253,-0.11379569088963139,0.08802518967275778,0.11510443752498424,0.052554361972713834,0.14404133059172722,-0.3580087238018287,-0.1447251429697069,0.1045429421463769,0.15741258873756242,0.013387048147879997,-0.33190279965333297,0.2576519703268256,-0.049357216641722226,0.04337195429474679,-0.33586203488718247,0.2064537599817416,-0.3175671898866451,0.005059581136206073,-0.12047175877911483,0.18797828535172703,0.06536512655958618,0.15796605346406753,-0.3058967579283884,0.104595483847204,-0.08922913432070058,0.03571995972583696,0.07337757472326076,-0.22128521505481683,0.1962941958675248,-0.01946522356077847,-0.18004248636491463
0.11798660505987221,0.21870013433196778,-0.05999323015530225,-0.09893584236399992,-0.0044248785964287165,0.2500033017073373,-0.19248088443302253,-0.246405827493219,0.1323910923187005,0.17476054909118927,-0.49739714034928023,-0.09479576760358077,0.029666089921180736,0.05443583440060614,-0.028799416020710008,0.26336057948129943,0.21432017988045962,-0.20891356416755427,0.2043266026746877,0.00979966369964209,-0.14166925385650958,-0.22151930951695764,0.07803197512334188,-0.15129050475802258,-0.04449571078075506,0.32003709889397325,0.03066445357401934,-0.05595813161154217,0.27865395843361773,0.01843239125325956,0.101424885273531,-0.0864531342709074
0.36816966421402686,0.06846520593077875,0.06754807986770224,0.17473689667096523,-0.04789563575151691,0.09236777356071428,-0.10266170536507446,-0.15339265200963428,0.1069039792791111,-0.17802985468087734,0.1188704423470366,-0.36047290903266643,-0.06179634246688028,0.1995337531233106,0.005873105958599798,0.07568232570650706,0.46395489967188913,-0.03619598936394522,-0.15581174176438375,0.2770537027141489,0.021335203892186624,-0.481187791624874,0.04582701725953124,-0.17637195010923262,-0.05927785281790474,-0.16902977584018952,-0.24353673891091565,0.20114184420942804,0.008456949469290044,0.09098457273499938,-0.11854850194469821,-0.0475717660971972
-0.13368379641986758,-0.21244870041693079,-0.2745637783762231,-0.014336569429244574,0.23676434437399302,-0.254383410645339,-0.13514543849509825,-0.09243231689353136,-0.02702915624733994,-0.1638705748653887,0.05662908160664894,0.04210019392509821,0.1319846488411534,-0.27716572903266096,0.07580852276167843,-0.225754606732504,0.26896860960054186,0.23972922243700354,0.1254268964134567,0.35238414898581033,0.030428893497661653,-0.2686513426791839,-0.20284665634494778,0.006871273484854701,-0.07678808023255339,-0.06532924838983073,0.3501502442934345,-0.08479358880414577,0.04500508661798903,-0.20608861223777233,-0.06575517364031835,-0.43260851173246956
0.28401095624258077,-0.3329900056385584,0.004682538530990487,0.0013101622640008983,-0.2963798005174338,0.23559565457478815,-0.050941839287848206,0.08041630433114716,0.061682954323525,-0.2323160049653508,-0.06948908706840341,0.1017917544538842,-0.0989259064819385,-0.03767378106837269,-0.45898635969907237,0.00463630638669964,-0.1720827730183559,0.032594439549398495,-0.13077042316415433,-0.23335222122424032,0.22886250602522293,0.12097542670404535,-0.2533642137454128,-0.2370157065754905,0.3624380920873982,-0.11819727793901104,-0.21099087892114077,0.029456417742411846,0.3364285521060992,-0.20042315210361983,0.015592503431884702,-0.0970662311696446
0.09106214290089863,0.23354897903147726,0.046998889661533205,0.06861928184637141,0.0758678708265547,0.0071932190439641525,0.006611124491689907,-0.13772537257027687,-0.5275275656367822,-0.3305640963257597,-0.28718324477030316,-0.34564188007849295,-0.20234608747193672,-0.2991910038047931,-0.2856359703612604,0.2648114752094613,0.30502995333546146,-0.05931380453341066,-0.12535482033058548,0.20365674067816386,0.3993326012629945,-0.23240581798913315,-0.18513472776776227,0.15209920076270425,0.15685989782382503,-0.12105348560335047,-0.050500082536322266,0.3938116943097343,0.05002205409481478,-0.04927341619063514,0.0328802680031776,-0.23899851430277086
0.14643641225671578,-0.1175692668931927,-0.04289148096203672,-0.09845353341634396,0.02654328933544127,-0.16148398853343998,0.01366920206911584,-0.0857854727345184,-0.011293868280989874,-0.247005834890358,0.023120900906212813,-0.13598862880768445,-0.0012416007267527652,-0.2490303310419181,-0.010132794367595838,0.07508153479681245,0.11242488865429473,0.002055426963207855,0.016656243683708726,0.09440882292832538,-0.11446306482773527,0.015412156206733729,-0.2889753996199597,-0.04708157499750799,-0.1918067804520673,0.03606253143887779,-0.17156552071244036,0.02707404498773073,0.18050673477280832,0.2288049709550999,0.09036137544591685,-0.26129204051023525
0.041499287391554555,-0.34789436289752446,-0.24114688292441838,0.008247161307906453,-0.19192949127518483,0.12670456839753416,0.11331996641747706,-0.06284945211133587,-0.31043597830270997,0.26123479141771316,-0.08983049869504636,0.07564416405018312,-0.24235811130485269,-0.029019835331978903,-0.048865301464210455,0.1472954103765346,0.227434092388096,0.09714261775742725,0.11957448253480547,0.005918303524757132,0.1337344758417367,0.012027848375013776,0.0572957475079548,-0.11480229376613671,0.05220161500905502,0.327285977024516,-0.28390578153080887,0.13893848971089368,-0.04747181119858411,-0.24815544053302216,0.14940551193907461,0.017024564110580186

hidden2_to_output:
1.0092488352540672
-0.22444372701873286
0.6059233755867364
0.5178559912988235
-0.05485273595325006
0.07650752034408125
0.030020326592119572
0.21496827506658955
-0.21553110540244863
0.17611494179608245
0.2368150560426305
0.5285553722839972
-0.24835056046365814
0.014288423233820877
0.2145011125508965
0.22011547071074228
-0.15988488969765616
0.023120143889494595
-0.10165553304348346
-0.2094154493549244
0.008294970484553512
-0.12546326687352588
-0.08427641404861384
-0.030467816544922803
0.24974367412393736
0.30428553376942186
0.40373422885549615
0.029957463309089407
-0.2976121943698638
-0.018177316485946372
-0.19196088373227627
0.10099829369733625
-0.3158286359271657

