input_to_hidden1:
0.9999890775116002,1.0000084542580934,0.999946528299174,0.9999784673414337,0.9999593044915908,0.9999767039271537,0.9999620839940804,0.9999840252404851,0.9999271808854029,0.9999312088953897,0.999941999998804,0.999936826644532,0.99994522302493,0.999907480201585,0.9999141217336338,0.9999247916347956,0.9999302204310414,0.9999470167818915,0.9999601718337955,0.9999484632061252,1.0000138350527985,0.9999639829901562,0.9999407286814649,1.0000409165431878,0.9999537558851377,0.9999221727277996,0.9999220695630783,0.9999377006595361,1.0000298787568742,0.9999810170142033,0.9999543672775623,0.9999339007888877,0.9999939280372693,0.9999673094512801,0.9999882073644895,0.9999931770184515,1.0000212411437253,0.9999430735572529,0.9999270052548662,0.9999120693222135,0.9999625167362937,0.9999155498471533,1.0000389214300442,0.9999454689921927,0.9999708713640272,0.9999729247604761,0.9999674620285635,0.9999200137228513,0.9998895803498004,0.9999670091823355,0.9999421035655887,0.9999155648541305,0.999999364639008,0.9999611830404973,0.9999368622084617,0.9999197690203878,1.0000088080077745,0.9999238756050202,0.9999855656713024,0.9998461897877452,0.9999579862152699,0.9999685080506283,0.9999728692872165,0.9999205783179809
0.5478877081631757,-0.023507239374133574,0.3236431778834268,0.5520096379567213,0.22650618279567522,-0.42731541694297637,0.14279714619267003,0.06625206123880344,-0.5987628950277918,-0.35114572939820876,0.017854477269315737,-0.3403705162002411,-0.2154879946233892,0.2110548555189223,-0.12570192915849582,-0.11804323472547186,0.6342585015613165,-0.34136158519634047,0.14404323462635749,0.4691127645650496,-0.00879758996480673,0.6908750654201278,-0.39479673551928873,0.4617278607106388,0.5411977805810029,-0.1990473531983523,-0.06442033894061884,-0.34443810861766555,0.1574317408569452,0.27388832452643785,0.2390750216829471,0.19404539826289893,0.33549646892754276,0.24235626357793258,0.05616453233684891,-0.2173292075925705,0.44783700295004675,-0.24602767787167715,-1.0467875205734138,0.14756124215714836,0.2500201044821687,-0.014029094213263735,0.2107445681583928,-0.39188207931256835,-0.35545938423582185,-0.3605070345438849,0.6490964079889822,-1.0319224326249374,0.07909916566302927,-0.5788932788606093,-0.10688412218880243,-0.5301707479568274,0.3665649883797451,-0.4803037907718429,-0.06392111603882526,0.37609890478361696,-0.10931434792197021,0.2970587746753749,-0.10004534273963449,-0.1521812644600548,-0.08383447739307817,-0.41908606127478665,-0.29122732118895284,0.052792446410202754
0.05683941124905524,-0.34761950513594025,-0.06135736953340046,0.11356439139662222,-0.15911989926356435,-0.5571462146752372,-0.20832733010849436,-0.47656263374512636,0.23335988992970438,-0.046588417333046035,-0.2254295523054005,0.11148568209798447,-0.08422471570632588,0.2715950600914991,-0.5076672235295006,-0.3438945483032401,0.27840076470593306,-0.19412605904180613,-0.0755543014388427,0.6483204751545343,0.35109181102493453,0.005306132075517604,-0.14896928664656797,0.10165103638175643,0.2911888454030615,0.2573361800583244,0.08565330912647387,-0.5161940926118371,0.2264337961343976,0.35993858497604814,-0.46747346130196155,-0.33934901056899236,-0.020586837096383894,-0.6809089819637452,-0.24115929330969788,-0.47570369156642367,-0.014002717686820921,-0.4903013303431672,-0.47017088179412353,-0.11330846247003731,-0.24004937221145786,0.06701395178054854,0.5003958150800312,0.41091167598822953,-0.17473413837475302,-0.09305542153104625,-0.5256532094207289,-0.4003560589123682,0.21682208393210814,0.3791042438505226,0.04404452554833956,0.013740662931918533,-0.07072831947293029,-0.19357754030287444,-0.42940593463157134,0.42788611643547314,-0.9268497291751278,-0.7305309706125119,-0.26222896190411854,-0.11866748196035566,0.24263227606899435,0.03744218118230758,0.8022921113393899,0.42187610181927676
-0.03812079764436439,-0.40965027619783095,-0.17650000166070118,1.0074016131844428,-0.848814868476096,0.480034784870349,-0.6453606617125882,-0.79324267010478,0.1663706906913826,-0.19554596994399467,-0.25391832391309815,-0.21903225585961192,0.06750810981901485,-0.08998157548980952,-0.07869034642270777,-0.73460133629389,0.013993217030814433,-1.0304383809870767,0.3747508073152061,0.001690744723884738,0.4909485191849043,0.4892235423933447,0.20506334263356327,0.885973640244131,-0.552629585347512,0.40107111321259425,-0.2941415543888088,0.39282575779707596,0.03809415943311381,0.4244598283937634,-0.19877670750637935,0.22588210654998986,-0.31008141182172716,-0.04490468219421033,-0.35682357456376135,0.1415853474623599,0.10482439770019554,-0.196766918215986,0.7374767365295652,-0.2157534611200773,-0.513053979311975,-0.17611057708395245,0.2798025915934172,-0.00041156406483014755,0.15788180825281883,-0.2695259021615883,-0.08315273648331074,0.2036189333204314,0.36162375647137723,-0.5398231429546807,-0.5128141918521597,0.17900766378541635,-0.41370888241807824,-0.21633865121886892,0.35254035630120567,0.1008207917012653,-0.15813932945529327,-0.07745853162391071,-0.14136261550769486,-0.24694192149986663,0.6006690504005476,-0.43171806669433366,0.38302123250269954,-0.07118836518590839
0.160265794683192,0.5674621879452194,0.5493382768580621,-0.015957078300139753,0.22542975275557828,0.4758220048793514,0.1802408293192976,0.5698556327933898,-0.546128526691307,-0.27814916088220787,0.7747888414751517,-0.43306361593903664,-0.6736576814517856,0.3327353275761817,-0.7481054707038618,-0.5753651115191695,-0.30659761873069546,-0.39209918053993154,-0.6922191644773428,0.48408538014198027,0.3227179553196251,0.3423147388137756,0.13178914411740683,-0.35421081214725064,0.22492033248524418,0.2476529897340381,-1.2207101904669913,-0.419656254520214,0.18222332133781174,0.500581357022665,0.16571801780564183,0.004773040251860726,-0.011944238898385215,0.3958718713769973,-0.6302090945066586,0.22190196928120046,0.2724160127431817,0.31301780183878175,0.4228521886007099,-0.08151265281388471,-0.1076164771078824,-0.6274189715867321,0.612441299116402,0.12327378545519536,-0.11209526341745146,-0.8458886237162324,1.05067739850896,0.02491501088801065,0.1999386505847906,-0.12596426206590036,-0.66062341546443,-0.13300379529445835,0.034513515920064575,-0.6296837202330996,0.07088342596771229,-0.04006755821231105,0.638052128291021,0.034014422277417,0.024937174677315276,-0.08112806101616812,0.4034952074193915,-0.664662317988076,0.21872230437494605,0.15761810149921374
-0.2747765750285268,-0.08935462393648974,-0.5293456117179648,-0.33117383982639437,0.15522809917317681,-0.2758787395048826,0.2315276561914695,-0.3322016326773098,-0.3981884342425216,-0.14023002477818974,0.11244164222807194,0.4971939786752052,0.5986537452032565,0.6750460170099256,-1.0313564341393497,0.4083446454534364,-0.276178173007911,0.8762656883642845,-0.45387453567158403,0.010966558258426915,-0.06593112444027592,-0.2780901017005013,-0.4428420826886618,-0.49826008537413513,0.0247159216224056,-0.04214512839963969,0.23286381979044787,0.0504239669931938,-0.24124955311071242,-0.15962478381090825,-0.41224281159396897,0.24990043999522746,-0.448039408911418,-0.551708224281233,0.478853110108915,-0.11274291645809363,-0.4301241203739265,0.4749845156868572,0.09993377215908404,-0.06676224091856009,1.0012679313488861,0.19830012497048355,0.6883072352893432,0.3285521214242868,-0.27379552528733075,0.017579522767646034,-0.5152155358863738,-0.11483800311835778,-0.31027359404900706,0.06388779094503377,0.26507928796591784,-0.15002012171018145,-0.13755281576720138,-0.6112501322098407,-0.1427896480399841,-0.2710051879297442,-0.13086669813974533,-0.704925476347032,0.03049585189649613,-0.09069551238508006,-0.833004451612537,-0.08099377458776931,-0.021898064694501777,-0.45214409694264057
0.2544169934251611,-0.2679762505398394,0.2564628918352987,-0.202981636352365,-0.29206811331792065,-0.12064269930399553,-0.23262432253064422,-0.3229834900677051,0.2827147798499127,0.3508080076872735,-0.6898830073673597,-0.12714698328808796,0.03171289989927817,0.5685926722537782,0.3192932485019795,0.11810535274042597,-0.1518726141162329,-0.27739951550673553,-0.3257027737034905,-0.1802613844058566,-0.29332729640012384,0.522202567119701,0.09215152304299286,0.5081444960075289,0.7493767184725534,-0.7159519514007443,0.17299857693967458,-0.3248871284830145,0.12929166136659787,-0.5883433948508755,-0.40418642962930446,-0.06848446759724867,0.14693372368842214,0.024233754554662975,0.35961117518158653,-0.06332062283999353,-0.039950069563343196,0.4159207467800039,-0.47832772986701294,-0.2042823109945543,-0.04820444122875669,-0.4488243845511973,0.2723893947001652,0.6636118543260499,0.6281293594773902,0.46613220863802374,0.04434371159284151,0.4466654419700407,-0.47496636832452327,-0.4599445769033918,0.28068033740635234,-0.03957538340463245,0.48205753089675774,0.6871665782644201,0.07097685097642407,0.3854507610230617,-0.4461122759852284,0.055761699743422946,0.44592153059529255,0.0057373585200445314,0.7595406623841996,0.06502126681608057,-0.08932494263274934,-0.8029486176068137
-0.27324008996283383,0.3874368815520068,0.5662939312883326,-0.2715464055259115,0.5805067364840005,-0.27518361644803613,0.22460146443983806,0.15152849876811542,0.675188606596892,-0.040689920779735024,-0.04481025157686123,-0.05758696003824539,-0.14674396594590583,0.7330161977587567,0.24871580210172387,0.6433567793287276,0.179777017174922,-0.548876934775306,-0.3083797053358322,-0.4559485547901127,-0.31014158125601915,-0.20832734979376327,0.1210012100231561,0.24823530030275406,0.20170411260168203,-0.45396654334314707,0.4774441276984097,0.18183232985092812,0.4711723005392676,0.06716377763554474,0.7475931036121348,-0.1711426644383967,0.4920259752185938,0.5160209589109035,0.5802648375530401,-0.3748250595652321,0.12481157850825374,-0.2920005236090698,0.658453701099922,0.04933795436539191,-0.10014626705062717,-1.0009849775229396,-0.032198233631953725,0.6626743567960154,0.07502616198620567,0.8033178880808253,-0.778802320246439,-0.6212943606523946,0.22221952772120307,0.486755085698565,-0.17173307618746844,-0.17389016875218694,0.04513635926830326,0.4495383571014889,-0.18218329699138258,-0.02116202222388896,0.13684193309904805,-0.19605306339275158,-0.33670131856534824,0.1654546520503081,-0.136604963030198,-0.4206660877299129,-0.2618979305382466,-0.2757718883757881
0.3417795109610374,-0.027631939839120833,0.5253063766004439,-0.03908085059214835,-0.10642557832385902,-0.21761390313618403,0.015140317951774515,-0.01052250903699574,0.3896431628506796,-0.20191821949217195,-0.0415921767119835,-0.4065387699157927,0.13756771970863813,0.21619274453877627,0.05129270381316904,-0.37927221876416434,0.606239340771006,-0.17942054228043539,0.5350042971824366,-0.8241952516339338,-0.3517074574547994,0.9354299237682318,0.5100790244701249,0.17927182367305639,0.8351135434650452,-0.5848360527004224,0.0630158070769602,-0.5077261031292656,-0.2011340975507358,0.2696069774283344,-0.4054153578329948,0.4275797419670371,-0.2838238129859798,-0.38913087762192083,-0.1247891162622763,-0.011562491369693227,-0.03744572264198077,-0.03110984590967553,0.011844955979141657,0.04098143517793044,0.23587823712935851,0.132468763620077,-0.07227293748646864,-0.30672319780289564,-0.3150343011349577,0.5508882388093921,0.33072361790991667,0.01743857811428218,-0.06692646356387084,0.12305905122863976,-0.8255225873264262,0.054433199091235875,-0.09281753208582004,-0.1565469387181234,0.334218735487095,-0.1726659971668959,-0.16243682276200794,0.11327360509137252,-0.1795074742450933,-0.36222170503957246,-0.21266931398607322,-0.4173193509618907,-0.1199001082507221,-0.012837766085930437
0.395392974710631,-0.41452398460531165,-0.7294264180956357,0.26508386698727177,0.3420214175471638,-0.09381960281379341,-0.013184889769023926,-0.5500002481122765,0.08859236258154261,0.4413350373005655,-0.30783658886981646,-1.01114849406642,-0.08000021514348342,0.5330330955671257,0.6007568011834755,-0.08795990932067628,0.18868534989976737,-0.3271285849021166,0.47251762420906573,-0.08516347461096956,-0.06756238561436127,-0.6860513404577172,-0.5020596981180988,0.3896231056109975,0.271129822573703,0.46665947334431973,-0.38024578686444005,0.5229312145328344,0.5891571503438725,-0.1003735659981635,0.3310750069376809,-0.4353960413636384,-0.4251064331245966,0.8166845144975718,-0.3780302066851429,0.0006622586876350404,0.11758512657085025,-0.1611499054084384,0.29709546800487757,-0.9016262782419321,0.0930365661816458,0.5137901055717365,0.16302607214440726,0.12904103687821064,0.31988049472772745,-0.30060801369166795,0.10414463355377639,-0.256560288158692,0.5924878414434134,-0.3223750980903187,-0.06740613429650047,-0.3835832347345749,0.0757032048794041,-0.18926632540704932,0.13540263437405645,-0.0144909853431113,0.9192833921838718,0.007740779738036873,-0.175048148245041,0.022301275818107737,0.3525034205440867,-0.40097810867152656,-0.8715965226621651,0.3478471162145575
0.0704125491754426,-0.14869111550902386,0.1583937477533957,-0.08947268678725777,-0.25287220465754195,0.004626784769188112,-0.0698520282532914,-0.09545767774956247,-0.6327185050335402,-0.3245672144654998,0.035703419602514296,0.8386435989900963,-0.5069251257720807,0.23261781610592935,-0.1052055310951674,-0.5282579556821277,0.28176528503659914,0.1762991867118455,0.2558664764486817,-0.17183602114644164,0.4055490434906342,0.6353272005889147,0.2079228659735105,0.3674918215757776,-0.1897262543324608,-0.13588026034276499,-0.16594554475758858,0.1664415229582761,-0.13300832706769275,-0.09728986580743247,0.08398348762359033,0.2859964664912184,-1.0408862114039468,0.04574422227456147,-0.11325277007819357,-0.5236053600296415,0.1928709990066904,-0.09906952830889243,-0.8577581612318557,0.29726600545019444,-0.6718697765180637,-0.4955713107368775,0.25888974976256757,0.3933742307620118,0.12622580550010074,0.16288474274341272,0.46770992527348976,-0.37330521525118154,-0.45138767605741836,-0.005811092869510745,-0.4996768698119721,-0.044305614137152255,0.40494749022010157,0.5607473346654118,0.10114355908977667,-0.10407228119053578,0.08940637220161911,0.06847316618184084,0.40140976716989946,0.35291430092823595,-0.11819100873956567,-0.510407485484522,-0.02167890286637657,0.8723782078609696
-0.16811460213548737,0.4896855690887199,0.3576151281967772,-0.10084644148367816,0.9214990818629107,-0.21277540579379894,0.19185288275921858,0.3647701911926109,0.37122828167675115,-0.30054996087068886,-0.760930073356773,0.07215936611030296,0.3163341642723433,0.26807375875004397,0.11636781321005177,-0.3718877583215735,-0.11407017401307143,-1.0479216665183755,0.2934797452186398,0.028553595675820366,-0.7111911386045991,0.3948777520245204,-0.20105529497283608,-0.6508821367121165,-0.04808218435727206,0.29990460071548597,-0.4892770183039526,-0.34451116726728714,-0.10913041509290582,-0.01173506535710929,-0.3045646340946483,0.5183873695977005,0.16050887084144982,-0.37067081451202005,0.40360489605006966,0.49892871521712556,0.16355834850842224,-0.5250642615106113,-0.6163675987591503,0.3591626025537351,-0.02489943979672453,0.2539917894927324,-0.3351431094952665,-0.16658806401563522,-0.46690227472758894,-0.05966625967979443,-0.05748313756218713,0.14629580290565827,0.33160278624992506,-0.2528453522133983,-0.10625269860693978,0.3564754796969525,0.49476080763306723,-0.37739156515406824,0.4293371288641145,0.268850572894531,-0.618195030579964,0.5311696138771785,-0.24959188230325977,0.30966517366624147,-0.3679001576629415,-0.0646941671143142,-0.12157944213429468,-0.24316195703509424
-0.33117420354099897,-0.21813133195450737,-0.39511023837594894,0.2005281325758863,-0.5387665830502438,0.2877601608899674,0.10996887379902624,0.48251674159889607,0.13096382760496733,0.19032773466350736,-0.5142937949412998,-0.442897909866698,0.6402349221117684,-0.5160204135840791,-0.13373844903643514,-0.3585085436894464,-0.4012989282566551,0.04985906867585736,0.1537248104677326,-0.2787591468209161,0.23250947655680657,-0.2648942287112681,0.5695950154809591,0.28569813520327136,-0.2678158968699085,0.11301336806325786,0.3770925583111124,0.10288926135015834,0.4343441293564206,0.08574509704991046,-0.1763087606836285,-0.3095608739242417,-1.119103637216587,0.30924001867751416,0.004133603884644735,0.35647000737147505,0.13677530303784918,-0.3557402067954044,-0.06773834725579464,-0.14940225749623923,-0.7729659845573772,-0.31748584792591555,0.26387548361133084,0.07302994769792363,-0.018308561420173355,0.30319590573107486,0.6165547736022744,0.03769526324115845,0.15167724881636116,-0.25050130179354635,-0.4761236126468101,-0.745568490850931,-0.13413619478945216,0.44225977300813607,-0.1374324099580483,0.12006852819016245,0.06590546473723145,-0.3682456533823085,-0.21670722675840365,0.11741260212046795,-0.6472854153395722,-0.42719123783715174,0.37077964122910995,0.16382856347278674
0.5793925226267032,0.44602564289341584,0.23811760940916785,-0.5588635393864626,0.13233878699641624,0.022390104791461144,-0.6197493629040851,-0.11242525125083858,-0.5403266484892665,0.06701952232893475,-0.5076702711146709,-0.21025509219824484,-0.054417074931625765,-0.08583189417170356,-0.33137217896969273,-0.6746332638397797,0.16630913604277145,-0.016123894159305572,-0.4212126938491721,-1.1168328719062346,0.46737354687505994,0.3345177986357901,-0.1454996301320073,0.18889951396470572,-0.8489439592402052,0.4626350455951283,-0.22341963537622977,0.18620684708201174,0.7839009951785497,-0.5407053902094696,-0.11327927552231074,0.6067865082083503,0.3541109487875096,-0.3161485870162998,0.5726251773570786,0.751213250969502,-0.12702762427490524,-0.35986748042151395,0.45676286498405844,0.23575568175362727,0.10221914343761763,0.10610555893182855,0.523060513075519,-0.5764958874230505,-0.30644876106332763,0.5341220861314081,0.10540195839074082,0.04531904298656066,0.16329218419982539,-0.134299376638395,0.3019873848207921,0.220780520205842,-0.26808081413249085,-0.13874994089889794,-0.3017583480577338,-0.21480987254507988,-0.32697971921584257,-0.6183502552142262,-0.13079014132779065,-0.17414327924448114,-0.3287815401336145,-0.27306833174246525,0.16387872895648767,-0.4751511787233356

hidden1_to_hidden2:
0.9999632811411151,0.9999452098689458,0.9999500012487293,0.9999660083652459,0.9999421619895726,0.9999785072690043,0.9999511250901363,0.9999710470131112,0.9999772091123327,0.9999494898220173,0.9999774352701082,0.9999716802846521,1.00000645183492,0.9999320021187241,0.9999510769974376,0.9998621917723388,0.9999500012487293,0.9999293749743875,0.9999330722534554,0.9999062038062745,0.9999439043976797,1.0000629579713158,0.9999364579388942,1.0000352068915002,0.9999784311883293,0.9999509790659568,0.9999943140187569,0.9999910148538128,0.9999288240907459,0.999980632435631,0.9999796628233708,0.9999498841483695
0.189313553823224,0.3578880094707184,-0.2409601934583723,0.09339946579795554,0.057215465449294754,0.13293024340174184,0.03569480475291418,-0.1263819470850787,0.3782566897741274,0.05296455725185466,-0.05376019655522026,0.17087076027175008,0.054682742507480765,-0.31749201284503575,-0.1116986528534393,0.2137598821749118,0.06413753535391466,-0.08441174919405305,0.062155176858589,0.07522717001452221,-0.06950197183647183,0.16112833484715217,0.07338148448800805,0.08369921430490264,0.2853463228980492,0.1562271706751571,-0.17553674293441537,0.16086361609911198,-0.09265277043632489,-0.08120405720032922,0.16784173821093126,0.07196982913653535
-0.07729748338855408,-0.4315372759277402,-0.1691677095776765,-0.1705933261716001,-0.06526534810109202,0.12929790295294663,-0.11111396065544293,-0.004742449191347008,0.1164468081323237,-0.05499719814987781,-0.11799902808707086,0.46711439708172975,0.24103261110136998,-0.08573586169336089,0.17122649007658972,-0.15199671419789876,0.33719912188736756,-0.2245812598740043,-0.0753436450014845,0.05987880000081231,0.010844386181667724,0.03341809899143377,0.34591773764527295,0.2814284142190894,-0.20919463891224577,-0.2630866592992612,-0.0002973892216611783,0.222134512894218,0.1002815228981297,-0.25931787822465074,0.03160340759502264,-0.07013861062224445
0.034502533980658175,-0.2141379856716085,0.1816964051827709,0.18622625055115424,0.009442990921201528,0.1464123207762558,0.02184154476995354,0.04527082204657805,-0.07702735861128726,-0.12700243303153383,0.15595386530001454,-0.12379342044040748,0.17915143923157018,0.24791067848437606,-0.07065108058632961,-0.033597526060268924,0.046516161024733264,0.044621277880854474,0.1284479675637584,0.1984226840929742,0.023255355656310584,0.06757085127033624,0.26801317219566706,-0.10129290620466087,-0.06588581646046408,-0.3714810573786069,-0.2350819344860919,0.17182818628504432,0.05547398336731544,0.12365482797183433,-0.05019019945069538,0.3278608187400348
0.20888093878364156,-0.20366470900438907,-0.2157124404451381,-0.32474829127165505,-0.2097228097268861,0.09021918306313476,-0.18683914414021366,-0.07187513902794801,0.189908783145766,0.07479916499437538,-0.011294623262348407,0.11932660294922634,-0.21726114571465915,0.07578275003585912,-0.012319602006709118,-0.016612629272288102,-0.16732719864877646,-0.17983745707650908,-0.17159778333500283,0.07754161206907383,-0.25594274823203367,0.04132487013545956,0.2697366329395655,0.01923364268383898,0.2972609379245235,-0.2850183317681169,-0.10488168705261679,0.08804671852541426,-0.18918664028908033,0.30128165713953586,0.14983527089065352,0.13507620922180014
0.3382663318070577,0.10073916566257664,0.02552295213528705,0.13665839043129327,0.24116346799371205,0.018595211713379724,-0.222110553019687,0.27804099189295406,-0.2347361091301124,0.2432411507169475,0.0908729647544052,0.05088626862369687,-0.03188237007950002,-0.09385672120604428,0.2775925804149781,-0.011204350220461753,0.222017601346999,0.13872461076644646,-0.028427468140171025,-0.1375162617739721,-0.2496645427351302,0.1049298445127176,-0.04859514765992408,-0.13344082275323244,0.08339722518779612,0.00738857071048176,-0.012149085533257126,-0.1573985475406236,0.10236109696955514,-0.010558606787630206,0.06547328379118553,0.3214049525919878
-0.019461882546799324,0.20839845480779803,-0.011627728983951572,-0.13514763763512216,0.3728230825236303,0.005126762589019027,-0.2746524114259198,-0.007982784341829042,-0.0638346224080318,0.14360303298099292,-0.30740731100361,0.24105703064845835,-0.08406819443619694,0.1894121457166397,-0.02289763268781657,0.0440782357396606,0.029093221901456558,0.11896302766372667,0.022953502339039783,-0.09631629032917421,-0.01611067680824756,0.06405534741748144,-0.3593571738564142,0.32790723971266056,0.034067384745411204,0.08520426756191679,0.021286334760689977,-0.25063348964798793,-0.25740964338465117,0.0013550854698688036,0.4489300491681551,-0.004981488217739896
-0.21219441958865815,0.020830548824990292,0.0536546449279063,-0.19208978095565324,0.1532408275750551,0.1003858987463611,0.05377733569927151,0.11714807830466985,-0.31009604737638646,-0.1344964569514064,0.21690429670588218,0.07248588034321038,0.0039943973665922915,0.13607045687873018,0.021995489304324156,-0.17182871209961956,-0.14915876280286341,-0.06081437569197887,-0.10639508664625313,0.050364948793959,0.34758242881675655,-0.1602750189584344,0.0992677428874273,0.04336365407325733,-0.16861300970091922,0.07033502964172302,0.163855031509188,0.2610283665199893,-0.2244703110553735,0.06313482826652586,-0.01916995934308753,-0.05846508917214042
-0.04213797353313555,0.049571758415639114,-0.08059602213507149,0.023572471328926977,-0.2537721816322506,0.15381283897690684,0.06048700529808673,0.12643938901870688,-0.07858819455570037,-0.058078930991665355,-0.002671141036492075,-0.1868785736706914,-0.0259402751137754,-0.02368584057161096,-0.06637973490933591,-0.29261624043490203,-0.021073903192919786,0.11541476809499136,0.2487434053604321,-0.13630358574722382,0.062226485942272605,0.23470807602933802,-0.10367738208452394,-0.0014039637298561478,0.12034144718502235,0.24971490061809457,-0.020071170109707225,0.23686201189800765,0.27077203664326316,-0.20660091369975275,-0.034422671236521575,-0.3839907948811551
-0.13047509924255773,0.04660439177656222,0.008145140149684147,0.13039642360652928,-0.1988429240510084,0.10596759038476052,-0.1518918947409611,0.03718069846781498,-0.10748997692325023,0.3209630672297763,0.07406791880948803,0.1038506159320269,-0.026092664030945362,-0.11343952274221722,0.1867732718968151,-0.10172418557147035,-0.20427886362840303,0.20265104257532,0.10405820160024676,0.31029687317491494,0.3253442853045179,-0.30915602611568826,-0.20675188322449956,0.16469716770027992,0.3974711701155689,-0.14340024887253985,-0.11444974180659374,-0.024709150968763922,0.03874971928265202,-0.10569631506033095,-0.05000847885019082,0.06069191707375832
-0.012696285323401599,-0.05271526921271029,0.041368621900291266,0.2085947642226766,-0.051726908882138586,-0.08545416585643276,-0.350150203082749,0.00133312785633537,0.05716790351902796,-0.17374982786030543,0.060042513191783525,0.05628016695816636,-0.029375521176356115,-0.05470089569013724,-0.0075699628898355745,-0.017624707865368454,-0.18202775567005988,-0.2360043240589716,0.2964242929827622,0.10884339812462582,0.2578464365610512,-0.019598491858559587,-0.01422307165701431,-0.2292954622816864,-0.1722621779551978,0.0024004409509067568,0.09152811815496094,-0.13838068999075154,-0.18845208259801807,0.11713130922172295,0.021913462779571114,-0.10412367036333006
-0.2736852342648911,0.035189958891633254,0.24529273347693467,0.14690626874487694,0.3053826879301483,0.15054251284126097,0.28562773701222993,-0.16008306323198346,-0.0879748531282621,0.08145696467438883,-0.0012577590149261946,0.1257391264323657,-0.010059899050040361,0.05087698650723015,-0.1501876528812695,0.05961309931233656,0.04720307202260979,0.05091935183678669,0.1654529870094009,0.16575707218283314,0.00691791950097633,-0.2770604581656678,0.09943772477383504,0.19192215665403503,0.24859886972957249,0.0007516656884418559,-0.008839138149031705,-0.12586414867822804,-0.14419347719563136,0.38932094179435633,-0.06162678434838278,0.0034576805987417444
-0.14694696434845525,0.25884251553563054,0.16032251250791188,0.047801717078428764,-0.1315988052723803,-0.15410872067457396,0.002773401173029898,0.26539975396552007,-0.11113791133768244,0.04758055073119316,-0.16065086173806056,-0.036370325828998136,-0.18072801131187577,-0.19057881532655538,0.27677724835408896,0.0957295734669078,-0.06112188944491526,-0.1242681509785142,0.002479097997188905,0.42589046402030545,-0.06686149441399752,-0.04131655091457414,0.19626580911730684,0.10199518528648005,-0.044951233099452446,0.280281022934365,0.20214875405941987,0.03226225634880524,0.13977472659173346,0.019023003150250444,0.2150712925378231,-0.04898445483370766
-0.1531660656488168,-0.06434531358069988,0.03243196695212588,0.028411808242092253,-0.14715544771532524,0.06089283741442498,0.08778884000411923,0.18252806194543678,0.5059377855581209,0.15321133893746686,-0.21714126907139492,0.048877806676408626,0.15197012139241364,-0.20569970723295763,0.1172067130668116,0.2562478693891214,-0.06543588789849936,-0.3428705446193404,0.33609235607373383,0.2256623370419314,-0.128768040956685,-0.0811293215054975,0.0380947654234478,0.052372298214536005,-0.033011306859713326,-0.27482332937680165,0.17849714834519465,-0.0029663665880484877,0.29873199234579084,0.3562892801459149,-0.2785504817369346,0.18101130722680572
-0.31369880849603426,0.03309635595728215,0.2169983604902198,0.007126048268807056,0.10170748664532499,-0.3676751433819629,0.1973728534711497,0.360726740956793,0.07482514045045974,0.0073157895990539025,-0.4159193312599253,0.24174068624965003,0.2147610263744947,-0.1468247472729142,-0.033146687995978454,0.18929715028505725,0.04751759237692706,0.08418181849891981,0.342119854102561,0.2612175616558371,0.09365267913004657,0.0903322337465431,-0.19903754949175215,-0.4241323310187334,0.16661911802185037,-0.00972936592762406,0.12491666042707851,-0.04237830107349692,0.14032346474027038,0.1866776258207372,0.09305708788433718,0.07951038155329578
-0.2745096473730804,-0.10057435679338458,0.014677096356732169,0.2976845754099536,-0.023732443630270522,-0.2057430890903306,0.22329566689954172,-0.10512039579727613,-0.13824592554316212,0.08475945705381113,0.03362780627303601,-0.16970931726275734,-0.037673444676052596,0.2250250171087678,-0.038995031334584034,-0.08627908377072452,-0.03536267953175807,0.1435778727504219,0.09863821535637489,0.3349567063264909,0.23280342938776993,-0.022429309389957443,0.14123899049879496,-0.07525715633592599,0.16712003527949945,-0.1266417602200986,-0.21171893169720207,-0.24174834038886345,-0.27832755064862424,0.34268376408941403,0.08929923581974449,0.028689162501303128
0.07758030285277688,0.10671708875377602,0.21506421829246006,0.0018589830048517224,-0.04379728569398258,0.16367152045608932,0.13568353759270674,0.264222364131717,-0.26457802361582994,-0.07142323058925944,-0.22286350755935264,-0.29860157419076555,-0.04090027563181369,-0.10504923521446764,0.14219352537240706,0.010935775806666805,-0.12049720307002225,0.10077398815208884,0.0756957068578389,-0.058010994415361464,0.09746763344543061,-0.16682143568011426,0.2657206601114764,-0.22015404189933252,0.0005268447023588668,-0.12734125547111458,-0.28620455564547603,0.1197349419624365,0.10399723119908585,-0.13915695659840718,0.21894180155369403,-0.3453488369532051
-0.16461476363234662,-0.10752872031811667,-0.28400854969283396,0.05902810807308815,0.06800564203327122,-0.055630736193415305,-0.010841131743125867,0.2495262311053279,-0.14140335775294893,-0.12576872519954965,0.09530020682048397,0.0766056841553121,-0.3729407551471136,-0.26796622655005403,-0.1306168419608949,0.4749503805665708,-0.24002772916179435,0.3016653414462794,-0.0585793735593492,0.38830806526304007,0.10506063108607076,0.3761825196002677,-0.19418796133577199,0.04244784650720224,0.02738179634624326,0.2130044027266206,0.04818192084876948,0.19096216555794016,0.05962156953132249,-0.04880482725885825,0.04665196913489764,0.0037630216663707564
0.07528299258949066,-0.1419890683405711,-0.18493431985574718,0.09293000406588692,-0.2145465353715325,0.039521095995285575,0.20591021913377208,-0.3027828842610465,0.008447217837404932,0.3960327817172915,0.31981530092275523,-0.07330811981408834,0.10667044536887008,-0.20164272003312797,0.1582196152798606,-0.12451379796363937,-0.1252265386826232,0.011010203584955755,0.3242905377819729,0.07789901785107504,0.03893487518642307,-0.22769023177505254,-0.1076985668966673,-0.12970419333143315,0.21794839570343683,-0.25703398152825935,0.173595899402109,-0.029351287975597478,0.2850776942406848,-0.09332622349407614,-0.1264055516733954,0.18019478682766601
0.11270915610513232,0.2796190738679707,0.3286619768915916,0.11144222697051495,0.036308174659126634,-0.0008505310093540715,0.11282136166298362,0.11616091669312012,-0.18788804045153598,0.29019687688539164,0.09665360406716801,-0.05112842119253407,-0.08055452012235335,0.016929580037689185,-0.23965534148738576,-0.08539830290558405,-0.13905287688633372,-0.19057930043608237,-0.027402656725680694,-0.133876541036464,0.16103882571452072,0.08663551903165283,-0.11120945964262258,0.10694579859091438,-0.22388641433272047,-0.1983316043260583,-0.3254046377325696,0.18854086624187408,0.27022659968608725,-0.15247249163878832,0.04714779798468206,-0.0043473665050128875
-0.26107435017530617,-0.11256900615121197,0.22080837615642396,0.4415906209004402,0.006238721622228673,-0.02388512347099526,0.014315155110591051,0.09129435196833519,0.3048867195918263,0.3407653624638296,-0.20337081863036474,-0.026495346122829604,0.029091682065290368,-0.026392260780258733,0.045106900876104875,-0.19468093531184547,0.183631490488298,-0.005734929214985965,0.3685005036201331,-0.025111044532050278,0.14525436516719972,-0.014275192095467733,-0.050688583344060456,-0.18366315378623327,-0.007522845572165325,0.09070185311540954,0.02673142563036893,-0.008972121671584109,0.02728958009851087,-0.08886785637778022,-0.11513501198857509,0.02620140521537999
-0.2184370478572987,-0.03686730977833985,-0.04077130634429415,-0.4303801550487498,-0.11702536580688765,0.168679224107265,0.0178018050271839,0.2552680586578292,0.07035500130431352,-0.29632449766878044,0.27857152328203083,-0.007293084401998531,-0.06090170048526698,-0.2329858300522893,-0.12144348652618535,-0.43929635768898895,0.021954174053394705,0.31390515105364253,0.22638374172770903,0.09253504240974833,-0.21282558626046852,0.07772298583840825,-0.4499660874449896,0.013096905927799617,-0.060324754847873446,0.1642248993859695,0.26536958929955556,-0.0937063708025227,0.1544586685706515,0.32990374368093794,0.07332136959777794,-0.23837560921688775
0.18641895671452055,-0.19849562291531794,-0.18019695279738782,0.13992755426324205,-0.0817515218304625,0.13621280557772705,-0.2051590413012484,0.2691447230442541,-0.14386875061712812,0.16388682683100264,-0.09879392941797281,0.20486563837416932,0.034175838893293224,-0.029181461121478697,0.24326668185893835,0.2335997949356919,0.16276935157520472,-0.013014759553105484,0.18109606426139027,-0.09692179738799636,-0.20542593606618764,0.18798266414432593,-0.040789770718653084,0.11244652346642892,0.03945369239728654,-0.007909797716076071,-0.0841025754456994,-0.13141046692204356,0.09911901173889597,-0.06110790455214791,-0.12311430791765862,-0.17593954460481992
-0.10511453996965754,0.05212410920336065,0.19991267162821202,0.09561996689373964,-0.1247910783255067,0.08599598125494617,-0.0696249723220441,-0.051910597636838765,0.07495528079198888,0.013690148431565406,0.16553708651380517,0.08372250145616476,-0.08932351080777891,0.05943381939569459,0.13233702707227013,0.1749072060598929,0.030369804453337253,0.24954869028340648,0.23490693906436505,-0.12045849253632672,-0.062462308050442054,0.38049536950502016,0.03669501909852419,-0.23100031486550038,-0.2592548454037832,0.12283096333983211,-0.1694085288564438,0.03356096848853345,0.12336689506690224,-0.04697923036332105,0.08069488595232029,-0.02111746691596499
-0.01991387240189777,-0.215565885747844,-0.018443745599914553,0.026114695704505676,-0.30776934728173033,0.34261124016242156,0.09054000393308594,0.08204695615930008,-0.05753512681733499,0.13184905006143896,-0.051189372060545454,0.25910525430854114,0.22237134185606272,0.008428319090203378,0.05585261599359564,0.16604755259757742,0.23383414423135976,0.0815401179879313,-0.06114193027616026,-0.26503456202096987,-0.05110909053033872,0.36763149447047117,-0.1413872584520975,0.10858908820983128,-0.08937614020742157,-0.24011903027719683,0.08156017951091193,0.019934818487387887,-0.10762002316392848,0.08935820024454867,0.15624998746008703,-0.19198760562176806
-0.38295327618704,0.04896059263454038,-0.15124330203201072,-0.08529220479507586,0.1392870200351476,-0.08502964408323904,0.01435912974537373,0.0855364014896081,0.03780618272299876,-0.13801795680407267,-0.02553272008156029,0.13543982239046143,0.048282342198880154,0.09091772870139017,0.3622043123087604,0.015406314437249033,-0.12743404760414842,0.0040205249517023915,0.30346782884555745,0.15845730746072081,-0.02844514157395423,0.23877413306954137,-0.16288605075751336,-0.09064566904049452,0.2713629303483464,0.06682563586683601,0.0898241494138939,-0.12510485895424306,0.17266273789214226,-0.17242467436551054,0.05297135686250832,0.11215765646122135
0.07636685501128844,0.23725591703557242,-0.2582403693213965,0.02631261118318735,0.0011683711653360151,0.2765728861035214,0.3549213154200509,-0.017777971308128047,0.24061123990693822,-0.22484775399383802,0.18777609463058845,-0.057117643299041156,-0.08931793641541774,0.025166368783373378,0.1852119446542116,0.17386622413925493,-0.29564083652215234,0.11959556337444846,0.10379945905238612,-0.09980351791264655,-0.02582674631009422,-0.16281232925000655,-0.0869025307016633,-0.18117257017699376,-0.1611285081430886,-0.25950969217940595,0.02259045124028298,-0.1464570257313157,-0.20338891826834296,0.26632886011282497,0.12491283109113524,-0.06227451663163997
0.10095484289300632,0.003840846458806098,0.06391780627893275,-0.23095189904631178,0.08434783665869476,0.03463209676831165,0.24267998890632309,0.022823518745322926,0.39772481011752875,0.1586406113536162,-0.2606299390916912,-0.12251912413777484,-0.04715949587364209,0.25214868921159944,0.19954385822865964,-0.1116242517818637,-0.1562767389061287,-0.04681378400561096,0.023431700181163147,0.10292869736212538,0.0470128319479803,-0.10148427446503346,0.2852674284298798,-0.31156066496335943,-0.1827411809969232,-0.28788512206754646,0.05278414459059438,0.0037714490282358313,0.02609133623770102,0.07369965126493049,0.052154788356649065,-0.4125254634419357
-0.0172879643788995,0.08255693870426252,0.10431498189230377,-0.14045945160638887,-0.153923578316293,-0.021816388277090645,0.02786652569495837,0.1074546300454043,0.2910556453871902,0.04803001622747708,0.041018458308488076,-0.14824804392985597,0.030226781755096983,-0.12735065151419953,-0.05728437752384163,0.034733240205532714,-0.18609767816079914,0.08182270712191818,0.21746647681798706,0.22097601525795565,0.017292588233096855,0.00337475354251581,0.289875899609375,0.1483728329163099,-0.31461257337197934,-0.18920311188554853,0.1318918355229894,0.14551853049192773,0.17660018784706033,-0.22139196201740205,-0.18728074233445935,0.06672154416079784
0.24002581291193684,-0.1119317586944705,0.08900039410117674,-0.06911557670514938,0.08689392931167811,-0.2205246583393548,0.23498695432538094,0.1357536815393598,0.13108865550374135,-0.19210459684562584,0.1285748461056664,-0.3492993079758557,0.15677103472946566,-0.12990436454653914,-0.24813923515979397,-0.20352669566665768,-0.36105804236400263,0.11935781503110478,-0.20290253772932815,-0.1860957125801787,0.03600645743084696,0.2649611851215115,0.245311259372611,0.19193767590959782,-0.2340186531897756,0.08355528303495799,0.0765645811528876,-0.0498796908453794,-0.09095518781542092,-0.1272395794597785,0.27248123803750934,0.17610026624631608
0.04723573526288866,0.1487147777990112,-0.36498248101909425,-0.13817959382881223,-0.19359022093664544,-0.1190960826451182,-0.16613730112728564,-0.20454492660728152,0.06857951234201787,0.025993729344683476,0.17966207615106305,0.09625760603320917,-0.11531321802602762,-0.000379522812929537,-0.25836065195248936,-0.026106815623037016,-0.19365978078583504,-0.1790108625328991,-0.11429365288924787,-0.054352964878573294,-0.12903710473163033,0.15898289613901517,0.12290484171400469,0.1204329339096001,0.2941172292360849,-0.052799896279380955,-0.07903607799449597,-0.0018289463428593823,0.04410147674489616,-0.26499346294934056,0.15312225825812883,0.05908834667317871
0.186096659093155,0.04345794127959494,0.0276634823079253,0.024629207616676634,0.29946316320634153,0.04988616602061328,-0.08120669180116269,0.22325777448727488,0.07783644354597134,0.27457296141979326,0.058535984528702095,-0.29852457482716477,-0.12164809402828494,-0.23641610500422444,0.009042486770971815,-0.06243761890366299,-0.3042135734850861,0.1202211791900702,-0.31655907182202603,-0.14944146112627216,-0.21802161271598175,-0.15092280396986973,-0.14861737562006788,0.008637709853189644,-0.18414344136963476,-0.25560197564254006,0.39836473475618656,-0.09547303672674189,0.07345640765149969,0.024328209337235472,-0.05565421500486044,-0.2258651004249816
0.42203528312950694,-0.12858351479148128,0.20424714792660528,-0.004226778092539849,-0.15987084428055737,0.15988400961090263,0.0819687008176911,0.07134049194442499,-0.3252326355015959,-0.05213178453466863,-0.3050162324701523,0.07900467809437818,-0.10642250826782919,0.2965663831188302,-0.09625419429422345,0.005527685572883181,-0.15077181867322037,0.00972082560307171,-0.06196521841251322,-0.10798564727604779,0.012066443122189834,-0.04754523954437478,0.15706955994608224,0.2763817033906542,0.02163322347030763,-0.007463351854234693,-0.16977265741772193,-0.10469216220054062,0.10703306766255473,0.05451393624689617,-0.4075184995895598,-0.18644630422924388
-0.009116480576049258,-0.07812177424384407,-0.38182546059982403,0.18305545624704075,-0.17215226152917507,0.2555857217160124,-0.23422431283148873,0.01706340025779554,-0.001811816470013504,0.05612235733596192,-0.04787079795148179,0.07002455038814603,0.19123442327903425,0.1032284581907529,-0.23901862648498534,-0.15020274919664767,0.1630362750115108,0.08977592245398866,-0.38292757416535544,0.13743073761588456,0.21348384528443576,0.29610102748462097,0.20779376261580462,-0.0656120102875943,0.09574788379526528,0.0664737486512932,0.0019092614804965624,-0.1375621940507613,-0.1027607962614178,0.12751849112713307,-0.12445968520049493,0.126895490970661
0.015613719222386734,-0.05701427687356192,-0.09318623952955118,0.18557148102230092,0.14730644543724733,0.1543198746416452,-0.14312690890193458,0.057561640350352945,-0.09244801446789944,0.08125209798614196,-0.025540378758231723,-0.016273708092243898,0.1265061739931238,-0.0951326536894225,0.06327877257374777,0.19037806245161842,0.20466210617948144,-0.014985796046043507,-0.1367286382887763,-0.0248846788411445,0.047332401283535906,0.03608229009870592,0.09955313373617122,0.061536186216734914,0.3229223552931809,0.08004391928725565,0.0834629128431827,0.22771621481672433,0.07606711281697642,-0.26312417243738684,-0.008308765364106532,-0.1876654083534695
-0.05149528112436907,-0.2544213183418037,-0.1467567621471651,-0.03697479898244375,0.12075751823012354,0.06932137726223295,-0.3145657749214764,-0.24588321171944727,0.12448942343639978,-0.12827230028443568,0.055736366317219364,0.1302810994057172,0.10437475049325154,0.0005143910324705223,-0.12740353045942338,-0.2879062693503333,-0.3716855099448087,0.1721572119782983,0.13296122792678983,-0.045260981210425266,-0.10702674579422526,0.0624719582991668,0.0478081445166331,-0.056391288067235174,0.04404349232724577,-0.09449122171716527,-0.07864157215575042,0.17033596407646787,-0.05534417102785507,0.020642083071061176,-0.026988797232798418,0.2341407713736615
-0.10741537006503388,0.22587844456665307,0.1146178867236531,0.2123766829698628,0.3731304560777147,0.22755626698192627,-0.0653448236463564,-0.03164271279099673,-0.4275382189082604,-0.21516265818180103,0.28263088374287065,0.024580321893980465,0.14631182059135686,-0.019574412937098714,-0.2112510918165565,-0.00968940083894383,-0.30588804037551504,0.19863151316907796,-0.2171746427081796,0.22257832742280784,0.007352465862020153,-0.055141595741962195,-0.05906424651106191,0.31562407057865777,0.07819130698378876,-0.038159548878653166,0.5004707963141882,-0.29587724493241535,-0.028686304251854932,0.029535304632845486,0.2862268426374623,-0.0011474489467518626
0.0144561160287676,-0.18386301240209244,-0.17191679823632675,-0.09971931878610958,0.2422174258671982,0.17988487949790583,-0.16299323515252648,0.0884873700479735,0.12172414509557708,-0.046656932921695746,0.3230814990742453,0.3364963209030968,-0.15422595243104867,-0.1741125344397292,0.019832637947391096,-0.1645235062896735,0.19406770796241476,-0.11743593109161808,0.03643601124944654,-0.0974920030744532,-0.10957547770847317,0.41978589886866347,0.02989652305401504,-0.19680974504061213,0.15829809952784166,0.20163855028194597,0.09890880930920824,0.030851450598908144,0.2682643654094853,-0.07254138032524256,-0.03154770368448878,-0.020240980209510304
-0.07693077426697893,-0.04833318527942185,0.30258708903122616,0.1705007965680311,0.15948295315827732,-0.2762042614353047,-0.1046000888929916,-0.3859172696395932,-0.05847195477195075,-0.06465875307975792,0.25932147762892854,0.10591320936763961,-0.08053042092958414,0.3844314491802577,0.02592548160803732,0.09469326534804076,-0.05023967803382793,-0.04860670589594886,0.5017644124609097,-0.19913517338878226,-0.09704896024942011,0.14621065775168976,-0.08616423750373724,-0.09982964621454732,0.2138262732263202,-0.0017473796108668789,0.007047574274258624,-0.08194019567615549,-0.09036471424381864,-0.19447912762621092,0.2041094859385312,0.04750836940262671
-0.20923422446794068,-0.06794382722705682,-0.09135093457584198,0.19470732946759642,-0.03406483969691695,0.05980849433155272,0.11731554615519713,0.004334691055241665,-0.15479690930111653,-0.2389065564098329,0.06248211133863822,-0.1519343097539212,-0.21270286502760458,0.23306322856464612,-0.3319839755830357,-0.29115377300100864,-0.17591353237568952,-0.29368979092914493,-0.08835861249297561,-0.12976869502113905,-0.2494882802714153,-0.2852542644670806,-0.06416007096108392,-0.35351683284532154,-0.3021096197382412,0.11559132436434193,0.2076961741790659,0.10558902946416915,-0.08557038562954451,0.04470423491878775,-0.02860730983858641,0.11785150198141417
-0.14976808068377126,0.011335300275371586,-0.13131394583780442,-0.06883027242447573,0.1135807755244124,-0.14574017280914833,0.2304691963884772,0.32164449398945855,0.04689154247329795,-0.06127880997456198,-0.04364092938573954,0.0618420341396559,0.21493687909888778,0.25181313964148316,-0.007734425701179902,-0.037074027425567715,-0.14315938530504846,-0.19940523003832247,0.11857558382390229,0.5158684022044353,0.031060132291288154,-0.11548609476474328,-0.1385927264674433,-0.15001380321997768,-0.05222141250974116,0.3076096734501104,-0.10882263745738918,-0.025236396011039802,0.365671081338503,-0.1699438050707423,0.2175155303699137,-0.21268535491059284
-0.29418912761055344,0.07191598112731278,0.14722377214939605,0.23284576658687334,-0.07912668061926399,0.1559474811029885,-0.2824421862284435,-0.12849119931814884,-0.061217733129274476,-0.04366828486681473,0.2279668027065741,0.1561806235315584,-0.09278833352879255,0.008810470078038436,-0.23820793012280994,-0.07807116886808907,-0.26839965565138835,0.030247971676650685,0.005974645634974671,-0.15156475812572293,-0.016046824945015973,-0.24609534819127002,-0.022570975149564933,0.09491364578081272,-0.0021703690085067492,-0.2105858420439922,0.11962267184790258,0.17543094583719335,0.029249927496413784,0.22384795130307628,0.0069934035867541995,-0.1816667320639101
-0.3213267089863366,-0.17939749423707052,-0.262098429900671,-0.13908790435009064,0.3380968395008989,-0.11282639091597298,0.03318608963389921,-0.27501341698092935,0.007427919925064492,0.23841065080172474,-0.20055063267105544,0.053142581919692476,-0.16376841067141737,-0.24231507110685938,-0.37276288758317483,-0.08472217745146032,-0.1497418461915912,0.13619660555498633,0.0627572568333318,-0.053281605216098704,0.035335569109030913,-0.27963830706199955,0.3304240226377695,-0.10632801211271488,0.08546628521837507,-0.2581754841611711,0.4085331621285393,0.28746131150809195,0.41187333235306384,-0.010563305456474551,0.07250234549776273,0.14805296125012535
0.4180250696166673,0.02788100798733415,-0.07952618282975323,0.05447033889535278,-0.17482140303135954,-0.08207782191728655,-0.12816205856961335,0.3324574920825258,0.1960679172762124,0.18314024348033806,-0.0023989904740619253,0.019442357159359245,0.019524062736365942,0.328652826796982,-0.11105066130777853,-0.33710703778513174,-0.3504108824024709,-0.20229752863704878,0.2101787239295954,0.09682866736064089,-0.16396467499020262,0.5023232267352283,0.43714970008239706,0.12978869328420894,0.19111803568048674,-0.02635664494775896,-0.2915742579268135,-0.11239260638645494,-0.07979370302783441,0.029857780027545366,-0.108377104403324,-0.02564632552380386
-0.33534240460541015,0.1661567792384558,-0.32911571979344706,-0.15675431235920345,0.030740230386374353,-0.07509592413743663,0.007233041986345709,-0.11908303038573649,-0.1876645396122105,-0.1364841591120327,-0.03758470486301367,0.14385911266850138,-0.04868459692715038,-0.009753262507476587,-0.37980232793118235,0.14411841226763553,-0.17678058524206416,-0.07839905485297415,0.0022585917105909657,-0.10948029896865097,-0.2042638914944481,-0.17910063147663835,-0.12708012670434274,0.3592181279525233,-0.2023293969109133,-0.1063974712182403,0.011075826819704846,0.17409416673346148,-0.04560567510109685,0.11957368971560817,0.02021514289085144,-0.027192555727849396
0.09226319923354095,-0.35559367035212136,0.06545333676976792,-0.16800737630417611,0.15486617299032956,0.06617706275848625,0.12797271373944902,-0.0836220060379266,-0.0740211743416985,0.06691493935207925,-0.03642301668152216,-0.39860757434935734,0.09579840874768339,0.025810306655637442,-0.3653271241865896,0.08107499241988629,0.30276368939139947,0.03713151532704432,0.40879027422717373,0.0921248846296531,-0.06999045464842328,0.05519251807293558,-0.3400567959961633,0.0875143826311839,0.22838401243334924,0.18193203929394428,0.23431775636822808,0.10559216718107914,-0.4202299240836313,-0.09161082872279973,0.05030847592432015,-0.19307676838428747
-0.25096007504105805,0.015850299448936067,-0.036850591710228316,-0.06864448357998858,0.0767744687127486,0.03746861693078962,-0.026568569652477125,0.17346968806197818,-0.1636226968670844,-0.20888881914372348,0.03855324074840599,0.20856492947228378,0.1381669216231806,0.10273462200564663,-0.19074409455270513,0.026388600688076278,0.006559113760892133,0.18008665685997047,-0.0759923000386162,-0.004664854315772225,-0.17164917057140747,0.2598019584057281,0.11752017280938062,0.029376981213059785,-0.3211488660311767,0.13421937867828834,-0.11424443726220719,0.368438800249541,0.14605688444922127,-0.3605355775909391,0.09636963966582615,-0.468389898437274
0.10510282427349439,-0.010143773958631617,-0.30974574638897295,0.10094430155087641,0.05612920121462038,-0.19539119412788392,-0.29421733481646956,0.04175618063265026,0.18081258255204935,0.0014755320266097818,-0.3168751727834071,-0.0799671846077478,0.1839348378284703,-0.011112090736256528,-0.037854040620177484,-0.20594119994479135,-0.15514568389133462,-0.1207337486797151,0.3662683545291121,-0.248612393957037,0.28617038467300815,-0.20862141500189446,-0.0636790535050649,-0.03317487124485878,0.07348581559461596,-0.0009812014814904108,0.045576870671574225,0.21467698932992285,-0.07198217551998164,-0.015582662328242392,0.16440399153797872,-0.23108519740543157
-0.15913112794396417,-0.19363319517460317,-0.23690007070836355,-0.08515729181722081,-0.23267774138159572,-0.18795498971960076,-0.03656847996256783,0.2190257595615916,-0.42316762501034544,0.05613570080484619,-0.1412460445890102,-0.07900718671518037,-0.060566781352415236,-0.3688343141942132,0.10243917762298091,-0.06473183656789483,-0.09730549384390628,0.0707946351616657,0.20383095300745233,-0.15724295301245994,0.3133951719897195,-0.39716376519443747,0.16781407233477133,0.012228418745058542,0.133195684887537,0.2846183236253818,0.16808680624751915,0.11148190985395967,0.03903303564416009,-0.28535105280747436,-0.11730640296441461,0.3765059740079666
-0.17279843821289975,0.1733277274500664,0.11639077805363238,-0.1393738352173041,-0.042339153722080754,0.005943503229640456,0.12163723613817773,-0.1655397020959424,-0.24947002201682372,-0.05361534455363948,0.08452612947657155,0.16246410580722723,-0.12768554492252657,-0.24237066250349135,0.08758639947326756,0.4245328118039671,-0.11948482671893927,0.29497510253415016,0.07783662421796782,0.04306407634515861,-0.018208488216818083,0.15234065914506467,-0.164503068180183,-0.11832315670864009,-0.30781416033515263,0.20517666445907945,-0.03824192496893078,-0.11589644378062068,0.21945141304243687,0.11899493007007605,0.12822691533318453,-0.1659690046566974
-0.24947630687572234,0.13645460329644038,0.07660062312225902,0.06436896805544222,0.23791329730635472,0.06176248770053846,-0.08229715137625249,0.1925931494244038,-0.2977621320940824,0.008932378435718483,-0.13461738901950188,0.005755886981599162,0.07735901303171355,0.1188485290735559,-0.07100691589140065,-0.1421492815501542,0.22438971064661903,-0.0044785954386922806,-0.05115381404595586,-0.14129464473445796,-0.03620960687508392,0.15820581439308956,0.2842040220393486,0.0312804896819569,0.025191606138423916,-0.35239605307522587,0.07186843115214935,-0.09743111295687824,-0.15764062265149667,0.10804483979485112,-0.20520545706557117,0.3657153550436704
-0.08261410139366926,-0.18113346075973075,0.18571144425185643,-0.08543829343490635,-0.056594713233692494,-0.20349386457966137,0.0917493978148681,0.021313278402555515,0.03386708275352034,0.018072878835754903,0.22660664662104507,0.4647137875269528,0.22492556344357129,0.07597577334195346,-0.13833994985751535,0.14311572625724792,-0.17294508555782698,-0.10180938824993876,-0.31607483611174125,-0.22831269683790398,-0.2566430354393027,-0.3940091524057787,0.12262716237572985,-0.1331803140674316,-0.11752363936892529,-0.049644597291004504,0.05507559574857615,0.07046067202516672,-0.40687729714938936,0.08236515257279492,0.07612334606272016,-0.002057347473966956
0.03896138464837628,0.3553353987612564,-0.03528244399094963,-0.010059810504030847,0.036115800746000584,0.09339757752166257,0.011489756209476818,-0.03409040137125857,-0.0908466827465827,-0.04679417314064115,-0.07789106826564857,0.15830822369963873,0.08505809930884448,-0.03775834100880295,0.14937879475152013,-0.016671941150982514,-0.13661872483939572,0.11067306353818795,0.08152966986980544,-0.09955639756366139,0.26981035853344865,-0.14112896870579378,-0.09362508556398261,-0.09181051584148751,-0.19103683865475482,-0.23784820746865512,-0.2720002122566973,0.048148319844499576,0.06347603217042411,-0.22375628822047897,0.12409471357041203,0.23990469630104275
-0.054477222440747514,0.17876450126124546,-0.10633483451349754,-0.3100593309472328,-0.22105507808513794,-0.05056398746489657,-0.01960978955025488,0.2774182734906936,0.09728376716001916,0.11671704356137082,-0.1359388353983038,0.039013318322556965,0.043818365503241766,-0.23285480729838418,0.04561820305382479,-0.04423676045581358,0.03641686846453221,-0.12892157902254198,0.05757641315173629,-0.2582627443967407,-0.031511308066625256,0.14973328898696175,-0.15964123233978522,-0.14117891802167004,-0.0031533124362797186,-0.04149786702129994,0.2777554590614496,-0.09339239234755821,-0.16495493188997068,0.1580436442726457,0.08964148930973835,0.362822121477374
0.24270510015178992,-0.3940188625196845,-0.18773792940486772,0.18991429492648426,0.138102260209575,-0.042407936966511905,0.3887123904023745,0.27431345968574095,0.13664478666454088,-0.11745114507237302,0.30135125733719226,-0.07200396815883744,0.22780610590397196,0.13160433367538354,0.14946019259483684,0.013977260875334407,-0.08223645367036866,0.4119892751830203,-0.040190975273464075,-0.31207545355841587,-0.2103697409091027,-0.003995888896642321,0.06140482367187094,-0.21493642128767834,-0.1403904809864177,0.0287962558660376,0.21132111966364106,-0.06641856576025491,-0.016688016658260328,-0.15551449172040896,-0.10417790950468646,-0.20545238578402467
0.08419463928836872,-0.09008633911705688,0.29737981248673145,-0.004270254452266834,-0.03571532504422778,-0.30741764618875445,-0.2310934878245899,-0.08221647547422165,0.19998677162151648,-0.1291522789808117,0.09223681920580933,0.30892459546103196,-0.16831405293792231,-0.07429481483027664,-0.26494503068603736,0.10402738842245109,0.007508618832922637,-0.06891686987127978,0.08458580465097502,-0.053534109831255776,-0.2044862847326901,-0.13724054587536075,-0.011079376723610403,-0.08252222265607004,-0.21027558747849498,-0.07069708100523787,0.2719072674855363,0.37964773379137684,-0.12747403238919855,-0.10469957865028702,-0.11881832553867656,0.05500412637091517
-0.16078802214431734,-0.016966284910469934,-0.32906149461702117,0.07604191924221304,-0.05147859043395446,0.16391623693306032,0.2524041340930086,-0.40850008391470366,-0.14678387953167846,0.20575779598794372,-0.26440138945322855,0.18331238331880756,-0.1954173743346721,0.13845945088758066,0.10864203131764785,-0.1389726570067525,0.13100086074498482,0.3837692835171296,0.014346061090864228,0.5804331505711269,-0.0222503251308042,0.2740404786674905,0.1053276538049798,-0.04030529888607367,-0.05642677828154996,-0.2953117924947729,0.08722464700780366,-0.07136040330110582,0.2785270241446364,-0.10025764718063505,-0.006853041271750676,0.5100317921812827
0.03201685850324405,0.35961122637751397,-0.1147338692585786,-0.022400582617800566,-0.07800355408987425,0.16635441208109292,-0.18508059166445964,-0.05368978004558256,0.19650247953786182,-0.08036435290722896,-0.05136376218933967,0.040006023029135473,0.15952304689899868,-0.42095354511622557,0.39350665697697057,-0.02941868031290506,0.17650474880354153,-0.06639308724805167,0.12734180969335998,-0.4621634460997418,-0.126139318640434,0.15829799230643407,0.0810289262658016,0.32982111161179684,0.1602862426516529,0.3330896011185849,0.17102433811377035,-0.08598564278859602,-0.2968289509392765,-0.210232326526504,-0.2322870282377757,0.039842892276475785
0.06405593879083424,0.021291955665024412,0.2372830161478166,-0.04040203860552994,0.08219940645905204,-0.2152254511476411,0.06945787180076778,-0.06458453717204685,-0.08114247413627812,0.047038822816418635,-0.08974026546012841,0.13553806458714593,-0.0751556815781391,-0.016028940789502535,0.10437387741208469,-0.10451496808450254,-0.6017720044896948,0.18389310202858794,-0.09655755952220267,-0.06274253606279531,0.06444205002352917,0.22723230813362397,-0.13309253143238262,-0.37913285051479023,-0.14224092551889522,0.20239900127954602,-0.33909853441846866,-0.1136228202559113,-0.2687481081993753,0.1145444502839336,-0.16382291959277218,0.14246222012806287
-0.257439725371937,0.30634836198805854,0.1573370957430262,-0.041500092173255454,0.0005342966971193849,-0.12739912342242984,-0.06027079170345215,0.34753158285025015,0.15590254166580855,-0.07235719791427817,0.258287745578664,-0.07284869903324989,0.3858290220520776,-0.026685912048996695,0.033951879694180294,0.03671867099848933,0.11124483962400085,-0.12172120721520607,0.14051116255954724,-0.1935934763139481,0.4340329890219948,0.3070137432583392,0.06648945245400376,-0.22350161703880783,0.21063643799703854,0.22230599062149148,-0.12289150039096108,0.005502911224540914,0.28769228399859736,-0.002002491935476965,-0.13168935634583442,-0.1288950670419562
0.012475574228160495,-0.025114220196138844,-0.3332592342469293,0.0032301096157320856,-0.1980271488734088,0.17244424277933662,-0.11664584818742994,0.09937256012090823,0.029182014616675023,-0.14835697833277245,-0.11788921329256612,-0.24038597774236575,0.16632557593081534,0.13774832128790468,-0.04839685411761977,0.28541231578860693,-0.015371735427458098,0.27096094702808493,0.3344650247926923,0.30514330687377217,-0.1869920372743915,-0.09638916210312379,0.164048368527281,-0.22445832774211386,0.10804083077263753,-0.27096383682876213,-0.4003729412134587,-0.07766936576689862,0.4546127533353918,-0.220191407109665,0.11559917089794418,-0.03349763962465394
0.043996547447727796,0.005023228410730612,-0.23876367412477925,0.24160039978704384,-0.05924273376972101,-0.028517827916301038,-0.12198908612694133,-0.2440276543219628,0.040287415182816116,0.21172837569324562,0.06184533345615816,0.03368231050183055,0.06129071664069285,0.25352088847988874,0.09033191096782171,-0.31158056081278007,0.16411295528598216,0.10696520161879006,-0.18171940494667616,0.31392420837496976,0.09487192639249051,-0.020161474414508544,-0.09710540857496579,0.134031819483474,0.11498413300853633,-0.3482592971994881,0.037125936736988635,-0.4934698119389591,-0.22855577988654252,-0.15240893991525167,-0.06440853481079482,-0.1447838031251092
0.17087805800365638,-0.06313382555500584,0.1791074297414668,0.17024207412760745,0.33673429016229134,-0.2529852723243286,-0.1205122966540692,-0.04370654577173596,0.05196464580554613,-0.2422455351509734,-0.08549614169794711,-0.14348633755654505,0.06047929717732185,0.004690865348174537,-0.00030696716033010255,-0.24384521632358805,0.01892826225651724,0.24522029337085954,0.02861412627259357,-0.14554949564073688,0.23100271829669441,0.030681282243686634,0.046807861200448934,-0.06396329655144299,0.3229335366642596,-0.08842315589157412,0.06181306365423342,0.08976684148207448,-0.1306013452162537,0.26818875036527223,0.1792047907388007,0.28206536879827643
0.09279421066119965,0.0029526322236925846,0.11927644133359724,-0.05183981817156711,-0.45564150528974423,-0.1092133108574781,0.09520164358550037,0.24040850810508296,-0.002595375321955159,-0.07814526241048304,0.11788250531052277,0.20309578708780565,0.018676563183491507,-0.1361735246984645,0.02894876801818122,0.05660571115718693,-0.5503961436230986,-0.1057700891792035,-0.2399584803131976,-0.3754743057844255,-0.09728980589308998,-0.07537261565846044,-0.10217582641917931,0.1915341296720023,-0.040030008421882236,0.1893117111329865,-0.29725616368907,0.1461787407519644,-0.07709049323430951,-0.10215621291342394,-0.22090153288401673,0.22849540618873734
0.22840180813551764,-0.15265575693895395,-0.18594536949156096,-0.033900020040571216,-0.14986593269256446,-0.04686055185964338,-0.2866461938758077,0.00396413602118437,-0.06602759889030702,-0.09390669555483178,-0.14608005641804211,-0.3122719867829799,0.11128982038537569,-0.12969918447120035,0.027555579054470872,0.11577404597931898,0.09546161472844991,0.07886500899722396,0.11570704837601828,-0.04820290406666861,-0.3694081713020211,-0.14565152884695126,0.2051098414467441,0.12864643099407067,0.24175907061855187,0.0258942732369236,0.008256870255656202,-0.25125886559366223,0.5716430731662999,0.09301115199587254,0.05082202054174295,-0.11365554585876703

hidden2_to_output:
0.999771462246708
-0.20048738349136172
0.0287191444351343
0.07443959118774879
-0.0904223020374291
0.06981317083877141
-0.15978585750895247
-0.012301169180300553
-0.11828966388779828
-0.1524871959200535
0.002715740717506765
-0.23017118974768389
-0.12183908231165974
-0.3163404027519661
0.28409589511351535
-0.012530161799954576
0.49482121868311385
-0.07349886303615208
0.11525213707057247
0.094381209305317
0.24514983561850118
0.1368835024396715
-0.6331178215779059
0.07570604765170233
-0.6728458870581896
-0.15941295522838062
-0.09367106342092403
-0.2558195212432463
-0.22982963574510837
0.11832778367031649
-0.19568712301982216
-0.16634403534865003
0.000512469504314962

