input_to_hidden1:
1.000274533461557,0.9996889237424575,0.9997675541791213,1.000162159853309,0.9992705255690869,1.0000686956602338,0.9998899702610472,0.9999144275174502,1.0000891736264477,0.9998912073030432,0.9999063558464047,0.9998843052250254,0.9997785431013742,1.0001251208566717,0.9998396098922552,0.9998273607393843,0.999458441900511,1.0000086070053171,1.0003236086806324,0.9998133416907994,0.9991617431121227,1.0001412426940277,0.9996832084328208,1.000130628014662,1.0013136762336918,0.999640531140331,0.9999208857961722,0.9997818189067605,1.0003533228837667,0.9999839917478424,1.0004393511144098,0.9998237373532618,0.9997437754186775,0.9996409562613724,1.0001493393493062,0.9996402327904954,1.0003132118600107,1.0028862885265741,0.9994999804842677,1.0000553099252225,1.00233983987783,0.9999292549504708,1.0004791830264081,1.000224059563847,1.0000211278430986,0.9999154061465202,1.0000672348963555,0.9976826318890566,0.9999915634709267,1.0002998290510008,1.0000430129803592,1.000041915615622,1.000399812004815,1.0003440561540764,0.9996614732622267,1.0004397775920326,1.0002614064255222,0.9999378700821143,1.000309619424296,0.9995538087728292,1.0005104651167802,1.00030597859968,1.000191629879431,0.9994366398855564,1.000173445026524,0.9998919757640159,1.0004516189017583,1.0,1.0003504732866877,0.9997049461571145,1.0002099578840506,1.0003528696119777,1.0002656321745869,0.9995371510854957,1.0004934655560942,0.999959077915896,0.9998006350171555,1.0000079439826886,1.0003168743064446,0.9996548391509353,1.0003041200079343,1.0001354404727603,0.9998156322891216,0.9992789451276127,1.00036599607697,0.9995881896456424,0.9999774374654522,1.000756917317022,1.000279615099256,0.9996627221639124,0.9999142729028635,0.9990466151789925,0.9999584504367983,0.9999289021624725,1.0007254674140753,1.0000117538477944,1.0003371871084121,1.0000597646471217,1.0001389637430718,0.9997973843292518,0.9996692081486234,0.9999221774945822,1.0001263895277985,0.9994474920315913,0.9998910793314513,1.0002092595868193,1.0000698701445725,0.9996867821521203,0.9999590481854237,1.000744575118549,1.000507034591181,1.0000242374324257,0.9998066564490559,0.9976229302604545,0.9994722038461284,1.0004832730453135,0.999820865059166,0.9973920955823476,0.9999492647036536,1.00077202521176,1.0003559497845707,0.99992817812195,0.9997016820896123,1.000307895468535,0.9999544194007026,1.0002817688264876,0.9998961336196565,0.9998377842838151,1.0000291591397827,0.9998099308097925,0.9978712207317804,0.9998527253684362,0.9994455991297395,1.0003636408003234,1.0003883987039186,0.999681831372376,0.9995703617271441,0.9998079004328342,0.9996856119812302,1.0002574200270522,1.000434236219313,1.0003004034865675,1.0002233038110147,1.0000456770520874,0.9997822721582398,1.0000153172215185,0.9998930870626432,0.9997169812025574,1.0003606686165112,1.0001028687439069,1.0000612403838394,1.000264352662286,1.0002094939366526,0.999498472148497,0.9996534808117843,1.0000710370792927,1.0,1.0002826060576313,0.9997208449632501,0.999513057199253,1.0015796702614288,0.9997427787347428,1.0002204039812685,1.000345161214143,0.9993629560335883,1.0000998458559796,1.0003871242468392,1.0001123240173977,1.0002070794039,0.9999784334376055,1.0002310539269306,1.0000573065996334,1.0004076061401568,0.9996367571383841,1.0005568302313483,1.000414973284514,1.000390908584413,1.0001349518082654,1.000133303250513,1.00058534645988,0.9999952408426638,0.9998673356324587,1.000589407785962,1.000374747704821,0.9997197956099764,0.9988939447600048,1.000802138463585,0.9998837404303831,1.0002312431181544,0.999472878813904,1.0003857673299257,0.9999563867950397,1.0000697271882508,1.0002725551010812,1.000141971312464,0.999400996400422,1.0000806302237988,1.000002831608939,1.0009975498516206,0.9999501549792391,0.998966253112556,1.0002620914173577,0.9995790942139845,1.0000337037778049,0.9998896889910974,0.9991581884953368,1.0001262591299962,0.9986759548239527,0.999849596199986,0.9999600718536106,1.00038488720757,1.0019501073349777,1.0004898455717206,1.00001328394301,1.0002842949140083,1.0000013415774134,1.000043205820767,0.999919890665435,0.9995888702387941,0.9998850663840648,0.9997030831921684,0.9999677262746142,1.0002681783733434,0.9998849762290231,1.0003085342996891,1.000115946373708,0.9994207699380749,0.9996403727201539,1.000080447318775,1.0007913227177023,0.9996030125886316,1.000287643284659,1.0000298431281243,0.9999203754843172,1.0005966491263596,1.0003590314572548,1.0001241676404253,1.0000890090127796,1.000013572839176,0.9999025275068107,0.9985638535273287,1.000340398613715,1.0001179817644885,0.9998772133695548,1.0,0.9995409773148447,0.9977315819114934,1.000085590492949,0.999786768145119,1.0008661457065073,0.9998181500298416,0.9994243251135846,0.9998057296217164,0.9994992546337266,1.0001383394737062,1.0001779418554708,0.9997173331232494,0.9998872766125873,1.00021743826629,1.0001935062298903,0.9999128813376246,1.0000208548683989,1.0012695938582075,0.999933548134211,0.9998177174774406,1.0000641798139125,0.9998886089622082,0.9998608654705325,0.9997389481240194,1.0005419955394501,1.000013077852124,0.9993642220489781,1.0001647972555252,1.000109294835326,1.0002419254961,0.9997058896223469,0.9999391563039769,0.9997130026208819,1.000107950739986,0.999738458829705,0.9998526125618397,0.9993038543732599,0.99996145533952,1.0001818753316416,0.9998373088756254,0.9997642857128649,1.0003420086582284,0.9999061198248688,0.9996849390224617,0.9998009685605831,1.0000863819081434,1.0000803720278781,1.0004159136484891,0.9978015313885535,1.0000738412915158,1.0001069194873664,1.0002585737050456,1.000246584744632,0.9996992306009957,1.0001629730560067,0.999982059131864,0.9999606522022314,0.9995015967187841,0.9988887956394296,1.0001126233786604,1.0011885758050654,0.9995676095338927,1.0002709751536154,0.9997534649628894,0.9999616215732039,0.9999906323019416,1.0006914097037483,0.9990883906333381,0.9998947234045746,0.9997731595717066,0.9999178706495074,0.999983275941648,0.9995187608028571,1.000435039763611,0.9995355891980974,1.001045134637554,1.000551700775384,1.0003678977129618,0.9999889422490211,1.0001263733894035,0.9996287244266835,1.000261822584216,0.9998659525480053,1.0003102985317172,1.0002116280609121,0.9999222606887015,0.9999279413799443,0.999893268880226,0.9996765211685906,0.9999534939168974,0.9990003939303386,1.0001198035717476,0.9999798361024068,1.001275145775052,1.000185456482266,1.0004827007660193,1.0000037710337066,1.0008245389802326,1.000243116617762,0.999980380431559,0.9999811556068764,0.9998994590378514,0.999646243215532,0.9996923405168767,1.0000765664168823,1.0000537244274006,1.0000210742281137,0.9994743456838014,1.000262056867711,1.0000784709849464,1.000052059611564,1.0003587676259693,1.004398764766533,0.9995411293836578,0.9996825338741612,0.9996151684120516,0.9992993478125181,0.9998029532801235,1.0002910239135694,1.0001208941873,0.9996982304469271,0.9996582099023166,0.9998262949916886,1.0000317178772755,1.0001254908334196,0.9998734073295944,1.0002214943553727,1.000210538036608,1.000063408843912,1.0001048372895633,1.0004536988911692,0.99990018234196,0.999550199305963,0.9995290284856847,0.9995050117407884,1.0001945577312985,1.0000335355079462,1.000336763234693,0.9992713156854532,1.0000684824961557,1.0041711158321975,0.9996611137966952,1.0005724529495073,1.0002116814805453,1.000196291408753,1.0006000217698494,1.0001068327014215,1.000385145786329,0.9996601488922291,0.9993591143820155,0.99993958603303,0.9998557940007415,0.999904653642094,0.9978172071895035,0.9995022194733848,1.000145503909571,0.9998360912800007,1.000494188032096,0.999780780242801,1.0002406390118341,1.0002035867830479,1.0003607681697293,0.9998240526736707,0.9992658331228053,0.9998804671621497,1.0001727323568128,1.001513867399604,0.9996163042226703,1.0002708981151327,0.999480954613002,0.9998622994266664,0.9999237160042497,0.9998521724876641,0.9995642286849437,0.9999365636247145,0.9995795841823784,1.0002213514067164,1.0006099589639763,1.0000032425928704,0.999998503212884,0.9999729450767413,1.0001180910485947,0.9999287227721584,0.9996972575834027,1.0003942161270865,1.0000812546177833,0.9988183281383953,1.0006543425434962,1.0001416075734164,1.0001535654492204,0.9999977378988232,0.9990227956602034,1.0005618012388386,0.9996811909171597,0.9974269689669768,1.0005153256810193,0.9992849630411015,0.9999935398425714,1.0004535992792392,1.000344842867323,0.9995978268868053,0.9995529531592909,1.0003775816992102,0.9998855417428758,0.9998580183552931,1.0002604257127197,0.9996641424683314,0.9999919869982571,0.9999295908589061,1.0005928412239005,0.9998895876787397,0.9993451814712355,1.000410077426805,1.0000636500872941,0.9995544712264236,0.9996303260443669,0.9997092465624233,0.999768010677502,0.9991851218756367,0.999841919769473,0.9992008507833412,1.0005774762297248,1.0002370600830996,0.9998141432136988,0.9996285678122543,0.9997599805314135,1.0053209194243866,1.000534596798007,0.9997892472099169,1.0000588999445112,0.9994724493547656,0.9998402656801684,1.0002308668245392,1.000653624136719,1.0005044544710304,0.9993805292060853,0.999773948316315,1.000141039988886,0.9995931956294895,1.0005189282301974,0.9994838278274619,0.9998272781564875,1.0004341400112824,1.0002196088001125,1.0000214514138763,1.000277650124379,1.0003903028242789,0.9998089125000335,0.9996887280140727,0.9997269204271586,0.9997439166948467,1.0,0.9994950650915444,0.9999133191812787,1.0000688526593489,1.0002620692937338,0.9991461486142591,0.9994204030035992,0.9995849102408557,1.0001183697623048,1.0002678038388086,1.0000292850454582,0.9995617789353924,0.9994830447316108,0.9992713752803949,0.9996053985668547,1.0004057289313288
0.23308285495910533,-0.37161035205191084,0.5676108018299529,-0.4798028010740016,-0.15926141819078068,-0.6619377137679964,-0.03207579524807375,-0.43908614201839435,-0.1055516072161762,-0.2961772163445711,0.5922367988518309,0.3743554440336228,-0.14934508318794806,-0.33288899574600633,-0.18425480040935044,-0.1901765661045282,0.5946606438983385,0.09932320543119263,0.29664278117676285,-0.1606300824097746,-0.2431918960871233,0.42827292477376466,-0.2986422331703236,0.8336461670727429,-0.073248584491354,-1.2166871576765454,-0.18373461456543014,0.6912926304218515,-0.23904477388261083,-0.3169898775434957,0.41618377645657467,-0.04535186225798986,-0.013916340719983763,0.22150256151095923,-0.6232130452499407,-0.3454382901647315,0.14768968762752588,0.3708489057671276,0.43468078180017483,-0.2903052763252576,0.057798849414990396,-0.45443056675680643,-1.2168372501061837,-0.23251188187754965,-0.8663951736139103,-0.270534542230238,0.2658810737333703,0.6725894111914147,-0.42156185893108816,-0.361595169070149,0.03844413241978446,0.2518148084676248,0.24025656423946787,-0.9423624242294472,0.20282664289510802,0.43130328034662135,-0.293536072273212,0.11958594138939099,0.2542596923678596,-0.3273755809972889,-0.2786368597864197,-0.08076730779716323,0.42460406521639094,-0.5951663778886555,0.5191713662600994,0.5100891586311224,-0.07581236172906676,0.056245489751137516,-0.27067544435554086,0.3060738012173618,-0.11564738837735324,-0.10684779124506366,0.7229263491455756,-0.4019033143111171,-0.7099320627950472,-0.6694742466584443,0.21248307969213573,0.3082374907474818,0.17909839982287637,0.6132429121826926,-0.5130388498990187,0.17588034760750623,-0.3325909993319361,0.05152343820987319,-0.13987070628760195,0.12397713174262678,0.7245051180203113,-0.1764906012474139,-0.1121666217427983,-0.37433429032483434,-0.34152136819836615,-0.4996946792729709,0.07730930227159237,-0.38030612023217564,-0.5227596622200681,-0.46628257102323123,-0.1509777462042381,-0.0811474699394715,0.15905624618844744,-0.004515357099152294,0.7537817918264802,-0.3151667868300865,0.3312696178892737,0.006287900018113229,-0.3227763116056074,0.2673286733210564,-0.32598997663042323,-0.33926095585786287,0.1347067880462083,-0.12418994388442005,0.2669148833581901,-0.012751055988894847,-0.20076949726475551,0.12409790505579392,-0.9524303031593244,-0.5006929082895514,-0.40115347169768845,-0.1344171436276365,0.43925535849007746,0.23754801377531784,-0.21738998202082496,0.6099818489832219,-0.02334216546931539,0.24911354906744648,-0.20186584965647497,0.06869286796503633,-0.43852448623832146,0.1171087101839345,0.33843249468333286,-0.1522923057342926,-0.23324021387773913,0.3527809297867738,0.23981890137301481,0.0020237944719088403,-0.2779480356366604,-0.25659516663485316,0.08327776307911344,0.11417264885535658,-0.6975678186785361,0.06410641570648741,0.23338501265728637,0.07483239133031482,0.08296398820796702,0.20729863375547272,-0.20164483807772013,0.3311311391352707,-0.02229908266679038,-0.18635363127482715,-0.037210245663709764,-0.3841751570854621,0.14123534470352825,0.644295216187292,-0.12524963569652964,0.14665554441624154,0.05875103196715584,-0.16864785696217544,-0.6465764544447234,-0.175369806138074,-0.639878314007524,0.17463571941977712,-0.08877768830764277,0.3511689657986994,0.5304894914227184,0.9007531974509275,0.3445585761966331,0.1069146069844262,-0.10759138989516902,-0.30960888352287624,0.23773551031310972,-0.14846349864134878,0.43330466599885764,0.12500879310991217,0.2714018443465348,-0.0845667361367243,0.45504071543485214,-0.44315106132557375,-0.9025111859735854,-0.139512527048455,-0.5285788310208521,-0.1367887462194307,-0.33976192788925974,0.0060369825325635035,-0.3057081280338983,-0.8185383660187437,0.08671088203963287,0.14154552422590969,0.22180340671431975,0.38848725642404747,-0.4086653772287297,0.07450456288254778,0.14418345674536465,0.30670140347666536,0.7336320944035576,0.1001817814799047,-0.217819024315374,-0.804846619582267,0.4370429055675422,-0.413266402835392,-0.33681067890061517,0.6662748457143184,-0.20120395068716102,1.0589414376166237,0.7974826826321364,-0.2204270760286282,0.09634395512760903,0.4830076352315664,0.4737645553478304,0.1898015812966208,0.1773833125261254,0.49317528615946093,-0.1575974952061806,-0.7213273006506332,0.5558500566947967,-0.24126532134080855,-0.6245886652061279,-0.1627339367533875,-0.5492175194025937,0.0819628021778937,0.28528685062239045,0.5360556095432435,0.8150915000524732,0.0572151972817117,0.10198749802094327,0.21973380165318088,0.22066678280170593,-0.013904626390407472,-0.3433648603629648,-0.030053429618835087,0.42964813060608725,0.3125941466946645,-0.43542342623450636,0.028891648923137087,0.5510263754842046,-0.07797283267187675,-0.05556389974583402,-0.3824799283839344,-0.6966170958740809,-0.08573333173843756,0.6270937362320751,-0.4364656618644377,0.3309878779341723,0.08549573024054667,0.7125460462004201,1.1325283158155637,-0.016230231625734916,0.21285231084797127,-0.14677492539750725,0.3615682488318467,-0.23629166299949844,-0.12201116494168598,0.3262866932189579,-0.11882267224020399,-0.9741288696044151,1.3443787232363518,0.3126777358805498,-0.02021804129548107,0.09232691269726619,0.21585556813411785,0.16268603377235896,0.26577040064990476,0.13466880894085734,-0.7034279638766627,-0.36786360333874324,0.14046725521132952,-0.3544961628721089,0.3533054992758576,0.21200360857684694,-0.17970371440603997,-0.065637067544846,0.0012108913205295551,0.4608949694898237,0.20960918197736794,0.4684408747988021,0.06526379284195123,-0.1241853426548368,-0.495045914523488,-0.35416340566887106,0.2504753689680937,0.4344275907855805,0.29822253861039444,0.14203619722123928,-0.33770386747530656,-0.07532579403010202,0.13534874283585357,-0.2448850757810951,0.4267593617616293,0.06274517096545393,-0.024797027311818414,0.1257439038259834,0.4588924504721461,-0.028338252549144394,-0.37374412503924487,0.5764662189936653,-0.11105293077911152,0.4472581924542946,0.37494969277091833,0.37425628823721735,0.672202159029217,-0.03048637580579662,0.08381376910399188,-0.388760467195148,0.41733919774161266,0.4716325230549613,-0.2540057678552873,-0.12634503074000994,0.2456255858811265,0.6872734397121543,0.049004458133254235,-0.3758299169927169,0.27158057293357357,0.2683310908797972,-0.14470461379918795,0.7024416222392732,-0.1761113196636237,0.06518841240914897,0.05782568403778148,0.9521355005387999,-0.3687122122968721,0.013639634798345481,-0.19101448292201895,0.04442571541171191,0.650197178720209,0.9130177140535156,-0.046260515980656024,0.9407439846880791,-0.27485885951730005,0.28326814027364744,0.1315696721238324,-0.017289053677560486,0.12675629767853416,0.03180716340506971,0.20473581274052102,0.024579866758221207,0.1380424295387267,0.10858850854643501,0.08782801496154224,-1.0739953617349285,-0.32761551609875456,0.6673007842249021,-0.084469346322665,-0.5466183955698779,0.148088088591969,0.540622463021572,-0.3796180734830312,0.5515803615905648,0.579714868882942,0.15639983197267882,0.1618949904279419,-0.19053810619622596,-0.07434157472365559,0.682808944113278,0.6805571923416533,-0.08997790197709318,-0.21120126002956932,-0.2308275749553335,-0.16367247344899138,0.021964439165449986,-0.9266235981470329,0.24428777900691698,0.19572820937163185,-0.6679765220248055,-0.19972202294491603,-0.15770909273638212,-0.27644974974314623,0.22240496680590058,0.10830494787930463,-0.04412714560397412,-0.3908270356751981,-0.40360313130772424,-0.8281885871712703,0.11058473755254475,-0.5300260697851297,-0.36953626488461366,0.3854314443081294,-0.2764215226276316,0.22491507227623425,0.05870083808212152,-0.2743696946662951,0.20523784653097885,-0.1606793798811568,-0.02990041413996392,-0.5729384821053257,-0.41111376811717737,-0.12126063348320372,-0.16002104377454476,-0.4061764353789219,0.4220124950148234,0.7983759906239404,0.31249858225472316,0.8271438618928337,0.6301467648827391,-0.27591198006947354,-0.5609751679882563,-0.4738700251609921,-0.710527945658574,-0.34629285469194965,-0.24030527047693243,0.39485579687185574,0.16112320374255726,-0.21425846369180088,-0.3234895506807021,0.1993241049258818,0.3410648678467138,0.236777206404207,0.44811531334737037,0.3966034774241843,0.22360456907095372,0.3798538054034084,-0.6267598620240821,-0.34993864734119695,0.3439471876198016,-0.037458617468473523,-1.0596346760117201,0.20783541328388833,-0.3986213460422453,0.12004014908409494,-0.22178241791070538,1.170724351207691,-0.4765769223345523,0.4570696635153283,-0.16911914053560637,0.15548050345992478,-0.0746356287482724,-0.10894680011473896,-0.623618261942214,-0.07746914944979401,0.11005001310042332,-1.2317523086194389,-0.022443690237401656,-0.42914526652018126,0.538366762175704,-0.030209173304421914,0.17442867656383382,0.21098627697954386,0.7241288532763894,-0.2115117828451588,-0.41063241588363103,-0.18053885095750813,-0.17828587014610495,-1.2275671815554334,0.33961921490056246,-0.450424991104407,0.0988966336359804,0.7399419511017673,-0.3261807087899487,-0.16677471948958636,-0.039468913507168635,-0.23710252259283904,0.5613958238918189,0.0970796897654684,0.653903571755921,-0.5719612491253286,0.015344269515747612,0.09843748160127126,-0.14641544128468528,-0.2431282668366627,-0.7462564076115354,0.06139028233657668,-0.4325031193071709,-0.4033652121656863,-0.5497917159394521,-0.05077391628898606,-0.12562726013327205,0.34627352311161885,0.13419565791895371,-0.02691605268909016,0.35063278851182733,-0.3835123533256367,-0.4322323733591038,0.23359126049101692,-0.194511394800728,0.30759170321099316,0.47076389521945833,-0.630215817881523,0.10257121796714043,-0.06665754968352561,0.3879148397892628,0.13947642864475804,-0.2505719802453731,1.223938044736694,0.2198881269132906,-0.26472093329911,0.014038699763762277,0.6450168415592261,-0.07115178204630274,-0.22712776491409337,-0.7443521620945867,-0.024322384073573462,-0.29863371193324223,-0.3571189451474375,-0.6761340375513857,-0.2388986907092847,0.10082968010834187,0.35639651915929116,-0.23485009030897844,-0.5360109907889148,-0.7326219359754882,-0.0872375550735038,-0.26048794712419276,-0.24382495848158756,0.17359060395310397,-0.5549537842010284,0.39963184324026285,0.39289461886344507,-0.2349467748075837,1.0855581486515717,-0.005710538939471615,-0.3771729127109368,1.1189966765979436,0.44802113909269003,0.189054604988728,-0.8581477215214849
-0.6505113165622254,-0.7050432595035292,0.14248779624718502,-0.25223414379684905,-0.5783226193163928,0.13685554160449492,0.2778118011383263,-0.37586243630279453,0.4006604968267972,0.60865314169036,0.11309010088824742,0.1518574727992894,-0.33844024228272146,-0.0820354565964266,-0.1269907641813302,0.037392200236124475,0.23710838609971685,-0.7293154004734029,-0.8968440096428094,0.2706498113172827,-0.42820420809421694,-0.41503943494515705,-0.0746570019559829,0.045186041394801105,-0.4971060874150644,0.15199982479126292,0.24331411433746666,-0.4260895189542408,0.09894619430832316,0.603878113389242,0.09222067334615582,-0.08807370281279725,0.1080997033097312,-0.5756261311970421,-0.3544895645603923,-0.2232786187310509,-0.04222820685362358,-0.6441253939127293,-0.12752914394761083,0.18978534301528216,0.48516062358990764,0.006703598540418321,0.31120915974696883,0.258051364544563,-0.15800834477489634,-0.12955028385365358,-0.10394260139286093,-0.49656773357064743,0.23812580902980032,0.6679906154836389,-0.14583227109904556,0.18935120793624963,0.1644109983797201,-0.02902124442450338,-0.41108431026794534,0.01829783847205704,-0.08623046894587176,-0.47131358533251866,-0.3556251727209112,-0.5036170076031321,-0.09034461301827246,-0.03684292580282686,0.13337263778160052,0.015660552073785566,-0.44669003012703623,0.10967887743926281,-0.12624168136603586,-0.17869856467000625,0.3058582685060747,0.4435087173635231,0.7575538774333316,0.5310705734525553,-0.7996327961379744,-0.7892692045036613,-0.48872670903347654,-0.034866735903651455,-0.27627316133110835,0.8656698983668261,0.6731144086853623,-0.4606976304819272,-0.05561800338294339,-0.8477605686104677,-0.14268865828855387,-0.7693606749055351,0.07995665333804762,-0.4137374841243656,0.08283324713529494,0.17982736959113518,0.10427525474291773,0.8152101065760724,-0.054301804341302835,-0.05952914420763669,0.2369286739554403,-0.09897406830608353,-0.09842540242349396,-0.07008170230435642,0.3485819923019421,-0.21541972435078285,-0.10344735497254177,0.08038017678249486,0.34596397088546926,-0.25256914572554084,0.5255736282887614,-0.42425303500967204,0.26523038792969866,-0.32105914935406954,-0.9026548760655745,-0.32698318700208723,-0.37283041707540726,0.26094869144993277,-0.22017732499489048,0.03805489790392018,-0.1997454606507556,0.03489167901488493,-0.015586280265489182,-0.05619407201907602,-0.6144634752447318,-0.15273777753236117,0.426506204622177,-0.7283835848510523,-0.19407680583721348,0.22567659531434614,0.1673893238603395,-0.0835986295477226,-0.1972856203865081,0.43564103434241,-0.19870995545380657,0.6496996081100559,-0.31879246595609906,0.7204896110831143,-0.27652250325033856,-0.0630953796810488,-0.5011500773965654,0.04869457878816622,0.14421781246189005,0.12784808369036482,-0.10795641852905637,0.5158628960475782,0.10500529900610842,0.38817299394623733,-0.05304700369280683,0.8982138785587505,0.6075855207356969,-0.3551138915463679,0.18644592456352463,0.6199242872422138,-0.6506927174174307,0.597809816815894,0.07483245110282921,0.5972479235111184,0.24834191978496833,0.32429960184359213,0.27651631003808896,-0.5918847868991053,0.7122962426836695,0.5247051866011995,-0.04986935552229874,-0.3228975634725828,0.2475473900377952,-0.43087619780983366,0.18059432670384784,0.12577002931815684,-0.3528708247573024,0.12449722369992457,0.2913265828832549,-0.6930048624317187,0.11039379189926495,-0.7875958213923314,0.04911930720560688,0.05005114182117366,0.518197063033085,-0.6260461970266523,-0.6094159768890507,0.5101412853494487,0.1198779562765415,0.1779203400622222,-0.43963129878569274,0.09315394494717241,0.0599505309660945,-0.17428924306488902,0.4010660251780972,-0.554625571445944,-0.20538141762734108,-0.4702389549343944,-0.22213372351914965,0.2943089909282411,0.4400878166798039,0.30264818812836386,-0.15478801297428132,0.15500449275374856,-0.3562579382422592,0.41559517050253847,-0.09945770056026894,0.4763584976738756,0.9303899627269338,-0.23315234893886463,-0.4072816183287002,0.36628675047397113,-0.24041447126281398,0.34192310058507625,-0.05694352642128782,0.5218531935429032,-0.37921010688313467,0.08642290905697919,0.1765779648888738,0.749748190527621,0.004756255057609137,0.2779173117449018,-0.39987102087970355,-0.3862209156786371,0.10521294005879381,-0.5972386027316209,-0.0023335899014837813,0.4163753177102289,0.14267752634749944,-0.5426322994441328,0.28924449001357166,-0.021509387627248185,-0.17692285733514643,-0.473213298155551,0.47566148894659543,-0.24690248095382308,-0.7216581960663699,-0.26236965081677044,0.11745969658641235,0.4173151229015544,-0.024781355464237396,-0.4089975621282742,-0.18219973980922313,-0.8970426582876608,-0.21867199676503357,0.7042481042845997,1.1506705327937579,0.7053644387746023,-0.0668556722503564,-0.517998317572901,-0.2810757941117137,-0.24281193548470587,-0.29405438330417294,-0.38463586743206,-0.4695528955705918,0.051073672431082615,0.5838832227245969,-0.11141112301455523,-0.10517669015206471,-0.6140837440098086,-0.0138699633503873,0.350486384500844,-0.09451139283923604,0.5039022645846334,0.04840862348473515,0.09885682611807904,-0.5236713150051759,-0.7727348245948635,0.5541910632541569,0.027306726435095692,0.1126111021146553,-0.6480578624493047,-0.37087303179951336,0.7036073693756182,-0.06405905886121792,0.6602827115510266,-0.20318566039515648,-0.013614515825530693,0.05252289158186851,-0.0746096677381346,0.5824999823784356,0.1752759817153454,0.09643697142324557,-0.5750353211058594,0.06268263348364998,-0.9811474327204764,-0.9186994956382822,-0.3940259882583371,-0.20767938599441327,0.6278935490125176,-0.3366193579920949,0.3265212534111853,0.7013061080165988,0.3718419612572238,0.20810601281150545,-0.2388729794912672,0.0033739730272309867,-0.14597859411447353,0.29166204505439813,-0.029332491865814648,0.0401324537248508,-0.15398941786792167,-0.6120589304796014,-0.41093089728915,0.4373639443619478,-0.41472240323171944,0.7614174045420901,-0.3659737162335582,-1.0069732040930126,-0.7295330162536727,0.6157201155857661,-0.2503657611188359,-0.3902628387806046,0.21035577162119365,-0.10174749784981306,-0.39921797955968813,0.42198057259738736,0.04559607606795796,-0.4449530032593849,0.19932602342569014,-0.7677406509570315,-0.385017923958639,0.29960930924632445,0.20186555245332152,0.22693989932172906,-0.6913936631829696,0.5446178543986541,-0.5055293282045404,-0.5601991607110557,-0.22963824940095656,-1.057434226426353,-0.47599436012234764,-0.8826073425368348,0.17044663579771052,-0.0932459079135635,0.5737567685667267,0.19364891239753804,-0.5145699837423444,-0.061956761868674826,0.7038063078521832,0.20277054630465335,0.027819832766342558,-0.3618828041853235,0.6003700748871243,0.3463762684430744,0.475360351210826,0.26285617944857964,0.3876337546280874,-0.14005151414605174,0.2970098542874266,-0.6408682500025024,0.17709924903992189,-0.5171949290017228,0.14084704543334453,-0.07099745583691355,0.14736272002297984,0.6718517978143151,0.0820215869562329,-0.07367497753795155,0.21664656233756838,-0.3358792303243334,1.0495445138367285,-0.25754748339100486,0.15459710988095002,-0.09404636266973454,0.5428112718399591,-0.13357574155890845,0.6452162480023711,0.6341554963670745,0.5254196278135724,0.09246043580570062,-0.014406553298712281,0.6146199230021747,0.07644077994391396,0.4273637345138292,0.02431133501503643,-0.33906500091410885,0.249491146782945,-0.13933392015268534,0.2600400730808348,-0.5393495622668513,-0.1027904305096366,-0.1381853815420635,-0.58037634233615,-0.26291753043312766,-0.3372595482770027,-0.1342302320981002,-0.37231914507787967,-0.4078786125709732,-0.5340819444938939,0.11316020843459855,-0.4569492803733036,0.23470370798936527,-0.6119735511961729,0.21228487533711815,-0.3556085472188857,0.6653801700188743,0.4504241760725532,0.26213050130643517,-0.4367341196607518,-0.5016447761484081,-0.11840646893389131,0.13062411364560017,-0.41361622328734293,0.14088993265311317,0.2518176502143068,-0.5183885540726656,0.00522935341575514,-0.21199848599467913,0.2674914138655989,0.020046493443188866,-0.150135317468805,0.570125235719207,-0.19833239446327522,-0.07137325556457524,0.35520290888078376,0.19212241749634643,0.058340392127243755,-0.38008554633425756,-0.1524357068500427,-0.22244723827017082,0.10367361147059874,-0.4216405892255254,-0.35911685695702394,0.6743426576894985,-0.0019649442163215537,0.47640598654425453,0.07235470248318915,-0.7302228826637233,-0.16502353290306115,-0.7398019135979363,0.039690481651740245,0.3666829596471667,0.4341102895169877,0.41479703383418703,0.02934644300902894,-0.591815312976134,-0.4585860007850369,-0.016342578233727874,0.40984375622410896,0.07804076226766116,-0.29322583918470263,0.43968204917195225,0.07600847532489663,0.48713064855225074,-0.09415015204176,-0.12217906840667263,0.1271132289967432,0.04954968231907907,0.024809396780503975,0.49847293043812024,-0.3140584557679061,-0.2649924705818289,-0.6985518418325398,0.16809553067489816,-0.3281211239566295,-0.20800999309221757,0.4490716332958003,-0.33486610872557354,0.43496879999122917,0.05944936795035958,0.5491873723367354,0.15335377851521337,0.18252307117357852,0.27639200868827424,-0.10076545050285624,-0.07918477904938857,0.3723733390206889,-0.9447547210029144,0.5178123206867626,0.09130153870875223,0.19459988438643458,-0.2933910299636135,-0.6880372917796509,0.5459451282232922,-0.6344116202208908,-0.7185941993160221,-0.5201589680085391,0.24963613982905625,0.13288766563259696,0.4678072864332909,0.23027140473150903,-0.15248764206328883,-0.4289206255396969,0.00043745967404873167,-0.29470506865805746,-0.0989307953770985,-0.3790780978879105,0.39492760725508297,-0.20421476653810272,0.589450411659267,-0.5811846979875235,0.11165445008142427,-0.08665226819312044,-0.0778537132538781,-0.0952349112645735,0.17556811850758267,-0.3011521371407475,-0.13330831680963823,1.1906072030157495,-0.1338454707728544,-0.36886157364798716,-0.18186717465033356,-0.31736254284057164,-0.07873778749979579,-0.12749328755675918,-0.4514487995425861,-0.571990303085017,-0.19477993590668924,0.08517969056143133,-0.0414083462504578,0.42827595427022747,0.031578162186181966,-0.6688461352981316,0.07760406391734442,-0.0004890526036282349,0.03434778720947459,-0.29018683056219186,0.5767568907749726,-0.3200912491743798,-0.20841625756395343,0.2566066848788075,0.8109346583222334,-0.7968083454236863,0.08072605007177351,-0.4343432038505065
-0.2368880912488654,-0.031481051855866415,-0.13801243822192438,-0.705270868436079,0.038921167136694974,-0.3895719089936179,-0.3241634549157546,-0.4839080485913628,-0.3067777167867336,-0.4268377373449065,0.6030196475311353,0.47924680599167796,-0.05386815409527711,0.2599617465172651,-0.14969242802452154,-0.11223248128945301,-0.5299309084723425,0.0666666760477559,0.34675111068041875,0.2027086053354413,0.1913647325282296,0.06573741811765206,-0.06556443054691129,0.2530647812582977,0.03128114866137548,0.1354953034027855,-0.25010618357800446,-0.14212940654292583,-0.07918272684624594,0.05742445546112123,-0.12500770221317412,-1.2010346771113765,-0.17950369191182103,-0.2314240163854676,0.2511165586195051,0.284187888062023,-0.8076721470392142,-0.8340907791883743,-0.00529913548217232,-0.3476664161419817,-0.4772203147803557,-0.39096298182073874,0.04622159128711536,0.09780076392811446,-0.10139479224687904,0.34510404332368133,0.5452688063922829,-0.5821817074578037,-0.529125966313312,0.2246893108268925,0.2748212774691017,-0.389446261389616,-0.15033410930349134,-0.018109841977696925,0.19455472266966342,0.18643633478196575,-0.5491539477098939,0.16887662317890417,0.5605254282335353,-0.28301671002083545,-0.28406266428157184,-0.6983041727419937,-0.14292442941234332,0.08329810310738427,-0.16235607131828506,0.4933556963087084,-0.3815573935958191,-0.46184903590138954,-0.2307768678758674,0.5020445825278743,0.2858694556810467,-0.7175898141307093,0.29768181068755695,-0.10952542195189277,-0.7755535802431063,-0.29157089450487156,-0.38253514256407334,0.029986025846540598,-0.57617519847769,0.6025058136589871,-0.14833356603571163,0.38628867670063866,0.39963860733574824,-0.3227397910992055,-0.27450122623168227,-0.09525829445037115,-0.01512650062255394,0.113049055856601,-0.6526195144885693,-0.1382150247449724,-0.6801727732479091,0.15127946037385542,0.5182964385166662,-0.3974845257507116,-0.2609292803960666,-0.11918823345896386,0.6503043760730048,-0.04238582976115974,0.05796180878204652,0.1572699060201875,0.32941607649297583,-0.3301814227951973,-0.47490232225461054,-0.4934230904793328,-0.26014143096218606,0.19719543947942322,0.8189510445353191,0.035199337517494864,-0.5505488299647618,0.020091072237333005,0.1808858517113705,-0.13373228218949557,0.4718578383123731,-0.28680730121612064,0.4571003673482952,-0.12349075852550948,0.12931215841633045,-0.45125503343356815,-0.012387419177596495,0.7187509993339942,0.3204616625067898,0.20341633783502977,0.20906476860168952,-0.08741270579377429,0.15041856954350194,-0.1112147680257317,-0.9713309109352435,-0.6858030306879853,-0.07881090663179756,0.2504085086255524,-0.003168159982475434,-0.25259524993586524,0.10236471317467062,0.3662599955338801,-0.5140656547862912,0.4071308269676018,-0.22839268300337273,-0.4910447253855751,0.3221993649452605,-0.284635039206184,0.396147483864352,0.29056395298847804,0.18047624455984967,0.5696842774132133,-0.4412938028817522,-0.031708720805471734,-0.02090414388179566,0.418393829428061,0.5468161257458357,0.16539625459074192,-0.14718749277673665,-0.08400331123104877,0.11044611897415903,-0.12526870637032175,0.8112606751965284,0.34321178605513203,0.22241400642955206,0.026316110375711996,-1.2675115665531593,-0.37660500457336454,0.09906866853319701,-0.3324614256957758,-0.15462402011935392,0.20437701853467544,0.09948562306537569,-0.02172430249302845,-0.3085630606966739,0.29615657850358523,-0.2048748040088873,0.6712347975972048,-0.09511746967104065,-0.680758077737381,-0.20667590557730373,0.28013427302539345,-0.14166466136447936,0.44162940971521086,-0.08826090942516784,-0.18136733263650395,-0.21874786455323506,0.21153559182488493,-0.3079197325487185,-0.4144022571389508,-0.7515663951482561,0.18272135778248552,-0.6482827037714891,-0.46839341788723043,0.06223604721209099,-0.03503534009462457,0.16659872212412244,0.35335321880474124,-0.15271803002075426,-0.0870344354148737,-0.39685932299507204,0.45694915811774534,-0.32594025227941203,-0.05513526206293821,-0.09329169921480528,0.486735611341002,-0.4657292343658067,0.5291449720723946,0.23761768968877486,-0.19934122052516762,-0.17870311959109378,-0.23354689204475337,0.32157800361053085,-0.27173727093006506,0.9811121271017448,-0.7575297675428015,0.5224120073668392,0.10089068290800825,0.01857155597269358,-0.10699975308484964,0.4299873657101103,0.19574850947148612,-0.48120124829074107,0.29663540821501405,0.05721713624015381,-0.17614979843656012,0.1930381346393642,-0.4466480458212357,-0.06514627824390992,0.9902757650545013,0.30265071040193686,0.08451891085158936,0.01872852256733188,-0.48811920878669823,0.14081761420941002,-0.49596177173815903,-0.7517806812283504,-0.44181445534209773,0.4685155597686968,-0.3469624531519278,0.41553353274693355,0.19290031591091478,0.1287396755814506,0.45008037183611466,-0.004040080540974696,0.009633452902295518,-0.1575808784440828,-0.03104170517021571,-0.4020173808522628,0.13233994961933132,-0.00576040869028215,-0.10081816395586289,-0.8525426984276603,-0.3570256145061684,-0.07420259146526952,0.012789978135508922,0.5540882511755016,-0.248554865664299,0.18968336932398056,0.18825962789153458,1.16176701198524,-0.4655230690942237,-0.12723394997596937,-0.3939331053019392,-0.07013060092656394,0.5608409523848735,0.18099585257407366,-0.40270869612341276,0.44585386885748357,-0.6488444550309183,0.13191767408125651,0.06498873151973042,0.24117495208480108,-0.06141926750611183,-0.20773255061700444,-0.2605196268854624,0.5832326662539896,0.5601150818568436,-0.016778124449282353,0.17373660573503133,0.07721353921794578,-0.3285802986384714,-0.2564171008467956,-0.09102990225299432,-0.5006097363219058,-0.13377806845031434,0.30267212854272324,-0.042458789346242885,0.6027013805699917,0.7161651637199075,0.34916763511253984,0.23479490371627051,0.49457022068557344,-0.06184259231753093,0.8853108231235117,0.46506375460060223,0.2947114488981448,-0.1241501106739976,-0.04516699137840022,-0.48239096626009154,0.23197169547155103,0.07705557671275921,0.045248429040222846,0.5573986622244512,-0.0101777535058489,-0.26064384249932365,-0.19361392922625148,0.09900384133431098,0.509754627268758,0.4865371096623916,-0.06635370128331726,-0.3299189284244108,0.3368486508667699,-0.6149780855982869,-0.9267143349454934,-0.8434001770671729,0.12293670116607315,0.5034572570353716,-0.4730718081547713,-0.15550336274761115,0.008594214142463558,0.006743471738708082,-0.22650912049182106,-0.3390784030721443,0.10702085781198842,1.102594012078184,0.07343572207611476,0.3017769131005696,-0.7668039732863916,-0.06166418005832108,0.12668873807699177,0.4899985088235288,0.04947703986635684,-0.12408619855598671,-0.461805598728102,0.6221260813621795,-0.7434368389919639,-0.36493752086506187,-0.652303094932191,-0.18787331270028734,-0.046391123789661426,-0.05869541207100909,-0.20432984468225085,0.17312773859782074,-0.16742362360141147,-0.25401899037644876,-0.4520654711424169,-0.37312877384745785,0.4469520414783781,-0.05818492598260728,1.2136604834235771,-0.08806828387664922,0.27378248850956616,0.3986924204223612,0.4432227387784197,-0.11992393082146702,0.1064377941308392,0.1330066063350932,-0.008114044842702072,-0.033278311664413474,-0.060427337199716775,-0.07564019238079583,0.3586632979489383,0.3985545220588474,0.09767393271947108,-0.5426318729867865,0.07506044662078135,-0.4309620609394034,0.2967068268028153,-0.2002449706363729,-0.48338084131584225,0.25939387930716173,-0.028960034997817016,-0.46772436935707934,-0.2889527365577143,0.15339902853375292,-0.46122813487542735,0.14810467028983193,-0.12580040810255444,0.19068433128018714,-0.28477766676478855,-0.5093572798943439,0.053970922600833894,0.41259676338372847,-0.3399426757872233,-0.10637376525095646,0.18291200709116373,0.004741676829935636,0.17115784587911134,0.06629605688457631,-0.14471594359258402,0.10977895736775825,-0.0979019209250775,-0.019850033787228574,-0.41827793591538376,0.0075042611985365725,0.3775672217558313,0.43150162834595873,0.07494210084145098,0.0035701962502579015,0.11566136475255819,0.38233604436426594,0.5441079763388113,0.5275319958107847,0.4161489495970728,-0.2820203113815791,0.2699968456982736,0.19680789837715582,0.45415663479583707,-0.5816751359762112,0.09036840140909554,-0.20368126448408994,0.368766120575301,0.5672442486978316,-0.058787440507371856,-0.15629166264178065,-0.2897689585610353,-0.4355471940182659,-0.37544520273458964,-0.4188311442488934,0.17157121826149166,0.3228308467978176,0.24458248337293617,-0.1572066625888642,-0.2306146384481406,-0.767233042084885,0.041780239436877614,0.14364993306637272,0.5611598331373241,0.5143691744520341,-0.5471463794009102,-0.740067727978962,0.3399484913157022,0.5443734857483785,0.11085412595977456,0.2453801125378839,0.029772356633980597,0.4186734357517309,-0.051042695852244434,-0.11661632087982794,-0.6398487281049396,-0.2522813468945133,0.2972964069256488,0.5180524896213704,-0.13893359687866438,0.5052389365382279,-0.30819576774045027,0.17031608584530508,0.04713265636559481,0.6251902972740438,0.6464725922775854,0.30218826172934415,0.7677190441408406,-0.5597537125479218,-0.6100325322634895,-0.008579100296075412,0.26012765364430496,0.9611735794782216,0.04737189214402529,-0.42272557318394866,-0.21891452521311483,-0.48878106417278216,0.5944941471526275,-0.11066336279535445,-0.033437617928734106,0.3566086333703624,0.05953893817695247,-0.08130399857361398,0.24604181070562334,0.10834583087128212,0.34152739680758304,0.41597397015229537,0.5819262442562079,-0.45306820965535544,-0.004817998703147828,-0.04985074810335203,-0.584286099028258,-0.3746854467641766,0.36894487418221733,-0.4367200861271329,-0.4224873231975547,0.5701599252084356,0.4104219405927623,-0.7401129337259528,-0.09639238410889532,-0.6833199261176651,-0.5883976369923196,-0.3092253413609493,-0.18131562346469132,0.40742707648462706,-0.29232970998811464,0.25295411387479616,-0.057126096235864975,0.5593111231136564,0.11968860473471749,0.30780102319182717,-0.010141807600465848,0.35262467691828464,0.6222830647041026,-0.26825854396875726,0.4535169243566522,-0.058979632960059154,0.05963859227279549,0.15204618820417276,0.08362248948611495,0.42682027440884207,0.08534288195950555,0.5197912124837749,-0.36817008138351737,0.16118013621996813,0.1036709684095799,0.7467026572734188,-0.6580415805390386,-0.457082689630336,-0.06879371620234334,-0.09045360081599613,0.34156153342732565,0.3733503748585364,-0.27291970117125336,0.2221625174768724
-0.34242541288950423,-0.318594023385626,0.20921726318188333,0.5539990156432186,-0.5588297616202818,-0.36418398792828355,0.38938230627091164,-0.35379683742699564,0.24921253853188657,-0.35512480793205803,0.3014277225076514,-0.6181080971714605,-0.2086644737652972,0.5209907000455085,-0.14150472769996383,-0.8720945868125086,0.09355104280567753,0.20433201870465303,0.12107389984334092,-0.8149012549898454,0.25420373250707856,-0.301506741442873,-0.41086804660561665,-0.14863513296300546,0.39134973388339206,0.019084487794300865,0.4588340303814244,-0.2552568406300894,0.18325956801076784,0.025133280304342597,0.3416900101144021,0.12381282901640922,-0.6821635869648106,0.028118221914945868,-0.1053125886907533,-0.0321577356086577,0.20368171923501013,0.17690223569412328,-0.1773229475604653,-0.2698434968218054,-0.05697767400039011,-0.4423315081649479,0.12775508851928657,0.1417813021145735,-0.9400130407824782,0.2932487423301893,0.5090465003508741,0.2467094418589901,-0.3597581346493872,-0.2595250449203287,0.33988916765797617,-0.16849794259436407,-0.042424451420684316,-0.15916772989645428,-0.07516568347980986,0.1733356088948514,-0.08900739694266098,0.20881242583179283,0.06475093612438629,0.02471514578222694,0.28704268032787394,0.21127333447419563,0.027368105206422074,0.5874171600765774,-0.2663982834827675,-0.3627909300453263,-0.010698383635574982,-0.20457021160984298,-0.40450311789189486,-0.7469010045505581,0.10783783490830716,0.38461002845973935,-0.09112597757912146,-0.16261252699999235,0.05537965596113137,-0.01554891223315471,0.3962321736254819,-0.16562300448468242,-0.14054670784211196,-0.13253422661600683,-0.6329686525565897,1.0615445046561311,0.1468758459496459,-0.30706408614094516,-1.1162338284784161,-0.29878520573075623,0.7119687172549151,0.05677128774663028,-0.05833999449474176,0.3859249594190838,0.4838684481369789,0.1155301955883388,-0.0033668362725832587,-0.2531833802418227,0.7253026581599678,0.3256984694748945,0.5246783368018256,1.071878067754856,-0.13475797999569147,-0.38164083615492367,0.3166911856040842,0.43643750652728425,0.007736834188467784,-0.021606897747994867,0.15806308631909258,-0.23373810742389295,0.42538209864173987,-0.4246899001631384,-0.3852843620680009,-0.16371632137065945,0.4479489622972702,0.039922577697557776,0.09299974267743073,-0.1919939396913585,-0.08656994814449148,-0.11626223589971413,-0.3454431441518187,-0.09471340312054252,0.4737397116147415,0.6286851611074662,-0.44442263945754,1.3544795622287829,-0.5394286114845048,-0.6230812566358281,-0.33711798269284055,0.24732601913886537,-0.3426120441804653,-0.11207470860819158,-0.26317742675185873,-0.08493474119031351,-0.5551782641505212,-0.4656196717062136,-0.3647472214393468,-0.48100193325468976,0.010277087724822097,0.008117401396249535,-0.5523778751897943,0.18853746187428908,0.2028167051581642,-0.2840083306665525,-0.09556398108828786,-0.073825617394875,0.7700192095540189,0.1085485725114859,-0.35796617832829347,0.04082268083378748,-0.5894556987274935,0.1544398310618286,0.348916215952176,-0.6524367333589624,-0.21284929816293055,-0.1678036951345608,0.7753092281763333,-0.4826089305856844,-0.13146496034868346,0.3012424360123569,-0.2269317366003934,0.27869982375975116,0.06885720329371503,-0.10912797192507205,-0.18564693990003076,-0.49747210013166937,-0.4576757495719444,0.3626764563774156,0.010627636385851536,-0.030800663872819906,0.276720872166503,-0.07934011307939046,-1.2544833188276312,-0.1643686891991793,0.0767125516020857,0.24132972474936049,0.4693249633506349,-0.14629980870446316,-0.22770054775423493,-0.22227641266335227,-0.3578176723155943,0.42269885032967625,-0.21286456980572493,0.29803529437216486,0.02714318594906127,0.14131802121929027,0.5394418923084091,-0.6771902266762737,-0.34455087737740764,-0.5808058524665098,-0.05511524948558053,-0.03581628360876478,0.276487303425014,-1.0545124516470363,-0.06092986854477732,0.10896034981268138,-0.03444050921480569,-0.5053277244749053,-0.6478811626360952,-0.4624488224143325,-0.5444432449987954,-0.22297733153202348,0.06515869742967016,-0.9865955921746569,-0.3982651057307703,-0.24271567708100902,-0.3824768827734183,-0.22369529929112136,-0.07097509958570108,0.15977974055451577,0.4796624563168875,-0.127993287387352,-0.5481818500923034,0.46793916878393943,0.1516787908779936,0.1711908690194164,0.07613839615674703,0.089000397213859,0.5147111118112179,0.009434765476698541,0.11971996560488984,-0.32370887533629567,0.3619838738783327,-0.21645820429896218,-0.5218577962516775,-1.0295868155684247,0.5352883131011541,0.04963280311884961,0.6076109274883948,0.1287911285429842,0.3038993426930071,0.3395859516935833,0.06833863476526394,-0.024097446209997913,0.2336745701877864,0.5295378521681438,-0.35244593514701694,-0.039193240146523055,0.22394660720002646,0.3313269565357757,0.9452108114924015,-0.08349429827464186,0.8043978033736436,-0.5493838787111823,0.07771334811136034,-0.0025753258245115557,-0.9366545830899106,0.04904901845072854,-0.052416836253892415,0.1797504518011175,-0.6182293313360566,-0.2593086480962487,-0.5757034951318153,0.24531957273058153,-0.422599512601851,0.30308971086702413,-0.4705007405574693,-0.24530460476881416,-0.7211850267943553,-0.15389318492492268,-0.3826482733526658,0.4543996384569293,-0.1548010139332533,0.3674455647919005,0.6692651274976389,-0.420009887999787,-0.5101337474452221,0.558151385313547,0.1651016398619027,0.3265257054987151,-0.13862814252199315,0.16120681265631143,0.2678301794290942,0.49634186716928375,0.5815019199867365,-0.8689567200655715,0.14948751577172353,0.09503742384344781,0.028119014009512704,-0.11966051356654252,0.3380539806655915,0.4284057955088806,-0.07253619966706919,0.6348924046096549,0.07447996252602056,0.3838271299896529,-0.6008977705598513,0.2719724582296042,-0.2491530487895173,-0.02164977440598895,-0.4349327051054074,-0.12161340889452454,-0.3353808183430213,0.4898607974834054,-0.10834707397973457,0.1489323728127531,-0.35485126402998324,-0.6786641778324427,-0.13752523766636335,-0.33953538599915617,-0.03770577912181149,-0.029376033406015172,-0.11855489532293458,1.0015266191661143,-0.0804080010376589,-0.36838262019966,-0.3396953761133446,-0.18961913280531628,0.3987315393277835,0.3113141195874983,0.34694767869193965,-0.022196381267046636,0.09682124754982098,0.771772421542066,-0.33667258281198736,-0.1663157274478556,0.610724153362492,-0.32359995315165974,-0.07413743615849624,0.26024993561160153,-0.28933056038661054,-0.23632084144622806,0.05266096768079278,0.1499297920115244,-0.11659411583933701,-0.4299268279756527,-0.5314760174478933,-0.848804915619014,0.35604922129535815,-0.7110322758647502,0.08908579267553995,-0.12186568887891672,0.25575493882600836,0.2603274340400346,-0.8049528322019917,0.01172775913440925,-0.2041321612753735,0.328993234749906,-0.8056302408224209,-0.6980766118051149,0.8856728224414883,0.002895009992539572,0.1775955695608699,-0.15579935733465114,-0.6151412558336672,-0.564364634878924,0.06643870303863486,-0.8450523828169377,0.998879910522989,-0.46169043414817096,0.5131507466147204,-1.0085503357965364,-0.6914942868181861,0.1405045340969643,0.07970181320163121,0.14828573876081402,-0.2156280401663124,-0.35813840757473286,0.07459773784914875,-0.053534872487767705,-0.013052406630022748,0.49831159954041127,-0.7316173113855846,0.07307635737461564,-0.477397719303921,0.8168208247746093,0.2754869600712709,0.1668931166779925,-0.4763255399190549,-0.4019030063347196,0.2719306842273334,-0.3882632345002459,0.33611655867526763,-0.30861726709659976,0.8157363834370072,0.6758603508819331,-0.8985209950539929,-0.4459958162160256,-0.3983192742941255,-0.032353612207653294,0.06624277236938052,-0.2581475685362076,0.718175783915833,0.1058955121706791,-0.0022596993550559946,0.6397248924444633,-0.23676211454783483,0.17272145572892209,-0.06372197659655655,0.3275982031400068,0.4825916785479071,0.24483405377549494,0.034146327997475086,0.09677697892080517,0.2944144760806665,-0.30602792530631856,-0.13484943997081095,0.6541920476685423,-0.15227821255077534,-0.005565664420860956,0.4357524747256445,0.6747119056475349,-0.12646106843176863,-0.05811252367407775,0.45615698941550115,-0.3153076419572291,0.35424416801438424,0.010432636213397711,0.20370553431021018,-0.392574210555007,-0.21787098579028633,0.00834979958985281,0.45096311899556246,0.5782085722381874,0.4036226569274069,-0.20428044547231913,0.11866454840315395,0.4189662894157692,-0.2114126625469145,-0.7980205159141015,-0.19346774527452137,-0.10670982663505127,0.07249099014444349,0.13919189899790593,0.0304409684679785,0.2766773556085341,0.015048108806805436,-0.282226333678165,0.4784651883033763,0.0668154420553385,0.05519425748998099,-0.5211872614456029,-0.09234227548642927,0.17531377769765114,-0.09706713396544472,0.3727358245374394,-0.6909949839089845,-0.26135333175672176,0.7040663889790395,0.5023397464890135,-0.11191443484044054,0.4298391469850116,-0.44066709192498044,-0.06443710183573421,-0.5789339615976729,0.48212531960244726,-0.1977547019251083,0.0723159062790509,0.2357488878224667,-0.18093042696320874,-0.5933352178452461,-0.10612113704935215,-0.4757387218178901,0.298732518536154,-0.21913109521298693,-0.021283708816753674,-0.14397224657092067,-0.5255331836735846,0.07063427709570413,-0.18884465101299178,-0.7816318215560877,-0.06659514338810936,-0.154708913992616,0.0865814578550164,-0.2872286899777398,0.5848608254747476,-0.08714777093728547,-0.3136920345621971,0.843595071664827,-0.0059739568339131745,0.5114105017493598,-0.5744374867993658,0.017551638596620945,0.003649355858071385,0.08194802748316368,0.023112910523997166,0.06050142638325574,0.3168881587421173,-0.2258998678025477,-0.7133001233958828,-0.022870108305190935,0.4882179529126861,-0.038000162255584925,0.608965752836034,0.32936169696497875,-0.4962790097755168,0.24708580654773962,-0.5871011822589248,0.7285581605764183,-0.9300038254042453,0.06855983449178087,-0.11508253677128559,0.27106161753811925,0.3017318777340375,0.656690484985393,0.08820649209340856,0.18629339116827848,-0.164655054878001,-0.44600023523515764,0.2415669826074586,-0.49864797469710187,0.15142018908309457,0.7639142799405465,0.5567132142622702,0.49777551447575424,-0.4470526429199376,0.46663343616141506,-0.5488106270663495,-0.21071905008247835,0.668905330290034,0.5017409675365666,-0.019607280298420446,-0.17919104682820783,-0.4984927741246212,0.8123014111513138,-0.40141064074285276
0.04001696551960112,-0.4612235818766111,-0.2286211853897155,-0.26316174562228084,-0.037624522865602035,-0.011425811152803472,0.0027255647205339925,0.5027778505008006,-0.09916414132330993,-0.4112525758363327,0.2568961082273354,-0.3664781125504737,-0.07737918243586961,-0.5867390850524316,-0.09334354963531255,0.3332607394968384,-0.08709914867677603,0.10793570842696176,0.20069905135655342,-0.3268249255047611,-0.8399142682284622,0.037242173854671656,0.07337904984788052,0.5288134918730658,0.3096044120355933,0.24105160410689788,-0.27031083425287955,0.060991063281617235,-0.4055314927868222,-0.22715877260441147,0.15539219602440946,0.2075012174852972,0.06362555446183499,0.09380725539027995,-0.33017387154451555,1.4981458247419979,-0.4786502136175839,-0.3004104755515175,0.4051808635589465,0.6185180198288143,-0.21784143380333515,-0.05286779849083515,-0.03334717020022327,0.08989590295775104,-0.20592885572343259,-0.13309325752494996,-0.19112708533593,-0.8895151952254734,-0.07452232306414992,0.2467092088274855,0.5175771593340309,-0.01605951542500067,0.06565007356774061,0.1723386580830552,-0.2630782354977639,-0.43540758780181643,0.2740409284351223,-0.2638898440039237,0.9703283289779184,-0.4309600337976951,0.3745531566785546,-0.5451145543473968,-0.052856060475288465,0.11987629745210018,-0.2587120265411584,0.24223144491581003,0.9181758534784269,-0.7100356970532511,-0.3100227307124762,0.4054044827212266,0.058370989303946144,-0.3301089800253812,-0.029532821799878303,-0.6179287401591973,0.83736058032759,0.16529895672327258,-0.017897050730344668,-0.49426358278656524,0.5074617129821912,0.5392376274470444,-0.5316421581910283,0.20873379685920512,0.1389459130707228,0.5318005374088189,0.4420178594172757,0.2570799550239846,0.6009485693561967,-0.3143690360480838,0.022920484249577888,-0.2936868044900985,-0.18263318506419987,-0.16345559535348064,-0.14667285462938573,0.7682769473356699,-0.4483696941711783,0.007655251104905273,0.28648574542894967,0.14418970571060682,0.05601754345537747,-0.750669371270751,0.3569528250779996,-0.4271308594981467,-0.029302485612523074,0.1364576192896753,-0.30815991390323894,-0.0043089341138031305,-0.4481143765164066,0.6350428504572712,0.18629878010948359,-0.26309255097874357,0.32818801405546966,-0.5875594364452827,0.0034775396273770795,0.2927159715536726,0.21704821789783246,0.31041907019978265,0.04949980670621374,0.6897479018598383,0.33375893343233176,-0.14237373179232482,0.7214873554880595,0.1558428723898468,0.14696150074356812,0.1836208014400162,-0.5008957491095695,0.46214910099169354,0.12720665027390823,0.28695809238390463,0.5022169744180152,-0.6832267200768537,0.08991163436657575,-0.09220109389280319,0.04570170780558418,-0.2037459698635342,0.37358530872436757,0.018578574798212722,0.023084867231304602,-0.2282330445165983,-0.2122457637349687,0.35200981850420016,-0.330099576001654,0.7152960343442577,0.26919613424271144,0.07971331992400478,-0.18556266090251392,0.40777509450485855,-0.06091804882433109,0.34192049501713684,0.33119436056518786,0.7941984198804841,0.3826271806140405,0.5578024805614549,-0.010313857622963125,0.36374275841972015,0.1931070237756711,0.005153816358403168,-0.6787287590107614,-0.022756141156430154,-0.032805946391725536,0.1905597998270857,-0.07964793296808204,0.381602426371501,-0.08122194443325934,0.4093023757305357,-0.2321396607962469,-0.4894505859086875,0.2379966330635935,-0.07670045396394708,-0.2660826739307812,-0.5363826624321105,-0.17282434505882913,-0.25130190938166014,0.4177515554368716,-0.05652609829925938,0.8361330390840623,0.10045397693146597,-0.1948803552073549,0.1535121821383636,-0.3037109793424156,0.04783929568904423,0.24877996212886452,0.690299190423886,-0.1281826474830941,0.30822779391432426,-0.31739275690681773,0.2369682518621362,0.1349556401108146,0.5862357977836988,-0.8334010389124538,-0.11876629258218957,0.08163232424860269,0.44975293632664254,0.17673217206697506,-0.2437019829164502,-0.3835881471503885,-0.20899638590358996,1.075240975417584,0.10065770661601589,0.2268845953706998,-0.03684128773193684,-0.7509656687008828,0.5334607576941055,-0.3279502240793534,0.3265493452500896,0.4699512241008625,-0.4492364423150217,0.5504095219356524,-0.3418100178663033,-0.15715144701353828,0.1406609526078399,-0.24893550406891496,-0.002738595683959695,0.5695261430286708,-0.1792367534603445,0.07100805019640342,0.27692778829333325,-0.31645530703075125,0.4413133724316558,0.0563593434625329,0.16205508859299422,0.5402043258887395,-0.40683150411312485,-0.8089292974661869,0.06282636875415301,-0.1695511800839069,-0.4567987123306687,0.5564311578391268,-0.034954041063614674,-0.4552758809496603,0.06024604059664329,0.13863288191673714,0.14936151297591374,-0.22069310413226037,-0.15663753087848525,0.3412144143701868,0.6130179691445801,0.4608776629752299,0.2394308721820361,0.28440097116238056,-0.11280415709282386,-0.01888734438414134,-0.34904661623405786,0.18808584442881204,0.5202416961192089,-1.2988394485687051,0.35355493597031534,0.8352880210631692,-0.06214787506374693,-0.658848902943355,-0.2924689778162505,-0.15343556885042772,0.33894218815739363,-0.0805973155766582,-0.5299629403316748,0.30217171748462773,0.07798619183139045,0.13422660992399685,-0.1407751491970658,0.3242643974483332,0.6121428281783062,-0.6409821052101691,0.07158777120873838,0.5481984986099284,-0.054467468054895836,-0.38951378870794484,0.017319423576098333,0.7024516907638424,0.36276955136093086,0.079195488209855,0.034637259811139444,0.09106535558278955,0.69669719043524,0.12256795857205119,-0.08022706382906505,-0.2441954641682141,0.7729913073932642,0.007961269141128807,-0.551837723209608,0.11167315704172665,-0.20104503619954553,0.13215232446306566,0.12577892677708774,-0.22302459924239534,-0.07562959229067187,-0.08631341862017823,-0.4025512531167002,-0.4493692145613348,0.03593570864383339,0.5511660129209293,-0.3868366663283014,0.1957167636308954,0.16528998214077886,-0.2566662531012899,0.6184440129518655,0.5558106837327748,-0.23847658657976917,0.12105940476651258,-0.03209665430080439,-0.6962480740825597,-0.5404050090306104,0.009868695816904888,0.018814849525458508,-0.5130080278139014,-0.21157054964662209,0.448886816100288,-0.09469053185105769,-0.20240062873929834,-0.28216279421441315,0.8259083065504084,0.5341240148313922,0.27587959974116194,-0.2131504077847687,0.36279623979869335,-0.17225787424536443,1.1225310761520542,-0.3857632918766981,-0.3646603414638401,0.12182505723635678,0.412747781442269,0.31807697883195135,-0.11273689139257508,0.27756596704607417,-0.7486858117846107,0.5973916607535139,0.6456837045519721,-1.0238369201222681,-0.20151740089564654,0.11505122894741547,0.3591656837339367,0.2284785397443034,0.1736906713350008,-0.3224220460219174,0.5237678942627476,0.32599813406672085,-0.18215090891205757,-0.00565145463859922,0.5477172265446515,0.04620476518299735,0.2336131876765247,0.3779891452350965,-0.17609432494081523,0.19969427427835013,-0.04815665667378847,-0.41290435326014024,-0.3247528948107561,0.23692593986449353,-0.10863113551300993,-0.023386746923606327,-0.18109008762370843,-0.02510489577398958,0.5939378267943267,0.026647735479264033,0.1572240013208559,0.18992292153119092,0.44217167039959904,-0.40717752230910775,0.3642645780877957,-0.07272038655778063,0.04889194601559923,0.5495225784834371,-0.3726338946044475,-0.26115300846469003,-0.45605316469158635,0.047987995296273685,-0.14921168881382035,-0.3235582032032313,-0.5120159213668256,-0.2366776212436548,-0.12020831384194064,0.3134639299420958,0.27070676416007944,0.27218769401517456,0.1921681588588254,-0.15503784411793606,-0.3206179968363996,0.06557863546580239,-0.15032997345412635,-0.46896081187539557,0.24234319235183793,0.061207265728994674,0.9111883946729258,-0.3887985033513958,-0.047811696573159104,0.04204569719501117,-0.29181242593468437,0.4506315793841602,0.948009701501529,0.19052040654199734,-0.03272831653265929,0.18817836004313623,-0.3170327859662002,-0.54016526327422,-0.3948257611119907,0.31079883653786333,0.11853845571453804,-0.054778803847014265,0.28372033145095404,0.5840546019788799,-0.2757189061175434,-0.1376350803155566,-0.4434274619408278,0.3606409720278478,-0.13664836647797388,-0.6193087586289389,-0.12059572558815441,0.12670974667834595,0.1482741001363002,0.33164683755135144,0.19620589262785162,0.2365514578240869,-0.17112446185384822,-0.4544630374472281,0.21420124975721958,-0.12673854451820665,0.13881886559097614,-0.06482185799648248,-0.03829797974118954,0.2929359406155511,0.2599245832215584,-0.924163759521445,-0.6043805955287754,0.10194130169425177,0.5609252782986025,0.8128441545844428,0.1916610725949983,0.4260751812056371,-0.2599644413831584,-0.19179799646896153,0.41294171054547396,0.3415027443467928,0.18897703112743927,0.24927492516006994,-0.32228253753350244,-0.06661061482924496,0.024339087940961488,1.0040798145868344,-0.21852757249464677,-0.13230654837228545,-0.535539258998025,-0.3041345402301556,-0.3376298696796854,0.46986163942420733,0.5102852353164627,-1.0020375136353288,-0.06166034454369466,0.5553179189949901,-0.25098953502896904,-0.543694383685332,0.21301662938232538,-0.3742169546355282,-0.03714837575793909,-0.6508718967191934,-0.10530125754880629,0.012420100045477176,0.04249015399437701,-0.6675475246561633,-0.43849671200808,-0.40145798093728297,0.707648221803954,0.6127314168408564,0.5399058073917339,0.2505373472467543,-0.005825801749892524,0.15326555299017153,0.2683984984946435,-0.30197311166190877,0.226770046992161,-0.49454299749391106,0.125241445632834,-0.17329326231595912,-0.0698063213821971,-0.13600050785952514,-0.018100845831088633,0.2544448188305678,0.05413770780774012,0.1796682112079861,-0.0868224705852763,0.35360133956121276,0.43801848555171924,0.09215484690858397,-0.1396919810461005,-0.14924672209918982,-0.18478146988570152,0.42528687271201215,0.6683321158385064,-0.024850957217461982,0.052568082312095026,0.16912339719821895,1.5286882615533963,0.38406916675727354,0.7935711426214195,-0.0013820175922046702,-0.5775273896927373,0.0033484166578921274,0.007435727002324192,0.05064900642467692,-0.2037711878346889,-0.46174864163057294,-0.22774279383681573,0.2316812066057531,-1.042069283730174,-0.21757559523689632,-0.006574596703143362,-0.10600619816933252,-0.22851195925232695,0.16196721444009146,-0.24313350290260735,-0.9108481506892064,0.18775078495595868,-0.46198597688136384,0.09540115048760839,0.5618479205271047
0.404616458906783,0.3175833961888939,-0.04131739088791758,-0.743839985868407,-0.18961545953258432,-0.1267626148932502,-0.3710973710954785,0.7592847232284419,0.2868663865285628,-0.3460072306108788,0.7728520722589215,0.22796538286843937,0.2680871667416452,-0.5316195245437325,-0.49648739315099844,0.24489551937800677,-0.6664446174396254,-0.43257479070365773,-0.7451477702639483,-0.3481149140707587,0.5202135559913146,-0.5722818345065426,0.6286942188677702,-0.03878650528496543,0.2818263832888779,0.7424360237848163,0.6020744329391716,0.34119714215896896,0.21627373152928372,-0.16247806216520197,0.5290955087879626,0.5945338258764639,0.05870107605049565,-0.4785303435718475,0.02537720639167573,0.10019171911504846,0.4974083205352162,0.03356823101641056,0.16557543523370102,0.7876929384179879,-0.006555632373104651,-0.11794372447072721,-0.09696839060251235,0.2795767371817732,0.05089198342939302,-0.48929900748000515,0.14063590143169402,0.2048120280020868,0.6602021256285167,-0.36910493574479747,-0.6236552258384828,-0.2083831262847249,-0.41050722904183673,0.36666454287297057,-0.48189836188137997,0.6167284121127705,-0.4637578711950458,-0.5050301640619037,-0.1654760012820971,-0.07869519235579275,0.7047931243143284,-0.18779466152012114,-0.25453075704270367,-0.48848042481706333,-0.21130190993813666,0.6836973494860868,0.16479096964802223,-0.17971167019202947,-0.16000876277105294,0.11322397262719018,-0.07708905038899172,-0.23415218830893167,0.21515343740035803,-0.5294718065680466,0.6616084631296164,0.3876149922714579,-0.1260652390436153,0.019838975509322284,-0.050827811122221844,0.5778716023671351,-0.15912233662755082,0.3578052714919251,0.8284332045543996,-0.4124128606855966,0.027164468072732536,-0.020154629058333092,-0.22719918782131468,0.027300598030189388,-0.24256735445852623,-0.26080808700859864,0.05806165039610746,-0.8817037998194821,-0.3877338515521215,-0.47693498003920065,0.6241309274159291,1.1158981571421323,-0.05016456117510952,-0.2573243898800751,0.10560170944533423,-0.17666717440179672,0.03906818605072531,0.03551952926131737,0.7623062942117452,0.6423205818477814,0.8793698339872922,0.8394896375996853,-0.1892365742202677,-0.03183596874111208,-0.2459061367792029,0.4361503016208939,0.2913497217553386,0.2903889788874217,-0.4442727733653819,-0.45992523991291395,-0.3308910494597102,-0.145139149008245,-0.38890403266474993,0.5006501957019106,0.17148881468243593,-0.6932184085901963,-0.18257388784349932,0.07802227721378768,-0.5704136939393145,0.0459091448382755,-0.46395248846618664,0.5372599759609338,-0.4103400167292762,-0.08757484144140235,0.23303604463701438,0.31733792540287226,0.6736388034429904,0.07356905826766626,0.24903636388824882,-0.21204450205833397,-0.7137035412378876,-0.4476848752472138,-0.5368858778439222,0.7813515361172423,-0.5253198166511176,-0.41987622219675796,-0.2331203242712643,0.2201368699654909,0.08566622222553875,0.14817749286960455,-0.1158110162593537,0.321519848246824,0.6486244100292106,-0.5804301077260854,-0.19453348449177302,0.7180567107497356,0.31883431813023644,-0.1192357570421887,0.7805921464933173,0.650654469790028,0.48119804638695446,-0.4038950193278007,-0.2591177499564275,-0.15216727949883513,0.15365447794025083,0.07638636314225061,0.053779519695884806,-0.5447176205155092,-0.06322703021272824,0.37113784867394806,-0.5731813424545348,-0.22295137613572621,0.3076500628329402,-0.13031653886443723,0.0811591466847161,0.6088015955259389,0.2826365283952429,-0.20204725282823033,0.3912548576509159,-0.09340768447069916,-0.24071646075832503,0.0629293551674496,-0.5093382478726725,-0.30297477118575983,0.07757775375320584,0.8314217478797615,1.2527155949932642,-0.07700766584243322,0.015521150161684193,-0.3747273202413343,0.011327415890008291,-0.8592567947097199,0.6804221590943503,0.14945835246046088,0.7751049428433878,-0.3128504539590676,0.5694612235871284,-0.06499616033949136,0.19236849847646478,-0.4302049364897234,0.008786501265790147,-0.5287373161233647,0.2426644778544133,0.020738293666263986,0.18715061946293488,-0.34093286331178785,-0.6567673290081795,-0.07899813735174277,0.8177983130610138,0.40784488143640074,0.02624332122015924,-0.5065638454834772,-0.20858443024647308,-0.11654498005780983,0.22787172180186646,0.07537753443161585,-0.18374514923858332,0.5546248978490698,0.32041047973822445,-0.6545627238785964,0.13488979908579296,-0.04178986495649785,0.2556272622861756,0.27674434716985896,-0.15202145226128883,-0.016373983855969634,0.31701770518548283,0.12212547884597412,-0.3303100110826028,0.3513937906568406,-0.401300231547606,0.2166907661452571,0.7425626142062912,0.37203539868440827,0.18941522979625472,-0.8270302959781896,0.5278617143729176,-0.6385334183346479,-0.9046323863029984,0.4887970474226159,0.24541900882879536,0.43065250367173313,0.23712986113356568,-0.20738265522706373,0.4447142950037351,-0.428066395064971,-0.5971015909685318,0.596675959378587,0.20469740572822262,-0.07070101837254632,0.31269607469506,-0.05443188933215321,0.23551620768131332,0.054215281168936306,0.6783977619827053,-0.774683304000582,-0.23829098365418053,-0.7108145996986492,0.5532705319472525,-0.18872548310648124,-0.2430965671865346,-0.8926292511397365,0.32138764939085845,-0.17030975725275507,0.03055928872165053,-0.536800931408587,-0.19654097543749205,-0.09976804088144998,0.39777310499367424,-0.21499256233714,0.47502817445760387,0.2917655151748962,0.13971559645528933,0.09152478112362657,0.345204813272132,0.39758609119586025,-0.07403096379723444,-0.2562782174466832,-0.39557399863441045,0.26815291692731963,-0.003374346939141896,-0.47499553916639126,-0.03647948300627811,0.5485027540017645,0.30306486729032445,-0.17174520076662367,0.7131032593070595,-0.0921090236573533,-0.25277653336666084,0.14869472135804176,0.2323461882222511,-0.10559117810593363,-0.2818531130348372,0.392190751470059,-0.03320888527678509,0.39862919912076267,0.23464733452046285,0.015736545051341345,0.10171730474299244,-0.07547624244920202,0.21848292334191982,0.27067427232778557,0.320981997433286,0.17111841296901023,0.08840772721640813,-0.06707447288216717,-0.14545021851721748,-0.3982008656911849,-0.5075423819408125,0.08066351192107209,-0.0837401654074933,-0.7373918235908703,-0.1846902431712818,-0.38937951151925304,-0.4704744490972013,0.14153276955691219,0.6541051647203092,-0.4206209097632398,0.32616291925942237,0.2793030499249799,-0.29593932904963927,0.211793369576795,-0.2931180632336521,-0.5160512741415064,0.19637873432492,0.31645201319050703,-0.30568399713282257,-0.43759852062570503,0.36391737296102544,-1.3357635098571763,-0.1280318174206011,-0.7379242843276634,0.29331892905070617,-0.16644821532901818,-0.226358421670192,0.21717440129208956,0.26964110205787495,0.006803929939392721,0.8133103887877237,-0.03652225505535542,-0.31973502118244196,-0.1699157288045747,0.1325129038391807,0.5684012284630985,-0.4789260906325758,0.6254520448878194,-0.0908840269531037,0.7585571129523522,0.4645592803639731,-0.6352034988765903,0.09322957624528129,0.17978318322309803,-0.19193595169159686,-0.01107692290581343,-1.0762231912339988,-0.08808585523667355,-0.03785911130925592,0.07254656805164611,-0.10005964015412538,0.10126738637425406,0.09422463157644995,0.00834713601813788,0.14894036632357935,-0.035282086527695496,0.03205559048397399,-0.7959062596211135,0.24607338553454716,0.30037519206085694,0.05679196254562909,-0.5387129809764967,0.47358757794452505,0.17877748757823148,-0.4186712413111855,-0.03085650986175718,-0.35625523760922273,-0.14189394356885054,0.4266110286423054,-0.5845356156539833,0.1316350413567912,0.08949687180175388,-0.537999018229498,0.40113384616230746,-0.3811681564344445,-0.43643358682249495,0.03942246042507003,0.05153193457573054,-0.0077040273463384904,-0.09645792089916864,-0.19880809952584555,0.07263167709830734,0.03652035207493134,-0.07026865546900059,-0.07539595138709275,-0.3896175954501557,-0.4349694073201186,-0.6546798698264179,0.3958984045362451,0.5095293686022243,0.23822804633105626,0.022230585073424416,0.4183144999087201,-0.41438798057071785,0.5062707764824792,0.5346376870489786,0.13957850402384786,0.5736684568964873,-0.3177216422080619,-0.27954922987093267,-0.12838195023238924,-0.2706448090705011,0.6282821568806101,-0.36622067087206184,-0.2054672999016195,-0.36047023985879323,-0.1674193514635078,-0.30535193459016746,0.4156729639459744,0.3112379012679519,-0.2265879951965657,0.11978262419698223,0.46795330069126184,0.5311849321411095,-0.17369105975313953,0.2658421850567864,0.0872678850595069,-0.469335390239982,-0.2917357305121943,1.2097700960822855,-0.13327014519944197,-0.05119258631361377,0.2858886624047521,-0.4883762374537422,-0.2981778933998225,0.0014357042104538862,0.2553769721789973,0.07095331959548178,0.01628836871974867,-0.07071080216683594,-0.0866546131660774,-0.274865620819126,0.028007236727584463,-0.1576663839500844,-0.26383794900035085,-0.6175237204221401,-0.1536043656669064,-0.01631186736673728,0.5798643020710288,0.1314436716023807,-0.07232038551240372,-0.351212147899161,-0.3298378349547541,0.6631806029106022,-0.4355163610233937,-0.12234847109064809,0.14738172828818938,0.04207799060262324,-0.22796853121106317,-0.3265883768709122,-0.5766466953236583,0.4537530923866143,-0.6666908592940708,-0.08725820063721959,-0.4988208735076483,0.29039466593302926,-0.04650891442364602,-0.10422566730322813,0.943107136039426,-0.08810793455187983,-0.40931680175895024,0.10647361234242718,-0.47831578298117533,-0.8411502035410321,0.3777455510897196,0.13681630881832496,0.5249978819777026,-0.3000523456836077,-0.3721680643506457,-0.4250969244278247,-0.013586558534567165,0.12611960914923592,-0.04486690178794697,0.4023476213502408,-0.03919489933709074,0.3296789260827144,0.4574730973033928,-0.37160704764957425,0.7418984719065592,-0.2998981110433318,-0.16044227391443155,0.042978819714673815,-0.29861817158907883,0.3159095904966985,-0.19657517771064512,0.04215795966201222,-0.13828091597346678,0.2843612226087752,-0.7893421141793368,-0.573993235822973,-0.13457192250952948,-0.6122246081269087,0.02825259019209113,0.07352082507553855,0.03758064849938766,0.029719556171793466,-0.39953007880982777,-0.3810332230117929,-0.3148342236696877,-0.4183645756653569,-0.6383583814646071,0.10182626530253178,0.47974262664872014,-0.16037171028771055,0.08428413594557599,-0.3120889303623608,0.28532611512895933,-0.30833498591134845,-0.014911332215972621,0.39883443244400923
0.4524749194662841,-0.5619850550598222,-0.6594885671846547,0.3203280570335411,-0.29649671452987547,0.627138803612036,-0.829353047536913,-0.20495238844644137,-0.3544904383529477,-0.36776767002504573,-0.14190262269200737,-0.14668044004927597,0.6431694956246293,0.6649906088810728,0.006452966543855901,-0.12801185871143053,-0.16273905732778793,1.22497686968684,-0.18972009073668514,-0.5019004878513499,-0.1419858063305572,0.2550779219656151,0.649919962413083,0.046000666152643185,-0.02231688992704466,-0.17424974324049874,-0.26510129252556724,-0.28001278571897276,-0.5321072457554721,-0.2007351441248532,-0.2828076296786808,0.3677476427576312,0.018866530701864108,0.003398367823689846,0.11763747001793856,0.2947777207988121,0.7157742148927478,-0.7151727336434558,0.04219686816674489,0.3468300477656212,-0.35629329298640355,0.1487034431056559,-0.44710739239500646,0.3345562772707579,1.163250858839954,-0.041969149353676814,0.3082212322734414,-0.6300359638777603,-0.3771319807393779,0.16158326124168887,0.06113024495494958,-0.3496066354475598,-0.474186324208511,-0.4022134878579018,0.20671751242755879,0.4555820700197162,0.42432938236612877,0.1077841727592899,-0.15902676207805008,-0.026356812825183616,0.12144860959952525,0.14362197841717483,-0.23440578246311325,-0.3099620143449774,-0.3709214313677138,-0.22026276422930768,0.32655523202222625,0.18812512962076952,0.24129773729892878,-0.37522891056832286,-0.08366394692853962,-0.29956433921029524,0.40162341600946366,0.04242603220787737,-0.3860202775566967,-0.6460659831129587,0.42572495375341074,-0.7665391654494857,0.38802366300681745,-0.19406505363346058,0.38984313929731185,-0.046247434020541094,-0.6339016264134493,-0.20399396100204398,0.5572730367781862,0.01421209747229243,-0.05506656172997215,0.5105560829941096,0.03351382643028941,-0.5877532647775018,-0.06446792146918671,0.07961582998552694,-0.056938886672718715,-0.44561026332643566,-0.26276550369806523,1.200798971554049,0.5758832079660154,-0.9261801472928235,-0.10849615312857248,0.9454965698881,-0.10783845976973207,0.49408138358803516,-0.2700624215643011,0.29704980674531284,0.37977382562577167,-0.36761841089351455,0.6438182184980116,0.38181119170960437,0.02385861928571762,-0.16021799320570312,0.5475081122516363,-0.18526040375005928,0.5345912132302731,-0.4147658656930914,-0.11989803112126139,0.20076466527378029,-0.34562503887023244,-0.49741670640348157,0.2778590909306537,-0.30930080897455203,1.0497904962016111,-0.08777989109347172,0.046274630212533994,-0.05703841516115563,0.5513076710825425,0.018253602067230697,-0.13652444455756094,-0.32519826341243574,-0.5864683236484121,0.6765939936005944,0.15787867452579124,0.03835548307957486,-0.3349693693196749,-0.017597144001872303,0.12617975531873662,-0.04889569283924771,-0.23992895175004778,0.35429678723487373,0.9152100917919583,-0.32841367057413773,-0.32992093107432213,-0.37173919490722324,0.456207375751703,0.6473929552705284,0.06189645841861904,0.10547648844004007,0.8865097812544557,-0.03410025264816748,1.1705465981224303,0.8116439832092668,0.2146316497867484,-0.35457566913754446,0.9348571563334722,0.1444967834374263,-0.02313788884007134,-0.23414107511673915,-0.21639310687280927,0.12339915221024823,0.24076107122439194,0.056295389954515974,0.11045603182347621,0.4697575584296224,0.05564653221244875,0.2463404189592132,-0.05185081921100735,0.34489753676972185,-0.7785496841879121,0.19675015859524783,0.13408757570918253,-0.6654821582007889,0.0611882170718203,-0.4490582246381557,-0.3752553444458968,0.11330355308183057,-0.8275564860280403,0.006223963460305577,0.3004264297137535,-0.6143117599216219,0.07495151031804416,0.2159002957292564,0.5546709339297825,-0.13995222748990768,0.09211135952748332,-0.0972618167488996,-0.7252764178477242,-0.21901304423281137,0.19186655125209168,-0.22431650118458818,-0.1895520666086977,0.3225630520070768,-0.4043417499930128,-0.3092693696771586,0.5223474667487795,0.12162189834006921,1.002157061535994,0.5809331013696132,0.054012619256961214,0.20709624051553666,-0.26451532811760986,0.01921929416069837,-0.0012293773098661764,0.01936271108119375,-0.5372430355696357,-0.20446101417949983,0.38586904866604294,0.3371514141101619,-0.5023547944499409,-0.36319456469594585,-0.5592745173448913,0.1728808599479548,-0.3300065920603507,0.5090072797723756,-0.7106608498880571,-0.35092670986989083,0.017385379460510112,0.9509797180689334,0.7056532617055284,0.23474416106908702,0.06193890897922657,-0.2760561555515273,-0.021137089084301453,0.22933124966287557,-0.30348957326929765,0.10647785793989852,-0.11832287493642417,-0.10062689866600402,0.6523715010669084,-0.20510003016395315,-0.35877293198903565,0.22118270445798288,0.46909967231274197,0.36303561562639325,0.18621131175440406,-0.5393228454808271,-0.10523915736658221,0.3272630411856588,0.06192319295988393,0.1630684569161273,-0.20755718140502075,0.2765075671515026,-0.19599582421706221,-0.005413539108723094,0.5077911084393903,-0.6394438471207609,0.1233488700584272,-0.38920320027570665,-0.2452487975165021,0.5812965844189174,0.20793657192604817,-0.32250252949248465,0.46575437434965633,-0.37767099178405306,0.45164559966053425,-0.16011879898630546,1.1032269592935684,0.12412107685336973,0.3152195568257086,-0.17231901419059417,-0.15975828266522987,0.024722165463359973,-0.6819336768454505,0.03686739173260885,-0.16198193044316944,0.3098039101476803,0.5957252987953633,0.2990411923232122,-0.12855156509001064,-0.12177335366079134,0.5051805298019386,0.09147641420125888,0.14797729297731055,-0.23057420815150786,-0.036811608039076425,-0.2635880796044875,0.0036489794639584425,-0.7949260835190801,-0.3208378065409696,0.21443352258901174,-0.6512724374093419,-0.06425452061729471,0.12943840625809136,0.7338011653525357,0.7748683228120717,-0.05950161622030853,0.7676809602061857,-0.1458089416967587,0.10681752275551423,-0.3944486979582558,0.40483525228176553,-0.2751206955704281,-0.04202291938419402,-0.11954502864158227,-0.6129367591097314,-0.15656353696344566,0.5568107901825106,-0.20825018756122204,0.03319089501710522,0.5024824839060091,0.11383304193000746,-0.7143279896412142,0.7362161553832541,-0.38781084237070557,-0.5287008075080131,0.5593027513335463,-0.7097730382508962,0.014453272973119956,-0.8153441372661637,0.008836702312577901,0.00022595548420636163,0.4594439352300746,-0.5108374911848823,-0.055934163107580294,0.45816541868719357,-0.5793136882604782,-0.19856544321230746,0.2350048189024945,-0.05017367870902821,0.6079597151945417,0.3095636720177499,-0.31231344392028515,-0.3910363897625025,0.018810705460499757,0.24228296364435128,0.6232362184938577,-0.433158067152207,-0.11017750348404777,0.050583923043919066,0.6332049969040148,-0.5610201805706976,-0.13214210883108374,0.6362910728222196,0.6303752583693208,-0.11166114162329493,-0.06399651638050764,0.03597675716779524,-0.7283014003176226,0.4107122354575342,0.2844048667864821,-0.298857864255725,0.3284564827147239,0.40675500230188555,-0.0951491402140077,0.26791461514366527,-0.7839404706460381,-0.1656314759448794,0.18827999890590894,0.302191177494234,-1.2328182273402473,0.4647062991007399,-0.04790177950144701,0.4908703596617733,-0.5413820004612834,-0.08963086820712776,-0.5232907599817911,0.025809386368002177,-0.10049607909076293,-0.5297192654144268,-1.1141673236751781,-0.35248521491997115,-0.1442480522371132,-0.8161326787309624,0.1849351255926897,-0.3246908480046381,0.2431953907885926,0.46642209723776423,0.7887748319941709,0.1446602531676896,-0.03508699891108196,0.3016026372441288,-0.12818746827188818,-0.359603969776751,0.1277876335850337,0.743888112218158,-0.5235664490111768,0.47065101623579275,-0.45942140132119935,0.16484157126182147,0.32393566173915167,-0.5431951485130062,-0.5793399674485173,-0.18732588127285502,-0.5113436570611612,-0.08279995210956935,0.29100581729002706,-0.251196533094451,-0.22905353961426203,-0.4899864294559084,0.8139091773067701,-0.40815386622582916,0.40802302161104304,0.2675354037036048,-0.04003499602594943,0.08479900516657457,0.15886657867413634,-0.742431581984725,-0.18108477189733865,0.34478657998983014,0.30791862248103435,-0.8173848953881209,-0.08200229709982415,-0.21424597142855806,-0.23361756915844137,-0.18843936989892476,-0.2710204146590591,0.1287200350604617,0.1563806740764137,-0.2538018422341758,-0.3564550280789812,-0.01563687519314597,0.25574948633289113,0.10147239241347858,0.0007049250157464136,0.5112985593029729,0.013810158081012247,0.10388067010295876,0.3220397880391052,0.7008232443302115,-0.8225907477976887,-0.2618158527649118,-0.7718526355523558,-0.10411831007329109,0.4240763904823,-0.4008323113218674,0.21271435912157077,-0.2154874949534144,1.0132370057348778,0.18957445931612066,-0.1567272520663405,0.43338726297762614,0.32955329758017704,-0.1791496303413662,-0.5886481455908767,-0.062282966729287605,0.6617011994483741,-1.0257152666672145,-0.337116615525136,-0.015892109750123416,0.1184296394104669,1.0067047281999588,-0.3788946436561413,0.2136382291097015,-0.23287463393313865,0.3247330075608674,0.2632460484109892,-0.1609383359285615,-1.0379193868831913,-0.41657814055981823,0.7013096101422586,0.12363348842666733,0.4631445251351922,-0.0799275751280516,-0.3823893513647566,-1.0055390648579632,0.32922106830301545,0.3569449921696531,-0.5460165446243558,-0.7803101773073342,-0.39087296594716286,-0.3149666342150488,-0.2020818723991478,0.41801246005429643,0.24690825977630287,-0.1225984300770888,-0.7065216200797233,0.30126377211909283,-0.6468790346641651,-0.4705988777114442,0.3188859922054864,-0.9669405440892074,0.028474979187440227,0.1487155186277572,-0.21759440100883123,-0.1583442919313868,0.6788164079349275,0.4698112785118038,0.32342727535442234,0.41539229548082746,0.653093756183359,-0.21228782921183117,0.39069907392147746,0.5098798886301322,0.6377194651776552,0.30096958130123913,0.23361745984722018,-0.41276021199172014,0.16596835555566433,-0.7700131538330699,-0.7632843105452878,0.21502833033747895,0.1902259693154037,0.02066626307988949,0.008682753755296682,0.29179432355941093,-0.8657855312650004,0.13929694472290177,0.6108033998559743,-0.1686305918125845,-0.17687895287726296,0.12207306082103099,0.20341802900180045,0.28817630078740647,0.3283019398635993,0.07639922071152329,-0.29508779186783335,0.20436911078912304,-0.42015549916167927,0.4741613194731839,-0.31630584450329646,-0.4706291969436371,-0.19700150526453472,0.6392689336146021,0.4377464974216679
-0.030620848484944164,0.08052925560558055,0.1564992271119166,0.13870252311909517,-0.1514391420787997,0.016636792323749507,-0.7640637463881085,-0.07657464642839304,-0.30992201124158975,-0.019064426144661837,-0.0394474167014699,-0.35992296046355904,0.35799631596973125,-0.13700926181901002,-0.6602476782960734,0.6452086058923238,0.16088905402733666,-1.0261483715216264,-0.5278353805921748,0.2977475015346576,-0.05367187307664725,-0.31198963137859853,0.1876881327944269,-0.9087259261116503,-0.4203038788788225,0.1108389700113031,0.06538124943177483,-0.3246050893737618,0.4335047675498633,0.43304474787391345,-0.08615916178299483,0.47846066576988466,0.2162835610011019,0.333176789989033,0.5146699404285792,0.239119646870219,0.15502712855190393,-0.016169584805667783,-0.11748997124921487,-0.8854182223332329,-0.8618849929769753,0.7029644007050408,0.14217142324200807,0.5335720776702368,0.14393644448131354,0.085783612100485,-0.03793475110154213,-0.5894145676445359,0.675766773150011,0.4236075127734102,-0.24971431500760577,0.18918496030862486,0.16736202640934666,0.0561686445868036,0.361360793995523,-0.31739970570240017,-0.16083372218140257,0.8167381379350229,-0.029012956715812794,-0.41103065418984475,0.44210199957369245,0.014346929305268779,-0.13469339017495724,0.1131919319459255,-0.17105240046202208,0.4029354526667986,1.0545895401605818,-1.032961291271024,0.04323190610866837,-0.08368975824002367,0.3641369094382058,0.27947119678472426,0.06277777899471886,0.6691979776317052,0.6816633164033776,0.07481111909673158,0.0956339438736374,-0.1997513585187656,0.684724902738287,-0.18526674003415175,1.0337220543024852,0.16822463613732608,0.12438251856249179,-0.05579973907974491,1.588482252968098,-0.24389027235953548,0.5903033914794305,0.1678295152010783,0.4369814248906716,-0.1313187587693825,0.10788380049491401,-0.8129936290920823,0.4440329562035416,0.5274375051561412,-0.23403459329153703,-0.5515753609279149,0.3147302230803317,0.34492553573609136,-0.7244248465615905,0.6465511217028591,0.4888858473162503,0.04017632798767048,-0.012783168910921515,-0.5239653244739338,0.2899613313243449,-0.20744820123760987,-0.05910650486464712,0.14823723975639447,0.4286878183653139,-0.8661859665857378,-0.055562562038013075,0.4821040737983138,0.649101019688836,0.24113602139125329,0.4676485273627392,-0.08274258365267863,-0.034029699006058046,0.19555249580467318,-0.41287485795219786,-0.12961534380924636,1.0178150999230589,-0.06212530399948546,-0.3511752788880307,0.27053612728503507,-0.7126638866974794,0.4266123026844013,-0.29330726080029373,0.44374662945106047,0.1710183107041175,-0.273267057219259,-0.010062635909772896,-0.3191840794743959,-0.4326017418099663,0.17653768776607187,0.5841240207449558,0.2643331158990513,-0.3765719183326778,-0.2785186397032231,-0.010320251671233967,0.5038109243124376,0.27291410441881525,-0.29671388090814477,0.27476328169630426,0.6717295820578683,0.00222237696090742,-0.03902844009956973,-0.31590218018537863,0.08287708941366984,-0.9841606605182689,-0.6713411328245934,-0.07996001579864266,0.08403851431857548,0.049318884661073294,-0.07165846059632998,-0.04076678636085505,0.4225467394366965,-0.226446749657376,-0.1382478510422358,-0.4701880772760587,0.3885368353078853,-0.6448574631911433,-0.4161639238941656,0.8278573929381123,0.11935295444746467,-0.6167316521174555,0.011714272011672685,0.42812869857905833,0.1417965804637786,0.33548215348934346,-0.29012329666705877,0.008605601939745442,0.7956359953384049,-0.3979884777870589,0.02752380113250964,0.3047496216603292,0.03069596986510962,0.42366394883489583,-0.1132276023267018,-0.130827379994556,0.5303991496464807,0.5706102048408332,1.054752718716692,-0.3377884571619434,-0.5297691604295417,-0.24150332429963706,0.13500612805648943,0.42116066518662704,0.6032184394095862,-0.11427341594993477,-0.4282676442953518,-0.4113582277562661,0.26399183385019637,-0.5448269813245853,-0.028715660469194233,0.2834957054516408,-0.035019245807114366,0.08782023330351257,0.4348601730399462,0.3256778207857033,-0.7765924887743357,-0.027278079741658825,-0.3994066115345119,0.408909546374733,0.7132283626001288,-0.7971334234990156,0.20519570196061487,-0.2198152887208181,-0.49845397779845924,0.037728652599272335,-0.9671019367525314,0.31946727005006126,-0.1460740107345275,-0.2991454086920027,-0.6369007193880509,-0.4486162579851088,0.06621508186389248,0.3379719600771366,0.3605121633763132,-0.3934760841416599,-0.12377875195774309,0.06999037903465283,0.5780496622591661,0.3522707137043255,-0.3532469715459262,-0.8609323573820461,-0.09394872513513824,0.3311517331483727,0.3816502327670589,0.03845619537432173,-0.42501336617745655,-0.20455646899818047,0.002646576143071117,-0.34459293816851866,0.11038492532075544,0.07050297606389858,-0.08830471302106652,-0.335488356246927,0.16151906243144754,-0.051918176260235614,-0.31355313382936617,0.5613589106059493,-0.004956957975659744,0.4730389792053644,0.012955440192943412,-0.2460069919681147,0.04644645294906098,0.5031925628244114,-0.11218546243308974,0.12193761966877432,-0.44871206920511103,-0.25772060510566247,0.3492853739228545,-0.46932975720902936,0.7929417944624083,-0.1551063128633789,-0.018029826278867542,0.2274866588011745,0.6750844554366766,-0.41628171428856275,-0.20521094327925152,0.18743428485097657,-0.06490157096617699,0.08063286530135118,0.9032264881422819,-0.5325334987473097,-0.3358404762817012,-0.17453386821106356,-0.03690563021260473,-0.11866578186325336,0.42034408788136113,0.5533174315120934,-0.7323670358899657,0.23138070137024952,-0.16419864618396904,-0.06170814857553213,-0.4103123536338679,0.28609932214516737,0.045766559566179116,0.4873728126379004,-0.31739677242178554,-0.433860417245825,0.35040315081437345,-0.1817766089560835,0.0996232282202532,-0.26531034749996696,-0.4253879738648766,-0.4445550392647831,-0.48886510438911224,0.6178619557115219,0.6247995752541821,-0.7302688743473488,-0.17990712737832834,-0.14672228139594695,-0.13514893052808333,-0.037759727439491055,-0.1478211691379582,0.024048218789363092,-0.0526756200301242,-0.26070180821484396,0.02342331844033564,-0.15199288331231706,-0.7501024357272155,0.17722466634378783,0.06399143760116027,0.3546363107245812,0.4966364511152963,-0.5809473091732698,0.46920933719428676,-0.2919532005785315,0.7014155043428051,-0.034760163351495,-0.29634458967006744,-0.29998198834594497,0.2528193643655944,0.059232981322246865,-0.09582067089113729,-0.6663533116435666,0.24947162126452627,-0.29283107544828535,0.08772852079892463,0.2012836647973141,-0.5543993273794009,-0.14334689534447506,-0.3184949020575173,0.2568343750670562,0.1590685799769954,-0.02071112051750753,0.3756481061488885,-0.8702713176657793,0.33534245961332154,0.35536890958097717,0.45629787135575006,0.2231271214938665,0.8177227563481841,0.24095589946767454,0.08337317891115341,0.11644625212657202,0.09999955944571408,0.1719246382747521,0.4895546453046799,0.813885009796323,0.09944298165735563,0.4472172479852488,-0.01509293662100945,0.10557650824649546,-0.05546825726550425,0.20266718227520922,0.6590213803847804,0.046825279810488785,0.26655844172997345,0.17750155352814345,0.6106305990812964,-0.22453020064122167,-0.06894549021192203,0.5515022986142462,-0.22492886434460327,-0.016561389802747236,0.3613049847255015,0.3904965138718797,0.07581386310674987,-0.3769986871822951,-0.7291824187855961,0.13912904313457933,0.28631311082480965,-0.7759734182955375,0.2467307088558432,0.590686986178754,-0.01064651352647278,0.23679701541109227,-0.5152162149528521,-0.012555393705872579,0.07409602058558527,0.00973880828328948,0.2077572767572445,0.3270323107166991,-0.072331921208713,-0.034217109124842215,-0.19857415163913594,-0.41509814839141335,-0.5932516219576814,-0.09953354752923857,0.3963873929545306,0.23318000592249327,-0.5166095900698354,0.22122494880710697,-0.553230214260317,-0.22480989808350993,-0.2933987314205759,-0.6259156965178457,0.5951042788118044,-0.3030267055757142,0.5652147278423265,-0.4220778967172163,-0.7620759036620844,-0.6025862483099571,0.5324734054035078,0.16755418071064995,0.041973093653232325,-0.8848600950840437,0.1764019203965885,-0.3601257038806028,-0.2753302697620335,0.3744802032760043,0.48572021706523333,-0.22294604051003145,0.08180857348733933,-0.06763738360004595,0.5217446006879931,0.1875562612666219,0.5500908194821438,0.2637580756655232,-0.4239834017806342,-0.44125627524578365,0.2180399127828054,-0.191759775010015,0.07386459876656133,-0.6433381880761228,-0.5154249899693177,-0.17433058578301847,0.42415678294008097,0.6109524925819237,-0.4818916734347392,0.3897073666224556,0.03430480355217111,0.4507680057931081,0.3975578953986501,-0.3607062063595605,0.24053810092893355,0.8138099570924487,-0.44325933425623076,0.17364627578547656,-0.3351787510124683,-0.5505879554170267,-0.40363418253953776,-0.09807699301119929,0.05846296760482171,0.1265718006602644,-0.42167030208659684,1.058513755120695,-0.5347417896340959,-0.047894068010797035,0.07187465885012152,-0.5227562663283827,-0.1177804234458628,0.6854850496529796,-0.28651469598000395,0.47741670235827627,-0.4915723620043632,-0.6821153335332547,0.335089633213234,0.28174220483566026,-0.17586649629945242,0.1904927493497839,-0.14975756775993038,-0.09002678943266602,-0.29345843409069644,0.3484345225917978,-0.40266471674707816,-0.3712320474656688,0.3630472859926495,-0.2682346333071483,-0.020624965998113625,-0.547813329682963,0.010660199892961991,-0.36273491184593676,-0.13081620399138497,-0.3939371769283498,-0.159777549958759,0.08714762947354517,-0.18248201861485058,-0.9127357408585755,0.2239406382606747,0.05045454918544829,-0.019417396586025187,0.2408078207594571,-1.036660380803554,-0.6383085783639207,-0.4350819917897099,-0.677476519808468,-0.037904805171823645,-0.3021572090722013,0.6522268208768903,-0.40468856638732065,-0.4859581031419062,-0.4875245615957865,0.6710444815024048,0.7374120939468193,-0.5368676134163954,0.27009768475086554,0.478469111256197,0.22159019012319708,-0.5938919641145396,0.24199652054183826,0.050450404017801084,0.08045170781430547,0.7394105388105436,0.016744762426792768,0.05113694096993035,0.10761875259677216,0.18829189060576976,0.5632925772137446,0.3512900035283774,-0.5771190845830928,-0.8422075629233303,0.6543291634517652,-0.1392413958493142,0.3851023373573357,1.1110003091807759,-0.18019185693394446,0.022281802896251205,-0.20956988606997848,-0.9557720594060972
